3.398017256600018854e-01 1.076274377389434961e-02 -9.389465553731821679e-01 -1.044413779544221876e+00 8.148940704266739721e-02 6.333704078125568238e-01 -1.950279523824161032e-02 -5.660498448965839424e-01 -1.065985238132464152e+00 6.151542945039838450e-01 5.170804964590963726e-02 7.852852808480169644e-01 5.548807284771096332e-02 1.294922987485012666e-01 -1.734767693438525049e-01 -4.106390060297451239e-01 1.291453336248693073e+00 4.805032252805586657e-01 8.565031167659168387e-01 -1.424906813540158135e+00 -7.447794168000047010e-01 1.244205632784399995e+00 -1.413660652064484269e-01 1.115418911807859681e+00 6.222856802687850575e-01 -1.702284006076253853e+00 -7.710253709102091735e-01 -2.793522323231198076e-02 -6.143391142704691665e-01 9.583824595177976580e-01 -2.984655643231305944e-01 -7.875065273913495201e-01 -3.092807449344719406e-01 3.524438229212610296e-01 -1.920133438487995337e-01 2.892399563803652041e-01 -6.576423426324833343e-01 -1.251658904912748227e+00 7.515594474152726967e-01 -3.385135181920770342e-01 -9.344425311915178778e-01 7.698868420805111690e-01 -2.556608909911715632e-01 -1.123341876516266824e+00 -6.356014704176845553e-01 1.663175742818498726e-01 -3.595888713816864507e-02 -9.508560214284544898e-01 -5.138826500182784862e-01 -4.774017650301946580e-01 5.886695716966814373e-01 -5.372308825031817392e-01 -2.124369910127783551e-03 9.880415523385601695e-01 -9.492062898401450177e-02 1.539317423337814184e+00 -2.107687792024517393e-01 -1.015264041856511534e+00 -3.799052224365910835e-01 -1.077945058690995994e+00 -2.721056174746489531e-01 1.378917565861637495e+00 -2.821527324021400052e-01 1.919059032281321131e-01 -8.851324874325899872e-01 9.145518460446737663e-01 6.151227750689629570e-01 6.969983096572596182e-01 -1.509154219207013981e+00 8.080386622369263583e-02 -3.821244288215925877e-01 8.509622061644530611e-01 -4.860403604428407687e-01 -7.374455377643138188e-02 8.730391073609434782e-01 5.233657947608278960e-01 8.562696173641352049e-01 -4.596437046372710000e-01 -2.430710205984791261e-01 -3.825109320684441649e-01 -1.057944736573118716e-01 1.727972440964931772e-02 8.935863887072406087e-01 7.626539436260658666e-01 2.538873246000695749e-01 -1.449221008621003060e-01 -8.134614279792501401e-01 6.616263309041019447e-01 -5.357068488759965108e-01 -1.072412104555476309e-01 4.326725093930839927e-01 3.524947483229753376e-01 -1.739313065063910146e+00 9.820707400426830214e-01 -6.947081623469446299e-02 -9.821893315943740488e-01 5.378399154878050759e-01 5.204620920266019857e-01 -9.691949055779589539e-01 -1.080412883479804798e+00
-1.569043309672717434e+00 -7.655223161478362792e-01 -1.136320656650930738e+00 -2.843695222353746499e-01 -5.482061427898955452e-01 -1.510613802178196519e+00 -4.637117809184215789e-01 4.690112383450553701e-01 1.155725196225336537e+00 7.501301790068275188e-02 -9.025854297479828092e-02 -2.175483823304025233e-01 -3.236137144611136440e-01 6.358102447766605936e-01 -9.728962367301252634e-01 2.231793119541863601e-01 8.444932018041710897e-01 -5.981635789069232878e-01 3.144462300142359390e-01 5.362609808373809406e-01 -3.883599568311217887e-01 5.028520841635160388e-02 -7.242146663659986272e-01 7.204269106796155064e-01 6.194593072590603988e-01 3.526993852639201954e-01 -8.618325896529697161e-01 -6.306030859463073179e-01 6.401234880058914722e-01 -3.450501252392914608e-01 8.712844468438514511e-02 -7.213447189041924945e-01 2.792307601975889120e-01 2.614265280836986505e-01 8.942679903782646544e-01 1.066471700673385037e+00 -1.040134481564858993e+00 1.410963308199991162e-01 -4.271177697146049529e-02 -1.779625611882631186e-01 -2.046688497676896756e-01 4.107508598968155344e-01 -4.488830580189521746e-01 -5.749900199463633399e-01 6.619924546908801943e-01 6.493355102033288029e-01 1.695714788242030646e-01 -1.562091513930688458e-01 -3.130933891326238561e-01 6.546818882457691169e-01 8.061582013098158583e-01 2.630776911339284818e-01 1.556442285344902254e-01 -9.111140799338423024e-01 1.104434833560646034e-01 -1.597795505365090740e+00 1.771606215888340552e+00 4.648590237839396733e-01 -4.192676050791233622e-01 1.452989247373143833e+00 3.478940317599959475e-01 -1.847531457806943223e-01 -2.856666862860033351e-01 -5.589675561660391034e-01 2.456880824144818884e-02 -1.345604843580784915e-01 7.059883643745772375e-01 3.891024581450481246e-01 -5.040925144057852858e-01 9.499645491066572855e-01 1.433008792640662610e-01 7.621097288315430429e-01 9.439242771028074630e-01 3.775608482372117547e-01 -2.210366704058021603e-01 -8.840978138760818839e-01 2.377670360386767434e-01 -7.336413107653879662e-01 1.215820461721039747e+00 -1.539488766414865539e+00 -1.567144889640418315e+00 5.888284636685090501e-01 -8.362855150234873580e-01 -9.384144697134977342e-02 -1.097847543644491886e+00 3.485872920166586120e-01 2.751907848333450812e-01 -1.189499429553368737e+00 8.781236557306860702e-01 2.937792956085551466e-01 9.210439311676129615e-01 -7.879311244659841229e-01 -2.225574910303696752e-01 -6.852226188403103269e-01 -4.979145049252444166e-01 5.767905138513503838e-01 4.496690350536410863e-01 3.407841790388981273e-01 8.520375137262729826e-02 3.703963715332103668e-01
-1.916556098163112176e-01 1.430729439519370594e+00 3.938300780279213043e-01 -4.052428565804668814e-01 9.365363274642800606e-01 -4.381826836008454462e-01 9.552704310374078300e-01 -6.982911290825720707e-01 -2.248298661523304709e-01 -8.902018905333465293e-01 9.877220376015390102e-02 2.594325962133033903e-01 -3.128618685714573688e-01 2.718823016279128257e-01 -3.102874904579583371e-01 2.177087685316760335e-01 -3.440561585256775023e-01 -8.164069038457903993e-01 -8.332737987702046878e-01 -3.687924754584190890e-01 4.219492542782797284e-01 -1.208718243347849386e+00 3.557813384212829000e-01 -2.736921363658180728e-01 -4.668056537026480934e-01 -2.007049366708782756e+00 8.061737152296163389e-01 -9.394435492180988057e-01 1.312055789835270048e+00 -8.594513008757345141e-01 -1.496300932521848863e-02 -3.776854721285569094e-01 -7.411589384615684395e-01 1.031371827482354675e+00 9.350658152154617264e-01 -7.206628587317341905e-01 6.096953570049863658e-02 7.267489705450658199e-01 1.524107557042219341e+00 -2.710179503953876606e-02 -3.079701940895200329e-01 -1.090422574680886880e+00 3.978869620028063075e-02 1.435265006519856001e+00 3.729890583981880781e-01 8.123138692848288489e-01 -1.169424712426763158e+00 -1.842101841637440729e-01 -1.129842981578735861e+00 5.081902237951966272e-01 2.343451915417744669e-01 -2.886111883567192837e-01 6.706487502762076280e-01 -1.115773915705283725e+00 4.958609417029470334e-01 -2.783900729226490012e-01 -1.717080133194886782e-01 2.733644415593089461e-01 -7.356138229773441228e-01 -1.461449897302933065e+00 8.001032448003952968e-01 -3.952744954942099542e-01 -1.021662486358018374e+00 -7.251770884625188263e-01 -4.468799403033004158e-01 4.174288200223434941e-01 1.307084515206002884e+00 5.942819284079177145e-01 3.115212474668911380e-01 8.368556916597638118e-01 -4.851814413222840239e-01 1.330540247236837947e+00 6.017947000619793263e-01 4.123009996608185124e-01 -9.379974366186571988e-01 1.425390744432229462e-01 -1.656447580467612646e-01 3.947976631160617367e-01 1.944512534993700359e-01 6.671909679893360812e-01 2.593985473756297080e-02 -4.032590191890428333e-01 -4.591311676290288912e-01 7.526582536485607600e-01 -5.475613970488083515e-01 -6.414885248940949136e-01 -8.930127570036564544e-01 -6.313948750763772599e-01 -1.157364757985033910e+00 -5.875677924300313215e-01 -4.730786769130416181e-01 -2.929970446517347615e-01 -2.974715383628099424e-02 4.699156100848528306e-01 2.454766681271623452e-01 5.525481010821647193e-02 3.030951775742413146e-02 -1.084972925720763398e-01 -1.531514369587198832e-01 -3.877358259444023680e-01
1.484109003328680565e+00 -6.727794200627832399e-01 7.192660208070947858e-01 -1.610559948741420444e-01 -4.658030930630122635e-01 -1.639828527367930056e+00 3.032435308326084100e-01 7.802904148497433190e-02 1.007182700517739837e+00 -8.630010575497726322e-01 -1.249364463494929467e+00 -3.853770913000713061e-01 4.341493233005594421e-01 -7.490787159522909189e-01 -6.787918571217012031e-01 -1.421620740897129309e+00 -4.763804430880559937e-01 -2.376625082502656083e-01 9.756482336171145020e-01 -7.400154193859448393e-01 -8.664241980748901284e-01 -9.850388568700271241e-01 6.609913433051078924e-01 -9.994282634382427588e-01 2.619366349189042320e-01 -7.373329578330924949e-01 -9.549382575547401553e-01 9.826428651629838251e-01 -1.065771259792780978e-01 -4.875795934697549905e-01 -1.446676951682303036e+00 3.228564694785497902e-01 7.826421732367597195e-02 -6.320758488314646983e-02 1.518755491672729441e-01 -3.080014136805765967e-01 4.789795373029763770e-01 5.845251828245942027e-01 1.391337055922098331e+00 6.077010115362294629e-01 -1.257879148654451162e+00 5.409538898443381205e-01 9.015441971361080054e-01 -1.562388883977040288e-01 2.242041306805634127e-01 1.162904089058841794e+00 -9.767885917310029642e-01 7.219763324579556718e-01 9.634586924507480832e-02 -5.880604219125802334e-01 -1.859667106818481963e-01 1.220221547326627798e+00 -2.016132331681435852e-01 -6.266167683162631175e-01 -1.257882162533432435e-01 2.624212510055830005e-01 -9.173379064476170353e-01 -6.032450427070675802e-01 7.550752711121243577e-01 -2.015170306598459971e-02 -7.603255059579907549e-01 -1.210607098299248813e-01 -1.194722833579606736e-01 -5.831346989365645550e-01 -1.251395496500997462e+00 -3.691903376628489775e-01 -1.003482077037815223e+00 8.260599629026764701e-01 -7.751021591101941999e-02 -6.291955697207331222e-02 -8.538773914420414446e-01 -1.135919059222158189e+00 8.904135527907132142e-01 3.022465944346878208e-01 -3.853190659789825223e-01 -7.672183701060565353e-01 -2.576985456028351718e-01 5.660599593741337809e-01 2.952984314922408315e-01 -3.258979895465161647e-01 -3.682612079731701904e-01 -5.195570077551543431e-01 4.950232805122606328e-01 4.995561141385803094e-01 4.228123474767983558e-01 -4.534111015743689799e-01 -3.287296344913483437e-01 -7.466610430624170958e-01 -6.732504199347415230e-02 8.828332183121658794e-01 1.817054305660359415e-01 4.830430188162330163e-01 -1.079167423272955478e-01 -1.632214141585354383e+00 -8.052054568526199885e-02 1.591359810221772753e+00 -2.812669473104306150e-01 -4.056012532618575306e-01 -9.103691010237524583e-01 -1.694422816048669067e-01
-1.156789137656646149e+00 8.666612100646731154e-01 -9.989465564584182333e-01 3.361168661900185706e-01 2.333699885896492188e-01 8.805083787357727010e-01 -5.877803642988529420e-01 -5.350529238617059979e-01 3.303437624314410903e-01 4.545012033957697151e-01 8.960527956879418277e-01 -8.671503819034777072e-01 -7.043413033647596411e-01 -1.074300715452534583e+00 3.763658799333611804e-01 -6.564225795560200138e-01 7.862114224762392078e-01 -9.764700027737684973e-01 -3.779591607476074366e-01 -1.152384156736408899e-01 -7.414265866171894370e-02 1.496663297604861574e-02 -1.276109216828247512e-03 -3.723032718231060745e-01 1.612600165116594708e-01 7.106622646156167677e-01 -2.183148511615222442e-01 7.339326768390381783e-01 -1.033115229324089723e+00 -3.406355269614187442e-01 3.987278036801578107e-01 4.895068565966734231e-01 -5.412891788439234686e-01 -3.609911241630809897e-01 -7.487902250264804049e-01 8.688242180679155435e-01 4.665053874271457568e-01 -5.024094955864828460e-01 -1.039711055060254630e+00 -8.124826345603395339e-01 -1.776793534601315283e-01 -3.525589032105962417e-01 4.037066284598163080e-01 1.068149166912303327e+00 -9.442295477791233516e-02 1.552169009578222188e-02 3.895142660039507820e-01 4.878741739718215342e-01 3.738764654989008562e-01 1.664645821001838000e+00 -2.942362631504187864e-01 -1.072590565418986897e+00 -7.426895428876584271e-01 -3.219070101931842398e-01 -8.018566500649569884e-01 -6.412919422657911706e-02 -1.775502180160559496e+00 -2.565351393282778170e-01 -1.759993549839838078e-01 -4.042900290391011620e-01 -7.043328448908207085e-01 -4.738860507632539076e-02 7.276429763334314460e-01 -1.188462221087220466e-01 1.070350106381672495e+00 -1.207274835214022346e+00 -4.490174468824413845e-01 -6.249518719433255765e-01 8.905534876993942417e-01 1.121228964727123134e-01 4.889336074505761798e-01 -8.883658874076615364e-01 -3.535089814158228205e-01 7.121049565679783699e-02 1.210014480690639660e+00 -1.038328032296160996e+00 1.226399635747249972e+00 -1.133595726558212641e-01 -3.066817327301763485e-01 -4.121896883548270552e-01 7.805185783401596966e-01 -1.145991070015904834e+00 -8.274397054885526126e-01 1.334812257989309060e-02 -1.448047611010371716e+00 -6.176819049197489475e-01 -1.230387981808249265e+00 2.282593714392641138e-01 1.166770800123602125e+00 -4.382092809695478652e-01 1.963737402454569098e-02 3.403564193460690834e-01 7.464689162548044932e-01 1.514263620321514014e-01 -5.072026871549242255e-01 7.288678506197957541e-01 5.938573571179293076e-01 -1.982707932877274537e-01 6.148769526219645121e-01 4.134984394748777992e-01
9.840264303695009929e-01 -1.213187403975964695e+00 6.201617265146233127e-01 4.179040730136984183e-01 -3.698090833378185893e-01 2.996561641910278073e-01 -2.179353339946380752e-01 2.140675505404779633e-01 5.496708620915135013e-01 8.447778892290113140e-01 -6.595403933709290678e-01 -1.364477930174105236e+00 -6.843765575082285668e-01 -2.820868921161807652e-01 -1.000377745189286349e+00 1.063473258290420276e+00 -3.120258418095624986e-01 -2.863902751537430458e-01 -2.457811984808457861e-01 8.567951756510396866e-01 -6.788886017147423013e-01 -1.023136331982761549e+00 -9.354106476053853925e-01 7.245156991112410294e-01 -1.678384474111959956e-01 8.023606391237826374e-01 4.931131722600675671e-01 5.910033307359349036e-02 1.063873106424082060e+00 -3.520272544962407824e-01 -1.335889377793412769e-01 -5.741543977784651503e-02 7.872455472128646603e-01 -5.427611848470633715e-01 -7.504038150640229832e-01 9.061977676989716457e-01 -6.936147946031356870e-01 -9.173344921853853196e-01 -1.277839763769565151e-01 1.058827512847908409e-01 -1.074882746277011636e+00 9.321282614840807612e-02 6.183861006220132683e-01 1.198527630167749991e-01 -8.927296215522319001e-01 -8.788806352611568951e-01 4.438218497514972646e-03 6.337841967447760405e-01 -1.184286222087221008e+00 -4.135889427295039722e-01 -8.905475272067133741e-01 1.413074300896597801e+00 3.098754284190210484e-01 -7.486930441579663364e-01 -2.598486936901888908e-02 -9.522782569903570637e-01 -2.003450363537768175e-01 -9.576228818819063626e-01 -1.103416050041499119e+00 -5.989227962758444379e-01 4.780966468572334094e-02 -9.706896587472023663e-01 6.504617219857055099e-01 2.759443583590233118e-01 -7.429021218983083985e-01 1.386866354215050778e+00 3.239144653234081461e-02 -1.036588459067605772e+00 -1.170896973923116757e+00 1.125802433615268994e+00 7.734226417331896419e-01 1.080585154574002171e+00 -4.839843474000333212e-01 1.329252953551657845e-01 2.657503714580696126e-03 7.153098056527475990e-01 1.244596081057167902e+00 -4.746603583103746193e-01 -9.625925007946324330e-01 1.163145808021879501e+00 -5.141873873157714048e-01 1.815093659608817189e+00 -8.688379019553817972e-01 -1.442872850902315207e+00 1.853134322794287858e-01 1.015675588679220143e+00 8.589560122574365630e-01 1.313125578664539050e+00 -3.930176945155301471e-01 2.118062433691847157e-01 -6.897521354434431595e-01 -4.829925693397369435e-01 8.139795888209383490e-01 -1.171104260311344625e+00 3.921261215640300946e-01 4.525730417951355777e-01 -8.615923529341691367e-01 -1.080750026698060751e+00 3.555623984465453025e-01 6.906387131622782061e-01
1.109739077879728225e-01 1.155634327149857032e+00 -7.527822549218601278e-01 -1.198165496665296148e+00 -5.386143554533383560e-01 2.553951586188676903e-02 4.853831343184192293e-01 -1.326723760531879348e+00 -8.950913263067361569e-01 -4.538449654844529668e-01 -1.614212688549944152e-01 -3.114469655909580248e-01 9.231039652877035540e-01 1.142470833703232103e+00 6.034906939776581991e-01 -4.423842282225953770e-01 -7.831191212673141999e-01 -1.211857316386281580e+00 -5.050081555696238622e-01 3.109006662733523330e-01 5.650067344253681956e-01 6.735947494839039651e-02 4.811565700740131901e-01 -6.390827932498950315e-01 -1.133813635587135105e+00 1.072667877199964259e+00 -4.253626362185460863e-01 -5.027305213427145647e-01 -1.263212421317227552e+00 -6.645517123519597558e-01 -2.892241488442497399e-01 5.899808810983218910e-02 -2.623075264122868844e-01 3.303261020420669714e-01 -4.108323696713662709e-01 -1.112454688533289354e-01 5.173096499520637437e-01 -8.849977159474932131e-01 1.026532035697075074e+00 1.416931565786147817e-01 1.171180412809860849e+00 5.394005129942049948e-01 -2.380934822101027082e-01 -1.163690068395792032e+00 -1.987714800715066232e+00 6.041450661722188586e-01 1.205197196186167607e+00 5.783062081946689359e-01 -6.146812718171511536e-01 5.323882608484691303e-01 9.028502399086424379e-01 2.323520082435051037e-01 1.628827515773669243e-01 4.599725005100708253e-01 -7.813482775394809954e-01 4.332324221226194760e-01 9.629836455252708260e-01 5.121075247011935838e-01 1.485968421043178112e-01 -9.299337325226340045e-01 -5.853280516262540298e-03 -7.350963866129833768e-01 1.126289114446777040e+00 3.264525332070173924e-01 -1.193626793266696628e+00 5.799416050565309178e-01 -7.676665950408552153e-01 7.198513275160500768e-01 3.130072942717860851e-01 8.459333378880623533e-01 3.901621284286990177e-01 -1.178197945248688150e+00 7.079550683189392291e-02 4.667628431031359826e-01 -7.132855479845132685e-01 4.598991699890182527e-01 1.058163752786648315e+00 -8.200896529114498623e-01 -8.367671372538872943e-01 4.413670097220131483e-01 -1.211594724182217364e+00 -5.992775864803319141e-01 -1.539539861878715721e+00 -8.946747729264060700e-01 5.689705307802869205e-01 -1.237137815741867541e+00 -1.055510909526338859e+00 -1.093518784159067669e+00 9.731633790461245992e-01 7.482166544560289179e-01 -1.407187667904391815e-01 8.589542523897115700e-01 -2.065093140619789769e-01 4.040306672213352102e-02 1.689080991315922986e-01 -4.206604003116146129e-01 -3.748719909385135329e-01 2.101633861810274506e-02 -1.887363998759768180e-01 7.168189268300633188e-01
-1.127145195547731182e+00 -5.923381374540335198e-01 -3.864507906978776886e-01 -4.397360659571339925e-01 -1.514068363336813050e+00 -1.020480051669735433e+00 2.331312203166921171e-01 3.817584240104553994e-01 1.137223557651943828e+00 9.485825145182829043e-01 -8.509405358177692946e-01 -4.431578961970723540e-01 -5.371306161554091352e-01 1.254226488535318929e+00 1.774981156908297664e-01 7.477280911246956263e-01 -5.709308765422543841e-01 6.710288811409416132e-01 3.723609762722394634e-01 -4.943935322860523729e-01 1.812342711522645089e-01 4.224630545715986063e-01 -8.692082623176889955e-01 3.288419253985874757e-01 1.668979038789833447e-01 -3.805296309965063295e-01 3.406505946958215958e-01 1.934169792813640598e-01 -7.775774497975270760e-01 6.333004128407633271e-01 2.883562013371955834e-01 -5.544741548421230348e-01 -1.115308647926490648e+00 -1.195477130972189883e+00 -1.650357252555641585e+00 -4.111310444255838470e-01 -6.271555568120624757e-01 4.426347183184115019e-01 -7.908740314647425551e-01 -5.911406178461816596e-01 -4.403605913074374878e-01 2.955862927909637117e-01 8.762863912785385789e-01 -6.927473426925461197e-01 1.548230891442077262e-01 -2.435573266162330830e-01 -8.300163273968361177e-02 -1.876512319244885707e-01 -3.438009247208743263e-02 1.686887611060984837e-01 -6.055261275871983706e-01 -5.107448233557643213e-01 9.412476505477058719e-01 -8.563296925740642163e-01 7.350921034092280371e-01 -8.064168944203392586e-01 -1.148189474608127592e+00 -2.951531855324633358e-01 -1.129788877104209027e-01 9.908517377086792921e-01 -2.577844560718667855e-01 -9.410010186345697525e-01 -3.393383633853071513e-01 8.863917983876951068e-02 5.786857372840290559e-01 -5.517111380015123911e-01 5.902186691634662141e-01 -8.416835149665008453e-01 -2.447253445726252918e-01 9.201108212742959980e-01 -7.368929386556061223e-01 -1.041076692093085565e-01 1.697419249608469460e-01 9.365885101053523787e-01 6.358293841542500546e-01 6.742068468754711663e-01 -2.070794347273889335e-01 1.732347258346084162e-01 6.695683827628166052e-01 2.517239942907772421e-01 3.241224533182972961e-02 -1.010515885449362106e+00 -3.571714085359111585e-02 1.618746098471973927e+00 -8.490295710600365142e-01 8.959445167387718456e-01 -9.602382855880499113e-01 1.779835786159533473e-01 -7.792688847080856407e-01 8.007365099115910656e-01 7.685192959866893325e-01 7.403645724299974251e-01 1.848240485904869557e-01 1.469520097868462605e+00 -7.503926381239118815e-01 -4.290082254920125210e-02 -1.369390699100334896e-01 9.581658153111616283e-01 -2.913815800317371418e-01 8.205151035035205265e-01
7.313064845110966994e-01 -2.016991194193102910e+00 2.042559496207858594e-01 -5.530807487403534006e-01 4.460013702952747572e-01 9.308806560472295821e-01 -8.890459682728527602e-01 -7.136362602373309827e-02 1.183559968439968246e+00 -1.103217731185516914e+00 8.522625084472481571e-01 -6.184411470615423095e-02 -6.745769713534700840e-02 -4.021677574434723984e-02 -6.267188536673770627e-02 -1.734746899690467581e+00 1.519584038552777572e-01 -1.257591178568572277e-01 4.898388671930505034e-02 9.534221729356309738e-02 2.239738511786570629e-01 5.491754098078038826e-01 4.573350711786286493e-01 2.002710913919570901e-01 3.025762483484537371e-02 5.645877362833832125e-01 -7.512706095514426474e-01 -9.809311213241845850e-01 -5.142630257684236428e-01 3.551734587308137403e-01 -3.447457802669979809e-01 -9.010613698209563038e-01 -1.029502954869132791e+00 1.255876717245623775e+00 4.944762680801415011e-02 -6.528684129685000670e-01 -1.495681518992974857e+00 -1.373051293822512287e-01 1.157354704073122603e-01 -3.310225906999180734e-01 -1.315800419069095728e+00 1.052786163974759104e+00 6.250111153961306343e-01 -1.091418167713635423e+00 6.947960510556193681e-01 -4.744691353799840305e-01 -1.785854995612195406e+00 2.030824162534635990e-01 6.768395899235840618e-02 -4.109736908713558790e-01 7.025187760791868907e-01 8.346940568614606981e-01 -8.503941032924743348e-01 -6.121936112566817023e-01 8.455810960275657040e-01 -1.182256880213459621e-01 -2.128523795536967356e+00 -5.453421485706806404e-01 -1.038119354358948865e+00 -2.103649541702341086e+00 5.331278692225859261e-01 -3.313575904678733863e-01 -5.246557692348621099e-02 -1.051938766820497362e+00 -1.158183225316624876e+00 -5.839530313267065065e-01 6.434995975492033837e-01 -9.092366380519870117e-02 -1.146791316149464585e-01 -6.781725511757654701e-01 6.032788421200109275e-01 -2.081292428972133512e-01 6.648341187617057280e-01 -6.813783786310295687e-01 -1.805182622610436161e+00 -1.164704667376754932e+00 2.911392072413548568e-02 -1.468087362741969382e-01 -9.394923065236036042e-01 -1.109380797463588031e-01 1.265069873716046622e+00 1.041326586196163334e-01 -6.320412828358494828e-01 -2.938226908243601332e-01 -5.667324206875721249e-01 9.298064926068104752e-01 6.607276539634923118e-01 -7.874745118898784924e-01 -2.052252103786917914e-01 -1.385980680716041857e-01 7.589892807535354446e-01 -3.682956486983821054e-01 -7.553665905493609500e-01 6.259035182829481014e-01 -6.673952405153831258e-01 -9.449328647970418604e-01 -8.839013710142093472e-02 -3.153966491607917422e-01 6.595930793323266927e-01 -1.195585200382739854e+00
-1.138328240321904161e+00 -1.043209606605228323e+00 6.467323704904295312e-01 9.101759121174524125e-01 -3.472861325765209672e-01 1.156898685028316276e+00 -1.328422469440941334e-01 4.809582051804688896e-01 -1.163817434496428493e+00 -4.311181517485658810e-01 -9.629618012368077462e-01 -1.018157690566242612e+00 2.964916813822818242e-01 -4.144842851408617190e-01 -4.255539194474858983e-02 -3.384671045044357895e-01 1.922300736243469088e-01 5.854907960129481781e-01 -1.776868729141694442e-02 -7.100721997424354059e-01 1.966611478258764312e-01 -8.778319313444538086e-01 -2.191145926292722146e-01 8.725811644472507567e-01 -1.978249479146857170e-01 4.175904969200016498e-02 3.732268386148827194e-02 -1.525170157364260926e-01 -8.664953879141054083e-01 -1.133758850362519777e+00 -6.346767161294785131e-01 -3.673923995088883010e-01 -2.271586324313902561e-01 1.507737316363140789e-01 -5.607868029647292696e-01 6.310865085262316043e-01 -1.311656446002551935e+00 6.076963369938392923e-01 -7.845786932004842340e-01 4.137657286009063240e-01 -3.851705557957387227e-01 -1.515971540409332796e+00 -1.140318400373311614e-01 -6.366942229566306954e-01 -2.030923735343275749e-01 5.350257150248943772e-01 -3.592061435372093658e-01 -3.713208637279845070e-01 -2.666798741896835856e-01 -7.952600200216416448e-01 8.029013275022057750e-01 -5.962547692322918147e-01 1.133448001117647097e+00 4.992123312857825734e-01 -8.408363039355933877e-01 -7.548764406191074139e-01 -7.108121352314075159e-01 3.621613895165851638e-01 -5.266147891898236288e-01 5.447777287504620425e-01 -2.292566714575811904e-01 4.672956232303102642e-01 -1.826530453972312895e-01 5.057330518580339662e-01 -7.486571894035688457e-01 -9.627356776830922058e-01 -9.470769693057308203e-01 3.429888766850338611e-01 -1.170925984252873947e-01 3.911617390249671478e-01 -5.972198844085104819e-01 3.604136088641620161e-01 8.502759536456385714e-01 9.200336099614416785e-01 -5.669001900736451161e-01 -1.424061733073701541e+00 -9.569107874089323174e-01 -3.874508889123663424e-01 -1.346561928461688984e+00 3.321488374962387469e-01 8.011391542057084703e-01 1.209494629827079892e+00 5.835539692345753648e-01 -5.156452934181849912e-01 5.632853027422680264e-02 -4.340915751250332688e-01 4.036986060348909944e-01 -1.309847853269782592e+00 -8.114289055682659679e-01 2.940129922873865320e-01 -8.117321022096868344e-02 -7.303988648690860064e-01 1.938364898839144146e-01 4.213135095179353917e-01 2.392584916094798730e-01 1.250877522869512148e+00 7.481177934891659609e-01 2.689231959736322342e-01 -4.633856189549765969e-01 -1.158440219914237401e+00
