9.186270912185210413e-01 4.301444508505764541e-01 -2.205516933742027175e-01 8.765906528382363949e-02 -3.685363200414955021e-01 2.103340991880161825e-01 -1.265351100901648707e+00 2.645355256025212487e-01 -4.345285147460132280e-01 4.352906485602924258e-01 -5.129975502684798183e-01 -1.308541311847492672e+00 -4.003353099206491961e-01 4.044457608333917875e-01 -6.105366647618588605e-01 -1.640812949916827357e+00 -3.480630846706540826e-02 -3.064492711868608277e-01 -5.169187432077936295e-01 1.065157037983559318e+00 -9.793918130993181648e-02 -6.970905830728678643e-01 -3.500079004748563039e-01 8.163733490720777031e-01 -4.200847937785103792e-01 -7.871754298006092831e-01 9.295019877951190557e-01 1.560732246899357127e-02 -4.245291207254685006e-01 -6.213425641662266852e-01 -4.641528149424294369e-01 4.135493288549997315e-01 -8.958408571925802200e-02 8.567010520349656044e-01 5.505810176528719291e-02 1.984495707735513814e-01 6.905648166105585739e-01 7.241648515356761129e-01 6.290097295955335843e-01 -1.080969126200690189e+00 4.990026161696912155e-01 7.124149253221239153e-01 -1.262391484067679315e+00 -8.353655672590046821e-01 1.433768258254404238e-01 -1.701139039388456509e-01 2.321843786832126777e-01 -1.571809473684747660e+00 3.683261538138342117e-01 -3.670000169275375312e-01 -1.126446839129164185e-01 -7.199627856257090341e-01 -5.742500041551028972e-02 -5.098572555475605617e-01 6.005838371508293028e-01 -1.551423034689586311e-01 2.005936778665599052e-01 -9.978473701504994020e-01 -1.142912910312453567e+00 -5.568818529988737165e-01 -2.404170878018375979e-01 -1.951034766308163693e-01 4.476158788549275402e-01 -2.918364703001063432e-01 -5.402468530782780221e-01 -1.179337405572630892e+00 2.282209360108004292e-01 4.901601838770096586e-01 -9.685054796302255964e-01 6.450251775241016006e-01 7.110754097180019828e-01 -3.015084948187798930e-02 -7.273892409704785234e-01 2.000656555914056334e+00 -5.286000136569111163e-01 -1.052444430484393623e+00 8.093782396741110441e-01 6.907073859314943887e-01 8.888425809432413949e-02 -1.668460998921317620e-02 6.377097908483699007e-02 3.808736917283314094e-01 1.058507271084623058e+00 -2.669577078321297425e-01 6.566800169318787184e-01 -9.747660736017588201e-01 1.125185712211429268e+00 -4.330653491811924383e-01 1.327504390518469135e+00 -8.294369088236200893e-01 -2.296868983169636780e-01 1.236308950432906784e+00 1.391969963633415408e-01 1.034889919783154477e+00 6.688028861073733733e-01 3.117777547499861468e-01 -3.094150229897321691e-01 -1.761117563155176979e+00 8.475309721741683955e-01 -3.549387172326429890e-02
-1.269267254682459711e+00 -9.736624584323049225e-01 8.653710333568546964e-02 5.675388194416667309e-01 -2.261707953027414578e-02 -1.274635833640384908e+00 4.747446932100449213e-01 -1.943657747531060132e-01 3.057339333296340000e-01 -7.563828228697506706e-01 -8.161983517390453136e-01 6.286092104009146642e-01 7.298555180495226724e-02 -3.012305210825058643e-01 -4.705160526780386432e-01 -5.216511076081867815e-01 -3.236880938418693066e-01 3.189270459122507395e-01 9.847189677151738652e-01 -9.703493865551912623e-02 -2.301442621398972765e-01 6.839365200325324690e-01 1.022883178925503428e-01 1.571480573933558555e-01 3.904251891242452865e-01 9.252636086877737975e-01 8.321063467121491142e-01 1.461591299354601803e-01 1.719091298789982014e-01 -1.964429271168779689e-01 -1.046502512250704564e+00 -1.408206172876428797e+00 4.313857061662766668e-02 -4.193193789907707913e-02 3.983011083774442088e-03 -4.516688736219195421e-01 -8.952516505079201048e-01 -1.074413872557868466e+00 8.322580331517897001e-01 -6.479829916038312154e-01 -9.560481992763130155e-01 3.398958079884849548e-01 -1.443184199203471352e-01 5.862247259712045633e-01 1.053033915085247019e+00 1.704350238616246793e-01 -6.871641559155733381e-02 -1.722884883491860031e-01 -1.495653402384888198e+00 3.744229603907882342e-02 5.007053729605385195e-01 -1.111529301604373021e+00 4.498049331627413938e-01 -1.354532659596482835e+00 -8.197349462872043357e-01 -2.083527394384984965e-01 -1.610519188385405975e+00 2.486478947498150516e-01 1.973394910429758786e-01 -9.032693076386920372e-02 8.867896789364014820e-01 -5.231547980757146332e-01 6.583765279537462378e-01 1.522886208416091014e+00 4.105355922286419990e-01 -6.055333132234863580e-01 -9.665681301881041687e-01 -1.884613190284721573e-01 -3.273508692587637214e-01 -1.187230182312855264e+00 -1.730196044355389040e-01 -3.020724175697164782e-01 -8.673363775199697256e-01 3.398094824086504984e-01 -8.765427796085565326e-01 -1.910004297980931187e-01 6.379574441119352235e-01 -4.495920352291485345e-01 -8.262773637028172358e-01 1.190683043224235599e-01 8.981082366764945313e-01 -9.761324884465950591e-01 8.382225240762709861e-02 8.525941183956402547e-01 -3.351059107793080138e-01 -6.084428161713232308e-01 1.002073235990327271e-01 1.236313350320340954e+00 -7.916936316206165669e-01 5.420948284224111346e-03 -6.931279347158931792e-01 -6.951983787359989897e-01 9.257551687035875387e-02 3.633518206826396035e-01 -7.425812527948109087e-01 -6.429791712524380864e-01 -1.069547568144405270e-01 -9.622381240021980753e-02 1.055260291465470734e+00 1.944730271476170502e-01
-1.919183747899231074e+00 -8.271354695525744150e-02 6.563796576800380311e-01 1.743082628179681570e-01 -7.382697256680259557e-01 -1.243601479856776937e+00 7.702931343351294979e-02 4.720967455010315339e-01 -1.340164251229244208e+00 -9.938639657244001391e-02 8.201689744285117767e-01 4.958201168583484808e-01 6.529947468572230851e-02 1.443935210724753615e+00 -4.764585997121233429e-01 3.671752817677608749e-01 -2.554027340217340791e-01 -3.207437586446485467e-01 -3.723191870600797149e-01 -1.612283231519307247e-01 1.795535033729154906e+00 1.823442634225753423e-01 9.499989361626500761e-01 -2.069775536135696203e+00 -5.800025242339910958e-02 1.139731663016632535e+00 3.885194545996635829e-01 6.360494375998135830e-01 6.800816648938508013e-01 -1.000841400599795872e+00 -1.083155925106798478e-01 -1.560309557672602487e+00 -4.262986428786539883e-01 -2.477313678222436699e-01 8.259474640264948819e-01 8.347195636404703967e-01 3.473146945357682425e-01 6.576614210258249216e-01 -4.083611760916538436e-01 8.047674400860904687e-01 -2.853734535383070092e-01 -1.157662266426126907e+00 -6.325488759399674477e-01 4.663585216642441855e-01 1.592549912935317946e-01 1.120860746934659202e+00 -9.695232868210008625e-01 -2.459267795859226280e-01 3.500099171733977443e-01 -2.264006576816853522e-01 5.515605454989551681e-01 2.508393672431624144e-01 -4.653826683397547237e-01 -1.983362660242294906e-01 3.470928103962552247e-01 -4.225378708898800406e-01 -3.437919187403032373e-01 2.915175385826947463e-01 4.198058167990805223e-01 -6.235683103703539842e-01 -4.473871395704401288e-01 -2.859810935784546371e-01 3.933244503687317595e-01 -1.060609616731601701e+00 9.239062871038974389e-01 2.068145994531301879e-01 -1.009588522220457252e+00 -1.225460757625797120e-01 -7.759380001827539397e-01 5.758516841262040220e-01 -1.582823674347749066e+00 -5.182722489392541654e-01 -4.515277966750571581e-01 -2.095499980857559452e-01 9.645419103371212222e-01 -1.404296493799565837e-01 7.217641314351650461e-01 -1.806129952257779225e-01 -1.531396008293883115e+00 2.523787138766132587e-01 -9.364838505918718914e-01 -1.660542389523047002e-01 8.612559798712514647e-01 9.629075979754410375e-02 4.533058517127035447e-01 -6.357157928557799487e-01 2.727738685642299155e-01 -1.143866992609376132e-01 7.337245349746814860e-01 -5.313026841836631098e-01 -1.426585660064181527e+00 -3.625431630051301757e-01 -1.414428877900135939e+00 -1.744515091686533070e+00 -6.774177796121818584e-01 9.393007828896620115e-01 2.781827828680486503e-01 -1.147812132332483914e+00 1.074904634081583987e+00 -1.053942755128481901e+00
-5.131550109121801873e-01 6.055044862669676231e-01 -9.815784520723083162e-01 2.122138343643572289e-01 -1.060904197810561778e+00 7.859573222466055276e-01 -5.324318937241602212e-01 3.375200528919967136e-01 7.246997011192353177e-01 -4.073729577731486362e-01 2.660744035395413154e-01 -1.384993202119988664e+00 5.215600820735200038e-01 2.974087855062609309e-01 -2.690847801051627353e-01 -4.239464237846062300e-01 -1.052904842347064385e+00 -1.056560104550319013e+00 1.309147841872892348e+00 7.172155015813557188e-01 -1.874387881913396892e-01 3.498706727526100790e-01 6.832005294687398811e-01 6.053993847347719504e-01 -7.651292869218634385e-01 -1.677718432999939502e+00 4.408984452403426069e-01 -9.010058024825225997e-01 6.432182732000808756e-03 -6.528957334693131775e-01 -5.582737974463160002e-01 4.194775156399453420e-01 2.716677780316857915e-01 -5.967490125302347126e-01 1.273389966311192119e-02 7.567820373723906924e-01 -5.496586838042718526e-01 -1.945375210391431464e+00 7.345893941331764765e-01 -5.211909907179155255e-01 -1.387735007788871044e+00 -1.118824826553929563e+00 2.598131122861145337e-01 -1.056129613973174175e+00 -1.739229063048705060e-01 2.862231956041453862e-01 -2.169221552312120549e-01 8.543430409528186553e-01 2.046633507097390947e-01 -6.650507543656863918e-01 9.134087090109363483e-02 5.625958601162198702e-01 1.218120252058641162e+00 -1.249473865836050246e+00 1.821193247174728302e+00 -3.182433882550433357e-01 -4.576482786471056663e-01 1.402379041880400745e+00 -5.461195571825337991e-01 -7.287386353240720149e-01 5.236777580412289856e-02 5.501565371321728293e-01 9.149380895270861069e-01 1.311607458551238503e+00 7.094019471331117210e-02 4.772660110741392403e-01 2.939642100070834901e-02 7.079056062335599142e-01 -9.419642083816357481e-01 1.558093530983714614e-02 7.542930410503425609e-01 5.699785300931233811e-01 4.942096732599127185e-01 -6.475174755490351597e-01 2.271698931703771407e-01 -8.452724353915793687e-01 2.768517963061467579e-01 -9.256574502645624758e-01 -1.641964543927104392e-01 2.463615894543238483e-01 1.664544983987824578e+00 1.041530490001399065e-02 -8.208932163349914601e-01 -3.957455086394650046e-01 1.077945519075632408e+00 -7.327145687357062842e-01 -7.367094560594725783e-01 9.251806856548490110e-01 -1.411135715347705766e+00 -1.319036237033061054e+00 -8.612959623835411138e-01 2.249526129222816084e-01 2.716853471587921676e-01 -1.954402970997405342e+00 -4.136534854042046155e-02 3.193906512619393290e-01 4.389981670603312347e-01 -2.183615169940275269e+00 4.187676280668919948e-01 1.660616342274641610e+00
1.196998617323557390e+00 7.003374214935566000e-01 4.049350124873251633e-01 6.364890339842811384e-01 -9.411670093660777781e-01 9.470155703160441085e-01 8.173448703856684983e-01 2.980273092889947767e-02 -3.262883225740521032e-01 6.339055317276663937e-01 8.542242295204980351e-01 -2.824600627879640946e-01 -1.665105130955785162e-01 3.057681798145470697e-01 -2.757788896502445519e-01 2.750129018430176320e-01 -1.110456636379841960e-01 -1.687425152444408161e+00 9.645548205322311552e-02 -6.233337732750350302e-01 1.336210435254703288e+00 1.605446242092354869e-01 -2.671528310304801535e-01 9.427918168609451532e-01 -8.013366059410623743e-01 1.469678641527454033e-01 2.124149600585462372e-01 -2.025026689051917295e+00 3.176078505073889335e-01 1.318924475183947675e-01 -9.016303107953862472e-01 -3.511263511099643186e-01 -9.064223522097595298e-01 -1.031792714321066784e+00 5.173782458728325324e-03 5.768586687524560608e-01 -1.180756674923427729e+00 -2.669952474629542771e-01 -7.560393018764341444e-02 -1.403001324757300994e+00 -1.346738898786550842e-01 -6.674791160796498257e-01 -2.535166222531755609e-01 -5.963639061621476278e-01 -5.610162597970532739e-01 7.550889159577633958e-01 -7.687589338087553736e-01 7.613263439189618120e-01 -1.122833330080010183e+00 1.114223953881888551e+00 -7.335865556572589430e-01 1.162184403718283937e-01 -2.205116454908857548e+00 -1.626956003236927240e+00 -1.638132036842210759e+00 2.959179581666793735e-01 2.570615099395289760e-01 -1.567995698748765099e+00 8.418796368186944046e-02 2.461098571913003866e-02 5.565077255939212542e-01 -6.271852645406135185e-01 -2.663204549000237065e-01 2.789564476581276597e-01 2.219325577611061806e-01 -4.125263731713339488e-01 -3.492809237172558312e-01 7.130597429305604029e-01 4.930497496248487654e-01 8.645809874856771327e-01 -5.306118513252536806e-01 9.109895742537770236e-01 5.047785587228376114e-01 -1.104403722729462300e+00 -4.849327655114981650e-01 -6.761805939269024401e-01 -5.570476627357916488e-01 -8.407829642458770625e-01 -3.798245242297784152e-01 -6.210727634858653756e-01 -2.110828681206391721e-01 -9.365754522162235141e-01 -1.035179665417346406e+00 3.060482543054300897e-01 -1.798577446155825266e+00 -3.784124467467728792e-01 8.813739005169179963e-01 1.520812355625644541e+00 1.870305483696347304e-01 -2.519879211751772652e-01 1.407797446867204316e+00 -1.256179807401596404e+00 -1.163864164308852978e+00 1.902268104387825121e+00 -7.321030918758758554e-01 -9.456442957521298265e-01 -3.503879139631326800e-01 1.068303121990906490e+00 -1.973978285228729090e+00 4.751374880921472449e-02
1.341988960953083954e+00 -2.030775460066759353e-01 -4.947811212663698055e-01 -6.187476950341951332e-01 3.244480875542648524e-01 5.911335318378585502e-01 -2.255961799351332786e+00 -1.988994654767448356e-01 1.343383202417814948e-01 -4.745470009053644467e-01 8.988799666434053870e-02 -5.625124730384302163e-01 -2.056277808827100095e+00 -1.498061107840807649e-01 2.335452041043853122e-01 -6.271830335950318025e-01 6.371255832831315136e-01 1.241863751312309305e-01 -7.005181398357683831e-01 -1.031978047450607727e+00 -1.607758960317633656e+00 -2.198829150217540274e-01 -1.605080142692426826e+00 -2.856081382708581806e-01 -6.613206298372278358e-01 -4.532979886654526780e-01 2.852741093837362629e-01 5.873081789159506627e-01 -4.965362796718535143e-02 4.542161693928665755e-01 2.861854553387305766e-01 5.838451584875473666e-01 -3.854652309687735534e-01 1.149522039523041661e+00 7.405627439077818730e-01 1.352839442089231570e+00 -4.277395364708422854e-01 4.464884057398187389e-01 -3.000092403952053788e-01 1.910021702267618582e-01 -5.670093281218444581e-01 1.294214131807025492e+00 -1.028812068672206648e+00 5.575407871167304963e-01 4.132290497187473544e-01 2.673557229239311717e-01 -2.451303226658185230e-01 2.129572201846255119e-01 -1.011771017033200160e+00 -5.617943940008663928e-01 -2.383076989232802423e-01 -1.744594220284760577e-01 -4.213431015533596891e-01 -1.119398767972548336e+00 -1.933335002800148084e-01 3.476090999042455998e-01 2.143967584737744847e-01 6.593528164357499721e-02 -2.184988183323278932e+00 -1.615769033235228802e+00 5.835037319630629327e-01 -2.208740175977972064e-01 -1.416875203047096021e-01 -2.408114665036903690e-01 5.182296390440161993e-01 -6.379524932659514924e-01 3.592195760871712551e-01 4.981827213132820065e-01 4.709861159178665435e-01 -9.214974674885448858e-01 2.174852543692118889e+00 -7.571102833041927216e-01 8.081654003991857182e-01 -8.718526514767913627e-01 6.101248743638423289e-01 6.645587479331594993e-01 -6.607301172951842716e-01 8.176325800301388336e-01 8.726469979507583963e-02 -1.673308385268650889e-01 -1.215816030607486109e+00 -1.136714435508739074e+00 3.318069792761002557e-01 5.392245594332748526e-01 8.628983507772599593e-01 3.945763394868342377e-01 5.734413386571538540e-01 -1.728752562256357983e+00 -8.424168951126567162e-01 -4.786192317534953000e-01 3.277411729279802177e-01 1.674722754636519539e+00 -5.022923177177747167e-01 -7.607005548420402441e-01 9.304139609581570936e-01 5.723917793587279812e-01 -2.087631444511689749e-01 -2.264294765462788184e-01 -6.341339746148539902e-01 1.587412666669950179e+00
3.580160587101037795e-01 1.576001474942384961e+00 2.323571496954766891e-01 1.373023509831114153e-01 -1.149030369727908285e+00 -1.243086406388159704e+00 1.391540569677630623e-01 9.348645373582765705e-01 -3.447688369712363365e-01 8.444307243524186157e-01 4.529733820576397618e-01 -1.081348540888175336e+00 -6.023202807023355643e-01 1.016110915058526132e+00 2.095001527553855547e-01 -8.206232511983394540e-01 -2.422640548320029175e-01 6.660905463216312827e-02 2.464041679792786654e-01 -6.298983201515395702e-01 -1.577341996794631718e-01 3.974747480090236595e-01 -1.513176501854035239e-01 1.257226984863446615e-03 8.612124312284433758e-01 1.658549506988012956e+00 -8.460874413430763408e-01 -1.011606825344594007e+00 -7.500880292226713708e-01 -3.889190213324009854e-02 1.544069099726172789e+00 -8.906341044754501057e-01 3.424129499614077532e-01 7.532039115321687017e-01 5.620990021076924803e-01 2.174047161634843073e-01 -1.269552132822145962e-01 -1.408336798514872257e+00 1.153364537835832815e+00 -1.385997185915200047e+00 6.319043359844839225e-02 1.181065091173191028e+00 -1.097593863979351214e+00 -9.974775735791864273e-01 4.436993961455609203e-01 -1.562019658694870250e+00 -1.014027230400581514e+00 -1.272752798974588151e+00 6.947939212224341077e-01 -4.927754070635276262e-01 -4.572450682127543464e-01 -3.302788802289630676e-01 -1.410631211268456253e+00 -5.191378765993076572e-01 7.173087351862161842e-01 4.261142261243077711e-01 -2.083146596496045166e+00 1.055618398460538065e+00 -7.918555915617604413e-01 -7.322324431000167833e-01 1.076750779911721079e+00 7.626842005276653902e-01 -7.342722053013313044e-01 -1.715073305253321356e+00 5.869062994217089102e-01 4.164263201013317928e-01 5.688598185413713537e-01 2.375465822890209244e-01 1.522079968906628611e-01 4.052511488899922243e-02 3.088079345210359428e-01 5.355317543332744901e-01 -7.410902629908611150e-01 -7.958588117217496594e-01 -6.109573081057962929e-01 6.893021309836461219e-01 4.753229459450035721e-01 3.575178593429375051e-01 -4.006733816618701649e-01 8.404508407529766023e-01 8.607149624242941277e-01 7.204963687201881850e-01 -5.540870694651404971e-02 -9.442103437555773304e-01 -1.525898114881120593e+00 6.481310602905808738e-01 6.685369718647531379e-01 -1.386213284718241123e+00 1.604057061885318936e+00 6.296248897552608748e-01 -3.657955397036282141e-01 -8.654454737339719594e-01 4.039887549298133429e-01 2.299302262348593417e-01 -9.082255175396197755e-01 -6.071833833111505152e-01 -4.813248636270645031e-01 -5.851120645908892692e-01 -3.815242175369409905e-01 -1.243853774931195755e+00
-9.440656179957821470e-01 -5.220161994206193867e-01 -7.430968117056740985e-01 -3.328637263611248787e-01 -1.044055888864042991e+00 1.773591872847679052e-01 -5.699625944786437248e-01 2.724540399851749228e-01 7.696155869951705197e-01 1.971938079776255626e-01 1.378249067392050664e+00 -4.440662817453862043e-01 -1.219449233389410026e+00 -2.631173788397488611e+00 -1.098546642724671285e+00 3.287451727357736386e-01 -1.097376378535110719e+00 -1.326253884945622241e+00 -7.139260629312501605e-01 8.191170845199627903e-01 -6.771820311694431993e-01 2.108086870534221086e-02 -8.649550011501383473e-01 6.194663734014671519e-01 -8.273546489143415172e-01 -2.877173134724280157e-01 3.702628982663525026e-01 1.074622534385978101e+00 -1.016351748594193527e+00 -6.813296587566515239e-01 -1.594942287775068079e+00 -8.193761866765123525e-01 3.497307221506741337e-01 -5.338666103970282073e-01 -9.019092204891944187e-01 -6.381931264590406938e-01 -9.389986890949639786e-01 5.190555347551224497e-01 6.541649351820155722e-01 1.351533375456890618e-01 -2.228604714184475866e-01 5.658691614343166476e-01 -3.122402192733594872e-01 -1.215025198625049763e+00 6.054428992766086939e-03 5.796538584886764545e-01 -3.342042976550782529e-01 -5.477430375128016227e-01 1.481640847496868973e-01 1.093588618522993050e+00 6.290262018367574759e-02 3.296947261610971291e-01 -1.073484129604460824e+00 -1.005470121231442526e+00 1.242758673358135946e+00 5.267160316270901310e-01 6.292401719840018393e-01 -1.540055511976089031e+00 2.114835084465635680e-03 3.602214324219259467e-01 -6.339891828648801519e-01 4.387769584639189535e-01 6.984442135675240915e-02 4.115420054522197502e-01 6.808707649376823934e-01 8.384832004319763277e-01 -5.972688429325445636e-01 4.579625625600115130e-02 -5.108849674357964776e-01 1.352870120509585883e+00 -1.286101874491061503e+00 -4.272135705526300398e-01 -1.568543604760426202e-01 1.107910983835593610e+00 1.232071622280520140e+00 4.875021253822429679e-01 -9.976609137457870258e-01 1.767638991726553643e-01 -1.236990988135909131e+00 -7.076789037659108050e-01 1.303148678294403506e+00 1.087245395312997076e-01 -3.168490943090647161e-01 -8.769963443447046370e-01 -1.491436397421849414e+00 4.223732073912253582e-01 -1.351321781427466284e+00 1.092235162601107312e+00 -9.033182068998085734e-01 6.648133990780697999e-01 -2.851403781890710643e-01 1.271119561303249768e+00 -1.104795549152714162e+00 -5.002172959606661085e-01 4.137160516237627372e-01 -2.657002701425095204e-01 -8.297923008717082993e-01 4.190841751279081873e-01 1.249332341986609141e+00 -6.336617399172963516e-01
6.842662120139519910e-02 -7.103681411329985929e-02 7.643094353816104469e-01 -5.475602285094867128e-01 -1.175179779421416715e+00 7.743108470471335436e-02 -4.239848370239974185e-01 4.285307958364178438e-01 -6.067070744550567829e-01 -3.592131043051930428e-01 -8.316197746650978440e-01 -1.343837692112543225e+00 1.104698953296841646e+00 -7.516318601884566623e-03 -1.007885915332914717e+00 4.925417157114726080e-02 3.975326735259295252e-01 6.193706637939613291e-01 2.344222503071885164e-02 2.973481125829480765e-01 -1.128086752180322172e+00 3.277154201898099806e-01 -6.009817476431760230e-01 2.975942454300273265e-01 -3.691261805529195694e-01 -1.084709484453329154e+00 5.575376759444752306e-01 -8.085940008798871981e-01 -7.879652446379752373e-01 1.041662343016861864e-01 9.078016331483608203e-01 -6.440413450341525570e-01 -6.636779155832048804e-01 7.240594388911510970e-01 1.094248284883421185e-01 3.678293887205548174e-01 -8.681870558929812853e-01 -7.554825702998650971e-01 9.418670198515745051e-01 -6.680370130165859122e-01 6.409682331974508873e-01 -1.868615741961420662e+00 -1.298042699801527311e+00 5.904999514596291910e-01 8.236774617977103974e-01 7.395621696752643359e-01 -9.904828741285324201e-01 -1.562152499899430724e+00 -4.340421862496081085e-01 4.332663086551645226e-01 3.787570742388569611e-01 2.924317267553616650e-01 -6.213248391257490955e-01 7.434741333944407116e-02 1.470842637355994631e-01 -3.053387533650001040e-02 5.159525226278690452e-02 1.918102115931584750e+00 -6.456954202892436490e-01 -2.135455346426820888e+00 7.898606039617440677e-01 -2.412659158566174133e-01 1.118824924420422015e-02 7.626789788829061445e-01 6.895524729853674817e-01 -3.111352561134276273e-01 -4.149390823796867411e-01 1.343816974829566302e+00 6.105689608226088083e-01 -3.715145993931215362e-01 -3.139986823996587795e-01 -1.203885387214598396e-01 2.060917649266219009e-01 8.966985155411074868e-03 6.820472778827101346e-01 1.095842979470080941e-01 -7.544420800268550886e-01 9.186883303826108849e-01 -1.944808253810051291e+00 1.522877137167153005e+00 -1.916418166902460918e+00 -1.526222664146838826e+00 2.293417574124740899e-01 -1.418054884955338990e-01 -1.598222523415038676e+00 -1.769042749316359631e-01 -1.440973679250189488e+00 -2.058547525932236777e+00 5.407567836439752806e-01 -3.999505976169551724e-01 -1.221385577750008444e+00 1.204928551356384325e+00 -8.082529774098208553e-02 2.796440960245075158e-01 5.331064138082537429e-01 1.141996414885709243e-01 4.524867434975544667e-01 -5.035350969731822168e-02 7.024232080111252330e-01 -1.931924940164549687e-01
1.341445175563898529e+00 -4.651010712910099570e-02 1.452694937432615629e-01 -6.837009806332056128e-01 -2.884726396391266712e-01 9.494280925297216012e-01 -1.228861045954728670e+00 -8.121374329504110756e-01 -1.582850145824685473e-01 -4.032565734519163447e-01 2.095770738695558855e+00 -3.833168509340089680e-01 1.179582403784607270e-01 1.111635382647438094e-02 -3.777631891312861478e-01 4.552613518820752825e-01 1.572497795465576664e-01 -8.385814975485542666e-01 -7.116239057289375225e-02 3.641026970377861383e-01 -5.765658270658371443e-01 -7.078331491943529175e-01 4.129335754251185764e-02 4.874795068570863740e-03 5.405467918107673686e-01 -1.980740424260913346e-01 1.972529276038155477e-01 -5.201423832219672638e-01 3.353539643246664093e-01 -1.033510226007476052e-01 -5.914826077795086734e-01 7.141587933385666886e-01 7.406619498428104742e-02 -4.136314822984297757e-01 -3.098242042773161620e-01 -5.450903959032112889e-01 -3.748264391621114466e-01 -1.673310451242141061e+00 4.251621200723708083e-01 8.951762031457860536e-01 -1.071809876693682329e+00 -3.613256276714350845e-02 -6.786936680825861323e-01 -1.123491497123437544e+00 -5.295865279031169992e-01 1.674908439241774571e+00 3.737132733036181431e-01 -1.087269405555259194e+00 -1.264146297837145105e-01 -1.447417046570455668e+00 5.141208154474279368e-01 8.624465685748348154e-01 -1.068513825062670675e+00 -1.146077098336166555e+00 -1.260279621076272338e+00 -7.970099064978609649e-01 2.511913780975486565e-01 -1.316226110975029506e+00 -4.977653528338347177e-01 4.376113077078589986e-01 7.100111849911696638e-01 -1.014961890957058133e+00 -6.819229138153550807e-01 2.127969317516150705e-01 5.612591462756055805e-01 -9.286247626367190033e-01 -6.186249087412364345e-01 -5.794774549916711370e-01 -1.515310946339820386e-01 1.540480524603963008e+00 6.855178880111848505e-01 -9.546394431862540442e-01 8.944580706728166852e-01 -2.653842369945782348e-03 -8.807906264747369374e-01 -2.409964378770087373e-02 -9.470691839086990971e-01 -7.915767158718399477e-02 -1.666162130112235351e+00 -4.891086043770975222e-01 -6.101731254586792996e-01 -7.807810562292144541e-01 6.177356246291413333e-01 6.068474037014416622e-02 -1.578100112427135882e+00 -4.805538112735777134e-01 -1.205000596520667822e+00 1.049683293157329445e+00 -1.012741856195049500e-01 5.244430833458494368e-01 -5.890950479759866631e-01 2.002186984248576884e+00 -2.950434458509834657e-01 -2.666659103621368820e-01 6.841446921527279956e-01 -4.097096673561074764e-01 -4.224419346594542879e-01 8.119496524311380359e-01 -5.721382263527667877e-01 9.319683926188100376e-01
-3.781930893906726987e-01 3.524185507115668026e-01 8.362161977909935429e-01 3.803638056996709316e-01 -5.564837143605014802e-01 -3.353252320412641319e-01 -2.497702969743458845e-01 -8.169920501312629701e-01 -3.894921094317886912e-01 1.067459017268388877e+00 1.422936579857751127e+00 -3.474204045341631186e-01 1.287384018652906859e+00 8.872203732626617878e-01 -9.291784244031987550e-01 7.848754469301707504e-01 4.106375874593449216e-01 2.483191147743930849e-02 -1.024597913104715818e+00 8.957866388750017617e-01 6.649073828420412266e-03 4.253465598395873015e-01 4.914960313715338591e-01 2.879325466098253683e-01 2.108069865183128111e-01 4.026590889606321833e-01 6.915772420949544141e-01 -1.318771729338298337e+00 -6.205278598050408823e-01 3.838176428938985807e-01 1.486558892983216529e+00 -8.261058087054289345e-01 1.538298744140568219e+00 8.830527385008726249e-01 -9.533955770822680198e-02 -9.568467572934543641e-01 1.111397302578590818e+00 -6.843641363864214622e-01 -1.203307493953550411e+00 -1.190569763192530939e+00 -1.055085984189927606e+00 3.260993197084250950e-01 -1.032284862472018228e+00 -8.575926275958670741e-01 5.255345626861707142e-01 2.079452401690033536e+00 -8.532494409843357497e-01 -2.199038785847607647e-01 -6.829175740092510161e-01 -1.558215379695855551e+00 -1.931681930398843894e-01 -1.748046962880505373e-01 -2.215487131321865477e-01 -1.891260062214516813e+00 -6.121009625831286272e-01 -9.751725422456333225e-01 7.130620310076347668e-01 1.355489720295971923e+00 -1.197757512505838104e-02 6.355764736900302303e-01 -1.233613196974664428e-02 -2.533699307470454465e-01 -8.735702744830582400e-01 -4.565478955920385662e-01 3.296383882981988034e-01 1.101447585515595018e-01 -1.022535316607759759e+00 -1.206702689709427734e+00 2.246848294841095328e-01 -6.600233752400569420e-01 -4.755165879977612531e-01 -4.836277295473122573e-01 -9.694335916499390304e-01 7.407031689318274159e-01 -6.784096362025477944e-01 -1.767572018108871879e+00 -6.219854424560328221e-01 3.532600091424941136e-01 1.191027964158788199e+00 -2.464713473229009466e+00 -1.169454489898373931e-02 5.549394464833580232e-01 2.751915130736016235e-01 9.120709140992680486e-02 -6.168334498581984349e-01 -8.023562956569945115e-01 9.608203346174016835e-01 -1.134938881890237061e+00 -6.635721028179358827e-01 -4.739005409334146601e-01 -4.924387406597956485e-01 -6.602063920909713168e-01 1.098761749205085625e+00 9.134198886373733339e-01 -3.675111086964804041e-01 -3.863618733805275762e-01 -6.890279185540145734e-01 -4.181216356395269784e-01 8.728197414651051034e-01 3.091580346596897733e-01
-8.693043516603951026e-01 4.524472897473331146e-01 -1.019292698855841728e+00 3.281269552710461279e-01 -1.265525938483507584e+00 -1.297089014264440031e-02 -4.837970954459903938e-02 -5.443762756267302855e-02 9.506804902460238692e-04 -1.417106312131693358e+00 2.396925135577126831e+00 -7.638098659107535049e-01 4.091192454254010125e-01 -3.277401881326164057e-01 -1.469389367723067386e+00 -7.057433760003349876e-01 -3.377441203481069132e-01 9.161216556617298723e-01 -4.448461847043815864e-01 -9.153565742134033290e-01 -4.751471099174976037e-02 2.242107852314947636e-01 -3.044860560403554461e-01 2.453612703921988492e-01 4.695987959285462532e-01 -6.198773037295978172e-01 5.209703849368407802e-01 -1.851443160938268662e+00 -4.846346202217803878e-01 -8.595099773519082609e-01 5.758128402599852480e-01 9.889799322424959183e-01 7.923291949645888677e-01 3.584893341505684949e-01 -9.460789836764178784e-02 -1.132517107076694840e+00 -6.195868656266175778e-01 -6.616533373893146441e-01 7.840231375700107419e-01 -1.688072126465003930e-01 -1.089514198394861300e+00 -8.343041367195179747e-01 -1.907319025759832420e-01 -1.137330740705401189e+00 -3.506395827023739975e-01 6.203344512095918528e-01 -9.767722119761138577e-01 -1.831107232473396129e+00 4.317435259327574992e-01 3.054275905111169531e-01 1.270550376832388917e-01 -1.041609423487557473e+00 9.318554943281612268e-02 4.413866375461288905e-01 1.308934367265519594e+00 2.129806771043076530e-01 -2.351583712222099845e-02 -2.218457300875632254e-01 5.970395765139945299e-01 -7.873408726680896086e-01 -3.289795580140418840e-01 -3.171535738875232990e-01 5.097401027573298382e-01 1.283481129172686641e+00 1.358403301593417711e-01 -1.577286714741981122e-01 3.340841395258454805e-01 -6.902215794275847749e-01 1.389601953697069681e-01 -8.714452722178702704e-01 -1.516955869256704892e+00 7.603393888259195599e-01 -3.285844109342145880e-01 1.239910219942170766e-01 -8.616678104176077602e-01 -8.799206337826924740e-01 6.752256828058539329e-01 -8.364448575255349905e-01 1.233855096608874380e+00 1.240564754266464176e+00 -1.936173992901784935e+00 1.425514624609566905e+00 3.854938675905038026e-01 4.254476456855443289e-01 -1.501785448655321431e-01 -1.706594687265739207e-01 1.226921136965759995e+00 -5.658063172745890768e-01 -1.660304489668304184e-01 -1.225567400366495363e+00 -8.770956719473131935e-01 -4.694231836427552040e-01 -3.345706123925275000e-01 3.929867715104374826e-01 -1.386590642261992523e-01 9.095180828339324841e-02 7.393206879085674199e-01 -1.589182645017369833e+00 -1.195932539333750322e+00 1.201034099615933437e+00
-2.369477407049817574e-01 1.290205201925456846e+00 1.034642638231340950e+00 -8.744670744784693861e-01 -7.845273793844486088e-01 1.465007854148945077e+00 -3.451225293954628959e-01 7.310937235842378534e-01 -5.951947221334994431e-01 -9.784005862435639633e-01 -5.052356417994583460e-01 -1.146223948563098283e+00 2.121101762557846548e-01 -1.470396767749407307e-01 -2.150447991766090139e-01 1.605492725053802305e-01 -1.364701481798515248e+00 1.023072292534350503e+00 -1.708953355310337263e-01 9.019010324316678595e-02 1.500654820826822444e+00 3.404485261963655640e-01 -9.226855213240623410e-01 -4.122090259301648962e-01 3.227128721446864690e-01 1.318326901650254568e+00 5.742208676431290737e-01 1.183915591134653722e+00 -1.129584296355581885e-01 -1.205307678790267900e+00 -1.273055014541658370e+00 9.159464085168065317e-01 4.510852956952179221e-02 -3.081381326763661943e-01 4.713982162718616253e-01 -1.557764659474597302e+00 -1.048962544783662354e+00 1.754521460326970705e-01 -1.868257658893687223e-01 -7.308524075682513166e-01 4.858673778130115917e-01 4.793539845517705289e-01 -4.283576621497168779e-01 -4.276221028154618131e-01 -2.762311933564420494e-02 -2.338449595992279917e-01 3.951434385021150297e-01 5.689186622930352266e-01 -5.767763833249627686e-02 -8.816735782596697713e-02 5.733095201512522499e-01 -1.110442045775110742e+00 -3.339661706563746835e-01 5.216455534193458615e-02 1.382775246592386598e+00 5.752006137299880278e-02 -8.966657282520448247e-01 -1.574174368774792221e+00 -9.316231462907221816e-01 -9.554345043035704643e-01 -1.221898838568342471e+00 -6.980140939968637603e-01 -5.165713367914235299e-01 -3.085836997997900011e-01 -7.387917622524635686e-01 -4.669856104668624885e-01 -1.082473244542174307e+00 -9.073511856908308970e-02 5.900448460754694757e-01 1.166383880473653933e+00 3.496721420623267185e-01 8.966373855016341876e-01 4.048538217665038075e-01 -1.144947764084797981e-01 2.262057803402992007e-01 5.289995963023320646e-01 7.261267917037544928e-01 8.753617625044810557e-01 1.217980930736160650e+00 3.265189424374049243e-01 -3.193944876967024227e-01 -5.593655658006011500e-01 -5.511729865802021677e-02 6.837052384876843858e-01 1.073597640123108654e+00 -8.412078672362631737e-01 -2.827398037929494956e-01 -4.809924429556696746e-01 1.963610471188424578e+00 -1.118952052721270962e-01 7.209580761049796394e-01 -9.027883244724784761e-01 1.258152245908448874e+00 -1.522228471718609644e+00 -2.167611302574530552e-01 -6.267961583743906218e-01 4.548531824424744130e-01 1.854816860680844337e-01 -5.283039493979261314e-01 -2.000976559415161393e+00
6.062861535140675606e-01 -7.553554929475547741e-01 -2.065303187892369718e-01 6.480963866269564555e-01 -9.580589050069769907e-01 -1.996173414212386588e+00 -7.212464374979558057e-01 7.574289304191159644e-01 -2.429480327534447315e-01 -2.810579211555720991e-01 -9.838701388178241469e-01 -1.080953040431214873e+00 -9.196504271013791199e-01 -4.475811977619623683e-01 -4.053214795201781628e-01 3.924999989344218898e-01 -6.730152166706367955e-01 -7.783880919839910595e-01 -1.026954548132698486e+00 1.989371054906011738e+00 -9.018238000602984972e-01 6.021824745433502768e-01 -2.330705937292509855e-01 -4.774912319849842213e-01 7.715414228232607696e-01 -2.228828281495041086e+00 9.736480725584996110e-01 1.618204227562216158e+00 -4.296555609194071534e-01 -3.874187540453328804e-01 6.845144036177152058e-01 -3.234754782300457432e-01 -3.288574682150479100e-01 -3.796291951166121947e-01 -2.152921408752898336e-01 -3.287503445283627701e-01 5.667766721077234227e-01 7.987106486680736195e-01 3.890066463370687178e-01 2.940410403809781137e-01 -1.018549095747422362e+00 -5.840424093583578280e-01 -2.772234757331041854e-01 -6.923269091197281622e-01 3.939025327065178161e-01 7.864889029647228469e-01 -8.046120468018600480e-01 -1.154008149892905788e+00 1.113400330861375576e+00 4.117717812939072353e-01 2.862356925815565112e-01 -1.152257109786159583e+00 3.107432027468057800e-01 -1.060474202105829766e+00 8.983277112532194186e-01 -5.481262686177437171e-01 -3.499526774596455336e-01 1.074704874832096646e+00 1.960304466111479835e-02 8.763650561613017809e-03 -7.574390371814211653e-02 3.019940141735528161e-01 5.032670644640527824e-01 -1.255247059799911302e-01 -1.003134159703458206e-01 -6.075952309544172536e-01 -4.289084397215611189e-01 5.467508279784941694e-01 -8.922406691074529217e-01 -2.722275968229642462e+00 -5.282645959045206840e-01 -7.660273428146825436e-01 5.052891464300801605e-01 1.502385495169128671e+00 2.552610998227786698e-01 1.096084144402095228e+00 5.752588519332103578e-01 -5.308044150262535288e-01 5.896870625610831640e-01 3.017363891250717245e-01 -1.044369787093969437e+00 2.012624256418177549e+00 -7.884574583187149432e-01 8.317281846925029809e-01 7.212667207135491365e-01 -1.106909407751013180e-01 1.252183930056604444e+00 7.660569437076624189e-01 1.402934357414172828e+00 9.609448207483396454e-01 -6.720937458683444721e-01 -4.076123580849794203e-01 -2.596795237276474655e-01 -8.706458681285398349e-01 7.570805903116020197e-01 -3.722692097196128591e-01 -4.730597550569586307e-01 -9.718400032129963506e-01 1.631908100228226965e+00 -1.516136893124155227e+00
-4.014958705578310083e-03 -6.645582271439557376e-01 -6.159522902106354669e-01 1.974293889408779146e-01 -3.135689952122999169e-01 3.432352809380143643e-01 -6.455210047736591461e-01 5.683732553371924068e-01 4.574520355546916606e-01 4.945756461782611080e-01 -1.720771161541053251e+00 -1.457119348041107376e-01 1.223062682437383364e+00 1.434062862692923934e+00 9.056981582520712282e-01 -1.593489350573276120e+00 7.993313439029514633e-01 6.120053865395046477e-01 -5.433377915255498403e-01 -8.148213422174315212e-01 -3.808549636894240087e-01 -8.729782796058294103e-01 -1.533225341153935162e+00 2.905697667532782247e-01 9.059797883023076315e-01 1.770408299195186830e+00 -7.630732800340850330e-01 -1.709631380291004588e+00 1.493819914912513924e-01 -8.870174170455541462e-01 4.911595620523930283e-01 2.130749354839318183e-02 -9.556325892094270913e-02 -1.996735411398871118e-01 8.569376956677106083e-01 3.621572219628482747e-01 -2.362020933306221288e-02 -7.676407761280202857e-01 7.315940129634019851e-01 8.451997921423219928e-01 -1.106252143502263863e+00 3.742324832437378124e-01 -1.249082776063266120e-01 -7.896184883556732759e-01 -4.176343652061095812e-01 5.069398205132223945e-01 -1.026059516506030445e+00 -5.182858923104841642e-01 -2.245511835910478371e-03 7.683638230269244918e-02 -5.522384360691900973e-01 2.541659535850010476e-01 -1.698489430140754042e+00 1.730140029984905015e+00 -1.102543958356859477e+00 -1.574986284630006228e+00 7.090048712140385734e-02 8.815684118981684803e-01 -4.565983505528876107e-01 -7.589944020532597424e-01 -6.555299660431885833e-01 7.854091226631741973e-01 5.217534525794357281e-01 2.480109277920503064e-01 7.268165644102114742e-01 -3.917127289623610342e-01 3.593915797864372097e-01 2.608028257855860010e-01 -9.810946640026352306e-01 -4.976203401526444470e-01 2.447773714490244223e-01 5.980717614682063976e-01 -1.639435038011977375e-01 -7.742135514598228463e-01 -6.208948798999364138e-01 -5.446914489465941589e-01 7.183921083915913997e-01 7.902105377304947664e-01 3.811127165615793566e-01 -2.195071555103503269e-01 -8.451908334051217997e-01 -4.105351210264876483e-01 6.766033434690644777e-01 7.188891155062321348e-01 1.954210488920325339e+00 2.324052665949641883e-01 7.015534260091773611e-01 -1.346106496611539471e+00 -2.045015674477415946e+00 -5.451919563840452732e-01 -7.811554207981241671e-01 -2.384607397462141787e+00 1.040205888434502679e+00 -7.416944076924206763e-01 7.757251821915336354e-01 -3.082810754865323855e-01 6.624524131944997674e-01 -1.423871975372914822e-01 -4.395783396704656121e-01 -1.394889390259030471e+00
4.771680847070712272e-01 -1.087351679700856028e-01 3.518756221359710112e-01 5.676334175629824674e-01 -3.833264257197897540e-01 -5.757015724881722196e-01 -5.142399641451858017e-01 -3.191397838938666576e-01 6.115939607730705996e-01 4.191416723878216288e-01 -1.618544103606528894e+00 5.028121665629372572e-01 6.215748984657517573e-01 -1.731790026383091430e+00 1.269381614930793267e+00 -1.416286601472071527e-01 -3.020429443496053246e-01 -3.204369759797944806e-01 -9.359311979358706512e-01 -1.089733869506064101e+00 2.578794419799130266e-01 5.811014263202747276e-01 -1.833027909002266975e+00 -3.075033465562070911e-01 -5.955821638704684728e-01 -6.249966944218394715e-01 -4.341357666913243096e-01 -1.449588450516491545e+00 5.243145955541442804e-01 2.657400592035570885e-01 -3.271654925833927807e-01 -3.624266907656505388e-01 3.507542081568701398e-01 8.409105050319832797e-01 3.899217399681986079e-02 6.503659697303793008e-02 5.815528618337473254e-01 -4.303549288169905562e-01 9.528662756263489575e-02 1.056085333270922577e+00 -5.824635368542372404e-01 3.816874796943822146e-01 4.345366809279719300e-01 -4.050273366643364903e-01 5.834859990637775162e-01 6.754001171910272161e-01 -4.541490057664761548e-01 -2.633073484778333251e-01 -1.574549709512054640e+00 1.061729254348021456e+00 2.672195439641437131e-01 7.763615825595984177e-01 -6.354430338960476154e-01 -1.169041294930496910e+00 -3.465695042343593935e-01 -1.251905468514216413e-01 -9.907460276437816127e-01 4.489616867510173859e-01 -3.975789646919795639e-01 -3.540198269798635056e-01 6.396368410400494753e-01 -7.382847409447824694e-01 4.865582020321197049e-02 6.828614655283393731e-01 -6.553895152664160895e-01 -4.996703104869768541e-01 -5.160641494801216922e-01 4.337194798782746941e-01 -1.356535184213331913e-01 1.633025004293178484e-01 4.952763993906557083e-01 5.059655091479534766e-02 -5.258224441203451782e-01 5.836399515403755123e-01 1.693241506260714790e-01 -1.456515233632774242e+00 2.327220448466393032e-01 3.066936609114612189e-01 1.620842955313168021e+00 -1.298018990901091740e+00 -4.866769372072176636e-01 -1.147937395051013665e+00 -1.094307464293428289e+00 -5.090811307676745834e-01 -1.814332313094968452e-01 -7.481770737996600307e-01 -1.140690108515742374e+00 1.347986577153875265e+00 3.086026933144566664e-01 3.048271865257031199e-01 -9.458358509286790561e-01 -4.346852005757575327e-02 9.352796119697163180e-01 2.564013683028524282e-01 6.581632650420566888e-01 -1.954356356820964036e-01 8.289200520464828914e-01 3.357955335377250106e-01 -8.134541161625934436e-01 8.100212542285373241e-01
1.345073098101433051e-01 1.092042203863781813e+00 -9.990639652541509763e-01 -7.741521354536604616e-01 -5.445732912234966250e-01 -8.997774255425066148e-01 -6.565383105977677936e-01 8.046885707292878998e-01 -6.602109373449849272e-01 9.184204842840230087e-01 -4.602252138886674393e-01 -3.568277865287224349e-01 9.992403105534565233e-01 2.979373945056219553e-01 1.431515848158098070e+00 2.942455964306369687e-01 -1.238881965166952481e+00 3.603329675878334526e-01 -1.816016585598996813e-01 6.232225793628470845e-01 4.374863847566749508e-01 -9.091614870749195054e-01 -1.205734627457381164e-02 -4.394925619275150130e-01 -4.880315137006689397e-01 -1.201884071776138235e-01 2.756819835753810399e-01 -5.434343205350870010e-01 -3.031190961225757041e-01 4.993201530019092393e-01 -1.872864505986006622e-01 2.243071403008729814e-02 -7.388208478389335365e-01 -3.316258704955881709e-01 -9.879591531846858565e-01 1.528213153117794210e-01 4.267798207869583083e-01 -3.065205289335284355e-01 9.005838921763109628e-01 -1.006805220380759369e+00 4.168995844741796852e-01 -7.517723354179967066e-04 -1.024429081340620717e+00 -4.273057216172655992e-01 -6.719894448986187818e-01 1.017219423836454695e+00 -6.972647013580668407e-01 4.509787244641742521e-01 3.285100806015463504e-01 -8.144786213510953887e-01 -4.878540394902948774e-01 8.471091048852792404e-01 -2.721383893028999079e-01 -3.028294218098944723e-01 -3.409023702348774054e-01 -5.103286607636228212e-01 4.109730147939317235e-01 8.216963914063916130e-01 1.428443087458439176e-02 8.479434073673706995e-02 -1.904504436592519279e-01 -5.260665646814056684e-01 -9.892616543626937542e-01 2.469642375114573796e-01 2.442787024030289855e-01 6.672045970028023243e-01 -7.639100883785792107e-01 -5.176139808947483045e-01 4.154147044776920761e-01 2.606794117404883648e-01 -6.620516026227716289e-01 -6.746120586284333198e-01 3.859677673772154982e-01 2.820737635949813749e-01 7.773530752635193601e-03 -2.024663450461321179e-01 3.957366307371903980e-01 3.071892671845978806e-01 -1.506412738873605106e-01 -5.241462005794519374e-01 2.044511965132015108e-01 5.768034349949611173e-01 4.925504070712474203e-01 5.972605674768776129e-01 -1.161323106690821172e+00 -6.439433199030555333e-01 1.435501405994360491e-02 -1.277858992434964813e+00 1.068817691296279682e+00 -4.644013678244608978e-01 -7.703269955641762756e-01 2.515067096452225925e-01 4.853396490570290323e-01 -4.155240479701906575e-01 3.854582625586721045e-01 -8.928495683050086118e-01 6.295726676645593267e-01 3.285096680396409341e-01 -1.292162284590232524e+00 1.856959241761313717e-01
7.934920003310130809e-01 5.291375344096039823e-01 3.825834312814122007e-01 6.375045489012972633e-01 -7.827788650418505689e-01 -8.460051668448843598e-01 1.403281070020238608e-01 -3.285625705429416343e-01 -3.884018709969343230e-02 1.140754457293344348e+00 1.861110081638031932e+00 8.867768212727153432e-02 2.187291821373592793e+00 2.141962049003498514e+00 -1.528724796513577955e+00 -7.372612473946805745e-01 2.783099871382875290e-01 3.295990260481977512e-04 -1.393565601923777875e+00 -4.680860095502902829e-01 2.096905206440667357e-01 8.177068429233443903e-01 1.067177203513667072e+00 -2.595518210991524799e-01 -9.678557592580622204e-01 1.605941401904207866e-01 6.329961979817794182e-01 -1.146809345722587858e+00 -1.418708009518641067e-01 -4.331126265002462339e-01 -2.924122350074724319e-01 -1.438254402171232238e+00 -3.521273702490670954e-01 1.915539057139730439e-01 8.446946651277483786e-01 4.641759496608695024e-01 1.815675777935815971e-01 -1.188228487366138619e+00 -4.502379171881748521e-01 -1.326771913141777670e-01 -1.099114019089370675e+00 -3.865079311022565078e-01 1.948895913371004318e-01 -1.152316794660806831e+00 -2.456277736723455063e-01 -1.314669374457206330e-01 3.892914916693448468e-01 8.825360524251856242e-01 5.809951685285850154e-01 9.021263327282312838e-01 -7.708789236040648474e-01 4.616475229092023014e-01 8.430907392739349637e-01 7.415900995043696042e-01 -1.324848542645629568e+00 -5.605070736047578217e-01 4.533856576669198502e-01 -1.589889835301229848e+00 8.644695815880756307e-01 -1.927247888314890689e+00 -1.899774067408986911e+00 3.405415994020599135e-01 -7.911903729629738979e-01 5.148045629865694028e-01 -3.235524728769902936e-01 -7.317955594590982438e-01 -1.325678712463503051e-01 -9.030720794995533707e-02 -6.733233785085186440e-01 1.087747974953364949e+00 -1.136454484934008996e-01 -1.330158094000827296e-01 8.796820399534803492e-02 -9.561863300998757476e-02 -9.621421590404425350e-01 -8.191107064205066512e-02 6.609581877788803794e-01 1.837675325937346837e-01 1.548785838689667183e-01 -6.191954172069281670e-01 -2.228651838186627376e+00 3.000333249163603666e-01 -3.272010647892931862e-02 -7.748937069243805320e-01 -1.967930041126813856e-01 -1.227969281456861461e+00 -4.193022268098903216e-01 -1.226698747610340590e+00 -8.453196783150956906e-01 -9.858580027406711466e-01 3.409843451160006755e-01 -2.027744246040145804e+00 -3.881816642813167850e-01 7.674710257717798356e-01 1.694450907900306794e-02 -2.962224467545653828e-01 -1.587025788680230809e+00 8.118119597135320387e-01 -8.613229064029084281e-01 -1.120770595566239654e-03
-7.230760778884833817e-01 1.759765103820614546e-02 8.382865960131187233e-01 -1.302750394680904644e-01 -1.046762638242867638e+00 7.652558732375899231e-01 -5.031376220803209787e-01 -7.335551990874232819e-01 -5.003509211547405577e-01 -9.946884929394600450e-01 -1.098847131653598153e+00 -9.290733662394839998e-01 -4.158757126408824112e-01 -4.348889775236993160e-01 -1.170769115329248766e-01 -4.593531514774472635e-01 -1.005315309504239751e+00 -9.017706501234060146e-02 -2.242286810996485802e-01 -1.660173743910617894e-01 -3.045898757716834493e-01 -1.077095426370059617e+00 -3.771479368303348734e-01 1.840901833844289792e-01 6.492805911965811028e-01 1.024737399024245807e-02 -6.221984786435835052e-02 4.119764956019325575e-01 3.076172259252386576e-01 -6.079806255681351468e-01 1.251913671507950854e+00 -1.845219007456679661e+00 5.315204327346715329e-01 1.513988499728356751e-01 -4.268672838699129057e-01 -2.280247217848038743e-02 1.254369118764950608e+00 -7.848788028726593202e-01 3.081031830317067510e-01 4.683091512690722991e-01 2.263361251176864153e-01 -1.244471805107960488e-01 5.422932583508198734e-01 -3.798771454794383495e-01 4.103783711174101567e-01 -9.685319837670892662e-01 -3.291841661574118616e-01 1.061656296991507320e+00 1.188612535796983671e+00 -1.836786120123492072e+00 5.191098155475533105e-01 -1.135932747551540722e-01 -1.731293050542552781e-01 -8.696125271465331430e-01 -4.195910637395371956e-01 5.506853182104443079e-01 -1.875306536279002678e+00 9.083566778268123976e-01 -2.165251457219503628e-01 -6.080224552641421143e-01 1.047424808148385428e-01 -7.758353433982387859e-01 1.976842232839115809e-01 -7.745832171023817603e-01 8.951408032483603172e-01 1.864378642649838769e-02 -8.208551301588569438e-02 5.998081751422124075e-01 -4.272762101096933551e-01 2.157332872431411488e-02 5.903823803422701966e-01 8.611324073865888051e-01 7.015993910622158047e-01 -2.099210855229741435e-01 1.869334282659538549e-01 9.035466993923204626e-01 -4.258962331957124800e-03 5.103683742117888222e-01 -1.424678325136949697e+00 -4.770016337740627388e-01 6.520415265750690859e-01 -3.243401987870154768e-01 1.130943663471292382e+00 3.521137331923739344e-01 -9.274823512586336527e-01 3.461079494756731934e-01 -1.426526661237886295e-01 1.406296821623364668e+00 -7.605096004209647986e-02 -1.039992678369510148e+00 8.517927244398293407e-01 4.950259988395288024e-01 -1.163848000683134876e+00 -2.340455649441078034e-01 7.562619520275586371e-01 5.252798670688708649e-01 -9.166532664200295610e-02 1.362928753303603857e-01 3.717445508912729513e-01 -4.500009857056930240e-01
-2.855816675985545783e-01 -2.873056189073297517e-01 1.814404440415380848e-01 -5.919587707178772806e-01 -3.712012101868680802e-01 3.277158080893023961e-01 -5.192680655491926922e-01 7.452511973306019666e-01 -7.071710666662476275e-01 -1.553744338238662204e+00 8.486035608279989262e-01 5.088991387289847346e-01 -1.347481144885045889e+00 -6.664981373087617289e-01 8.368192909901768506e-02 -1.517577532054405598e+00 3.314055221022245423e-02 -8.077341076140890364e-01 2.205969706524219809e-01 7.622680004871319470e-01 1.211732453546353394e+00 5.334176409716200329e-01 5.017987204241297627e-01 4.599256265430626822e-01 -1.377013161036915422e-02 3.877320171524544223e-01 -7.709755293588721470e-01 1.214978380208828312e+00 -4.451194607938119829e-01 -9.949069086339699108e-01 -1.501344311490665273e+00 -2.041092431450374445e+00 -2.190355347792923013e-02 4.577483055341431406e-01 6.504081062787020473e-01 6.688446481662969623e-01 1.864364880281649040e+00 2.945389164335798227e-01 -6.253698955175124308e-02 -7.995468957012219491e-01 7.485911255159450883e-01 1.565678180784016105e+00 7.284251754668949475e-02 -8.165275251168292447e-01 4.910195440532167388e-01 9.731881280805052548e-01 -1.042631888809998131e+00 9.327962763513088229e-02 1.670513410213159688e-01 4.748561386059804712e-01 5.764985788106024023e-01 1.697760008960861988e+00 1.245493150012878525e-01 2.513870782911454826e-01 -4.351154889354693078e-01 2.006914700503492188e+00 -1.003626046894874196e-01 4.125911374307092427e-01 -1.427830150676452137e+00 -1.857343220564505293e+00 -7.460969555654181073e-01 -3.711173401633095503e-01 -8.658739263392193353e-01 9.162485402739528606e-01 1.966692639538005494e-01 -6.974672658750614707e-01 8.664246747588274511e-01 -5.593011531491496324e-01 3.961277450083263152e-01 -9.003571222158037735e-01 1.529903435998657413e-01 9.293123980969628661e-01 -2.688831481475036922e-01 -1.454112427227549631e+00 -5.113877251922278877e-02 2.741727340572311933e-01 -4.732714814347507848e-01 1.938109333477721491e-02 3.220938623061672113e-01 -2.270283939412404417e-01 -1.532561396801544462e-01 -1.049113247867961451e+00 -8.582254961272713090e-02 -7.215346614574396078e-01 2.136878969542059525e-01 -6.569596032622122550e-01 -1.607724020887535854e+00 2.290098588060870133e-01 -4.323677956453531590e-01 2.470054270533453278e-01 1.546734005319335248e+00 -1.733289392647430760e-01 -1.773766397910997439e-02 -3.484681692379658635e-01 5.462927443459509869e-01 6.855686353656239573e-01 -6.863807206543294237e-01 -3.468133525102780612e-01 9.356171089939076257e-02 -1.558467396368226510e+00
-1.300897096426908206e+00 -4.400738252759233138e-01 -1.270717233285168168e+00 5.723576499472360357e-01 8.189769955451929595e-02 -3.188000002892832363e-01 -5.700630988469250759e-01 2.131447242776255135e-01 7.133940920472081615e-02 -4.338408591454071539e-01 -1.480918522205111776e+00 -4.271925835221291323e-01 9.290121028676300297e-01 -5.199624143935445142e-01 -9.059988615542956536e-01 1.091635664923591653e+00 3.935090290132188251e-01 9.725446373011152890e-01 4.421925272433964160e-01 -1.539443571362021812e+00 7.494102082826993583e-02 2.378752995372731063e-02 1.108198142319712254e+00 3.894690925445578600e-01 2.490779242139088134e-01 -1.205051376540520747e-01 -9.855058297248540933e-02 5.335218600476568929e-01 -6.145298601006005806e-02 -6.207675098810652159e-01 5.832576906763162761e-01 9.135500139460983604e-01 9.163222980307699217e-01 -4.271390255433184513e-01 -9.750028200370259857e-01 -1.841304056824556223e+00 3.487247370426556636e-01 -1.546078348379605061e-01 3.386100702550568498e-01 -7.526972157826259391e-01 -1.032417504625714466e-01 -1.587701665523318928e+00 1.791625058126248768e-02 -7.365530884205756523e-01 5.157389012245642279e-01 -1.559371436482999584e+00 7.261612259662805768e-02 1.055319818611942129e+00 -1.032109647345941905e+00 -2.525463764252564025e-01 -1.148614731790450261e+00 -7.797419682586315126e-01 5.723217689750763615e-01 1.082874940873700842e+00 -4.995336637162291482e-01 -4.491973699796120711e-01 -5.977973462126900950e-01 -7.371208386046799177e-01 -2.368410297831300970e-01 -1.264739323045098063e+00 5.884766479739589329e-01 -2.546576828328817044e-02 -8.018487070265818417e-01 -8.331734766231336797e-01 -2.580108235766156444e-01 -3.346622641306009061e-01 4.586588346503315816e-01 -4.359617229824713086e-02 1.664318607700729091e-01 -2.525278886719183546e+00 7.299984080294932287e-01 -6.667533183295193400e-01 -4.898932560429548055e-01 -5.371473713610864786e-01 -1.581127227837292759e+00 -3.676833016906356222e-01 4.279852391405031264e-01 -6.955857158935090535e-04 9.993880316186579682e-01 -4.737041737783848766e-02 -4.593827715049198512e-01 1.309967026981554428e+00 -1.203651288570654287e+00 -4.318963966046958647e-01 -9.810723088602384401e-01 4.761850521250288182e-02 -5.751932300356984301e-02 -4.211552050692244364e-01 -7.104194364455779231e-01 -3.834766604036758397e-01 -7.201664712136148783e-01 -2.194115600341054240e+00 7.189127495909978238e-01 3.837484662384308409e-01 2.648026842723038010e-01 -1.272207429349130337e-01 1.424089781686821876e+00 1.070790069291306379e+00 -2.247853685041768301e+00 4.615924781048478254e-01
-1.478994564016416824e+00 5.689230985731696943e-01 -8.896269631404755129e-01 -1.911774260981371210e-01 6.836331434528782891e-01 3.448354187013843997e-01 3.696247999671933501e-03 7.404546914441220151e-01 -7.450480890471699036e-01 -8.530450522056017837e-01 -1.523107720378346075e+00 -7.698709594080154206e-01 -5.123951698496662654e-01 -7.708674769226965540e-02 3.194373919357714753e-01 -2.919594933778214482e-02 1.889849548026488191e-01 7.220241879959472531e-01 1.059980308793654569e+00 -5.539729311954129098e-01 2.674348226940629347e-01 4.410757975766992772e-02 -6.347669650104050820e-01 -6.849670804090028930e-01 -8.794392782824133059e-01 2.414466895782886591e-01 -5.619417440564392630e-01 1.483588046958799200e+00 -7.295829548410514009e-01 -4.060245662164341796e-01 -4.738149434415269146e-01 -1.352252137335605342e+00 -3.290907187312734350e-01 -7.802729307284916871e-02 7.241554644546316366e-01 -1.193673506141745486e-02 -7.390084572668005336e-01 -2.850557515824170829e-01 -4.395609127621210033e-01 7.002749097590619254e-01 -2.956895365133830889e-01 1.020305456217884599e+00 8.600133135262338913e-01 -8.109766751436525700e-01 -9.725208153018668478e-01 -1.200399803532943066e+00 2.339322020947058600e-01 2.487536240170068191e-01 3.423201141826151539e-01 1.916916855842789313e-01 6.269152831982616192e-01 -1.816102690442012779e+00 4.204428414635207889e-01 -3.948189024245928741e-02 -6.282875635877489540e-01 2.266845537195293914e-01 -1.432915920739552318e+00 -2.978054610096111943e-01 -2.949662725660739393e-01 2.693860996244013331e-02 -1.565806570655089436e-01 -1.061012247562898470e+00 -7.946415240139678149e-01 7.865723183531688756e-01 8.215585117628527723e-01 -6.605727527904672325e-01 -4.182267602190753442e-01 2.465524828108504179e-02 -8.582615092200226448e-01 -5.101137449142546521e-01 -1.232288187873921415e-01 8.792720669471039141e-01 3.755323304611300483e-01 -9.710258385716805107e-02 -2.606801301609133481e-01 5.241377428591526000e-01 -1.876015043582905384e-01 8.691847656000656341e-01 7.529163828736380459e-01 -7.297882341161624487e-01 4.560931319669684902e-01 7.937398339854027929e-02 -1.005248927390565816e+00 9.521150012678707142e-02 4.510670341500646607e-01 -1.486495349099319907e-01 8.877994966417681599e-01 1.104051014311334900e+00 6.943019156017812277e-01 8.341518982619380296e-01 5.078516018716601119e-03 -3.687511980314557569e-02 1.343232556138837408e+00 -4.876028024068979616e-01 -9.456103510607251073e-01 -9.011330433958578690e-01 2.956989823237245463e-01 1.153441405364933336e+00 3.272571135692938782e-01 5.687080348387872630e-02
7.507523066041527082e-01 1.158139703441780771e-01 -1.118856099759542255e+00 -6.851157453776914874e-01 -7.974883421675587059e-01 4.751324788410883349e-01 -5.754288205755665464e-01 -2.437788626918719614e-01 -2.747215289010188077e-01 1.173805057217711667e+00 -9.451513665919005769e-01 -1.050595936636591565e+00 -8.322097655677626049e-01 -2.799519724529158093e-01 -9.688732546913554344e-01 -3.686548439188243043e-01 -7.653754802203169838e-01 -2.264067265222738656e-01 -5.976679751021265474e-01 6.872887153097487212e-02 -4.635997111209303606e-02 -1.966691425024978124e-01 1.183113342054771255e+00 2.059364709655008563e-01 -5.559024722040563082e-01 -1.109014218049346301e+00 -9.418371686261879372e-01 -1.681004087565461047e+00 6.521656330392329171e-01 -2.415292575015517973e-02 3.338229743677664785e-02 1.527731887672605815e+00 4.468318913815680360e-01 1.151112750293036280e+00 1.353477853089448679e-01 -9.164477616232991064e-01 1.001139820616681275e+00 -7.656620188468235000e-01 -9.595671224789223963e-01 -1.053523177122461130e+00 -5.247951317757959533e-01 -8.651788827520260350e-01 -4.836267061910423659e-01 -1.514973493663392817e-02 -7.852122809012330729e-01 -7.233308233635090678e-01 -3.891579977009267943e-01 -1.002135109518599521e+00 9.223166808658983529e-01 -3.870743616389511477e-01 1.410558761605754219e+00 -7.301827232500776033e-01 2.413942824955633282e-01 -2.510856634844271795e-01 -6.107134361722410532e-01 8.444369410088999883e-01 6.121456205452268096e-01 -1.325532494165765796e+00 2.985995376487380337e-01 -1.491760900629429010e+00 -7.882132379570491731e-02 -2.894178805580645553e-01 -9.079227662862997539e-01 5.324136816857386600e-01 4.084552155790847627e-01 -1.041381340495318053e+00 4.454665450006563554e-01 -1.947438272419976357e+00 -1.106290620211783926e+00 8.029600184365187632e-02 -4.281632013198252151e-01 8.614198974017430732e-01 -8.815645866921828500e-02 1.076155626121889197e+00 -3.378555670526863230e-01 -5.336736134903579121e-01 3.963860327392254579e-01 9.302014365421330810e-02 1.341974791013995416e+00 8.604736308907021680e-01 -4.501457275548158554e-01 -9.406040983989266691e-01 -8.500750448831670969e-01 1.559754641710782985e-01 -1.761622463211226286e+00 -7.511899775054663442e-01 1.255959275974143363e+00 1.051186007656453203e+00 -1.269994573968901364e+00 4.108470967878118385e-01 -9.554976048713818004e-01 -8.832351262107975831e-01 1.545387746904554493e+00 5.871962713175182813e-01 6.187838678801707015e-01 3.724003417148275541e-01 6.703908212569618108e-01 6.708446916850212549e-01 5.200981431770254626e-02 5.465280779499063213e-01
7.395576956645089073e-01 -7.750200172125060183e-01 -1.648611284228367405e-02 5.257441831212265049e-01 -1.124589945614940190e+00 6.013532648402748482e-01 6.189934840483202194e-01 4.481128395225627004e-01 -3.040056501911100328e-01 -1.439728202551779357e-01 -2.451239758556646553e+00 -3.219983613171240600e-01 8.220489051143843318e-01 9.732701814664500573e-01 -1.500139405472702858e+00 -6.807353348955713646e-01 6.880775534092040679e-01 -1.350966260025325827e+00 -1.149564686377129830e+00 -6.211865998559131796e-01 4.343054573384994566e-01 2.050664545333679423e-01 1.190346609629746970e-02 -1.701618003343568386e+00 -6.724584224706808833e-01 -1.706695025624090256e+00 3.533237250346641933e-01 -1.649619402839014981e+00 -2.683334082875780124e-01 -2.283818740536752712e-01 -1.129633059266093476e+00 1.717892661414724964e+00 5.016395192639873102e-01 2.717309491788922893e-01 -2.762372231569429348e-01 2.335269600811554991e+00 5.061025012177068627e-02 -4.493368687714162646e-01 -9.652114599797780858e-01 1.579235388173249710e+00 -4.289844381717653476e-01 8.916631407067440174e-01 -7.840442523731079305e-01 -5.610524449930038848e-01 1.762782236942512237e-01 -1.464919865310633895e+00 -8.331809318198513115e-01 1.258264350767656303e+00 -1.545261116603971474e-01 -9.587763186508699853e-01 -6.547478120550737080e-01 -1.009457929941471432e+00 8.315141541844888184e-01 4.815387869483661598e-01 -1.109288935788244057e+00 -7.430484566946112812e-01 -5.083296586064639522e-01 -7.392142604332040123e-02 4.660137481676886878e-02 1.096094528306149202e-01 -7.255076399907718354e-01 4.631253127013740811e-01 -3.973286820520585128e-01 -2.024051323785461154e+00 -5.773998468662844274e-01 -2.901524575911832993e-01 -7.153475980435775039e-01 -7.042642295661476481e-01 2.820805981223395431e-01 -9.822204665458685868e-01 -2.361737608771645180e-01 6.790707656274728166e-01 -4.444551883339897813e-01 1.931527173004419506e-01 1.381200833261067851e-01 3.064639594335127337e-01 8.780913427338000732e-01 -1.727651969584290646e-03 1.521775477225723872e-01 2.714483133507412660e-01 6.806151717758259778e-01 -3.293881856663726237e-01 5.412003625067967061e-01 -3.055551264299140035e-01 -5.279318294991700578e-01 -1.029440038934464008e+00 1.665942556696053289e+00 -3.458591114947413558e-01 6.572482707207190078e-01 -3.940734277644372674e-01 -1.485426899807584578e+00 -2.365419292124085970e+00 2.216047678537766755e-02 1.612994280566470151e-01 -6.405673201940346173e-01 5.908386801791496445e-01 6.811667443000226640e-01 5.150032739871830412e-01 9.401923900932716016e-01 -2.299259352849852278e-01
4.587954994634976247e-01 5.846522438333674465e-01 2.183139836233392583e-01 -8.114999926070307623e-01 -1.262315252638436469e+00 1.150142787524974647e-01 -4.799770282295988677e-01 2.488230066908660720e-01 -9.768079466212927775e-01 9.981940250234671019e-01 -3.330036737710281858e-01 -1.171504439758601857e+00 5.753152686507776448e-01 -3.949495496880126577e-01 3.678102736360556665e-03 -1.085827345003487432e+00 -8.045742953470735870e-01 3.684406381578289591e-01 -2.898713434993366311e-02 8.060519822661125211e-01 -5.436512982400858451e-01 -4.015646260984702121e-01 3.802610145848038803e-01 -7.688912217844183494e-02 -3.902005650327797226e-02 -6.299615048785368598e-01 -3.159179792961855360e-01 -4.146506415387763572e-02 4.126251044131210577e-01 -6.430520706232634165e-01 -7.698399414305725497e-01 5.745401636785705257e-01 2.872890369136711364e-01 7.225192076518894835e-01 1.225280059968839180e-01 -1.259713639758511805e+00 -3.591245749348679905e-01 -1.651038732702568845e-01 5.139154884449997907e-01 -8.464305633117617800e-02 1.037738921142378895e-01 5.607925532150527248e-01 1.331665310411354886e-01 3.280448939324592250e-01 4.458613533617146740e-01 -9.547349878086810460e-01 -9.521067589272047549e-01 -1.246219248166493987e+00 -1.229741819939939029e-01 -8.840258351123861935e-01 -6.872724081867469526e-01 -6.469522248383591245e-01 1.467089094264962812e-01 -1.426588001648236625e+00 4.314379339314319828e-01 3.788259801479663680e-01 -4.568998248161574849e-01 -7.922865227490610840e-01 -1.493936345133606847e-01 -4.426010338391732080e-01 4.119038488377407825e-01 5.465863745773921201e-01 -3.789755355376501211e-01 -6.785512167680950446e-01 4.623735449666571684e-01 -9.455896237580672103e-01 2.262756580016294650e-01 -5.094024887706278815e-01 -8.573480639850933338e-01 6.277453473700201902e-01 -9.262649789181034432e-01 2.584141174937451546e-01 8.969941608151884571e-01 1.096829627462448498e+00 -7.621272879480915918e-01 -2.582433270593901264e-01 7.765546513392307393e-01 7.771362918569222344e-01 -1.189366396793640063e-01 -1.766208992830698710e-01 5.753887154899557377e-01 3.316527283170557783e-01 -5.707773486906085950e-03 1.068447653669726827e-01 1.542795220047536331e+00 -9.480474447529921300e-02 1.350684758910273287e+00 -5.535453977132644976e-01 1.387386925781388891e+00 -1.780356860799544860e-01 5.428824282249586908e-01 1.247075900306204854e+00 -2.629053069595134184e-01 5.815909664511902388e-01 -2.873899436467796109e-01 9.910952571338002004e-01 -4.389622841472615167e-01 -7.705404652612269922e-01 1.867024214558231920e-01 -4.747300909361101828e-01
-3.513796183522246430e-01 -2.405409116438544659e-01 -1.852010155773633759e-01 2.126672168016082998e-01 -3.170090281712957814e-01 -1.165022858268764949e+00 -7.028447602926231053e-01 -8.740528882191932469e-01 -4.454165873426374489e-01 -9.916031067166172219e-01 -8.390083783871680190e-01 -1.011768581819212587e+00 1.436732734525296262e+00 5.151669140761735433e-01 -6.890115913328592745e-01 1.152899964528432131e+00 -1.068327097614207855e+00 3.783876939358503111e-01 -3.532565867603723597e-01 2.961085248688435367e-01 1.131164981220569438e-01 6.778277333386973913e-01 -1.915655755754442247e+00 -1.095209954933316299e+00 5.763794581120662563e-01 -6.680616024966723465e-01 8.701792012413377408e-01 -1.141731576440417451e+00 1.045839415201614414e-01 -4.538197693808604383e-01 -1.476477115825553854e+00 2.129891469699484396e+00 8.080539499903029999e-01 7.269153706960853611e-01 5.557087896535233273e-01 2.786647117369540072e-01 1.191993222750419162e-01 4.378291192058704207e-01 -6.908234457410785678e-01 1.467369170372419429e+00 -1.228117528512321810e+00 -7.234007716438526359e-01 -4.589229649436624703e-01 -1.049125717013563941e+00 -7.866506246528514046e-01 2.374505427249844924e+00 6.947594929838925015e-01 -1.807879867736245094e+00 3.724021071917422154e-01 5.764330298272578590e-01 -1.149576845844695994e+00 7.012195815013685385e-01 5.693776898754753235e-01 -1.704812098544696175e+00 -4.034256265215084292e-01 -4.211317118447966412e-01 -1.788436064404613501e-01 -1.099119706567997845e+00 -2.659943643761149557e-01 1.569554440041052601e+00 -2.177074101718242394e-01 -7.639927078878145927e-01 5.990531806724108677e-01 1.225409741847887535e+00 4.608153007551913372e-01 6.101769533906502563e-01 -1.014441079359962750e+00 -1.866974019449389732e-01 -7.026061419908098682e-02 1.366661881445588866e+00 -1.983490666873472197e+00 -1.647970845955747110e-01 -1.509494749768743593e-01 9.068016906026958868e-01 -1.258880544784401367e+00 -2.447976113125613362e-01 -4.672453043438880016e-01 7.417136565303975582e-01 -1.958748395160599953e+00 -6.686049284166311057e-01 -1.043794363446233664e+00 -7.831511231425508646e-02 -2.021934546835920665e-01 -2.607352540595370832e-02 -5.623249840589429338e-01 -1.183572125123157237e+00 -6.702212104063601794e-01 -4.528282884372406003e-02 -5.928467358606102078e-01 -7.397017701379638988e-01 -5.680476933367856196e-02 -9.613538559389037674e-01 1.881058745720665115e-01 1.134845647194993701e+00 5.062938002201387011e-01 -1.659728296366462519e-01 -4.981000729435545171e-01 1.188615179062038445e-02 1.261391669389602788e+00 -9.366561149475274295e-01
6.272067088435354654e-01 -1.032921772698324192e+00 -1.792360925919309067e-01 4.222110029937646281e-01 -2.229434886082464484e-01 7.427242429929453715e-01 6.044135473185261592e-02 2.276836037605632912e-01 -4.607428329779617027e-01 7.532565162908707590e-01 6.540420904496707655e-02 -4.895007022109187228e-02 5.302112678244597088e-01 -4.667611877492879868e-01 1.775188406931970109e+00 -3.393255682286095976e-01 -6.603115351359357676e-01 1.776461100761876633e-01 3.623144223022491395e-01 9.767570619170297119e-01 -5.825450814356903928e-01 4.556873520182300186e-02 3.019688345531247875e-01 4.005988452663590271e-01 -4.712570236978994714e-02 -1.260198018900703154e+00 -4.053705662536695176e-01 -1.059519832241410248e-01 -1.398098325442373557e+00 -8.387083341332022268e-01 1.419066555872880553e+00 5.326355689760309264e-01 -1.870521153254716545e-02 -1.501076547491583479e+00 5.026827380063418893e-01 5.665514554115753665e-01 -6.215219644053767700e-01 5.663918339740983132e-01 -1.531979226586224874e+00 -7.028786094245164096e-01 -1.425388941991424241e-01 6.695162279195191468e-01 -1.271783688026030257e+00 -1.320707031659526409e+00 6.793416918701460361e-01 4.061155078885763658e-01 -1.224795519240900354e+00 -1.073525573387640097e+00 5.719910562069870918e-01 -1.461305362660558105e+00 4.258971330950739320e-01 9.597568963323130919e-01 -1.050102216882766726e+00 1.330921209769949931e-01 1.307685572488306580e-01 5.473108531883363881e-01 7.600104967475995732e-01 -1.573004296982020822e+00 -9.609255138346374236e-01 -1.230401700948497434e-01 8.357672606902534218e-01 5.978962277150078330e-01 5.938986700879463898e-01 -4.793243835624051985e-01 5.844669412832931288e-01 -9.721903783543600630e-01 -4.503258637144640364e-01 2.263355200153841229e-01 -1.918565056305464034e-01 1.005955164379344957e+00 1.387666117338915150e-01 -2.947945349587446917e-01 -7.991006897075355608e-01 1.279902609642779243e+00 1.483724589071035327e+00 1.735173178100542779e-01 -6.271785737832348273e-01 -5.273056461185741117e-01 -1.309591339272463406e+00 1.585249585630029157e-01 -4.422326947557668197e-01 1.126101706753738219e+00 -8.667231288345385032e-01 -3.289851936923999243e-01 -6.945026540887300204e-01 -4.442000881055548356e-01 7.111158922997220522e-01 1.832781410568544489e+00 1.662872199790780048e+00 2.114284463216352661e-01 -9.951627331484746986e-01 -4.291080819129509671e-01 -8.659568953933685087e-01 -1.829443112948377026e+00 -2.679634115070042566e-01 -9.032178317750155783e-01 6.771197748997185295e-01 -8.092302354943669007e-01 -6.225725896441998142e-01 -6.709063779884202883e-02
-1.566071308667005724e+00 -5.502649486080998242e-01 3.794009713649886817e-01 3.451114781776374874e-01 -1.685425967335544561e-01 3.955363771986514232e-01 2.051840550816082520e-01 3.252949119712991721e-01 1.128030384093580002e-01 1.804436419371081013e-01 -3.010035844815560635e-01 4.435780928833476522e-01 1.995567838256777415e+00 -2.696233457432824394e-03 -1.949712233110677095e+00 3.127518950516541829e-01 -6.994097656561985010e-01 7.080588952739089170e-02 -1.174550611935343714e+00 -1.822571209019442362e+00 -9.657569413235331801e-01 -4.841159882723897745e-01 -7.756276080475285051e-01 2.931287346104510250e-01 3.808344156568717054e-01 -5.822648148932405565e-01 8.245609850612736214e-01 -1.585063733476093306e+00 5.717219788736858099e-01 3.344843228111940014e-01 6.360147433526657235e-01 1.278224318928381065e+00 8.479092840759344663e-01 4.069229534758566080e-01 -8.825889425026187673e-01 -4.980422128430581075e-01 6.362662053746720447e-01 6.921261493310151280e-01 -1.709087248051361030e+00 -4.206828374589642872e-01 4.081791682440064628e-01 -1.418075786245784453e+00 3.404041889215582151e-01 -1.324763625109206311e+00 -3.713904948968105857e-01 5.797356810415573714e-01 -1.353489007532295174e+00 -3.593449771169671125e-01 -1.498647878801055766e+00 -1.534576784620578449e+00 -8.862972944261080510e-01 2.632121515836071124e-01 -1.658320301709722555e-01 1.613599872752637276e+00 -2.003288262721498736e+00 6.625794920233527008e-02 7.951651635501355564e-01 7.116480707376807713e-01 -1.654981182298351505e-01 -9.363741139715565653e-01 3.973753739290339926e-01 1.298439150162096663e-02 -1.235033794095757864e+00 -8.214192896848779846e-01 7.058598240944711222e-01 -6.800294973534528609e-01 -1.060002711627573202e+00 -6.495514973554824545e-01 8.323383732554737735e-01 9.331328594370624785e-01 6.643173722831467731e-02 4.309429789153182422e-02 3.813703309070450853e-01 1.465870850347237520e+00 -2.473471121773173909e-01 -4.771939540894207799e-01 -1.503097465159569934e-01 7.261583049671952450e-01 -4.960993943650827132e-01 -1.217715559387194946e-01 1.792773228701025068e-01 1.155204812613750409e-01 5.979843438016448909e-01 6.973749632915697827e-01 -1.588350545694366400e-01 -6.953546226064629687e-01 -1.475098487402869862e+00 2.358192298055151181e-01 -5.661555310675976393e-01 -3.123343684473708914e-01 -1.435273507027009288e+00 -4.917448998724763820e-01 9.907019275479746201e-02 -2.399801843935152057e+00 1.077344098000358324e-01 -5.445104820052772965e-01 3.857284791871483098e-01 6.766532049557167916e-01 -7.595693160124633581e-02 -2.132141805703935689e-01
7.859397853241583132e-01 6.358612118533518709e-01 -4.790001666669210789e-01 -4.760095688699969574e-01 -5.481604036201069841e-01 -1.034309835860106164e+00 -9.705017311115420042e-02 6.643664105187976681e-04 -4.740373008385566633e-01 7.123293046373128101e-01 -7.542609926750297455e-02 -7.013369178899905299e-01 6.451174738789107188e-01 1.593340147447001587e-01 1.948343851012849515e-01 3.265599747246781814e-01 -5.116235028769701154e-01 3.385573833412517386e-01 -9.774589608616814917e-01 3.434993192009278551e-01 2.818835738181447170e-01 -4.904676507480729142e-01 -4.954891633714345045e-01 8.372670653661062889e-01 8.341932750445141265e-01 -2.015189407473809424e-02 5.313434823662177564e-01 -4.973300238302968967e-02 -1.117237980848076129e+00 -6.837387360522555468e-01 -2.857222332477201560e-02 -5.329018950999916404e-01 -1.995750298422278302e-01 -5.087965299791775697e-01 2.500125487022879511e-01 -6.184299349333796103e-01 -1.314412254957723070e-01 -8.417144486176443285e-01 1.167247502937582282e-01 9.727575558092442509e-02 -7.519924610433780243e-01 1.614591900166220673e-01 -1.168491565645709551e-01 2.217002331942478366e-01 -1.381745794561389622e-02 -1.333212818743991779e-01 2.609073907754838606e-01 6.522636315242407168e-01 -1.433444540917863941e-01 -9.521334807279472345e-01 -6.510768560689845774e-01 -3.744258816568449277e-01 -8.025855225849755081e-01 -4.905875432694690175e-01 2.570391724636924002e-01 -5.305628650663805068e-01 7.485599319182086875e-01 -7.991370868165766916e-01 1.291518253753983492e-01 5.987440649658763991e-01 1.445729097600889079e-01 -6.471241180536917437e-01 -1.182497495574314217e-01 -6.224963794981914766e-01 5.994526192031480738e-01 -4.198854266820321590e-01 -7.018440919675582590e-01 -9.081902622995907670e-01 1.444237321689929854e-01 1.836859865762361654e-01 -5.130969825203751666e-01 5.083958183238611594e-01 8.802068344896800678e-01 -1.883189991184483214e-01 -2.990142571036321639e-01 -8.668906639175696371e-01 6.960187811755342846e-01 -3.128020345845478611e-01 -5.958852053726121367e-02 -7.085423633330489857e-01 7.236286192260005246e-01 4.682825644879938520e-02 -6.493945929558314623e-01 -3.690133506603477942e-01 2.320668322965605823e-01 -3.693101071942813673e-01 4.973829926291976067e-01 -8.613701845223477038e-01 6.351428393335755151e-01 4.963461573460652976e-01 9.363386958104747970e-01 5.531954240494539876e-01 4.562780959480717269e-01 -4.569482369728182225e-01 -4.499394742528406987e-01 -5.350483342752070381e-01 -9.085071776180956293e-01 8.356755985850489177e-01 -5.264014922892006343e-01 -6.783468629327871202e-01
3.346503015311219631e-01 -2.903958673630004927e-01 5.418212944625785399e-01 -2.276575273682421990e-02 2.649856734453809870e-01 1.163520291261996187e+00 -7.706738952042845314e-01 9.019581776589774558e-01 -1.046179527201674286e+00 3.302134759470373160e-01 -1.206212243492568170e+00 -5.103347410556378083e-01 -1.418046638936525827e+00 -1.714816797872374510e+00 8.046798337526410716e-01 6.504741279390944264e-01 5.979300922780610428e-01 -5.590533952992755573e-01 -3.696759173857678826e-01 -7.797844679446184202e-01 3.966915144747848454e-01 -1.016351261508693371e+00 -2.316922577755022028e-01 4.745867671366199581e-02 -1.110518327273312816e-01 -9.709704678328183736e-01 5.397535359305520586e-02 2.103134189224746819e+00 3.301971709564651691e-01 6.769180511552363999e-01 -8.100214342230771525e-01 4.904600548031083362e-01 -1.469413570420750714e+00 -1.055151373764578043e-01 -5.205345123865113832e-01 -1.166205755610421724e+00 1.424101087878717031e+00 1.182371073823766716e+00 -5.855630972192226169e-01 -2.538083066186954118e-01 -7.457493765064709956e-01 -3.343369241154527938e-01 -7.822839297400103753e-01 -4.278683068705401160e-01 -2.711066771415254095e+00 -2.784930895089432826e-02 5.626599935184115608e-01 2.204126784388234783e-01 1.168358006001005034e+00 9.124235175203914139e-01 3.964534139077421360e-01 -9.332783989595915264e-01 -2.658325995342560311e-01 3.417174188144115332e-01 -7.495041980454030250e-01 -8.734385531557661286e-01 6.967800056214824844e-02 9.264174261747841754e-01 -2.673294702365203723e-01 1.269516012220763379e+00 9.151576145473680479e-02 2.208707867846792239e-01 -1.099635678807390216e+00 4.676815716954531299e-02 3.699537265566305577e-01 4.993185435627688906e-01 -1.104129409830230529e-01 -1.658100831846018863e-01 -1.189047484400656884e+00 -9.538732299902632494e-01 -1.020255666537825262e-01 8.097654931791763433e-01 6.328694589103079915e-01 -1.362050533172408429e+00 -2.701056736265099456e-01 -6.888695048400452769e-01 -6.085877416558439501e-01 -5.289268484187766850e-01 -1.193659580101441575e+00 5.002514325627052116e-01 5.553916956462408017e-01 -5.148229641716804972e-01 4.896450963400627576e-01 5.802811422140815578e-01 -1.364805722901001772e+00 9.875133113000904572e-01 -1.383040677733164747e+00 1.391120705670362723e+00 -6.343786932661339417e-01 -9.465491336155195112e-01 5.790105369369399346e-01 -1.150894503810369285e+00 8.893817750588264293e-01 -7.180298966877036726e-01 -1.611577551807298059e-01 2.304809466889832514e-01 -8.742132823823194343e-01 -1.742058448019663475e+00 9.138581010634462265e-01 8.497889706128347598e-01
8.370075323252537114e-01 -5.989365165476797648e-01 2.234196477965740280e-01 -5.532379515356108390e-01 5.408794478468045147e-02 -2.728604246502674524e+00 5.823814232597722684e-01 4.705781130171758364e-01 1.929146497742639244e-01 -2.123026334639288859e-01 4.769192014365993271e-01 7.848948633376225115e-02 -2.411659894247787927e-01 6.832149985917858048e-01 -3.076890227710651349e+00 -9.918226328218392451e-01 -8.767574520594577647e-01 -3.079950593010136184e-01 1.026455185008313675e+00 -2.413340416282709622e-02 6.884469464769960023e-01 1.322035910606725873e+00 -4.721679750159634703e-01 -3.692886699953342178e-01 -3.179496599365415621e-01 4.447297224403635729e-01 5.452776062914407307e-01 8.356737074875310034e-01 2.284268202926544589e-01 4.663602195864734457e-01 4.199683007625710229e-01 8.229369425533578086e-01 -4.835330274393258576e-01 -8.966032787525982650e-01 1.915179968238081218e-02 -5.512291065548933222e-01 4.863763056427591880e-01 2.581604233487102551e-01 -1.304307975921198182e+00 -4.068675081464510623e-01 -7.464949710965034235e-01 -5.652639775155963164e-01 -1.215671862405064640e+00 -6.783507954288182651e-01 2.502946077923371981e-01 -1.300958654081630694e+00 -5.328553501918085328e-02 4.646528389343753673e-01 -9.316282362566907782e-01 3.199142035486369773e-01 2.574477845097660755e-01 5.677541749934643667e-01 -2.338836363329535484e+00 9.950759008117108229e-01 5.785618613801694898e-02 -1.238031473481184391e-01 1.021162869038603205e+00 -2.099939998836346078e+00 3.799054519212279879e-01 -6.217973472842213134e-01 -1.036290088915253982e+00 -2.150363582515781025e-01 2.552664815820271937e-01 -1.216447824987710868e+00 6.086637422189614677e-01 -1.634033497547137115e+00 -8.209804601580397154e-01 -1.882523935097235368e+00 2.086489809263112130e-02 6.517961303193936518e-01 -8.045229111154929280e-02 -2.166754730530693895e-01 -6.495484366214118732e-02 -3.324416305261160276e-01 2.157331933426591242e+00 6.505789420314053162e-01 7.641298765668316229e-01 2.955990404093182880e-02 -1.920723849860065391e-01 1.809844360938658525e+00 8.493808337910904727e-02 1.226285601725657787e-01 -6.740724805891005200e-01 8.357175938829062289e-01 -3.016540765591306794e-01 -9.439428625427408459e-01 2.142296446080489691e-01 -2.266775802377355153e-01 4.069896408066366322e-01 3.531586750757641224e-02 2.269407917427387067e-01 3.028287566710726186e-01 4.441764796829116846e-01 5.811243401940944242e-01 9.639452110546103958e-01 -8.655737885374634732e-01 2.315103595403817105e-01 6.093131135148309729e-01 -3.556707244984259608e-01 -2.067574422526464728e-01
-1.562846118602417844e+00 3.610373981616310513e-01 -2.580061122061091394e-01 -2.801146953445975418e-01 4.719698838691260140e-02 -1.367675284997581731e+00 -7.386778223946385280e-01 -1.113994551189251697e-01 4.193382406675202345e-01 1.380330905555209875e-01 -1.152340466997524127e+00 3.882111389708776117e-01 -1.256217552712838748e+00 -9.161649834740295262e-01 -1.118896147442457689e+00 -6.754099628900673835e-01 -6.638350836759602247e-01 -1.176215952638904216e+00 3.015427483782797020e-03 -5.558353815708669821e-01 -5.805726210771005036e-01 -3.239802252000513749e-01 -9.981870154321879074e-01 -1.025615517018131501e-01 2.697667072519499554e-01 -5.093224254871870915e-01 -7.853453892200212838e-01 5.570176950498225699e-01 2.889504964083721705e-01 -2.336109650410270189e-01 -1.690231828294384231e+00 6.485109767614643042e-03 -1.035406156182852477e+00 2.163435128117371653e-01 -6.203437878118046589e-01 -1.081102773097175895e-01 -1.350641771158111459e-01 -7.715531704661819923e-01 -2.261931188937064685e-01 3.277108980046676279e-01 5.970546862088139672e-01 -8.839205962214773393e-01 -5.259087982352984580e-01 5.129325155842643369e-01 1.066148026639639035e+00 -7.938906121457571796e-01 7.093972669523865848e-01 3.503123652199668370e-01 -6.383405285161987130e-01 1.037079401295000869e+00 8.626663962402033592e-01 3.321810351126535110e-01 -1.992010192223075515e+00 1.278685963975959572e+00 2.240472816451128113e-01 -6.793057580928497652e-01 5.478661544792242655e-01 -1.531343151008792702e+00 7.499516002711110740e-01 -6.806099933576665872e-01 5.849210867030213423e-01 -7.686155587865556305e-02 1.042452070012762855e+00 -2.505901214826378620e+00 6.576925125069973399e-01 6.380188705487898071e-01 -4.729396710081761046e-03 1.995715005099310657e+00 -2.504884234670274878e-01 3.803025854374680326e-01 -3.415938674525688112e-01 -1.115874723454172157e-01 -5.709556596354156133e-01 7.141670980670686841e-01 -1.022063931554887395e+00 -2.002438991142854452e-01 -4.065866515429245598e-01 -1.962448221574782381e-01 -1.589565805607637161e+00 9.503089897026021360e-01 1.250080938649622109e+00 -1.065201164594032024e+00 1.511339283055469052e+00 7.576420461957962260e-01 -1.063494573569230495e+00 7.758605817179758946e-02 -2.788695648450139064e-01 -1.239477306658720357e+00 6.078299062552013909e-01 1.480242918538493269e-01 2.341269195088856170e-01 -1.404826569604656628e-01 2.230973246795967257e-01 1.325630996258931216e+00 -2.555709851403968891e-01 5.689818647600958235e-01 -1.039094483568571370e+00 9.601421968598619072e-01 -6.699519563711201497e-01 -1.392157772170476093e+00
5.714701172321027256e-01 4.692482372219526909e-01 8.270785923627191893e-01 1.401183212029136482e-01 -3.826664990539496158e-01 -1.827718431254322873e+00 -6.477308677223331257e-01 5.834144229879116850e-01 -1.014344366893475291e+00 4.537133792054390269e-01 -6.868140597965036731e-01 -8.188949000139983392e-01 -8.385151651755682334e-01 -3.551744206726814568e-02 -7.500142879218979486e-01 -7.235275209336747282e-02 -4.409731473606824381e-01 1.977909167334964025e+00 -2.050728799587381579e-01 -1.337300659364309141e-01 -1.532421710365176493e+00 -7.178681490342209148e-01 -6.690293569136910312e-01 5.318103761126110607e-01 3.975271585868124236e-01 -3.429651167328739980e-01 -1.019257371879361829e+00 -8.175865189622198992e-01 1.629629117732494525e-01 -1.220616773552754664e+00 1.755662674452131977e+00 -1.208784946160885276e+00 -1.400071937713926185e-01 -7.267726335977975349e-01 7.405236769564759181e-01 1.179899157186894199e+00 2.140014897686643991e-01 1.431687518584171093e+00 -1.165754441991993851e+00 4.814110779205378887e-01 -1.361224631748525926e+00 -5.999560478838308342e-01 -7.491632264500154292e-01 -1.245112875616979142e+00 7.437627669417555543e-02 -1.630986887788735684e+00 -1.490477427776296437e+00 -1.448311667833191763e+00 1.411919478534397809e+00 -1.171453533072049247e+00 -6.176244099999013137e-01 6.221351697963987126e-01 1.945621909979150965e+00 1.408494201784727062e+00 -1.517756083416752277e+00 3.274575217015341377e-01 3.424448801162162104e-01 3.548393927983243268e-01 -4.499051238702893030e-01 9.253554447007777961e-01 -5.522904929330534340e-01 5.947656022300716883e-01 -4.036096917538368745e-01 -1.062306512058733388e+00 -1.443960564999419993e-01 1.872581013904713876e-01 -1.478454408450986080e+00 9.266819907825469826e-01 -8.146596489393924390e-02 5.425108413228890702e-01 -5.230776350975548938e-01 -1.621182001325175703e-01 -7.449297143467635829e-01 -2.944582522397401481e-01 -3.344038790602876232e-01 -1.023914262894179084e+00 -4.109562832138889399e-01 -7.571268622062121700e-01 -1.333797273656554538e-01 1.079025858302216978e+00 6.304766748370724261e-02 1.725623902176703028e+00 8.120927893163583031e-04 -2.233039609471240694e-01 5.227602983248959001e-01 -1.495563937392143661e-01 7.167123351057761438e-01 3.907026828780639227e-01 3.008073673098858869e-01 -7.931854458818422549e-01 7.506351537629893933e-01 1.350858420825579720e-01 1.831391494914041129e-01 5.423485141621467998e-01 -3.882151590588610590e-01 -7.470035142032619424e-01 7.321125703013440233e-01 7.152778343690096019e-01 -1.614348168786508220e+00 3.706995448312683794e-01
2.688808321420783076e-01 4.264685643106874147e-01 -4.110597397609040415e-01 8.926828063854579387e-01 -5.926361948480974862e-01 8.255838168682203548e-01 6.449406547020989366e-01 5.731237652138612138e-01 4.962884195074505067e-01 -6.464973088974138582e-01 -1.897680095677988787e-01 3.524539467191661890e-02 -1.078475469077446736e+00 9.043633089488689603e-01 -6.618819566223392847e-01 7.912437517734154380e-01 -3.317245339159993756e-01 1.106212687266192596e+00 8.453362562882108522e-01 -4.856776383663534702e-01 -1.478786343474833620e+00 4.765441367421844321e-01 -1.492291384994694492e-01 -1.598465704729005454e-01 -9.193759398301436514e-01 -2.636529080750607545e-01 3.407456092145903503e-01 -2.815640754681970059e-01 -1.035746493105261345e+00 -8.319895606114462439e-01 5.776758615170158873e-01 -2.324129200780427507e+00 -6.823520779074768727e-01 -3.731494694435398829e-01 8.675244420020981062e-01 -1.776615595524473901e-01 -1.442203250210715992e-01 -4.659853354446374246e-02 4.409461478646230226e-02 -4.839244162547469696e-01 -1.044005864210629575e+00 -1.675779408616192567e+00 -1.842316621260085829e-01 6.928034888445966377e-01 8.100024861786357944e-01 1.002875224192244286e+00 -1.107157385387064208e+00 1.536427055924455498e+00 -1.647017360350668591e+00 -5.849293962295314397e-01 3.747418434125786013e-01 -4.854083674280835758e-01 2.139731930900649726e+00 5.460443163395598543e-01 3.666619788826587234e-01 7.284141404772810358e-01 9.649017577153784497e-01 1.499572310799911268e+00 5.227737025288075046e-01 -6.668931326579062846e-01 -1.167605296681560434e+00 -6.316151480207805591e-01 -9.370319621305143176e-01 -9.712489596679524384e-01 -6.000676113847273063e-01 -1.101590839651658937e+00 -6.853439246761044989e-01 -1.639270816405252296e+00 -6.555642986242916914e-02 -9.362233861835063120e-01 -4.238975210738820110e-01 -1.000235049662514308e+00 9.232768696079297621e-01 -1.044049149288800021e-01 -1.128576473156839066e+00 3.752379293262765869e-01 -5.364231766707666660e-01 7.614085456191274082e-01 -1.214157129422973380e+00 6.231445426110409080e-01 5.390936021800927236e-01 -1.965194362188266597e+00 -3.967342115839846972e-01 -6.738265105375802755e-02 -1.655739472993238870e+00 2.363736140038787126e-01 -3.037745033617976209e-01 -8.945416273460138346e-01 -2.040493040709344952e-01 -2.215240522378559618e+00 -1.028487989254259327e+00 8.185262905047425708e-01 -9.452119756152400909e-02 -8.802309701937038877e-01 -2.720501305399469771e-01 9.625965695598999172e-01 7.848679838807218201e-02 5.992590015308475460e-01 6.056974345709579266e-01 1.264422750519415661e+00
1.421917728428214289e+00 8.189533390761903620e-02 5.513870852788329557e-01 -7.571572672607406185e-01 6.454227748364920192e-01 1.309833524071399413e+00 -6.376804594145760730e-01 -5.916555964019746261e-01 -6.583746192191125557e-01 -1.220650639472700583e+00 4.634476613461208094e-01 -1.225883959168682091e+00 -5.164117894263492436e-01 -2.994872596892897976e-01 -2.205369126127334767e-01 3.672713791302786301e-01 -7.507332927980381321e-02 -8.758229693939263427e-01 2.266912096405781230e-01 -6.795077085441773024e-01 1.157041668006896819e-02 -8.285150575819555385e-01 3.796552496417798239e-01 5.643330999021075600e-01 6.651735258287274632e-01 -2.472612055145166979e-02 -4.337066129832252148e-01 3.060622507654796598e-01 -2.136639037864109664e-02 4.382738357199108398e-02 -2.282510787972693578e+00 -1.193323637985737928e+00 -9.313401921102166803e-01 -7.453447369214891705e-01 5.490930802676569078e-02 5.491819407800918595e-01 -6.190838720611065854e-02 1.511614610002141312e-01 2.859696531404350428e-01 -1.082356632412239256e-01 7.353818102471444407e-01 -9.822801970195493837e-02 3.852252156438800146e-01 5.501601845294368243e-01 -1.768905254790727577e+00 1.536943989631802676e+00 -1.280161518859542991e+00 -7.936199816547629959e-01 -5.061550397630417697e-01 -1.710043353681753309e-02 -4.668041201401484930e-01 3.895949875693417996e-01 1.988976774777894141e+00 -5.532882026062364567e-01 5.678271881871482796e-01 -1.400933669427181782e-01 5.889519005950640818e-01 -1.187154932132353125e+00 2.164707232983909546e-01 -1.002871199724477691e+00 6.983231470904988081e-01 -8.399267211088707885e-01 -3.379104196936675297e-01 3.023234926954306290e-01 5.135631957489327215e-01 -2.859598476610297202e-01 6.553450988608134319e-03 6.321380947739028144e-01 -1.131201363976956475e+00 1.092204180306189265e+00 -1.107608412331516190e+00 -9.725747886494292560e-01 -7.353808471796814406e-01 -1.120668444016492904e+00 -4.961749236759141479e-01 3.227273679679205087e-01 2.168462362542633234e-02 -4.096199893836687256e-01 -5.058583358263519791e-01 -1.383392097110074659e-01 5.750658616528931955e-01 -2.609093467605942407e-01 -5.116886795575941171e-01 2.024227713724319200e-01 -3.492730968621193810e-01 -2.068015152085634911e-01 -6.006990217470613569e-01 -1.032592773750762527e+00 -8.887222926342247531e-01 -5.747074187508534049e-01 -4.241867777364092817e-01 -5.936205034330252484e-02 4.263804807122500290e-02 1.985780156424942877e+00 -9.165779963376304851e-01 4.507490228953320854e-01 -4.527528974204100276e-01 5.565342853249830579e-01 -4.648055744532947897e-01 -7.013653635001418918e-01
-4.709143541545217360e-02 1.208829549650384916e+00 -4.967616639310710736e-01 -2.287996025608103057e-01 -8.902200375451758685e-01 6.082520367345611856e-01 -6.400555218078514130e-01 4.429846534891674903e-01 9.602146001100585193e-02 -7.612234427711249696e-01 -1.579795273469692507e+00 1.955878493218205505e-01 -4.296999745584769159e-01 3.269993671340143959e-01 -5.142672433356724332e-02 -1.044645945142914506e-01 -9.257788115912125582e-01 1.415997698692763318e-01 -1.000895492141790216e-01 -1.943956660424980720e+00 2.343847976745825346e+00 8.220383269088150646e-01 -7.232729206186736537e-01 1.453040763782632860e-01 3.817544848100166144e-01 -4.293301644846126558e-02 7.444554391470301624e-01 2.555535981551217972e-01 -1.388238732210244963e+00 2.760527496857809182e-01 3.952595702787822796e-01 -4.015821686921301481e-01 -2.983163037256325589e-01 -5.710730501388961988e-01 9.961305733882973579e-01 -1.111567571461728576e+00 -1.046940193102367633e+00 1.021255969675805675e+00 1.384336631187474298e+00 -1.034431499379112607e+00 1.700546872956051336e-01 -1.873842123792461178e+00 2.889387462384397920e-01 -9.218096202954692009e-01 8.253679997131731227e-02 -5.539163689599256868e-01 2.773943411614075982e-01 8.765236758130409700e-02 4.469737180883140426e-02 -1.335528167377905973e-01 7.512920526836909252e-01 -4.349977167855956228e-02 7.054209482193657399e-02 1.468739365748646719e+00 -9.102290449828762120e-02 3.522592810533775043e-01 7.012999463835993819e-01 -8.725972678379191605e-02 7.179093828881899508e-01 -1.040209165751082576e+00 -9.776628722354370193e-01 2.484203990029634213e-01 -1.124233688221958571e+00 7.404597507830138481e-01 1.833899436520092241e-01 -6.345402693961905705e-01 -6.542430310911821756e-02 1.011910347828768736e-01 1.771857770474656313e-01 -9.031064231682827126e-01 -5.814855944010389743e-01 2.370870051168851855e-01 6.515571859262044851e-01 1.053629696941988270e+00 8.288046766533450072e-01 -6.552377126073197777e-01 -3.972482414874446421e-01 -8.347121019330590030e-01 -1.327838526247431816e-01 2.524663645828961744e-01 4.275707610627029198e-01 9.847732733606342492e-01 2.859506021009307619e-01 5.212507913119748260e-01 6.996354275486795782e-01 -6.242932048394317368e-02 -1.032561850793852321e+00 8.503374198133426543e-01 -1.640370076074314731e+00 2.706144509253469166e-01 -7.452721250306308942e-01 3.712597967321988879e-01 -7.604974380532489864e-01 2.529580414193121074e-01 1.265504669923741589e-02 -5.566377762893162107e-01 -2.521249404551920703e-01 -7.880550577006104618e-01 1.667086931524220716e+00 -1.599485300248045583e+00
-1.013587161098294803e-01 -1.406342966237740466e+00 -1.181657616152438806e+00 3.337352709989909183e-01 5.052419796641711980e-02 5.764831557245602145e-01 -1.027708969063656219e-01 2.021651215725235873e-01 4.894491239916895498e-01 2.569463136400880754e-01 9.608277314373299127e-01 -1.903366065214720515e-02 -2.470359262954264501e-01 9.850119411872628739e-01 1.416658617089123107e+00 -1.673066241385757102e+00 4.299481520861913042e-01 -6.895129468846393772e-01 5.359077970227806853e-01 -2.601867475032448168e-02 1.531385205128321103e-01 2.608973094258738856e-02 -5.116758427956314970e-01 -3.599084395030682226e-01 8.479237975665496752e-01 -7.680533408582591870e-02 9.120950008610622106e-01 -1.915248669326076181e+00 3.559855761106401340e-01 -1.080666082360641544e+00 -4.067344296312969121e-01 -1.163819902416508345e+00 1.215347774924122826e+00 1.155579653089611414e+00 7.432017698733155431e-01 -1.394551679371397235e+00 -4.480077638222826897e-01 1.020647514317914339e+00 -2.442810239613197876e-01 -4.806886906135419690e-01 -4.980649631190738336e-01 -2.880792352789772748e-01 -1.404432349876222341e+00 4.837762478794886412e-01 1.898858536027483168e-01 -4.895797925225872649e-01 -1.358498140967201229e+00 1.749906688682973943e+00 -7.050420208140489864e-01 -1.189035702474892764e+00 -1.965458007030079224e-01 -1.310390078795145907e+00 4.463090750700579035e-01 2.804077255448753081e-01 1.224675043796563001e+00 -7.039443645855522069e-01 9.455761965074113151e-01 -4.568985700734597977e-01 -3.275184249227856836e-02 1.166029160131133002e+00 -4.644466362886676691e-01 4.718941253344896003e-01 -9.978066213924008387e-01 -1.444745863510088046e+00 -8.224788748677372974e-01 -1.021214031807706535e+00 -5.459945492657443389e-03 -1.053479571986321028e+00 2.197508137747220536e-01 1.225544640746053071e+00 -1.960109142832030749e+00 1.866653004158762286e-01 -6.536109841876908133e-01 1.424788465599531040e-01 1.415867405613926877e+00 6.030224316776947591e-01 6.523247336736665014e-01 7.500404514373731901e-01 1.591123374774953136e-01 8.420313107716933532e-01 3.058161236577466857e-01 -9.387229913208330334e-01 -1.637691616794109406e-01 -3.192297136325760731e-01 -3.523358004653287523e-02 -5.717601856423357720e-01 1.711348900195641232e+00 1.004785723005047426e+00 -8.214854849224730859e-01 -5.175001329198604116e-01 2.347181025487447559e-01 3.294486882222419921e-01 -5.870210864341113277e-01 -1.988138605538003256e+00 8.454006350961391636e-01 6.934564468370687518e-01 -5.998334013177715474e-02 -1.034188754994050941e+00 -3.571425594170825057e-01 3.486950532073491704e-01
6.532007651655744596e-01 -9.973381200464532803e-01 -8.967697362981228437e-01 -8.055702347995087331e-01 4.847186308123240805e-01 -2.222606422128961423e+00 -5.149057383618057537e-01 -5.392861848783768730e-01 -7.781242639637542258e-01 -8.158068900943662438e-01 -2.801940545516414249e-01 -2.584804575231113288e-01 -1.161603096013702263e+00 2.916157029173217508e-01 -2.093946729700164044e-01 -2.287493048249322203e-01 1.896084958844037049e-01 -1.654140006733354484e-01 6.285876029006429722e-01 5.175257815122269456e-01 -2.256289392197766697e-01 6.417586995011395068e-01 -1.034815375892214756e-01 -1.461353654453963480e-01 -9.482827986962457656e-01 1.754864603650009014e-01 -6.936116855636204059e-02 -1.418643942901472110e+00 -2.129073725426958857e-02 5.508424472623685286e-01 1.457901860144401818e+00 5.034431695624894676e-01 -1.142702624079118934e+00 -8.601623400723986679e-01 4.982665086085208972e-01 8.286457133979472367e-01 -1.152734767412014368e-02 1.749150722280229386e-01 1.582550843047866529e+00 -6.482434085951132019e-01 -5.881443283089601293e-01 -1.230734507435260694e+00 -1.117247098526761961e+00 -7.160254893916574437e-01 -6.437871422813666866e-01 -1.590879874027681495e+00 -1.565546324481102355e-02 2.036115780664875946e-02 -9.032772191863258637e-01 3.180973735103817535e-02 -4.219900768531177904e-01 2.655292663462911484e-01 1.968895032738752660e+00 1.203706126299080026e-01 2.291417083535173482e+00 -3.669901154747358674e-01 -1.579581041639376737e+00 5.119591377044301339e-01 -9.066087439393386571e-01 4.371481865532328981e-01 1.803374276994367930e-03 2.143500944557885368e-01 -1.002728859920887894e+00 8.161936187726058778e-01 -4.748616398668504823e-01 -1.248558104565139493e+00 -5.800148210844966457e-01 -7.857986356960318108e-01 -1.002700134637947382e+00 -2.743730120011857121e+00 -9.122452219408272445e-01 2.327948309345114208e-01 -5.074664112999935917e-01 -4.630748109965261983e-01 -2.621736243145431078e-01 -6.397405380444725065e-01 -1.571004415643454388e-01 -3.320820419139584034e-01 -4.699957311038584495e-01 1.460680051423034476e+00 7.374165068472000872e-02 4.056946672154274625e-01 8.349303794278922775e-03 -5.997509477245976939e-01 -4.724429409775823124e-02 -8.805302884733955116e-02 1.418819317960922755e+00 -6.945406109028311459e-01 7.883959767393881046e-01 2.565435936502781455e+00 -9.963374114278360505e-01 -1.948599771952796988e-01 5.433368869003851742e-01 8.816567395013282793e-01 -5.564137139041021030e-01 -5.468735844213984398e-01 -2.381380427419773349e-01 1.363958105750616712e+00 -4.058271890684764238e-01 -5.067039682699395753e-01
-1.668338022856929559e+00 1.589204864824010910e-01 -2.655496901713844671e-01 -7.257245075313992766e-01 5.183075721429039051e-01 1.759358393521096298e-01 -5.853693187951871657e-01 5.981347360756108511e-01 -1.116072427285828450e+00 -8.683160787829470317e-01 -9.636162440381386141e-01 -1.875255726930165345e-01 1.210234163070427194e+00 4.301296411060631097e-01 -7.407053182539222735e-01 -7.585333976951864621e-01 5.049733074261471000e-01 5.804989888709667367e-01 -8.236348691188006832e-01 4.727458492762063869e-01 5.741134058333391410e-01 5.275824673443941792e-01 8.016551683407738826e-01 7.555825786580492309e-01 -5.523311135674969785e-01 1.093678184583500440e-01 7.900553280314825955e-02 -1.727778772447856381e+00 7.937284574882078059e-02 3.734472308021433151e-02 7.570518513090956914e-02 6.137249768093672175e-01 8.895638857423503187e-02 1.198413340489833612e+00 2.251838896188926575e-01 -2.463317851309211048e-01 -3.784823060086623947e-01 -1.433546395162582199e+00 -2.015568678227187771e+00 -9.758751546757169493e-01 -6.777320898446114183e-01 1.470207371900521087e+00 -4.203637122016400940e-01 1.717684506010231510e-02 -8.086661377007162699e-01 -1.948908826513097603e+00 -1.669060214640393225e-01 9.972023721595894008e-01 -6.859184661737846023e-01 -2.473936111847147568e-01 -1.599530325167655143e-01 -8.212183034706622697e-01 9.674725730146730429e-01 1.132034693809939707e+00 4.933182804103443120e-01 -1.191834387324432143e+00 -2.287129614681775169e-01 1.379953716298632616e+00 3.869751582847123506e-01 -9.553474357752089752e-01 -8.539390176669118260e-01 -3.186187978536407783e-01 -9.703054892878490989e-01 4.967779109659442582e-01 -2.435034203975880787e-02 -1.580690524674251418e-01 5.371334898469363184e-01 -2.541466811005809734e-01 -1.011884212640618674e+00 6.380764658871581618e-01 -5.089646150705140482e-01 -2.123816669085132058e-01 -7.220263221310673218e-01 -2.165764495150362290e+00 1.055415601613732823e+00 -1.241263308386993724e+00 -3.920863179927909226e-01 -8.950684881138485371e-01 -1.248533145735874372e+00 -1.469680666286587556e+00 5.959321410111504402e-01 3.315016466295651054e-01 -2.899480997478265931e-01 -5.541031139415557583e-01 -1.441036260152876114e+00 -9.599051896793894811e-02 9.809731469067619614e-01 -1.080724822462171719e+00 1.436706802272931238e-01 -1.068885109358335583e+00 -1.958658848213417625e-01 1.555936882302535240e+00 -6.600473777899904526e-01 3.228409832960376646e-01 7.866669010360727299e-01 -6.930819719917796773e-01 -5.081538385789594603e-01 -8.380936302373716007e-01 -2.235626175221971934e+00 -3.304157154401129309e-02
