1.002575901005027692e+00 4.887699610865070543e-01 -3.434693176263535763e-01 8.764723738407320663e-02 -4.389009736635959835e-01 2.157110275686537071e-01 -1.277024584126866369e+00 2.644850114934825802e-01 -4.341407402751891742e-01 5.809163971025418371e-01 -4.637180077500699382e-01 -1.386880566860597019e+00 -6.397479170784575730e-01 4.063271312376213196e-01 -4.822124279670597646e-01 -1.789653063650402887e+00 -1.584185051647110098e-01 -4.140056258280471191e-01 -4.695501068513778242e-01 1.171348714041144490e+00 -1.737007667934547250e-01 -7.666464998815208931e-01 -3.883911711960075785e-01 7.843307842894179371e-01 -4.200852624666861490e-01 -8.905908652448774054e-01 9.296227846938592831e-01 -1.371740351779861776e-02 -4.894340635272195206e-01 -6.294650184002498206e-01 -3.380713470936429488e-01 5.157992463583305209e-01 -2.906840055905262135e-02 7.424966347458972216e-01 5.502968748556062717e-02 3.153202364544104852e-01 5.954375575789973007e-01 8.411076049134472710e-01 6.701094264249599641e-01 -1.368909290511340249e+00 4.242530026801417109e-01 5.666419102845811073e-01 -1.339475675592372017e+00 -9.148186405261192755e-01 1.388235493385276687e-01 -1.424165529405874986e-01 1.554219434568589742e-01 -1.575125470959771068e+00 1.582699834059526633e-01 -4.811317695374459080e-01 -1.150848937357780155e-01 -9.120753977998296014e-01 6.162353657053399464e-02 -4.978409712259171949e-01 6.206666299721846913e-01 -1.750106906118426842e-01 -7.012675449497153372e-03 -8.144433526096636067e-01 -1.084109042245433585e+00 -3.993503869857468191e-01 -4.047974604637448182e-01 -1.915349997640596880e-01 4.621185023032584605e-01 -3.913392712635944126e-01 -5.409019805369620348e-01 -1.113061085885027834e+00 1.520458273144588701e-01 4.047033846372413146e-01 -1.044612398438924838e+00 8.497204746958837429e-01 7.406844701181282131e-01 -3.003499233678331992e-02 -6.990893906526545187e-01 2.271230096437780066e+00 -5.082511723430878092e-01 -1.021834871231159569e+00 8.025214703223978452e-01 6.899313919655236660e-01 -3.238149965854530965e-03 1.053817154494866154e-02 2.316862486962750420e-02 5.549791531699148628e-01 1.067828710331892417e+00 -2.686342098496924957e-01 7.456447164456344590e-01 -8.964698120840505213e-01 1.176738659334021220e+00 -4.742030217855513485e-01 1.440848834275661350e+00 -7.607475300709780619e-01 -8.124209213400666874e-02 1.177179011091472605e+00 3.125696741550172963e-01 1.072757129493918438e+00 7.131972993237316594e-01 3.117774174155496514e-01 -2.280275786854560616e-01 -1.704073535328381128e+00 8.513354562563331118e-01 -9.879726473720611135e-02
-1.344106895094247633e+00 -9.370582950255436083e-01 2.172576538805036928e-01 5.675107401812582442e-01 -5.783634836195979817e-03 -1.221545693558160339e+00 5.823419096637445502e-01 -1.943699093555077417e-01 2.452606210241924933e-01 -6.512140667001075078e-01 -7.474445392764226259e-01 6.396859961349222745e-01 3.224650409924024186e-01 -1.625931085882584004e-01 -5.672393091811168686e-01 -4.820886384760418863e-01 -2.695948851558382930e-01 2.353168661550001373e-01 1.115397871396419438e+00 -1.603805983389624407e-02 -1.227969105685368933e-01 6.898297892642859530e-01 -7.174587503479164241e-02 -7.346044463656593859e-02 3.904054873670705916e-01 8.772823648600351909e-01 8.328910745428755869e-01 1.610986584217855566e-01 1.806928582192268151e-01 -1.760022317644653611e-01 -1.070499140850472930e+00 -1.581440438160711226e+00 2.110542885983058073e-02 -8.086397727161082072e-02 3.856431638742944396e-03 -5.334175650709479521e-01 -1.218180587635682377e+00 -1.115199561521106553e+00 7.476995508089701037e-01 -7.593059594753331920e-01 -9.469108869808259277e-01 1.949268373990777625e-01 -1.374503369049115686e-01 5.925538397760947706e-01 1.274662005388678354e+00 3.326672622173754146e-01 -6.036848376604106448e-02 -4.964089406118701309e-01 -1.643884016288905681e+00 1.807448166585217952e-01 4.029242552869258254e-01 -1.157346951530028756e+00 5.026653775822671477e-01 -1.248793173982636118e+00 -6.864768177619519074e-01 -2.108485016659000788e-01 -1.814399214101591662e+00 3.439458747646384484e-01 3.379571698570659755e-01 -2.931262773652680564e-02 9.068868764760237289e-01 -5.190849623353245290e-01 8.268145010990509691e-01 1.438424664019805066e+00 4.104182588885102456e-01 -5.771753959991000604e-01 -9.573639452483012624e-01 -3.304398943024314250e-01 -3.189040878134788981e-01 -9.701593529934844362e-01 -3.244245062332200558e-01 -3.027489957596333769e-01 -8.671455755569178470e-01 4.914514883208112583e-01 -9.611068289322406422e-01 -1.923606488650107249e-01 6.398962891059055691e-01 -4.512046317393147987e-01 -8.343755162399579817e-01 1.237269152146227152e-01 7.469946725684870614e-01 -1.026084599274780018e+00 -1.711529695429290371e-02 8.537393857638613248e-01 -4.056724719478431718e-01 -8.200705948946752644e-01 7.007741084626603612e-02 1.232746730458663231e+00 -7.518708748091502692e-01 -4.303149670093723601e-03 -9.991763005440768008e-01 -7.196206426590280314e-01 4.515434976535193795e-02 5.053229395771775545e-01 -7.302112964064835232e-01 -6.429792296501124493e-01 -1.167591860022382522e-01 -9.197273356771812347e-02 1.095775022665407716e+00 2.035204002238398813e-01
-1.994936162357264786e+00 -1.412261779681044105e-01 7.146792704543166730e-01 1.742548251970304496e-01 -8.149921913037758703e-01 -1.491879531342137133e+00 3.268992878406410535e-02 4.720289846114571475e-01 -1.366468656851001162e+00 8.253460367208605153e-02 9.616811733226354741e-01 4.386556104514877097e-01 -2.002163264832295675e-01 1.549155083683906531e+00 -4.015751045808514386e-01 5.564686944334370500e-01 -3.045834867848011274e-01 -2.319175146472818860e-01 -1.275085819331284454e-01 1.237081802383741408e-01 2.000051496427758480e+00 1.600313869910910958e-01 9.511157402999710353e-01 -2.080524243745500712e+00 -5.800096925086727084e-02 1.216678553368243598e+00 3.884384799264254395e-01 5.086922762692206446e-01 6.343301435110449971e-01 -1.059251397086055091e+00 -1.536689434702678825e-01 -1.848488004017701414e+00 -4.408890949472717424e-01 -1.142109096638673216e-01 8.258987493296765514e-01 6.462487566830357189e-01 2.734922244973734817e-01 7.469250333629270378e-01 -4.318077498723694729e-01 8.054242116891947578e-01 -3.424754677806715608e-01 -1.315952854197987021e+00 -6.911646417796717401e-01 4.097771664172861206e-01 2.490273191270677908e-02 1.006282130777256700e+00 -1.026989515900748495e+00 -2.066060648811498535e-01 3.344323716652212175e-01 -3.117128155944052237e-01 7.075613995474284712e-01 4.443412973370806651e-01 -6.250028788632369103e-01 1.152703828714516654e-01 4.035037726918619949e-01 -3.729057528496747542e-01 -2.769974120868595180e-01 2.994673952108681259e-01 5.261863247429576784e-01 -5.913856806112792741e-01 -3.693070668619150010e-01 -2.884591914247044975e-01 4.830876650511453096e-01 -1.117796863159349341e+00 9.238739208461741459e-01 2.781428718004336775e-01 -1.072449403968803061e+00 -2.299109598770360807e-01 -8.289373351763115183e-01 5.161343511363358783e-01 -1.616513096067586197e+00 -5.182122618250279977e-01 -4.773091076224322826e-01 -2.128903752068749267e-01 9.311736640358000416e-01 -1.895576927839644488e-01 7.568869522112524617e-01 -1.816463736890601977e-01 -1.796009767079813413e+00 2.781980859839098263e-01 -1.262680463493620397e+00 -2.936240708538480626e-01 1.120276451988485578e+00 1.274288605050092615e-01 5.722034220303244823e-01 -8.316024325187126864e-01 4.756054455810005410e-01 -1.478509018729176339e-01 8.235510185726999666e-01 -5.421611161251308486e-01 -1.549266638145645913e+00 -1.480223237259605251e-01 -1.391055443552380089e+00 -1.947487489145692141e+00 -6.998020309723952392e-01 9.392999813832307865e-01 2.489493466223271778e-01 -1.125108499361084258e+00 1.421220965517236090e+00 -1.036892195640940928e+00
-5.389330892301849030e-01 6.945627748077032315e-01 -9.851281598400009054e-01 2.121712247468426904e-01 -1.104228652765647745e+00 9.666306538428515172e-01 -4.832977360208428608e-01 3.374721594443093609e-01 7.183851990814579258e-01 -3.177016633806284407e-01 3.249358628373179014e-01 -1.422830944029497724e+00 6.695351632935742092e-01 4.529738371603078129e-01 -2.039968131195849244e-01 -4.171548310273752169e-01 -1.159672380921363155e+00 -1.062614600359847561e+00 1.687347760316846967e+00 9.610685845054771637e-01 -1.156252654542728880e-01 3.414985047336371315e-01 7.217142098245203918e-01 5.678992897751172775e-01 -7.650987779463016558e-01 -2.094062885140915764e+00 4.398078946067325301e-01 -8.435658353633550544e-01 -5.479820440286529981e-02 -6.787112777483521597e-01 -5.210098697602494333e-01 2.481772066283332301e-01 4.417923564729613339e-01 -5.368491085487934189e-01 1.229092872985902002e-02 8.810535679922202323e-01 -5.950132122641228483e-01 -2.023708480654094810e+00 9.098081425259938460e-01 -7.569751808798991233e-01 -1.429039762175668082e+00 -1.167506082535212153e+00 2.153379955667737156e-01 -1.100630866950240483e+00 -2.397666622885600007e-01 2.700171875731253168e-01 -2.619015715681181078e-01 8.595597516307459385e-01 1.868689491834545635e-01 -5.323100409220477003e-01 9.199635587399572489e-02 5.188822309982971115e-01 1.187640109733119953e+00 -1.280665704610066236e+00 1.865882498009157731e+00 -3.718702255454767180e-01 -4.337246916029674493e-01 1.409764440805322261e+00 -5.357562889307839749e-01 -6.905399177096154251e-01 -2.194376004784956771e-02 5.499180060882821186e-01 9.340992190091120806e-01 1.303242476914520553e+00 7.116720994026937142e-02 5.116183377790982645e-01 -1.656278929352834883e-02 6.504061416207497226e-01 -9.845056888232782688e-01 8.070280107995959906e-02 7.879920947410680165e-01 5.704981103792973185e-01 4.956614132657773952e-01 -5.798051409161367742e-01 6.143830284372444467e-02 -9.994585067959792513e-01 2.835724599903390875e-01 -9.262348661390948923e-01 -3.015501250520232768e-01 2.626167635464359273e-01 1.771216714163612149e+00 1.492599863796955917e-01 -9.184807594073085557e-01 -4.636428731789487556e-01 1.117102313562552407e+00 -1.017801752250429681e+00 -9.824851212148857371e-01 1.080493871999998801e+00 -1.421453201690304313e+00 -1.314135798078307937e+00 -9.822743696165180394e-01 4.250828856402626421e-01 4.157297778516960141e-01 -2.076664179484014827e+00 -1.202570547693772307e-01 3.193899097511888052e-01 7.250277833575830000e-01 -2.220120183392906288e+00 4.275600435430427226e-01 1.833114290924914513e+00
1.399165541272844093e+00 8.128868240130290301e-01 3.316174116246434767e-01 6.364668228587088139e-01 -9.362621251416076706e-01 8.887024690517536518e-01 8.729091271775918370e-01 2.989717405047540369e-02 -3.294012655496659225e-01 6.366574243771093711e-01 1.044515547487759211e+00 -2.907753366888676805e-01 -2.048496208223152815e-01 4.656232533050184696e-01 -3.359495988841008085e-01 2.639354480739292130e-01 -9.667477233686541660e-02 -1.959039141120298977e+00 2.823618576002849268e-01 -7.022447793087257528e-01 1.659015315268931312e+00 6.368436077615004243e-02 -2.399884185729245778e-01 9.833625805318066959e-01 -8.012248207485700435e-01 2.591836424829609409e-01 2.121516765956649453e-01 -2.120806972487442987e+00 2.922056460299076175e-01 1.567483732122570417e-01 -8.632389814407308570e-01 -2.342199961343544024e-01 -9.323371974652600036e-01 -1.074673671415048659e+00 5.100007301176308003e-03 6.132438254424626978e-01 -1.159411762268127921e+00 -2.596144278668749417e-01 -1.983515422815419413e-02 -1.588751442674608993e+00 -1.380810046574875716e-01 -6.543713356645648460e-01 -2.612924581236134580e-01 -5.935230429601062729e-01 -8.244332595888929083e-01 8.829778477692347138e-01 -7.765256197177052844e-01 6.236030381507796649e-01 -1.201586544231129761e+00 1.174697084090308374e+00 -8.538194968944577967e-01 -3.096334770126014935e-02 -2.466849518655190643e+00 -1.639256243357088527e+00 -1.694548856501897127e+00 2.750992916741188954e-01 5.000991184137058010e-01 -1.571406888660748402e+00 -5.690895366849638842e-02 -7.586740492889021067e-03 8.028671915831046002e-01 -6.270304127648388404e-01 -2.416603569940720397e-01 4.306063156050903284e-01 2.217349153015070462e-01 -3.774390317307266818e-01 -3.563492812955428857e-01 6.594030736738668574e-01 4.854761573973343514e-01 8.304460161738078661e-01 -4.311301779966411618e-01 9.108908638141812730e-01 4.561152222332094941e-01 -1.238583200492619829e+00 -5.329244631754834760e-01 -9.821695778446061231e-01 -6.105663806086065737e-01 -8.409988679910544995e-01 -5.522009725650797174e-01 -6.774650054674662414e-01 -3.243045936369773896e-01 -8.860707945464124657e-01 -1.214949011936482970e+00 1.629286754597865650e-01 -2.004592035404380912e+00 -3.739987848848123630e-01 1.040754452730184187e+00 1.835867378904180169e+00 1.502390664967208356e-01 -3.201896712243721965e-01 1.777676541098814234e+00 -1.377402517431575824e+00 -1.224339703768950516e+00 1.953899141762315939e+00 -7.592546840421942056e-01 -9.456449642575016634e-01 -4.145123133283256656e-01 1.027551364421155355e+00 -2.061280307185788807e+00 1.291313178957771701e-01
1.433450947922206620e+00 -6.466333689539924268e-02 -5.109536142270163506e-01 -6.187521260013281177e-01 3.557641476362765620e-01 5.293561612668302718e-01 -2.384662271162926839e+00 -1.985895874604670930e-01 1.040745473686825462e-01 -5.479733210967308032e-01 2.344090385851177183e-01 -5.561627212688345923e-01 -2.307588118757844864e+00 -2.837830086239036542e-01 1.927893776908118639e-01 -7.120923048089052854e-01 8.067740675994405919e-01 1.946969077582428043e-01 -8.320683220059229557e-01 -1.190910734843645624e+00 -1.844363859528601157e+00 -2.510830456106469266e-01 -1.750353303967253638e+00 -2.979690983501397383e-01 -6.612869310767539588e-01 -4.458144601600651513e-01 2.855264060552936689e-01 5.655393228431080388e-01 -5.165766960727850854e-02 4.513728735645985979e-01 2.679583602874509030e-01 6.233721736408298630e-01 -2.702373230227451129e-01 1.338230000860008095e+00 7.405476353064317507e-01 1.418331830992975329e+00 -5.921391793040466922e-01 5.454976634559395299e-01 -2.584691528920742831e-01 2.435063573575573237e-01 -5.813484953529526322e-01 1.496873037911025772e+00 -1.027939056897709813e+00 5.537216781210961836e-01 5.057311552226759765e-01 1.802427107421505914e-01 -2.436920194104410242e-01 1.283265719936094729e-01 -1.042429543358491140e+00 -4.581734027540863008e-01 -2.077340055858934442e-01 -3.053284426436856935e-01 -2.760693002406524599e-01 -1.232240462893897437e+00 -1.407559773126756675e-01 3.375079322134623694e-01 1.650825454571820117e-01 8.531867624399593064e-02 -2.262189905922521671e+00 -1.793679302507446005e+00 6.740787197695544686e-01 -2.214219198754278362e-01 -1.341998704621686356e-01 -1.384945061083171780e-01 5.178625548563838832e-01 -5.009317578889138645e-01 3.532072763423248496e-01 3.984391320649365298e-01 4.772746274028166202e-01 -9.494442660188019412e-01 2.364559805515898727e+00 -7.573234898436865814e-01 7.983293212042904541e-01 -9.752248709235007418e-01 5.320372281449470275e-01 6.224776540840402106e-01 -6.698248961660546730e-01 8.176853097387742908e-01 9.388387723734500923e-02 -1.081191924062356174e-01 -1.296113063597225112e+00 -1.196058308845233675e+00 4.374995765096397760e-01 5.649742727124805741e-01 8.171842810527075729e-01 3.451980906994511766e-01 6.865742677737414201e-01 -1.712077414893775407e+00 -8.234235392586545244e-01 -6.221275076140538873e-01 3.719438749541947864e-01 1.860572088691156534e+00 -6.743453236693203179e-01 -6.153891876817695339e-01 1.096469561011785165e+00 5.723914998445160940e-01 -2.111555605872123820e-01 -4.317642187105750207e-01 -8.225750017024662242e-01 1.522147650667037722e+00
4.864717018005000337e-01 1.816190401541642796e+00 9.221742989451353623e-02 1.372348769310939021e-01 -1.184364972031172414e+00 -1.255758335644300727e+00 1.222400485853961521e-01 9.348030989480646813e-01 -3.101142760944859411e-01 1.026514796709225408e+00 4.638329748296131094e-01 -1.105882163107147598e+00 -5.832131954434626175e-01 1.064638579703313326e+00 2.709265041632751281e-01 -8.154405429751931944e-01 -2.349198888115753281e-01 2.939089085493067077e-02 1.043261003180786933e-01 -6.506561784973227125e-01 -2.432640533868274113e-01 4.623736227081042816e-01 -1.168565774543831454e-01 1.223113522878179066e-01 8.611820914735149879e-01 1.721621891675070293e+00 -8.473180103075861336e-01 -1.116984325867791394e+00 -7.822791690611650139e-01 -1.770363880937483522e-02 1.562273632358775366e+00 -8.391039398889318379e-01 3.692873706735260719e-01 8.521013709005619274e-01 5.620889986551311779e-01 5.013189156002555436e-01 -8.740273921788943579e-02 -1.630082065774998812e+00 1.290664447663858905e+00 -1.415851197895572344e+00 3.910501198178834709e-02 1.217487581255214169e+00 -1.123165718663832857e+00 -1.023372789018860862e+00 4.205108442583043171e-01 -1.768457603664264077e+00 -1.039404606924100083e+00 -1.228977957668241805e+00 7.203759502624699218e-01 -5.280532459077438290e-01 -4.618124539136463369e-01 -5.157328971914669768e-01 -1.810915606691709145e+00 -6.807984919525223999e-01 6.531060548196307991e-01 4.747386006362228628e-01 -2.156649149620566863e+00 1.166801456160455386e+00 -7.558268071863788462e-01 -8.141410929678788433e-01 1.124310811812369026e+00 7.571177699745205159e-01 -7.597442302100889666e-01 -1.824775490417055890e+00 5.869909110555161513e-01 4.224321420291405893e-01 5.455915334535196282e-01 3.551706028190972364e-01 1.268935278557262736e-01 6.049201476555655238e-02 3.668768291171832785e-01 5.355041686088892749e-01 -7.710726654314187245e-01 -9.848839481481262981e-01 -6.045674285389289748e-01 6.811740671695615257e-01 4.972956411674309685e-01 3.563230238810259909e-01 -3.244350340568381008e-01 9.508750912173595804e-01 7.854237452515292484e-01 8.521027453991325551e-01 -2.273015670135027783e-02 -8.858655179417906922e-01 -1.888478188450112283e+00 6.087439241581276139e-01 6.253304455604135059e-01 -1.367898506568426598e+00 1.566411398301891467e+00 6.119922664965600223e-01 -2.922187292437228856e-01 -1.119157437153831536e+00 4.070978878049298921e-01 3.917643127802634961e-02 -9.804343871338601080e-01 -6.071838902321363696e-01 -3.658620394567889123e-01 -7.321174067927590512e-01 -4.412174502392591791e-01 -1.408718861864656446e+00
-1.067522361778197926e+00 -5.390420882585421625e-01 -8.958662501784774301e-01 -3.328702214532203718e-01 -1.043053166971145806e+00 2.280002771934404038e-01 -5.108835311633128651e-01 2.724538160260845387e-01 7.536990614729872640e-01 4.250498615605486918e-01 1.438099691316642170e+00 -4.527832640251844287e-01 -1.341734355126715350e+00 -2.824570448673688006e+00 -1.091220361782847537e+00 2.299648877082289267e-01 -1.236089340703595996e+00 -1.167448733606521349e+00 -7.401806755219189071e-01 7.911009546322919084e-01 -9.146523327016288230e-01 3.180007235082709521e-02 -8.200604396569224352e-01 7.291025198046788836e-01 -8.274234501356453331e-01 -2.515085291432135883e-01 3.704886614090699415e-01 1.238989694827546506e+00 -1.010454020502670192e+00 -7.242631172719470323e-01 -1.597147140757310124e+00 -8.577630251141544759e-01 2.942103473388330004e-01 -6.157160191691896101e-01 -9.018277444583158164e-01 -6.087530535814007493e-01 -1.303532923780946540e+00 3.613127266995585507e-01 7.974874005551121359e-01 4.559682354459933251e-02 -2.319242087615971393e-01 6.587863867818667396e-01 -3.219201572245926624e-01 -1.226019947648310904e+00 9.322582768397633113e-02 5.803532754897446910e-01 -3.430139156001373868e-01 -3.427891704338433820e-01 1.992680033293101338e-01 1.157991194811311075e+00 -1.812304841036502939e-02 1.859557170359289469e-01 -1.138715884752711238e+00 -9.342008778220859400e-01 1.475573343201781906e+00 3.945918590264451686e-01 6.694873025358744068e-01 -1.687134022167152025e+00 5.020537489762890229e-03 4.218176283171681806e-01 -7.240005715104831374e-01 4.374380449550462346e-01 1.827081962450244068e-01 4.892167193687148585e-01 6.803136236959625993e-01 8.449486688604025408e-01 -6.057459328401767484e-01 -2.784100324639931720e-02 -5.188651496511624828e-01 1.511418148965699482e+00 -1.391461803036931011e+00 -4.289912866409633652e-01 -1.313604081019556780e-01 1.263720092746314805e+00 1.425139446844214897e+00 5.182270167173773645e-01 -9.985445251041410453e-01 1.770941162830546867e-01 -1.065849560393224538e+00 -9.241291463574181630e-01 1.483803791646430614e+00 -4.132908659046085481e-02 -3.584651017962746655e-01 -8.428399639542192290e-01 -1.574485495349238651e+00 4.005814998710481301e-01 -1.432792881091767390e+00 9.565569976059539181e-01 -1.023661537595427662e+00 6.790945846691884835e-01 -1.095386230108611469e-01 1.468915029178656795e+00 -1.217676488988207018e+00 -5.561105638017641573e-01 4.727364118348815758e-01 -2.656999162588499219e-01 -7.895563267102918559e-01 3.706427057112088308e-01 1.261490772825180295e+00 -6.159552104942270789e-01
1.863459262386693016e-01 2.441227364579520373e-02 7.815910763201282530e-01 -5.475672904081222425e-01 -1.242978695332581207e+00 -5.635796489438676948e-02 -4.112318123343124410e-01 4.285221260874575999e-01 -6.417637214511739963e-01 -1.629931752044199572e-02 -9.697264521950510474e-01 -1.419845486788429145e+00 1.171838549927864292e+00 3.097183254874078320e-02 -1.073342181350287916e+00 -1.123169264235640008e-01 5.006623654597081030e-01 5.970105836474978167e-01 2.191352300642929740e-01 4.235754875083501680e-01 -1.349387939095995526e+00 3.025542538931790815e-01 -8.530669019550407572e-01 2.707120579940318073e-01 -3.691369194407942977e-01 -1.105127501810796664e+00 5.578064506489944785e-01 -8.433554841500403576e-01 -8.643013609533793939e-01 3.199821151612924214e-02 8.220109739329609644e-01 -6.595403165021157532e-01 -6.548682550388046364e-01 6.904156159226756406e-01 1.094178685319469185e-01 5.838816613658097676e-01 -9.234393500679122235e-01 -7.745006232237904298e-01 8.979180659894081540e-01 -6.126859204730354946e-01 5.642441189616372865e-01 -2.007040682355865968e+00 -1.374780458548960249e+00 5.135797794981078468e-01 6.267672147013634287e-01 6.314188879259432507e-01 -1.067240411240062858e+00 -1.498540091175389888e+00 -3.877129277395726659e-01 4.080143932267353279e-01 3.588196639821083500e-01 3.184239683446888347e-01 -6.170642177888830959e-01 2.579788478656941386e-01 2.351627720362600982e-01 -1.609969032221512247e-02 1.337434024694096613e-01 2.140261325136218584e+00 -6.828631765717639857e-01 -2.386518474604175655e+00 8.067147715812960085e-01 -2.423346414220848843e-01 1.434495806139306912e-02 9.035249099069582179e-01 6.894592739922621449e-01 -3.356647320121790012e-01 -4.892231792565235327e-01 1.561903169712824946e+00 5.348269431906419458e-01 -4.946758535901637499e-01 -4.375704082104147075e-01 -1.202190215798425998e-01 1.556544509931573617e-01 4.430827153889931036e-02 8.575027189857949983e-01 3.068646648364449156e-02 -8.168617561223023849e-01 9.183467031174830097e-01 -2.254034245359265665e+00 1.618897053466741731e+00 -1.984892305146664482e+00 -1.695544148721632283e+00 2.699908689813943496e-01 -1.971582927468455426e-01 -1.732563241510674867e+00 -7.310362503169627602e-02 -1.475035224370428333e+00 -2.219910929723200255e+00 4.816515687827147563e-01 -4.627327667263720357e-01 -1.132148364779156147e+00 1.375663465602304125e+00 -2.804616303575557801e-01 2.769420896053726433e-01 6.804632110099299025e-01 1.141994264055112424e-01 4.333610913776537732e-01 1.339427169075987079e-01 8.288246012017698172e-01 -3.283478521155665519e-01
1.475415309620949689e+00 -4.753366041587065577e-02 5.640950816204199497e-02 -6.837029757758422699e-01 -3.052391124739435857e-01 8.898516068929259726e-01 -1.258884269817647228e+00 -8.121467162946429674e-01 -1.525599347114544591e-01 -5.844609689974972211e-01 2.145813260698808733e+00 -4.138442064514378238e-01 -4.595632086976550457e-02 1.481887981227414386e-01 -6.389612477562557347e-01 4.630494647533787145e-01 3.415247772422541073e-01 -1.126932217412104364e+00 3.814938062656995227e-02 3.839683400661248469e-01 -5.925568066664630429e-01 -6.914672784656834548e-01 -3.208223589091133837e-02 4.773523896957505147e-02 5.405272259085370790e-01 -2.063400826733209625e-01 1.966587163217367040e-01 -5.805783981114484016e-01 3.075318210842387656e-01 -1.554026428328352527e-01 -4.585541316800184619e-01 5.951574764437612686e-01 8.539915364800006181e-02 -1.575428675811996193e-01 -3.098921131214554259e-01 -3.265308673347716573e-01 -2.460753115702191129e-01 -1.604043770601395247e+00 3.241541159351743473e-01 1.046788968091321159e+00 -1.105301288052833675e+00 -2.945861834514721389e-01 -7.104833673473601729e-01 -1.154174578517356942e+00 -5.190928380060493286e-01 1.713935365178672399e+00 3.424636284801159669e-01 -9.810150700388241551e-01 -1.169571683358905934e-01 -1.707137434398036335e+00 6.083105248641912377e-01 8.962653912045415172e-01 -1.224073569461996192e+00 -1.318761501672020664e+00 -1.274260472582569692e+00 -7.751368463584652480e-01 4.193715528201790166e-01 -1.362458855958448734e+00 -4.854357412806845073e-01 4.095449636272984195e-01 7.698605019465580845e-01 -1.012170888634289057e+00 -6.764281309396145137e-01 8.312236000816816683e-02 5.608013084656605640e-01 -9.619181829870140366e-01 -6.538292146273549932e-01 -6.539326246216607963e-01 -1.763933912187634068e-01 1.546755158661106133e+00 7.266599860412762402e-01 -9.541139140762069371e-01 1.014452033136124642e+00 1.540008789112467802e-01 -8.159281165386913504e-01 -8.538761819225981764e-02 -9.642567313799271789e-01 -7.934701551858980295e-02 -1.668639431859139322e+00 -6.061335991837665249e-01 -7.059716157061622921e-01 -7.802432482474925823e-01 6.828647671833190103e-01 1.350407364321223325e-01 -1.634856236631831550e+00 -3.225710510466850423e-01 -1.130122958033946023e+00 1.031048365818197254e+00 -2.005393576445310966e-01 5.132551139487020464e-01 -4.834900813478500425e-01 2.186288733820186625e+00 -2.230690960024783176e-01 -2.536340711910950452e-01 6.099294824670660198e-01 -4.097076862493326810e-01 -5.059266391594431367e-01 8.807555939467792694e-01 -4.529406226922509937e-01 1.159436411813695500e+00
-3.684909531133871430e-01 3.890010454141769602e-01 9.143922141340623533e-01 3.803428443162990558e-01 -5.958152196928825362e-01 -3.439734076101451654e-01 -3.439880837268627367e-01 -8.166072330853473282e-01 -3.823421071785809144e-01 9.207334216509096558e-01 1.506853874841740382e+00 -3.853183802121276091e-01 1.427396972192947144e+00 1.146413669033250482e+00 -9.924436575713351250e-01 1.062004687802966973e+00 4.968221929965242478e-01 -6.384821912354934903e-02 -1.135308519988873055e+00 9.679512690885739845e-01 -5.364895314903102980e-02 2.555122711448901129e-01 5.091553737317526807e-01 1.177969870968190585e-01 2.107787801774009540e-01 4.321415757513590861e-01 6.916413736209759966e-01 -1.461696452996492646e+00 -6.173878017921270445e-01 3.506484616400432075e-01 1.441288625740977380e+00 -8.962758334140288330e-01 1.658363399487314815e+00 7.199299233893504679e-01 -9.527905437882779049e-02 -1.091541769299425590e+00 1.325068081475573534e+00 -7.598752210634325266e-01 -1.587258023012056984e+00 -1.309152267801702019e+00 -1.097862663408028849e+00 2.765589962649185884e-01 -1.072359292496445349e+00 -8.925046844482091846e-01 4.870592413715664204e-01 2.163204175419866981e+00 -8.885885525844847699e-01 -2.510566201913366768e-01 -7.233679730535933494e-01 -1.584161490378296566e+00 -2.726037331592993107e-01 -3.996524909649195045e-01 -3.427354705926164424e-01 -2.078102086498405221e+00 -5.832109536704754849e-01 -9.858150009158674898e-01 7.160795278786663554e-01 1.623693042767987205e+00 -2.858050284429919721e-02 7.505381256561914904e-01 6.173837654821416610e-02 -2.575648902247255623e-01 -9.824349315784073333e-01 -4.666889066839455258e-01 3.295167668514454307e-01 1.533765540211787237e-01 -1.058389047035290575e+00 -1.223319444307338300e+00 1.680193316369140988e-01 -6.104885918852679394e-01 -5.140080048399292556e-01 -4.836745105650860910e-01 -1.048967594323966690e+00 8.982610553423859834e-01 -5.969925452438569202e-01 -1.896426461448170508e+00 -7.081907800583145951e-01 3.533928074920281714e-01 1.447103099447617280e+00 -2.686099925138661249e+00 2.258560831659551793e-01 5.723052883483566999e-01 2.610052808222287357e-01 1.421532892947388257e-02 -6.407480035606855084e-01 -8.957470107197013087e-01 1.013689187871224640e+00 -1.122306335481717765e+00 -7.519379839367796858e-01 -6.324789149374379083e-01 -5.742389870287059050e-01 -8.119825489360030790e-01 1.220536970959169798e+00 1.206788605291313266e+00 -5.158689082992914399e-01 -3.863608277287399750e-01 -8.046682645526225253e-01 -4.602696706409371008e-01 1.177793918519556282e+00 3.780165241411621024e-01
-1.008505650593371605e+00 6.043311296287258161e-01 -1.167113323255698054e+00 3.281288880255748830e-01 -1.316081065026607932e+00 1.654924791577973286e-01 -6.050549514053529809e-02 -5.396502446009696780e-02 -1.706455702705666003e-02 -1.496191434989110114e+00 2.630182285574496515e+00 -7.968205401520817022e-01 5.065255970278662589e-01 -5.444357588340066334e-01 -1.636604976632648700e+00 -6.241774650563438609e-01 -3.638183576696528143e-01 1.000021843282567824e+00 -4.421311066876424944e-01 -9.885414639954166471e-01 -1.518368963794165249e-01 1.415494687478548175e-01 -4.470598235031548184e-01 4.086999020305477903e-01 4.695985370973270179e-01 -6.880697958558659177e-01 5.208298689558845673e-01 -1.824204833073595600e+00 -5.078287090764487255e-01 -8.132921874298753018e-01 6.490093085319915689e-01 1.113349651414734298e+00 8.518282446352962722e-01 2.920869290123214168e-01 -9.459656338890584659e-02 -1.088715187955931807e+00 -4.641539273357096484e-01 -1.108619734354032715e+00 7.635733060689358087e-01 -1.743752241281069232e-02 -1.120897726109084003e+00 -9.398707747202685869e-01 -2.225969069207471840e-01 -1.170537752553269639e+00 -3.688274995871447803e-01 9.538648780279875838e-01 -1.009566335980825347e+00 -1.949323097655385473e+00 3.753484275727036468e-01 2.587955333189606577e-01 4.879925626338285638e-02 -1.221208497180987340e+00 6.662408766269711791e-02 5.041656913096678183e-01 1.687392199925460856e+00 1.689780608314603583e-01 -2.451971358801487422e-01 -2.697324323006247693e-01 5.869169750609956049e-01 -6.760532040590179204e-01 -3.099121587461588501e-01 -3.190632443534290319e-01 4.366779876187069642e-01 1.338785748402622655e+00 1.357630216830427727e-01 -1.021933545229007645e-01 3.022415031615126035e-01 -9.971004753564831624e-01 1.075004514241972714e-01 -9.466867428637945059e-01 -1.838118287476046442e+00 7.603161377540100796e-01 -3.421451592015993248e-01 2.392602763022978474e-01 -9.891708105383184568e-01 -8.756390969012269876e-01 6.618588324038162662e-01 -8.366228397906976255e-01 1.147812325818336809e+00 1.403275710306756352e+00 -1.955208489640620773e+00 1.756247629221125761e+00 3.140625935793170398e-01 4.480517949523807886e-01 -5.688759759491029966e-02 -3.153911871744732864e-01 1.576155527360856068e+00 -5.048108510229029067e-01 -4.305182913163653480e-02 -1.420549975644492147e+00 -9.238663129856097278e-01 -4.586811731501356793e-01 -3.476659350021589212e-01 4.018540342823607170e-01 -2.670418932961505787e-01 9.095134919768177451e-02 8.819991720881107389e-01 -1.605349422671269677e+00 -1.209908085772880337e+00 1.082587113043367522e+00
-1.298219296731014938e-01 1.450824005789182136e+00 1.171525485155266555e+00 -8.744883275757093788e-01 -8.579206590772551211e-01 1.692803573015764229e+00 -5.125893712103071209e-01 7.311095038919247502e-01 -5.573151058586692796e-01 -1.154639919828140071e+00 -4.006167644959748309e-01 -1.192246633136931244e+00 3.706051766126783886e-01 -2.067595877031369878e-01 -2.238897386002103862e-01 1.551817965734187954e-01 -1.662845403501362895e+00 1.218408434119537365e+00 -2.633570330473652410e-01 7.737921463820084111e-02 1.627247806625757631e+00 2.142815950925834600e-01 -1.065314579825092034e+00 -4.812344267354903837e-01 3.227258693830585834e-01 1.293367107565611018e+00 5.742756389286171048e-01 1.145051944735886451e+00 -1.588826915528173400e-01 -1.251756619901644108e+00 -1.218864382477306219e+00 1.133222102466068693e+00 9.497440868812603854e-02 -2.834977334504951707e-01 4.713951453740666264e-01 -1.688265477741806464e+00 -1.202745419916024794e+00 2.572538473944912529e-01 -1.341388280267247490e-01 -7.388941360835805661e-01 4.366364273644621763e-01 5.632708478966631516e-01 -4.764709650076697223e-01 -4.765339811369980749e-01 1.545377199478671360e-01 -2.243891748355883176e-01 3.470429822738431702e-01 6.427640150524750462e-01 -2.789366483144269937e-01 -8.209023194384475197e-02 5.537666373340676129e-01 -1.207531680261451967e+00 -4.027079670947192325e-01 2.346271905982327821e-02 1.610999620831964352e+00 2.011808468799477709e-02 -7.308329736513181629e-01 -1.460652769497432946e+00 -9.412022494279369544e-01 -9.095730608579195575e-01 -1.352341289921485501e+00 -7.184140091687539753e-01 -6.572156304809705363e-01 -2.581623353980126989e-01 -7.396399202200762968e-01 -3.797688726967478612e-01 -1.126863847213638969e+00 -1.158961924894094837e-02 5.379797485851139927e-01 1.383890276676429831e+00 3.730980613867984075e-01 8.963998157367056852e-01 4.158860464737216822e-01 3.164866598518039503e-02 2.570292525324184285e-01 5.601977845110927001e-01 7.144532537715637677e-01 8.745464377658256350e-01 1.393322428925363621e+00 3.369599057826308530e-01 -1.614481984832357997e-01 -6.222654400120718465e-01 1.768699544776526633e-01 7.054441229955261683e-01 1.207610904852866041e+00 -9.138922161115187182e-01 -2.449695252795988931e-01 -6.575331876062519010e-01 2.173385382210426542e+00 -7.201518486945170106e-02 8.060130041501193388e-01 -9.290200396689918261e-01 1.459573003350080889e+00 -1.584270229026993215e+00 -2.683373565855840526e-01 -6.267928024359779027e-01 4.229145912021016196e-01 1.623659179995453061e-01 -4.345254158981121662e-01 -2.216722495476421972e+00
7.251556284566755828e-01 -8.503122641396950732e-01 -1.763418769448897028e-01 6.480918443493369763e-01 -1.004054855894521925e+00 -2.080628548526109345e+00 -6.829994473850039549e-01 7.575676037545427954e-01 -2.617026296960072718e-01 -3.128128945078949008e-01 -9.248307529316009967e-01 -1.121526866139711975e+00 -1.004070594269492078e+00 -4.966789277044697526e-01 -4.780460500945519220e-01 2.782895005473892125e-01 -5.254536366206976616e-01 -8.636303020218730753e-01 -1.216919718480846679e+00 2.279473890596693142e+00 -1.137609568063743026e+00 4.779099637691989200e-01 -2.115740238978278120e-01 -5.486735368298273352e-01 7.715436552202629139e-01 -2.378904460766087858e+00 9.770341626600231866e-01 1.760708255601339811e+00 -4.416345514748034606e-01 -4.410861862067131933e-01 6.795179585200595840e-01 -4.825945832102352950e-01 -4.573997411616283482e-01 -3.414592252633976144e-01 -2.154332954555801816e-01 -3.967436621112798711e-01 7.137164144244468877e-01 7.524297644631721127e-01 4.381065279762404452e-01 2.060180802899894692e-01 -1.058367169338560121e+00 -6.022248612694255376e-01 -3.180570254033486255e-01 -7.331779149839720011e-01 4.433863004285336640e-01 1.114272674174530131e+00 -8.439195017212358652e-01 -1.428870684744549147e+00 1.069477355301651444e+00 2.808942175004586206e-01 2.761773299429959860e-01 -1.436680927262542928e+00 3.606279878716214249e-01 -1.087553050879173977e+00 1.003478419277786138e+00 -6.655948798797832744e-01 -5.070111976290220257e-01 1.162683674578168125e+00 -2.882238460999239291e-02 4.268261001739891841e-02 2.251508735487511327e-03 3.144682563528072849e-01 5.875364432117896607e-01 -1.395866220799273361e-01 -1.007017104266293150e-01 -5.034565043500870418e-01 -4.679990948704099707e-01 4.080067988976235349e-01 -9.259789771092892252e-01 -2.724083714221005259e+00 -8.266869600941674223e-01 -7.660166122342471073e-01 4.805850722565342403e-01 1.576382656140375538e+00 4.620258990678555167e-01 1.197485035076166326e+00 5.669523253177872757e-01 -5.307154081558863590e-01 5.900912414018730789e-01 2.749545899026936135e-01 -1.024129258553967858e+00 2.067199896135035075e+00 -9.336406542679357434e-01 8.231489861045795386e-01 7.147771993031984961e-01 -6.545514433726358494e-02 1.401251560353346637e+00 8.827735998415892071e-01 1.440174745482176943e+00 8.330455553361035825e-01 -9.066413438550664505e-01 -5.055971777192138639e-01 -3.119989496089094483e-01 -8.226530800632908536e-01 5.865000342257452592e-01 -3.722689548731383802e-01 -4.939588750832076269e-01 -1.194634072069226338e+00 1.843604406666388140e+00 -1.774730743319541171e+00
1.266981012592888721e-02 -8.702263568984583975e-01 -6.251332458953193782e-01 1.974175085053484768e-01 -3.365140688917911960e-01 2.700442671152921692e-01 -7.937578925095495341e-01 5.684709576365427619e-01 4.358019522135780366e-01 5.653828507036358086e-01 -1.935914500202900346e+00 -1.661785554198838832e-01 1.337234773710335389e+00 1.460153112204952253e+00 1.126075850483992502e+00 -1.703053792874480221e+00 9.167056615799843433e-01 7.067971270529846972e-01 -5.340273890897107023e-01 -8.701887502126539609e-01 -6.191104645210190327e-01 -8.731260990862943494e-01 -1.608853402597746785e+00 5.032789084620021836e-01 9.059766007443632585e-01 1.915534751574813344e+00 -7.633183250382902241e-01 -1.930528416856788887e+00 1.534774070297872939e-01 -9.672873889522074498e-01 4.560787990184816953e-01 -1.754896550557515922e-01 -2.172896314702430776e-01 -1.653653148733081057e-01 8.569374142725374455e-01 1.657131552437526578e-01 7.066064731455946879e-02 -7.944651923143480898e-01 7.445780073970368340e-01 7.301242696714349556e-01 -1.113409250228348579e+00 2.209387634183793414e-01 -1.434006212820319592e-01 -8.083973721068837825e-01 -3.492130109989508568e-01 6.483304214964005219e-01 -1.044952597195966337e+00 -6.431861567729498796e-01 -1.314777645096682490e-01 -1.666387277188417781e-02 -5.238897280006853396e-01 1.392200425156910892e-01 -1.795617489240010745e+00 1.809047415249297908e+00 -1.047529134741687962e+00 -1.649112552517730146e+00 -1.018492149227907123e-01 1.060666633868503128e+00 -6.549882151072227154e-01 -8.126972972852111177e-01 -6.327580452692214141e-01 8.169131813433504474e-01 4.476956526962336258e-01 7.811913004719427123e-02 7.264946880364112625e-01 -2.718379521966275969e-01 3.410169242614943252e-01 2.445930471899023795e-01 -1.003897507170816938e+00 -7.209178609470278110e-01 1.384458489856839059e-01 5.979609620034663786e-01 -2.240244927570009537e-01 -7.749225888408429741e-01 -5.822673869150860604e-01 -4.771167451070158494e-01 6.896265737228717274e-01 7.903963773460156439e-01 6.419648530816244314e-01 -3.474785565947413613e-01 -6.593614471150025524e-01 -4.787185443302715560e-01 7.526753778443185938e-01 7.618146292456562385e-01 2.230469939211238817e+00 3.276571375893331806e-01 9.447791225738539911e-01 -1.403353631725787753e+00 -2.088534785898776835e+00 -8.555709134084209522e-01 -7.278478952128706325e-01 -2.551669914416131224e+00 1.148128766737404494e+00 -5.174880375991139925e-01 6.634701804323930308e-01 -3.082814705939813660e-01 6.948436151368514446e-01 2.548729963247781810e-02 -3.725580483611844462e-01 -1.745969435405186676e+00
4.597477727677699022e-01 -6.172515557693328964e-03 3.152954407238285905e-01 5.676293273256158844e-01 -4.061623846333712873e-01 -5.126980111388813599e-01 -6.436265489155340580e-01 -3.190843573801968036e-01 5.600048704318697501e-01 3.960660481430092195e-01 -1.834947912350030075e+00 4.982994398324266383e-01 6.623659267025386876e-01 -1.802609599829770648e+00 1.288678347087574450e+00 -4.638556745324000363e-02 -2.878828349093967565e-01 -4.703839591372125373e-01 -1.099227356935531530e+00 -1.186019994531103627e+00 2.643561756231670445e-01 5.680061100791075068e-01 -1.914923102398525367e+00 -3.252198496163577479e-01 -5.956120976092249553e-01 -7.543032269188724159e-01 -4.340762411209122540e-01 -1.593713369536013058e+00 5.503406257488460129e-01 2.931399510200465297e-01 -4.919608171719004885e-01 -4.110104074040723532e-01 3.632613858447263366e-01 8.247894592515188084e-01 3.896948639700890255e-02 2.969240400967737906e-02 5.723081570697345910e-01 -5.800432714757280950e-01 2.526014966972939813e-01 1.074395794878671095e+00 -6.074596029573982037e-01 5.347129306281727112e-01 4.320990161080953129e-01 -4.039169172045149470e-01 8.632976580219927643e-01 6.564992820167727672e-01 -4.536344454191953979e-01 -5.868999682415050601e-02 -1.497125404030591911e+00 9.660125223181936782e-01 4.099722980846434162e-01 8.204188017665721144e-01 -7.788809162424731314e-01 -1.231345380290810310e+00 -2.595894503309394974e-01 -1.473587335913042196e-01 -1.061982018106004899e+00 4.791654557891797395e-01 -3.346642043111481835e-01 -5.004117612494685119e-01 6.593104867185478613e-01 -7.285198367389077445e-01 1.938988212368243300e-02 7.458962075571919925e-01 -6.543353084500428407e-01 -2.151254764176226963e-01 -5.166125526756275566e-01 3.613149018227905795e-01 -1.463104449725822764e-01 1.039162609930892739e-01 6.751800821877222969e-01 4.971139351333042633e-02 -4.859590510490983117e-01 7.159105369652265516e-01 2.916749935288686091e-01 -1.717363365785717688e+00 9.224549769390662235e-02 3.062543866193162545e-01 1.884876610499856664e+00 -1.206624104344868664e+00 -3.965366172180964655e-01 -1.159403584973919044e+00 -1.095584700519902643e+00 -5.525339734285716897e-01 -3.755906260015094422e-01 -6.441584248814423708e-01 -1.321324135656542609e+00 1.454119289460381159e+00 4.195850102755810385e-01 9.127495799962413725e-02 -9.541055056044905891e-01 -7.814763605925473255e-02 9.159205357278175086e-01 1.146019982653787156e-01 7.055553589071773546e-01 -1.954371883805620380e-01 9.291188081424887057e-01 3.520116150822816259e-01 -7.691477006424216611e-01 7.910866467789721135e-01
5.867868765449568702e-01 1.454409149487243758e+00 -1.179229364077321263e+00 -7.741971613249948314e-01 -7.848185344857635526e-01 -7.222215394289409618e-01 -8.276160582442442237e-01 8.046531406567211109e-01 -7.125013592641541438e-01 1.088756305910774325e+00 -5.726400430198018698e-01 -5.471355642685391540e-01 9.861823082147914699e-01 -2.185140815303400486e-01 1.796902845886732880e+00 -6.329489671536625561e-02 -1.354087162521876886e+00 5.222443755322999648e-01 -4.455310678272292324e-01 8.713283750552153206e-01 4.730459056804277029e-01 -8.741591965428711086e-01 -2.017325834771194759e-01 -2.745458050224142688e-01 -4.880355064963199374e-01 4.250896167645791812e-01 2.754000687073684950e-01 -4.819704753496392158e-01 -4.905465032975394601e-01 3.773497042835935456e-01 1.473664739822736214e-01 -4.422211966340087730e-01 -9.556885226278205581e-01 2.408872539065594620e-01 -9.880025147952458120e-01 3.240307715840559100e-01 9.411762926659568151e-01 -8.222194041846422885e-02 7.697280644468013078e-01 -1.365613711179632483e+00 2.197023768672616006e-01 4.041606910669910402e-01 -1.213051323933732606e+00 -6.150918588457356950e-01 -8.032862146684832672e-01 1.299043193115978712e+00 -8.854748854259845148e-01 4.308818429736668287e-01 7.497526648794474724e-01 -9.058025691014385261e-01 -4.915578245621442521e-01 1.734528856150617138e+00 -3.256422515929825456e-01 -4.306244353617826870e-01 -5.212288368508908309e-01 -6.426451101131845922e-01 5.652664271407356056e-01 7.270609652221742270e-01 -3.561627505266384830e-01 -6.630033598262798089e-02 -5.913264477014323894e-01 -5.245779509131487384e-01 -1.036511478700144151e+00 -1.318796685959367498e-01 2.441488380285470050e-01 4.301066998898663840e-01 -9.517677057842602872e-01 -1.023685750082508950e+00 2.193574459005981359e-01 7.413534057391713006e-01 -4.740081684773544968e-01 -6.747690006928941386e-01 8.997479570227825407e-01 1.213067685372990756e-01 -1.513921458106015361e-01 -7.706206535118585998e-01 3.719895758222098725e-01 3.069535458025988151e-01 1.226248087525362435e-01 -3.386513162196659876e-01 -6.077086346253492977e-01 5.002626418114226592e-01 3.369828999315372386e-01 4.994167928644660526e-01 -1.755584847148716765e+00 -5.756993821578392234e-01 4.305990485244323707e-01 -2.079506148133531518e+00 9.294569019670864130e-01 -6.181026716663532428e-01 -7.786754130984160360e-01 1.924615474368765455e-01 1.021512021413170102e+00 2.117022413438795492e-01 1.179785487330460514e+00 -8.928498879649658937e-01 1.891030137535451017e-01 -5.206520084863691666e-02 -1.747542772134752287e+00 7.661268110594179337e-01
1.013332002787118213e+00 5.543945889932725413e-01 1.005813849443531333e-01 6.374805802726958293e-01 -7.905597502302068591e-01 -7.370529991785579327e-01 8.348352795105971891e-02 -3.284520963597530319e-01 -1.172517500333559032e-01 1.263418659215919782e+00 2.102936269355923482e+00 5.997979767656233530e-02 2.556710360825090511e+00 2.252914232340959000e+00 -1.721801549341726245e+00 -8.454968946776444394e-01 3.874241026450732650e-01 -7.652946227036225291e-02 -1.725474864275010178e+00 -7.249396034571400360e-01 1.400701460535385690e-01 8.659229450131037398e-01 1.462098398454927173e+00 -2.489400482892157873e-01 -9.679293301583558051e-01 7.518227404450981977e-02 6.329759981495970411e-01 -1.033256230777556350e+00 -1.517183082038522923e-01 -4.607842695001259647e-01 -1.307022777183264872e-01 -1.668050339153347217e+00 -4.587626073776274183e-01 2.849827379762049362e-01 8.446630666121817121e-01 4.606338035383538698e-01 2.055366669139814251e-01 -1.265498837647831554e+00 -4.685231085875802837e-01 -1.685096046062959374e-01 -1.124090135878502483e+00 -3.347652144995517665e-01 1.691463299083615091e-01 -1.176086965494080649e+00 -2.885708486632046488e-01 -3.867846734374593559e-02 3.608996697073563742e-01 8.657787815181955393e-01 3.913966316275834800e-01 9.912421378200009237e-01 -1.032190932484898349e+00 5.899541281655493741e-01 9.821799147173915223e-01 6.940813817593649571e-01 -1.478921141985806820e+00 -6.026663874594289094e-01 4.372815549417870540e-01 -1.993862551105879621e+00 8.174176507712415107e-01 -2.197732495166973443e+00 -2.308293195756295102e+00 3.385189955591119682e-01 -7.531688072977593684e-01 4.354069384946136489e-01 -3.233890006898368363e-01 -8.605317647389910674e-01 -1.582994943257031162e-01 -2.024893878552656568e-01 -7.031292018096995111e-01 1.151124464698069616e+00 -1.669468339880934571e-01 -1.330212783009089295e-01 1.711195404038857726e-01 -1.309222418618733765e-02 -1.201716534422413885e+00 1.113746541364843065e-02 6.765644570171999161e-01 1.836979573289079792e-01 1.539229225743693197e-01 -7.916618474887643364e-01 -2.366038628472190819e+00 2.787205669031741495e-01 -1.593893315908045949e-01 -8.099163549138790330e-01 -1.597352206408474140e-01 -1.171344104162968858e+00 -3.073813196816007065e-01 -1.340088023886327750e+00 -9.578807011630836588e-01 -1.370670504669456946e+00 3.652378387109512237e-01 -2.238401114198614206e+00 -3.906339309138152638e-01 8.394169519547108882e-01 -5.161385848403269444e-02 -2.962230694211167581e-01 -1.724478968309996807e+00 1.001462625627962177e+00 -9.136005336769228435e-01 7.128651571089341787e-04
-9.569556293141380232e-01 -1.462248484274102922e-01 8.377770580953743940e-01 -1.303696910213305027e-01 -1.067844246712594813e+00 9.102832203006940848e-01 -6.209084678087946063e-01 -7.335651518471284493e-01 -6.372789137559407013e-01 -6.170829897207106285e-01 -1.089789867264987722e+00 -9.256814768814958239e-01 -5.184711525094678475e-01 -3.907874667502390098e-01 8.438635354391443855e-02 -4.757727313062224961e-01 -1.098393777705316543e+00 -8.821444079088508472e-02 -9.522072358755744037e-02 -5.478496020230094743e-01 -2.947493357501326794e-01 -1.090410288168749187e+00 -4.525889426347380895e-01 2.371784818108658155e-01 6.493487890109660432e-01 -7.193007689811593830e-02 -6.245875471440817672e-02 3.161414283787315482e-01 3.120617765342397765e-01 -6.384722259099900876e-01 1.382706649151592915e+00 -2.060221501965438407e+00 5.005129376285291087e-01 1.193624696800922591e-01 -4.268302940043900429e-01 1.141480849655561285e-02 1.313202319356922665e+00 -8.513465660329948559e-01 4.272703797345895338e-01 3.783580367389255961e-01 2.323965688709821453e-01 1.467435442460940549e-02 5.449729307231637732e-01 -3.784211096257120155e-01 4.709680983875861315e-01 -8.668147560834327248e-01 -3.260356293919265402e-01 1.000619464797710689e+00 1.093249433566413131e+00 -1.915386722713662726e+00 4.644829291010292294e-01 -1.654108032617668533e-01 1.051643411111639614e-01 -7.229313940864047217e-01 -3.360151790276350581e-01 6.115413433786407449e-01 -2.188822831011115078e+00 9.279087628741630178e-01 -2.746866589493044408e-01 -5.930882425314263351e-01 4.546952829665060203e-02 -7.723147118676723100e-01 1.584608391246382919e-01 -8.903458504484168534e-01 8.950239851810715130e-01 -1.952705098185734955e-02 -7.785425379412340419e-02 6.493987731666763796e-01 -4.288936720009048909e-01 -1.978809466647282744e-01 6.608253910839704259e-01 8.610516502615678247e-01 6.777603487857246645e-01 -2.841863921190077580e-01 1.730404112372583847e-01 9.259319106098847785e-01 -1.037699399961350966e-01 5.115986275733994670e-01 -1.588058870127643907e+00 -4.109823990135215710e-01 7.464572001443363636e-01 -4.124595611890620739e-01 1.213860807880078774e+00 2.273798485154869264e-01 -6.466851968194006206e-01 4.635046109336963260e-01 -2.942674921983773340e-01 1.382078799998268437e+00 1.950660811499514702e-01 -1.053207946359947966e+00 8.688008467382719591e-01 4.894107457868300814e-01 -9.981672032616725199e-01 -8.760363818404261205e-02 7.631114523341006040e-01 5.252805016381798531e-01 -9.735042321577173918e-02 1.695520399511410981e-01 5.519158060515295672e-01 -4.677293335084539150e-01
-1.740533385185587256e-01 -5.031677289211970994e-01 1.810518323911348981e-01 -5.915229598561143609e-01 -3.770918425088681247e-01 3.638584909187856931e-01 -5.294104939025219281e-01 7.452308878837856643e-01 -6.746508177065142497e-01 -1.560164828362547107e+00 8.145445588898579947e-01 5.075463740380864452e-01 -1.494407999441287993e+00 -6.848352844612358714e-01 3.115438308956954283e-01 -1.682036470537351391e+00 -4.859472106638280985e-04 -9.428811105077251620e-01 1.833044611461654427e-01 8.132348980313481857e-01 1.217313682960029286e+00 5.728191350787438241e-01 6.624643419522728838e-01 5.154797531256904985e-01 -1.365683244876908682e-02 5.738444311596969660e-01 -7.673786838518117381e-01 1.241909388772045819e+00 -4.675788989522136063e-01 -1.073828958236263231e+00 -1.664592529201303295e+00 -2.161488285964777489e+00 3.041108771451585951e-02 5.600527828508803374e-01 6.508088746516288436e-01 7.206417078867320969e-01 1.925715357325227250e+00 4.858185947348395151e-01 2.059756578773104183e-02 -8.864190549157646704e-01 7.488947885650033554e-01 1.688277822772131120e+00 7.068049410269929000e-02 -8.176601453805344422e-01 6.480608298017319635e-01 9.172938506020382743e-01 -1.044237806561086668e+00 8.890910721472772282e-03 2.449126489874729404e-02 5.042327342390102718e-01 5.653801527974176011e-01 1.873372694896602741e+00 1.605035341917620262e-01 2.136231956568101220e-01 -4.238162548526595574e-01 2.313696373644994697e+00 -2.242312671182409289e-01 4.829750195172732852e-01 -1.507684872177616597e+00 -2.206341043051719186e+00 -6.391335058542035874e-01 -3.685299621895741229e-01 -8.532661750709212845e-01 9.756253227624552826e-01 1.968588663556437579e-01 -8.508642459392614654e-01 8.561915040260655863e-01 -6.358295686490555987e-01 3.909915067829186630e-01 -9.133937578023818560e-01 3.030517371484384714e-01 9.294292394743814967e-01 -2.741361804694407711e-01 -1.425799886125055149e+00 -1.992361384878496011e-01 3.338306337591286921e-01 -4.853968218936771106e-01 1.573937874465612674e-02 4.182858634863836356e-01 -3.668013353653192810e-01 -4.397876900569790831e-02 -1.244084462938604752e+00 8.550164811566805800e-02 -7.499533498537148679e-01 3.459672171102364802e-01 -5.498229926327914407e-01 -1.734927446448059740e+00 3.813914727536141802e-01 -4.282250342914952768e-01 3.018257317127312489e-01 1.764387263260525751e+00 -2.228535733026893451e-01 8.101402962937778729e-02 -2.771673144207025263e-01 5.232562317932024643e-01 6.855721248542424595e-01 -5.972356176001838435e-01 -4.137266448000151420e-01 1.768069776092090484e-02 -1.658660400867112861e+00
-1.607621798078379793e+00 -2.838044522351489962e-01 -1.434232886425433451e+00 5.723864188442643330e-01 8.166894953785946987e-02 -5.030679268863171849e-01 -5.322350776995489197e-01 2.130427395910725330e-01 -1.615660032159714765e-01 -6.844306461877899261e-01 -1.489387129985449310e+00 -4.414985319116865314e-01 1.073975037842300972e+00 -6.165179547240585700e-01 -8.505649355414545143e-01 1.193953538566371542e+00 3.088807804368260967e-01 1.152185610734502541e+00 2.979465868264629114e-01 -1.590924559432343788e+00 2.613878371250966115e-02 -1.547606577922529085e-02 1.328278898565510513e+00 5.462059155362980478e-01 2.489697928842097008e-01 -1.836846164414989158e-01 -9.889006432562849613e-02 5.995504026859743707e-01 -7.527898338445791759e-02 -6.295346868826316999e-01 9.070009481800308526e-01 1.043471126111395808e+00 1.193160287452337043e+00 -4.956263813348436575e-01 -9.750028815919581371e-01 -2.164384120505295162e+00 2.425445486980571108e-01 -1.984532838120043052e-01 5.177482952676749628e-01 -8.763183695857421629e-01 -1.250997937864335996e-01 -1.686266228167598857e+00 3.460634592484647040e-03 -7.526697343071384605e-01 5.481816283981069127e-01 -1.621710556604432085e+00 5.798337585114251430e-02 1.197809767559745886e+00 -1.312573758765581022e+00 -1.224553047307529313e-01 -1.211430916825053439e+00 -7.351419682301971736e-01 5.271605952510309834e-01 1.083170249837046351e+00 -6.337096112657217839e-01 -4.542566313317939475e-01 -7.621128315749515769e-01 -9.512204563552743020e-01 -1.707700337166985494e-01 -1.343693882555391461e+00 6.657970761270370907e-01 1.816273541751341550e-02 -7.797288627457388266e-01 -7.584406698996943863e-01 -2.586248834798698382e-01 -3.601742474591025922e-01 4.441491756670474800e-01 -3.491436820377654127e-01 1.750823243305652532e-01 -2.962713057061935551e+00 9.132935977697828056e-01 -6.667088258123330391e-01 -4.435597697341516765e-01 -4.356289222805217465e-01 -1.748048792889200787e+00 -3.325035178321989471e-01 5.226231952949953463e-01 -3.434465574645179792e-04 9.899280382012143331e-01 1.331821227696677878e-01 -4.432652687387009238e-01 1.285104868054860461e+00 -1.258159160547933419e+00 -3.950996645080603331e-01 -1.006189866603559357e+00 1.421283255809396850e-01 4.009112472002358818e-02 -5.301775768145351453e-01 -8.088248621079887624e-01 -5.549034807461340479e-01 -7.761270222070553171e-01 -2.249840249593596742e+00 6.262546187422085575e-01 5.504818695483032487e-01 1.679884263420572121e-01 -1.272209449138122783e-01 1.472258788892620407e+00 1.325166518821202954e+00 -2.354841264325390870e+00 5.942278593644948481e-01
-1.462017938852108179e+00 7.172206181275335712e-01 -9.412155513170236132e-01 -1.911688291655652128e-01 6.984784778748291956e-01 2.100317196517482998e-01 -4.980581148682297621e-02 7.403649659350268752e-01 -9.614840198553354922e-01 -5.891814480753068128e-01 -1.628401386881666690e+00 -7.487830779831097239e-01 -3.664246921759923836e-01 -1.752032854437695492e-02 4.091554437080930362e-01 -9.193765900505822264e-02 1.920743309789769704e-01 7.656149748105677277e-01 1.071902229512363691e+00 -7.761459413275618724e-01 3.719119241306854673e-01 1.062317241329754636e-01 -7.840535286879992682e-01 -7.140567846593144363e-01 -8.794121000916055308e-01 1.302247676539154686e-01 -5.626825049474415419e-01 1.693274271766729733e+00 -7.087004155747039791e-01 -3.509704962285590257e-01 -6.176571126120167232e-01 -1.654182990296471978e+00 -1.005453933483080459e-01 -7.545961690575635206e-02 7.241841266391975118e-01 1.069932893201856333e-01 -4.452105378167319216e-01 -3.425953318276666049e-01 -4.959316772706039433e-01 8.530626177950408895e-01 -2.721350733326081128e-01 1.119905990432790155e+00 8.823915209670266657e-01 -7.920358023591881347e-01 -7.706885686483161413e-01 -1.196773197356015173e+00 2.568610844475753274e-01 2.770210835844743036e-01 2.154542674052090934e-01 1.442594756072081499e-02 6.214674321894507747e-01 -2.123980560424137742e+00 4.714625169636439406e-01 -2.165613134533935502e-01 -5.423680753598353332e-01 5.508665401280304214e-02 -1.741226902426024514e+00 -5.297917196295229836e-01 -3.550649546825989100e-01 1.028512825028111838e-01 -2.543804272815868850e-01 -1.066860284871038678e+00 -8.091672551683255499e-01 7.603000445355581061e-01 8.207928363047443110e-01 -5.463168631458283908e-01 -3.948466889781745981e-01 1.947624951833422935e-01 -8.396163779786030013e-01 -3.994972754872774812e-01 -8.988753353898037979e-02 8.794231541504911043e-01 3.676044219345482866e-01 4.753377537273811848e-02 -3.848129556260673767e-01 5.507226756106408105e-01 -2.146966445934478385e-01 8.662777582059313364e-01 8.755715537030126505e-01 -8.102312375968835356e-01 4.067546122876560810e-01 5.215880103409670926e-02 -1.232371346615235286e+00 7.618683079240270994e-02 4.937015084983226165e-01 -2.792203161334314565e-01 9.604440961720756009e-01 1.099151504162952042e+00 9.912231247348465280e-01 6.862325015158386998e-01 -2.092462945401898922e-01 -2.253112268476736152e-02 1.451129781416578224e+00 -7.043515063782813668e-01 -9.339654614980128500e-01 -9.011337007321785775e-01 3.760600513880651419e-01 1.336650994120226477e+00 5.390712924187025523e-01 3.448552833679300461e-02
8.415283516889568993e-01 8.500040171383740906e-02 -1.380994163216576975e+00 -6.851666158324856148e-01 -8.036394197807146256e-01 4.951479752318036498e-01 -7.162074831687947896e-01 -2.439130596003783180e-01 -2.744944902266207576e-01 1.171345651140274891e+00 -9.679495773958247673e-01 -1.062624773514856846e+00 -8.619185941313119992e-01 -3.375343079573926430e-01 -1.060565532930692001e+00 -3.931997056231786858e-01 -8.334758448959882493e-01 -1.154739983944632620e-01 -6.043044620507419529e-01 -4.865437314360946536e-02 -7.473562931943292242e-02 -2.143135233177156096e-01 1.253400290004033302e+00 3.807220174528703205e-01 -5.558924384640122618e-01 -1.151180350949789544e+00 -9.419041581328648771e-01 -1.796815651156875360e+00 6.373739352269037761e-01 -5.234982380465966895e-02 7.611349613458343911e-03 1.743911411935232580e+00 3.978671925195485515e-01 1.239087070957840986e+00 1.353539648237614135e-01 -1.083804467067962074e+00 1.018079240071390057e+00 -7.811265366039947811e-01 -1.096880430392814354e+00 -1.276571918186919730e+00 -5.361151107176628239e-01 -7.596515785157175182e-01 -4.917908655785288019e-01 -3.283217916401125896e-02 -8.115101196643343950e-01 -6.818849698360878175e-01 -3.990061413587926986e-01 -1.039426458503212469e+00 1.113023210584935363e+00 -3.436918346820206360e-01 1.595970323027887661e+00 -9.410186755067232456e-01 2.411878535328978723e-01 -4.835551965410571362e-02 -5.860934977268612567e-01 8.400513393417435859e-01 6.652749907408878061e-01 -1.203474800213979234e+00 3.229668596280917403e-01 -1.500409996366521836e+00 -5.737358037605629763e-02 -2.872122282554768757e-01 -9.286587621735343800e-01 4.352771609339568526e-01 4.080299659822371194e-01 -9.766837057735755501e-01 4.361853748300956179e-01 -2.238980526358098189e+00 -1.119677087121411230e+00 2.027274319700211186e-02 -2.718593043258253350e-01 8.615189151020655745e-01 -7.018613175458027209e-02 1.054374894693284492e+00 -5.475028947991060768e-01 -3.904485688682365896e-01 4.125242974134204488e-01 9.293774406580450342e-02 1.497521353310108827e+00 1.073507186943602365e+00 -5.743988519120220015e-01 -1.090578176630746077e+00 -9.716885546814890695e-01 6.415999513110362540e-02 -1.886555592369548728e+00 -7.144818208111075597e-01 1.334445624200612635e+00 1.008950757603106707e+00 -1.463498812486240475e+00 6.293764357364479700e-01 -9.915844095600869768e-01 -9.065200868818817925e-01 1.533102771595997948e+00 6.307542274134602112e-01 4.959094119454051097e-01 3.723999106762592715e-01 7.286133175869432543e-01 7.067277160580978101e-01 2.751429368860692226e-01 5.752107658812523061e-01
7.098736816377275716e-01 -7.644305709077556799e-01 -3.213383028996490420e-01 5.257156065257221345e-01 -1.115780240891492747e+00 8.296340760777395351e-01 7.634610712630219842e-01 4.481697600692196581e-01 -3.555330898539264539e-01 -2.508650077769370990e-01 -2.613557122760925555e+00 -3.199879327809706520e-01 9.911678560181940156e-01 1.246970535123442803e+00 -1.709556241378304531e+00 -7.560997910333854266e-01 7.456922584985583580e-01 -1.666283522457390864e+00 -1.382672531480264588e+00 -7.763432365630574816e-01 3.171064217922686113e-01 5.347440578592619481e-02 8.322249237271336919e-02 -1.860990159001775002e+00 -6.724845202298880276e-01 -1.895428712847867514e+00 3.533353432865281585e-01 -2.018200412820101430e+00 -2.651140583014722218e-01 -2.427712274558858352e-01 -1.063803330891001098e+00 1.749648424951907533e+00 5.290658192700649076e-01 1.304735315558265552e-01 -2.762246371876692641e-01 2.468655764947881526e+00 1.745387867316693098e-01 -3.680672573707993167e-01 -9.835599018577689812e-01 1.642993026009544222e+00 -4.371859878587062709e-01 1.156440872502939365e+00 -7.814163229263852983e-01 -5.558716555162949158e-01 2.181397353339077361e-01 -1.509819854808376549e+00 -8.316770404600587474e-01 1.549126461332700710e+00 -1.699694246678281062e-01 -1.172826899401808953e+00 -7.540505961832144610e-01 -1.208339213272783708e+00 6.035808534796747171e-01 2.627163027332967138e-01 -1.220954159802975836e+00 -7.357384981514633049e-01 -5.879421372605466711e-01 -1.023552940947131118e-01 2.817775927244068127e-02 8.595150850446613144e-02 -9.975938561749080336e-01 4.711315137571510103e-01 -3.707860275496846492e-01 -2.203555859170478914e+00 -5.774344910657064345e-01 -2.597109490737816162e-01 -7.149495637852905094e-01 -6.920418227372632236e-01 3.000872208206068481e-01 -9.163302866406035641e-01 -3.297749509877985208e-01 6.790745625752745429e-01 -5.258630808616956420e-01 2.629870881808075156e-01 2.240496673649133852e-01 2.980224752578107261e-01 1.035213146386965821e+00 -1.699237529188698213e-03 8.059626725007304482e-02 1.755898030232256324e-01 9.854275581819269547e-01 -5.559210984669654687e-01 4.430641240676322923e-01 -4.577908907342768119e-01 -4.809830968025511910e-01 -1.129652096780740189e+00 1.821828718232426647e+00 -1.990883434534524710e-01 8.507691269786548105e-01 -4.375257333535446103e-01 -1.670632019664289647e+00 -2.598810420410754052e+00 -1.843078687615895550e-01 4.364616854035421878e-01 -8.103606519587123191e-01 5.908386507411129696e-01 8.627818724248459414e-01 4.345455566518977020e-01 1.073723208340031876e+00 -9.908867050717480585e-02
2.874951032449297728e-01 4.535559528121366757e-01 -6.924096786415599551e-03 -8.115107699605350611e-01 -1.313266664778817372e+00 2.489636353688226000e-01 -5.697559688927561483e-01 2.487213515569655364e-01 -9.829650227250934513e-01 1.026571353283043608e+00 -2.906651587508788381e-01 -1.235563082135296753e+00 7.590657217484521047e-01 -3.595629744294158159e-01 7.189036514702872027e-02 -1.070477433140925028e+00 -8.695303268256758811e-01 5.199485476121956662e-01 -6.554465646833734782e-02 7.704437992768690124e-01 -6.575749031959828850e-01 -4.378463216128670177e-01 3.393836193205529983e-01 1.296959077400334538e-02 -3.902102194786190303e-02 -8.361097577187931451e-01 -3.160031903098656225e-01 2.540130713565685525e-02 3.658625604160198330e-01 -6.594464628325910072e-01 -8.402696402413272203e-01 6.118181089033744025e-01 1.084191215302341416e-01 7.400280983041422900e-01 1.224973058721969960e-01 -1.446162856010348330e+00 -2.662792792639299133e-01 -1.216662528113684888e-01 5.404620668088550017e-01 -1.928267076847373085e-01 3.761961525162577785e-02 5.891852249734196301e-01 6.805955914989768318e-02 2.641694226879675034e-01 4.437305886039427660e-01 -1.063435544479339967e+00 -1.017708225974738312e+00 -1.515742720391554776e+00 -1.473937210889603999e-01 -9.967574751431966806e-01 -6.226063998665599675e-01 -8.619824449160380375e-01 1.299121797672989076e-01 -1.140956092512106945e+00 5.020275773654406803e-01 4.171946484956668977e-01 -4.967727247854670236e-01 -6.301893713672517272e-01 -1.230158997934985843e-01 -5.505672768609028989e-01 5.208730978183966354e-01 5.315754243701386050e-01 -3.804126000383312167e-01 -7.246922817989698284e-01 4.619814614419435195e-01 -9.855730308916432758e-01 1.588567338248657590e-01 -5.883809383296898510e-01 -9.219749849400598052e-01 9.298511071395084704e-01 -1.124565331410660729e+00 2.586047483559560933e-01 8.538119726205478655e-01 1.395024051128248788e+00 -5.952150486509935057e-01 -2.351000816657692893e-01 7.428452217872976160e-01 7.765137860475218590e-01 -2.298089293126123756e-01 -3.263552838779594789e-01 4.154870925728619824e-01 4.225152218791250469e-01 1.496017401548895565e-01 1.926958376413301088e-01 1.672248325505635291e+00 7.428273934391305122e-02 1.467535786420569144e+00 -3.850004975371179583e-01 1.649324635509588965e+00 -1.963821534800084534e-01 4.424683409797580125e-01 1.180314151853715465e+00 -1.137109105251007113e-01 6.344150167368116655e-01 -6.873112445462098430e-02 9.910946517650700560e-01 -4.182787612573375946e-01 -8.467703711971089620e-01 3.890010004681634381e-01 -5.311175688280339591e-01
-2.420684950583705530e-01 -1.914420534287696873e-01 -3.169473449182797498e-01 2.126606105920288703e-01 -3.230166468950274039e-01 -1.158003898991974090e+00 -5.008031352947067694e-01 -8.740371099540502620e-01 -4.462380317915582428e-01 -1.050258871021083840e+00 -1.084530077605854848e+00 -1.011650553542456255e+00 1.380291193350381196e+00 6.555457003610919431e-01 -8.934555198493011607e-01 1.307744012847257942e+00 -1.246379998021681201e+00 3.501111633546702406e-01 -3.740287626811270583e-01 3.435317982705048401e-01 1.151080201229456347e-02 7.065190496137756515e-01 -1.894818785176757281e+00 -1.096420914650818590e+00 5.763802244107172346e-01 -7.851861908177983906e-01 8.707272557932730361e-01 -1.188286159513135987e+00 1.144681547661996479e-01 -3.518869685492925781e-01 -1.585503522644684526e+00 2.294359424495909128e+00 8.981018358305190574e-01 7.535416941054335904e-01 5.557113929125374607e-01 3.519038412697777507e-01 2.593216738306533542e-02 3.318851527798448720e-01 -5.891867174643614646e-01 1.473474806830856965e+00 -1.223447305930651652e+00 -7.835449176901718715e-01 -4.571199858320559861e-01 -1.052096961593752322e+00 -9.421954840690627275e-01 2.577616552300317831e+00 6.961383811693603318e-01 -2.165185796663724460e+00 3.503725157854584715e-01 5.658894194843893111e-01 -1.269353618219292601e+00 9.383699309039308378e-01 4.657666455800421046e-01 -2.028889045904035182e+00 -5.328408288777555235e-01 -4.372442905517698875e-01 -1.738172587237659106e-01 -1.014560067686632427e+00 -2.275425285435411782e-01 1.660316972695631055e+00 5.080158653971932059e-02 -7.634251892772455639e-01 4.585531465080669444e-01 1.291315474404243879e+00 4.602357838656782607e-01 8.194104666659087766e-01 -1.010400281205509732e+00 -1.693889189635550407e-01 -6.522731525670440178e-02 1.539143236565252426e+00 -2.121994196111221864e+00 -1.644889925718986678e-01 -1.539958158341507843e-01 1.023520354949432720e+00 -1.348157554190939411e+00 -1.370254525118685951e-01 -4.607613826368490706e-01 7.414685847971325128e-01 -2.114688827002391580e+00 -6.118371055393218017e-01 -1.083870668547869620e+00 -2.448789722449965234e-01 -3.045769882001546081e-01 -9.757222281661995233e-03 -7.834478885782930613e-01 -1.438641538723197444e+00 -5.363104314143553042e-01 -4.666155717484003589e-03 -5.994558313900358870e-01 -8.344326703040219062e-01 -2.781933224014913053e-01 -1.206656136671142354e+00 2.628778147673328514e-01 1.064803459560348609e+00 4.492253899992881272e-01 -1.659736060085948151e-01 -5.521747348406044198e-01 4.687387577682361472e-02 1.410651921700487588e+00 -1.060156318210599968e+00
7.127661876283925002e-01 -1.159812093031205471e+00 -2.640081397245681583e-01 4.222120268822364686e-01 -2.713831950739653553e-01 8.590262051382488995e-01 7.289511592345737645e-02 2.276735286512402978e-01 -4.518337977010496442e-01 5.398953142015510132e-01 -1.577827660133960530e-01 -7.847355624817915765e-02 3.833245872914083918e-01 -5.880420350557173936e-01 2.228732296274513747e+00 -3.621175357609591750e-01 -7.311705769341249050e-01 7.591388848723865101e-02 2.388267446366959534e-01 1.109475088779657170e+00 -6.630824560952900404e-01 -1.192296550245213332e-01 3.871438428436629331e-01 5.675969223784987916e-01 -4.713337878775341466e-02 -1.425160750885859029e+00 -4.058561650725749925e-01 5.083600556904201845e-02 -1.444749967048070571e+00 -8.547929399292126806e-01 1.598407248425183669e+00 6.611075345423506056e-01 -1.462535452270325442e-01 -1.697317691271506668e+00 5.026274389363223349e-01 6.863874858709360094e-01 -6.250626100487854941e-01 6.819411409955365988e-01 -1.816737726774982686e+00 -8.363258188811748539e-01 -1.654550950431463163e-01 7.448587733576230718e-01 -1.302146938835740508e+00 -1.349663245144334667e+00 6.470501891397628658e-01 3.164645553540283429e-01 -1.254061065768330874e+00 -1.266984334156382896e+00 8.280729972065929978e-01 -1.444960294008313939e+00 5.705069975820307171e-01 1.008893328083273255e+00 -1.182426504514411558e+00 8.785010212378682737e-02 3.265087284033380000e-01 5.929317560809608256e-01 8.320365106742880767e-01 -1.584513314772469927e+00 -1.102311307288860620e+00 -7.144068318183884048e-02 7.634793198629369337e-01 6.039613432876069776e-01 6.299418331730206599e-01 -6.306517853237033622e-01 5.843588745484838975e-01 -9.971521107121934513e-01 -4.831699612661169985e-01 3.511372288005192299e-01 -2.211171996467615197e-01 1.192121077734885848e+00 1.687161397461175993e-01 -2.949444294175930237e-01 -8.418607568987717116e-01 1.728958304289523351e+00 1.489719053334956911e+00 2.955907292185434576e-01 -6.740986244309167263e-01 -5.271464672059956724e-01 -1.389200401249996997e+00 2.616965202480728836e-01 -4.974080226244935732e-01 1.284715423205057716e+00 -1.076315326005773176e+00 -3.492070691187688647e-01 -7.107787908871671112e-01 -4.949130945438807161e-01 7.202744134846912338e-01 1.925657066321424971e+00 1.671141207954954799e+00 1.243487447526441109e-01 -1.159009629443887857e+00 -6.039564453934865851e-01 -9.790181457458105863e-01 -1.728656801569697921e+00 -5.989318724919346915e-01 -9.032180898065300667e-01 6.476585675735681003e-01 -7.236676105505394085e-01 -6.243025871723441034e-01 -3.266636290027035705e-01
-1.651107148923214973e+00 -5.494964323671049922e-01 4.619005004759559330e-01 3.450954230112992516e-01 -1.862924184703020625e-01 4.718520043231855809e-01 3.639581806681443932e-01 3.250588171427561401e-01 1.011213539953490226e-01 1.320693856610887229e-01 -4.936230429824577381e-01 4.249658434119704120e-01 1.985484820160901887e+00 2.639374837412843816e-02 -2.162883072450672017e+00 4.320100928154092523e-01 -7.045814043282543349e-01 2.903444587794690723e-01 -1.462199915671413386e+00 -2.149423154538640190e+00 -1.069748334366436904e+00 -5.387615316320413239e-01 -8.450307853964124094e-01 4.295819627940214436e-01 3.808289577741401644e-01 -4.523003072978155070e-01 8.246663194556338450e-01 -1.649797981987323858e+00 5.548118580632818153e-01 3.338255964275761434e-01 8.150188775684606979e-01 1.426395925658895392e+00 9.372453302908869688e-01 4.518403222351191628e-01 -8.825866241315428740e-01 -5.239069018306713454e-01 4.115258828954894699e-01 6.367502113974681244e-01 -1.744377473747339424e+00 -4.017043918065241193e-01 3.892515290686863194e-01 -1.456050808014417663e+00 3.235659451476617932e-01 -1.343403592441723138e+00 -3.538285843816000864e-01 5.979007826895222921e-01 -1.373102080020434101e+00 -4.739417572270656076e-01 -1.588602122077715784e+00 -1.529757895160956060e+00 -1.086844610150955903e+00 1.067897087326777489e-01 -1.295448303707303905e-01 1.609644932302281228e+00 -2.343075212588123790e+00 7.530211423337997145e-02 7.526264816704926197e-01 7.080262086724324888e-01 -1.401189766195957698e-01 -1.141285723863476154e+00 3.990694027048140025e-01 -4.911650962568644627e-04 -1.249590824153920421e+00 -8.251051917620871867e-01 7.056774752313966781e-01 -6.454825138388082806e-01 -1.078290476562279832e+00 -8.335978993881273391e-01 8.121879630708690456e-01 1.173346720835331203e+00 6.541434883581644100e-02 4.331014390679243514e-02 3.375202552380199283e-01 1.504372671808908768e+00 -2.462790502698474215e-01 -4.873900396111219280e-01 -1.696247970676769690e-01 7.259955774720779909e-01 -4.850289729943751960e-01 -8.319956311538267719e-04 7.228631227525274261e-02 -2.697254937377432243e-02 5.290632659366638624e-01 6.987267777049482875e-01 -2.576439308081669433e-01 -8.157527322271281855e-01 -1.549213087828820390e+00 2.807934621755807658e-01 -6.448397787189874553e-01 -3.607232475360477864e-01 -1.661441738626639575e+00 -5.752174912678525986e-01 1.989924210317947362e-01 -2.678496323694921966e+00 6.185984183640146072e-02 -5.445105946628769900e-01 3.461338350933848562e-01 6.645582563558780631e-01 -2.137752679183334281e-02 -2.317493192286709525e-01
8.919360889616875232e-01 4.682688107124363119e-01 -9.856875419289414797e-01 -4.761440051722362066e-01 -6.660420777735315268e-01 6.718785114932954161e-02 -2.136970393233457999e-01 6.585552814296146513e-04 -7.362813868549026308e-01 5.445448701470768649e-01 -5.942134143625871917e-02 -8.366585735539890933e-01 -8.582266570884912460e-02 -1.519878118922978194e-01 1.040206443604331010e+00 -2.944529155817132149e-01 3.195629983302352567e-02 -4.311527039582274679e-01 -1.101708117801316167e+00 -3.944916060490088333e-02 -5.494784832395629981e-02 -6.601964457343822978e-01 -8.781430731275954304e-01 9.349243443008538046e-01 8.341655162157615155e-01 -1.125636712692097280e-01 5.296975885632161374e-01 2.106889498359272583e-01 -1.247751962649974233e+00 -8.443258462245060159e-01 6.480762288174676256e-01 -3.130022328736492554e-01 -6.092761981275196526e-01 -1.087111910006999249e+00 2.499074759733099782e-01 4.539707282149170742e-01 -8.385469254668255490e-02 -1.601624893836112173e+00 6.993670555847727455e-01 7.627211550167083409e-01 -8.722995857930307961e-01 3.948140249766863424e-02 -2.440881969160015597e-01 9.149115962256776369e-02 -1.217873151775427688e-02 6.357900244145481272e-01 1.329784606077651643e-01 4.210373569816904249e-01 -1.807517379828437187e-01 -1.219862507848677780e+00 -6.793790714213702175e-01 -2.924543335352413620e-01 -6.922901243828636364e-01 -4.156534178580846839e-01 7.166972054748683707e-01 -5.721888341066324601e-01 1.022700851028275348e+00 5.393667091363428812e-01 1.948432992056847723e-01 -6.191985128147792228e-02 4.245296850746184680e-01 -6.514094904278422415e-01 -1.186216065885512261e-01 1.821597819482673186e-01 5.990423778454186943e-01 -8.991287118571471559e-01 -8.300668075251624867e-01 -1.311947586125302712e+00 2.284396029032462194e-02 -4.140533410798999392e-01 -5.205047202182696564e-01 5.085376365672277243e-01 6.397968089716048468e-01 -3.210526950669314455e-02 6.202463399889190931e-02 -7.696585538236276891e-01 5.787686833055357694e-01 -3.137386867685866276e-01 -8.470816053415415325e-01 -7.709893207211947208e-02 4.143259637182958310e-01 1.593325733059730021e-01 -4.278080608130559875e-02 -6.139167582285014468e-01 1.260502436677569227e+00 -4.564183055421219826e-02 2.769202829672930966e-01 -1.608634042582016921e+00 1.242110550412851344e+00 -2.082184166421436888e-01 -2.969341375486469342e-02 9.197979385802670382e-01 1.094239047154409589e-01 -1.196118362650155476e+00 -1.333682760155654901e+00 -5.350491070801186577e-01 -6.842284710034796102e-01 7.943356360650464243e-01 8.469245852325801849e-01 2.991614814919862919e-01
3.064357632774641904e-01 -3.489278433480610397e-01 5.594974762684952196e-01 -2.276316258062823644e-02 1.911134138139062022e-01 1.154206004152698473e+00 -8.184135460610394430e-01 9.018646432785815126e-01 -1.058468123157521257e+00 2.384492654655245569e-01 -1.323328093577097242e+00 -5.406114046768072390e-01 -1.557739813908659565e+00 -1.702628164734066640e+00 8.713245904829381994e-01 6.601122432608609314e-01 4.804274462315651362e-01 -5.709590885026391005e-01 -4.200749542111850143e-01 -7.863812755266319510e-01 2.535298178510102529e-01 -1.019334372271827327e+00 -3.007760778252306366e-01 7.617145603922861885e-03 -1.111177519066670616e-01 -9.743971405089014715e-01 5.390084661950322875e-02 2.085795430868646161e+00 2.923329133168462990e-01 6.339314896169376823e-01 -8.833869463447672210e-01 6.026271217250371848e-01 -1.567143914435652707e+00 -1.619989117590150129e-01 -5.203442089791391334e-01 -1.213823611351377174e+00 1.614935882662272393e+00 1.185181608790891516e+00 -6.730925142486648971e-01 -1.833927858705818315e-01 -7.823419939457381123e-01 -2.623721339726302060e-01 -8.128263989565777115e-01 -4.611289555559143771e-01 -2.975296521645429237e+00 -1.281019019784360724e-01 5.322110034094046371e-01 3.023440598446304195e-01 1.217353654119331718e+00 9.409618672539117323e-01 4.488279205316393905e-01 -9.951179185533404192e-01 -4.133744511686567313e-01 2.945576907235076258e-01 -9.422161284712754492e-01 -8.528293795635586427e-01 1.085530414182623582e-01 1.119547903867043059e+00 -1.646866589926113955e-01 1.412396743130958310e+00 4.134373914696365393e-02 2.252667158308553630e-01 -1.116563358347354651e+00 2.784730570575789099e-01 3.709712564811616931e-01 4.715015241559410430e-01 -1.420986559091965973e-01 -6.245611554324318609e-02 -1.218819656763521220e+00 -1.031231558942545590e+00 6.235839142137077247e-03 8.082857137358591126e-01 6.449960364456118755e-01 -1.540534117704209338e+00 -2.288167068205463617e-01 -6.154446308375947083e-01 -6.139090873862731446e-01 -5.288801968509769802e-01 -1.257358680129486483e+00 4.689556853061820907e-01 6.447209079847945334e-01 -5.239083452890812564e-01 6.031888159498676183e-01 6.061541962133404349e-01 -1.440415400371737320e+00 1.110289854621842487e+00 -1.439788490536461962e+00 1.492613924233075151e+00 -6.083696671972425030e-01 -9.426757844161816058e-01 8.521089428743027216e-01 -1.118529429714151702e+00 9.452031840596325507e-01 -7.549531053962408311e-01 -1.353763774857415225e-01 2.304811623859278347e-01 -9.326952477913328377e-01 -1.844457887714275879e+00 7.452094054527148570e-01 9.594829018361840101e-01
9.971183952063852329e-01 -7.574903501966654407e-01 6.595105848942872662e-02 -5.532540416395423932e-01 3.052290298013107112e-02 -2.996962271974876302e+00 6.504564796245659863e-01 4.705836505734667385e-01 2.031458610777105156e-01 -3.581582388576311504e-01 4.039032671517785444e-01 5.552016361526005556e-02 -2.336813396335302717e-01 7.750941948089730138e-01 -3.509760168083611465e+00 -9.451435568533441689e-01 -1.007951052652370061e+00 -2.847345732332526858e-01 1.118861906323833866e+00 -2.280702310880402539e-01 7.702851371382463119e-01 1.607926361513164482e+00 -5.813715711993414637e-01 -3.301262652779994311e-01 -3.179285394818300303e-01 5.943332411561704776e-01 5.451187915055093480e-01 9.607964791077785449e-01 2.579455218383417403e-01 4.841731415253123783e-01 4.327002524865048438e-01 1.163799861281419545e+00 -6.212001069757009386e-01 -1.180205247911424227e+00 1.911279919550019218e-02 -7.578652628816611170e-01 6.839148231948727341e-01 2.014051884009681326e-01 -1.391419283258203077e+00 -5.114650875178790024e-01 -7.660195745826827718e-01 -5.038411077560311924e-01 -1.236880979598993680e+00 -7.018859311119994837e-01 2.471772459410893630e-01 -1.265754771154634195e+00 -7.706628278680115185e-02 3.982519267648430006e-01 -1.095957746395944454e+00 4.812531228567114572e-01 5.337177277590421376e-01 4.904768529321683057e-01 -2.640573139228619137e+00 1.070812143009699069e+00 2.152242091020978021e-01 -8.700273795704639712e-02 1.030821729792940511e+00 -2.163580300630276732e+00 3.083824382222282168e-01 -5.787227214495835881e-01 -1.173475087125245730e+00 -2.053027676106212451e-01 2.346588495775342176e-01 -1.452370109515927377e+00 6.086069358856367462e-01 -1.889711437896208324e+00 -8.437153071327986309e-01 -2.075806496896015929e+00 1.648445639091323817e-03 8.086721244966466049e-01 -4.390396719677348847e-02 -2.166952224392047488e-01 -2.908845226576758924e-02 -5.051273450604397697e-01 2.300666520040098639e+00 9.933814222663898130e-01 7.522380323437829475e-01 2.792210080490087690e-02 -3.500562383177140968e-01 2.041197189330209216e+00 3.623133851713102732e-02 -1.486793386590341999e-02 -7.604374482511606637e-01 8.447718401221580020e-01 -1.155815546454487114e-01 -1.012209877470443997e+00 2.634622790512377022e-01 -2.043285623147592656e-01 5.270251246030754899e-01 -2.535227104572797610e-02 1.662186357568245787e-01 3.796903385567726996e-01 3.735018876331148152e-01 6.183477041515066386e-01 8.849611026466296382e-01 -8.655738743382679345e-01 3.062424334827001382e-01 5.711194314050563881e-01 -4.151887626346166815e-01 -2.119481244422884714e-01
-1.677797056388934838e+00 3.198942183810336015e-01 -1.325702465797362894e-01 -2.800970760207933119e-01 5.277596253053450787e-02 -1.482399921496188044e+00 -6.404539090402656676e-01 -1.114842186996939932e-01 3.988929260371981700e-01 2.329793763178641397e-01 -1.203669582137631311e+00 3.941287980004864466e-01 -1.354098160559512598e+00 -9.336040718411482420e-01 -1.252720788422867493e+00 -8.667048069320079096e-01 -5.502848763990797476e-01 -1.278061797399324906e+00 2.496442840186467449e-01 -6.975288193775991408e-01 -7.317844730356564131e-01 -3.876841219821145490e-01 -1.173754569497135192e+00 1.396934058887457954e-02 2.696654611263748502e-01 -4.768100043779661124e-01 -7.853976643407835079e-01 5.340451640339498596e-01 3.489726815908130719e-01 -2.932630598704381031e-01 -1.881071737632467711e+00 2.549857971806292548e-02 -9.602495721765907932e-01 2.649449587834008524e-01 -6.203729815639621448e-01 -1.032859442114647391e-01 8.465280949888338846e-02 -8.540203286642773506e-01 -2.683053197349832275e-01 4.651382521163021089e-01 6.096192639340404229e-01 -7.494781826935670299e-01 -5.127009320292776895e-01 5.278786191162964103e-01 1.127293117744784690e+00 -8.580161394930911900e-01 7.234820667072380251e-01 3.732528077263160271e-01 -5.956067339592034937e-01 1.036843023353269500e+00 9.969631224257425872e-01 3.695525864960174656e-01 -2.116109747149731213e+00 1.377495802918432322e+00 3.064520242071960276e-01 -6.784082557940925851e-01 4.536055583584671091e-01 -1.571753660576742373e+00 7.615278584231902625e-01 -7.338835606126724587e-01 7.321446382497065475e-01 -7.628393077120605714e-02 1.065627997597464738e+00 -2.858930627872501518e+00 6.577905383358010338e-01 6.959752400177002807e-01 1.036097339269999654e-02 2.209139590355317484e+00 -2.384555528266955604e-01 2.470093392531399756e-01 -2.366765215105583187e-01 -1.115873944128886602e-01 -6.642846122447864099e-01 8.049687660921354126e-01 -1.306734283496508997e+00 -2.688403070162140862e-01 -4.090751393336393704e-01 -1.896124004930540285e-01 -1.766303257683460748e+00 1.077512586709576281e+00 1.379261970224415768e+00 -1.025319365010880501e+00 1.650031482855450538e+00 5.355578031740395595e-01 -1.166649775287476931e+00 1.501208296840167156e-01 -2.521725301116957696e-01 -1.300575988937888727e+00 5.841140349734077475e-01 7.621280475725257519e-02 3.662527182615513688e-01 -2.919067771681880044e-02 1.799590097232662278e-01 1.484399306530663987e+00 -2.745751665026171517e-01 5.689818064962585131e-01 -1.192305199538007399e+00 9.297313975824306187e-01 -5.912177935925829741e-01 -1.660568082219052943e+00
7.114910556564124633e-01 3.803713785955720184e-01 1.009669366129746448e+00 1.401169101458660526e-01 -4.561758278354919871e-01 -1.750299089222846272e+00 -5.102660036603834381e-01 5.833859682247882761e-01 -1.077649866833315428e+00 6.320546904603066007e-01 -8.679632647791382105e-01 -8.991375046383740521e-01 -6.760587705980495299e-01 -7.833154533174281620e-02 -8.437041326888271575e-01 3.924876508925295021e-02 -4.806665023267563397e-01 2.212294217328202528e+00 -1.651600495110847888e-01 -1.088066819022231596e-01 -1.768849115440066511e+00 -7.787451853122310252e-01 -7.548928986822713849e-01 4.625148922943478902e-01 3.975449323680088631e-01 -3.004806837542361442e-01 -1.019952724196635074e+00 -9.415849201391380818e-01 8.011744938507231462e-02 -1.282301649383879916e+00 1.980052806018002709e+00 -1.428953050154924131e+00 -7.215804739968298409e-02 -8.089710049999271346e-01 7.405173751451123998e-01 1.190234235918536942e+00 2.148716487066807679e-01 1.619050114505797167e+00 -1.245973899922964812e+00 3.875925216499305215e-01 -1.443254865474478565e+00 -6.366226495080148373e-01 -8.320021506807343536e-01 -1.324132878890655007e+00 1.650657012913806301e-02 -1.783358143800746642e+00 -1.570755155365168187e+00 -1.541427431327149433e+00 1.609235415389078216e+00 -1.330813525325033053e+00 -6.425967778601877622e-01 7.178012456963477339e-01 2.232449764979382856e+00 1.368879954102613761e+00 -1.506168643662544104e+00 3.231316522560198634e-01 3.495989082498290879e-01 3.141915254823162695e-01 -4.187697623706490568e-01 1.028059941080819550e+00 -6.250329387428338324e-01 5.868326456572966476e-01 -4.738643944181054612e-01 -1.286208402448253407e+00 -1.441879818000457170e-01 1.458847025422864707e-01 -1.556862673833429467e+00 1.169621971390890636e+00 -1.764579100399807088e-01 5.604977853665251697e-01 -6.815475778114815641e-01 -1.621410666118795474e-01 -7.919806448371535801e-01 -2.961867145831721393e-01 -3.374414362780298049e-01 -1.041573804982958817e+00 -4.298301333005207781e-01 -7.574774444632867976e-01 -2.392636884731222033e-02 1.129296509063696385e+00 1.856640637436945615e-02 1.803364768639756699e+00 -9.421994150809635815e-02 -3.062253835659486390e-01 4.673385664461610078e-01 -2.160016560648759520e-01 7.093961633059149285e-01 3.611236924634768086e-01 1.802635031212634908e-01 -8.871298977714797696e-01 8.610812046194866731e-01 1.290026518587336357e-01 1.489891481342097146e-01 6.429679602479618783e-01 -4.012920252446432468e-01 -7.470031493837225867e-01 7.005511325562963076e-01 7.258609090366474614e-01 -1.907914512307148147e+00 3.644677349648314246e-01
2.587551199189977447e-01 6.745433071930975188e-01 -3.755513515601851537e-01 8.927017572787968591e-01 -5.741724557005986052e-01 8.804297646940785205e-01 6.774362488508459679e-01 5.732566171076397543e-01 5.145569989254867860e-01 -7.156245549175118681e-01 -1.556671211193397519e-01 -1.464535314426659938e-03 -1.177024394398489937e+00 1.047017264043767382e+00 -6.603771494239393247e-01 9.597787013606798867e-01 -3.646670126286997715e-01 1.135966879298016874e+00 8.049282047970409693e-01 -6.143234913335655634e-01 -1.680795366063162044e+00 5.094973528710543542e-01 -1.198752770318888966e-01 -1.029473519509382928e-01 -9.194643587136505092e-01 -2.871974831116219096e-01 3.404137365113968361e-01 -4.714952273657312953e-01 -1.080758461414744964e+00 -8.425821900069296877e-01 5.767481213921400451e-01 -2.768003232813229797e+00 -7.698107012404978855e-01 -4.564495084328869523e-01 8.675722794344720157e-01 4.685427832023639910e-02 -8.885163497705197977e-02 -1.505992793696972198e-01 -1.805208953760663315e-02 -4.405869664243846073e-01 -1.081952874186270286e+00 -1.973506061459892269e+00 -2.223409796766003255e-01 6.574504445408556608e-01 1.063119915333234911e+00 1.012830902608130357e+00 -1.144504555926083356e+00 1.727024425460039536e+00 -1.692900186571333343e+00 -5.946347698606637699e-01 3.592850704245163507e-01 -6.167507324101989541e-01 2.486032724326175725e+00 5.929177367862209502e-01 4.585726093744514342e-01 6.953266749342539299e-01 9.918696003300981889e-01 1.597488274895220162e+00 5.995374639338736378e-01 -6.533954196436000394e-01 -1.329357441117799299e+00 -6.354431322329828769e-01 -1.004217582845011059e+00 -1.101031648935506313e+00 -6.002936488367881518e-01 -1.185192476830334574e+00 -7.233007437699233710e-01 -1.802464065642741087e+00 -8.842690995684063249e-02 -1.016423683140079248e+00 -5.776366266140989802e-01 -1.000212355149749488e+00 9.335787295772574046e-01 1.599816302110469157e-01 -1.207686363948085262e+00 3.905644852410665724e-01 -5.833214926575071013e-01 7.609024097160377309e-01 -1.398914154376476038e+00 6.792759501430376545e-01 4.689257336382245955e-01 -2.154433524078491313e+00 -5.075284225229564905e-01 -2.182273996973003172e-01 -1.880738789810947109e+00 1.793402906402067343e-01 -3.261488786124676076e-01 -8.593304822465801518e-01 -2.940337145737121835e-02 -2.449229917682841151e+00 -1.179652610527250678e+00 8.878352142962009363e-01 -8.365789916471323695e-02 -1.073450823370477147e+00 -2.822814067388759174e-01 9.625967147581316885e-01 -1.790734937412532743e-02 4.813856093699591110e-01 7.543913160062537537e-01 1.338338604231897211e+00
1.657152743269212358e+00 1.499250716403045525e-01 7.781447734030604302e-01 -7.572490829153698533e-01 6.757356912018390727e-01 1.636665852636465912e+00 -7.637953416785921990e-01 -5.916873024468916054e-01 -7.885234204238052991e-01 -1.317606351365688822e+00 2.803218385659753675e-01 -1.219475155319752036e+00 -6.680269680416157652e-01 -3.463346119330133477e-01 -1.439424152488557040e-01 3.114521846684779605e-01 -6.557276341095855110e-02 -1.075826773579119600e+00 1.335606702457286799e-01 -6.684821867267775053e-01 2.521613872240477047e-02 -8.052379880282192204e-01 4.236844008432407160e-01 5.230705301842684118e-01 6.654368620518061883e-01 -1.056298114965673329e-01 -4.335192711545484134e-01 2.418234309337002064e-01 -6.868561236004286884e-03 4.148056825388199420e-02 -2.824573634524762511e+00 -1.217075087975536318e+00 -8.989497028897610598e-01 -8.665851507826175526e-01 5.507516742630621381e-02 3.759374077501423939e-01 -6.950473984138434702e-02 2.296399803682210583e-01 1.356422675848072690e-01 -1.089454365492256854e-01 7.425939906179573891e-01 -3.498466409457737236e-03 3.949901309280112183e-01 5.587269334569391344e-01 -1.973862114684080682e+00 1.693711082711915061e+00 -1.269441974244831295e+00 -1.022069576794010226e+00 -5.984251741576259720e-01 -5.467672398586426695e-03 -5.420513233453099211e-01 6.048137150507734150e-01 2.479234854395351739e+00 -7.392441144082335658e-01 6.976985362989805983e-01 -1.442049197946097816e-01 7.227823689514288885e-01 -1.477134715860013436e+00 6.984351412952553850e-02 -1.192822144888793234e+00 7.389668004173114424e-01 -8.306556541713111530e-01 -4.022489357511462860e-01 4.865508314564418457e-01 5.154453172990944854e-01 -2.865464850021333665e-01 1.119041864747204532e-02 7.283100993108124754e-01 -1.105084336657072397e+00 1.498206672560191910e+00 -1.260757794191832870e+00 -9.709689626648874139e-01 -6.324919829202857446e-01 -1.218288985047424777e+00 -2.773177263251082048e-01 5.348294901254332379e-01 1.492397093158787935e-01 -4.101154285687138024e-01 -5.805376382469388252e-01 2.978546422127805599e-02 6.724983695005096740e-01 -4.269658692461661409e-01 -7.470195781900956788e-01 1.982466148797646932e-01 -4.469891049663191618e-01 -2.968969544272736516e-01 -6.057157375094176510e-01 -1.097465991424440679e+00 -7.001370550800759540e-01 -7.254875262065065833e-01 -6.669301635665175754e-01 2.133121165458350399e-01 4.958036850961671654e-02 2.162774434568057291e+00 -9.331480518250727663e-01 4.507515974025567695e-01 -4.009760322010592071e-01 7.575483231157973396e-01 -5.443221825382230650e-01 -8.800972055008208228e-01
-3.914889087533839768e-02 1.392095194180233086e+00 -5.783516867013267504e-01 -2.287884733573841978e-01 -9.533102394426753445e-01 6.472133520133876994e-01 -6.435144396068969153e-01 4.429169947424050346e-01 -6.729701581973453195e-03 -5.371501374844845911e-01 -1.710036680993594738e+00 1.347701996846004391e-01 -3.332723827850558873e-01 3.448497413273240442e-01 1.973749660454270916e-01 -1.307107712391477050e-01 -1.103956482220490365e+00 3.091997403463314642e-01 -2.658690935068193095e-01 -2.010387204908141712e+00 2.538974679057037331e+00 7.606965017383504613e-01 -9.386764323519790620e-01 2.798551469402194569e-01 3.817711704865446309e-01 -2.893146206980722890e-01 7.446010298522914850e-01 2.814277987201016518e-02 -1.439356290920023040e+00 2.287007748770996940e-01 5.183754463604202112e-01 -4.778278043317027435e-01 -3.003477963743096946e-01 -6.533306199932936709e-01 9.960998360178587863e-01 -1.047698674613664505e+00 -9.995736365174929805e-01 9.196409724966574384e-01 1.642622868720766904e+00 -1.299027803568166384e+00 1.095777366507586781e-01 -1.827132953228663759e+00 2.281132802600658316e-01 -9.821883769708026346e-01 2.128545678045131728e-01 -2.686987814891367843e-01 2.161536251482351900e-01 -1.299930260296541795e-01 1.104208303899019278e-01 -3.876178940263337314e-01 1.076783423630935932e+00 -5.577265695166197523e-02 1.263232679110570245e-01 1.216882808581077446e+00 6.723431626572233533e-02 2.348481731888178436e-01 7.686567139198837717e-01 -1.230700055293577344e-01 7.520866820304412670e-01 -1.051653994753094956e+00 -9.941902845982513170e-01 2.473694219524323057e-01 -1.163173349070448559e+00 6.329544400063168430e-01 1.828303510178061753e-01 -5.524517837276957666e-01 -1.256089436080843058e-01 2.564885141807057289e-01 1.113835576867710370e-01 -7.130908338169669181e-01 -6.959965567144332788e-01 2.371804486615961272e-01 7.050812926140246351e-01 1.276134972602736894e+00 7.114447914170435316e-01 -6.430754884597768006e-01 -3.823199835581924666e-01 -8.351722632951518177e-01 -2.609410883234773021e-03 2.478597221844902887e-01 5.272059843961993675e-01 8.357916867590269305e-01 -4.082930075139556969e-02 7.270817953463583061e-01 8.329272982187868601e-01 -1.442181254255781031e-01 -1.109347291511397771e+00 1.285229321232352007e+00 -1.800404190515616731e+00 3.347311260057604931e-01 -8.111925175233917207e-01 4.229012849045588052e-01 -8.273947745011990262e-01 3.294326827705065242e-01 2.807269613600545458e-02 -5.566380072042764748e-01 -1.560633223180385998e-01 -9.601171235265816284e-01 1.616874587422385323e+00 -1.745468179448612212e+00
-2.409494394211321722e-01 -1.492298854429175980e+00 -1.440164309836655887e+00 3.337182060488447788e-01 2.997455976789695220e-02 6.500929411644085221e-01 -1.273522610882117101e-01 2.021608564222657223e-01 4.378590347920586767e-01 3.388593409134423862e-01 1.077123441694162853e+00 -6.837996220911231327e-02 -2.819934460245553942e-01 1.093935251294674060e+00 1.565726164040068813e+00 -1.977506458820636581e+00 5.451035716513122908e-01 -9.102962083528817194e-01 7.659989165847151948e-01 7.804808228887114008e-02 4.805229714682227732e-03 6.513093246461758301e-02 -6.152363422396494030e-01 -4.097475322306231016e-01 8.479434163167602900e-01 -3.492189629142137403e-02 9.114814365121639561e-01 -1.969683117804259309e+00 3.359612684441143915e-01 -1.096848678514700914e+00 -4.954736167443807848e-01 -1.289723233711204786e+00 1.378880841576084482e+00 1.244643197554700764e+00 7.431591336213210219e-01 -1.320211941682561951e+00 -5.166879200466305555e-01 1.051212709366983633e+00 -5.321080237995073903e-01 -6.341610295680640830e-01 -5.504827962058697066e-01 -4.132512361297698833e-01 -1.451581292438322679e+00 4.355708643903523636e-01 2.066307920409238830e-01 -2.541829228737569890e-01 -1.407174648208006307e+00 1.743574939211756991e+00 -7.010499868771499221e-01 -1.442547702998101533e+00 1.666220801573414442e-02 -1.470620275355957185e+00 4.102251968496835044e-01 3.478529011783324520e-01 1.211877298318107643e+00 -6.373976759399597736e-01 1.210897450189712510e+00 -6.541110485709643596e-01 -9.117612477346645483e-03 1.391978857736345665e+00 -6.656020904870434407e-01 4.601339411141902036e-01 -9.426709743907756289e-01 -1.472837704910188394e+00 -8.223728565164660775e-01 -9.741254185682299838e-01 -5.498872514353150831e-02 -1.138901585192696020e+00 1.734487764840959845e-01 1.297568482124055178e+00 -2.137898833558194767e+00 1.864909006068781461e-01 -6.860702381100959313e-01 8.859227118484827579e-02 1.646006173322154709e+00 8.532241677089744680e-01 6.720211096087738145e-01 7.496135530238600131e-01 3.310880430538652441e-01 1.203251027784234095e+00 4.357815009634700698e-01 -1.054823919513439012e+00 -2.621295882499015684e-01 -2.250075675763872907e-01 -3.141765178190046859e-01 -5.113122387169377614e-01 1.966474075049392534e+00 9.990468162174169775e-01 -7.574696749646799843e-01 -4.092190853374473858e-01 2.510532184780064346e-01 3.670880630265080935e-01 -7.783106323742324806e-01 -2.237879905178531192e+00 9.058807881126640371e-01 6.934552566588544353e-01 -2.659434762217858794e-01 -1.649096057538421478e+00 -1.096903943296077127e-01 3.330571459573424264e-01
7.677125131907214239e-01 -1.183602728700681839e+00 -8.602032672789018397e-01 -8.056200096871930505e-01 4.485510696185187607e-01 -2.181179318500782838e+00 -5.615796179973748803e-01 -5.392433731953029108e-01 -9.536772232445792641e-01 -8.553646569479641526e-01 -3.016743019027275374e-01 -2.945829824553853893e-01 -1.000132181184632874e+00 1.448020937620018433e-01 -3.044640844504790111e-01 -3.090044819982220026e-01 2.166966134583262760e-01 -1.986224172132323162e-01 7.137105743125938817e-01 3.778247801302245801e-01 -3.548431278251136245e-01 6.018298470085468033e-01 -2.201404623449106090e-01 -1.597245422865970210e-01 -9.482672265975669035e-01 6.550004104658854742e-02 -7.100639321987203822e-02 -1.470635416511007598e+00 -5.548061893469077854e-02 5.116517335481927109e-01 1.473016511985280497e+00 6.581709836364848520e-01 -1.116957250412325520e+00 -1.130354465369748151e+00 4.982938871966401395e-01 8.672051682389779748e-01 -5.006070746715005765e-02 1.140529958386039822e-01 1.699196659094226236e+00 -5.805703650026968754e-01 -6.230190999160273302e-01 -1.229183209948704780e+00 -1.153649887325245427e+00 -7.516054002750365282e-01 -6.738973280670407240e-01 -1.819664887317507418e+00 -5.248617618584659056e-02 3.464505687844166015e-02 -1.116065620839081785e+00 3.269206159335052986e-02 -4.229404890355091817e-01 3.667568951386963039e-01 2.246236250757527753e+00 2.767085035002490520e-02 2.478819977365958493e+00 -4.250823952857635812e-01 -1.570410856686616841e+00 5.882619636387548256e-01 -8.897050193663914586e-01 4.091613674877528362e-01 1.034160969595039198e-01 2.124241919039994153e-01 -9.307228343142519567e-01 9.881832296934345283e-01 -4.750085383279096796e-01 -1.153625222520322291e+00 -6.176523558337819741e-01 -9.391318785708759886e-01 -1.032111476741292000e+00 -2.958086039121240685e+00 -1.101686494244079828e+00 2.327973697452004886e-01 -4.826299611596375216e-01 -4.596541057467097846e-01 -3.233331136839101005e-01 -7.910985600808480012e-01 -1.369281062893934198e-01 -3.333999310691211360e-01 -4.119135189775161576e-01 1.612220625724575696e+00 6.759272023358238457e-02 5.094281422966649986e-01 1.035861084358774553e-01 -6.133062445441437305e-01 -9.215843974847112707e-02 -4.709948611227547655e-02 1.413414957501712976e+00 -8.093452598875071624e-01 8.164782646604507033e-01 2.800118306295455994e+00 -1.044293520706510048e+00 -2.983668729981794332e-01 5.268469510185189719e-01 7.934809947556881182e-01 -6.219905800277792940e-01 -5.468738098537805348e-01 -2.242783780553060935e-01 1.486425144893512629e+00 -4.577699086458160704e-01 -5.156564273166837076e-01
-1.668204798729343352e+00 1.391394356542267619e-01 -3.364295832712263512e-01 -7.258770291260292495e-01 5.378108914161056076e-01 3.230486097566496739e-01 -5.222509752914126224e-01 5.981289158603060319e-01 -1.305717958123582711e+00 -1.201123656700771924e+00 -1.155662601954488000e+00 -1.754005767961651641e-01 1.369483598773129085e+00 4.369095130749006684e-01 -4.749607176274070475e-01 -8.261750611229286001e-01 5.254498339392253969e-01 6.630876528437202877e-01 -6.967386812230643711e-01 6.016356605490443821e-01 6.473031343183358599e-01 4.816008861338663682e-01 9.421330313322944239e-01 8.207211514968115740e-01 -5.523400114344138023e-01 2.430915376344547352e-01 7.770242991633309615e-02 -1.727983484252693103e+00 9.621668116016568462e-02 1.598880142632783663e-01 1.264525345122302080e-01 7.108525175444682098e-01 7.398615912280091800e-02 1.359295669794206241e+00 2.250526185985171068e-01 -2.768617350694217438e-01 -4.432378418188010483e-01 -1.415024400548680950e+00 -2.177183655349527402e+00 -1.009063663293216173e+00 -6.641225220717463795e-01 1.499015445479516151e+00 -4.082120749773053281e-01 2.921340347088280387e-02 -7.901963452839885216e-01 -2.100884470720436159e+00 -1.546556762097968662e-01 9.872729137825819734e-01 -7.006159144906757286e-01 -1.897318318643249346e-01 -1.116045103108600223e-01 -1.112272965730199070e+00 1.327205365745327992e+00 1.209841945021678633e+00 4.637372456277893407e-01 -1.302371428264790465e+00 -2.760920416914653952e-01 1.428984523479939428e+00 3.804554863504392981e-01 -1.005285010463573991e+00 -8.472877149102213679e-01 -3.153559364679715538e-01 -1.129737117494589604e+00 4.562795672627844579e-01 -2.438137925124680624e-02 -1.336390020783232990e-01 5.507271001832725332e-01 -2.723847353806808647e-01 -9.937226479371117360e-01 6.304242794142342898e-01 -5.112585548328066887e-01 -2.123834580441707753e-01 -7.404675071338143733e-01 -2.336767629678382807e+00 1.206456994472983490e+00 -1.313237490221744741e+00 -3.845616049859678087e-01 -8.935922917517247210e-01 -1.471470969853645450e+00 -1.463054305988862103e+00 7.825525684591365660e-01 1.856242315503439655e-01 -4.533743562500432422e-01 -4.850344039945730379e-01 -1.660834818958997205e+00 -2.058046978648049030e-01 1.115980181004839089e+00 -9.934144614656092998e-01 4.828388674849536932e-01 -1.289949390952856989e+00 -3.481583060309918487e-01 1.631520695540879196e+00 -6.426865608410359254e-01 3.925126654258284109e-01 7.539104404150178684e-01 -6.930818108143314005e-01 -6.068012536252522793e-01 -8.647292534795486540e-01 -2.357496580066450242e+00 1.438440007319742864e-01
