-2.576489056825863599e-01 7.848415260796384185e-01 -3.368747905829145850e-01 5.432698047234629790e-02 7.976080475544526927e-01 7.946841735815042274e-01 9.997230557968177500e-01 -8.323386736150397702e-01 -8.812876271276581797e-02 -3.383470261633541032e-01 -7.409715976305437657e-01 1.300486070329789356e-01 -5.516965878007911162e-01 -1.193572817165563515e-01 -4.298372724944174439e-01 8.880842898090526294e-01 -6.704443562363527898e-01 -1.878150464372015660e-01 -4.673061757605926902e-01 -4.475746544083464284e-01 -2.907577014960481820e-01 -3.839218774971939752e-01 -5.621693284471918073e-01 -8.209159595389277086e-01 -6.796324524133880995e-01 3.043142676195784713e-01 8.061140276767344570e-01 -2.651113677895589049e-01 6.891816223374855888e-01 9.050287491297523412e-02 -7.704241630515130668e-01 7.847671915380635133e-01 4.103021481458588027e-01 6.553714922074680427e-01 -6.435913981509281401e-01 6.563235913265208499e-01 -4.466434682568437564e-01 -8.286829716978239002e-01 -4.726524708416922071e-01 -4.782983158203774066e-01 -1.626187130634976219e-01 -4.522190215551567527e-01 9.527714318406971250e-01 -1.008503803279216182e+00 -8.608237610660013361e-01 -5.724598698466406427e-02 -5.514034086290571235e-01 4.704082535129365528e-02 -6.507857401831536048e-01 8.533027645423179042e-01 9.757922405471264327e-01 -7.003458729671842020e-01 5.833617724220158118e-01 -9.970674516115889396e-01 -6.356865195877130503e-01 8.415635321798247137e-01 8.274113095337358725e-01 1.379364948746995556e-01 5.797600934941192774e-01 1.822439214100303115e-02 7.047499243028478855e-01 -5.924333512021080494e-01 -8.011947966829991996e-01 -6.968716574643412098e-01 1.276644044026910840e-01 3.706412921189035092e-01 -4.178851783830222488e-01 2.289468475170715681e-02 2.923086537203925528e-01 -6.069835097612119590e-01 6.738484639941868526e-01 5.927882452196109320e-01 -4.869035215571856923e-01 -8.092510941756309029e-01 7.164613923206325508e-01 4.209468311036225763e-01 4.752107733735904116e-01 2.197435543875618791e-01 9.902297683390284821e-02 -7.556676657697123378e-01 -6.917444317372539730e-01 -7.695591249132233136e-01 1.218759939100930723e-01 6.600592721977134314e-01 2.787958758866562192e-01 9.856190549976409088e-01 3.306786003220118508e-01 -2.980340615819844219e-01 -8.919983939267869255e-01 1.625253710481942560e-01 -6.091335600154202529e-02 5.870798439164149896e-01 2.747478867869236896e-01 3.505770440638781293e-01 7.915982290874907790e-01 -8.262317016870128761e-01 2.745370763503561795e-01 1.224775962873655838e-01 -3.053364872325223245e-01 2.865940953808974179e-01 4.451899260988086415e-01 -3.487849352454582830e-01 6.674464369695306543e-01 4.501875001905273482e-02 -3.720098282063536987e-01 -5.085691132148983939e-01 4.691381530183494908e-01 -3.815830323256039214e-01 -4.426676332253287049e-01 -4.477541608578192722e-01 3.102746863280972933e-01 6.870564151024920185e-02 -7.815061862597523223e-01 6.724316415734421515e-01 -1.459813314474686374e-01 -5.660435973082984518e-01 6.055051187188015271e-01 -9.675962927579749850e-01 -4.385293470997567722e-01 -4.628873120509315875e-01 5.644193334834264331e-01 -5.708811331279425305e-01 5.202332973794921989e-01 -1.910339721543702698e-02 1.099351995140401411e-01 -6.233625591060683035e-01 7.387157801325919815e-01 -1.674658279239581715e-01 -3.004176775783470865e-01 5.018029508589781917e-01 -6.998713878304232416e-01 5.133017455735908730e-01 -7.805600411674942229e-01 -6.076318367527983044e-01 -3.848654584944568580e-01 2.574616576612653307e-01 2.217983535702729714e-01 7.847010071930916597e-01 -7.406230375384026399e-01 6.387183644579190744e-01 -4.600561392604975985e-01 6.010223586235295956e-01 -4.144610074722366866e-01 8.342221592643073169e-01 -1.846009586191021956e-01 4.630311246814077797e-01 -9.120631499848664836e-01 -9.144689897444325810e-01 -3.814782345128899244e-01 8.437230602119165646e-01 -7.489785078063448953e-01 -2.399180139788083255e-01 -4.256848547531916771e-01 6.217703808410065536e-01 -1.701372206492171857e-01 2.692526887037074990e-01 -9.648229263487222429e-01 -4.839319996285416092e-01 6.272071970636288185e-01 5.574953599986212094e-01 5.452359222515495984e-01 -8.938114059160193747e-01 -8.434260564542242489e-02 -5.351396256628713211e-01 1.064886066263100589e-01 4.334377610051159957e-02 -4.418627916936067046e-01 9.908997330807216564e-01 8.864842163414188292e-01 -2.179055077279434538e-01 -6.991307985576320494e-01 -1.696964071596983592e-01 8.298138684694768008e-01 2.770533296076792551e-01 -3.964161501801871657e-01 -1.852263633501003981e-01 8.219357158701559585e-02 -5.203741530792383996e-01 -8.359647188987433530e-01 -4.402613193752102916e-01 1.964334483135055098e-01 8.461668514526048401e-01 -6.126387420171456287e-03 8.369354738252483550e-01 -1.981729498206562523e-01 9.269228448194091197e-01 6.925617063815128205e-01 -1.207103995133983615e-01 -7.334732458205358574e-01 1.907403135934141458e-01 8.859585293713913984e-03 5.759510713859357089e-01 -4.510324756359683773e-01 3.555361758137627892e-01 5.225181155248417170e-02 7.533985142889926268e-01 -8.417155158733549136e-01 5.247286654315592713e-01 -1.324222977416771585e-01 -4.918532487684921239e-01 -1.835003156307868019e-02 -1.719606154359128725e-01 5.824242265795227802e-02 -9.869045519245325249e-01 3.588993263103554265e-01 -9.320005820350955039e-01 -1.127085319519458978e-01 -2.381689963618003891e-01 6.320057549694385601e-01 -6.506104074934732084e-01 6.870935801306645718e-01 4.686234486874725769e-01 1.845936791747537498e-01 5.489824245049881313e-01 -8.831021316192364523e-01 -4.960892102273883192e-02 -7.379193253086731019e-01 6.142767492248686345e-01 -4.932246919366965049e-02 6.052364534902605203e-02 6.532463627705255016e-01 -7.194421972538025400e-01 -5.789102687432220451e-01 -3.359827562319224192e-01 7.024118788641741107e-01 -6.377338777531572633e-01 -2.511569876697462150e-02 9.547046757719747090e-01 -6.555594933287053339e-01 -2.068955096439356323e-01 5.937586976513936632e-01 -4.748075442825615555e-01 -5.533071760500020142e-01 3.944851354354098061e-01 -2.863397188832270679e-01 -1.257489705461043716e-01 3.097866221371499140e-01 3.393512860023155109e-01 8.804861478736047964e-01 2.941211947395983572e-01 3.757563759320218799e-01 6.834997040408000712e-01 9.977011760421695685e-01 -6.480753865916246692e-01 -7.415982292584654134e-01 -5.501463617054659361e-01 -4.538743755878872632e-02 -6.349554563568147181e-01 1.044328390891268832e+00 5.733606850226465879e-01 -1.524754148036889523e-01 4.417282402169896843e-02 8.247727587629176682e-01 6.958003976046007732e-01 -7.324778504157893888e-01 6.539731202393067599e-01 9.337156705214839647e-01 -2.079168019346997742e-01 -1.023129034305737761e+00 7.580111266972131556e-01 -4.310844556585879950e-01 4.322352657957238553e-01 -1.090777743475595196e+00 -3.178830894589356193e-01 3.270292836180374030e-01 9.729511891800247947e-02 -4.323715104487612648e-01 9.355893346556458656e-01 -9.182283486878385359e-01 -1.009466289619523005e+00 -2.887168437749373373e-01 6.080071321664670680e-01 -3.470068169466717922e-01 6.374324137002541635e-01 4.399939947450304256e-01 -2.907774908926600843e-01 -8.236764005817243106e-01 -6.200702860806966976e-01 -6.207927139109156167e-01 -8.217433951771174749e-01 5.624906850806929981e-01 -1.389870042002916695e-01 -8.244313309517979915e-01 8.627079362566232312e-01 -9.742175687980798582e-01 -6.250297839415712708e-01 -5.698184332008048303e-01 6.930275106749700376e-01 6.703904743509507824e-01 -3.690157807971295445e-01 -8.690915244312025223e-02 -5.255798554627565122e-02 2.370046912428143970e-01 3.351771937315575767e-01 1.182002923884598461e-01 4.448325944236315721e-02 3.292255008285902007e-01 -6.583480664755093636e-01 -7.538505418199352714e-01 -3.100300201988395177e-01 -2.029542521358821683e-01 -3.170563153975624049e-01 3.199699996163210547e-01 -6.556597255880077801e-01 -8.569532963684869387e-01 1.991735644522222293e-01 4.945978997287961421e-01 2.033187005839254546e-01 1.221255271249492985e-01 -7.884000998324810494e-01 -6.225859505416413420e-01 -1.049816003633166739e+00 -9.894706598905701478e-01 7.861217792664145776e-01 -1.372476979952325093e-01 7.839556994160791215e-01 -5.780596129727032517e-01 -5.640353546869791845e-01 -5.258171640196938057e-01 -9.142207196877848441e-01 -3.405627606054342227e-01 -1.971626186010947135e-01 -6.947147134063166307e-01 7.387872547589564576e-01 3.117384351841140933e-01 -4.930518361015013284e-01 -8.121758324659629213e-01 -8.205748475404147646e-01 -8.714284990571199430e-01 -2.161907132935650677e-01 9.575233005016434151e-03 -7.995607394841282300e-02 -6.016653138806625500e-02 -2.168081225262562528e-01 -2.527471224382508708e-01 5.034410234802191297e-01 5.562237723743727047e-01 -1.798398752522014366e-01 9.110809745839317797e-01 -1.339492879785934287e-01 -9.737049617752557840e-01 2.229467843534488070e-01 -8.830618871029468631e-01 1.764907447707530219e-01 -5.906976681868195689e-01 -8.830652107734437983e-01 4.323272397249720567e-01 -3.821893317052898476e-01 -5.159002622340491673e-01 7.339560733919108237e-01 7.490605745138016747e-02 -5.996221996190333192e-02 -6.717872050020436137e-02 -7.752651158306632651e-01 -8.980676621166412688e-02 3.486669688935226108e-01 -3.172973569703297358e-01 1.814262754349044160e-01 -3.560236533032187234e-01 7.361566335963979357e-01 7.806431291894094793e-01 6.115291263567262936e-01 4.745640114269818466e-01 3.618428703074385022e-01 9.693144074412610722e-01 -8.624918940910767384e-01 6.795927232219927117e-01 3.910957448090751631e-01 -1.088124173980333564e+00 -9.254450525496241697e-01 4.960364705745684555e-01 -6.435950874945620681e-01 -4.093872134696421305e-01 1.576566488792989149e-02 -7.230569070373890073e-01 5.991354809146891558e-01 -7.178478761865285662e-01 -1.209308960309138370e-01 2.911674608552387022e-01 -2.492272433406244325e-01 1.336579318843416908e-01 -1.066034190618982969e+00 -6.830210267602477847e-01 -5.940596451076506357e-01 -4.656617044220536794e-01 3.701577234179877496e-01 3.005231050761220102e-01 -2.510353995172056041e-01 -7.151164631089690360e-01 -4.688554621731140792e-01 -3.621013545158711100e-01 2.565208168195835109e-02 -4.343136433856853440e-01 3.596309638824813359e-01 8.159729412437964902e-01 -2.627230511495997484e-02 8.185221353993573645e-01 1.768711270710502936e-01 -1.807323216402675070e-01 -1.004916035393986995e+00 5.244809744334060220e-01 -7.099004931399932605e-01 -3.149871854227237478e-01 3.427439370992153012e-01 1.166454745169338697e-01 5.311880441288115984e-01 2.342141327692057184e-01 -1.319146821881078124e-01 -1.528432533596605636e-01 9.821519110193828450e-02 1.802158974135457392e-01 -4.628182354135754739e-01 -5.184999845926416828e-01 1.015309807253930607e+00 -2.144600910786985670e-01 -1.244457056533989497e-01 5.755193236616792246e-02 -6.814354551014812911e-01 -4.636768059204993686e-01 -4.976264218110246773e-01 3.411866218321742972e-01 7.403479173953628756e-01 -1.023362181252419179e+00 1.458526873753037134e-01 5.443863147598629326e-02 -7.784254698920827220e-01 -9.294013527060291935e-01 1.348879909131645571e-01 -2.724830675366978275e-02 -1.464159271661768791e-01 -9.585910371890616899e-01 -6.739802274302792995e-01 -2.636898740629597948e-02 8.846375356319455818e-01 -4.246250168195453423e-01 -5.077473025737258006e-01 -8.755874484511283473e-01 -1.000258438861280297e+00 -2.193961291309850029e-02 -2.570691664619318972e-01 -1.649770061953816369e-01 4.580713909363671316e-02 -1.604196090469997837e-01 6.378451213460296643e-01 -6.480026942951867819e-02 6.781737724447794990e-01 -9.077977019891469990e-01 -8.263304595857458024e-01 5.895560053062682826e-01 -6.327857623759667316e-01 -4.689656133401861049e-01 -9.546865005385920533e-01 4.497978982504202694e-01 -1.033951144205396355e+00 1.229512741090452339e-03 -6.949835696384861761e-01 -2.374535090924692338e-01 7.554246434574803937e-01 -5.426549572672914046e-01 4.215039351124783562e-01 -8.643022372070162662e-01 -3.321276124648869232e-01 3.522359152355884065e-02 -8.592957476784064408e-01 -2.824720147593421937e-01 6.222366679735549105e-02 7.612903884079855743e-01 5.581945353070899563e-01 3.516713216995187019e-01 4.605391592691313041e-01 4.198841821802936636e-01 -1.826116331932468029e-01 -1.087485684933276187e-01 -7.635812965844184230e-01 8.252631181337303223e-01 -1.470515516496780362e-01 -3.341672622019745131e-01 2.623881670733426152e-01 4.003540789026350799e-01 3.941028430850904846e-02 -3.363218348222427601e-01 -9.808403531074960657e-02 2.142177910449722389e-01 -1.097261496742653053e+00 3.428893495487341792e-01 -6.629235343674865222e-01 -9.330732796649897631e-01 2.260147870192563517e-03 -2.915162137834703127e-01 -9.109694229664815346e-01 -3.173110070935240556e-01 -9.343885708270535106e-01 4.840398717805845519e-01 -6.088178370749163237e-01 -2.852284009460979153e-01 3.401432358285121915e-01 -3.350608463626155165e-01 -1.999686007748948946e-01 3.382419903972948561e-01 6.406257808355478867e-01 1.969549872029676130e-01 9.163637933801416224e-01 -1.705999249874311507e-01 -4.950647132210013734e-01 -1.537889566134065245e-01 -3.060304721973208797e-01 5.702416272540313802e-01 1.110239313984521692e+00 5.951313249719645260e-01 -8.052129247147102875e-01 -9.267933798829283143e-01 -5.822460812769590932e-01 6.353533426759437434e-03 -3.126620297836118501e-01 -9.910292273520288076e-01 6.844427632678230511e-01 -4.931364663797397907e-01 -2.011773938844410303e-01 -1.429636632469263591e-01 3.424532404739620388e-03 -6.408097170731076320e-01 7.486750215466939640e-01 -5.946281880197300529e-01 -3.764340463587698693e-01 9.875054343353915076e-01 -6.472236759401428507e-01 -3.961903383890326702e-01 -6.661942715841506768e-01 -4.713982386378502976e-01 -8.945821810469917201e-01 -3.813211861136609482e-01 5.355081485218516901e-01 4.475652955497598784e-01 -7.953269541424640154e-01 -5.998850959608015287e-01 1.149667778393088646e+00 -6.010002280882786874e-01 -5.437877618360956733e-01 -6.915240756853588411e-02 -7.596966424007711716e-01 -7.877474146756059392e-01 7.802974587744652135e-01 -5.947228738237357870e-01 -6.118334285483812973e-01 1.998700619898927666e-01 8.078576155602952280e-01 1.025599661049543948e-01 7.163609102693450914e-02 -7.855115395797160893e-01 6.935291878140953381e-01 3.718556366289036963e-01 6.134048845315158704e-01 3.038165818633280502e-01 5.368850870365209083e-02 1.840769113207147978e-01 2.618946286383053504e-02 2.469263454098335198e-01 -1.967723063555482654e-01 8.712184788298712457e-01 3.640592254486347823e-01 -9.308493891028650769e-01 8.953502652102461878e-01 -8.004788746894914153e-01 1.008511038189102260e+00 8.658379542634163650e-01 1.143826557369451269e+00 -7.293728840689190918e-01 6.575595976652895969e-01 -2.425468624393985750e-01 7.542081567106466711e-01 9.159340570165430684e-01 -8.401914365353592151e-01 1.511103849112021558e-01 -8.385155575254184257e-02 -1.017453789619049198e+00 -6.124747493910588370e-01 -7.146623887486394100e-01 -4.535437751115990457e-01 -4.244981761086948358e-01 -7.470138197588938045e-01 6.802122088390107901e-01 -6.800086516836691963e-01 8.592550950220715356e-01 2.889618927926583813e-01 2.765722208864656029e-01 -8.863492217061158529e-01 -7.573143758571095896e-01 8.931489597309509865e-01 9.189447657267131309e-01 1.709056296111813034e-01 -5.741343878106011100e-01 5.857884202409538998e-01 5.676210863612705104e-01 -6.113969011930660280e-02 2.885833303043043307e-01 1.121380669947423109e-01 -3.458336172418252086e-01 -3.489772792878185204e-01 5.315403767416984060e-01 5.287273809235278899e-01 -6.046240069250485849e-01 7.149926573169639032e-02 1.151050697641016196e-01 -4.379265589098221279e-01 -4.175505030405648466e-01 5.227072883775533141e-01 6.702103851706722182e-01 -1.658051476899976284e-01 -5.312366121358443882e-01 5.691227942077791147e-01 1.717280332904489726e-01 9.471972464590145968e-01 -4.697976624844189125e-02 -1.635544014160910942e-01 7.107309336423803803e-01 -7.045787382690344991e-01 5.991987403411931368e-01 1.159751366313340054e-01 -6.665589183912971061e-01 4.288900683934741137e-02 8.651584893042046920e-01 6.810604226699253916e-01 1.494222788146447878e-01 5.168332761499438988e-01 -7.474762885262774548e-01 4.138922455958617963e-01 3.817514459069608623e-01 -6.251629457111025356e-01 -4.825863616776190357e-01 1.544048069659163525e-01 -3.868421901651555861e-01 1.056131446752325065e+00 -3.695958549201499022e-01 2.940864742340494331e-01 9.577093691810970588e-01 7.992005317415081800e-01 7.749138179358787681e-01 2.860552203904189739e-01 -8.929803464343348818e-01 -4.199831569671814702e-01 6.974487366286796775e-01 8.912296562321340987e-02 -3.583241483443512787e-01 9.767424724417028692e-01 1.214133384428347229e-01 5.573040470478206609e-01 2.667045071054934824e-01 3.563245017275626925e-01 9.373429128429233703e-01 1.424595745354567955e-01 -7.103296537813563738e-01 7.810593791684925513e-01 -3.871143494506813498e-01 4.305324162569603152e-01 4.367727536872944571e-01 -1.627107065845055101e-01 4.385698743363261598e-01 -5.192467560443132513e-01 5.197949343970715841e-01 -4.640304493875722636e-01 2.690999713968910134e-01 7.970252728938285181e-01 7.468735950415444913e-01 2.286032476116193757e-01 1.348245221205483790e-01 -1.031688211016158929e+00 5.282241115808526954e-01 4.118054090422296754e-01 3.773767072808654754e-01 -3.814554345048937756e-01 4.153437790769455851e-01 -6.090242833858778848e-01 -9.902162785285695268e-01 -7.053009926449796962e-01 6.762835126314401535e-01 -5.358937463996163442e-02 -6.408155617636597245e-01 4.883063783009830017e-01 9.225721824227022250e-01 7.617864927859613333e-01 6.991815231777068762e-01 6.422452907018118273e-02 -4.103966641132300586e-01 9.808209351836733036e-01 -5.779717268909175809e-01 9.150373314977071626e-01 1.939872464679351372e-01 3.796674918878405469e-01 8.424903895335724702e-01 -9.410560245376355937e-01 -5.085908028323794516e-01 6.023830852452770612e-01 4.545433508412172197e-02 6.595656856635792042e-01 -6.796177241842570327e-01 6.459255881802055121e-01 6.504553472593974650e-01 -5.206787012120261959e-01 -8.426998610867989514e-01 2.378629951902926365e-01 -8.675665619363290837e-01 -9.846295262342412702e-01 -8.441712295672685329e-01 1.644410244574125712e-01 9.319454517539282890e-01 5.331621867956214400e-01 7.524236059532660725e-01 -8.422311549910505013e-01 -3.100202166395699677e-01 5.503988539971487598e-02 5.285244309326926349e-01 6.361351455950754463e-01 4.440516271931257974e-01 2.238343953756564420e-01 4.431647455874874186e-01 -3.765265829616256110e-01 3.260681238849465480e-01 5.809547016720111312e-01 -5.116804185664936000e-01 -7.206179022252432453e-01 -7.504914615265273481e-01 7.964328765313781755e-01 5.000409758436887842e-01 9.367644185821494274e-01 -7.365942672903336153e-01 2.733534637693018077e-01 -6.612955078605208259e-01 9.613418347403130948e-01 -3.889260273617050068e-01 -6.625149250153904434e-01 -7.228744183668605050e-01 -5.667805960787136721e-01 -6.603586601886370921e-01 1.903706790662250126e-01 -8.810525245074710687e-01 -2.502668308280968090e-01 -9.415572202886627329e-01 1.009858623075831741e+00 -6.954821430604786192e-01 1.524300904785907407e-01 -3.481517713283209248e-01 6.498360169584220802e-01 -8.572503676197188449e-01 -3.066328924135387768e-02 -7.444246984458223748e-01 1.603564030093979770e-02 -1.327342244843986718e-01 -3.381508132980903802e-02 2.168272930708357027e-01 -6.125876808566672604e-01 6.106932938837508207e-01 -4.254411283107287223e-01 1.268029851633201976e-01 2.339344470575667190e-01 -9.731437454304177059e-01 2.452849512088515205e-01 -7.251243261686910468e-01 -4.445529806778349968e-01 2.403903298766920660e-01 -5.526622901641231600e-02 -3.545032365999562507e-01 -5.199535325906465832e-01 -4.457206986335239818e-01 -2.028771925992305658e-01 1.059481624262470154e-02 -4.921443118257997074e-01 -9.604036051818538589e-01 -6.728549392904696891e-01 -4.272708999315687484e-01 -5.172040586418609198e-01 9.516719962682593792e-01 -4.026150755793874714e-01 -5.751636883524151589e-01 7.337526252811690242e-01 6.402896612413260247e-01 4.873816905578585157e-01 7.448086129858031423e-01 1.964929402853703433e-01 -7.029976784149989388e-01 5.439411925296437911e-01 3.910389033394952030e-01 2.427219163949989600e-01 1.841086551450121789e-01 3.116314837758846767e-01
-2.243397623178911005e-01 6.554910239074069889e-01 -2.483824064576523050e-02 9.617555647563647003e-01 -5.283807159038993451e-01 8.903826709780844340e-01 9.329176316417857606e-01 2.719284542953879225e-01 4.202574882958047819e-01 5.087448083646526342e-01 6.990020423614577982e-01 -3.422744733773612769e-01 3.722761834886000043e-02 2.713053209873104721e-01 2.492304757041916841e-01 -1.408324930285961007e-01 -8.514853884905095871e-01 9.513871756586349537e-01 -4.872409904909092981e-01 7.015695455059954844e-01 6.020143461237502658e-01 -1.589611302686275707e-01 8.591730922966924755e-01 6.293030908406773705e-01 1.811992260919152997e-01 1.490306278550397323e-01 -6.335616254251674739e-01 2.861185819740317271e-01 -5.913996593847010708e-01 6.059149638486804879e-01 3.727926409507771321e-01 1.620252227084281738e-01 8.605118669132244547e-01 5.088890465053726997e-01 3.399012656277180522e-01 5.884786647381951008e-01 -4.317696948719397243e-01 8.481340173555314277e-02 -5.179239401039313906e-01 4.291523347131649679e-02 -4.613563535369799573e-01 1.415394480281609579e-01 4.866457823219307866e-01 9.648203977167298107e-02 -3.768766168216059476e-01 2.304232328466515323e-01 5.450392159842689516e-02 4.211180387549328663e-01 -7.709211034633890458e-01 7.335571333499084634e-01 4.898958110080486178e-02 -8.909830093192262490e-01 -1.792981641810029517e-02 -2.390465196159611561e-01 -6.901511938537036039e-01 -1.689218163282084628e-01 -7.016345539880419757e-02 8.950859730035806150e-01 6.701929610552087579e-01 6.439409605643817702e-01 4.008978521876067069e-01 -2.757362015527988763e-01 -7.600224419386900632e-01 5.403435427721134943e-01 7.228365565396682735e-01 6.993696805942101191e-01 -4.070290420616298199e-01 7.082511704380394235e-01 4.255363990113119610e-01 -2.546168344875750500e-01 6.268930029956442107e-01 8.698706404691322058e-01 5.252044442173362526e-01 -7.855869487766670156e-01 4.060156703634774655e-01 3.888551920085448615e-02 8.003002111091779558e-02 8.484784021790997555e-01 -5.756151003105212105e-01 4.367352617143979709e-01 9.216289516712881935e-02 2.634290996120832590e-02 -9.032719675429233819e-01 -8.027764303059206075e-01 9.076607899477844299e-01 6.376069621223884321e-01 3.599658574258530336e-02 1.710127115359651451e-01 1.083328877121934264e+00 7.516979404936693365e-01 -2.941139777184205162e-01 2.008948446045747405e-01 8.209283532322511068e-01 -2.620797460723540973e-02 7.806069834392636020e-01 -7.028215433063347839e-02 -7.637684635614054585e-02 -3.481451079009446059e-01 -4.794281174826802716e-01 -1.877410729559980673e-01 -2.778241328905275420e-01 -1.857148030375867787e-01 5.069334908476323953e-01 -4.058767543185948234e-01 1.617964174735520011e-01 4.903179736106534348e-01 -8.053304879122316073e-01 -2.137784890888284328e-01 3.788583677656242599e-01 -4.103654244562573994e-01 5.769881447088210935e-01 9.230725676877588048e-01 -8.509801096806965948e-01 -3.336361822061714721e-01 -6.895912880524538435e-01 6.381513178666966546e-01 3.165990034983096058e-01 3.012677839746784603e-01 -1.821795194456974354e-01 9.302884460005469425e-01 -3.873838276629423816e-01 1.353618559895276574e-01 5.750773951211093360e-01 -5.341916984676154945e-01 -7.518230093691004035e-01 -1.468331253637286948e-01 1.029598910257079059e+00 6.375602894298434409e-01 -9.427671815146224654e-01 -1.120966884759684729e-01 9.094874656642282229e-02 3.966056169085603877e-01 3.009895886466379955e-01 -7.023880493957636029e-01 4.458040172451232519e-01 -4.980970055398194485e-01 -8.156431263523287178e-01 8.090821999874131532e-01 6.933364598667823842e-01 9.083649274048198885e-01 -2.580583458345678260e-01 -4.338164272784410525e-01 -8.545548686039097230e-01 8.741079383315755180e-01 3.386187426712966020e-01 8.129389189628651868e-01 8.433537104464177148e-01 -2.853333978572809015e-01 2.512947056157840975e-01 3.318358254724198542e-01 -9.839023264451450812e-01 -2.163374062690655575e-01 -5.676185611799289266e-01 -4.327666512046858815e-01 -1.535961298189460755e-01 5.183821688997495292e-01 -5.705004021498111255e-01 -8.457627121226362066e-01 5.713364685082976679e-01 -7.177722785597868693e-01 -4.392774692791048124e-02 -4.359584837890422837e-01 -3.439154976489947058e-01 -9.425887298927404512e-01 8.430979644509170035e-01 1.786845424501271873e-01 -8.674982902469363655e-01 9.087252342964905472e-01 2.289100617196278831e-01 1.321071741164953350e-01 1.060486853988478417e+00 -6.718369113135509718e-02 9.123708799324367624e-02 1.940373168587591068e-01 4.988057842236814921e-01 -6.961384536226138120e-02 6.630823005265140679e-01 -4.855046595940921139e-01 2.452283077837272840e-01 9.006607457178739118e-02 6.647841159948101319e-01 1.005763658635467073e-01 6.930741018337684967e-01 2.422123495200691201e-01 4.344364295592308967e-01 -9.152711565766735724e-01 -9.781310856117680919e-01 5.939918781186067642e-01 2.553151091657179794e-01 -7.189622366433587874e-01 6.894057873704710626e-02 9.851032316075393203e-01 -2.082728163316917847e-01 -5.298468181174251224e-02 5.534650610814215721e-01 -4.485965354702441121e-02 4.830330627359178397e-01 6.083299037793735708e-01 3.635230621652813521e-01 5.076485488982563909e-01 6.450049898726447628e-01 3.886861469237994360e-01 -8.605874288732112687e-01 -7.167875374087312457e-01 -3.984809757787478035e-01 5.945437865454898663e-02 8.232771652670307638e-01 -8.034533750205927749e-01 -7.596991660774793376e-01 1.701608395211090252e-01 -6.106414260579523523e-01 -1.077621866312334253e+00 -7.128517166523802295e-01 5.627686851171672666e-01 1.642152596716857094e-01 2.970866419700699534e-01 -1.277177463268104329e-01 6.798069703777056549e-01 -2.548987039323826198e-01 1.968801919505859532e-01 -7.254696295834642816e-01 2.101873594231619402e-01 -9.799328591299687474e-01 3.782835130924798728e-01 9.291718110511175688e-01 4.588595352964792706e-01 2.805740884733845183e-02 3.032146559559539822e-01 1.704015921844758141e-01 5.767137841732861148e-01 8.553141837059150543e-01 6.939728665807610719e-01 -7.985355169767094363e-01 -5.533647521384638113e-01 -1.222464872798943031e-02 6.856154617384624395e-01 -8.922308912679561832e-01 -1.050510642383608922e-03 -4.714737342006316556e-01 5.298000274850472868e-01 1.838372618199499431e-01 3.644088574996831587e-01 5.716227735586615344e-01 6.913897552010639380e-01 -5.581393370440957957e-01 -6.871656014214444497e-01 8.613207861393062936e-01 7.135083212901000005e-01 4.144560215239344592e-01 9.898853972111133492e-01 -2.064989320985226029e-01 5.719854240456968830e-02 -7.173388862140570588e-01 7.504422562790596940e-01 -1.889102982073619652e-01 -2.855202357863386720e-01 -6.389099680603833598e-01 -6.073699406517126809e-01 3.980947840400428928e-01 4.881452216870705296e-01 5.940560018424544397e-01 -9.136641316838237104e-02 -2.691944086638145550e-01 -9.708593825804299193e-01 -6.880678351834824680e-01 -7.251549482225665422e-01 3.758621375353499716e-01 -3.697182163166760627e-01 2.364812068313175142e-01 4.797143727044257400e-01 -3.377772425424630659e-02 1.171644370017052905e+00 1.482067698857904681e+00 2.115999364461478016e-01 9.252433223979080745e-01 3.078720169667399364e-01 -6.195244848242870139e-01 7.434645191818561871e-01 -4.376242020105396147e-02 7.301651982919320494e-01 -1.181965088631539151e-01 -7.341122043884507065e-01 -2.664068595993402955e-01 -7.554973442650937399e-01 5.067051634345753897e-01 -5.686155859093993126e-01 -1.373383791406239951e-01 9.348742529399354240e-01 1.802093470076042772e-02 -7.169763793912994343e-01 -1.790640969387182271e-02 5.778390424224919553e-01 1.942976318020034343e-01 2.218082279641212795e-01 7.947778802010144750e-01 -2.520149187546963376e-01 9.876464402883029514e-01 -7.717845206989769336e-02 6.605522600990024751e-01 2.287730750710740835e-01 6.418756652714137090e-01 1.120757957346287137e+00 9.195661416896319107e-01 7.351738666013604151e-01 -7.396213114794286669e-01 -1.165197441636370984e-01 4.122925387345959258e-01 -9.104647584683464023e-01 -4.329874323553366544e-01 5.202819794891296867e-01 2.484616721272657480e-01 1.447997628260163649e-01 2.607136889142183112e-01 2.294017854566075820e-01 -6.126101493766329398e-01 7.757347130058890317e-01 9.011788381815898363e-01 1.004547493292114790e+00 9.538020265771965933e-01 -6.613402777646298913e-02 8.525265715769732022e-01 2.538181985253184503e-01 1.270569255686951615e-01 1.123216828093206887e+00 2.128439450106107411e-01 -4.968378690913385909e-01 5.634283065932736978e-01 5.070985433708812273e-01 -2.381541176751313105e-02 -2.652611899997248668e-01 6.112366922731594654e-01 -5.735043742909549935e-02 8.102197821995799076e-01 -4.729356496063024107e-01 -6.957601031702252969e-01 -4.384953041755718095e-01 -1.501820115693498492e-01 -3.218602918037244964e-01 1.204809821354238669e-01 -8.065677264398050106e-01 3.194155452357755332e-01 -2.757617315300210925e-01 6.929821765087468277e-01 -2.674969399235193612e-01 -3.447347218625012588e-01 -4.895198887324364034e-01 9.967836046343305778e-01 1.024941173103783409e+00 -2.656530278664057110e-01 1.161156678964467170e+00 3.542938767482567419e-01 9.088716036903712325e-01 6.748493653373046630e-01 1.172026681093755740e-01 -4.097873940712060126e-01 -6.021525300599975816e-01 -4.699507516113126671e-01 8.793014002333996437e-01 -7.642075007320162650e-01 -1.728703497796758304e-01 9.557260629424311205e-01 -3.943797466957442710e-01 4.665022278585840287e-01 -6.402084190357012483e-01 7.333452985849041594e-01 2.957792341509489775e-01 3.542802580554866299e-01 7.856860836461463382e-01 -3.268967152846713464e-01 6.763294620670206037e-01 -2.635071267617175028e-01 -5.203210688669308581e-01 8.716765579897892691e-01 7.349095640699184750e-01 -3.043176709954440243e-02 4.715284381660545532e-01 7.751554622096975544e-01 -1.568315003179813205e-01 9.977866289593912974e-01 6.285536834943759033e-01 5.432869284535114807e-02 4.114223153863443283e-01 -1.021719354281552111e-01 4.167427168547798155e-01 -1.059983742668852091e+00 5.898113177165643650e-01 5.635090641165594327e-01 4.758678424837823884e-01 -6.460833962833924249e-02 9.413183709304510094e-01 6.944068287721132382e-01 9.063714588160290964e-01 -6.812012597895765742e-01 2.545969445294627986e-01 4.317131568513413176e-01 7.679588170130523528e-01 -5.127806656968627586e-01 -1.509963889778971335e-01 -7.052073098640586624e-01 -1.651220398149286506e-01 -4.247493620280711618e-02 4.906232889596530422e-02 -9.513429699174770215e-01 8.088992981015926675e-01 -1.096711150261022172e-01 9.212252117091648262e-01 9.432938042382592592e-01 -3.578016199034699668e-02 4.122547288124807086e-01 -3.359921126414704418e-01 -7.430448600122622205e-01 9.160375018762300092e-01 5.086987466802559421e-01 6.163252612923554308e-01 9.979984639756063480e-02 -8.018364560037352096e-01 3.510658179461957629e-02 6.669770912355469372e-01 4.578145323415065415e-01 -4.064568020226279610e-01 4.901096705794128622e-02 6.316419412059183225e-01 1.484245479260395684e-01 -9.611296069971387857e-01 -9.833936803922075365e-01 5.827404606294361855e-01 5.953955700216041480e-01 1.722333896980245971e-01 4.259867544902604108e-01 2.449694292194190270e-01 4.468312028947231118e-01 3.900019308044312683e-02 -7.554751724276150826e-01 1.088987607204195962e+00 7.328032218671391984e-01 -4.478281299291541062e-01 9.239062558769278732e-01 2.354280628100096084e-01 -7.234599439036638602e-01 -4.376276742188197622e-01 -1.504650506876514526e-01 7.709475919546916467e-01 -1.018447887339118951e+00 8.401143522647127604e-01 -1.961689180382208408e-01 -1.056814175445791038e-01 -6.422300607195635669e-01 5.438574540406306834e-01 4.880869945571439383e-01 6.040417577077403788e-01 -9.307376656474707355e-01 7.929244700056310435e-01 -7.903954443770527805e-01 -9.065484963345391556e-01 -9.707854429345662561e-01 6.909335087603297731e-01 -9.231632124651890647e-01 2.069354460432741849e-01 -2.938405895160320358e-01 7.069920496150817746e-01 2.755325262856214708e-01 1.110681366953147897e+00 8.901169889282729564e-01 2.247021539497419951e-01 -2.679688621008608496e-01 2.142132269380015164e-01 -8.767079118061567311e-02 6.760234927648878234e-01 6.557719670551990232e-01 -6.191471739089544624e-01 -1.518849670768801230e-01 -6.023916045914338158e-01 -6.662264224932690215e-01 1.777537616100349424e-02 -9.420288601735420375e-01 -7.349007615688224471e-01 5.152937871642194745e-01 -3.636652711117430159e-01 1.811360938961943945e-01 4.817756342151361532e-02 1.790208897453944015e-01 -5.645277348231498848e-01 -6.774924580669117180e-01 -1.023601371939717009e+00 -7.863779447297407632e-01 6.678797912126974851e-03 6.147622876241529699e-01 1.054580132911690088e-01 -7.819629450615771249e-02 1.213494664678882007e+00 7.928563947111273713e-02 6.148603392154515512e-02 -5.063165342244233535e-01 1.020881806386128021e+00 1.144320939790997471e+00 7.070938151822525608e-01 -1.491587646884496021e-01 6.761086761455907812e-01 7.505614272981293578e-01 8.050867645441872611e-01 1.377373407718505138e-01 1.301173924460793385e-01 2.217361260849585319e-02 -5.213814021242579866e-01 1.148666509007220948e-01 -4.954286413959875790e-01 1.534633112095642460e-01 8.948805445023489957e-01 9.402379045643246558e-01 4.766812200344726635e-01 -5.583595489967887460e-01 6.666938119580988475e-01 4.936449308205896891e-01 -1.182640017852855663e-01 -5.858017050927778469e-01 6.048643853305275542e-01 -5.818132306597952885e-01 1.919937020217133417e-01 -1.789217390742020852e-01 -6.536060468221905895e-01 -4.055559717470343939e-01 7.633544576371335821e-02 -5.365041172955564708e-01 -5.569598763863689017e-01 7.351573046357794405e-01 6.150047625408188168e-01 1.089461320402694833e-01 -8.911514095013276515e-01 8.512233126704654707e-01 1.796724921794028429e-01 4.994047526741035581e-01 -7.275706186453865243e-01 8.680896939793355527e-01 4.448762583660338388e-01 -5.564530474569842067e-01 -8.627385971045337110e-01 7.270912956360164880e-02 -6.989979730981824568e-01 1.073609726222980898e+00 -7.373255331388391953e-01 -4.555018021429220187e-01 -5.121621675241372351e-01 8.639013954159584230e-02 6.033005661068788772e-01 6.288682693963563164e-01 2.602587307412660422e-01 6.032326683564998016e-01 5.075791738275978737e-01 2.873935146794273088e-01 1.933868443462425507e-02 -2.380924717811359614e-01 6.353823083962335527e-01 -4.574173200017522811e-01 -5.762273792349450474e-01 -5.597079995697891164e-01 6.526405300181915559e-01 -5.378945732855469064e-01 -2.143250622960640173e-01 4.180986123422102407e-01 3.449908794889899877e-01 -7.751352315900575940e-01 -2.576593595008916382e-01 -5.678005976490372309e-01 -5.595604493403991686e-01 1.194529691705361385e+00 -6.571054377490556098e-01 8.656979790833332356e-01 -2.069661426964912454e-01 -2.132545152585211268e-01 8.661880320450250359e-01 -6.178528756235245334e-01 8.937981382399118324e-01 -3.655231717556226556e-01 -5.179018044334126047e-01 -5.842629458128425490e-01 -1.579386517750845098e-01 -3.157165577601189765e-02 -6.550416316957023977e-01 7.516952542717483254e-01 -3.122837485164100535e-01 8.166556250382878135e-01 -1.155978002759611573e-01 8.216304490351759027e-01 5.662361294911195664e-01 -6.142279973173095931e-01 -2.768757252211513364e-01 -6.158743121410917842e-01 -1.808671533072143678e-01 8.995055806998877301e-01 -6.086886566474730698e-01 -4.342208476201437906e-01 6.601360766465264041e-01 1.827244645218003838e-01 6.772665166382494384e-01 -4.259865221608590824e-01 -4.605228457830883859e-01 4.924508743343572470e-01 4.410912484767471331e-01 -7.996165460673881897e-01 -7.624879747138046948e-01 2.621096114464920301e-01 6.112935846177512955e-01 -9.925287573538147390e-01 -7.802395100671565276e-01 3.865848102914510309e-01 4.979685786228511546e-01 -1.615599590942276842e-01 -4.019373686026879167e-01 6.993404569160842632e-01 3.166775821136360580e-01 -5.343320356151701755e-01 1.385916646351316450e-01 -2.946177171523725255e-02 -2.998681610903490280e-01 8.881192950694644095e-01 -2.435635914181590311e-01 2.998880410819587672e-01 3.255414823140413416e-01 4.998435501818642157e-01 -5.252536266006910814e-01 -3.238064276740145186e-01 -3.229012209501382902e-01 4.018592017828866436e-01 -7.557965572923429631e-01 6.734860945309260050e-01 -6.628449831200649012e-01 -6.524986700850766708e-01 -8.568938763809040848e-01 -8.838391147173702000e-01 -6.046919587851677935e-01 -6.928476112581023472e-01 -1.436816856870012649e-01 3.272959684005463110e-01 -5.920160114929152728e-01 5.294935580089042970e-01 -5.471858055164141588e-02 1.683530046049209472e-01 5.425267824147809170e-01 4.563652504938499610e-01 7.641981841200994330e-01 5.237660708333614634e-01 2.971055098602258249e-01 4.038821733956625241e-03 -2.690355830830920003e-01 -2.225212334859013874e-01 9.218326547372324153e-01 -1.230834831941186591e-01 1.097724767120464850e+00 1.033681792265308532e-03 -2.721928769335102416e-01 9.627733423701443360e-01 7.046043783648332781e-02 -5.534355614187941308e-01 -4.902777107054093753e-01 2.662233745835322907e-01 -7.525774458624688856e-01 -9.568511066715774671e-01 5.776244864326675055e-01 -1.737194605952095405e-01 3.879460307532222596e-01 -4.040435654563768186e-01 4.484178121768308545e-01 3.050998764785061157e-01 -9.527411605467434041e-02 -3.641131315410083835e-01 -2.366073480264811457e-01 2.965700199163578410e-01 3.802304759833726733e-01 -8.125353179693917127e-01 1.706845936255195484e-01 7.398326423293010157e-01 -4.817449999543641503e-01 2.704546376566998589e-01 2.583406321117642235e-01 -3.498657711350470212e-01 1.041374062349317509e+00 1.857814628131224804e-02 3.489452979274165756e-01 -2.414946587209144124e-01 2.107463335823379358e-01 -2.303156868796464862e-01 -8.920273194843486575e-01 -5.131800386243554613e-01 -4.725477577989786182e-01 -9.382949911133933174e-01 -1.105603723795029136e+00 -1.220534257335497141e+00 -1.183078854331826912e+00 5.725008575327947824e-01 -8.002284784253245187e-01 -5.517785095145820717e-01 9.794592942789875911e-01 -2.199556693394052673e-02 6.496503233525966481e-01 -6.051337329613029059e-01 -4.816111521395691902e-02 -2.871550456053965084e-01 5.743207863850995354e-01 2.707838850657264818e-01 8.092354660475733485e-01 8.270919585347820124e-01 -4.121784308595772273e-01 7.251023329794968886e-01 -2.475488843990536481e-01 5.745350907679220853e-01 9.220530521978682614e-01 1.782104362506345685e-01 -4.228122572194804030e-01 -2.535240721835453903e-01 -5.062784142591116865e-01 -3.075138746668472089e-01 3.105700738134948846e-01 -9.094878726114899795e-03 6.375356621611660835e-01 -4.705461231534691646e-01 2.222113558508827802e-01 -6.434082375519991626e-01 6.478075345796243667e-01 -4.038293064791966258e-01 -8.648319159930628608e-01 5.099682145981014880e-01 -4.748550886914496005e-01 1.105406494252874960e+00 -2.191388706319309931e-01 -1.406951773529931116e-01 -7.473176800628787975e-01 9.146681554705216044e-01 4.211808909644381149e-01 7.946672947773292250e-01 2.031981640176535459e-02 -5.518383193112341711e-01 5.143172798049040484e-01 -8.911238984539722185e-01 -3.937210933720095007e-01 2.734968925086544989e-01 9.758305584780503361e-01 4.644696948256012842e-02 3.085604012948124295e-02 5.393425243649032641e-01 4.198757619472616165e-01 -2.946474419657192922e-01 3.416369961854798243e-01 -9.665978364481901952e-01 -4.749160258931342526e-02 -6.669466810011578373e-01 -6.239225198728224342e-01 -5.132670112063354440e-01 -4.148678042399956967e-01 1.432648651785035643e-01 8.941002545716556504e-01 4.538749773760079598e-01 3.079855732196076779e-01 -1.598257105297307412e-01 5.640139157723857988e-01 -8.638605901938601894e-01 4.909816386196674820e-01 9.349691816858158866e-01 1.670285652314373870e-01 8.434813334817392594e-02 4.789931786451093743e-01 2.778061804538667912e-01 2.748510140492734788e-01 7.335942690354827489e-01 -8.574938343910748495e-01 3.756026283747432304e-01 8.526612324109352770e-01 7.263630514837349228e-01 -1.522319761416333073e-01 1.549649651044784915e-01 9.163828471536861198e-01 -5.816879973384566638e-01 -4.898156711737253755e-01 -8.378868859428381111e-01 2.805763361118396304e-02 -6.055114430675618831e-01 4.501056489614927436e-01 -4.787173051151318859e-01 -7.567487092232247914e-01 5.525228783194995330e-01 5.870118647540438772e-01 8.353080552391436431e-01 3.565731273798806722e-01 -6.892310595084147895e-01 5.299585244086546520e-01
-8.985207024721053592e-01 8.722267254858944163e-01 -6.147330626288665112e-01 6.729552470219568594e-01 6.702272502141841670e-01 -8.361351756384127754e-02 6.806996339175586108e-02 -9.009762231057762971e-01 6.590491472602892919e-01 -3.853499530631705472e-01 8.589354250450980111e-01 -6.252596258183396039e-01 1.160148898391867578e-02 -7.631581893137281969e-02 -3.587514241759101608e-01 -2.194699353746857595e-01 8.600517400553638059e-02 2.261842280881160017e-01 1.345362272507020784e-01 -4.889544325006608405e-01 4.939212261271351823e-01 -1.087097206135696492e-01 9.085768947673966700e-01 -8.546554499670557803e-01 -4.943164946377538449e-01 5.740683770861703117e-01 -7.678516944775706232e-01 -6.052101290586355820e-01 6.366180217476686831e-01 -8.847950672564952601e-01 -4.680302785033874646e-01 -3.550821462961466501e-01 -9.396475377250644856e-01 -5.636064722945782757e-01 9.870568480367341024e-01 7.871051938564086470e-01 -7.632064970095880918e-01 -7.975911923602477804e-01 4.197403130318401732e-01 6.712328480002376363e-01 6.799966306117244397e-02 -7.514530502407201773e-01 7.753181928846695214e-01 -7.427607751295406402e-01 -6.119422997184309487e-01 7.677667153726256410e-01 9.366625855034377279e-01 1.555242503294109457e-01 -9.726483025341648991e-01 1.065820175538139958e-01 -3.784184588765300838e-01 -4.839242258657248108e-01 6.760281353339770982e-01 2.053627574030873482e-01 7.749997270861637144e-01 -5.638304186119325045e-01 7.910356096545592131e-01 4.561603287258442774e-01 -6.847662147018864776e-01 9.817226300708663533e-01 -4.819582693189219946e-01 -4.430571424126908964e-01 4.268713157225539345e-01 8.447067854436375312e-01 -8.559972749016458993e-01 6.072993503610288890e-01 -2.654502060255294893e-01 -9.223675261108579826e-02 -1.714412171753445235e-01 5.953935612202635591e-02 -3.512266762968035971e-01 -6.532305903233529554e-01 4.467066403610446268e-01 7.006874894094337058e-01 -4.067243761054033513e-01 4.731139585364517175e-01 4.175021670173532651e-01 -8.802212562839326626e-01 -3.332256990176759581e-01 5.562878554160864963e-01 2.690791475263125121e-01 -3.894057245501999498e-01 8.140689734863481020e-01 5.866689145197523381e-01 9.273210630085559902e-01 -7.465900535594831300e-02 -8.866177888574952037e-01 5.302133723864015380e-01 9.508457773833561832e-01 -6.211284644903816154e-01 8.543977159174580560e-01 8.732787707212867900e-01 -6.809765551523726257e-02 1.971769379801834032e-01 1.127024575499915721e-01 5.925955138189319404e-01 -1.384599234739567475e-01 5.913694972199237121e-01 -5.191688231408009974e-02 1.166213027230065924e+00 6.341211258727794675e-01 9.777817115456327590e-01 8.539356161895782227e-02 4.606404895185992054e-01 1.014968866578571438e+00 8.535729060614729580e-01 -9.873066108352811232e-02 4.304380588195776958e-01 -6.573119009869258234e-01 7.370158251024597762e-01 7.112864232218208960e-01 1.105818602932404915e-01 -9.790725844952919976e-01 7.681248005126695144e-02 -8.781426552755509096e-01 3.338395249088635538e-04 5.945303849349747871e-01 3.867240255510701608e-01 -5.621938502903233159e-01 4.143110051288744766e-01 -2.947631767876215947e-01 9.427587435650168768e-01 8.007537975069365377e-01 -2.540436080913611727e-01 8.663206487972958669e-01 7.316648970214042480e-01 -5.120552362053166773e-01 -2.175023107323380833e-01 -1.929941265644889159e-01 8.195154802961072960e-02 4.985402100717801210e-01 2.848548457643209075e-01 -6.654062747173614678e-01 -4.786712347923913757e-01 -8.213294811215146041e-01 2.023605305744413108e-01 4.555961095620100765e-01 4.635825751150230434e-01 -3.509618102420178909e-01 6.968419457489999358e-01 -3.066764419135623587e-01 5.027227582761134572e-01 -4.812354801733759180e-01 5.144697541456006579e-02 4.741406298582965251e-01 1.076326825156732170e+00 5.142125914663108199e-01 -3.874816580332836047e-01 6.922207838315549422e-01 -1.260557617682305509e-01 8.227005982303672305e-01 1.021900653665636316e+00 3.014115242769884739e-01 1.936836778813374738e-01 9.701799536449542405e-01 6.439608575328005236e-01 -3.708083076555764301e-01 -5.269729190461640567e-01 1.028695549674976562e+00 -3.118917843915652299e-01 -8.293887707019305111e-01 7.619093829209785396e-01 6.724132536367614099e-01 -4.061623879235630730e-01 -6.382194143497839367e-02 5.260458388858009204e-01 1.134143399060155710e-01 4.997167210283423033e-01 -7.503576561410466583e-01 -8.655702678811726392e-01 2.506522055038177266e-01 5.487056790986025723e-01 5.116545254559935474e-01 -3.487265590822590244e-01 9.223703913593027659e-01 -7.840241092912758614e-02 1.161351181816903999e+00 1.127295703781232783e+00 3.064214378586624377e-01 4.453259928151954705e-01 9.795571346650988609e-01 -3.828010974320450455e-01 -5.330251898082041251e-01 5.278824244467149596e-01 -7.289244853879877084e-01 4.002105425374344883e-01 7.601393893607968355e-01 -1.996364760103911951e-01 4.545033422010952284e-01 4.389884786626503388e-01 -1.144968571418470277e-01 9.692274463763741466e-01 -5.352688031998028562e-01 1.024985942496732472e+00 -6.455548341864183470e-01 1.071641080771330024e-01 -1.395826818157590854e-01 6.843085687637278092e-01 -6.594055723848822881e-01 -3.513497097875188935e-01 -7.312071316723184333e-01 4.374262477554339279e-01 1.292270610633153183e+00 -4.151924763651330119e-01 1.284231624035484520e+00 1.023724901228116435e+00 1.083477787485197963e+00 3.656007678825117235e-01 8.461084507729450532e-01 2.233946778071813355e-01 3.786852419566191230e-01 6.358872783911101445e-01 6.986180491828527517e-01 -5.798622051390410759e-01 -3.665939511277696572e-01 -5.399790190142004231e-01 9.093012445118265896e-01 -5.930738158561006390e-01 -4.810640517786374248e-01 7.731487978403207562e-01 -6.901872112758730138e-01 -8.850405376661200085e-01 -1.758493445305912284e-01 2.122120966028651079e-01 6.556049491319445588e-01 5.457461916725055984e-01 -8.424778589424790631e-01 7.265782735585267771e-01 9.471869045341088089e-01 5.928268800673643091e-02 1.148147300113489644e+00 -3.532093257806205866e-01 1.186251351920231345e+00 8.937784120014213851e-02 9.417999956941391915e-01 -3.537309407000859829e-01 1.486248297130791540e+00 8.976191014016571268e-01 1.768376752657845330e-01 -7.809209532318635016e-01 8.397445918118073838e-01 -6.693341978658732261e-01 2.223570415647173615e-01 -6.255910339841761481e-01 2.686980506635820998e-01 -6.287407578021316779e-01 7.653218349718499125e-01 -7.574429453768860565e-02 6.159113076062329439e-02 -9.475297119415119207e-01 -8.834458519543548771e-01 4.480727092801328748e-01 -7.856252904614746679e-01 6.911623161873731158e-02 -4.543870673503501156e-01 -1.324987106821491900e-01 6.562997095742427456e-02 1.006772096740417677e+00 5.139219003789969875e-01 -6.304056473816054273e-01 1.121331615441689245e+00 4.337239162716466923e-01 1.165824560287172629e+00 2.563947411375533947e-01 -1.185737141735460909e-01 4.827989004499917414e-01 -7.409417790377621493e-01 -9.633356918205228103e-01 -6.145547526428437601e-01 -9.346213068354276565e-01 -4.283599754436531182e-01 4.366817592055555752e-01 -8.431030472154426025e-01 -1.263005360011982270e-01 -6.934256450091841328e-01 7.169455234722750259e-01 -4.834000592201990187e-01 1.475689287397211613e-01 -6.627479744008245577e-01 9.626891268388948486e-01 9.750966759116843630e-01 2.343254843650919850e-01 2.849071337474020083e-01 4.612697871452746123e-01 1.063794968859423040e+00 4.352127162294590068e-01 -7.983007923303785391e-01 6.538633684511596655e-01 7.590922776762520918e-01 5.380422873250790411e-03 1.413417096059514044e+00 2.248756588750005538e-03 4.514434291057107251e-01 -5.958788181768203129e-01 5.779729600506741116e-01 -1.027001875295139866e-01 4.493399909913493584e-01 -9.443735983231411613e-01 3.849272251186306448e-01 3.057437092137648138e-01 -5.162572734644236272e-01 -4.696899035563963098e-02 5.066539947944387334e-01 6.670001688074094215e-01 4.049311386245883493e-01 5.029168598177978788e-01 4.641015731061735594e-01 -6.834870154942371823e-01 1.196323236436143828e-01 -5.267793315195430370e-01 -9.298393968008587807e-02 -1.333025843257421537e-02 7.402907142527854756e-01 -4.428808665669108913e-01 5.218830781668488683e-01 6.791248293774551081e-01 -5.014449342119658981e-01 -3.641107682376696908e-01 9.170692503139682428e-01 -4.479455109023033343e-01 6.214844598680220322e-01 -8.377650703562913304e-01 -6.089265356405858531e-01 2.584529986068242469e-01 5.131910824840791863e-01 9.274933376272667934e-04 2.028245119260670692e-01 -3.934616976165817293e-01 -4.026865240466678819e-01 5.278303928470244877e-01 5.212495201175752074e-02 -9.036056529517945135e-01 -5.622056851785381948e-01 -1.100762658156480889e+00 -2.012538861365885667e-01 3.027217707999363405e-01 -6.970871037969060824e-01 7.284308401903658546e-03 -9.070217038728183023e-02 4.801577606814482618e-02 6.420102919782788575e-01 -4.777573400196520326e-01 1.434880126536339784e-01 5.850609416106444804e-01 1.787479653613347763e-01 1.265177946639158835e+00 -2.083184859992625870e-01 3.085987250825998895e-01 5.575430409219401806e-01 -3.641968397934543522e-01 -7.920678252045149081e-01 -8.725108574197858180e-02 4.627544533868899745e-01 -2.784927515766811856e-01 8.438695404638335562e-01 -6.199471329222420168e-01 -4.940076122282708315e-01 -9.663645166923306995e-01 -7.066700097333955544e-01 6.769508802526463809e-01 -9.917850021520852044e-01 -4.054359709427669128e-02 6.635513668747219374e-01 -9.514396138030444261e-01 -5.561340208956422337e-01 7.387430597429641699e-01 6.863280187317405412e-01 7.943276409040437303e-01 -6.298378099353827420e-01 5.171569978550549784e-01 -3.937391277612042328e-01 7.059212005814350377e-01 1.045366104204506819e+00 3.130741952146421370e-01 2.773473333769648219e-01 7.583262863965508638e-01 -6.998353688843249598e-01 -6.581406962288138818e-01 -1.120723785135258721e+00 1.740860090818753814e-01 -1.417039364992366823e-01 -3.037737105089644007e-01 7.958877018690986294e-01 -3.576851973061999646e-01 -5.778920302344435767e-01 -1.232930955821599645e-01 -8.472207958116750870e-01 -5.181262626889991153e-03 1.950622678473785954e-01 -1.053390398391857552e+00 -2.839566640026518485e-01 -6.079303978760450811e-01 -8.673870312874537580e-01 6.060669372634263086e-01 -7.140630814633730505e-01 6.747115931122811272e-01 1.013551542291822649e+00 -1.152595901508976922e-01 -1.010605322438924009e-01 -6.240806339708887540e-01 2.163703620541768124e-01 6.607285613576221461e-01 1.007270042782180824e-01 2.866931337651361655e-01 5.079860374554473479e-01 -9.496533576575723057e-01 -2.701081145799981154e-01 -9.464879269100635595e-01 6.742943049557911239e-01 -2.221355248574252150e-01 -2.378500207010012524e-01 7.255326153027561453e-01 6.048719959893215092e-01 -6.533823632217768962e-01 3.328732086204549967e-01 -4.028120969701129428e-01 -1.889210733351124882e-01 5.078087012088321472e-01 8.681346289823348439e-01 4.599528890771857337e-01 5.490491604111449320e-01 -7.434334398001148925e-01 8.550132248703108673e-02 -2.436131355807840959e-01 -8.664006817906010072e-02 7.879898417334274541e-01 9.928905587082471618e-01 9.581704656631899741e-01 1.009179484713668140e+00 8.955536970837295330e-02 -5.715811315912813079e-02 -5.509962895500010172e-01 -6.128162377368795433e-01 9.550196125231338873e-02 -6.704832667322699336e-02 3.981133389107682774e-01 1.677134218859686332e-01 4.040227021675759644e-01 -6.716837492458008763e-01 1.493654806351646103e-01 -2.841698169375419525e-01 -3.719461380692425934e-01 -4.749626303754149736e-01 -1.006768289594365262e+00 -7.577977021474288088e-01 1.317564578603375169e-01 -5.534152572304166240e-01 6.440702873169735776e-01 2.644927346767476650e-01 -7.816614978201517072e-01 -2.025422871233734379e-01 3.167069621217471487e-01 -6.736682574759845776e-01 1.036976946814200495e+00 7.448803394198912908e-01 3.056695208731070035e-01 5.368827706364233121e-01 4.528847189294814002e-01 7.849883185296775423e-01 -6.965497450610833585e-01 -7.269787457899390404e-01 7.634921212586140982e-01 -1.044176280106551724e+00 -1.166756348180302938e+00 1.598899877449168894e-01 3.841594057864614054e-01 -6.265585453536122174e-01 -6.785246628538575964e-01 -1.002744167045872992e+00 8.118401070540257614e-01 2.685326879607722872e-01 -1.222511517760315886e-01 -4.082340137220829557e-01 7.019965951917938041e-01 -6.745930693904976516e-02 2.538372623716065313e-01 -4.875245638085175248e-02 -9.520590291539375583e-02 7.961970286808834896e-01 -2.013721590871174194e-01 -7.432087172140793285e-01 7.402411935432177126e-01 2.818360082425072632e-01 1.143617193918973873e+00 9.017403138100852367e-01 3.353108969467896161e-01 1.003283331694036606e+00 -7.272201277077340320e-01 6.657621425661922610e-01 -9.728687751978015719e-01 -1.688652565566157171e-01 6.814394594417363393e-01 -8.635266883230506840e-01 7.874254167542520388e-01 -3.689810218981871004e-01 -4.228570052891806874e-01 4.523788963235293448e-01 2.745110874606107587e-01 -2.460280043236137137e-01 -1.768575343725895810e-01 4.129594032870000375e-01 -7.548829426586610714e-01 -2.387298468011558872e-01 6.406171143594239226e-01 6.301793679520373281e-01 7.180220353028328173e-01 -1.149944516893455920e-01 9.574762126618368008e-01 2.211201966442764566e-01 -4.248990306332949829e-01 4.300588338336536198e-01 -2.461379568876976565e-01 -2.099267733100995403e-01 1.230662013274388400e+00 3.354845797370578087e-01 9.939948123575734762e-01 -3.803034074457120606e-01 -8.817721881142327467e-01 8.534988566675083543e-01 -1.487724297313673845e-03 9.720287528909875574e-01 2.011862552488376810e-01 -4.118277235921836282e-02 8.154531853078182679e-02 9.474962864610783075e-01 -7.251368971012174258e-01 6.885512319260832237e-02 1.620914030867695033e-01 -9.266941606430537659e-01 -5.859029825100959821e-01 4.176075022737295583e-01 -8.239080308541560371e-02 -2.386953700353001140e-01 -2.570968853883768279e-01 5.472781551632922847e-02 3.322829722701123867e-01 3.279310187546266575e-01 -5.556056092786512135e-01 2.926198128317951674e-01 -3.444540535216235322e-02 -6.023201068081591725e-01 2.131881045338387681e-01 1.130264887131715801e+00 -4.849966793382498031e-01 5.236307920269323013e-01 -5.329550966082547969e-01 -6.338531133168890941e-01 -1.938475262368621610e-01 -1.817195633354988238e-01 1.504669252495655085e-01 -1.179143099865944955e-01 -7.769113750607019586e-01 -6.466533616306825438e-01 6.185107119798526343e-01 -1.935540466781515145e-01 7.604046004845990137e-01 8.649024742395361454e-01 6.254795307235413437e-01 -9.237814966341566514e-01 -6.813635803791033840e-01 -2.471391475217254441e-01 -6.774621251677167555e-01 -8.462610699884581811e-01 4.642558090234337742e-01 4.946714290852144424e-01 9.794710464702496289e-01 9.520968273814467420e-01 9.359152262054231119e-01 -7.646194685204013020e-01 -4.039283187546097720e-01 -4.192132917298134753e-01 -5.025311932096002687e-01 7.969268874208984554e-01 -7.281588386453878570e-02 -4.821823860833196473e-01 -4.436689885533613986e-01 3.625331646173480249e-01 7.252132716693133752e-01 -2.261768320544556565e-01 7.078206000680357102e-01 -2.982102078143898383e-01 1.969544664377652077e-01 1.499393662463414101e-01 6.037598007341001827e-01 5.841882387365971985e-01 -1.688794790005508917e-01 -8.748769720126538252e-02 7.833573501800692451e-01 2.400107448348955674e-01 2.622945230404247208e-02 -7.144219167067266119e-01 -5.909518419506455400e-01 5.783331218219533998e-01 -2.419662851026995465e-01 9.374593325725172344e-01 7.576356178898191462e-01 1.206490915316802193e+00 3.670199454421559371e-01 8.292913832310891964e-01 -2.542617505428094171e-01 -3.983541137717890729e-02 -2.956721909180338725e-01 -4.862492058592601252e-01 -5.703504904445021173e-02 -7.065302006374600818e-01 3.575855776818689935e-01 5.052368885691407296e-01 1.163977421229415166e+00 3.127651454444255741e-01 1.176964807065748186e-01 -5.085018819419677705e-01 -3.222990344189755052e-01 3.798082341666530470e-01 2.101198164644187127e-01 5.720781148785419878e-01 2.057105311725777042e-01 2.382602113404587788e-02 1.803425695603249335e-01 6.298538282797548904e-01 2.007733327527533584e-01 2.719539002916283518e-02 -1.765190822234355417e-01 8.860741320369482088e-02 9.461949787666770195e-01 -1.037806261225217991e-01 -3.881428942145188077e-01 6.157618960446976653e-01 2.363214707396092407e-01 -1.541436137883489543e-01 6.817090635770695073e-01 5.701011756362599492e-01 -2.379887024894661862e-01 -7.564973284420564159e-01 6.710353926021831450e-01 5.944508477784867795e-01 -6.444452218608189842e-01 2.840105371052278338e-01 -2.504024744008158734e-02 1.630919240258595637e-01 3.133687791461449712e-01 8.730383616694896709e-01 -2.080449053182860664e-01 -9.803105490004827560e-01 -1.983401811853993668e-01 5.422550027078760770e-01 5.120099164634365208e-01 1.449612996330040815e-01 2.834714618553497711e-01 -4.584038354487017242e-01 -6.487728708980844416e-01 -6.903578831859047416e-01 6.588482880946805453e-02 -1.393891784592399263e-01 6.873804990819690763e-01 1.628396342844908029e-01 4.264263746444901804e-01 -5.338513322330461497e-01 8.448959830816668015e-01 -4.797521189708728873e-01 -8.080775314046280133e-01 -6.062533744852514062e-01 -7.016711756152677060e-01 5.883762851338474320e-01 2.671212998717420462e-01 -3.966155805911796284e-01 6.838786774184721917e-01 -1.600444883713563748e-01 5.570842075164365026e-01 8.044936119691938892e-01 1.854340064633061003e-01 8.907908008704773506e-01 5.782799000026024316e-01 -6.752197259493051273e-01 -4.940986023152907913e-01 -6.423584483631961106e-01 2.212624651497740735e-01 9.273263821889441427e-01 4.540573621202479426e-01 -1.827690986037727450e-01 -2.987839148214040397e-01 8.823606977082135705e-01 -3.855789686398318206e-01 -1.068184095604702982e-01 1.103731487138076561e+00 -5.073384835926476599e-01 -8.361720052519494573e-01 -3.507927161350035683e-01 1.081610222007543198e+00 2.046109825945724159e-01 -7.701161850090013639e-01 -5.488788018967759585e-01 1.000010032101721347e+00 9.470045489326822663e-01 5.574983834985465236e-01 1.376630878413814263e-01 2.525232443004321037e-01 -8.657212207112483515e-01 -1.442651247561585470e-01 1.648462772130452891e-01 -6.113783434020674257e-01 -2.454871511005090046e-01 4.976807242784028196e-01 -9.574178010679796902e-01 9.115901117851837876e-01 7.838142319853486084e-01 -1.018124836228819996e+00 5.220126735899135451e-01 4.086240777938610624e-01 -3.987003428919454473e-01 -1.324153230322210328e-01 -5.053858852688757342e-01 7.633216879694757484e-01 2.614333129988833382e-01 4.889784914638484747e-01 -9.858614218452653455e-02 4.379735190761498420e-01 -6.561074020218622405e-01 -4.286284488642908702e-02 -2.425811088594811982e-01 -8.123457523055068741e-01 7.997035211164899016e-01 6.823597206211289290e-01 9.366230800941195422e-01 1.754174136389458349e-01 7.807268460323287806e-01 5.228571944236642954e-01 2.557902262622528400e-01 -2.461438485853242319e-01 4.945781139095279944e-01 7.266957564306665285e-01 6.572048829593308827e-01 6.264923289065160716e-01 6.611282944822004515e-01 -9.660621654494223887e-02 6.009794184696041208e-01 1.898349714397958576e-01 4.349016546853158860e-01 -4.433926670818055110e-02 -6.292996892937523512e-01 -6.489201616295720010e-02 3.663341414160807274e-01 -9.089718705130528376e-01 -1.809088013146094298e-01 -5.802699253298261306e-01 -4.536334067037144924e-01 -3.692858398720483271e-01 6.797688075310670541e-01 8.814300373083335804e-01 -4.465899713016713291e-01 -5.733167824151568226e-01 -8.276192114372932229e-01 2.992471890175217863e-01 -2.268943618110993432e-01 7.032518048862608229e-01 -8.156141067470944472e-01 -2.152433775161610718e-01 -7.618664997205861766e-01 7.090867534404776684e-02 9.925244131262278557e-02 -5.051439094788600093e-01 -3.375530905146078564e-01 1.143475294799605191e-01 1.759820628970123202e-01 -7.312912453665444158e-03 -4.662993730394276448e-01 3.621707186231945541e-01 -4.242053244585886063e-02 7.707243880244931677e-01 5.393412097313721176e-01 -4.218979251582755108e-01 7.479294749100651174e-01 7.205640419248922068e-01 5.117611054269388671e-01 -8.810948398238258594e-01 -1.360874766085617971e-02 -7.704205326854349778e-01 -2.104074404444902235e-01 -4.448283473443370717e-01 -7.524024734494869637e-01 2.291034874250947873e-01 3.952949275199892920e-01 5.558018422771013878e-01 -5.716687437516005943e-01 6.040003687344837058e-01
-7.725451409658545820e-01 8.812182132012642555e-01 -3.545243360821637157e-01 -4.350212499774013253e-01 8.160531284380296846e-01 -8.010599716828430417e-01 8.995110617105968043e-01 7.342848065931397716e-01 8.833819030687217744e-01 9.640626006854691177e-02 -6.869343542746157993e-01 -9.765197567079764163e-01 5.607643158144534068e-01 2.404892134343899202e-01 -8.850426250387439797e-01 7.310082312862633547e-01 8.097508618749964526e-01 -7.545798672834072018e-01 5.069125546420883976e-01 9.704917269918933442e-01 6.537115046499514248e-01 -3.077170652945939722e-01 5.173104737105753692e-01 -4.178200595541461393e-01 -7.151527669775654683e-01 2.170787417798090146e-01 -1.826525967856280630e-01 -2.455218150988940362e-01 -9.287182183295026316e-01 -2.384935065379312769e-01 -6.805047082522057700e-01 -5.725645815617395051e-01 1.100873050738377518e-01 2.490107608451229138e-01 1.279983429322011437e-02 -1.621978520601105034e-01 9.256766408781186284e-01 -4.486577920042454370e-01 9.002768934987446237e-01 -4.790631709366945934e-01 -6.951931095550976103e-01 -3.629004463773686240e-01 5.185790067900593048e-01 -8.553982001434921045e-01 -7.516919022373307335e-01 -1.711406496773676122e-01 9.262556094330256506e-01 -4.420165785885410425e-01 -8.650075578016437339e-01 -5.326693465395206106e-02 9.450195311205763504e-01 -4.355078021128776511e-01 -2.888451009762734167e-01 4.693901821155668230e-01 4.564535854988157615e-01 9.762852508760142545e-01 -4.613976245635953433e-02 -9.491916355021210450e-01 -7.644157773050493931e-01 -9.485221845124321496e-03 5.709670492797677133e-01 -1.003284989455586196e+00 7.121425518566243396e-01 -2.062985792288923592e-01 7.124650020027516462e-01 -4.424588663683206025e-01 -1.651675015143476977e-01 3.272664771823262098e-01 6.946659588151226083e-01 -7.160440561545812210e-01 1.065301537587896030e+00 2.875509501100571574e-01 -2.090609207636646150e-01 -5.721122391637795124e-01 -5.555194005529825452e-01 -3.896013310171651534e-01 1.663708448912994686e-01 -1.713311317644217735e-01 -7.208846114108083958e-01 -4.423732906503277107e-01 4.299396598796235702e-01 -9.233645403992726264e-01 5.606381224658731899e-01 -3.361147789036628697e-01 9.196976881063199105e-01 -7.862940105328440898e-01 -6.473432732923345423e-01 -2.854934298031150397e-01 -7.023817251379009807e-01 7.167512898943709798e-01 -4.279205777165520641e-01 -1.532562133398369941e-01 -5.150223432206262331e-01 -6.581528923612717241e-01 6.172114762310919600e-01 -5.813679363345347628e-01 -1.478436670906942696e-01 -6.155160539844239942e-01 -3.359860386118208031e-01 1.072688173393766764e+00 3.157045312219480815e-01 -6.550806903604835529e-01 -6.538853827223646553e-02 6.624391640013517213e-01 -5.247639987281175200e-01 1.963871828872204295e-01 3.897633635322068080e-01 2.886577795619834630e-01 6.392711129044494900e-01 -4.725253749020600358e-01 2.860683056331531082e-01 9.300109472259022736e-01 -2.689474119456511936e-01 5.258080743476527541e-01 -5.960718663494993796e-01 -9.381150633972258346e-01 2.451281868075393944e-01 -1.062171764440028587e+00 6.574533155832193998e-01 1.474739963442505200e-02 6.967192607476555555e-01 8.845828868584422189e-01 7.007558525617014755e-01 1.908314788492087022e-01 -3.629103455639026143e-01 2.115922191336802871e-01 -1.678504680558708662e-01 1.021991006037760025e-01 4.618492993030240412e-01 -5.684338913068578414e-01 -7.594351813968948095e-01 4.520813216454293015e-01 -2.330866702938005353e-01 -4.941511264418811944e-01 -1.055046386298784444e+00 2.850631258249770594e-01 -9.832435728283825949e-01 9.815623309683753073e-01 4.368976033626834621e-01 4.777744484982434647e-01 3.119831441916879333e-01 1.145328227939114152e-01 3.353401025373567990e-01 7.495323439889477468e-01 -1.564981881534154018e-01 -8.815479903355766256e-01 -7.301065133878198443e-01 1.753042336817270674e-01 2.936378074798764448e-01 9.869249283448798815e-01 4.004802332253410563e-03 -7.069105171104834717e-01 3.214739380053838746e-01 2.458614048900638061e-01 7.499684701960513955e-01 -5.790335636881310810e-01 5.725702732368138648e-01 -5.699957569455930129e-01 4.332996455656737411e-01 -2.016593297021282427e-01 -9.374217092950262731e-02 -2.186971941300957512e-01 7.582600170910378523e-01 -8.948250835772736389e-01 3.104980119375242431e-01 -2.728312425949031561e-01 4.484680719803133681e-02 -4.612407808035112744e-01 6.996366254906809523e-01 -7.244712198035224704e-01 1.809456264012017090e-01 6.290206911121503097e-01 7.588084953105421748e-01 6.500729373762503815e-01 -3.508347041373753306e-01 -2.718019984415781520e-01 -5.936550991197668825e-01 -4.929048100753399830e-01 -2.555324366732485974e-01 -1.327285176653980048e-01 -6.310306155200854361e-01 5.634720872715796025e-01 6.762641669853565185e-01 4.658988994423608476e-01 -8.632198173718074186e-01 2.690700650361976809e-01 3.749117246698811801e-02 5.852377796810552535e-02 -7.917588401565250900e-01 3.141485577591549005e-01 -5.806407473306600675e-01 8.061169881092329348e-01 -5.754634517045426056e-01 -5.326007013136473400e-01 -5.857148425889184828e-01 -5.615380546209214341e-01 1.629691204644998503e-01 9.930906701530830549e-01 -8.241598153854544639e-01 9.427889212026079047e-02 -7.012551407484763910e-01 -1.703235774844532868e-01 -3.745934078677524148e-01 -2.334413837538830416e-01 -1.657973801148105164e-01 1.084959241825654175e+00 8.159886674564753584e-02 -4.619094620123980199e-01 9.838678021772264692e-01 1.017019399828893444e+00 -4.171514361151521522e-01 -6.915477774679186507e-02 2.506528633980056875e-01 1.581084338785418986e-01 1.166449534079303241e-01 4.436106602338583116e-01 -4.020931676005091993e-02 4.286682426941041402e-01 9.350749003880363258e-03 4.902160255376357134e-01 9.156446002376492643e-01 1.903901393801175901e-02 5.915265654693458580e-02 -4.505597807498056828e-01 -7.652036540321059954e-01 8.281223668960501216e-01 -9.016617903521597643e-01 9.706296195892164524e-01 8.407445440561150951e-01 -7.079357980935833961e-02 1.262180673380862483e+00 -2.892399320860535306e-01 3.087708639434468272e-01 2.491835923578458178e-01 8.552797423091519358e-01 -2.447481590840206167e-01 -2.249924757857465207e-01 -8.534780034724994691e-01 7.352219000138872085e-01 4.371011735645368573e-02 -8.685283747852287073e-01 2.438979070473879310e-02 -3.918148498869540308e-01 2.167997497074727886e-01 5.245936824479221355e-02 -5.981639534318117235e-02 5.314155244076959050e-01 -5.138921510242154822e-01 -9.038581982657072078e-02 -8.321776677102039610e-01 -9.927226973789305964e-01 -9.592191665871205863e-01 6.260727968073698246e-01 5.420378397696876682e-01 -6.411232283698676815e-01 1.169957748476367770e-01 -9.772717690954001168e-02 2.541029023384031582e-01 -3.831742111536743378e-01 4.348154542851550008e-01 2.749457725324707669e-01 3.233320643683486595e-01 7.307619830496198121e-01 1.991104124311866494e-02 5.407675053867634363e-01 -7.192470653002043246e-01 6.582978099767893276e-01 6.873944429474501128e-01 -4.135465681354639766e-01 -3.194992347137385891e-01 -1.888188037210035419e-01 -2.217235573663553783e-01 8.410979954046621243e-01 1.776015456706846185e-01 6.437587764475370677e-02 -2.462014383361096626e-01 -6.574275521554182600e-01 -7.186588056311236095e-01 5.322113374772411420e-01 9.970112797234906843e-01 -7.583499246365977831e-01 1.309850339189185531e-01 4.425584450236177969e-01 -5.097043592107076693e-01 -7.899017610901840625e-01 -7.415415796827365402e-02 -2.082417779483810849e-01 -2.045858239313574356e-01 2.709067268706916165e-01 -4.835610165154496376e-01 7.512095009897920006e-01 -8.276633516539252389e-01 6.956611916330691647e-01 -3.852395796986269327e-01 -2.031625814044988321e-01 -5.479202158822265023e-01 -7.124720503655030956e-01 8.144399002052994385e-01 -5.465320223098549812e-01 -1.505602492275969762e-01 -8.655865518612095855e-01 -4.567431493388904862e-01 -5.849286359272595215e-01 -6.369132410887154983e-01 7.908745493808817528e-01 7.128219285891813639e-01 -3.140898930907056741e-01 1.679916234268176156e-01 -8.798604383160741893e-01 5.968222335980070126e-01 -2.260218782566453255e-01 -4.959100533297478020e-01 2.306593498678590481e-01 8.146846238603118184e-01 -8.289769409670206812e-01 -8.896254963008357608e-01 -3.755032543470318562e-01 9.279604034103932086e-01 9.772792432049933753e-01 -2.242754824443587147e-01 1.402719706185836992e-03 -1.882353111478695940e-01 -8.929444143081080032e-01 6.000342984413451486e-01 -9.300830679504485179e-03 -8.199046683693209658e-01 -8.287195787435768235e-01 -7.937907862848317952e-01 4.245075487184973850e-01 -1.691283615861065848e-01 5.839479444946671371e-01 -8.709931461227349292e-01 -2.456954394370401418e-01 -4.190328531487534369e-01 -5.580786411250598933e-01 4.721513347713739983e-01 -4.669831800617592066e-01 -1.828418721793307611e-01 -5.609718394032203737e-01 -8.660321943281291679e-01 -1.178339338690580079e-01 6.881490734609307935e-01 -3.700042717562834760e-01 -2.476762889828274528e-01 6.120845067461311295e-01 5.239337617154624649e-01 -2.804023240901194758e-02 -5.995455917336672824e-01 3.012170994429034798e-01 2.569110778421859198e-01 2.763856100105920380e-03 2.996653727380622634e-01 -6.913042527422554040e-02 -5.356205634206000488e-01 5.305434499205374799e-01 -7.230127491976118259e-01 -3.649993484811335787e-01 4.263421267066515585e-01 4.631000523329006358e-01 2.089608229279829588e-01 8.773557596156712490e-01 7.184152395070745323e-01 8.178710694368418466e-01 2.116337138834465392e-01 8.983800808934351290e-01 -3.740527874733741431e-02 -4.360453735792088059e-01 -1.891979922491775767e-01 -1.917018842891592412e-01 -1.474348308023824272e-01 -1.073389154111082711e+00 -5.431604803328662356e-01 -1.668498236285719969e-03 1.023750431276654327e+00 5.028251429914389892e-01 -8.121258346128851224e-01 -2.975684081897043143e-01 4.177404834068728645e-01 2.539864023457287789e-01 7.291988835378682143e-01 -3.625339820628613041e-01 7.332475961434779810e-02 7.045240154967818969e-01 -5.472056020098139406e-01 -9.620354473025758552e-03 7.791977241817966693e-01 6.587368337687877773e-01 -2.860621858428554209e-01 2.623378726722484094e-02 7.264300400423837623e-01 4.672479213072291415e-01 5.056271836373469331e-01 -2.755341962644352466e-02 2.627045635111886490e-01 7.085752501136948212e-01 3.308222859017617701e-01 4.763666543512448670e-01 -9.487338724446128246e-01 -6.668218838808477322e-01 4.296246397259909089e-01 -4.924033692333371626e-01 4.443162206315385832e-01 6.800894597413141840e-01 -6.344685050401704940e-01 -8.685118178626856089e-01 2.243291258898268692e-01 -7.134117491366441799e-01 -1.025601241747951420e+00 -8.118323419219737325e-01 6.107836758507291519e-02 1.212888497001854277e-01 -6.855663374645293295e-01 -3.354942483794620678e-01 1.361726374187425814e-01 7.589501487223635490e-01 -9.023816777828096158e-02 8.458720720931487413e-01 -8.462372132909256051e-01 -9.062561725277827884e-01 -6.282133605231933204e-01 6.249883859185311197e-01 9.085732088417688423e-01 8.133429235003029056e-01 1.152817837004249113e-01 -2.106760098076899401e-01 4.350225694574890167e-01 3.561414101787901965e-01 6.607706084125334334e-01 -6.432549471788203688e-01 -4.421109874821719243e-01 -4.700085552378929221e-01 -3.645139494818653847e-01 7.938027842701396164e-01 -6.113426059059338113e-01 8.819776221022732621e-01 2.753036118046793823e-01 -3.557722244219146956e-01 1.648677748390799391e-01 -1.697431433717197236e-01 -6.779793066028890758e-01 1.816195441740308877e-02 -5.352331513735825164e-01 -4.025561275501335912e-01 -6.404920941030251003e-01 -6.853536368708680326e-01 -6.996960242427168186e-01 6.110192811810190028e-01 -1.128791935222599602e-01 -1.549383458997648233e-01 -4.787470795852430405e-02 -6.828028886375249185e-01 9.761725063853546880e-01 -9.062975332011770357e-02 9.815094786358942169e-01 3.945965912597080294e-01 -7.439429742424338299e-01 1.438287513051449695e-01 2.489813058425931203e-01 -8.156367326203683987e-01 -2.177777232725396639e-01 6.388789888623372937e-01 6.493173890719904362e-01 5.494100652393835160e-01 -1.234663991681761303e-01 -9.981678887816369805e-01 5.079166861779050857e-01 9.394157230497601763e-02 -8.585036883629483251e-01 8.986515123270305549e-01 8.840307197376466863e-01 2.965746145307968651e-01 8.699617801481688284e-01 4.481292440001293786e-01 -8.535821438742110523e-01 3.414681064385023390e-01 2.322314648628252820e-01 -1.903473041880637262e-01 -1.888213926951059218e-01 3.854157952816366639e-01 6.587128689672846482e-01 -2.802082363035092102e-02 4.995719436963492743e-01 -8.619765874555718188e-01 6.250543119107465628e-01 3.519398692485561364e-01 7.659670441183750178e-01 1.125228293754212405e+00 4.595117189151478043e-01 -3.659864192051509590e-02 -6.476921003755443662e-01 -8.066174660433955701e-01 -9.118756451465064028e-02 -1.857879172718111078e-03 -3.965393805070535627e-01 7.834324017157474618e-01 1.033179208229246138e+00 6.878146168404974947e-02 -6.169360899551080690e-01 1.265161480837575070e+00 9.406957510649817111e-01 -7.925206210513504601e-01 -1.660864581090085723e-01 1.321091146122621018e-01 2.823244646092147314e-01 -6.686326443984249579e-01 9.069242431699966467e-01 1.246565968777564731e-01 3.261928587875280450e-02 7.934555857185866534e-01 4.899349413814950149e-01 6.853582996665442684e-01 -7.166243692879284977e-01 7.356221485143789041e-01 -6.947208617939764075e-01 -2.786161017888881819e-01 7.865416394112191290e-01 4.715727846999140938e-01 -4.565670606867277548e-01 -3.048460521117862809e-01 4.171278165383105474e-01 1.224531040891126132e-01 1.077697008491693698e+00 1.315404681166102874e+00 -2.423540006998077811e-01 1.282214624994868712e+00 7.434498226232466589e-01 5.545304349631998697e-01 -2.592896575665168957e-01 1.757688572682552519e-01 7.037655690181976453e-01 4.836331150249171817e-01 -4.001436404911835054e-01 -9.617419268665109433e-01 -6.674065988806521244e-01 7.139665784083267797e-01 1.040853594291673678e+00 -2.927477475663103901e-01 1.186218521066921605e+00 8.576059572839008771e-01 1.695011342884647221e-01 -4.733277800576853878e-01 -2.032671326028458458e-01 6.671436075686221212e-01 2.593213558250588857e-01 6.633214494695718333e-01 -1.494033321346586729e-01 9.911016445722818646e-02 6.742197777939961112e-01 6.753462388861924959e-01 1.162642932380495875e+00 7.785663449532056468e-01 1.400901034660755551e+00 -2.204461401160391076e-01 8.143317145117447975e-01 1.303356678214178999e+00 -2.947389865455225522e-01 -2.256459484237405277e-02 6.195831053852611792e-01 -3.614585200584440883e-01 3.587523263627403480e-01 6.498923143695841675e-01 -5.985487556254611707e-01 3.309294639826584339e-01 7.779250555280076140e-01 3.745356620282466187e-01 4.371269932934310765e-01 4.704754970111376111e-01 1.405308360935665912e-01 8.263919798027012931e-01 -4.220967197114371960e-01 -6.453050644301651095e-01 -6.475342881502156311e-01 -2.850106378401606189e-01 6.435316432836414302e-01 8.665413197939200729e-02 9.679001548155071744e-01 3.370335212740339093e-01 7.921496615232430649e-01 -4.684736898394950555e-01 6.060416255467258040e-01 5.606938373257721597e-01 3.134175666422184259e-01 6.372261867123488743e-01 8.568165755211188950e-01 -1.225538100168954286e-01 -9.087438398691480845e-01 3.164764380904810936e-01 3.647489908256360547e-01 8.613983927004346119e-01 1.339101993777112587e-01 9.432612857591783362e-01 -2.775316596001889957e-01 -2.470951481494731428e-01 -1.368898730825890420e-01 1.521292568844138382e-01 -1.796637962679890621e-01 -4.403137960225868563e-01 -2.882764545302373693e-01 3.672864750329897787e-01 1.457791988799055083e-01 4.909930638295318395e-01 1.569776638725457474e-01 -1.172248045493885504e-01 -5.111217848201148328e-01 3.444077912745352466e-01 6.363625578376824743e-01 1.265170618741642050e+00 1.208485786423147745e+00 1.185746648682752147e+00 2.885139002185854729e-01 6.064206822471965852e-01 7.874434748034386811e-01 3.318184518573738528e-01 9.109623900832007626e-02 7.923733395487478903e-01 -8.960073880230895460e-01 9.247903654666701501e-01 7.465330390406645922e-01 -2.050395697436254439e-01 -4.992195203972665113e-02 6.606986606155366148e-01 5.144193819643529952e-01 -4.008400281210974248e-01 6.833660948615607467e-01 -4.744674934769082530e-01 -5.665499889808112838e-02 2.556716831143422408e-01 6.124944379918647597e-01 -1.732056222383921984e-01 1.639926518620518081e-01 7.624419818214859257e-01 3.761858602670979934e-01 -8.017793464455405528e-02 7.542483573799733110e-01 -1.309819845514855474e-01 1.008036594364179583e+00 3.061446655226188196e-02 1.064826822285263042e+00 -6.235786065512303189e-01 1.066679937993325389e+00 6.446544287809657936e-01 3.553014701128948682e-01 4.703456151088496184e-02 9.180896765931247927e-01 -1.999166986674082436e-01 5.348469287897206215e-01 4.965671726911784906e-02 -2.677988966364393542e-01 9.796736254732986149e-01 -6.565643391986775157e-01 6.191476878743834567e-01 6.750906908336490320e-01 -8.071563406697473964e-01 1.058561904135185694e-01 -6.904874351491870899e-01 -3.121898738650518701e-01 8.901069119106886918e-01 4.779812365468940616e-01 -2.099127562682489012e-01 4.426398321501494038e-01 5.518226732386226630e-01 3.501775758291459928e-01 1.019105434904383767e+00 -3.824762232872608303e-01 4.647352682172531946e-01 2.989780391864808595e-01 8.407993831853085576e-01 -7.433009123786796790e-01 -2.425951820527928737e-01 6.676949516068483303e-01 3.770459261498156356e-01 1.790863207129216317e-01 -2.086982300446678096e-01 -2.130061016694604903e-01 4.646846900406772507e-01 3.690051806091412256e-01 -1.674985571490078540e-01 -1.706161499009408722e-01 3.241164132621646710e-01 1.179824752039372177e-01 -7.041162562878743314e-01 9.452021638891052735e-01 4.087965571412017773e-01 -2.999284210233685299e-01 -4.035850171707840439e-01 -2.827383802627119747e-01 2.508148060030139237e-01 -5.784407450859849198e-02 4.100416685324746457e-01 1.010712368537065142e+00 6.145353639679450586e-01 3.755773125300958526e-01 3.862762171207653750e-01 -6.088804395322698904e-01 3.304279445259327153e-01 6.218699196777708327e-01 2.096793505233683907e-01 -6.154759805451188726e-01 5.206848427092166665e-01 -5.260172093695023587e-01 8.561018524568702048e-01 5.265205816591707055e-01 2.128790570813669236e-01 -6.195669672638891567e-01 -1.399702511977807540e-01 -3.757280200568511863e-01 -5.414313524213696383e-01 1.153906976927934869e+00 4.644068170981228150e-01 -4.312710930108245022e-01 3.392407530582176034e-01 5.109542387229445426e-01 -8.909764270763258498e-01 9.217454506181809171e-01 -4.941464869360300827e-01 5.480768835461827942e-02 5.176732173434402812e-02 7.904600145141947865e-01 9.810141758406656365e-01 -4.080712485204621709e-01 7.649988905071282153e-01 -5.977251525818138012e-01 6.197071854940264801e-01 6.739007259926462767e-01 -2.575759673472740041e-01 3.335051130491250571e-01 -7.105907907844203342e-01 -2.624240892081324272e-01 -2.368995151101098706e-01 -9.356243265548593729e-03 7.255174116452625110e-01 -9.139667343456334692e-01 3.587474613267403467e-01 -1.479345592163834322e-01 5.115073362261663981e-01 -5.339235139698130655e-02 1.315062281552028256e-01 8.462281465330052654e-01 -7.297977618826103630e-01 -5.452602541038314293e-02 -4.054329910583325813e-01 2.136100654950923716e-01 -9.046638088353157192e-01 -3.551328971020924485e-01 6.605382512822338681e-02 4.990293925937991371e-02 -7.936953809680369343e-01 9.922395563530771179e-02 4.647171220212246157e-01 7.863536379061170090e-01 8.395063797227779734e-01 6.387570716446881736e-02 -9.607004445268885195e-01 4.670553687578437030e-01 -8.804912771938561145e-01 -9.314282297622475948e-01 -3.847503588449656675e-01 6.238665698230054790e-01 -3.840380693092273479e-01 -7.367861240101859499e-01 3.449053812467003377e-01 -6.917547333237037410e-01 6.368327472407044054e-02 4.303659702683391153e-01 8.872828791074900412e-01 3.981631679949370062e-01 -6.564095277136861029e-02 9.514757201441013112e-01 -6.164907075864295427e-01 -8.797740376913620874e-01 9.984890385545878155e-01 2.836482302864777871e-01 6.669174605556427160e-01 2.181865336456088045e-01 5.179069614261468946e-01 -4.478252917090703722e-01 -9.343739561733674925e-01 6.560587503151176225e-01 4.545799361178481934e-01 8.395889636640536668e-01 -2.192592536233297640e-01 8.684645464153368799e-01 9.603759094709054533e-01 -7.436713474174700966e-01
1.504868337493108221e-01 6.306210015458435514e-01 -7.897376265194986367e-01 1.615935295665764659e-01 5.318330189500823924e-01 -2.059214982230670454e-01 -7.684416206768556190e-01 4.403467655926667224e-01 4.341174452129781258e-03 -9.666837460873489718e-01 -1.009771701142783140e-01 6.491861191595369451e-01 -2.608333895321202078e-01 -8.955502505869865626e-01 -7.000768079240195230e-02 5.899524719026133512e-01 -9.467642467131649475e-01 -5.653167045486905407e-01 -7.781017554277953607e-01 -5.117648929213758358e-01 9.919321431085676988e-01 2.627488848006698241e-01 9.144644878389887044e-01 6.828966214379001975e-01 -7.861132240681083516e-01 -1.981911129505242730e-01 7.340696685265772903e-01 2.811480924662745906e-01 5.454421728089968724e-01 -8.988383090432443545e-01 -1.289241465585120039e-01 -2.135571661233659577e-03 4.252890031911627511e-01 -3.430721427514550892e-01 8.099050550390384240e-01 -8.779384836735262265e-01 1.007400974783255743e+00 -7.471943815252112264e-01 6.767074367031444826e-01 6.089964936864457057e-01 6.861379803898803864e-01 6.750857342766061198e-01 3.376501961409521524e-01 -4.571225277229322148e-01 -6.026608946619165241e-01 9.646710044303892229e-01 1.541124690545822296e-01 -6.117110272012944439e-01 -3.036268718286077584e-01 7.371915157401444096e-01 6.500162354316180169e-01 -4.357525661357218305e-01 -9.084220889822249012e-02 8.744254964744410108e-01 -7.147003619031959687e-01 -3.906750572728237003e-01 5.348890069008453985e-01 1.729442582302428144e-01 8.209114384241534834e-01 -2.434830700703856377e-02 1.278520486400630818e-01 2.529037831934093927e-01 3.767582537267412102e-01 6.920950952045327176e-01 -2.605011850128797768e-01 -5.428213327934341415e-01 -2.583298755638117616e-01 4.386259209166436523e-01 2.973266572816042966e-02 5.357984118432330689e-01 -2.436373567691740849e-01 -3.573077444239904921e-01 7.658791551886446891e-01 5.929423210192998894e-01 2.956487938373696389e-01 3.049847651513585417e-02 -1.825780058030117281e-01 -6.685116929725936075e-01 -4.819654389871920741e-01 3.797082647310618397e-01 -4.572199850462606574e-01 1.934071611377257138e-01 -3.393444537030653185e-01 2.990398800780706412e-01 -3.850367523806148551e-01 5.566288560807968189e-01 -8.755210234049205509e-01 3.751050547068984220e-01 -5.425099080901870652e-01 4.350815455842554219e-02 8.594094477575141278e-02 -4.861940126191561795e-01 6.527084863382049962e-01 8.764665881510552703e-01 2.414999256368782488e-01 -5.900266433852975334e-01 9.656568803356960773e-01 3.504503981815693114e-01 -2.542475934325025277e-01 1.236479828250639956e+00 5.822061243610036074e-01 1.149776031901391882e+00 4.432249764985372043e-01 1.638093033166004575e-01 -5.049115315346299759e-01 7.806308516227047356e-01 4.669647169850545954e-01 -4.600630215064784312e-01 6.114710165802159647e-01 -2.747241186457922701e-01 -5.639150301841704405e-01 5.964079770960325488e-01 1.051215258229720173e-01 2.059061305561506183e-01 6.551223408640780566e-01 -1.947412500247645492e-02 -4.757009709222663751e-01 1.040675697433186109e+00 2.787019117763065434e-01 7.813678567778520323e-01 -8.698296852492397591e-01 -1.565751267852508732e-01 5.763971809575361982e-02 -5.823089581835884099e-01 3.018099107404091375e-01 1.888320904239607079e-01 -6.286535467233141938e-01 2.168028750529816806e-01 -6.330845580391414318e-01 7.724330352367050345e-01 1.288804787935373397e-01 -8.067773646382150332e-01 1.109711606061241751e+00 -3.968707588013253296e-01 2.881753690897218001e-01 9.828487673814445547e-01 -2.615079220224728052e-01 2.923839105724945764e-01 -1.046368732464844770e-01 7.322404062958233484e-02 1.148090866851602665e-01 -8.674729799091923654e-01 4.232797469277781166e-02 -2.885057855569665708e-02 3.481296468312468084e-01 -1.849204517995098607e-01 5.527525345660926348e-01 -6.070646053885681709e-02 9.846416197452291241e-01 3.077532066491037166e-01 -2.444879295162076804e-01 7.883379262767349627e-02 1.976803462066490102e-01 8.178500245463079521e-01 -6.002417566450274355e-01 -3.165873387523258919e-02 7.603068777736851080e-01 6.274756799913515648e-01 -1.092258852080294634e-02 -7.123062662563222069e-01 7.355478892449344164e-01 7.694752945512223219e-01 -3.982281810839485292e-01 7.018635551132597072e-01 3.551721500320126901e-01 1.019586798388012694e+00 -7.441510260484260897e-01 -9.403175214653872738e-01 7.248085422579690906e-01 -9.753089722347896284e-02 6.190353285673464434e-01 3.318970959589246927e-01 -1.073480167419739867e-01 6.148218479167935069e-01 1.165597323955128717e+00 5.198219564242296808e-01 -4.465908167733969591e-01 -4.349672965814857517e-01 6.528399530231900894e-01 -3.674477169581674141e-01 2.030887178241546909e-01 -1.026552115091073220e-01 5.041278551265839791e-01 1.727030487465975872e-01 8.734403612143276652e-02 -6.274090062964231551e-01 7.437689116233499043e-01 7.703314908068600864e-02 -4.915121605085335244e-01 8.184611276270572500e-01 1.178558559492249191e+00 4.614415461981016126e-02 1.041207080183179201e+00 3.282686468082726683e-02 -5.394507619321421421e-01 -8.537738693657508371e-01 5.567006827352102283e-01 -8.311123489351552873e-01 1.093508568243240386e+00 -1.324319830083198202e-01 8.850066895064390149e-01 9.240160646341785133e-01 3.395380914454118604e-01 5.313469539172583911e-01 -4.375774559329595470e-01 1.888379610365986949e-01 -2.757982888827940071e-01 2.553618387134991008e-01 -1.743897173115644961e-01 6.898620411690677967e-01 3.902713348799963233e-01 1.036414530820041202e+00 -3.658447383555040733e-01 8.673036656767314501e-01 2.301236633754551453e-01 2.856878949729861339e-01 1.024727467899021693e+00 -5.355909486625443083e-01 1.450481200682505467e-01 1.178284130577539779e+00 -3.161090192785201425e-01 4.066417093486897061e-01 9.049128510982702434e-01 3.719032055264628323e-01 5.791564772323261057e-01 -4.061304701486082580e-01 -2.750208415408916807e-01 1.056266124164175091e+00 2.855793120944369878e-01 -5.681782272496285202e-01 -2.363716177709500321e-01 5.434871758408210685e-01 9.968572666027859519e-01 4.791075248621318727e-01 1.040806114490798295e+00 -5.441882049007309430e-01 -1.299595070183798551e-01 5.795986954063561125e-01 -1.016385997302477057e-01 3.458003779936795197e-01 6.047844715987515940e-03 -5.572696356101245613e-02 6.454417836858935553e-01 -5.806302020012370918e-02 -3.325618935692278844e-01 -4.611080366343875969e-01 7.945688386118753277e-01 1.777573003508454708e-01 4.933437777033319316e-01 8.083066885562335546e-01 -4.050032751374207374e-01 -7.556576884604907507e-01 -3.655877854894448720e-02 3.646337485607952650e-02 2.042086542869092081e-01 -3.084198748298762616e-01 -8.707385242176889362e-01 1.738442507037462892e-01 -2.511998979300829674e-02 -2.566811976442106569e-01 1.263833506221604883e-02 1.099310171970728778e+00 7.699623992171776843e-01 8.248212973855816310e-01 1.399554129967332155e-03 6.912487949426094902e-01 1.930060412770138734e-01 6.737108885145221340e-03 -2.457132244213012795e-01 5.914349645556107316e-01 9.020485362496984960e-01 -6.844108751193919704e-02 2.837726054971572709e-01 8.907150541466147819e-01 6.597685240366402137e-01 1.236448267538076962e-01 5.018896181799797906e-01 4.803083457131461231e-01 -7.431089959431208536e-01 -4.121353641516016797e-01 9.498065775808597344e-01 6.389157880135947210e-01 7.047330033752882139e-01 -6.697190974654604334e-01 7.463412328578274968e-01 -6.860619386102184691e-01 -5.886089438334456414e-01 -5.216494326367480117e-01 5.054186470046776458e-01 -7.679804846669250340e-01 -4.866122868304573745e-01 5.479503884837098049e-01 -8.593447554861431970e-01 6.742066815562836046e-01 2.705095021616273354e-01 2.328707154280473257e-01 4.649536720489846897e-01 -2.101321068765718003e-01 -7.924129208512095124e-01 -3.696263745959934566e-01 1.418705391853939124e-01 -8.685975093400295499e-01 -1.932581607143362135e-01 6.013565921343440035e-01 1.044387307613972915e+00 -1.739632019913232019e-01 -9.848603910295209429e-01 4.151295176414183663e-01 5.573770189337434733e-01 8.696343354341922183e-01 8.688541177313250374e-01 7.229425002148723856e-01 -4.646565473557925374e-01 -7.237372153654474116e-02 -5.163759649456021172e-01 -4.695128916527320229e-01 -2.901744119914390074e-01 3.293324060818217935e-01 3.529921790032171103e-01 -7.193640347867942264e-01 6.486228337148703949e-01 -2.808237982582608150e-01 -7.374930713008430727e-01 1.881436996055161071e-01 4.928198272225262633e-01 -3.028882369598346336e-01 -7.309291063161658109e-01 8.126315653712615772e-01 -1.655501863071593971e-01 -2.696850701849439202e-01 4.315037935454064111e-01 8.648201628453883183e-01 6.301897872200348250e-01 -4.254233663851226810e-01 1.169550322994965946e-01 -7.810811687884624543e-01 4.493628461701623111e-01 3.472552826233911150e-01 -1.001085415635048770e-01 5.077622652658907443e-01 -1.088129532226836282e+00 -5.576556729313592031e-01 1.689469520337153752e-01 -1.383005287079545620e-01 -1.455639112543353209e-01 -5.513436287543191927e-01 -7.569752559560030125e-01 -5.454253462211964276e-01 2.561684312462769730e-01 4.909806363716328059e-01 -4.625010582425436167e-01 -9.909482647392603427e-01 5.049364415592166866e-01 5.161269335026123090e-02 2.981826188949208145e-01 -2.573255076007066044e-01 -1.039096417122870930e+00 4.578051023423483912e-01 -7.904645974025826805e-01 4.844278905618346065e-01 -2.231167826398691711e-01 -8.750928020779706884e-01 -7.334585326589823095e-01 3.179818851390579515e-01 -3.901057715839615914e-01 -9.553685624553263089e-01 -5.594713309684939961e-01 -3.617840306586562749e-01 -6.822484769272972871e-01 -2.940044156986145185e-01 -9.125497049590723941e-01 -1.316917215621926651e+00 2.841875300130967952e-02 -2.389383769587277995e-01 -6.041599419209292554e-01 -3.757296151195557710e-01 -3.449464308409842528e-01 2.073597535343150167e-01 -8.654464082502992817e-01 -4.055834312801641084e-01 2.704119768421208159e-01 -1.125912158398481022e+00 2.105951850942386350e-01 -2.410264440355512072e-01 -6.406025472822871603e-01 4.182370701701140225e-01 -7.067170454122456702e-01 -4.464856375279681600e-01 -3.282769983461519270e-01 5.943699792689397521e-01 -9.939653702229348520e-01 9.911315579366496431e-01 -2.789025210027093124e-02 8.706998949874071581e-02 8.675255103898074638e-02 -1.325125316299238021e+00 4.838385118243127003e-01 -6.548314937666468438e-01 -6.411036897084201325e-01 -6.437634891551793359e-01 -4.402241264148235023e-01 -8.160666533790758570e-02 -7.894473064171387833e-01 -4.375199096196475956e-01 -5.243126054421228810e-01 5.788294182478482819e-01 5.303719663929499228e-01 2.894108960867717850e-01 2.938512508240158083e-01 -6.269459105672422483e-01 -1.053894532759955593e+00 -6.855000279848966205e-01 2.194146032465352225e-01 -1.004561682756347052e+00 -8.742698632614098742e-01 4.589090924440663577e-01 -8.685824191493085600e-02 4.127801060764871299e-01 3.360455122317096976e-01 -2.522164527537006928e-01 -7.552212816750617508e-01 4.604186438961234140e-01 5.634736539175851794e-02 -2.991832459295465929e-01 6.936562094765215403e-02 -1.149139161126759179e+00 -2.087175964594605304e-01 3.012037829647001841e-01 5.945014780253085433e-03 9.191512465694721135e-01 3.093499250113703747e-01 9.100007694046329254e-01 -2.484785082276461388e-01 9.712068081256833851e-01 -6.867401117895831630e-01 -5.733331058291502025e-01 -4.720367955393220405e-01 6.713775572649651746e-01 -2.580296954112726304e-01 -5.733302550981754786e-01 -8.348827371193270341e-01 3.385250741296412791e-01 -7.971284835609363517e-01 -6.112431927427780520e-01 7.197625546959395271e-01 -8.469605920880446392e-01 -4.463938198170947641e-02 -5.024698720377911432e-01 -5.408409292750719910e-01 9.461281147316478179e-01 -8.707569290639972648e-01 -9.373517416613238451e-01 -1.708277510008909816e-01 -4.251437254680512368e-01 -6.188464360622986105e-01 2.769119850853226095e-01 -7.260468640856921896e-01 -3.636825343370242991e-01 2.785200587098095593e-01 -7.977048006980451689e-01 8.111707239050998108e-01 -5.070227803224278684e-01 7.561245772032589851e-01 -1.364324225163216220e-01 -7.344772326726238809e-01 -4.378120902251363966e-01 9.266818570142187905e-02 4.852660998604996778e-01 -8.526814115480134681e-01 -1.108579703984961633e-03 -6.125596856591489781e-01 1.051495871602315724e+00 8.931076184625902359e-01 5.808291506908292989e-01 7.793581307836479344e-02 3.108861560441382732e-01 7.312163048814556143e-01 1.131509907916789515e-01 4.578925378561093384e-01 -3.053045871110208753e-01 -1.466257967833007048e-01 -2.534358597232636012e-01 6.526328443091958809e-01 -4.570931813676605282e-01 7.641367024581743883e-02 3.828062788147040263e-01 -5.103132881043833668e-01 7.206088661037560739e-01 -4.033634913329328664e-01 -5.131760898887611777e-01 -2.614632059780262474e-01 -5.524591246308528936e-01 -7.959101965437890280e-01 -2.765396181182599653e-02 2.923010546118712250e-01 7.357576869138584552e-01 -6.918913700702294944e-01 8.455896980248794881e-01 3.056772894102431914e-01 -4.282501407488816803e-01 9.697600220655389069e-01 8.533294681779790558e-01 5.654531688404073053e-01 -7.339592721104993833e-01 -5.778397172361603440e-01 -9.119921561818034039e-01 6.516631565959122296e-01 -1.522415145390508817e-01 -7.882872067772259683e-01 -5.877272126884344194e-01 1.057175210994025116e+00 6.114738574988499709e-01 9.989608152540885300e-02 -6.189482065131205468e-01 1.876417543875288363e-01 -7.714893328024720054e-01 -8.551854479717897473e-01 -5.728757912849198330e-01 8.682385614920308525e-02 1.876872017964284212e-01 6.082032324013513652e-02 -6.560053657337725497e-01 -3.518891517331002583e-01 -1.619751963036845099e-01 -2.342597752362815811e-01 9.943189805463009678e-01 8.731251999168730960e-01 4.575108318108258021e-01 -1.394521451619922525e-01 -4.419890218900612844e-01 -7.215639576620529461e-01 9.953746754814882802e-01 -2.778777119895724235e-02 2.836937192197828694e-01 -3.486351427434203343e-02 7.901000619409823678e-01 9.777715773782196251e-01 4.987163395422514883e-02 -4.098050504967073460e-01 -3.429939135704238584e-01 -1.787250880337886705e-01 1.669933921228418383e-01 4.633204707476006323e-01 -3.521316129895715741e-01 -3.315252610195675853e-01 9.577574367528980670e-02 -3.121875007142117520e-01 -2.658343667835356694e-01 9.213503655610401077e-01 2.724113747694408283e-01 -2.998419375307319612e-01 -4.298659250963349915e-02 1.113572439969570782e+00 2.706910639373216743e-01 1.026730407483425589e+00 1.976735939548596999e-01 7.749053035997494066e-01 -1.723475224230186509e-01 7.818526118462310048e-01 -2.313642892219756053e-01 -6.388435784871066003e-01 -2.215398080024762739e-01 8.651468469087727486e-01 7.417212878549901411e-01 -6.508588403237935971e-01 -5.259762678135531111e-01 -5.773646705927452105e-01 3.078507333699221360e-01 -7.916396797091140858e-01 -8.143219641952954835e-02 6.654846427985620094e-01 1.352094618428688333e-01 2.647399378027260330e-01 -6.987589006263507374e-02 2.802408394481873399e-01 -6.037225922632796227e-01 1.678792269607527754e-01 -2.915560063883749220e-01 -4.736451368557600961e-01 3.201668036242310000e-01 -5.790664919541417266e-01 3.710183652695312473e-01 -4.078269559958083712e-01 -1.431605111923004159e-01 6.320055969609166269e-01 4.502830725202639495e-01 -4.965239106135551084e-01 1.100126219346333478e-01 -2.195834258975827846e-01 -7.226692336509951686e-02 -1.462542100416218127e-01 -6.703964948632633314e-02 -3.367301347117483967e-01 -3.616119196214347964e-01 2.610001629428889136e-01 -4.102339913476334976e-01 7.826118764803462469e-01 8.491739295579592284e-01 8.559642572599900079e-02 4.666406200009796668e-01 -4.809929967019715980e-01 5.401872515374633171e-02 1.760775481134524145e-01 1.579824678485439726e-01 -4.743629925994459762e-01 5.707187424336727100e-01 5.193737196276372314e-01 -6.115835833507207164e-01 7.847172238637812880e-01 3.146498803211888462e-01 -4.760272499751280195e-01 4.111871441733391253e-01 1.073888092998135091e-01 3.895978627553543516e-01 -3.856680874318813568e-01 -5.791942514368154660e-01 3.968068876114049237e-01 -5.465402511993752155e-01 -2.467914160781883859e-01 -5.648276397342356231e-02 -2.696307969150423256e-01 -6.887705434540407623e-01 -4.481977143610358372e-01 -1.185988663586522301e-01 1.066010037289020912e-01 -4.698863818491801070e-02 3.697610212946444985e-01 9.818254864897628664e-01 1.251408283875839189e-01 2.997000097936948770e-01 5.255639141023328298e-01 5.812143663728533971e-01 -1.696488708688634051e-01 4.418344476045601987e-01 -2.058195268395069943e-01 9.222257112129574053e-03 6.424493662329268107e-01 -3.759382461474947146e-01 -7.423463921941735322e-01 -6.999967123286057191e-01 8.303880758413989538e-01 2.457018827004732800e-02 -8.175541597390977300e-01 3.772344371326174506e-01 -9.624812077146825684e-02 5.039151032090649629e-01 -8.402423421215141075e-02 1.134340734919239424e-01 -4.153788526679833004e-01 9.077179535650824194e-02 3.304799181792827251e-02 -6.981246550425022068e-01 1.873912780478853568e-01 -4.210976785683481771e-01 5.380447606026621532e-01 7.557960256070307414e-01 9.158462788037426971e-01 1.892874544898733025e-02 2.860311169738476503e-02 1.374254259206235118e-01 -7.159427614146499641e-01 -3.083538000598982920e-02 1.003832223278654956e+00 -5.065214644522193499e-01 -2.217405443013553967e-01 9.339875099419105986e-01 -8.159416352542075979e-01 2.637467997627352956e-01 -5.941180352360082573e-01 -4.045729765019266955e-01 5.013834014688325347e-01 -7.416807693562352810e-01 -8.065342844551812718e-01 -9.611427695532407389e-01 -6.547462512490495046e-01 3.138188006312250811e-01 -4.055760805359294729e-01 9.295292397283650976e-01 8.089411848489882484e-01 7.541884018691132063e-02 -5.940388900725769306e-01 3.471423561994373738e-03 8.621888159118406003e-01 -2.367503568935411806e-01 3.415056733895652785e-01 1.567819850007457216e-01 -4.951272595235827745e-01 6.219153465831985805e-01 -4.761854426513341121e-01 3.062491428014431638e-01 2.537051133381433565e-02 -1.610808766482141330e-01 4.480772680857535994e-01 -7.331735209777848206e-02 7.154235157986469362e-01 3.896342116253680987e-01 -8.389583565491166572e-01 5.421678947072727794e-01 -9.526828595038419056e-01 -6.187783953320893371e-01 -4.156059797255300392e-01 5.958060406674875464e-01 -3.155460092453786225e-01 4.081843687714118568e-02 5.731196368473634450e-01 -3.873479588795786799e-01 -4.819461689355010736e-01 -7.062558674896619593e-01 -6.157916548330184536e-01 5.935649199394480435e-01 9.464701120511802568e-01 1.983656875592260949e-01 -1.424297121247160569e-01 -1.432128777860462547e-02 9.682090479604006372e-01 9.615165212524647842e-01 -6.219183765362791272e-01 -2.963941733163318326e-01 -1.141952355553848969e-01 -5.861783515295834190e-01 -7.359557121087604292e-01 1.551381774078530174e-01 -3.681969939656056789e-01 7.265474903736419687e-01 -3.659364840872005309e-01 9.113007277111526694e-01 1.566967027171046745e-01 -7.214016363980211288e-01 7.202482260834635053e-01 -8.488942579073659456e-01 -5.819491536625518435e-01 -1.210411195818838354e-01 -8.630073838061834701e-01 -1.836758041626706528e-01 5.229063104363199654e-01 -6.083951440727192184e-01 -6.934291347652820070e-01 -4.400165422389417103e-01 -5.247186824679032080e-01 6.494700171202383299e-02 -1.973902086939142708e-01 9.998642695479263015e-03 -6.895407943540200757e-02 -1.927460484703449606e-01 -1.133194453820821068e-01 5.043643012869578612e-01 7.409196780969224960e-01 -7.566673754922060846e-01 -1.761643761530433672e-01 -7.946652278801051850e-01 8.629645480065010199e-01 -9.827036987807957757e-01 -5.284898088073712863e-01 -9.878301891058469675e-01 -1.034790420011278828e-01 3.401517119261012745e-01 1.559929189886668510e-01 -8.441245382535200736e-01 -7.905144727643873548e-01 6.781126414800844326e-01 -8.046070868903141271e-01 -2.170957543650755550e-01 -2.824840144058680114e-01 -9.318740093567241534e-01 8.963982366005981417e-01 5.676714503752250396e-01 3.356881508936333525e-01 2.464769048804809071e-01 7.143038262115746218e-01 8.714693876512822346e-01 8.317211577269413292e-01 1.290863798466537482e-01 5.006261262717865979e-01 6.761976527985469332e-02 -5.895944059686200056e-01 -3.792076512783277842e-01 5.623696235123574194e-01 4.482191295545112641e-01 2.929824168983998778e-01 3.139413559731532022e-01 -4.675489944175930113e-01 8.459131774201844589e-01 -3.048355656035037775e-01 7.457588192821560380e-01
