5.169427127598049676e-01 -3.600032668734627350e-01 6.351656932533167321e-02 -8.857532085705166480e-02 -1.479349096490343296e-01 -4.309166978565355244e-01 5.054217277670915998e-01 -9.222633564295195097e-01 -3.513462128737310231e-01 4.082053082285923562e-01 7.223049895419266786e-01 -8.052940628080544894e-01 -6.200837029096730596e-02 -7.739986223952466382e-01 -3.187058611074035652e-01 7.137397556670479482e-01 -7.746710605059374810e-01 3.414946746911473596e-01 -3.246983446313256305e-01 8.201776371309588143e-03 -6.964024386817713186e-01 4.492746011415660323e-01 -5.461483278018186560e-02 -6.906855575568817684e-01 1.143247764779329323e-01 2.942405003671970665e-01 -9.875518173064170568e-01 3.045319977385536614e-01 2.463977666719907589e-01 4.271663011595063786e-01 8.211239681885751374e-02 -2.539575477182942631e-01 -2.023490597772230337e-01 6.820118167932327502e-01 6.080127917010121896e-01 9.929402028280255588e-02 -8.304035560535157900e-01 4.420281899121982772e-01 5.629649596788335320e-01 8.792235042489691121e-01 -2.019423068169574897e-01 -8.559905694744198712e-01 -8.679567884125315436e-01 1.611925819526387749e-01 -9.229670462733960967e-01 -3.064979584937533863e-01 3.021495401047402662e-01 2.950308991408980841e-01 -1.464316008410263548e-01 -7.810398528232841420e-01 -6.205122064925913117e-01 9.882646814310309946e-02 3.665271779704026844e-01 8.847709717022100850e-01 -1.031089391592558968e-01 -6.359483914163359675e-01 -9.718838587614357927e-01 -9.817222690152580533e-01 5.002328378496995187e-01 3.559551613916222546e-01 -5.701702058963671327e-01 -9.322005735670012561e-01 9.125260110137284331e-01 -8.314622663699672289e-01 -3.819079400010557124e-01 2.670848137057216243e-01 -7.611310447679555669e-01 7.581264573790885697e-01 1.195645415558579429e-02 -1.357738430405869279e-02 3.178623097741964387e-01 -5.212625345521276765e-01 -3.961306713066631291e-01 4.457016356607838570e-01 -9.195174139756858711e-01 -6.589190197318556264e-01 1.464487123028339506e-02 -7.110576537168682432e-01 9.291566818658190119e-01 -2.881459184146687447e-01 -8.054464513533144965e-01 6.955330655876668100e-02 4.745934562655114153e-01 -5.224863047932832849e-01 6.602712647614379371e-01 2.823628377738229833e-01 -9.321088797043337593e-01 6.835071491101365471e-01 -5.993867818157179173e-01 -6.523138859920507571e-01 1.239068573368381915e-01 -2.538184616318738263e-01 -3.022902566609417807e-01 -8.839909354478839854e-01 -7.776865920617445083e-01 -5.387771266393026615e-01 2.498397826074638950e-01 6.001516371992507981e-01 -6.081311680707715550e-02 -2.599763772869317924e-01 3.290944562630621854e-03 -7.044371348529986365e-01 2.878685573107989115e-02 1.723587637079762591e-01 -5.808628716593657870e-01 -7.630936457984555110e-01 3.779160246197533352e-02 1.900531561121550916e-01 6.456869194359491360e-01 -4.846728208599727639e-01 8.170739989002135939e-01 -9.795465425628280265e-01 -1.871604824733696937e-02 -6.693281735687853784e-01 -7.791164729931548960e-01 4.124375184434547204e-01 -8.174158665008288693e-01 9.753550111173107939e-02 -5.120941690824400983e-01 1.067276360308857308e+00 -5.672841473628247311e-01 7.670493967959092219e-01 5.673883480362671428e-01 9.194635825564263787e-02 8.966543233875208518e-02 7.917008371202567396e-01 -3.124838616978514172e-01 5.157495209547191539e-01 3.636864229532369985e-01 4.324673697292724661e-02 -4.285092951056028165e-01 -4.466694232751435845e-01 -7.539540305493197536e-01 5.348076557756381577e-01 -6.019050657968957191e-02 -9.473182452360945360e-01 2.703916278378022398e-01 9.446532557751972092e-01 -7.054964846882546547e-01 4.099776487606346387e-01 -8.705875620889687028e-01 -4.704922266502518102e-01 3.052265407886443627e-01 7.145575694629231478e-01 -9.291778393901916067e-01 -7.297384277332975566e-01 5.229600473574681774e-02 4.154235512260638363e-01 2.449186901102604324e-03 -3.959249747912006456e-01 1.563506104008407782e-01 -5.596987368845052907e-02 6.847302457166388745e-01 -6.469427033160072282e-01 -1.350508120004857981e-01 2.809688723348416906e-01 7.069654428608155294e-01 4.147090409043612327e-03 -4.204722811008055339e-01 4.866063477189263575e-01 -5.666361365179584109e-01 -8.887677838750547288e-01 5.602318173937366197e-01 -3.398395431601958783e-01 -6.705673889256619224e-01 -2.437409522771800674e-01 -6.979797216100520618e-01 -9.646524543284757947e-01 -5.885733739763410188e-01 -6.441709988024455491e-01 -1.880429932927054348e-01 -6.954038674608312709e-01 1.024713462955488597e+00 -8.108621976622258920e-01 -3.670186433426022021e-01 -3.533696253218613359e-01 -7.791266255116511275e-01 -7.372800494141507066e-01 3.328000658082947982e-01 -1.023493576054850696e+00 5.208855719078399060e-01 5.630767797630129023e-02 1.429373211748016792e-01 2.691220409057624718e-01 2.560224455562939289e-02 -4.141876555602626020e-01 -1.862272445315632241e-01 -6.148090438905643440e-01 8.050981792376975255e-02 -2.893385808598373243e-01 7.821893236563902396e-02 -1.443999587014738184e+00 -7.784296719106906792e-01 6.663710099575501089e-02 -3.596632332362967865e-01 1.990497812110311182e-01 -4.486672916891445984e-01 -8.081768324033502537e-01 8.235547896396501477e-02 4.056830173064189804e-01 7.859672703520643733e-01 -6.178090172287358239e-01 -6.216667910137567699e-01 1.013240124961984678e+00 -1.071898304522730522e-01 -1.447749957817449085e-01 -2.888536225292601123e-01 4.044655956202394126e-02 6.270265812806207206e-01 2.082207457954513563e-01 -1.221424654000231730e-01 2.373584174288504989e-01 -1.797554958881565079e-01 -4.211258596939558840e-01 9.956260843046454978e-02 -7.957769604599579383e-01 -4.749054788822083539e-01 -1.091756286321815095e+00 -8.598242326514355938e-01 1.092173324050757649e-01 -5.659463337290490115e-01 -5.479862716799491773e-01 4.122765237531563209e-01 -2.483880851031654013e-01 6.164091430311273712e-01 -3.698773321433797556e-01 -7.900419090374602993e-01 -3.723515858790057420e-01 2.959402678341244153e-01 5.376921440038046063e-01 -5.176408709463112823e-01 -6.010368818315862116e-01 7.583565243579850623e-01 -1.266719015286932037e-01 -9.905449159114196878e-01 -1.080670771784344009e+00 -6.536890107801622551e-02 9.860290415509335160e-01 1.260845299511679674e+00 -6.942661806017735859e-02 3.201650402606340817e-01 5.084272116836258126e-01 4.140754521327501270e-02 -4.724706997919467244e-01 1.083887070675663589e+00 7.922591095685899143e-02 6.616328042173761359e-01 -1.807712760949086450e-01 -7.390278975029660469e-01 -1.057160295489714130e+00 -5.844294195661408065e-01 6.563383857910010111e-01 9.381536005266148948e-01 1.534591191359127027e-01 -7.603084911824706804e-01 6.739073173358870461e-01 4.032640238515312059e-01 9.848075668926729032e-01 2.560231480898172984e-01 -6.089169784651937700e-01 -7.700501137597134393e-01 -6.387631724662236055e-01 -1.410628853237879676e-01 -1.016374049701924021e+00 -5.632537585777851463e-01 1.357500665022737474e+00 3.275206934510515033e-01 1.236592961537089419e+00 1.519856907236219801e+00 6.256291396500763824e-01 9.279600083723940074e-01 8.410769728736621209e-01 8.156978293022550952e-01 1.094051935722791358e+00 6.970471327971813347e-01 1.010072586363959024e+00 -8.695184789052802232e-01 -8.202866583210413065e-01 5.175871220639013393e-01 4.327628006664075988e-01 -6.855926820388191789e-01 3.679252374233837886e-01 6.563130651775210822e-01 -4.680308119316506366e-01 3.222656905058162713e-01 -3.068332404260882829e-01 -5.438376730036024176e-01 6.575022459905993655e-01 -2.122740220922297305e-01 -6.877448101651716106e-02 -2.390260591567180681e-01 -5.085695495074304961e-01 -1.482501940667589613e-01 -3.358223071566411311e-01 1.487368551725834598e+00 1.034664996230062473e+00 2.018874544365785173e-01 1.096767059420793888e+00 7.117849532540870827e-01 2.101184742330521438e+00 1.590826370341416496e+00 1.598508610055338758e-02 1.424511497696240969e+00 1.845162866558221759e-01 6.366718946651590549e-01 -5.137235814454867988e-01 6.622910551569284321e-01 -3.456671138958101741e-01 3.153402408302318771e-01 -1.579631445800730727e-01 -7.521383936295334971e-01 4.176279728085983689e-01 -9.275501360112918814e-01 8.952093417760319527e-01 -7.448709637731042443e-01 1.010370712683821837e-01 3.641530588875866448e-01 9.900053648236235848e-02 -1.381215742608622177e-01 -1.011963884139912118e+00 -5.103861530503092103e-01 1.027470107422091272e-01 3.345291948985850694e-01 1.110752927580581861e+00 -1.099566596517471823e-01 3.251488561298032098e-01 -7.544409109652985834e-02 -2.630962492924004414e-01 1.535545677080460081e+00 4.484911338384022228e-01 1.253177786579917630e+00 1.254870547940585057e+00 3.777394506731441420e-02 8.414256739678483976e-01 4.950405045750226884e-01 -5.344433241003795354e-01 -1.435111733818061064e-01 9.602240663347225702e-01 4.691925247147339939e-01 1.842613578827805854e-01 8.987731495954656147e-01 2.536424498246994119e-01 -4.743150193573974494e-01 7.253444309839952586e-01 -5.001302163332915773e-01 -7.566407818662312934e-01 -1.712086404046103127e-01 -4.578350441482447186e-01 2.535102436712941554e-01 1.944805793970083019e-01 1.022175331088440497e+00 -5.973753024368525510e-01 -2.080818816627230325e-02 5.805142186697204165e-01 1.802108308552734794e-01 -2.475233662512760502e-01 8.815332181453779947e-01 8.824107604108800684e-01 1.209907149368955270e+00 1.160026451181158880e+00 -7.244801630466424225e-02 1.990824132644193611e-01 -7.938812967977147972e-01 -8.239337354650800860e-01 -7.130220420312626262e-01 2.704662861723647338e-01 -5.306064300710583437e-01 -5.363570791710032815e-01 6.909307673621647439e-01 -4.452375320566510641e-01 4.997835385019453458e-01 3.373793454155957772e-01 -3.433398398289949083e-01 8.790415886473399443e-01 -4.894780163041455578e-01 2.968934897602698020e-01 6.367265593615756281e-01 1.730981975940271977e-01 -9.773813079906695789e-02 1.068379304926891926e+00 -4.411541266529884764e-01 5.328431220266537371e-01 2.099075506924173717e-01 -1.500940616132090955e-01 6.307012914977954132e-01 -3.423293133424774592e-01 1.002606895543096677e-01 5.713828104223432902e-01 8.099100416463794749e-01 -3.319204419169490827e-01 3.801195793307187709e-01 -1.717570898467144780e-01 -2.597204195173582475e-01 5.229353405873265331e-02 3.313369896879742593e-01 -1.339758784413879189e-01 5.561560663782809666e-01 2.513712132006136191e-01 -4.347166157110236573e-01 3.284566678193068245e-02 -6.466611634529811914e-01 1.192752578539675590e-01 -4.217797941903675962e-01 -1.422052185042533556e-01 -6.665736864723220689e-01 2.173163237807506920e-01 7.929016972516494954e-01 7.268190415514096392e-01 -5.311344340149212750e-02 -9.331036233525406842e-02 2.460054971175025806e-01 -4.823824084380254340e-02 -1.775694843394256817e-01 9.438975958640515307e-01 -4.791416788701440277e-01 6.444601224915781357e-01 -7.372968153411612047e-01 6.368977607205720259e-01 6.315846708087717865e-01 -9.307381677468788972e-01 8.144949723469840919e-01 -6.097535242093981012e-01 5.699129881556039834e-01 -3.526664479763643410e-03 -3.403203334296788229e-01 3.122219791513336506e-01 9.592194472019354157e-01 -2.441537580735945456e-01 9.654766479520507372e-02 5.164333351420201668e-01 -3.363137293617286527e-01 -2.429544903436954284e-01 -2.260239394692670489e-01 8.035660114086116135e-01 7.504795406085145171e-01 1.173345689830197639e-03 -2.462259013423497012e-01 1.015108140451624230e+00 1.002492157905911924e-01 2.262711060421787324e-01 -7.683172938712605760e-01 2.852332313113991047e-01 1.051632647059135506e+00 -4.935387038641523283e-01 -4.027535515776828889e-01 -5.939121309213434285e-01 -3.637957231485716703e-01 -2.955970737446101948e-01 -2.400419714214682421e-01 -9.291871461249382458e-01 -9.397975516207450752e-01 3.251449521646361807e-01 -7.701581103407170170e-01 4.128514416482598759e-01 -4.120641266673279457e-01 4.600134666251699533e-01 9.002701824778456263e-01 -1.899105572596996028e-01 3.880209099260685801e-01 -4.441517091643017445e-01 7.639382746620428932e-01 9.036918508938109051e-02 -3.784099771175012950e-01 9.994148435766666561e-01 3.315587017185837038e-01 -5.282107626515589738e-01 3.278144597812688854e-01 -6.379292571177826998e-01 4.487802132111126108e-01 -3.128278299627530457e-01 -2.347547049377813055e-01 7.223604313512521635e-01 -3.324438362030565086e-01 9.531433338688767298e-01 -9.248323014796299146e-01 5.977276733701006872e-01 -1.893588943183610596e-01 5.411178710637916112e-01 -9.334197557520830246e-01 9.593312703908062344e-01 -6.988472881018266136e-01 -8.289625734133367896e-01 4.624214449153123963e-01 -2.140387435752006129e-01 1.004770021510017264e+00 -2.493000997004722052e-01 7.440000076698845277e-02 9.333779610933112814e-01 1.125342875501915245e-02 -9.320161897795307959e-02 1.236355428583472138e+00 -1.187980341674441664e-01 7.576120944971593829e-01 -6.869311933975897899e-01 4.764537672176189509e-01 -2.709208283513155346e-01 3.775504568255047544e-01 -3.448522269818157238e-01 1.179679016849974893e-01 -7.220173951929880207e-01 -2.232668436511613119e-02 -3.389267630693418298e-01 3.611119308213389667e-01 -4.575719491792513138e-01 3.432287484656328796e-02 -9.928037632334616447e-01 3.270129280949751194e-01 -5.057137647023036697e-01 -6.537921817101892685e-01 5.707412982294740589e-01 8.566126050721581953e-01 -3.445119389430091328e-01 -9.752811117674159425e-02 -4.435282931518635258e-02 1.092118314625188269e+00 9.526088071558814763e-01 1.428898347265316893e-01 -2.435209495897113774e-01 7.381919750899759158e-01 -1.719609059833673570e-01 9.530630087391370742e-01 1.733329751350756454e-01 -4.732481480135389829e-01 -5.126741623087395228e-01 -1.781207947226703669e-01 6.268653101336301159e-01 -2.611466255232410827e-01 4.612113810335274726e-03 3.482434906242060091e-01 4.231306284392908346e-01 -9.340446330227424321e-01 -2.850114099036168969e-01 4.462218038926434732e-02 -9.429151877705421736e-01 7.032782758605213291e-02 5.521121063434560883e-01 3.673257445209980321e-01 -4.155635202082532537e-02 -4.453317180832749855e-01 -2.142416353118232336e-02 9.520964406574172756e-01 -2.599819606238759073e-01 7.375009933855071198e-01 5.319308198481601524e-01 1.046253815283002098e+00 3.669495880694620404e-02 -1.470554041373464405e-01 7.588104186517219407e-01 7.304446373215874866e-01 9.525659434220795641e-02 7.953570808469053732e-01 -1.871116513671516879e-01 2.463069974343568280e-01 4.654626508472207991e-02 -4.895919079987497979e-01 -2.026583640392752850e-01 -3.298285573857397956e-01 -7.618753166229407237e-01 -6.507079229455925429e-02 2.006899060682340863e-01 -6.173754293154207762e-01 -4.503499237538131639e-01 8.708182779544402230e-01 -1.417235358789341038e-01 2.838158530310023742e-01 5.636007825465623178e-01 6.856094270216978037e-01 9.381613280718616998e-01 -7.215604037780549707e-01 8.905868822674143370e-01 -4.065704898738031758e-01 -8.411271904496571139e-01 4.141836675054429429e-01 -2.748412910748956328e-01 -1.838582082374467797e-01 -6.635064617978382318e-01 -9.416577791739084713e-01 3.508926218520168616e-01 -8.149981218378055114e-01 -7.113251843494169946e-02 2.239649716593342943e-01 -4.881548645198012237e-01 -3.209303039427812698e-01 -2.364965817697873840e-01 3.849756054852507270e-02 -2.767514426008697015e-01 8.407991960425157396e-01 5.474854103949060580e-01 -6.484393434816226875e-01 4.499366612177282954e-01 5.283248548252127419e-01 3.506036751203134294e-01 -3.621501488578878214e-01 2.527087247600475206e-01 -6.561786221826424459e-01 -3.732184277150555896e-01 -1.498242411962918408e-01 -3.206538194894830163e-01 2.298112946660807454e-01 2.358685406138292806e-01 -1.145822748617873144e+00 5.953772959644303420e-01 -6.159399727482243181e-01 7.094470626436533145e-01 -5.845761113648659801e-01 2.337248496002592990e-01 -5.003644377809299826e-01 -9.694615335529999794e-03 -5.022784416484051689e-02 -9.776291608199857430e-01 9.413212383514032999e-02 -2.233781837707776441e-01 3.867674832144650521e-02 3.204512043778816599e-01 -8.752043181640327685e-01 1.067437063307249134e-01 9.209789956049957427e-01 5.826680069176810584e-01 5.315904178967059135e-01 -1.214383534296962081e-01 7.932905877315490351e-01 -6.585065766720585856e-01 9.358707829086417851e-01 1.311019842622414555e-01 6.910631385006170690e-01 -5.139112537879384490e-01 3.521677040473297216e-01 -6.652839869022608710e-01 8.643852704348248261e-01 -4.144141339250940748e-01 -6.269816568764877696e-01 1.302571875205930929e-01 -6.736281592939858953e-01 -1.256154322648075916e-01 -6.906446595815317613e-01 -6.987445361992883353e-01 3.348246643884342233e-01 -9.011440513073497582e-01 -2.718384984637833290e-01 8.339831136397620748e-01 6.239331369956124806e-01 -2.676236123608514150e-01 -3.744681988290614050e-01 8.707525085007438159e-01 3.879334406097953991e-01 -6.608941712937088653e-02 2.014604020240274435e-02 -2.486648359659086524e-03 2.860237074936087809e-01 -9.955712079889902366e-01 -7.323486518376955967e-01 1.190044171899507230e-01 2.968987616568072863e-01 3.765623137464840231e-01 5.270226946601132278e-02 -1.787247345909084850e-03 -5.785826596686459711e-01 1.590992360558411700e-01 -2.423201077584192231e-01 -3.469451813580267663e-01 6.446683996305498932e-01 -3.438695614285027236e-01 5.923724859303127754e-01 9.156458218816789785e-01 -8.631700634564855035e-01 -4.779818411019714497e-01 -1.884648091851061080e-01 3.533889178193306280e-01 -1.681538192866376819e-02 6.519200033150520657e-01 -8.340191906050256065e-01 7.735892122135854532e-01 -4.598096135849019106e-01 -7.029503316401497504e-01 2.166718635718280217e-01 -4.507674217975388697e-01 -1.629111633101747170e-01 4.047794524818471573e-01 -3.737890724803227815e-01 4.832393575499473459e-01 7.567547338613354047e-01 -6.691979037547401976e-02 1.042181177635789213e+00 -6.701158008120468024e-01 -5.200220337994624353e-01 8.394665288293329253e-01 -3.824863322340651406e-01 5.369553614015577514e-01 -5.844334163750572464e-02 5.267511972207049586e-01 -9.453652484452307325e-01 -7.430892868924889871e-01 -6.244906577209585752e-01 5.671555108467688172e-04 7.942599619217209916e-01 9.439059754700777072e-01 1.752079692273871003e-02 -4.722188577475868176e-01 7.742802857543329420e-01 -9.517427444568045125e-01 9.712040677502240538e-01 6.979375799766802668e-01 -2.108958633577925068e-01 1.152362359129759373e-01 7.913418177031630307e-01 7.962218671787402169e-01 1.155956747248816363e-01 -3.468707065779517290e-02 7.927572018084259042e-01 -2.746626802258210834e-02 -2.004403191333083145e-01 1.847425159952837959e-01 3.552657689776480554e-01 -4.081116242182268317e-01 -4.270362318951388403e-01 -2.100920551814884629e-01 5.514996883855551868e-01 -3.477709222708738612e-01 -2.832882213004225269e-01 -3.979445935983663141e-01 8.348393260716796549e-01 -9.661956112332548141e-01 -4.150518852266976005e-02 -6.466836250211284165e-01 2.591879357626336033e-01 7.324240959342054325e-01 9.180886617074807132e-01 -4.852881044836372393e-01 3.958315146524136185e-01 -6.239270890391057645e-01 1.309515975228048301e-01 1.149243714484062817e-01 7.295952435878193532e-01 3.479285938224438435e-01 5.514679059486690127e-01 2.435747890418983319e-01 3.924111553528004670e-01 -5.855114430009908943e-01 2.977624621033427843e-01 4.664761744844312941e-01 4.865899559237743532e-02 -1.267002079744238285e-01 -2.954331022718653110e-01 1.145450515930774155e-01 -5.149821810066631533e-01 -4.117934891031583278e-01 -6.540808106832272095e-01 -5.980779635673921790e-01 -3.964576406471848058e-01 4.404687256690508756e-01 -8.675916438816737575e-01 -9.578279953528203716e-01 6.148767177361733616e-01 -5.186687127522252583e-01 1.953680098305381474e-01 3.307566263284638097e-01 4.324606544844089573e-01 3.911792513230247792e-01 4.549355339870699844e-01 4.990014955717221312e-01 7.898469967709667028e-01 2.350324937994063002e-01 4.780420696240089140e-01 8.345326981555888368e-01 7.259239643180734891e-01 -5.388044483004252039e-02 -6.539648443900537567e-01 9.653789464806559195e-01 7.704527043015291232e-01 -9.413830805429247439e-01 9.645807329047606515e-01 7.846533924105333346e-01 -9.563539774032436477e-03 4.160117433909211737e-01 9.332662623106507960e-01 1.201370242991873366e-01 -7.801380460065654443e-01 -8.560932549929672897e-01 3.091785607556556958e-01 5.468139213599999549e-01 7.878940541585668367e-01 -7.729502642635597276e-01 -1.295422989785333101e-02 -8.917518156428305698e-01
-7.943556505313116300e-01 3.629142029784802048e-01 -3.722532823654434164e-01 1.552692793465766385e-01 -6.173115205493018287e-02 -8.917961988489178093e-01 3.722288382553373687e-01 -2.422763876767410895e-01 3.217435364214149551e-02 1.546221884827831961e-01 -1.732786909249168783e-01 -5.475364320231546067e-02 1.703118969633118096e-01 1.758358100138532332e-01 6.361878408121894868e-01 6.278693483241574169e-01 -2.849251743264757941e-02 -3.805792360118558371e-01 9.769694554739993819e-02 -1.016553254815384388e-01 -9.482194616040218182e-01 -7.216294768956532657e-01 2.983870505394925488e-02 -1.106428320079979599e-01 -9.822190757316933141e-01 9.938826393167969897e-01 -8.578406726398535298e-01 -3.221254085732270234e-01 -8.369540081065685033e-01 -2.687289997884148018e-01 1.065391588910651333e-01 -1.537256841338427993e-01 4.920768966739336725e-01 -1.358229794640477273e-01 -5.404441540009478073e-01 -5.638035823899880672e-01 2.850109283038680386e-01 -2.337458208854464037e-01 -9.378313593924454405e-01 3.809584043472873938e-01 -3.236012680328963914e-02 -3.657169775620057184e-01 9.692825190626417342e-01 -2.636147174440375829e-01 -4.967236846706679088e-01 -2.597796518873008234e-02 -9.607836326653920178e-01 -5.190820573992969145e-01 5.253182572373782389e-01 4.808281517486293621e-01 4.753315521152510770e-01 -1.860502279396881453e-01 2.031970258802604512e-01 6.738648538667415533e-01 -8.563052989459902786e-01 3.249712256329724269e-01 -6.155935728560135711e-01 3.715054090734226655e-02 -7.661824772986064458e-01 4.445491167027769142e-01 -6.550744934782671836e-01 -6.901353986969568366e-01 8.729410955793496241e-01 -9.688845595530450883e-01 -9.294583350095818597e-01 -5.563076996858016265e-01 -6.863132465206361887e-01 -5.753710376831739914e-01 -6.398069452711484528e-01 1.889061477006422629e-01 -8.927690106121799474e-01 -5.127492412827793222e-01 1.591483967004488076e-02 -1.677450523488144829e-01 -9.028835909350200195e-01 1.410922646026341494e-02 -1.244266173649325874e-01 -4.910228247989994466e-01 3.830864363837062081e-01 8.692614814779271448e-01 -2.464848070412858638e-01 -1.944913433285264462e-02 2.035981590688586973e-01 -2.341603187508087824e-01 -1.121433736392254410e-01 8.384552822148660933e-01 -4.070401541015188918e-01 3.836158000072845131e-01 -2.459547102837878474e-01 8.024641006923137754e-01 -2.352130998676859597e-01 3.566760028149937867e-01 7.817644042723143061e-02 -1.053965211682164727e+00 -1.300056611700195763e-01 -3.547591740950181149e-01 -5.943366619708901899e-01 -9.927949562128091099e-01 -5.585113639777760097e-01 -1.074613658128403149e+00 -9.676673058120395243e-01 1.060122052114439439e-01 -1.001358421771009338e-01 -1.343994678959542277e+00 2.955356730306626378e-01 1.828362752190583196e-01 -9.955891341742717504e-01 6.864217696246062150e-01 7.548111946166184971e-01 9.622702558330298306e-01 -8.947794674909012036e-01 3.285686860283698607e-02 -6.343777388324147726e-01 -8.236994469873927249e-01 8.694349596381180101e-01 7.436935313843221484e-01 5.966206034340570952e-01 8.136542201080791958e-01 -6.525409220781137609e-01 -4.200385111314998698e-01 -8.352065523273347614e-01 6.445178562874974704e-01 3.504667871363741916e-01 -8.378170811294854969e-01 4.420512401018567884e-03 4.330161441268068345e-01 -5.502101694934804499e-01 5.777225688327933817e-01 -3.051901799960112793e-01 6.711153012842845378e-01 -1.394310685923330906e-01 -1.032088753284933658e+00 3.643105110495964416e-01 4.951640385165054226e-01 7.911380273930375129e-01 3.502801089993333172e-01 4.251145432389736856e-01 2.044326273784754025e-02 -1.484686411169173492e-01 -6.088349957201133478e-02 -3.446004786495648897e-01 7.642812681675181796e-01 2.297002240028591658e-01 8.692863928053566891e-01 5.618067973195026710e-01 7.231503066027211712e-01 4.409165035038721814e-01 -1.640410474819536668e-01 1.383228009697895500e-01 1.227526626392925646e+00 3.716333234591532308e-01 -4.119428238664207126e-02 1.986231379733051083e-01 -5.236940180937977862e-01 2.488238976805595970e-01 8.693282205939872886e-02 -9.845816128693658797e-02 1.655203023285961583e-01 7.106372923676390618e-02 3.262729059977171886e-01 -8.167060129881111852e-01 9.230401280786023621e-01 -2.305464172365555287e-01 1.179788449814085816e+00 3.289387763276540588e-01 -2.528848005813794653e-01 -4.206075290426998237e-01 -1.975512118588682864e-01 -1.353797159204783718e-01 -4.350731233159397249e-01 5.952608661299574333e-01 -2.059190650558261337e-01 -8.481898081349894536e-01 -7.689526238934027980e-01 7.159512394268778834e-01 6.979905045556582532e-01 -2.887038109497141458e-01 -1.224179842771122356e-03 5.309010941394818328e-01 -8.863339766145630905e-02 4.131729721441529390e-01 3.987589879132619752e-01 -3.791623640439262810e-01 5.201100000844522953e-01 -7.687114346941715803e-01 -2.501771066806707244e-01 6.964913412326818598e-01 -9.274502400859044871e-01 9.820988969363054766e-01 8.168660911815411874e-01 7.009832193906309107e-03 6.991941473559948328e-01 -5.104380239984535050e-01 5.183700641348333304e-01 6.771944918187144946e-01 -6.080268517766671543e-01 -5.575233372576382518e-01 5.216615573967698510e-02 -4.453326147317320793e-01 1.041215312489421452e+00 8.984283407300590607e-01 -4.181446343040994273e-01 1.178770408513574869e-01 5.818314849240495690e-01 1.510122991552141081e-01 -2.115283911644962045e-01 3.840634060701920982e-02 -5.435724165027769894e-01 7.931288407172739641e-01 -5.629059040485389076e-01 3.377368230026089879e-01 -9.404046870034846184e-02 5.532767724336852266e-01 -3.081085569800698365e-01 -2.625976193716156870e-01 6.812007294974180560e-01 -3.119115863837380043e-01 -7.518455840272002255e-02 4.636287131428873942e-01 -7.564531295322711457e-02 1.728485894618121688e-01 5.594993379075996476e-01 1.113393938419026397e-01 6.297851824345691574e-01 2.387839315975547327e-01 -5.090661564937198902e-01 7.087423035203208599e-01 1.005430266856388144e+00 1.387792735802393929e-01 1.014515735607257829e+00 -7.160220130313027509e-01 1.724493880836018844e-01 -6.360744627487027181e-01 -1.441183375069344250e-03 -1.444871724305486216e-01 4.820464207844825655e-01 -3.874629933638085721e-01 -8.110445890990457540e-01 5.644001477830776770e-01 2.427898125142241015e-01 -2.625483187834941612e-01 2.683463760503647100e-01 7.336194291210177409e-01 -4.827273053687457238e-03 9.494852863016759459e-01 4.347165546408374714e-01 1.015999170836078491e+00 8.740487812755159958e-01 9.299343471543561890e-01 -5.857666953488894768e-01 -8.212160163416101222e-01 -3.261257666522043852e-01 5.151778034863149225e-01 9.574648687327754759e-01 9.617642324929028819e-01 9.703156510367884069e-01 -4.299337756374680547e-02 -8.716945226648399325e-01 5.420145348178248002e-01 -1.493723826738180271e-01 -9.102362560872510056e-01 -8.380858199266941755e-01 -9.845884239332400312e-02 -1.089044934037586732e+00 5.463625808892672575e-01 8.506258066549139407e-01 -7.491531655612956309e-01 4.433905746714080220e-01 3.761589770084270423e-01 6.856906773682068801e-01 -4.001103669942634999e-01 2.347239792030015593e-01 8.937681976171977238e-01 -1.933471813559759778e-01 8.701684335018112781e-01 6.457342776341065127e-01 5.639868365942615203e-01 4.044730884360389633e-01 7.019809535192773897e-02 -7.912610441716392273e-01 -9.601172160869797523e-01 -9.667036577601282321e-01 4.165526503835674244e-01 -5.096380475455809522e-01 7.564117314893128441e-01 -7.097804466674264567e-01 1.866044441781115337e-01 7.774972380761398238e-02 -8.112165642342457350e-02 3.982206773503446651e-01 4.185356566706849302e-01 -1.489564516288602591e-01 2.504912527599326699e-01 -2.695132997861786617e-01 5.088963193632907167e-01 1.030418331210749550e+00 8.956800707430208064e-01 6.526449969871905843e-01 -4.886517919210632832e-01 1.005329281727540547e+00 -3.490840425294325922e-01 5.012833969362495701e-01 5.946857319202991654e-01 -3.544676740986684726e-01 6.590472286643601629e-01 9.562938516809640355e-01 9.977917765928725480e-01 2.310851639360893828e-01 -9.325445439480168908e-01 6.704210643166177430e-01 1.356696040469794751e-01 -2.158230051698484808e-01 1.166080743381793516e-01 -5.925135452218874832e-01 -1.105026564507159526e+00 1.978618983064167614e-02 -2.968266811461869326e-01 -3.875888922260993241e-01 3.784215923409591786e-01 1.306410847758276428e-01 7.399717786592442392e-01 3.627222728461974022e-01 -3.427566841226339367e-01 -5.039855306599609897e-01 -7.081419770436252203e-02 1.160140650349259950e+00 -1.332502926781223007e-01 -6.536277359644712126e-01 -3.583452083665335519e-01 -1.067646816689371114e+00 -1.311366321180623684e+00 -8.363793706769158121e-01 3.959109885033538223e-01 6.051290829737372423e-01 4.906726354304766918e-02 -8.521317105866658137e-01 -1.446069255699585776e-01 -4.891554243807759716e-01 -9.557326126723898474e-01 8.956917437360205625e-01 -3.635206129056985924e-01 3.966192332189809600e-01 1.063966891953828653e-01 4.987449802322539982e-01 5.693078813655496617e-01 -8.114360802868351152e-01 5.549794464251080889e-02 1.844354597480010738e-01 8.407546591697843130e-01 -3.284139659091477870e-01 -2.264041552625404297e-01 8.420893907476005857e-01 -9.100273646361474178e-01 7.072495592471661485e-01 -4.738509402365942980e-01 3.906637357271346839e-02 -4.862288045695001282e-01 1.006211173336938464e-01 -9.532017379470264506e-01 -6.341222530060385276e-01 4.495948492685572506e-01 -4.294525442901761525e-01 4.044406903051785407e-01 1.387366346963530006e-01 -1.221127847276871903e-01 3.475745108095461000e-01 -8.208275218876925905e-02 -8.041437144793134317e-01 -2.935246233551121464e-01 9.470378519879538715e-01 -2.162806816731746851e-01 -2.293477653810760131e-01 -7.532700356753774251e-01 2.364508948837443503e-01 9.074228114761072606e-01 5.881835771816263936e-01 -4.035379582456260494e-01 6.866662411451264214e-01 -7.361274980744441088e-01 3.940338014130136401e-01 1.208492160742120486e-01 -4.671810172574225040e-01 -5.066987209300233275e-01 2.218468515394991791e-01 -5.066541764787624302e-01 5.746343800576728111e-02 -3.791508280451849622e-01 -2.024475358878544407e-01 -6.384501398070847600e-01 2.761309533393712864e-02 5.691864204637230723e-02 3.180751063543602736e-02 -3.439150326359249887e-01 -7.177119740199804365e-01 -2.239528644888320041e-01 -6.804992750971209370e-01 1.958852786520382527e-01 -5.215037111057767572e-01 1.127073555705605079e+00 1.918036113008718402e-01 4.956677221319730382e-03 1.478331059049196483e+00 2.173383044287772181e-01 1.343867955933449321e-01 -1.356596756939989212e-01 2.188112167234017580e-01 -3.482077746797136442e-01 -1.062732765553646042e+00 4.538883290388875946e-01 2.777147156577726705e-01 -2.000648915171396869e-01 1.632306841216150592e-03 -1.425716616859930286e-01 8.116332920723139388e-01 -3.060026198699088429e-01 -5.464282699801102693e-04 1.594059285798876957e-01 -3.252279476715515538e-01 2.593911651488287062e-01 9.150265049596447708e-01 5.225791647962588771e-01 9.777389316109849071e-01 -6.536649218229391434e-02 9.572326923351880401e-01 -2.717879654960829727e-01 3.024522778033060799e-01 1.006971965125425861e+00 7.622169869640078588e-01 8.667165646175584159e-01 6.026454165393289875e-02 8.411051291001330199e-01 -5.627148837876582155e-01 1.619155683803416013e-01 -9.445245854955780507e-01 -3.499967191756258450e-02 -1.101448929423893608e+00 1.038172239461461477e-01 3.306294499875775394e-01 -4.629986631989402857e-01 1.690020547875533408e-01 9.319940496109416772e-01 -7.987911355163011817e-02 3.105239197793442929e-01 -6.510820205402791938e-01 -2.986416627876762320e-01 -2.711297651036382317e-01 2.417437811121975755e-01 7.388039540066473343e-01 -5.266505814541598829e-01 -9.863110524999073592e-01 9.233213843082093142e-01 8.672064775702069683e-01 6.377705908089938980e-01 5.353835057415752274e-01 7.708264694652804394e-01 -6.094196541959394642e-01 1.992700327185288611e-01 -1.471019410530880922e+00 -9.384017324724580611e-01 7.346179036057452760e-02 -5.165903117558905827e-02 8.429221250382995523e-02 -1.172413276915363678e+00 1.422162463151586953e-01 1.507874876998374636e-01 7.112412783774939573e-01 3.414015678857316161e-01 1.234306030832991175e+00 6.174294667574228290e-01 5.374174744114226243e-01 1.099177132950096780e+00 6.080194866398088704e-01 2.185283094440409676e-02 1.337582192518239343e-01 8.639156056927970173e-01 2.062628903458003093e-01 -3.949787815441656580e-01 -6.325534995723282317e-02 -2.720568261276170019e-01 2.079077584723756644e-01 5.679066903711198488e-01 1.006086202978401678e+00 1.077087810028866527e-01 4.924298408288291795e-01 -4.190793270243516333e-01 -1.304868890084175614e+00 -2.957268073349815785e-01 4.720521280032385393e-03 -9.264776406403346654e-01 -5.446981635918421993e-01 1.272263225495841032e-01 3.037924342835645816e-02 4.826921247678386262e-01 -2.592133332455165973e-01 8.914727861467111047e-01 4.484189765161537555e-01 5.168205024467787956e-01 6.358545040238668955e-01 -2.980921154086987324e-01 3.626645835980614185e-01 -5.915076229297433485e-01 7.914504093474405977e-02 -1.725129456829300745e-01 -8.704038446001396978e-02 5.168960344359599945e-01 6.735029282814358753e-01 -7.229836565520564307e-01 2.884953655965454278e-01 1.268465645111565898e+00 1.190001638946523110e+00 -1.719623767044672902e-01 2.353560072516384660e-01 -1.714993338903527675e+00 -1.309895607951199858e+00 -9.389418554450804644e-01 -1.484783818393337951e+00 -4.066911174561431697e-01 -6.264210487870414124e-01 -8.244158979018937350e-01 -2.945973952251594238e-02 7.570397521925881223e-01 -6.263632423555318086e-04 8.293216666423084416e-01 -7.195375667373733464e-01 -1.065818407384802741e-01 1.571441123221283265e-01 6.954972294893404516e-01 1.234772167629180628e-01 6.458740910495216481e-01 -5.399965893470842770e-01 3.901906804810479912e-01 -2.734417745651916976e-01 1.257873048897968082e-01 7.548096148628733459e-01 6.317242070211023242e-01 -5.780748137498544770e-01 -1.662069897449813261e-01 7.648807612240443587e-02 7.985607103180132338e-01 -1.271136350919592761e+00 -7.991413783683241900e-02 -1.401183119471899330e+00 -1.147628461124894805e+00 -1.244140077777237563e+00 -1.243291256191246807e+00 -4.068331558958902285e-03 -4.089604516180821159e-02 5.779856857182943397e-01 2.359907805028767236e-01 5.411042792940591317e-01 -3.760029042362569851e-01 2.958427461808778580e-01 -7.445814594974196066e-01 2.785343464898809018e-01 3.696099072464886781e-01 -6.529645262317965715e-01 1.970653218970327691e-01 -4.238117141961004752e-01 9.378822820447009212e-01 -7.543902952124250660e-01 8.891833377991191778e-01 3.671251515835982082e-01 7.243181075181354123e-01 1.174459325646688868e+00 1.207073682045090912e+00 5.191767402640216078e-01 -1.636071604615053077e-01 -5.783593035989947895e-01 -8.727615157874046847e-01 -6.536007164144955750e-01 -4.804622680414461500e-01 4.530905486145850869e-01 -8.197383756133033161e-01 1.152180405124864221e-01 -1.077838907189451467e-01 -5.093136190177204314e-01 -3.057913306897573347e-01 -3.164697343549326414e-01 -7.926777884154030396e-01 -3.000295995506028351e-02 2.506849937733910405e-01 -6.543479666778401205e-01 2.810380860448519202e-01 -3.193038447322932294e-01 -5.311589311372926225e-01 3.996456632749521010e-01 7.723430350686449897e-01 7.990293330721567333e-01 7.303174446904726613e-01 6.490435060394323941e-01 -3.411256552166132550e-01 2.532220149466847814e-01 -5.016025348881856250e-01 -4.737798101132047468e-01 6.435578015195952961e-02 5.009556143793385541e-01 -9.487222527321701460e-01 2.486012650568797389e-01 1.822382047285835971e-01 -6.855599515894341689e-01 -5.520886067157174670e-01 -1.929285342247642199e-01 -7.602538388527484425e-01 4.841820900801059313e-01 -3.007096812448178391e-01 5.834953805831571971e-01 4.801465556115508959e-01 -6.268573677888781281e-01 -1.625279637575545444e-01 -1.559428827604273683e-02 -1.188313885086039301e+00 -9.720555416423979356e-01 4.634158646120212915e-02 1.309093226988526093e-01 -4.378937010169124400e-01 -9.631425144782136405e-01 -5.289637472631727455e-01 -8.583834206321292459e-01 3.548865785262679262e-01 8.562855315150432745e-01 -7.304204558208554632e-01 4.538390227099444174e-01 3.261568566353511417e-02 -8.272721216566457647e-01 -7.848123560019578671e-01 9.049006151653827823e-01 -5.313748220245384513e-01 -3.704117830141699930e-01 1.670882493188776963e-01 3.242931560183127948e-02 -4.526860069590117885e-01 -5.983202859459435530e-01 1.952359775747661008e-01 -7.123042757076121223e-01 -2.448328500301950039e-01 -4.872495698401757003e-01 -4.551876121700864641e-01 1.704398335522748775e-01 3.502982686231284615e-02 8.481083639483435466e-01 -8.962509997926989547e-01 -5.303075405536012976e-01 5.320843029590455187e-01 -5.796734286882292420e-01 -6.699031594324318384e-01 4.192897302104434676e-01 -9.909842162677139424e-03 5.448593950905890049e-01 -3.477931189010730756e-02 2.113251226759216839e-01 -9.799760773989624196e-01 8.526734771055732853e-01 -6.787625167999781217e-01 7.923079789875165924e-01 -3.576658706228694196e-01 3.256413335378947616e-01 -3.283725003838698919e-01 -1.962008308395956913e-01 -6.410222583268825325e-01 2.641579593283659433e-01 -1.788156137146934554e-01 -2.796983252082491656e-01 3.398999262232068053e-01 -1.998393635103652699e-01 4.365016562650992915e-01 2.824293847313190109e-01 8.501872915278522180e-01 -4.392967335221395486e-01 6.639125181453628954e-01 -9.606453970488764149e-01 -6.208126613213510447e-01 5.924386588994035030e-01 -8.428849081847837876e-01 -3.938162133381568619e-01 4.772650372399633856e-01 -3.977317281367473978e-01 -8.767683489620728965e-01 5.895165176479346680e-01 1.567993379474573457e-01 6.976749460416806770e-01 7.074077798126215955e-01 7.112933027485619508e-01 -2.841534428708213378e-01 1.090410707890571013e-01 -1.598316882880707335e-01 -6.202682431983122524e-02 -1.587834892681919130e-01 -4.288055748925448385e-02 -1.228048290508107765e-01 3.672952574651628943e-01 -7.808204435241088426e-01 -5.585364471388422070e-01 3.529539231306872971e-01 1.377251678879015673e-01 -6.867186812056616518e-02 7.534259750505060138e-01 -8.282714025828245008e-01 -8.659724918752291778e-01 6.547626638046076808e-01 8.709169015615312315e-01 6.017319880787552755e-02 -1.760547615777210417e-01 9.647900761541465808e-01 4.523481620525912628e-01 -5.981211525534434470e-01 -5.695655746981140855e-01 -7.374418525987659345e-01 1.119546506873689840e+00 2.058662526626381106e-01 8.581774488240251353e-01 1.294857484261158209e-01 3.142207252984391408e-01 9.051265067917575458e-01 1.784673054147057625e-01 8.713781920821446203e-01 6.856703278903807375e-01 -2.112547463038930984e-01 5.321530169660220189e-01 -4.962247433424032961e-01 -2.488879971505948696e-01 2.199419779275013087e-01 -3.652636091808594831e-01 3.628984934138187457e-01 5.655408213166737141e-01 -2.206213528515643951e-01 -1.865290942234769656e-01 -3.882577497071408867e-01 6.037854563566975585e-01 5.058800316788780727e-01 -8.085485097874725025e-01 4.000885772039723953e-01 -9.647300516720224151e-01 1.630015264232829164e-01 -1.803335030297785122e-02 2.736226305213337873e-01 4.065186095163335067e-01 6.536230768769751842e-01 6.658449908508430326e-01 2.321663068946462072e-01 -4.200999946780131222e-01 -6.635753286546568486e-01 2.479211413608933545e-01 3.065375627613451393e-01 6.910219712840253159e-01 -2.063138026031502148e-01 -9.276083551981876285e-01 -8.629184245850586576e-02 -8.135949632469329229e-01 3.377109814488544748e-01 -8.153553382492676471e-01 -1.705035757893527404e-01 2.730250056203502029e-01 5.892443994585484512e-01 9.831648012935723102e-01 4.197089378294831530e-01 -1.333735322080493724e-01 7.390366132975714208e-01 -6.197411367459351172e-01 -2.180154957234685664e-01 7.017486432229271820e-01 -2.004011830504953684e-01 -9.544531072298196861e-01 1.712683339283339046e-01 3.378521676250711980e-01 -1.154697907426566021e-02 4.348577630608321809e-01 -1.233824512092261821e-01 1.563912608167786766e-01 8.613911683701440669e-01 -9.254923733271888109e-01 -5.810203273547248637e-01 -5.426987511781765638e-01 -9.551943046339852472e-01 -8.615153779826560942e-01 4.630532636538716718e-01 3.166279941415611754e-01 9.505852494529575258e-01 -4.253042252845480875e-01 9.795098746191522876e-01 -8.563625144111776388e-02 4.623326440281301242e-01 -8.176875704543931089e-01 -3.976746630245511227e-01 -2.767340053356783791e-01
-3.844080708348551756e-01 -9.569445509891565393e-01 -6.195523821282784560e-01 -9.020600163220116041e-01 3.295334332268695654e-01 -3.472306790808179500e-01 8.642468121725896957e-01 -6.626903296043320513e-01 4.019140096329489875e-01 -9.437733193465744908e-01 2.368977904460236594e-01 -9.120576157857234190e-01 -1.553683603561234472e-01 -3.118434330392401144e-01 -6.030620274510873902e-01 -2.545380308861493537e-02 -3.741857945754853976e-01 6.699975069047472420e-01 2.349576843485363664e-01 6.691549900635882508e-01 -4.888062665342529645e-01 9.860809681730393628e-01 7.490053452919345212e-01 -8.162174895431382193e-01 5.129705516513607400e-01 1.479887553372634112e-01 4.892373118959538747e-01 -3.378251250380197579e-01 -8.758231741745969856e-01 -7.601880983872866260e-01 -2.222665992407677482e-01 -2.118606201570640835e-01 2.528664963865501214e-01 7.912339036044737650e-01 -4.473280135862220952e-01 5.853863904016232134e-01 -5.906872555717010420e-02 3.749185532218497485e-01 -4.723505715416603801e-01 -2.246249742669488569e-01 1.558601714465738530e-01 -9.885071301867485172e-01 -4.426485362039599830e-02 7.343026839310858034e-02 1.172887471326627268e-01 -3.201313984166391235e-01 -2.854048799118860669e-01 -7.579366910961984338e-01 1.669445317406859919e-01 -1.370627919804731122e-02 -6.028827218488668621e-02 4.291585530822837335e-01 7.610676695602454078e-01 -6.968555477333460146e-02 -1.816302691876321429e-01 6.315697652250724659e-01 -8.786243772120738704e-01 -9.909929021955075079e-01 2.027554916502432858e-01 7.023784641776227577e-02 3.732334793151153018e-01 4.932762938808529229e-01 -2.116450966329758709e-01 -7.660619551721025156e-01 -2.308631922749526388e-01 8.782626029108029364e-01 7.787568944775647983e-01 3.128470131330507442e-01 5.664297603130209469e-01 -8.764306644922105205e-01 -7.103361443861823110e-01 -1.510122135865320792e-01 8.394309470653609218e-01 3.058797536283232588e-01 -2.994721599139066326e-01 -2.210470830011206644e-01 -6.428887222432938531e-01 1.096430986933681490e-01 7.362576820549459056e-01 2.428250509799461387e-01 8.435446900990911656e-01 3.364704938055443351e-01 -2.225261272974552451e-01 -8.218359404859072459e-01 7.326817195428960705e-01 -4.015739776939877270e-01 -6.414447649944996499e-01 -8.128287208759069626e-01 5.239312128365406496e-01 9.333481475921855397e-01 3.965275295790529619e-01 -2.822430603693054096e-01 -6.523383065335601749e-01 4.976106117890411601e-02 -9.731838627435852873e-02 4.684283288836119108e-01 -6.162543157415655282e-01 -2.175485094026390620e-01 -8.763247437912144999e-01 -6.899940857925608295e-01 4.565275457872725040e-01 -4.326475794572723355e-01 -2.141785710290760869e-01 -5.390635426164349653e-01 -7.312257306138284507e-01 2.816381168753607778e-01 -4.470269216501198128e-01 -3.882757009456466180e-01 -8.157632605943131443e-01 7.946404230675846447e-01 6.281755460956222059e-01 -4.173631413459064632e-01 8.511249124227782126e-02 9.630580918299739279e-01 -3.029224642321156485e-02 6.771097500298174365e-01 6.336162215929018737e-01 8.941603015334803617e-01 -1.068735374885910527e+00 7.509556286347600640e-01 3.892464923564457613e-01 2.396889790662149952e-02 -2.908434699360757936e-01 -1.210756750011331651e+00 -3.207025561227382915e-01 -7.430137933855889276e-01 -3.597906170626481437e-01 2.733526698325229876e-01 2.405763873406231990e-01 1.616832456649307526e-01 -1.721026306372152453e-02 8.292249602734395042e-01 -1.152265572281344352e-01 7.889139168927421508e-01 5.572709026121409615e-01 -2.981163454715705097e-01 8.884274651901902242e-01 -9.930965482691050950e-01 4.123484596199598617e-01 5.833307844037722845e-01 1.485464417180402119e-01 -5.183399023800130401e-01 -7.968250710885805832e-01 6.932004673147107443e-01 -5.847281278088755085e-01 -9.845792443224524737e-01 -1.245589234295327197e+00 1.766368847448012980e-01 -1.336037028816264405e+00 -7.661521531363335580e-01 -3.398445976103595667e-01 -3.544827818498410554e-01 -3.008331521527859431e-01 5.950004621802083005e-01 -2.733093445794119170e-01 1.115099750251321437e-01 4.914540604329675211e-01 -6.261119309223658336e-01 6.766751087024852618e-01 -5.919149060655854999e-01 4.059327776291790646e-01 1.011836669760465490e+00 2.508045405573972042e-01 7.838972170056741628e-01 -7.791267920624163068e-01 2.244394901268401132e-01 -8.865500994960054948e-01 -2.684424479085225079e-01 8.023629645855345771e-03 -4.409083072880097820e-01 9.469371016170091693e-01 8.488262898924742172e-01 -4.412258421794718765e-05 -7.519953143721830324e-01 4.346831453269037193e-01 -1.443172933159987403e+00 -6.527119432864217918e-01 5.747510831892508332e-01 2.951745112093446255e-01 -7.169929192528169404e-01 -5.303379111191633966e-01 -1.662058012472223123e-01 -8.544947376162281838e-01 3.368341437128876126e-01 -6.235988447425160341e-01 -2.167901252946638768e-01 4.013447895799335252e-01 -9.352894037739361011e-01 8.008874054030127310e-01 1.922709842792238444e-01 3.686748548022991123e-01 4.733430519490099964e-01 3.491292166643201189e-01 2.100502062647651991e-01 -3.195868429473929240e-01 -9.284386551385093167e-02 2.915264052007526252e-01 1.242075331748270645e-01 4.083133570517999966e-01 -5.059687628123255010e-01 -4.793495709811123467e-02 -5.073867676429244522e-01 2.649885046394482302e-01 -3.066674025544044793e-02 -6.084215361238304309e-01 -1.369901652136876091e+00 2.596241276143697596e-01 -7.259601800117999604e-01 -8.290723139975699763e-01 -6.922367645420082205e-01 -7.973701705719348221e-01 -2.533255736945655423e-01 -1.566302751593626474e-01 -4.140247070851529321e-01 5.052873592508366762e-01 2.111058983727174820e-01 3.980503329639892285e-01 -3.504975422054729117e-01 3.013880589248064124e-01 4.461402365527990521e-01 1.205736846858130179e-01 -6.149706217171050371e-01 -5.837615215108579170e-01 3.573553877529863088e-01 -9.659690274106284003e-01 5.302380413492334688e-01 -1.333967861439844249e-01 5.111118014287646671e-01 5.217938825004579950e-01 -1.050489268881772409e+00 -9.242433517089010397e-01 6.440060269895997447e-01 7.329445322993490830e-01 5.718188542811728503e-01 6.434742346189745721e-01 4.476598464919864240e-01 4.992344624520715923e-01 3.528202480782391959e-01 -7.263032595172556061e-01 -4.501856669257677662e-02 -5.229435565278884868e-01 4.399745834012879220e-01 -7.886996747032486432e-01 -4.680466938053944315e-01 6.064967465311824624e-01 6.588067333747801291e-01 1.096281872929900425e+00 3.547062188807291738e-01 9.713971083423806885e-01 1.110133273769163154e+00 -9.656129127306450899e-01 -2.314235597818274301e-02 -1.226114194797483896e-02 4.538802771778340794e-01 -2.100134299945479247e-02 4.528246532875844221e-01 -4.990711573813351176e-01 6.416574682481691605e-01 -6.109225504461696099e-01 1.257755715069608371e-01 1.793261026361896437e-01 1.093338458878165609e+00 -2.342246684807125848e-02 1.842022805618155346e+00 8.567207492032294924e-01 1.313123024475669975e+00 4.713066409903721721e-01 -1.783850452450659319e-01 4.608420886349665069e-01 -1.976001184484690032e-01 -2.573805940887777810e-01 -7.178110683356370147e-02 -5.811001393237829049e-01 -4.946665778945387171e-01 1.028860253359486832e+00 -1.178260879182213006e-01 1.270899021595593537e+00 -5.873410847566391535e-01 -9.732111717776209536e-01 -8.438850943125395521e-01 9.819280529963200221e-01 -6.913933348022898162e-01 -4.562009882501638081e-01 2.012357019394638569e-01 -5.469360643893665941e-01 6.421673062376028751e-01 1.272236355804894803e+00 3.915473203967864135e-01 9.908350596511003028e-01 1.198876246116775235e+00 2.068119011999566936e+00 1.081492046411887786e+00 8.210014233665927641e-01 1.086472424754622246e+00 3.009310632704940286e-02 1.078748407839583562e-01 -8.502151020421211403e-01 3.778197037817693782e-01 -7.552586275831676410e-01 -5.534390746458605070e-01 -5.756617970350442759e-01 -3.699771004335793978e-01 7.555486647054829863e-01 -1.237842444790089591e-01 -1.783228816687037199e-01 5.850309739060488567e-01 1.578105195573673847e-01 -9.438402392607021518e-01 -7.777254204844258334e-01 -3.520677876403355833e-01 -7.280860948119945997e-01 -1.912394644726702064e-01 8.808556091648634956e-01 3.690882633640713562e-01 3.470772049022101680e-01 1.902712929918980889e+00 2.189805214629990004e+00 1.561427779378140590e+00 1.192379577215051389e+00 2.794369678068956975e-01 6.072851498188441832e-01 2.964814538979565484e-01 5.759267217232379998e-01 -6.666154556845640400e-01 6.186940587038920469e-01 -9.089213882559679103e-01 8.024423805812543053e-02 2.659161340497063208e-01 2.335799296161964259e-02 2.613834855820793557e-01 -4.627917410107948992e-01 3.187446438113367142e-01 -4.158307349167110201e-01 3.382895720948674301e-01 8.439650509162610614e-01 6.397786090802312642e-02 -3.482989480422033629e-02 -5.718932311486920606e-01 8.160046786432182397e-01 -2.863436881834713899e-01 -2.548969366898845013e-01 1.131372655070186140e+00 6.058325650176920041e-01 1.320122490845289320e+00 4.092582109837645254e-01 -9.705599563086979298e-02 6.811868319927775195e-01 -4.661731225233755049e-01 9.450026763563738053e-01 -2.120084730202900503e-01 7.556886301831936548e-01 7.347534671149862362e-01 -1.199779222688672986e+00 4.931930054399827901e-01 -1.982960408889515580e-02 -3.883933689443410664e-01 3.729523545786320726e-01 1.062516440988655608e+00 2.120799768151963860e-02 4.044932015127611358e-01 5.864399734487368843e-01 -4.671070505421503483e-01 8.650140912734314291e-01 6.157881912516539602e-01 4.091876039886702676e-01 -1.392432068715683258e-01 2.832500808495735933e-01 4.452477868721937404e-01 -1.018401964983689512e-02 1.432617714066490855e+00 -2.588745636871551681e-01 5.363876648458832941e-01 7.496058816222625487e-02 8.790520792027255448e-01 -6.557966608489571581e-01 8.167519347607037350e-01 -6.757710211302010439e-01 3.916585062641126935e-01 -7.489587279206865178e-01 -2.347749875135988762e-01 5.978250057199406831e-01 -1.785989739017848077e-01 8.426371410960523667e-01 -5.454557552564286427e-01 -4.435965487155478226e-01 1.586822027275757996e-01 1.131412655879658447e+00 1.008776758109363181e+00 4.599259025985775740e-01 -3.068335902791741177e-02 -1.558586617456240997e-01 -1.881688355152966452e-01 -3.370005206772959672e-01 -7.176060177519526517e-01 3.067096471693675497e-01 7.117036469296680323e-01 -5.163327963972237367e-01 -4.740172326299592620e-01 2.394340630294170824e-01 -4.149117739459797227e-01 1.332451013569631582e-01 -2.778720133655036562e-01 4.638854829155630854e-02 -4.068331659778608445e-01 -3.996941589844760223e-01 2.283656776675462574e-01 -4.221973202806107717e-02 -9.403635863836190545e-03 5.345819372314358775e-01 -5.570141864296790368e-01 3.904527475699092753e-01 3.668510812721440528e-01 -3.363828180265161505e-01 7.385841412136090467e-01 1.552913720465275427e-01 1.119444279080975102e+00 -6.664570030843354198e-01 -4.597768780646024345e-01 -3.430652277659585608e-02 -5.572820107091316366e-01 -9.737944920514898239e-01 -2.675016463634697916e-01 4.684176463378492139e-01 6.052041170124612401e-01 -1.905425461073973759e-01 6.706188204438047196e-01 9.854013153897899224e-01 3.292877690698925441e-01 1.539062520806001588e-01 -4.364568771553001270e-03 -1.763714920679332332e-01 5.882347359309194612e-01 -2.619770427120393652e-01 -9.328100479339839213e-01 3.110680671320638635e-01 6.312622860247467660e-01 3.188655572864683152e-01 -1.633973788004778882e-01 5.731286343122278526e-02 -7.588468668343810730e-01 1.067493513926485137e-02 1.443846418187842429e-01 -1.302924777720417815e-01 6.881547869331432477e-01 -8.859055758733589414e-01 -4.212879882789553054e-01 -7.169910344775051181e-01 -4.532787177192460493e-01 -3.938377561932587118e-02 6.535266030995808828e-01 -9.611808930276365404e-01 -4.224748954948263219e-03 7.888620488640536443e-01 5.261317668111013292e-03 -5.422156198181009579e-01 4.202247411816597555e-01 -2.783434531282060198e-01 -1.130601843688717328e-01 6.630271396087769609e-02 2.296022431745175785e-01 7.972492651611251535e-01 -1.450279272234543393e-01 4.649734190311735627e-01 -3.699557964921428854e-01 -5.704219588703653976e-01 -3.736149746784344639e-01 -1.174692949475678039e-01 6.006950304209409675e-01 -3.855632393769766186e-01 -4.869428702049251600e-01 -7.352260661121290397e-01 2.491863154936861391e-01 -2.371376939148442387e-01 1.482670975043458850e-01 2.373685166687132253e-01 -8.153836239451066337e-02 -3.035947908631950742e-01 5.199601217869836978e-01 -7.039900106787766454e-01 -1.680447337040781863e-01 -5.033730594196066388e-01 -2.282692706942624772e-01 -1.198247014237583952e-01 8.120526275059580801e-01 1.705536847151725155e-01 4.320606324566678702e-01 3.633862407430791391e-02 5.973151885446214004e-01 4.750494729034510644e-01 1.081797634345879278e+00 5.193251316234586135e-01 -4.966913606158478850e-02 1.130122885053748832e-01 3.144256750032664027e-01 -3.176620554927693241e-01 -9.251092459775690502e-01 2.249995649965179367e-01 -2.293748648118304478e-01 -7.103222448767732011e-01 -5.997172258851668492e-01 6.476551426638884612e-01 2.650839832211522862e-01 -3.208368479215162883e-01 9.315079551062215302e-01 1.983860658557368706e-01 -5.654675959185730960e-01 -4.959385006261392004e-01 -1.028186093445562499e-01 2.322502066294347967e-01 -1.355582500371941002e-01 -4.478758407047568335e-01 2.875326556705234265e-02 2.664981953367083212e-01 1.208582029703895389e+00 8.337943454964170664e-01 1.250527800211694407e+00 -1.174069142379134123e-01 1.087234023092078949e+00 -8.621369819418054498e-03 7.551106303144586862e-01 -2.761448509592716594e-01 -5.052302571979633283e-01 -4.559260804845454707e-01 2.978165130704395480e-01 -5.007770176802721629e-01 -1.487193953580695227e-01 -3.518223186506684863e-01 6.269956357410551018e-01 -3.846441445481985077e-01 4.355154023729756463e-01 5.678914009158771842e-02 -6.849719872407761256e-02 -3.239820698640182295e-01 -1.287735910000860073e-01 -5.882016605222123440e-01 6.654633518927832725e-01 3.080871643456348230e-01 -4.038652130884750058e-01 -3.945835558959960299e-01 2.520321237176117446e-01 -2.849324819783691787e-01 3.673501748849472559e-01 -4.440402123849995220e-01 -1.975133959520534166e-01 7.666673190206934052e-01 -1.576651951775350502e-01 5.120543258818468502e-01 3.097400862764293494e-01 -1.446904853206966435e-01 -1.373851964047639040e-01 5.433276675078003715e-01 -9.039378793910178844e-01 -1.646370468207949966e-01 -8.359596480257113216e-01 -5.017390395982860296e-01 3.997845528482286137e-01 -6.436279435154153017e-01 6.181526631325100496e-01 -7.505537226770004899e-01 -7.077122090924088393e-01 4.823338346722167991e-01 9.530111839968574694e-01 9.349859943046948674e-01 2.432571066459250364e-01 5.049061714213566310e-01 -1.176576290320646256e+00 8.188327731855949976e-01 -9.991892091139356613e-02 -1.621510002880620360e-01 2.482810494789600420e-01 -5.059709425996292698e-01 2.714775684353700203e-01 1.231549547067296441e-01 -2.303446012550732225e-01 -4.701955917306139821e-01 -1.449478735859442702e-01 3.008975134830155773e-01 1.005063323611996712e-01 -1.268090461006497749e-01 5.371823929402555486e-02 3.230783305522009347e-02 -8.979046250059188328e-01 7.271244016671448707e-01 4.528065978672172753e-01 -4.660562092925588096e-01 2.783824818969465875e-01 2.151189227357477030e-01 -3.319357904038384155e-01 5.614438994309132180e-01 -6.954379730424525841e-01 -8.899500093717837013e-01 -3.567226051580744128e-01 -1.671685922491175647e-01 -9.321267738549354753e-01 7.938100126788080746e-02 -6.287489237862291525e-01 2.326329213249130334e-01 1.770001114387057817e-01 3.613788513095407273e-01 8.515345428452475440e-02 -2.614385188701255358e-01 -3.088650705042759181e-01 3.214974758960294499e-01 2.482899267738046811e-01 -1.436263055099396869e-02 5.165335565259269179e-01 -5.775570600900299389e-01 7.421684342593551365e-02 7.063265291733514806e-01 1.510644192344900438e-01 1.278079617814973368e-01 7.735287556646801566e-01 -3.103482351228346037e-01 7.362708637888055740e-01 -2.390871791571334837e-01 6.699527370088149691e-01 6.980873656609831723e-01 -6.557537631594553273e-01 -7.740333713262769200e-01 2.739163490465492123e-01 -2.070640971230622573e-01 -7.976752824673979392e-01 1.593560115579290004e-01 -1.826333366525387525e-01 -1.986506404744712295e-01 1.939732635311932074e-01 -6.667220791820057668e-01 3.964506445325510081e-02 -1.782399663947931423e-01 -1.733110246405007715e-01 6.681467061805852481e-01 -7.296619157783020837e-01 -5.259367228751510304e-01 -3.642356422796312332e-01 -3.898399207927668031e-01 2.570343130108390106e-01 2.489402261700209840e-01 8.318934113061230429e-01 7.563291260267421823e-01 3.809120309509554381e-01 -3.269399224412621874e-01 1.622743680094968777e-01 -8.606426494658733217e-01 2.699447048049205544e-01 -5.158908101120547318e-01 -4.063389140919553277e-01 1.894231397962203023e-01 -2.146426718998448169e-01 -5.607111687195468486e-01 -1.145011860606591214e-01 1.301193905194920897e-01 -1.260828085547019528e+00 4.774544957513190968e-01 -5.974087546581487995e-01 8.050830393039132282e-01 2.769377449414351516e-02 9.404706652679213630e-02 1.757386951170680778e-01 -1.422005395591233179e-01 5.206881120681229325e-01 4.440629127264713594e-01 -5.864822923125152104e-02 4.407250638355157402e-01 8.170370000710880376e-01 4.122385569357176621e-02 -2.546877952296727754e-01 -9.124725717886532639e-01 6.149216910229556854e-01 -1.709697203583469827e-01 1.584841743207264508e-01 5.180008294286971848e-01 6.969062244298731557e-01 6.578640125106447467e-01 -3.554569337618960212e-01 4.262695359859821620e-01 4.665112481358645313e-01 7.701426821051635674e-01 1.495236661609624929e-01 -9.040487542856689984e-01 7.069599811112825538e-01 -3.287272219476976010e-01 -5.679572528447518476e-01 -5.145396809572041485e-01 -1.654391185982829193e-01 2.847067879594851747e-01 9.808261282037541995e-02 -7.188726255810210519e-01 -1.119774323413629501e-02 1.785248826033776770e-01 -6.217748171014665370e-01 2.646939598258187809e-01 -4.969563148572913591e-01 7.784441441457986555e-01 5.769122710887155669e-01 -4.755687159191581692e-01 -9.579169719315799858e-01 -2.235109471681241133e-01 8.201297730200298730e-01 -8.233255367277854120e-01 6.113862558397800129e-01 7.749521876175367030e-01 5.532538570397966815e-01 -3.390574454491272482e-01 -7.286624586784495872e-02 -6.490251786321008520e-01 9.202326285988055021e-02 1.336320994268832829e-01 -2.630697539385413730e-01 7.929078201116994684e-01 3.029114607608773269e-01 -2.246102546662749055e-01 -2.964393039929267282e-01 -7.197007998079342217e-01 2.356168613255001446e-02 -4.762814123401872685e-02 -7.762102303454252450e-01 -5.696508072244963472e-01 -2.596067461633848605e-01 4.018348064200448766e-01 8.536635183072460720e-01 -6.469288686293872548e-01 5.004415286160990295e-01 -3.317344981119023095e-01 4.492091786933121167e-01 1.933422648463734850e-01 2.738295063131964135e-01 6.192844708682013199e-02 5.390689377814643635e-01 5.838098979759795970e-01 -4.485724966515134415e-01 -6.304305201363271660e-01 2.091442031130678336e-01 -3.103224369640134594e-01 -6.393914516475538434e-01 -3.510992607764422124e-01 -9.511148008199054038e-01 7.301907889889176495e-01 1.700606956100675915e-01 -5.399903808725261545e-01 -1.776273840123396286e-01 6.569771701550308762e-01 2.954874903738516911e-01 7.228939335528250520e-01 -4.570432736416691344e-01 3.365032009066479812e-01 2.499766194092561122e-01 3.514979910654957296e-01 4.046886120779124574e-01 -8.324552919452520294e-01 6.319757738237063993e-01 3.376705438515683055e-01 -9.159520251316667361e-01 9.635112370838596618e-01 4.742600103531086075e-01 -4.543572761446657005e-02 -5.465359934561087041e-01 -3.334766160461117845e-01 -9.249349870613534641e-01 8.117189835230540496e-01 8.135953675522613615e-01 -6.068509969378758084e-01 -3.421740426330368567e-01 -5.972805713886921719e-01 -2.839349177404506541e-01 -8.421631026137911258e-01 5.408145302929168174e-01 -4.009816898413987030e-01 -5.640100873579507734e-01 3.926779031254853947e-01 9.957500284520888478e-02 -7.892645969716620691e-01 2.065726116392864464e-01 -8.900694461706772920e-01 3.359406767763765123e-01 -1.887073693650266060e-01 -2.324840580189718453e-01 1.093463694549834248e-01 1.164598655430801183e-01 -2.601965665558308299e-02 -3.015970931738803928e-01 3.574391609407689963e-02 9.036216625080888409e-01 7.343674783928026972e-01 -2.721923369728462827e-01
6.983934648333272044e-01 2.829553361053009919e-01 -2.653420133810806547e-01 -6.959206009410137117e-01 -3.179808536671115959e-01 -7.776074079439232456e-01 -9.190970495893351355e-01 -4.203325564326354513e-01 3.154526762855378585e-01 9.639468764212610896e-01 -3.749681025448814431e-02 2.709984210005189631e-02 -9.200016817530404234e-01 7.034612006267942919e-01 3.965388688713122889e-01 -6.890980666979715785e-01 9.850266501559779009e-01 -1.670913369284836580e-01 1.266373905430746571e-01 5.521947824022064299e-01 -3.041766520699171750e-01 8.253869352226896883e-01 1.159378074684347393e-01 6.757753459724760159e-01 -6.194437392745739679e-01 5.954604608012248335e-01 7.580387248079034634e-01 -3.499261868694540922e-01 2.447249835194678091e-01 -5.098318180884291451e-01 6.797411443969696432e-01 -3.351305643642594756e-01 1.620567033792596479e-01 4.368339951217758976e-01 -6.423686450676184823e-01 4.108636824347697836e-01 5.459637860240217355e-01 -1.671063993003793213e-01 4.597192313312862821e-01 4.700480501808415035e-01 4.477430760361431616e-01 -2.379329089868711666e-01 -2.983421799348047743e-01 -4.322269183835903972e-01 -4.250790299240215231e-01 8.393667618020039800e-01 7.472061299823409275e-01 -3.274415104132945009e-01 -9.030329031138104035e-02 -7.362090570101647025e-01 5.973560846227715659e-01 5.522114657010417094e-02 1.280656388083400987e-01 -9.392921214254588147e-01 9.580263790300767024e-01 -8.233889273888879146e-01 -9.336136777866859138e-01 7.839034910157005598e-01 -7.523802000774552079e-01 8.315993008281770127e-01 -1.210001902090867831e-01 8.145716418410386961e-01 -1.240242646431102824e-02 8.577877175577071078e-01 6.459483515227898431e-01 2.532106294967276794e-01 -2.370699893327906926e-01 1.599223746607863483e-01 -4.882473839818160521e-01 -6.461561857136404186e-01 -5.486275723713349706e-01 1.029750123351951485e+00 -3.603347664740910727e-01 -4.658494657617426871e-01 -8.304343475621605020e-01 4.921716221218232490e-01 -2.450090338102833554e-01 6.257070315262091009e-01 9.823020512144227112e-01 -9.737014885548417320e-01 -6.112355892565036752e-01 6.406760947898018088e-01 7.232849596505748213e-01 7.876351920159934128e-01 7.888203288293069715e-01 3.690583952635946297e-01 -6.876683916093299098e-01 7.900652666751164510e-01 8.293395104829175413e-01 3.932507182014647884e-01 -4.897462273871682203e-01 2.441645630053725091e-01 -8.087319273762443306e-01 -5.857479744792923881e-01 -2.983117265976051868e-01 7.375527925867507717e-01 7.754567365144644508e-01 1.345962357429522305e+00 4.017184145498028380e-01 9.954313930846323544e-01 1.715927770628881410e-01 5.053109390284354907e-02 -4.714562232749218706e-01 -4.358943435470886280e-02 1.494116460343972719e-01 -2.069169603743814811e-01 4.899588380615869238e-02 -3.738846594163496295e-01 -4.825505339695251306e-01 -2.524539869572577921e-01 5.186207026085811744e-01 5.767631738439999989e-01 9.427453992828800367e-01 -9.216390623150498840e-01 -5.450208832827391214e-01 -6.531113661006013316e-02 -8.416890666236732654e-01 -4.664855770459435530e-02 1.042384589508851933e+00 -7.429314206668146126e-01 9.310240524594610712e-01 1.957800439353276356e-01 5.207088726374070609e-01 -4.595662366331587645e-01 9.206245574137763565e-01 5.476846636947105829e-01 1.177141754979857957e+00 1.054568521837331962e+00 9.844536784675971264e-01 5.853015568682240488e-01 1.467615988935411881e-03 -6.102950363637826836e-01 -5.417710320011163150e-01 -8.913992414120558427e-02 -8.157218828731280791e-01 -4.519327896636958775e-01 7.837797367570182860e-01 6.959867198564275714e-01 -3.366298075528639799e-01 -3.920741011821026745e-01 9.449608079707523256e-01 2.651979056736049056e-01 4.767792698814466434e-01 7.736058332534123672e-01 8.017503822384033363e-01 4.716670356235341810e-01 -2.265176641110063782e-01 2.966093191397296824e-02 8.727141973240091222e-01 8.478913203678892230e-02 -2.764252363290615189e-01 6.144681612367746126e-01 9.181441381670842061e-02 -1.644971893608013769e-01 1.782470309129422781e-01 6.493245304073979041e-01 -2.644588487322219184e-01 5.263396729670725138e-01 8.656875238800703087e-01 4.843267870766031491e-01 -1.776992814264589660e-01 -2.208771854058802775e-01 -8.240622050935879628e-01 5.254043678510252890e-01 3.393393230261583238e-01 -3.192137473604205189e-01 -2.741607276843582852e-01 1.969535894082569683e-01 -7.159525492707279337e-01 -7.153925205765178097e-01 -3.711690705471273333e-01 -9.645903952709478091e-01 -3.471478265152648235e-01 3.976059675273937444e-01 -8.353536852448116556e-02 -7.525809120519147966e-01 -1.248542819992742442e-01 8.525830348106253620e-01 5.776936193729919067e-01 -1.328676098782153869e-01 5.210181398499990069e-01 7.813480084893422717e-01 3.424975265528118484e-01 -3.258212798028347068e-01 1.383603573024589362e-01 1.002380836460188690e-01 3.641081506611542618e-01 -1.566239983330489915e-01 -2.596214560528619653e-01 3.851828379301044381e-01 -7.260243850736872728e-01 7.169266280608531661e-01 -2.897024016041653272e-01 -1.085997999289260024e-01 6.724852992831240606e-01 8.491198752952845430e-01 -8.509436459058517324e-03 -1.801872775527751935e-01 9.026497456482366344e-01 -8.602291896037700392e-01 -4.405602859734344956e-01 1.999327869900844878e-01 5.698129582962617734e-01 -7.053787990413281639e-01 1.810406831224329050e-01 -5.572440114438150793e-01 -4.206932867865936232e-01 -6.155245144817476921e-02 -7.121847380325482257e-01 -6.326918403121578605e-02 7.859899487452529643e-01 -2.019152478779452087e-01 -3.253209127171875492e-01 1.926105607802533759e-01 1.475436443205209967e-02 -3.776302319916908234e-01 4.890668941570894268e-01 -9.220137463864348792e-02 6.384568073136323019e-01 -4.248448532440697867e-01 1.112776111583286820e+00 -5.483167359472080477e-02 -5.583777362130575295e-01 -1.661720228577792391e-01 -9.241629368540156542e-02 -5.874476409387729969e-01 -4.435116361428314002e-01 6.592448278084750424e-01 -9.102625167075863999e-01 6.277996707507499385e-01 2.451078104705728677e-01 -4.644491976402679301e-01 2.050075720602711343e-02 -1.619178288978142255e-01 9.159786913445484569e-01 1.525779316273974950e-01 -2.099771443074458510e-01 3.489199946331321689e-01 -3.102088476140711371e-01 4.023224973602878007e-01 2.214136155638067038e-01 -7.043859669362240172e-01 -2.011984314805814744e-01 1.428548397302419060e-02 9.136478002140383525e-01 -5.672098846731571387e-01 -5.696344196993646802e-01 -3.340037861414641429e-01 4.525903636864648250e-01 -8.412027858753660936e-02 1.260085325846396209e-01 6.328895369897887813e-01 -9.417351241241712634e-01 -7.680318186028107785e-01 -1.272683530242611771e-01 -3.132434090402346216e-01 5.151342091296537973e-01 -8.842993375362577790e-01 9.372419645703511382e-01 3.268969725934346982e-01 6.292027190617528465e-01 -7.368683601015033613e-01 -3.339770072386976651e-01 4.926840142191749594e-01 4.181046194419822393e-01 -2.238125694261575427e-01 3.674429103121077400e-01 -5.832729344878492261e-01 5.292190723897911564e-01 7.111084421993850713e-01 -5.152997708262397891e-01 2.982104104790378463e-01 -6.646999240699366096e-01 9.735781055065140244e-01 6.590142762305382096e-01 7.875696414321000649e-01 4.342306660176190047e-01 1.031441778151247934e+00 8.910270116296974408e-01 -3.990108922730660757e-01 -7.086422513478318752e-01 -6.193510122755535585e-01 5.393184240201924773e-01 4.704340745347297958e-01 6.731877421791989669e-01 -5.095991082364069724e-01 5.787729363268579591e-02 5.783878505106004875e-01 -5.408049090979389906e-01 1.473656045710240725e-01 -6.506930139882047825e-01 1.572906990879699429e-01 -1.012439444931355848e+00 -8.607421927617777691e-01 1.042643017616988965e+00 -4.388020897550013455e-01 -5.187116707640647695e-01 -8.511905331774808348e-01 1.710497420580481542e-01 -7.512731122112674687e-01 9.498597193038239850e-02 -4.683204375429353417e-01 -7.162943855834246962e-03 5.433196909656761164e-01 5.091218861688920905e-01 5.551852571576201267e-01 7.686860230813910011e-01 1.009578492153230256e+00 -6.066661301913932602e-01 -4.687080745915424007e-01 -7.432096407831009222e-01 -7.829416842034988555e-01 8.028525741382950276e-01 -8.062920750413984372e-01 -4.894934593016094654e-02 5.078539197674721839e-01 -4.719612067909685349e-01 1.061425036946090500e-01 -6.799886464843359901e-01 -2.635508392305889180e-01 2.143483832292998048e-01 1.121906279623433367e+00 -1.850004850011116586e-01 -6.566196199809684053e-01 5.363494003041021502e-02 -1.818395397369934607e-01 -3.374511865705433489e-01 -2.978771567025404465e-01 5.713238914396168155e-01 7.181088739734284854e-01 -3.863359022402363396e-01 2.305334876637340769e-01 6.218180390660668078e-01 -4.899664584139359347e-01 -6.458013572430547633e-01 4.114476325109276411e-01 1.367796935147715387e-01 7.360224826064327708e-01 -3.678063964034434252e-01 -1.007155596393647823e+00 1.367036862525955465e-03 1.641319236649850799e-01 -3.659619091449577977e-01 4.767210382529196711e-01 -6.831509214712576661e-01 -7.107399028329137725e-01 -1.267548200411026671e-01 -8.591189474988127905e-01 2.207999512257198538e-01 6.363100078318599528e-02 1.027449018101144862e+00 -1.197571412931318191e+00 -1.211603142773488129e+00 -1.490246125035738611e+00 -6.600758608061241262e-01 -8.269442559601793974e-01 -4.216161673462034409e-01 -6.270851531202817908e-01 3.121577948841844363e-01 1.452272915170200740e-01 -4.367175583213362966e-01 -4.844752641197529464e-01 -8.979747543205797156e-01 8.039235863653031444e-01 4.365125446066717152e-01 8.517146887734091676e-01 -9.867864136652727547e-01 2.314132996876144543e-01 -1.071286976150410908e+00 -4.416530359968104391e-01 -1.021535900786237627e-01 -6.616940920805417514e-01 -1.060434596650644767e+00 -2.875177975592971835e-01 1.323284592601618459e-01 4.255852164658693870e-01 -4.445969500090065085e-01 1.123531803104339533e+00 4.937828748914002697e-01 1.185255817495775230e-02 -6.453122590263292713e-01 -9.243388152916788281e-01 -2.294412675161474902e-01 -8.427012585730565553e-01 -2.635618818651896955e-01 5.362736510854768657e-01 -6.614428761903478060e-01 1.773599639875392819e-01 4.212491631366617750e-01 3.809450547084496375e-01 -8.449162580267601808e-01 -6.266692332814614019e-01 1.561700616953832499e-01 5.554759698742697122e-02 -9.515415472682299258e-01 2.123223934830082427e-01 -4.140364536387422523e-01 -4.910800489750299369e-01 -8.576278364525184994e-01 1.185895052116950066e-01 3.637576985348001113e-01 3.573496393371412561e-01 3.220400332209183425e-01 -2.886153161104831333e-01 -2.832303428807926848e-01 1.143604608984320592e+00 -2.499966101455447509e-01 -6.233318416854660704e-01 -8.403388315379778373e-01 4.652639002110032368e-02 -8.964047015313305611e-01 -1.513054728532904070e-01 8.519226092499426750e-02 -6.518052315197626623e-01 5.919016125641303194e-01 1.098609119190265160e+00 1.453175123681150760e-01 -7.776149227310550360e-01 -2.514505042823301784e-01 -6.700786679198309503e-01 -4.184553686877282574e-01 1.211072733603552609e-01 -5.875423158029260406e-01 -5.791775572219560742e-01 6.095494179278880820e-01 4.937494443373247055e-01 5.914435008122611581e-01 -6.801174154735764033e-01 -5.732127465568997993e-01 -7.194100951785448173e-02 5.667657801908078108e-01 3.370860447034666474e-01 2.785042389082965641e-01 1.977251590263484071e-01 6.191479781590067955e-01 -5.058159715224549297e-02 -1.249233108803516679e+00 -1.244167046022524703e+00 -8.266245536612116807e-01 -1.130948120717400363e+00 1.067688040407942796e-01 3.812806968639551597e-01 -7.576187705105947856e-01 -2.662878718337133854e-01 -5.697839325285730672e-01 9.729173616410999870e-01 1.186927277527223823e-01 -7.772972610489101708e-01 3.291309127473096563e-01 4.586477685568569052e-01 4.726237610311255777e-01 -7.689446419911565300e-01 -6.073442248014525591e-01 -4.787443322429850712e-01 1.977500209880286020e-01 -8.957102750164179783e-01 -1.595041359534763170e-01 -4.507136084154574895e-01 -1.402271204454832165e-01 -1.510802437488737437e-01 -1.437742389960058043e-01 2.220627055252528681e-01 -5.653959394911539649e-01 -6.662090574765273665e-01 -1.066040474768572971e-01 -1.002980988109159366e+00 -8.916306464690689770e-01 3.032069471161394358e-01 -2.881748912942865282e-01 4.494148949637185031e-01 -4.848281797611956878e-01 -4.830380812114789535e-01 1.322912117105219831e+00 1.306784288613697942e-01 2.118232488781397471e-01 8.713759006053998224e-01 -2.586909544452198340e-02 -1.837613892845740837e-01 -4.571456639683175172e-01 1.113524995065985068e-01 6.611132161275017349e-01 1.039176337680806084e+00 9.475283228500349653e-01 5.910735561392870263e-01 -5.553362323886003038e-01 4.147649908050385359e-01 -1.824669339456748141e-01 3.605838106371432317e-01 2.543682585087428394e-01 -6.269670013911589346e-02 -4.539599962515584175e-01 -8.838868963015086289e-01 -7.666285746659662337e-01 -7.648131674317319717e-02 4.789908702177645416e-01 6.204712619195015266e-01 -3.965279903034830689e-01 9.435402800477670215e-01 1.236151326493643454e+00 1.266936994246709469e+00 6.493857764795912813e-02 5.230212263051164934e-01 -8.004356568702976071e-01 2.105539911952128973e-01 3.741238825792047029e-01 1.362166239563045722e-01 2.273345745640296678e-01 7.160368705902434017e-02 6.087381719475432051e-01 -2.511963823299127596e-01 -3.405124216590276198e-01 8.070516975900121626e-01 -8.091657466539314836e-02 1.086008562416473922e+00 9.836317276272291688e-01 -1.786843652435748386e-01 -2.698206296825962358e-01 4.052608603838411261e-01 -3.915162546636986041e-01 8.538303917132291643e-01 2.244370084788280262e-01 5.936325245107590964e-01 7.312545285665740524e-02 1.155373066241862201e+00 -1.538851170245932598e-01 6.768312603837589592e-01 1.347250704530265741e+00 -2.261044993156854088e-01 -4.919947449257063843e-01 6.059065101481717619e-01 7.159541978660485251e-01 5.140387741390518572e-01 7.424307313711923095e-01 -9.606185847701900760e-02 -7.984165696104870147e-01 -6.841008097841464464e-01 -6.356608345881971101e-01 1.658328792266532181e+00 4.815853980833126324e-01 1.832668217119922227e+00 1.395057543278755696e-01 9.837023987917197232e-01 1.429580287165209462e+00 4.995745653776171302e-01 1.229812359371021957e+00 1.259588933424770296e+00 5.403114105138799861e-01 2.895665179205973994e-01 7.402872619432049328e-01 1.339448857224316836e-01 1.452118331024309761e+00 1.101533991821483649e-01 -7.722355107359603343e-02 1.199632939732103276e+00 5.250749563836483169e-01 2.363468241064942132e-01 6.326562369101373928e-01 6.555160634994682267e-01 -9.048124563210333537e-01 -7.088644214435445567e-01 -5.643747233062117452e-01 6.755512753710162244e-01 4.650172192477211031e-01 -1.943605492219527275e-01 6.745344387610164860e-01 -1.364531313883126096e-01 6.580843282227222257e-01 3.154089570121422770e-01 7.109656649052407129e-01 1.564008209540210803e-01 1.012647717140648274e+00 1.348879983248918224e+00 1.153158831538231288e+00 1.256871239816687469e+00 6.125537886373418062e-02 3.378141188329050193e-01 8.981814447370586318e-01 7.669098068837212345e-01 5.446437742519109060e-01 9.205909114113315361e-01 8.922865609973567036e-01 -2.374597651871521720e-01 -3.301692802018850181e-01 -6.010517194877258440e-01 9.338882442128951245e-02 -9.679457165838983856e-01 -8.004667733419155162e-01 -7.522038940714126376e-01 7.738303782271214182e-01 5.383348142529991165e-01 6.458631498197799914e-01 -1.664203188116019083e-01 2.933458209544843875e-02 4.028670097469914113e-01 5.145628175634273660e-01 2.605986769456984375e-01 1.048718882668650210e+00 1.364865290170663437e-01 -1.121637589869136920e-01 1.136966292771875553e+00 -3.481932199106279602e-01 7.366627187886607420e-01 9.025917399803125019e-01 3.476174442013719168e-01 4.019945610217120491e-01 -2.777553065731937498e-01 1.034188119162229302e+00 1.433801101981882313e-02 1.030780380054513001e+00 1.162397186629927637e+00 6.457864230749827961e-01 -7.388099854951728496e-01 9.871121204753697809e-01 6.651042110419203013e-01 7.545389064806365953e-01 3.085920871721347103e-01 4.151338472786172962e-01 7.870568275837501460e-02 -1.597970008055659974e-01 -8.426018498103885479e-01 1.113383725963641213e+00 -2.958073763678306656e-01 -3.996376416332601544e-01 2.455757725820768289e-01 7.052824328964569789e-01 -3.222500556419018169e-02 7.161012811892416563e-01 -3.158610934154856276e-01 6.746559535249179174e-01 3.907061936574544175e-02 1.216423752959941706e-01 4.634306355025764046e-01 -1.832781471403365781e-01 -3.115230139412584198e-01 8.067278082802362693e-01 -5.209993249137845339e-01 6.726863175211527102e-01 3.781603774637111726e-01 -2.371968789982673020e-01 -6.698025803070344342e-01 9.086725257737390260e-01 1.476966657231267577e-01 9.515400598549091926e-01 -7.222765459737886529e-01 3.519112519823646146e-01 -3.573859387273061738e-01 3.152517462891091804e-01 2.584426749100210419e-01 -2.808016237914004454e-01 4.588127272595798889e-01 6.775331300111170352e-01 -7.783357194317653827e-01 -2.484515944679489274e-01 1.845255964242080715e-01 2.350089120244178154e-01 -3.356493603780791868e-01 1.054546235612111582e+00 2.527096772379164302e-01 5.265870380069054280e-01 7.059046088879458725e-02 8.986132028066120547e-01 8.023350815334236996e-01 -6.788380801528862696e-01 -4.097776579238340267e-01 8.624879532872268273e-01 3.739975034815296584e-01 -9.262729681957209138e-01 -1.937784861381845469e-01 9.147244277537922019e-03 2.471522521692455510e-01 -3.851431749789326064e-02 -1.199320173751341478e-01 -5.243517884422805864e-01 4.214110881031569722e-01 -5.006377855829864665e-03 2.279439754212847224e-01 -4.868169401233848892e-01 -2.054268131728086699e-01 -8.490942722485879113e-01 -2.053735877006248323e-01 3.681870883824307494e-01 1.188437398290575174e-02 9.933366073117414485e-01 -2.064803653524163451e-01 4.033498083395843925e-01 2.522961944483204100e-01 9.451219148181133622e-01 5.939873196153266921e-01 2.621949070808181088e-03 7.048594726238763819e-01 7.196038151684490680e-01 -6.325000924360649202e-02 -1.191183637026178022e-01 -2.893125754702100538e-01 -9.392699072050910702e-01 -2.023641288887075840e-01 -2.131642813377682411e-01 -1.579175800592983736e-01 4.839300967092290962e-01 -7.693960440987839267e-01 -6.991485701761652738e-01 5.714132003495080436e-01 -5.569656236251230297e-01 4.573648796048563892e-01 -2.035487714925863778e-01 4.126574338621231131e-01 5.737883269010695120e-01 -6.095684573860343791e-01 5.581926492968688480e-01 -5.605945152263777098e-01 -8.183675775024932264e-01 -1.567650052795072912e-01 3.407338783571237650e-01 2.482070242150026529e-01 -8.164209025426727440e-02 4.745377680835012879e-01 -3.960154894117470792e-01 -7.632678450525178793e-01 7.588692457753797305e-01 -2.923168437299041855e-01 -4.361397793988848193e-01 4.273324850414809695e-01 -7.199253300550619850e-01 -5.413801046825974517e-01 2.811699205719334071e-01 -7.915206650374063679e-01 -2.054126919086383674e-01 9.050012726283089837e-01 1.509900296210742177e-02 -5.189190745773712976e-01 -5.945219928132052800e-01 5.128177063854528761e-01 1.111563619054869168e-01 -8.978401105555249284e-01 -7.185980791037066551e-01 6.031655738291635815e-01 -8.366666445636412597e-01 -1.033047689144409587e+00 1.690218929594027863e-01 -6.960795881687139586e-01 -8.841180917456895605e-01 -8.588544256026526824e-01 -3.669994941335770755e-01 -6.946790870643265725e-01 -6.983734947134888627e-01 -5.483195080012482903e-01 -7.029525941292380509e-01 -3.576281148630152118e-01 8.403399805500259001e-01 -1.320537883785088962e-01 -1.117393891240533489e-02 -5.598078910909553008e-01 -8.467849069405731788e-01 2.106162407575540574e-01 -9.538950448412599759e-01 -5.495313572269437952e-01 1.680340174088834626e-01 1.546106702501799379e-01 9.172113587248649225e-01 7.920413203812481928e-01 4.127135945115238680e-02 -6.585097459390194530e-01 8.462303643408535248e-01 2.070156878613844398e-01 -2.422501430981052195e-01 4.237918380088830372e-01 -1.101797552642151123e-01 8.733811893326812736e-01 1.715464538534273997e-02 7.480581821720947433e-01 -8.198237985178123965e-01 -1.754971271446757741e-01 7.063853952624212784e-01 2.452830370091794165e-01 3.257920559080781375e-01 3.027412893723850917e-01 -8.192928040845067761e-01 -6.261558893614180832e-01 -2.085944456161462901e-01 -9.874096193685680811e-01 4.057567104750816611e-01 -9.230941927588667273e-01 -5.785388115018896826e-02 -1.187500459558852306e-01
7.673145587002700996e-01 2.466968053520672832e-01 -9.989931557064275491e-01 8.548810296867805913e-01 9.422269156481279939e-01 -4.110330654770473213e-01 2.163943339451268599e-02 8.215592535707245680e-01 4.975273164416593730e-01 -8.110382803516829053e-01 -2.232697524914473153e-01 -8.782396810120884911e-01 -4.835878452320786502e-01 8.830093225998698891e-02 8.738457356120220565e-01 -8.185358415929069320e-01 -2.107327016290094779e-01 3.181176308692439392e-01 8.554439433380367497e-02 -7.795833929289093245e-01 -2.076357839378644154e-01 5.183597219155320346e-01 -7.379669603997540683e-02 -2.727968172527448498e-01 4.197148349922257271e-01 8.575178518743600264e-01 5.398190175309205419e-01 4.640107080950077734e-01 3.976572959949444819e-01 7.669460420839206982e-01 5.335971397535366201e-02 3.227691221198254468e-01 -2.848221871456505516e-01 5.249787725281609418e-01 -8.643692625023866594e-01 2.457161226906807716e-01 -6.626598575423374715e-01 -1.059101348777996554e-01 -5.175817420307488037e-01 -3.293568242985346894e-01 3.960800760906128121e-02 9.506429940253284805e-01 6.715099270285760369e-01 -5.989811064891382708e-01 -8.148093073497161276e-01 -7.597782818550485873e-01 -4.043671130815365555e-01 -9.666351888521438340e-01 -8.862002406263665977e-01 -7.372129844130551612e-01 3.511763588402596059e-01 -5.057637230288408725e-01 8.993986767365664825e-01 -7.263816548442125764e-01 8.095859536069160978e-01 -8.829215150917453236e-01 -2.571053378999206274e-01 -9.179389130096267113e-01 7.428888728524446483e-01 -6.104095637865555313e-01 2.122317697139902148e-01 6.220412974174961696e-02 8.811927451384605758e-01 3.706266966296674070e-01 -5.205105529321432112e-01 9.303472732939213063e-01 8.546280416255015444e-01 -3.469519623466817970e-01 -8.457674776048625942e-01 3.595324053763279126e-01 8.226136522202061041e-01 2.482293617686960052e-01 1.361046116554488483e-01 -4.737126749495624289e-01 -5.334955182697544984e-01 6.740495563391082356e-01 -6.246637355244607503e-01 6.177727626939413241e-01 2.709317729892860016e-01 -6.582030773584363059e-01 7.761460953254587514e-01 1.757553541298414318e-03 -9.848142050943757830e-01 -7.947626373990310800e-01 3.593030834828789821e-01 -4.312586131860363103e-02 1.184288436261897726e-01 -4.069804914614105762e-01 -6.475749319570246465e-01 6.741160112637575308e-01 7.594966866883586798e-01 -7.209472352775546655e-01 -6.016406059697693154e-01 8.373722581939893606e-02 -1.501561360716731908e-01 -2.595451445123623802e-01 9.586273214317310443e-02 -1.485384971737961982e-02 -8.390090596625479069e-01 9.286788279192841333e-01 -4.514647863983222709e-01 6.833020857371769896e-01 6.691278722503948284e-01 -8.721355783375795978e-01 3.097469050717138739e-02 9.085042326419483505e-01 -8.324733379085719198e-02 3.426597253081166694e-01 -3.252585248077625724e-01 -2.899975143423772495e-01 -6.556607847062151384e-01 4.303520019339730496e-01 -2.180028646219596133e-01 1.259657055786263247e-01 8.127218866591261470e-01 6.549311635231621631e-01 2.753058929790923037e-01 8.844656368440112493e-02 -6.038204894930729871e-01 -7.020426214061806780e-01 -6.856044584087654936e-01 -1.959658032159787011e-01 1.013626301560986320e+00 8.420211456570205616e-03 2.529210538096753891e-01 8.093515352934547158e-01 7.444906662089546545e-01 6.307731945985904920e-01 -2.828627736561523109e-01 2.374656258685927390e-01 9.766784823252230296e-01 1.799523850158188942e-01 7.043828026488653249e-01 7.647202188861200733e-01 -8.673710085085849508e-01 -9.947629995462369257e-01 -5.460575592921160792e-01 -1.135241843360484254e-01 -7.867944969321082338e-01 2.073700466694150535e-02 -9.757806530597332717e-01 8.901836601416133199e-01 -3.875186201145717768e-01 4.195118645306982752e-01 1.244238941395834491e-02 -9.376016007614554337e-02 9.059770185552552535e-01 3.039453547276837475e-01 5.120165443890047907e-01 6.371102013167225797e-01 5.235274476826474732e-01 1.654565809669803766e-01 6.446566644171079774e-02 7.307898130875672971e-02 8.008962441780432817e-01 -8.504492988355162320e-01 -6.568768630646948381e-02 6.798218173457374336e-01 6.568063666331715178e-02 -1.561918929693244251e-01 -8.462792519320180284e-01 -2.982147825977496391e-01 1.400105026664774134e-02 4.840595912682078006e-01 8.011483312950479219e-02 -6.361207814065419353e-01 -2.740309460893260440e-01 1.600396348038602701e-01 -5.659573684315266640e-02 8.886865074021903510e-01 5.396034691250914950e-01 -7.910093939124845930e-01 -5.614296217480934104e-01 -7.860506367642228209e-01 -6.774104508643152833e-01 8.295201439234909380e-01 -8.823512167173660492e-01 5.296876615353258710e-01 -5.270600041653407120e-01 -2.482847758644823044e-01 -2.243106269591666202e-01 -6.687197848303571002e-01 4.156043067703912852e-01 -1.878606261786093246e-01 -6.051233739578468773e-01 6.615886436948739124e-01 8.161087548420338234e-01 -6.607650130605857708e-01 -3.588192070664125710e-01 1.316834706359467852e-02 -6.259844231088563804e-01 1.007751477802948159e+00 -9.736635840688044885e-01 9.936581809126294740e-01 -8.357586964860116430e-01 -6.554961605821422177e-01 -1.898846968214060460e-01 5.091655429146801914e-01 5.945797059501546356e-01 -6.732471591906193931e-01 1.070324240070325977e-01 5.360176287971665093e-02 -5.706625424601641239e-01 5.263050807520807117e-01 6.510283807841928949e-01 9.019579404735480477e-01 -1.216018183423269866e-01 -6.570041075804089470e-01 9.474958502805846949e-01 7.289453122631874837e-01 9.369694456816040073e-01 -8.129649120557025377e-01 -1.237725541105071658e-01 5.035340317795115039e-01 8.225708131758022734e-01 8.789781291539868757e-01 -1.037883881406671815e-01 4.811431687163568172e-01 -5.926525683800777378e-01 -7.176198167564371011e-02 -4.196448104282887170e-01 -4.905514297236063803e-01 -6.936883246962362026e-01 5.504753427588727765e-01 -5.644108214172844917e-01 3.262637964931203727e-01 9.695017251954183291e-01 -6.231356683279916098e-01 4.296176576913861012e-01 7.868278034691614797e-01 8.724762542742331428e-01 9.357906322492114404e-01 8.449110470324637800e-01 4.436858026817327993e-01 8.092102902345016391e-01 -1.382742344897552322e-01 -7.040838717553059567e-01 -5.898621888864348239e-01 -9.243054836512005767e-01 3.548163383990271535e-01 -7.872149810827240302e-01 -1.469860168493275221e-01 3.138344935953334969e-01 5.992178475696239293e-01 -3.169441484228833344e-02 4.996715417664160386e-01 5.283053624259372860e-01 5.449836785071703327e-01 -1.617071328100243566e-01 -7.832897753367846772e-01 -4.503038458828281243e-01 -1.081256902108145707e-01 -5.475254210767732665e-01 -7.231690706933301405e-01 -6.888430068467229495e-01 -3.833675156924949978e-01 -3.280156429667009932e-01 -1.190173689238089166e-01 -5.973713035592309595e-01 -5.759333449094753421e-01 6.110218864523189186e-01 -4.939679732912815591e-01 9.414004036734779923e-01 -5.565062209608776511e-01 8.391506126727833470e-01 6.697864232836459042e-01 4.347592493896131893e-01 -7.319424507681567826e-01 6.562606020704980780e-01 -4.560047049247482887e-02 -4.632516114137702479e-01 9.214573309548481639e-01 1.215290568933062587e-01 7.495253274790961706e-01 -2.860962136815460299e-01 -3.119274584288181384e-01 1.792435074160891317e-01 -1.182025891064555079e-01 -9.228803097672779732e-01 6.942861451599388056e-01 -3.372328388905211916e-01 -8.275134675280736429e-01 8.207044851446910760e-01 3.291142945871345926e-01 4.295951822240337004e-01 7.384357217662285144e-01 4.260329709819952737e-01 5.967393075079984177e-01 5.597474441949780166e-01 7.816116440650078268e-01 1.077745933492336855e-01 -6.851836771183170693e-01 7.848090437616135340e-01 8.573717386761329218e-01 -9.197445228838283526e-01 4.473495999822673097e-01 -7.650649376877370900e-01 -4.837812155632145728e-02 7.245039682978370310e-01 -7.649032516757305888e-01 -2.239780806207089803e-01 1.971981782776192349e-01 -4.346295799534940357e-02 -1.943721168142925268e-02 -8.898509017269509158e-01 -7.934228895338251153e-01 -8.892907155181506429e-01 1.879104520140096601e-01 4.673710592632662753e-01 1.429060005290767876e-01 -8.091535981680127998e-01 -7.277811624973558047e-01 3.476220338582792779e-01 -2.024225935729543346e-01 2.443562114058913937e-01 -7.717497804858212962e-02 -3.194725105530118459e-01 4.128508668774127921e-01 -1.202383652459393104e-01 -5.084120798511897465e-01 -6.987936130443485050e-01 6.900439664482762581e-01 -7.371636107194498022e-01 3.754131814136118517e-01 -5.008643166575329486e-01 6.767146285513033765e-01 3.498354220699133044e-01 2.866706014316375978e-02 9.199998596010019458e-01 7.579761312579536003e-02 -8.041165738801988594e-01 5.275174121595478383e-01 -4.296394186001094018e-01 8.412394118837839274e-01 6.055417582781466024e-01 3.981054167526696386e-01 -8.926709373182030172e-01 -1.774601007512292827e-01 -9.271288859188264730e-01 1.795007042462992697e-01 2.934036700794280805e-01 -9.746515441486922615e-01 -4.810622517009400800e-01 -6.069669419488341600e-01 -5.287234486501007913e-01 4.492772876255983205e-01 9.253470359651713717e-02 4.206736106779591089e-01 6.621525016651955697e-01 2.182613705272900551e-01 -4.385812939627553031e-01 -3.786223592524171067e-01 -7.040155668506242748e-01 4.722202418379873867e-01 9.678614828418465876e-01 -1.570522048450040120e-01 1.916807317845796721e-01 -2.601314526316755305e-01 6.785214733273789989e-01 -4.235975084576371619e-01 -8.043745203191308146e-01 -5.342617470681201852e-02 9.508749027740911498e-04 3.234513875354271817e-01 1.454902751117110038e-01 4.201068466097362952e-01 -6.760790539831290635e-01 5.884156901715006383e-01 2.822835611880694651e-01 -3.263142026364504455e-01 -2.286533199015200468e-01 7.873822067352570508e-01 5.861876641544189193e-01 -2.654253251083603105e-01 6.898500115836031510e-01 -5.356214860755816876e-01 9.494861105713960914e-01 7.064315294652296906e-01 1.492399612379756435e-01 -9.043833924911555411e-02 1.956800688453586706e-02 -1.877782676117955296e-01 3.572422135397157472e-01 -4.969483670456590896e-01 1.202186427969655219e-01 -4.360543198147284194e-01 -4.565422255829810205e-01 3.087384418649539164e-01 -4.607690770724504614e-01 -8.890687994941038896e-01 1.026065614589734970e-01 -6.646529581210897097e-02 -5.844773346055212038e-01 3.201300445830460584e-01 -7.441552046475097271e-01 6.225380284882547910e-01 -2.240043375220397148e-01 -9.113032386654911221e-01 3.099211106528739212e-01 -3.818729947152328386e-01 -6.486910503692731034e-01 3.475060142606934410e-01 7.059827941880707503e-01 1.108285916251331021e-01 7.870581687790992875e-01 9.560954141697826092e-01 -4.960329886520613574e-01 1.868032331896093690e-01 -3.042509743557830770e-01 -2.522014920546024053e-01 6.078597878660190190e-01 5.773905051229685226e-01 -1.386852032376289512e-01 1.127735369895206813e-01 2.184024169436173668e-01 -1.387872048011061787e-01 3.802123348819334558e-01 5.300399571599504478e-01 -5.592520012029967846e-01 8.518956205757776123e-01 3.696204121350877836e-01 -5.781500582027893076e-01 -1.406828052599813916e-01 -9.214254966085452248e-01 1.870992686161166152e-01 -1.319937326294457758e-01 -7.961035224005663657e-01 6.429451612902429281e-01 1.029581006013856825e+00 -3.614573753504242704e-01 -3.612327117367967744e-01 -6.972091822488864221e-02 9.468938982316843500e-01 -5.528152198287374919e-01 6.360269232075577150e-01 -2.497638600967698186e-01 -3.255247261969277939e-01 6.471633750241675420e-01 -1.063953641533125355e-01 7.473439371769302619e-01 -5.723906258688395967e-04 9.866590104601568045e-01 -6.765556019593067516e-01 -3.534545678054104023e-01 9.749445601521743443e-01 -4.654489689719996937e-02 6.183407023698529459e-01 -9.232281290585382383e-01 2.574663933605800259e-01 -5.691473506015648498e-01 1.929111319535641300e-01 7.891900139341674336e-01 2.281492479714138932e-01 6.039331100569627075e-01 2.616835346730856937e-01 -1.194170600963022702e-02 1.043999930765822981e+00 -6.057965257675709259e-01 1.830343122788326282e-01 -1.880157447658777348e-01 2.759973697907697754e-01 -9.277705451672202397e-02 -2.047400180799362202e-01 1.663250514909617450e-01 7.558491948876309152e-01 7.711726644389673702e-01 1.635462994247119939e-01 -2.946625101167391070e-01 -5.280835424088917707e-01 9.483545781296937038e-01 -5.982406980264786123e-01 -3.708960567849231560e-01 -1.417682837160111342e-01 -9.473105390858502783e-01 9.088498632362427276e-01 -3.316630492483621517e-02 6.644104365048524308e-01 7.688041210675872206e-01 1.587078823794440263e-01 -1.700309750322663571e-01 -2.544069096974486688e-01 -5.051364424066946412e-01 1.426403215754572240e-01 -5.442116383726622875e-01 1.900188746178458066e-01 -6.772840382019587602e-02 -3.385838544226425773e-02 1.000114819420530043e-01 -6.427262936294101392e-01 4.795909681725116780e-01 -6.643254373453986172e-01 9.568605984019504795e-01 7.610221658334526129e-01 1.063430297565700622e+00 -1.328643149183105984e-02 5.488452753329106093e-01 -2.643143160933595914e-01 1.560992840671252269e-01 6.482348915927728106e-01 5.194464578005630884e-01 5.767780153448238689e-01 2.001490832567101030e-01 5.897154895231723204e-01 -1.800883984317895592e-02 -9.122393200517751044e-01 -9.386896458654445663e-01 7.052014805865801650e-01 -4.626445369106627070e-01 1.772811701784343108e-01 -7.121705348484773657e-01 9.722476675263171941e-01 6.796441372242485457e-01 -7.852716969313346951e-01 -4.853209893434680677e-01 5.821037889382754127e-01 -6.817064336865071850e-01 8.857545841791821806e-01 -4.780908254217260955e-01 8.752756117978434114e-01 8.474313708625264008e-01 5.275291454193453689e-01 -5.382230125865403725e-01 -1.694318313288382394e-01 -7.014740416575174775e-01 -1.129923986734474306e-01 6.296801514907814923e-01 -8.523253658472170757e-01 1.645016275354404811e-01 3.618761807708762573e-02 -4.958483226059614002e-01 -2.298404219577125374e-01 -3.048109820162117067e-01 -3.747025104155041197e-01 -5.593899940855976416e-01 4.345476915968325970e-01 9.548204247318176074e-01 6.059158392671410986e-01 9.277316330403667655e-01 -4.813800891609141819e-01 4.792509846083380931e-01 2.197006550496664601e-01 2.545334031094392130e-02 6.254659095963898130e-01 6.029758432639940047e-01 2.677809936880135716e-03 2.134903150619112122e-01 -1.799677238408516622e-01 6.096968878567406991e-01 -4.290192513880127650e-02 -3.418699827273259939e-01 7.725402960578777734e-01 4.849544248329664131e-01 -2.855955648528206159e-01 5.504020374561383599e-01 -4.640643686107424060e-01 -5.384976245036707798e-01 1.516689418454501281e-01 -1.536030045051516302e-01 1.439161115626481913e-01 -6.338621190524005300e-01 6.198307341567337314e-01 2.265674000340223426e-01 3.385725358434795162e-01 -1.065463207554768615e-01 -6.966937044566701154e-01 -2.883654792109724418e-01 -3.803061172878563490e-01 -1.404173470409664781e-01 -2.014476931201124657e-02 6.809128536920706631e-01 -1.351723114661817528e-02 -7.619764766051138893e-02 1.127914516160494207e+00 7.581856094807867263e-01 -5.512732323976458071e-01 6.178371694703378436e-01 -1.703471766924227748e-01 3.806813236106337817e-01 -6.010287207649727126e-01 -8.278873394576806710e-01 8.299423186689494081e-01 5.859305168851552947e-02 -8.214547834585944619e-01 5.960324931500741164e-01 -1.122315550970462150e-01 -4.190170550299602281e-01 -5.338332542417166815e-01 2.392435740715724291e-01 3.110304776159743961e-02 -7.545731292994325434e-01 -5.049455516231701191e-01 8.608103993104612162e-01 -7.075921353999319319e-01 -1.708752909496435712e-01 6.890626888477429102e-01 7.714530126834993062e-01 7.528888134155357070e-01 1.883754353059788611e-01 4.101570836487585803e-01 -7.686449065485372323e-01 1.287179877132343386e-01 -2.327914419569544757e-01 3.563918271563200069e-01 1.122493578469485054e-01 -6.842152205040824553e-01 6.544765458313753781e-01 2.064232563261527917e-02 7.827199108950906592e-02 -8.373905791648113273e-02 5.958187066526869913e-01 2.847440934376997967e-01 9.949732095473626803e-01 -5.022665730542840157e-01 4.482843305500243125e-01 -3.329477872012018974e-02 2.745293365196729285e-01 -1.655988114988120596e-01 5.057155902790440027e-01 -4.562069602552102365e-01 -3.017040223345300864e-01 2.180611326075585499e-01 -1.877830522696406768e-01 -2.629879569438470788e-01 9.506502242442592676e-01 -5.070118325962339467e-01 -6.999964808924880044e-01 9.588214312839004050e-01 5.932046840515065034e-01 -8.036756800685743718e-01 6.215410367043917583e-01 2.931911531872272159e-01 -2.068178782377823877e-01 5.909839700363339610e-01 5.299051216349942584e-01 9.669498653593501247e-01 2.869324213414731761e-01 -4.402746667276555281e-01 -6.356871304356032093e-01 -9.461838176028968261e-01 5.126297778122556048e-01 -5.340345776140011935e-01 -9.828884459293764086e-01 5.915322801953590837e-01 5.988804305866943234e-02 8.182110383539371590e-01 -2.227307020650073355e-01 -5.605679049654489488e-01 -1.161759439113871223e-01 -1.069303456520851875e-01 -2.940122198266498232e-01 3.527987436987593539e-01 -8.250740476937811207e-01 6.932530482984504694e-01 -9.096670884611337549e-01 -1.084438025278654516e-01 4.397899317097473393e-01 -4.223837575717953041e-01 1.145581271897156000e-01 -2.163129408395547126e-01 1.031485158125289514e+00 3.471422938805653335e-01 -3.289513993965328398e-01 -8.774844950210293204e-01 2.730937757304230384e-01 -4.828068977920743077e-01 7.906555366349256042e-01 -1.725379961582068078e-01 -4.231019244703942972e-01 -9.862310772671117887e-01 9.996565479486626549e-01 -5.010721258591076532e-01 -7.019682029644285226e-01 -7.496465122226307898e-01 6.335151520551753901e-01 4.224791239693037603e-01 -4.587925176991983767e-01 3.257387880675345349e-01 1.712241999454931218e-01 3.006181568503550339e-01 6.498546436132135451e-01 -4.636827843685508710e-01 2.592087681642538666e-01 -2.312364860500011263e-02 -1.234177627325175608e-01 -6.544208531601137802e-01 6.732957000108940049e-01 -5.596940797154845715e-01 6.712736147666649167e-01 -8.057191080246803860e-01 4.740055388853437468e-01 -2.120521269524735519e-01 8.067874453552932590e-02 8.590222469587463494e-02 7.783891057816398895e-01 3.937801783661035171e-01 6.292207371687665030e-02 7.612885233404259600e-01 3.140308292663601675e-01 5.658590521177420118e-02 1.666487997101007146e-01 9.068606036601323250e-01 -8.312575048614172513e-01 -2.590712040172004071e-01 9.296203589552041180e-01 4.347159076654517618e-01 2.010377942878661950e-01 -3.770272318539943379e-01 2.721514863641411597e-01 6.786407645655725407e-01 7.938824896158211963e-01 7.642737186684478434e-01 -8.099668930850045800e-01 6.724718794693615997e-01 -7.102915112387948593e-01 2.815364496960548468e-01 -1.720594777294194300e-01 5.297136690432191486e-01 7.621362453681719273e-01 -9.164283231800569585e-01 -8.480928346084289082e-02 -4.162298916751902556e-01 8.280600358364295088e-01 -1.000383714195898444e+00 9.272974434796372734e-01 -9.511388984322522999e-01 5.772617063515972369e-01 -2.909292306981941523e-01 4.125636663387084457e-01 -9.968241106931337026e-01 2.475017831375638799e-01 9.661078500738244923e-01 1.644283151572559776e-01 -4.572728412166915390e-01 -6.459375953454999930e-01 6.063061745403902636e-02 3.479633115663183229e-01 -5.141710644724075685e-01 2.166544616536499601e-01 -8.512281021098139222e-01 -3.143029741524328013e-02 4.808916989015759591e-01 -6.469375020973915369e-01 -1.214327411399669134e-02 -3.602070369658255666e-02 -2.101081858371368627e-01 -9.436350437142736469e-01 -8.653986287476354011e-01 2.999245516348005847e-01 4.707884743339364048e-02 -5.816834943397048985e-01 4.706472847115731328e-01 6.522813853309482601e-01 3.825283976263114116e-01 8.340637228401011072e-01 -8.197641918031295383e-01 -4.985640421630934682e-01 -5.593711810799981698e-01 2.931797369327604486e-01 -9.831315184707551946e-01 -1.324750910594130193e-01 2.330735763244842218e-01 -2.365079462596891835e-01 3.624207987323972979e-01 2.566631186367268058e-01 3.053060917995161216e-01 5.812558341424243213e-01 -2.753485577896245817e-01 -6.703892862935909580e-01 4.445671940657544563e-01 7.652886240007019704e-03 7.214660718047841703e-01 1.252256826268774714e-01 3.102936259760967833e-02 5.928680834579151959e-01 -1.806443206591362982e-01 -6.808516976729906967e-01 9.917929994715111164e-01 5.423486913616919480e-01 -4.341458027511916895e-01 -7.969886002963076643e-02 -1.134764663676681717e-01 -3.563094582753441042e-01 6.831311751792941145e-01 7.945710810697581561e-01
