-4.052778068720404026e-01 -8.992702038271007670e-01 -6.276659864633697961e-01 8.491264923293739830e-01 -8.788903660463343037e-01 -6.519910507644097741e-01 -6.541529829162124887e-01 6.894106835265019217e-01 -5.344561664494709152e-01 4.570214480325045514e-01 4.139411791414018271e-01 -4.200171554542535546e-01 9.896609696163773118e-02 -1.895270744187580181e-01 7.215533162554363944e-01 5.603006607470779610e-01 -8.406291029262691339e-01 3.215622110732401229e-01 -7.077224708440283951e-01 5.203450497145496456e-01 -7.149134653032858111e-01 -6.284715922729220416e-01 -7.084777345152313277e-01 -1.598656874947328443e-01 6.562257231860095796e-01 7.836789504430838882e-01 -9.972295315868207055e-02 -8.059585127788357894e-01 2.830375906460116386e-01 9.115760905280361204e-01 -9.371953504001362401e-01 -9.014336308286809984e-01 -5.382470715025137187e-01 3.386992546369845813e-01 -1.338713064847232292e-01 4.851133409364256632e-01 4.954133210695328970e-01 5.235744493297997959e-01 1.022935611321680038e-01 6.058489713588312009e-01 -5.507771555051425016e-01 -8.146270145187750611e-01 8.167828786986486289e-01 3.925080913096295476e-01 5.246838301271430360e-01 -1.802675734661583068e-02 2.108672676970735349e-01 6.555097219349604876e-01 -8.922374848939412795e-01 -9.814741699915841000e-01 -4.716022419733845727e-01 5.011579390785285693e-01 -2.242512932172349149e-01 8.886715908290330201e-01 -3.571597559671051414e-01 -5.155384455620228845e-01 -8.187802449630363633e-01 -5.655202455465890843e-01 6.969366742079814436e-01 2.746996133025846887e-01 -8.678488472559372502e-01 6.090030786827898002e-01 1.077368611389836195e-01 5.987357946039637557e-01 -9.040164745346502828e-01 6.303366640673392363e-01 5.981829296997950157e-02 2.260808757012371661e-01 -8.073754717730183827e-01 4.518555404994513136e-01 -7.465198351357749118e-01 -6.047473884693853607e-01 6.241010727483717879e-01 -1.026301680144136697e+00 -2.714232564666749919e-02 -4.888062908071088564e-01 -6.621654586231214834e-01 1.970800291609240418e-01 7.644328486734370820e-01 8.236289651781165677e-01 9.346003045828417122e-01 6.878757867165564699e-01 -2.904601451395520950e-01 3.499059754474562745e-01 8.436470857335416351e-01 -1.685477254469436303e-02 -9.437863242103848860e-01 8.337672083584773963e-01 7.302534854577262813e-01 5.302507207761170127e-01 -7.056591182486311453e-01 -1.033124000882017723e+00 -8.871045815993234829e-01 2.683852578007399625e-01 8.825239607110180184e-02 1.307495966484897298e-01 -2.431228559498724295e-01 3.234664675366405451e-01 4.612851060099847356e-01 4.504262013882200794e-02 1.952085611934597786e-01 5.748874192353061741e-01 -7.683226647534479037e-01 -1.021613568685926232e+00 4.434618768935353339e-01 -2.026766432023955622e-01 -7.024766000715300107e-01 -3.440906663665052687e-03 2.590806617956568081e-01 3.216728718888614003e-01 6.662438437497517629e-01 -4.095809757237138804e-01 -1.297195783268083602e-01 7.849354099980603294e-01 5.529268810112553112e-01 3.680164574500554564e-01 -1.399622055289162503e-01 7.496187438140397008e-01 -5.855927256968821437e-01 -2.492932589189804093e-01 8.537747288260014722e-01 -3.810753880273536898e-01 2.318562767977954686e-01 -5.434438997409830607e-01 3.616818641944625767e-01 5.914994494906766764e-01 -8.722122518417809722e-01 -7.308075368473322397e-01 -8.552444691262268694e-01 6.507224620856567610e-01 -8.079803584965283836e-01 4.462564535070536742e-01 -1.112173707400097245e+00 7.704752563831021028e-01 5.547333045619566860e-01 -2.778079242782696863e-03 -9.605847378874127207e-01 3.041253502519982721e-01 -3.391361587924741211e-02 -3.962921094631490226e-01 -9.133620600795726574e-01 9.853646716733786004e-01 6.924464056355957853e-01 -2.867628842703776049e-01 -3.532995569419941084e-01 2.932911186510048784e-01 3.038909173689176568e-01 4.223774674645011107e-01 2.215532094752322434e-01 2.570493588195946200e-01 -6.194108527304448275e-01 -8.874583466114158159e-02 4.598113576656638335e-01 -3.088810569136803408e-01 -1.150596128430965426e-01 -1.337389096106688546e+00 -2.805609304742252563e-01 -4.998982239501871816e-01 -1.121311893009853344e+00 5.276592021587758197e-01 -3.700612081217905525e-01 -8.146069670972927446e-02 -2.195466377445665519e-03 1.286892101395739618e-01 1.331844766373617150e-01 1.299740309591414233e-01 -9.514164415287327259e-01 8.306872252775853172e-01 -2.733647038469455559e-02 -6.226820293102678372e-01 -9.271131319053861342e-01 4.342061445314147616e-01 -7.851399333367927724e-01 4.207382518025023499e-01 -4.093438249055820211e-01 9.366698177144257009e-01 6.177380476372908991e-01 9.678090044993929997e-01 -5.371275640833578224e-01 1.992433397219778649e-02 -3.133302131202116425e-01 3.562353313937391963e-01 3.911701064444201778e-03 -3.398813412074521145e-01 4.063327682133111574e-01 -2.072554832264147939e-01 -3.122981499490738999e-01 2.960337034040687043e-01 -4.754835064325092508e-01 -7.340094305432194322e-01 3.440177575791342757e-01 5.620811549556889997e-01 4.891713303933906132e-01 5.295481497033306395e-01 -5.062160967466995398e-01 -3.474955482374497140e-01 -9.700594101631396793e-01 -6.495741922709772354e-01 4.444688440337179469e-01 -3.930114695242930556e-01 1.056646500519895948e+00 1.049251059013117660e+00 1.093009181244037453e+00 5.124859290561331049e-01 9.369670100431687354e-02 6.739498588557497616e-01 9.185818479598696351e-01 5.327364392983350294e-01 1.149814238243244580e+00 9.895621614770704344e-01 7.371908988012454422e-02 5.341323609303804121e-01 -3.009051021621052605e-02 5.964841572717259899e-01 2.623016573549564745e-01 5.393385297253582289e-01 1.190108804997271008e+00 -3.402809676770512937e-01 -6.204100449096898451e-02 2.695494491901230805e-01 -8.426228688434131975e-01 8.852012352960652031e-01 -3.128462010965885054e-01 -7.432528619197814601e-02 -6.228380341616548410e-01 -3.545366910463766674e-02 8.589654257477846722e-01 9.293412842619900305e-01 -3.000700756590722884e-01 -3.973145312290711217e-01 -9.498063332999535924e-02 9.893253259254635168e-01 -2.614903084798668731e-01 9.746734628198118200e-01 3.489357502773285935e-01 4.475549353666018471e-01 1.503583570644007605e-01 7.681444768282060798e-01 1.340633561544746444e+00 1.008082763315007790e+00 5.322135852155424063e-01 -2.292592037099172586e-01 -6.904635064572473002e-01 -5.645710709234683655e-01 8.586671093945807964e-01 -2.592410330986695266e-01 8.501606242201932562e-02 1.667056147691839407e-01 2.617491656954977208e-01 -9.651118880729452065e-02 7.551648098600000081e-01 6.334794246606048063e-01 6.067665528855972212e-01 -9.899693552682352349e-02 5.626113120500731979e-01 2.136954884432716306e-01 -4.791238385424207435e-01 7.462950418726679302e-01 6.898098382966072473e-01 -3.592278095919256842e-01 5.065140571407903414e-01 3.375934245939022360e-01 -4.576590666817101916e-01 1.507755837137000787e+00 1.318667755395329211e+00 1.238096286828956005e+00 5.825060592324294850e-01 -2.936959632543398868e-01 1.751224106406044090e-01 4.110569978457627172e-01 2.722922909307183836e-01 7.323816129726111734e-01 1.756114862545685509e-02 1.932465645961537193e-01 4.899650898802647703e-01 6.941405081178083636e-01 -5.794331422856437985e-01 3.469235976738051508e-01 -5.054960559585622848e-01 7.319745649808366839e-01 -4.218048095176922530e-02 8.273016557134601490e-01 -1.184051251803596855e-01 3.512567289139386095e-01 -7.700825439275920115e-01 -5.045061316796114470e-01 -8.366604229178704610e-01 -2.649146081885740966e-01 -1.400319035077602636e-01 -5.213281907184117436e-01 -6.181796404553354662e-01 1.090931330964432233e-01 2.367635588373986910e-01 -1.463254506349809247e-01 -8.810656473730310578e-01 1.596061907529483237e-01 -2.042550326618261872e-02 -6.184968801221816387e-02 -1.016068888691447208e-01 -5.621348711351811245e-01 1.187127559061120108e+00 1.493465607485979785e-01 -8.221212543271987361e-01 1.259261885229335798e-01 -1.558930554840133598e-02 -1.016860963983471811e+00 5.392107342981927731e-02 1.581660581112712960e-01 9.882787166374513710e-01 8.468053526776072593e-01 3.150603781371231343e-02 -9.452008548302053281e-01 -8.487680775846197234e-02 2.776292403327245695e-01 4.867227438971482578e-01 1.968217104210246149e-01 -4.976020851113206467e-01 6.275256339886331469e-02 2.767737630129204485e-01 -7.230217349905166957e-01 -9.698968396478454546e-01 -1.712951487606986012e+00 -1.224361883762826508e+00 -3.503777716155735966e-01 -6.670016252865453854e-01 -1.268947524962535045e+00 -1.866700574732203521e-01 -5.542967338068734984e-01 1.577468128048934437e-01 -4.638916089913421303e-01 -7.872257653028197355e-01 -5.543156511376504669e-01 -9.613240910806472028e-01 -5.212645405068682125e-01 5.541257406978420536e-02 -3.546263263434957236e-01 3.392014010939245483e-01 -2.848565161338235674e-01 6.835885346035163179e-01 -4.431807244347273911e-01 -1.111011886051765707e+00 -4.942148387475858717e-01 -8.919417132890852251e-01 -1.566580812953490387e+00 -8.959326409182660766e-01 -8.271783688632358134e-01 -1.462665268871621960e+00 -1.127803761903216850e+00 -8.759562875061140952e-01 -1.494887461318559652e+00 -6.286853893575355956e-01 -1.342378360752925159e+00 -1.160382969982513002e+00 -5.898894392194495295e-02 4.083826410647608540e-01 -4.874605991173912023e-01 2.791147823398333616e-02 -3.657958953929281720e-01 2.829258569445370353e-01 -1.221186967647947652e+00 -1.069507987237040991e+00 -8.758426573905743195e-01 6.507521285252833299e-02 2.033766638987079614e-02 8.338417223369835873e-02 -8.558060139713025150e-01 5.786788994326994562e-01 4.698127211060312836e-01 2.887189119705556584e-01 -7.571631207271021236e-01 2.465265628922403141e-01 -1.277018449643477327e+00 -1.199811483186391969e+00 2.520032311113970525e-01 -9.489788009780485423e-01 -5.716391974653849406e-01 1.476870122769193272e-01 1.527576730844490138e-01 -8.825469168298397671e-01 -8.066393926987392993e-01 4.398022981122243769e-01 -1.118928751880207795e+00 -4.189034851460298192e-01 1.597774437561552963e-01 -3.704029190158264484e-01 -9.700636891999310230e-01 -7.760481782128952899e-01 -1.092206872272429852e+00 8.243984453563819870e-02 7.593717343821116961e-01 6.219174674012358794e-01 -3.980905565696808007e-02 5.405980078729052396e-01 -7.665133494797989056e-02 -9.463077606155927413e-01 -1.187420372811892333e-01 -1.061957167905706045e+00 -6.670522190793737316e-01 -9.887693532452772605e-01 5.585675178993181333e-01 -2.207710248829446997e-01 1.457477608355335075e-01 -2.990998052597632628e-01 -6.746594886469834407e-01 7.281848119675043973e-01 9.188816352520655650e-01 1.570019968520731390e-01 -2.047035969416480250e-01 1.476832416377847103e-02 7.709975981240444476e-01 7.218019337619818732e-02 1.409165572834746305e-01 1.540107168582611485e-01 -9.537484280523619296e-01 1.282123152049605141e-01 -9.849625310275341716e-01 -8.214721660195416497e-01 3.448348916371448691e-01 4.509585720513179519e-01 -8.434958463117356864e-01 -5.071483023645384502e-01 -6.202828927033443573e-01 1.311231865226989424e-01 7.183052874257381815e-01 -8.206807434511316224e-01 -6.333227041403657331e-01 5.887287097333269298e-02 4.787066972758505234e-01 1.310937568508065754e+00 9.000055905811862322e-01 -3.208402582893567501e-01 4.424159701731802952e-02 8.608070274139527633e-01 1.803100801319958146e-01 -1.061802759970212062e-01 -1.825646348857900558e-01 9.480275672873453852e-01 -4.191486068526181774e-01 2.953887654629986370e-01 8.243844062682743612e-01 3.206083956069345486e-01 -3.284338868026333014e-01 2.004212286147003252e-01 9.563663572128927592e-01 -5.284244121821561613e-02 2.008409784603711334e-01 -4.497793715874131015e-01 -3.849339848217055993e-01 4.183024134155059470e-01 5.291146289899193444e-01 -1.715915676730340178e-01 -8.829051126238219860e-01 7.734970959127555057e-01 7.921672790523257568e-01 -5.891213723227779475e-01 -3.851658944271061924e-01 -4.477403276757769279e-01 1.126532058023476779e+00 5.430539703281610509e-01 -4.734825866615237633e-01 6.120296840925676385e-02 5.194929150299931742e-01 5.425635005843424397e-01 -2.175127613617230393e-01 9.347636562883520073e-01 -1.313076925543216755e-01 4.784865312976898863e-03 -3.551500337543673780e-01 7.867064952877325101e-01 5.789171361451785902e-01 -4.898450020001428040e-01 6.621539500845017301e-01 -2.088526688507501006e-01 1.134819246542893900e+00 4.573922244207392351e-01 -4.745534536887037191e-01 5.481094160219099898e-01 4.581758322902383385e-01 5.576208532193270839e-01 7.474605996042447964e-02 9.137984614980764198e-01 -6.896140210188956843e-01 2.505670439330304755e-01 -2.534193602397687428e-01 -3.205730169082028902e-01 -2.247963133128081381e-01 -2.892489992419278733e-01 -1.211776720476392954e-01 -3.500281638933736006e-01 2.151867607887127665e-01 7.061574451882625114e-01 -3.349984645047678067e-02 1.711583312490446984e-01 2.563418338603223323e-01 1.016136665437900710e+00 9.152849709616331930e-01 -6.510765677830259168e-01 -5.914824332228419967e-01 9.948967094941204570e-01 9.730552364400778531e-01 -3.581161143426707383e-02 1.061339042715408132e+00 6.414690596775133313e-01 -8.957950300046747527e-01 4.859138797753311256e-01 1.374002931341083422e-01 6.324026868675464153e-01 1.120912214534137030e+00 -6.372832066766767056e-01 -4.888160920482542138e-01 -7.462814778778426028e-01 2.543995107898654462e-01 -1.086157709352553846e+00 9.187831777754030052e-03 -1.162837299741211528e+00 2.978775874170190296e-01 -2.397340260138824952e-01 -7.700261612990448867e-01 6.099036928688291725e-01 8.654674938072755008e-01 -4.136864373305486620e-01 8.200444040695783476e-01 8.316507392373726493e-01 -2.454124508437463825e-01 8.777298711528195296e-01 -7.180915115678088156e-01 3.478930913993586449e-01 7.090221035692833018e-01 -7.034962546144049034e-01 1.017092470705753371e+00 -8.154461429468201628e-01 -3.033882158774583657e-02 -8.742155176379743375e-01 -1.092980654340390823e-01 8.545687205910168505e-01 1.151710449309051310e+00 1.651801216414809370e-01 -3.046610648899903961e-01 7.474699461898927089e-01 -3.063220541445714762e-01 -2.937859747197129057e-01 1.353252854737306277e-01 3.224423076626647955e-01 -6.127203907824320117e-01 2.126979568455078240e-01 -8.872360724284560421e-03 8.933291026337654428e-02 6.844681652582972342e-01 6.963753747208507872e-02 -5.880598041333513493e-01 -6.677897242122564636e-01 -9.220831765671785307e-01 -8.788547434860309870e-01 2.444941491632878980e-02 5.492005976996374716e-01 4.774624352467108368e-01 8.701543963431667139e-01 2.243535931569385911e-01 -8.005492820685774502e-01 2.905429186512562545e-01 7.095239000516462280e-01 4.027206844346106207e-01 7.197377786216304640e-01 -5.589489709034277665e-01 3.428175503189366258e-01 7.151614453519831160e-01 -3.993138819501509396e-01 5.233646032753040966e-01 2.532007710473848650e-01 -8.754151261509138804e-01 1.974017612463088434e-01 1.852440845380034506e-01 -1.525440563875847921e+00 -6.320220115251909965e-01 2.201393416634887246e-01 -4.897140634637967005e-01 -3.422750496610422188e-01 3.479418122798529911e-01 5.004414350737946826e-01 -4.376665495377962123e-01 -5.292678638730476948e-01 1.338800543206294658e-01 -8.271343307486391794e-01 -7.013291295098027511e-01 3.392443076576990291e-01 -2.086528859090737986e-01 -4.392905016226327231e-01 -1.357572439311549306e-01 -3.380128832921329707e-01 6.045844579051613543e-01 2.398268832131696948e-01 -7.546863276904499651e-01 7.300078076457979792e-01 -1.155578580827833907e-01 8.090797333205440589e-01 5.717004466237713967e-01 -6.533232475546697504e-01 -3.905064253631990168e-01 -9.873834103507852511e-01 5.217261622277112876e-01 3.081817284732875709e-02 -1.404537167796159558e+00 -2.904572007044842752e-01 -1.703488837955520474e-01 -3.969611975560008443e-02 -5.265266583338652495e-01 -1.029701488488578676e+00 7.947192373980052071e-01 -4.379493222817200659e-01 -7.322057660064534845e-01 -1.727631380994764931e-01 1.014687150928256454e+00 -3.569173434181175941e-01 8.060618877454907016e-01 2.120987000071593853e-01 -3.723714373244971232e-01 -5.718667299780419433e-02 6.530703272554204686e-01 1.999327568185725046e-01 1.897772464694116590e-01 9.185480440111092326e-01 4.472390088139673314e-01 7.089837199389610323e-01 -4.706508605061717754e-01 -2.193190653927035716e-01 6.347388572478896984e-01 -8.031084174015252763e-01 -1.204842835549713442e-01 3.290669102925325440e-01 -1.130523324183599687e+00 5.655705872512654248e-02 -5.627154998890069315e-01 2.390497103753159713e-01 -2.888105651259035844e-01 2.252640270413899248e-01 -8.545722116033361848e-01 -1.702330880965028381e-01 1.173825595655623028e-01 3.598853309935231559e-01 -4.539470471432651699e-01 8.161858466579595683e-01 -7.925027378147626589e-01 -6.754110225457830019e-01 5.828536827699918321e-01 4.985793525696646800e-01 -1.511818945419467486e-01 3.715660699232140596e-01 2.235189637215833913e-01 -4.633704069809859716e-01 -3.123473204397772887e-02 -5.080987940499535060e-01 3.042196739876828482e-01 -4.526598727072650430e-01 5.111170322407124766e-01 8.386845633974057135e-01 -4.038911646356296999e-04 3.591635579409495627e-01 -7.793676627959804648e-01 6.395445336211715848e-01 3.941581037805992338e-01 2.677631597740797592e-02 -2.409723786948583524e-01 2.958940089450611821e-01 -6.116208471780011369e-01 -6.400051650437088568e-01 -9.673785424142531397e-01 9.466038636484714885e-01 -5.789353869801361352e-01 -5.094166946511077265e-01 1.371697664455919785e-01 -5.853022074088627402e-01 1.900122939774493425e-01 8.281749550990589182e-01 9.956261583898815548e-01 -5.862410544819935954e-01 7.225234971689099561e-01 6.108679622213273319e-01 1.573005101485553392e-01 8.814828218805368168e-03 -2.125000395246200990e-01 -4.848706811255176774e-01 9.508964134195944107e-01 2.577555047596573057e-01 -3.402826893518328122e-01 4.910408039944238329e-02 1.067882764245965177e+00 5.424046327030438430e-01 -4.213957242664829739e-01 -6.209316954166560487e-01 -5.686445515064555423e-01 -9.975098113449530970e-03 8.355715677007600206e-01 4.223650223413993876e-01 -3.971178316386276830e-01 8.357708409957782525e-01 7.655123975447843954e-01 8.204333352499729171e-02 -4.987182253471176829e-01 -7.104396645088678630e-01 -1.611105001801618197e-01 -3.669581067247753570e-01 -1.545594361550037821e-01 2.147144017144172329e-02 -2.369529640747427279e-01 -3.082558321974732674e-01 3.191836498462349292e-01 -3.499181496218305432e-01 6.632518464499351230e-02 2.636480959297746174e-01 1.693100257515979812e-01 1.312433334584343525e+00 -3.334910024478239254e-01 -3.733509347409715295e-01 2.565578679834236708e-01 -4.417649812684322219e-01 -2.702200059208141880e-01 -8.347650198379670261e-01 8.333877510572049729e-01 9.592111861546314122e-01 -4.743741821103251988e-02 2.873552208172689415e-01 -2.207209640370325354e-01 8.408813874870562088e-01 1.969167344206920467e-01 -1.395965044006239053e-01 -3.160887136379956774e-01 -7.707893443192526117e-01 -2.233729380884750260e-01 3.267253396422646894e-01 -7.047989622377957009e-01 5.547019104674286716e-01 3.542104624992051809e-01 -4.430752286729229827e-01 1.795233363462052645e-01 -7.881137472222931040e-01 -2.539368930767538224e-01 -8.255507478536853183e-01 1.580239461473121332e-01 -6.964807820280483064e-02 -1.922328101932995192e-01 4.154108316458638914e-03 4.160878817433362464e-02 -9.160901439329465212e-01 -6.876504187033121163e-01 -2.159639449515876053e-01 -7.377236120592750579e-01 6.011893818444089543e-01 -1.347301028507104093e-01 -9.644013947640946161e-02 1.498288822360362982e-01 4.908709094869452838e-01 -9.481110266846727308e-01 6.065716801997943497e-01 -8.157595778820908583e-01 9.390528274984024648e-01 7.155898914398206578e-01 6.218274397983973856e-01 2.036638457831352333e-02 -4.354222442037165575e-01 9.828618999378433418e-01 5.812876315353526779e-01 5.821003076601041215e-01 1.845573341196086320e-02 -7.058633351967863456e-01 1.758298627249214874e-01 2.177575711966417416e-01 8.866471353149564250e-01 -7.374828830231250354e-02 -4.069244377428653525e-01 1.233846703766380143e-01 -5.153451757590056248e-01 9.338309354206978385e-01 -2.380971387510414650e-01 2.528910795176262383e-01 -8.330524435997407329e-01 -4.375029155274194892e-01 -4.916011594916602778e-01 -9.272986387973882749e-01 -1.880652299431400387e-01 1.468876775464778017e-01 2.733842100146641751e-01 -3.516921132090784496e-01 -3.092364629973898271e-01 2.268888303310212518e-01
2.089395262649018647e-02 -9.598877254140745219e-01 3.808775269054425205e-01 -8.957769476934251962e-02 3.804984379570635067e-01 8.132924819172993036e-01 -9.884052318773113299e-01 1.257366203585834619e-01 1.180211142056939444e-01 -3.209657619986558963e-01 -5.520170597570326354e-01 1.522421237061015731e-01 6.965387164476677384e-01 -3.901006934092287048e-01 -4.311608726232961653e-01 9.169315211789568210e-01 8.481099497333393078e-01 -4.073846642525076334e-01 5.764674583897511084e-01 -4.218174656075224238e-01 -3.857509993307739471e-01 -6.583723470699258673e-01 3.557440544048722231e-01 -2.879271660837052771e-01 3.568236721768207609e-01 4.352644361336597267e-01 1.020424200241738522e-01 -9.120765107668458160e-01 9.312594864866123867e-01 -9.422437627273534400e-01 -1.694691240042598412e-01 5.702242520949596383e-02 -5.201466955768142553e-01 1.979229621825196739e-01 -4.081165662724672849e-01 -2.891842216764239359e-01 -6.687461736424702430e-01 -3.178456550646847900e-02 -3.527001498305815108e-01 5.410697716788276379e-01 -2.573943870824819125e-01 9.193326574597944500e-02 -8.390224305004272409e-01 6.239286996111084171e-01 -2.189192631366657441e-02 3.030210284029383194e-01 -3.273883225839898659e-01 -1.010292301281961180e-01 -9.364067304453508322e-01 5.165243547145982328e-01 -8.365710309621128271e-01 2.668352482838486361e-01 -3.120228489319889498e-01 1.998820041043425366e-01 5.622929058983676676e-01 9.734944066543960162e-02 -3.668965976531997075e-01 -6.848578087352799049e-01 -6.907750412530173634e-01 3.956205692853103084e-01 -4.894212924555698709e-03 -3.984791463223920638e-01 7.112540981560224740e-01 8.673547524865181657e-01 -6.938218950030710097e-01 -1.306094347559298152e-01 9.087098275972353978e-01 1.432321275569207741e-01 5.797828254976262752e-01 5.197799973365287984e-01 -8.076496698226262039e-01 7.290403528548583534e-02 -7.958395838811442857e-01 4.771259081995649076e-01 -4.592860383752520592e-01 8.562943234892644861e-01 -4.180286548263633523e-02 -8.831735140392407146e-01 2.661418144265824681e-01 1.587980322763269392e-01 2.540848622834699921e-01 8.341906601327330195e-01 -5.097119076600753473e-01 -1.024729001792934469e-01 6.771128631975045220e-01 5.985951934720361578e-01 -1.363349513775900280e-02 9.459528367265239712e-01 6.133556703623284090e-01 -6.154243390537440517e-01 -2.325933635957067036e-01 -8.137496154588469421e-01 -2.969751392136134038e-01 3.287268190978693272e-01 8.394834514762916644e-01 5.737281655333682506e-01 -1.078879742580119983e+00 4.999260959342923805e-01 -5.531256212144527451e-01 -4.496273245952625564e-01 -8.261614092372024931e-01 -1.025617892036219114e+00 -3.252297149360937611e-01 6.191414080280061016e-01 -7.069680150350977910e-02 2.038725519599391134e-01 -2.176687848684372428e-01 -1.723346383306508522e-01 9.199747847774973897e-01 -8.742111567891897028e-01 7.951738595012624033e-01 -3.905177324419695228e-01 9.352634781285000809e-01 2.999719703187107150e-03 4.216463768765993936e-01 6.478636464469798018e-01 -8.227940180454265118e-01 3.159721999746950560e-01 -4.918383545695985126e-01 -2.718450589946478924e-01 -4.659094082470839338e-01 -8.199713441404155034e-01 -1.164461091005011717e+00 -6.767643462466195192e-01 -1.347279218878071061e-01 7.129339772432237154e-01 -6.996488921283720019e-01 -1.841956161381982926e-01 -1.213377092477800900e+00 -9.007032971530392063e-01 1.969547295153012967e-01 -5.652320211645511794e-02 6.272800677656668045e-01 -1.138205685324485739e+00 7.676962229709078933e-01 7.259037653084237096e-01 9.637195813069608930e-01 5.364179401991768792e-01 -9.467478497381690561e-01 6.300596540101058851e-01 -6.480433858853416051e-01 4.229655410949568761e-01 7.239320870833268473e-02 2.583956584918222221e-01 -3.194075211992972174e-01 5.199492366960015710e-01 9.801959693375068838e-02 4.849090319633372337e-01 -2.212344698740514315e-01 7.618011794408573456e-01 5.209575365661257562e-01 1.378261876244559203e-01 -1.995756970797197549e-01 -4.868515926274696176e-02 8.352396809943419820e-01 1.036462048725931423e-01 -5.239210491266304004e-01 6.407256171019894975e-01 4.501071671893175363e-01 -6.874667343861626811e-01 -2.041702553470317316e-01 -8.624894977760593218e-01 9.300227700316390234e-01 7.446687614152659451e-01 -1.554075606240182539e-01 9.224765160675938436e-01 3.614900970252002410e-01 -9.514001279386941068e-01 -8.458299210113342514e-01 4.050713031735453384e-01 -3.687792780738733400e-01 4.991696350531353299e-01 8.638858318249756918e-01 -6.366710377778822538e-01 1.220757421955112887e-01 1.320987269023142230e-01 -4.598721670912191833e-02 2.727175194125290303e-01 1.167220613320097522e+00 1.613920785322114915e-01 -8.620131896415242911e-01 1.496243118159499563e-01 2.593287143154214269e-01 -8.115744614763913123e-02 -8.255444937675981976e-01 -1.123660110338281504e+00 8.701967285299254673e-01 8.384956686022659866e-01 -5.249054087990790984e-01 -6.410416222996717650e-02 -6.594993704172396054e-01 8.112404962473989123e-01 -6.881554133151984720e-01 5.936278587147585384e-01 7.267672283984497605e-01 -1.849219296092688425e-01 -2.286187458891725532e-01 6.275216767040316945e-01 -2.006683142079769555e-01 5.070948577935785462e-01 -5.781424549388178846e-01 3.672027177468653036e-01 -2.484207111362717046e-01 -7.570454329564534346e-01 7.170576925838098026e-01 -2.083136607680396990e-01 9.592140982622980871e-01 4.030744355519534916e-01 4.686360123348827789e-01 3.474270666541067198e-01 -4.233610609447120976e-01 -2.183697984965263794e-01 4.209994121082283880e-01 1.346179646742935720e-01 6.595998270557197340e-01 6.865070326984336058e-01 9.999237978517556275e-03 8.146336489717020957e-03 4.257206262546294750e-01 1.150155553599080394e+00 2.580223847249600855e-01 2.994556701978694571e-02 8.263439955937516013e-01 -4.670690700737543943e-02 -5.769436775078386898e-02 1.789984885362715661e-01 1.382216422611821927e-01 -7.777858073130029526e-01 4.706847888314349415e-01 7.229858394902662910e-01 8.966291342831402833e-01 -4.175383394724583308e-01 -7.091196701860813523e-01 -6.122122446638726956e-01 7.305429263919226424e-01 4.435402588820023806e-01 -3.181513396564398799e-01 3.428100637535821393e-01 -1.522518192802161940e-01 -5.225039741565516982e-01 9.486857078970702961e-01 1.014611366168233886e+00 -4.290946187783697408e-01 5.618678026354755328e-01 1.357500945901879419e+00 9.666661390578844548e-01 1.349133426960195559e+00 -1.501633091046622806e-02 8.411324225610522509e-01 -4.408360879151997924e-01 8.910297009884392549e-01 9.540603155049877104e-01 9.584578272802655174e-01 6.378204165325717101e-01 1.311058548433879367e-01 1.247378582235494776e-01 7.280985783852197413e-01 -9.019126744493641823e-01 -6.190079362055914691e-01 1.561447613812773916e-01 -4.167974998155405536e-02 -1.668583391500700740e-03 2.284361103193543741e-01 -5.112599783000216780e-01 9.452444859007250177e-02 5.309341071408677504e-01 7.889364778688680302e-02 -3.240148037928975433e-01 7.986734726266468687e-02 1.772708341803102550e-01 8.327380322125566003e-01 -4.078074288778677503e-01 -9.288567722642036839e-02 -5.664964911920112867e-01 -1.924734598791264795e-01 1.315149184173033836e+00 1.105892667854426081e+00 8.152410862408865366e-01 -5.634924230944903245e-01 2.015769577740431431e-02 4.583562229168183233e-01 4.987139474368032510e-01 -3.540724544026674359e-01 3.288788447420240013e-01 7.152354125169969601e-01 -6.772248957371880262e-01 5.461864566542754540e-01 1.554556236665693425e-01 -9.386678242364598912e-01 7.187220043497344335e-01 8.923644293703197894e-01 -5.476568496333519276e-01 6.398226764997730909e-01 -1.036019288442576070e+00 -6.107047464139255810e-01 -1.300919534390369225e+00 5.576749202475234091e-01 4.787138529675314391e-01 -3.947899255328825574e-01 7.424220251270229332e-01 -6.227773098673380359e-01 9.975999386431574356e-01 6.455641235110228804e-01 6.828307307499942302e-01 2.125997456777196370e-01 4.047024195505526389e-01 -6.032268316981641565e-01 -6.571467780963018424e-01 9.051320871065845486e-01 8.647708862401036756e-01 9.772788984653748567e-01 -9.993778995985233005e-01 4.176873914567263424e-01 -6.880868356065463626e-03 -5.741992080104620921e-01 -1.676908940997844794e-02 5.631269905742446180e-02 -9.233559716397393702e-01 6.713800655724088129e-01 3.014663276269303749e-01 4.005156002226433198e-01 -4.849189175892629211e-02 4.441702268450472418e-02 -4.513922832335342528e-01 -9.564714521399055869e-01 -1.177044189538313940e-01 7.124158929605294288e-01 -3.339844347305671590e-01 5.207052948001803655e-02 1.676734044832273174e-01 7.885936871847064600e-01 -4.755487738965145650e-01 1.010466153187440791e-01 3.657246222027497051e-01 7.801378032247452410e-01 7.810667058152097608e-01 7.874636480744731104e-01 1.454896671494743110e-02 -8.163532545989246048e-01 -5.290636634989362985e-01 -1.793343326801098703e-01 2.123990280654494689e-01 5.180738236020683285e-01 7.330471308776551620e-01 -4.821031875119741184e-01 1.023340009785161653e-01 -8.099309605108534482e-01 -5.892855421421062667e-01 -8.121318699551230424e-02 -7.409218822884916511e-01 -7.922338765322046727e-01 -1.491982588770401907e+00 -1.255802315874327890e+00 -8.843007695627393971e-01 -1.086908476260732836e+00 -1.172413851454497280e+00 -7.728921755301270125e-01 -4.029629590600298239e-01 8.599611244412949107e-01 1.099392926907129864e+00 -5.880691832934206165e-01 8.677048207495544618e-01 -5.642964230340586917e-01 -5.180878000888302637e-01 1.511341543279557109e-01 -7.770257397715475411e-01 -7.044296015474944550e-01 6.012748338963224137e-01 -5.868512343141920606e-01 5.688152064105858052e-01 5.725295347716136130e-01 2.948739299278601567e-01 4.737228217844095812e-02 5.447165545583620982e-02 4.057474304581151769e-01 -4.729669455161679692e-01 8.135652631920941014e-01 5.450975214645233935e-01 -4.144971307603352861e-01 -1.347021045547522888e+00 -1.413145295324099715e+00 -9.774277743677985963e-01 -1.262570098100347593e+00 -8.104142298641082709e-01 -6.586867660432027538e-01 -3.477120443721496562e-02 -3.740163284890950512e-01 1.117098834067654867e+00 8.811339633461945375e-01 -3.799622340819121535e-01 8.370301393528931100e-02 -8.964804646037896618e-02 -8.577417216956309542e-02 -8.337170675069282000e-01 4.923842097818331709e-02 4.284810071995033831e-01 -2.148123052976584069e-01 1.068934780584780420e+00 3.641442273836193455e-01 -3.601339981496938236e-01 -7.743939749889474644e-01 9.225021171130132203e-01 -3.573433474198980941e-01 5.671199554651645824e-01 -2.806906158336846535e-01 6.428674377795799699e-02 -9.124679303238499850e-01 -1.477824195035128518e+00 5.225093884880717410e-02 -2.585761609821958795e-01 -3.440136638523307866e-01 3.496702437047203293e-01 -1.095232643812232176e+00 1.237712485232755899e-01 6.005023337082852075e-01 3.969674626374338107e-03 -1.297342611125876233e-01 -6.722126729996423522e-02 3.922401241197479016e-01 2.238697483362245555e-01 4.814213318146265963e-01 -4.584185350010113735e-01 -7.638882041851321469e-01 -1.898611889886258342e-01 -9.087038521334751540e-01 1.169598243808622984e+00 -4.068298647580748661e-01 -7.709662763092152427e-02 -4.934994771999798302e-01 5.147806193635925398e-01 -4.109107813284545441e-01 9.253082764174955788e-01 -1.299531151017189190e-01 1.792909665348820791e-01 -4.364842337950389783e-01 8.079340004977916823e-02 -5.946173357577365648e-01 -1.114252968658138547e-02 4.139517257638164471e-01 9.324111385837573485e-01 -3.672877903622049911e-01 -7.067503300340106653e-01 -2.664859307859922533e-01 -5.049528773992303238e-02 9.141494936666511029e-01 -1.632290573950788415e-01 5.287362838103257801e-01 6.426411431072530656e-01 8.404479913870042118e-01 6.133985382549160814e-01 -2.216828069221204178e-01 1.050941433973757722e-01 5.850306451973456001e-01 1.819465412740940424e-01 -9.176510305424626646e-01 8.322734022442663804e-01 3.061703048000001259e-01 6.871975461966468579e-01 9.337402334392761460e-01 -8.162828871500317496e-02 1.266251213396105690e-01 -1.196877067728233379e-01 -2.071477484551655923e-01 4.331122551243517527e-01 -9.559516024561387493e-02 5.729246423678123756e-01 -8.017093460592006338e-01 9.597303983105224257e-01 5.018415801209691329e-01 -2.267268990281564589e-01 -4.351617414509272863e-01 -2.339051295856019175e-01 9.877146725643652925e-01 -7.182168943046097764e-01 4.223396715702999737e-02 -2.238664110655585321e-02 1.031441189257615854e-01 3.634616122218733425e-01 3.186794001695166800e-01 -3.801606518302098198e-02 6.749425277260370226e-01 8.674024403194969812e-01 -7.803074850440149257e-01 5.488258194762422187e-02 4.513756088326019711e-01 2.716596354950263636e-01 1.355115291444718706e-01 4.070606588004887505e-01 -2.602460524467362091e-01 -9.593518339227835590e-01 -9.619334369336469681e-01 -6.551833538566627091e-01 3.246732471533013697e-01 -7.737119393405261780e-01 -1.361894837662748622e-03 1.327469325716288014e-02 -4.304098196047130842e-01 -7.773009832410332498e-01 -9.114212268876356049e-01 -5.424288162691334181e-01 -7.230233992562027368e-01 -5.149307793537186706e-01 6.735768121852712120e-01 7.573197223810558265e-01 -2.886231214410414081e-01 -7.164210948058264972e-01 4.397734759296424434e-01 -1.396019393670442921e-01 -1.000741378524945047e+00 4.156386822867020464e-02 -5.360691021987313842e-01 -7.977733415472970657e-01 3.067583131490923543e-01 2.114407784340706087e-01 7.277227735246323548e-02 1.233614823757564816e+00 -3.421266973668185551e-01 1.160664938386039985e-01 -4.254703552530248456e-01 9.626835098924868550e-02 4.931716936813357877e-01 -2.128053341382553088e-01 5.023772763333991254e-01 4.833068156163076168e-01 1.286143861912620590e-01 -2.378926109511420584e-01 -2.720733605794239951e-01 3.690069472874707990e-01 8.918706727452947458e-01 -2.652266676938412893e-01 -9.802324597122218375e-01 -5.189592102046562960e-01 -9.543929918291861325e-01 -7.068323635355638901e-01 5.488841830704527247e-01 -1.113231942403671626e+00 4.161435515714485001e-01 -6.229907746351148745e-01 3.377777403646680110e-01 -1.485813407815293752e-01 -5.192881058083802515e-01 1.105779541118256937e+00 -4.004287802756578696e-01 3.185022191304219819e-01 1.057747238680037727e+00 8.950144196169411703e-01 4.508350618746933547e-01 -9.214930092557543917e-02 -8.421000004067272782e-01 6.161122119095866490e-01 -2.302023811435967848e-01 -3.798569373302516650e-01 -5.270532392553486933e-02 -6.737500768014909047e-01 -9.062542879966136722e-01 8.895237755386264933e-01 3.492731664487138676e-01 1.076816523329394842e-01 -3.977714062875921663e-01 2.253125157418114366e-01 -2.293683358131652916e-01 -5.775591876173877814e-01 -2.920168344636582813e-01 -1.764927897078332752e-01 -9.120620467918431062e-01 -9.101310892549819842e-01 -6.465798227022634403e-01 1.199096286978734049e+00 -1.326663707062454567e-01 7.634840835831895323e-01 1.084809656040422121e+00 7.020694056882029743e-01 6.124804778759967983e-01 5.004409953885878837e-01 2.402129279127137307e-01 -9.344392839652212457e-01 -2.557026226592429841e-01 -4.478043119336289068e-01 -1.211491502872580894e-01 2.720974088019509352e-01 6.006615986869271451e-01 9.347167634466058139e-01 7.838561337582748978e-01 1.402960760253929851e-01 -3.163425946072235817e-01 3.896629584420918113e-01 -1.268430415182010551e-01 6.325374157279757270e-01 3.996241454481014865e-01 4.398672240137430078e-01 -9.403848163213979205e-01 -6.714597474694978807e-01 -8.611476637639745579e-01 1.660743684559574940e-03 -5.140590397152264984e-02 2.662361243107294606e-01 9.881268132296955331e-01 -5.428590303666560452e-02 -2.804900613342580784e-01 -2.543790052093757859e-01 2.101849508208270545e-01 5.595565158101680758e-01 6.682184091488569955e-01 6.800462982209897200e-01 -3.283827343823602640e-01 1.071903499706130303e+00 1.991824604159580514e-01 -8.841066219120827241e-02 -2.990810215156586849e-01 -4.985465199868839292e-01 2.734941019024325626e-01 -6.750064658146399665e-01 4.005741981987825939e-01 9.132069063989720625e-01 2.141699912493784039e-02 -9.635130902484150273e-01 -5.535067191048966828e-01 -7.213493491779566780e-01 8.611535318144921680e-01 -7.177565883672644143e-01 -1.317934486442861319e-01 2.603876078367578506e-01 -3.983690389495919137e-01 -1.268320111348539836e-01 1.552068999170902908e+00 3.170786167832824742e-01 -5.668504179126413467e-01 6.806121036305873284e-01 7.100147352653680688e-01 1.031998225733588015e+00 -3.125080889679515139e-01 9.967329522065741798e-02 3.142692373178755938e-01 -1.008616336886724724e-01 1.058068439490393448e-01 -8.525509334561439667e-01 -1.625631043377994411e-01 1.147934613141712995e-01 1.082539702249707858e+00 -8.925527882660645451e-01 -1.231371297623720523e-01 -3.662654406337912394e-01 9.490824810738032191e-01 -7.060818214983634045e-01 -9.832417705781844042e-01 8.364939947805807297e-01 2.864170945433948123e-01 -1.012964367841877183e-01 2.551651387552434161e-02 7.703690827607014846e-01 -5.513905450155969223e-01 8.974757301063172876e-02 6.844912908175259103e-01 4.195573664273419823e-01 3.742802598715698481e-02 1.531239510763584555e-01 -2.325307708369808157e-01 2.516021556364737011e-01 7.194294334534977464e-01 1.025796155768214923e+00 7.643430707969890436e-01 -2.986568173175179197e-01 -7.903489486606941616e-01 -6.067042633660350015e-01 5.024555148265764659e-01 9.437551597950614157e-01 -7.466445682918929627e-01 5.301464005597690266e-01 -9.448077690778170501e-01 5.422275999053962625e-01 8.175098635244233414e-01 -1.701356238933204867e-01 8.350146076695197372e-01 -9.886789571270422350e-01 2.032476822628848656e-01 -9.931577124638417686e-01 6.320122817001057047e-01 -7.712256865044605503e-01 -6.823991611205425245e-02 -4.028678025479378588e-01 1.307134058891353812e-01 9.233240848659510780e-01 -9.282293760926222381e-01 1.685260268427355920e-02 9.220920853314329424e-01 -4.372145081879816875e-01 9.010922195730889372e-01 9.390160602976349233e-03 2.440515005560290052e-01 9.272773773950493403e-01 -6.270884600376985807e-01 1.610825408478807896e-01 6.685571971914618938e-01 -3.640766219789873248e-01 -7.999062189205473627e-01 1.202306555849315568e-02 -4.487581441608237687e-01 6.917711356965360325e-01 -9.562920862270730959e-02 -3.400156180964342134e-01 -9.739994707821733044e-01 6.628274708056436371e-01 -1.837913230702493683e-01 2.354597031931209006e-01 7.681297624448495398e-01 9.700154887147143246e-01 -8.760029634294483891e-01 -6.899478305373014653e-01 1.164065345112949151e-01 -7.010990602128966964e-01 -9.201776005952987392e-01 1.028812039136953183e-01 1.118100975134530238e-02 2.768276838049924526e-01 -4.852899683430889621e-01 3.087700071402797453e-01 -4.177928053817486775e-01 5.990629144115526827e-01 9.314468560202587843e-01 7.383102052730031728e-01 -4.740585696378626368e-01 -6.941706038547917901e-01 3.485090918947307270e-01 9.109261443487713938e-01 -4.820461718677427343e-01 7.667678368319983395e-01 -5.585476085774795374e-01 -8.315702347674309713e-01 9.572466429992141368e-01 9.444444910351663669e-01 -9.061016974470543772e-01 -9.848467732012171627e-01 -6.828627994260233480e-01 -7.452786871768318777e-01 4.271633247308350145e-01 -7.370316825529055205e-01 6.133747460794757300e-01 8.179491477769013086e-01 -4.143367002311520442e-01 8.079278807998685474e-01 -2.760863572634158492e-01 -8.324547211878814690e-02 -7.962212997870092845e-01 5.140173943613990382e-01 8.531793527648153797e-01 -2.758341549961357275e-01 8.562465868542002978e-01 5.723744367153043022e-01 1.517809750763281229e-01 -5.919493061185265859e-02 -3.243263914729734299e-01 6.265760456727961225e-01 6.254458233728588112e-01 -1.892555958542389144e-02 6.170135888809469282e-01 -6.397678915902851315e-01 -4.279118988759846864e-01 2.094675921304784971e-01 9.730150580822209960e-01 -8.531257881889391381e-01 4.267257100230607003e-01 9.444732028074223074e-01 1.170430823398754538e-01 -5.184245590435896389e-01 -9.886362035929086023e-02 -9.847483611482020782e-01 -4.776273983049642013e-01 5.729531009430921529e-01 1.434403936339958274e-01 6.065918288271648917e-01 7.068492406914306248e-01 5.305587508390181561e-01 4.314399995001067523e-01 -7.471054616308677732e-01 1.223831667842375237e-01 -8.250916262681478042e-01 9.851170034257090702e-01 -4.786221161674661939e-01 8.435939119438651268e-02 -8.473539781170599250e-01 8.829259719924100747e-01 -8.073580456979070341e-01 1.116621429827142631e-01 3.431519064219619164e-01
-6.642063851326631685e-01 3.559129668022795734e-01 1.640254472083619852e-01 4.908526257108054569e-01 -9.431520138206643811e-01 -3.004318697209209521e-01 -8.468271515022212093e-01 -9.446760384264079047e-01 6.351654294619124563e-02 8.154505307793142865e-01 9.498993442729075642e-01 5.430826936860657650e-01 3.287819939883553921e-01 -4.442612521814006676e-01 -2.136762891614067961e-01 -7.944057401068024271e-01 2.470066398646153516e-02 -4.885060997016723583e-01 2.134559259297421629e-01 -1.303200359387510776e-01 -4.866050745623624607e-01 -6.261896188432514165e-01 -8.563401457547883400e-01 6.145119843778652502e-01 -6.324133630032875431e-01 2.349401881211601317e-01 -5.201707805645561233e-01 4.049592001487476445e-01 -7.725051455145868218e-01 -2.524528726078902885e-01 -3.565214030643135690e-01 -4.546776571265143119e-01 -3.519687066294063249e-01 -7.173557014767275586e-01 -2.101144380986168236e-01 -7.174291333986981822e-01 9.409951567118111093e-01 -7.571491714441765941e-01 8.194956939718364697e-02 4.566614227992475683e-02 5.470531114244104876e-01 -4.269791570606247255e-01 -4.581152780654006440e-01 5.514048567073797091e-01 -3.155093624686128306e-01 -6.210560775384463827e-01 -3.660624598077553693e-01 8.751670828603532737e-01 5.143725630613326105e-01 1.489352087666344915e-01 -5.976941901175927274e-01 -3.632180508038447275e-01 -9.544386036994212397e-01 -1.398492942554210305e-01 6.252475970322584065e-01 4.361217327298312352e-01 6.360852775919030311e-01 8.360423349453438568e-02 -7.746084308742481328e-01 6.179500932674217850e-01 5.162129163733728543e-01 2.118815502413757823e-01 5.397358986797751168e-01 -3.249143777514228448e-01 -9.369663353679081874e-01 -8.749072426319957074e-01 9.929198930705395165e-01 -4.582514886029730450e-01 5.978787869474704308e-01 6.745837586484862980e-01 5.823005944928436595e-01 3.837985725842995022e-01 4.542175913482391358e-01 -1.872821804601347007e-01 8.206294426809255249e-01 -4.881459830276569378e-01 -3.994515005328013735e-01 -1.675057744011730909e-01 -7.857598212366599943e-01 -9.450743734095095050e-01 -1.045535809362249657e-01 -3.355305162992249235e-01 6.864675487625426786e-01 -4.080385833103983284e-01 6.110641966114949142e-02 -9.859147476467451376e-01 3.581501252001665359e-01 6.791289458013858304e-01 -3.783097241717315318e-01 -3.423848873545381477e-01 -3.800491444820400938e-02 -1.473923298683058603e-01 8.303436450641854538e-02 4.223204217126530491e-01 5.547145433962928918e-01 -7.189107525178268787e-01 1.222600564517185573e-01 -2.220647855860588549e-01 -6.411939591472133326e-01 4.161686571762794329e-01 -8.010917333589784306e-01 1.087053158031163980e+00 1.001925778105312359e+00 -5.820004534827284172e-03 -1.818290067682702127e-01 -6.121624467116381085e-01 -2.824126591638375094e-01 2.321236155932978606e-01 8.139284791809742181e-01 4.714307791608383646e-01 6.643499326127069171e-01 -3.538206735634581435e-01 4.412997873246840008e-01 8.990580945134708790e-02 -8.479816902347064866e-01 -9.560812512933076768e-01 8.984518660829057257e-01 9.367734972057798482e-01 8.528398229217308835e-01 -8.964260916644425370e-01 1.035778772042996509e+00 -5.273488684904258372e-01 2.898787069612953071e-01 7.499965956336084316e-01 -1.033947492083135744e+00 -1.008838338889636255e+00 8.419706455986855076e-01 4.337240010455946648e-01 -4.492847522428667917e-01 -1.018769994916703503e+00 7.645348946577791571e-02 1.666994573253311601e-02 5.388589307573103948e-01 -3.229791212515281673e-01 6.528942861540752984e-01 -4.602086788642306137e-01 -2.779915833321386365e-01 6.006328853504186993e-01 -3.340250603637617832e-01 -2.067785713066180170e-02 -8.021740240740939942e-01 8.944201075363746867e-01 -1.771958819328164347e-01 5.280980165564762574e-01 -1.943264518711831368e-01 8.175760293444654936e-01 1.120185638059477407e-01 -7.746732694468158598e-02 -1.359475026744605131e-01 9.686367812632183660e-02 5.705669635899742603e-02 2.446492426402060161e-01 -9.195647171709151468e-01 4.342075199008327106e-03 -8.655731636231869253e-01 -5.191618776042516981e-01 -5.426759536448627630e-01 -5.708309873449529670e-02 -1.173734458301266104e+00 4.916860469367036468e-01 -8.270747777423862468e-01 8.300427475797386156e-01 -3.435184079778003663e-01 -8.120104620718819610e-03 -4.557797765883609409e-01 3.870349311334986275e-01 -1.220152276508078004e-01 9.577354410917654493e-01 -4.626543493302719412e-01 -8.820335884332743959e-01 1.951662888354233072e-01 -2.548346033620518813e-01 -8.528652384293635702e-01 5.160883654336376747e-01 -6.834114206003805148e-01 5.756783898110124920e-01 7.030819314442281198e-02 1.946270436013191885e-01 1.571090513919660703e-01 -7.116426431246282158e-01 -4.383736478641125922e-01 -8.937833056433484025e-01 -1.434660208401704162e+00 -2.445561832636061195e-01 -5.830772953719646212e-01 4.211625654207415970e-01 -3.831403536050717040e-01 -8.680962090479577009e-01 -4.089409355172438088e-01 1.747466596346605172e-01 -4.247110503299218465e-01 -6.966210592939625634e-02 -9.616451977797112471e-01 -2.392396511307487150e-01 -2.481954357928797261e-01 -3.001457240316535158e-02 2.024185701368859669e-01 -2.494354869883745052e-01 -7.468540967094461358e-01 6.661368396107161249e-01 6.818897287720424583e-01 -2.806970021645266433e-01 1.163109437412634728e+00 6.658766653885376252e-01 5.555127523536561585e-01 -4.749825297850304717e-01 3.192414097456772737e-01 1.579429004139082382e-01 2.207267532155827161e-01 -2.308810494502103183e-01 -1.023391152996919962e+00 1.173820449644344677e-01 -2.870899913088291178e-01 -1.941094865798297653e-01 6.318420172383450995e-01 -5.725239790017759844e-01 -2.094091617939161654e-01 -5.370334002855153832e-01 -9.058378714283881195e-01 -1.161773670705225081e+00 -1.108272738163220729e-02 -1.026675246995706559e+00 2.495005125750106578e-01 3.924007922592837594e-01 9.976850196010175198e-01 2.555223895283942337e-01 -5.431843454519819786e-02 -3.820936631816784779e-02 -2.198727129942862624e-01 -3.562480490745073003e-01 7.296126725917841949e-01 5.508688337690881287e-01 1.086273350067588073e+00 4.830134680052480811e-01 7.431916013214318051e-01 -1.336502086644598963e-01 3.597617441011164985e-01 9.184807843339639621e-01 9.071784911431358678e-01 1.440343499135895988e-01 8.113611363379787944e-01 -1.010002831138525348e-01 2.198571487672937586e-01 -2.449657136615563391e-01 -3.656024515459884161e-01 1.167812282404767921e-01 5.024908209212464172e-02 -9.870463323843788883e-01 -1.047141975313818918e+00 8.566906256845494561e-01 -9.871312671538847727e-01 -7.812016167430239078e-01 8.389447676483411387e-01 -5.824465616576702809e-01 -5.313185590650744139e-01 -5.459406586814225665e-02 -4.987954501780969552e-01 6.355504502619470086e-01 -1.584205590245417363e-04 3.050754681575907901e-01 1.220814883157967712e+00 6.497318692900864168e-01 1.204849908300594130e+00 1.043337380586783825e+00 -1.969538423870541288e-01 1.400470298760701615e+00 -6.164370411349131412e-02 1.138863493074652039e-01 -8.466790150256975345e-03 -4.464052393125434448e-01 -4.996546291652645966e-01 1.237744424759125161e-01 -8.073989942409794951e-01 3.228484935293981506e-01 1.005377692739712669e+00 -7.442450496581366481e-01 -1.022914806131220100e+00 -5.259244672782735774e-01 5.141045051022259393e-01 7.661967204223936179e-01 -2.404321814767743648e-01 6.764100517485726050e-01 4.846399730128795325e-01 9.334929330256511726e-01 1.138139330826026363e+00 7.055361052178170667e-01 4.917779174295427297e-02 1.370416150542279388e+00 2.034291504389415528e-01 -1.659625760050766341e-01 -6.326553906681356421e-02 8.388840673692123939e-01 1.857969398931737626e+00 1.070722830058284503e+00 1.657633449013599991e+00 2.148465046499861697e-01 -8.617986354391284909e-01 -7.336947582199638829e-01 -5.152671907366629389e-01 2.660702644758113425e-02 3.010488218552878070e-01 2.093422711485947996e-01 1.083021942750731270e+00 6.949334296071132400e-01 -6.676622653373348593e-01 8.557240870528949328e-01 -9.385120717611203922e-01 -5.565966441363124906e-01 5.939355741649033904e-01 -1.755291358534867008e-01 -8.467073990062087829e-02 -5.316963369406672024e-01 -1.315599577237381024e-01 -1.629783571311480550e-01 -3.323106693688657742e-01 -4.442100012019827848e-01 3.820036758506305252e-02 9.238680793506458544e-01 8.472639266488715126e-01 1.270443154685351184e+00 -1.986049440787420184e-01 -5.890892127170941350e-01 -8.726784342772625491e-02 -5.119378206246806284e-01 -4.310621330069474566e-01 -4.513451713250741792e-01 -7.228824349546149851e-03 -1.041150005434394066e+00 -4.335522978315470843e-01 -5.648556699579233564e-01 -1.433235449739468370e-01 -2.057657155672866500e-02 -4.986027729452936486e-01 -7.775543767634385262e-01 -1.377248608849535316e-01 8.006922419432023208e-01 3.076130841707498398e-01 -2.773733126929864290e-01 -6.841685709425090467e-01 -7.425437866502812012e-01 4.442822044930576642e-01 -3.834302730890949973e-01 8.022837069135705379e-01 -2.255847417315074432e-01 3.132585440659462761e-01 -4.331263305659577290e-01 1.218312718577092314e-02 -2.250121999654935423e-01 -1.392319617061190007e+00 -9.887673728879067259e-01 -5.466564993573456155e-01 -7.578548718981040766e-01 -1.160628149443246326e-01 7.538909222187049064e-01 -5.027429213221211723e-01 -1.059534026780360350e+00 2.057904049751536069e-01 -2.986992860813650896e-01 3.445196451561611806e-01 -5.597194279506990666e-01 9.218555404833354838e-02 1.278256109562445932e-02 1.787208806578342857e-01 9.636642245094521053e-01 -9.555948476077369413e-01 9.482102100415354951e-01 9.885693127911227007e-01 -2.450934126431743576e-01 -6.800970902629891457e-01 -2.215650668939731505e-01 -1.009396543590268980e+00 2.314333746358623600e-01 -1.143347554444006819e+00 -1.126708700282545994e+00 -1.109797883652768213e+00 -1.075265272816201323e+00 -6.155307174173713092e-01 -4.600267944321210778e-01 -1.548878214848042889e+00 4.928847059408824061e-01 -2.409226119174960878e-01 -4.686897197235468382e-01 9.959202067664159053e-01 -4.625987152909522560e-01 -8.390056556929698095e-01 5.242207379838841746e-02 1.844153647160179377e-02 1.012619240835063605e+00 1.786108112366301126e-01 -5.554484653038934683e-01 -7.926437495053743065e-01 4.653943535201865433e-01 9.427518949886217747e-01 5.284205203116869587e-01 1.135914321697983481e-01 2.744624506781167400e-02 -8.204085853621984059e-01 -8.131131369281444643e-01 -1.276845829207764016e+00 -2.994945800303506767e-01 -4.775746643322966722e-01 -4.261247530551570684e-01 -3.119850471076788812e-01 -6.580285114115048961e-02 -1.307778965705679308e+00 -9.055772454665017568e-01 2.517078882343318225e-01 -3.603171360185251082e-01 -4.882845172080574336e-01 2.720919388426951691e-01 1.450471363497176924e-01 6.486098290607662520e-01 4.992452257419001116e-01 1.051092875129329834e-01 2.183764355957900083e-01 1.126523746489260125e+00 9.617115088630289188e-01 3.877478380818321635e-01 -8.563224808236172825e-01 -9.401344936389074425e-01 5.879618941785295094e-01 -7.278752311188791957e-01 -7.067552032031787501e-01 -5.635685946341569830e-01 -2.660943944010418227e-01 -2.828401881959805020e-01 1.891768135141732587e-01 3.087179433003192086e-01 -1.015656283655139713e+00 -7.400603310983561167e-02 2.534407159103425899e-02 -3.995147552247846900e-01 -4.830361547730107064e-01 -3.193109374340660778e-01 -6.904386263630313270e-01 4.712519813643002431e-01 -6.009268870872108009e-02 -4.397418711601716601e-01 -1.128294700866758898e-01 5.193282287628270266e-01 4.534864786705008477e-01 1.683513363184736267e-01 8.550862400952725650e-01 -5.768500722576974660e-01 -7.356360156176492415e-01 -7.727093607336088521e-02 3.185808037681601146e-01 1.685076072766139577e-01 3.380320983074619479e-01 5.237043661941356149e-02 7.377894952730320588e-01 -1.524330441748066867e-01 -2.133457184847025595e-02 -9.535712772834249451e-01 -8.872310340994614686e-01 2.307451222990532791e-01 2.035188228061612925e-01 -5.770256180937830548e-01 4.133705616634943819e-02 -4.753451735415812895e-01 -9.579570430039457962e-01 2.645972180743516589e-01 -8.487195442016887137e-01 6.663313788924876135e-01 -7.560491657323228365e-01 -4.841235712815597503e-01 7.562705454677938199e-01 8.607343732111357726e-01 -1.586855855782440539e-01 9.486524943474243798e-01 3.827280986903694449e-01 5.966564223859450733e-01 -4.112443837157009341e-01 5.090501094571771024e-01 6.533797153147474779e-01 -6.969925573111493966e-01 3.044091752481381530e-01 2.297057085906183960e-01 2.156323786863004466e-01 9.652908185615907688e-02 -8.604749670758181646e-01 -1.041740836936790038e-01 -7.818660243349547789e-01 2.734180122503127586e-01 -2.724686997676082911e-01 -3.899599869272691310e-01 9.172400228510289855e-02 -8.377829140717728551e-01 4.902424511367838855e-01 1.404337424518963262e-01 -2.868704007420506130e-01 -4.447731731713980285e-01 4.607616981606498796e-01 8.506389238466381952e-01 5.274553051159986961e-01 -6.981232384981984618e-01 5.055737007721674559e-01 5.498461746812847162e-01 3.715910577977180607e-01 -2.390192721778456875e-01 5.180918275035558684e-01 -9.503108498276832128e-01 -1.967525636331891870e-02 7.891118140828455862e-01 -3.040030653680401707e-01 -7.951292748967504487e-01 6.187930979208848825e-01 1.423838808281069901e-01 3.011816983703490824e-01 2.599101057362289136e-01 -5.788044136761798519e-01 5.228238433651520856e-01 1.462975665381934798e-01 -1.174685055647815224e+00 -1.224564081747158806e+00 1.466573726133360289e-01 -1.977645140175070815e-01 -1.683200857385611093e-01 -3.093516103013453297e-02 4.512966910982164070e-01 -1.056469828863824817e-01 -8.319448835786384666e-02 5.382001044454406413e-01 9.096484095880811305e-01 -6.924453604595879330e-01 -4.591650575684620983e-01 -7.147592340325319427e-01 -3.973410060219091933e-01 -1.447497285962148425e-02 4.682628968097978794e-01 -2.361068029969254356e-01 9.162325638576263032e-01 -9.511174145985960005e-01 2.544697635381851231e-01 -1.122739543149985364e-01 8.128714294145342190e-03 3.606670103949050077e-01 -3.832931867841853912e-01 -5.689865356226346815e-01 -3.203127903958475908e-01 3.745824594995973977e-01 -4.833417874346577769e-01 -5.214256950750862929e-01 5.132696585266490752e-01 6.858953876989273279e-01 -2.848433563925293344e-01 5.869901614654630118e-01 6.089604483232677890e-01 2.491388834699388710e-02 1.209584051821101097e-01 -8.179693093229545298e-02 -1.162587212338867859e+00 -5.268815164463053896e-02 -1.010869178244405253e+00 -1.056614254176260426e+00 7.401751680021910751e-01 8.495258215031923354e-01 -7.413193301024696424e-01 -8.990235612607805349e-01 -3.621650292014521599e-01 3.435510400491839089e-01 -7.631552770265932484e-01 -3.120471596963305116e-01 -1.809273925098961733e-01 -7.793738193241089851e-01 -9.877624607524277955e-01 -8.994502225408510521e-01 -3.875770549928001518e-01 2.378110778505931333e-01 -5.287320522709582776e-02 1.520612208960876559e-02 2.335043821222170801e-01 6.953598506780790389e-01 4.375766796110953233e-02 1.694447862590719445e-01 4.404634437771920430e-01 -4.096866869258560806e-01 -3.884269843235026998e-01 -5.513497433737556408e-01 -2.646557565937949219e-01 -2.190256272027426288e-01 4.027225133564587556e-01 7.129296481592437562e-01 7.133048736802626300e-01 -6.430466873494811164e-01 7.989598623336305883e-01 -9.112858147027951272e-01 -9.257290757598972686e-01 -8.644780890986426547e-01 5.921069624361996464e-01 7.988241064894047172e-01 -6.552961867686617481e-01 6.566321777405172977e-01 -5.037499906028186647e-01 -3.261609376605692501e-01 -2.133144681466027648e-01 -3.037726505020639789e-01 2.892426300746283041e-01 -2.527294752666112698e-01 -1.002280757819256074e+00 3.575192232683212928e-02 2.800943485837985580e-01 1.137227065378070945e+00 -1.000741052397927877e+00 -2.988236639544493145e-01 -1.320896384316754268e+00 -7.792294496705814977e-01 2.618054285411991478e-01 -1.517624300427373951e+00 -9.854126293475297116e-01 -4.233480345723590332e-01 5.779798475651773959e-01 -4.333516587522756036e-01 -6.573190535591311168e-01 -5.621511881932894639e-01 -6.659783257279816571e-01 4.197609624571059239e-01 9.658491193530087671e-01 -2.633994175573322050e-01 -3.735273911303423899e-01 -3.603106525835412799e-01 7.764255829651276475e-01 -9.613093601313886793e-01 3.805373474122849542e-01 -7.298577487356396887e-01 2.226962136290039362e-02 9.431820784763267004e-03 -6.166547065972971531e-01 -2.060391350374291553e-01 5.169323663603445640e-01 -6.295987966790469459e-01 -5.928027305776920608e-01 4.432934342466331862e-02 1.751610180580723264e-01 -9.090779672273593404e-01 4.566371570317089845e-01 -1.108469688464470471e+00 -6.025451036478063349e-01 -7.715140826970132704e-01 8.179556517567970753e-01 -7.492077422699252587e-01 3.851086987544020679e-01 -2.294755966046818918e-01 8.121185044920469220e-01 -3.607554702011817049e-01 -8.655251353778914414e-02 2.156483578813299662e-01 -5.322760744789383214e-01 1.959997416304504469e-01 -1.811665113269716465e-01 2.173367897881651467e-01 -3.351851255688539921e-01 3.179594927750079569e-01 4.916351100353091863e-01 1.163898817478319359e-01 7.614356078400406902e-02 4.206136691528577498e-01 -8.953570747497814619e-02 -8.966517083836172963e-02 1.582390432478968101e-01 -4.993080600429465332e-01 2.464284619352892225e-01 -1.558809428925498064e-01 -5.744734885690491177e-01 3.546526987955873067e-01 1.516193283926953739e-01 -2.539459242477483669e-01 -1.609890458003017779e-03 -7.670967386955106493e-01 -5.813877328384479265e-02 6.196653977746074959e-01 -1.407940512998364646e-01 9.675837805428710858e-01 9.936602697229952597e-01 -2.208008387990911259e-01 3.742949402301166267e-02 9.435566540425885940e-01 5.375670449414499119e-01 -5.633842948168135134e-01 3.300808114261086224e-01 4.083706582090840254e-01 -4.182522449069741022e-01 -3.865285572718947238e-01 6.494535688757426817e-01 4.847291671186150230e-01 -6.058868198451790033e-01 -4.041676006446129343e-01 -1.042281776294419898e-01 -3.785156617848631222e-01 8.050436558155421585e-01 -6.144637476351003658e-01 -5.654506613467248366e-01 -8.281560050567685627e-01 2.534430100137083919e-01 -6.038782560496563923e-01 -5.408014041396015381e-01 6.174742233210430697e-01 6.448724187305523436e-01 -5.547942779393928436e-01 8.255124775096045475e-02 -7.479304139972573484e-01 -6.793805270221899839e-01 -2.227285931254208151e-01 8.943580886466240276e-01 9.796144442394866259e-01 -3.255228146593492911e-01 -9.059894712449069187e-01 -2.927996821336703581e-01 1.219951673916693569e+00 8.795561228203615523e-01 1.751203192253900642e-01 4.701296089331971073e-01 3.734501878308330580e-01 1.178015954693843320e-01 -2.322877398587037956e-02 2.602933883843906449e-01 7.741982894547597693e-01 -6.004554522515482828e-01 6.123732716910957885e-01 1.044293937423863561e+00 -8.957616218010023834e-01 -5.986491455407435547e-01 6.087435568555987775e-01 -2.050588442012979407e-01 3.979174394861162423e-01 6.372158947280768260e-01 -3.513557241483985516e-01 -4.000975461586786519e-01 6.204445834983658425e-01 -9.186886339554356518e-02 3.057713675819975219e-01 6.872126687942885503e-01 -2.397156814921154455e-01 2.640024713935529843e-01 3.045008904431265595e-01 -7.042859044394143009e-01 6.385536590828888581e-01 7.394986418365223635e-01 3.525516846666683080e-01 -3.517082066604325652e-01 5.846583262502460521e-01 6.592800450513129906e-01 -8.522111680602524331e-01 6.541054341968007835e-01 9.052823811767806150e-01 -5.424230588737948278e-01 -7.795636565452017663e-01 -1.725322615041608998e-01 4.179293908161090254e-01 9.897031118576100905e-02 -7.608678362666401185e-01 -8.048627134176300491e-01 -3.836849007498342040e-02 -2.324986969853418406e-01 8.175057771719393962e-01 5.223075274599038309e-01 4.080358704289250849e-01 2.148366549474751697e-01 8.995889348860257595e-01 -5.987574726456141860e-01 6.180843478997580798e-01 -8.701017671467915493e-01 1.668440376119889601e-01 -6.369667985749716266e-01 8.782413934786396092e-01 -6.873886780025308951e-01 -4.941715981228676779e-02 2.344769206333616740e-01 -1.388026288991007877e-02 3.393306265037028813e-01 8.414962636716187827e-01 -6.696170089081382448e-01 6.916875333988965480e-01 -4.301131549872481280e-02 -5.196123089781514715e-01 -6.345359812901786301e-01 -3.276639364427485490e-01 3.311092436287743079e-01 1.254417698165890827e-01 -8.789251263096220512e-01 9.362738283821858687e-01 7.225923087274197520e-01 -3.152121984488374107e-01 6.231438979489505314e-01
-3.995910158966964332e-01 3.967614514331838649e-01 -4.058381566233935089e-01 1.303596742601469405e-01 -7.424500517920906706e-01 9.209617896799870973e-01 5.432329291061577248e-01 6.542909768747611210e-01 4.572330372349797667e-01 3.945914144293096726e-01 -5.145552193219129489e-01 -6.034646469956259640e-01 7.806552955902750224e-01 -8.253059663193462736e-01 3.889061931307771225e-01 4.102496298477926739e-01 -9.663900465074928281e-01 -7.339428396981986236e-01 9.748283450765415914e-02 5.455676822104917889e-01 2.903292187901964638e-01 -3.606892298130834895e-01 9.475973773991039906e-01 4.457323291692261158e-02 -6.293820399371523600e-01 8.217778038025835841e-02 4.799236168253238066e-01 -7.083723216904960207e-01 4.182013426030573022e-02 -8.818223873093922194e-02 9.417615959277647608e-01 3.510325437978736307e-01 5.069285250462773895e-01 -9.555515063770164685e-01 -2.172517900812346858e-01 -6.907351463911987066e-01 -9.352247588124528166e-01 -9.587108570492440807e-01 -5.065504795226918322e-01 9.321599238662672260e-01 9.866702349452636245e-01 -6.612787483711060066e-01 4.848743566384400294e-01 2.700926313045848293e-01 1.752263534563107128e-01 -4.595556165951830696e-01 5.192416281625489294e-01 5.482950359153031528e-01 1.000417950525249067e+00 -6.916096024044464663e-01 8.130555571808153470e-01 4.129932177226202095e-01 -2.987901742104894787e-01 -4.079443765354100471e-01 -5.847770287198910122e-01 -1.775041695889632010e-01 9.078501724346463853e-01 9.902334222510960071e-01 3.186613271869441211e-01 2.110656441978703557e-01 9.720390428573537633e-01 -5.499867434979469616e-01 -7.783507284056560005e-01 -4.559939695341480581e-01 8.236942486102964978e-01 -1.008084813177692496e+00 -7.432967276949838942e-01 6.586456432460022770e-01 7.577642767570696991e-01 1.856684480832575812e-01 7.716726508645861404e-01 6.479327911080738911e-01 7.914118538884169773e-02 7.663604700751370791e-01 -7.057437397671892931e-01 3.422096682800934153e-01 -2.593359631470006921e-01 -1.781408456799092321e-01 -4.526886578504893399e-01 -2.244123241769348243e-01 4.694940466064099205e-01 2.160484677214203619e-01 1.499463123349362714e-01 2.498827866083512816e-01 4.477799483722721963e-01 1.806792366531604355e-01 9.322317417452973265e-01 5.930431739540404923e-01 -4.204957163999891723e-01 -1.841922706869561499e-01 1.502681995912723834e-01 -6.712906072708644256e-01 -3.576057849926482790e-01 6.899358583560015745e-01 6.488535793936276441e-01 -1.555708118789387306e-01 4.280500483667497025e-01 -9.110704793344469588e-01 5.883205022573601006e-01 4.400016605441899875e-01 -5.369647374984850424e-02 8.624042494722172769e-01 -4.411284947570549564e-01 1.644960476560413942e-01 2.779455252595726122e-01 -4.875170861043997550e-01 -2.600184393900465407e-01 -5.285009724621031468e-01 7.711634890692011801e-01 2.906064679870279943e-01 6.881500776246278761e-01 6.174348566368408342e-01 -8.349073312736008390e-01 8.352841842568043962e-01 -9.749335448940076032e-02 3.739373246153637059e-02 -2.152788669753794570e-01 4.041562750398869364e-02 2.285872904321531451e-01 2.386067181662209491e-01 -1.150279008658873892e+00 2.055764650124153881e-01 4.993496228643412582e-01 -1.165310098679691375e+00 -4.101250012484056878e-02 4.237301120359712181e-01 -6.008392265347611838e-01 1.009555241201356840e-01 -5.417904419958078366e-01 5.249005297485516142e-01 -2.658935917136999172e-01 8.644662258325770399e-01 -4.987371968286500312e-01 -4.597397490780887330e-01 1.082566141588342301e+00 1.407255864676290047e-01 5.204158929380947596e-01 -8.815727470904692609e-02 -2.506205786780203448e-01 5.119513163665012634e-01 -4.713537186950149671e-01 -5.014916811866809709e-02 -4.504591794174176433e-01 9.145682366712344358e-01 -5.774885220455787671e-01 -9.837622094934714845e-01 6.981404943419020626e-01 -6.292682971498576583e-01 -1.415992106129791539e+00 4.291751701314859835e-01 -8.076938031629668502e-02 -5.869426074746733057e-01 7.131542791807677917e-01 -9.232165927721137644e-01 -1.494155269439439715e-01 -4.688804907790032339e-01 5.694296416380753012e-01 -6.473694673418833867e-01 1.763961852423017729e-01 3.542752919514974286e-01 5.124947872780046820e-01 -1.057113768245102170e+00 8.720250043234807347e-01 1.118236594641447201e+00 -8.278357032224884504e-01 2.336396433903896175e-01 3.008448630107816157e-01 -2.427754981636765785e-01 -8.075764440108492703e-01 1.542176786029358093e-01 8.441501475586772330e-01 -3.457343233211733480e-02 -5.287610869957560800e-01 8.405413391887837093e-01 -5.839342135876871565e-01 9.437951818904048717e-02 -2.714595078650675064e-01 -1.118303815108396826e+00 3.477918134774883319e-01 3.816581580392640338e-02 2.384678666684990622e-01 7.903123872482280543e-01 9.521807368427300799e-01 1.704436178009105796e-01 -1.704557150343117278e-01 3.195665369608937656e-01 7.441249041711930357e-01 4.673906095503788105e-01 -1.097075070771113436e+00 5.006771248646503247e-01 -2.285151043012719763e-01 -4.928797145006145741e-01 2.844010130032880723e-01 7.150906867304157588e-01 7.834742744828809835e-01 -9.224083897832553725e-02 -1.495052479715186511e-01 -8.713722779154102760e-01 7.688385975212452816e-01 -5.938749856585419096e-01 -6.634999017088439865e-01 -8.385624699297574702e-01 -7.537099313900493813e-01 -4.539544971057724032e-01 -6.564127020575075688e-01 -2.205868830760129018e-01 -4.178193673332316477e-02 -2.724314772542422158e-01 -6.508869077720430552e-01 1.143521518498058775e-01 8.217343479313984345e-01 1.403345453601089421e+00 -4.678722867916959571e-01 1.067476062989869190e+00 -4.574023469149208210e-01 -6.330475771267329854e-01 -8.969746858893663521e-01 -9.690700996356160779e-01 1.029156054593501485e-01 -2.993018368908383353e-01 1.698511730464090930e-01 -3.016037188290480731e-01 -8.560234623024282063e-01 8.082305913313766466e-01 2.705124646097595842e-01 9.195516696799121981e-01 8.565988492052276637e-01 3.246113472897508290e-01 2.305269374224131473e-01 -1.121715997932122511e+00 -5.286844697840379359e-01 4.371443900057585541e-01 -1.114999459212862698e+00 2.115767088132334411e-02 -8.550188566470879881e-01 1.534413392543519661e-01 -4.640363676551317318e-01 -6.497926744195736681e-01 2.035643182360316328e-01 7.240164100064061525e-01 -4.918068344626778665e-01 1.682378253845779881e-01 -8.167954486751252130e-01 4.402729403160707822e-01 6.823248799525770680e-01 -3.536085818943210946e-01 -1.134677670659416382e-01 -5.863293017738662183e-01 1.011206248029921539e+00 6.142487998143630890e-01 5.508872072072515946e-01 2.818820159831990635e-01 6.747094229290524492e-01 -8.528920203516492105e-02 -6.279570205508995251e-01 3.929532121464883176e-01 -4.915259597401304137e-01 3.128026693218894927e-01 -7.462607316671741042e-01 -8.512367535010172404e-01 5.271224305641291075e-01 -8.191229056098218164e-01 -8.003646367138449180e-02 2.607885696683904797e-01 3.523930449332602355e-01 -5.839774992297289136e-02 5.000930230161212409e-01 -9.245712649239770098e-01 -1.398198535737194825e-01 -2.286778552098020847e-02 -9.703477170818741726e-01 -5.465752335263058814e-01 -1.079464655354324121e+00 -2.667491788638361450e-01 2.015769452944804752e-01 -9.299957641624818638e-01 9.016621338219134030e-01 -1.466832330826435271e-01 -3.231982412963710916e-01 5.460161934968905673e-01 6.996754277114595189e-01 -4.465907079281256076e-02 2.554953565246345093e-01 -1.747377119623787223e-02 5.508382544903652756e-01 -1.138912679826865892e-01 -6.740942736437862681e-01 -3.196667001195355740e-01 -1.038859226539832870e+00 4.299439853308745230e-01 5.167366872387966215e-01 -1.331641686873081751e-02 6.681268406247006242e-01 9.349314275596710688e-01 -2.319587682393256245e-01 3.398120347496592086e-01 -1.216276875195756224e+00 -5.278768443856131087e-01 -1.365502493211314672e+00 7.100850466193089350e-01 4.794112925410800585e-01 6.080115751235775079e-01 -1.206784993498763559e+00 4.693909443178727048e-01 -1.104939084429454210e+00 4.201947989147022389e-01 -5.110802332971183803e-01 1.093576271934693506e-01 5.254104934160452878e-01 1.322291504760773895e-01 1.119766914230630184e-01 8.064200445617836222e-01 6.700946569062647962e-01 5.625158548404483039e-01 8.596638068304918168e-01 4.166383313778470598e-01 1.756531892936973316e-01 7.083048512521122886e-02 -5.301131545903852160e-01 -8.049760366266253686e-02 4.762764706494099221e-01 2.550917950694642569e-02 8.981797976400435202e-01 -9.113056707940384027e-02 6.230031670974917057e-01 -3.907440869679086881e-01 6.096580583767114980e-01 -2.791522034479405612e-01 -1.028922040109834901e+00 -1.379079680317589540e+00 5.171059120888720217e-01 -2.680583057138190561e-01 5.698723934487210929e-01 -1.524332114967063279e-01 -3.076952625085837001e-01 -9.350117454291808627e-01 2.378983875490349731e-01 -2.809878499202936308e-01 -9.258747015592970753e-01 -5.742588936830662627e-01 3.425485333421759981e-01 -3.458094482955952342e-01 -3.935690561309708735e-01 2.058930043513305941e-01 8.355299446250015194e-01 -7.586240468159918260e-01 7.179848159707257205e-01 -2.434334786523086325e-01 8.622626935280156557e-01 1.461166378636433727e+00 8.436620364884281909e-01 -3.359491629559583359e-01 1.146571602232112186e+00 9.589153663539701222e-01 -1.063663601642085565e-01 2.479546870636000211e-01 5.158893473133152607e-01 -3.330936322087298951e-01 5.326785763196754120e-01 -5.231502060842793678e-02 -3.765581128147222900e-01 6.451369670874754769e-01 -2.279987792447345507e-01 5.745686727203510591e-01 -3.891641225133365412e-01 2.788256170991191829e-01 6.040710902638773278e-02 8.850308625777293381e-01 1.898790145953278274e-01 -8.895441022703797218e-01 -2.616128641691527479e-01 -6.943101639865195684e-01 -2.747329800607343775e-01 9.804469552210987038e-01 -1.867134355472625518e-01 6.654465844020477361e-01 8.637201178411296754e-01 1.566006808129756789e-01 -5.028604749556931930e-01 1.291437532967329993e+00 -5.238575876787198160e-01 1.028779337966077234e+00 -5.041629431814610429e-01 -5.824644852288415886e-02 -9.035065658373939157e-02 -4.283985481383611460e-01 -8.487810458740461250e-01 2.064110168854283722e-01 2.441159985844085778e-01 -1.381917078554886491e-01 -6.100101609865324903e-01 -8.073175232031933879e-01 1.660989299124334406e-01 -4.406870671932284211e-01 -1.473043039148694833e-01 -3.690466479311557690e-01 3.425365640232976849e-01 -9.696491047654823836e-01 6.313752784455398670e-01 9.134625655341660488e-01 9.146271485975513427e-01 2.830525074916946382e-01 9.047919138868280031e-01 4.990269828977196842e-01 7.379673239484193514e-01 1.510424533131578539e-01 -8.559572309889110220e-02 -1.968330381589968037e-01 -5.017578471782180305e-01 6.764879499305855859e-01 -5.256552304504944484e-01 -3.247188902862236937e-01 -2.562626512187731187e-01 -3.981385281888656369e-01 -1.047850172463549390e+00 -8.851338444034381192e-01 6.031301012294552899e-02 5.666766144374982828e-01 -1.914437513687048953e-01 -8.468240910045050640e-01 -7.611034272717069615e-02 -1.837164696799010316e-02 9.478003643335686235e-02 -3.893900966527793356e-02 -9.842110498785127115e-01 -5.909123718269724268e-01 -7.410272423435005917e-01 -3.479410751692803561e-01 8.973528612514530822e-02 1.989023615679440526e-01 2.634445721066430712e-01 -1.791472251325305354e-01 8.931925158599394177e-01 -7.812017455058251070e-01 4.640497803379430852e-01 8.720182570989262749e-02 1.029383506973377438e+00 -1.333178640176879703e-01 -5.997381349685264595e-01 -1.970098405195657709e-01 -7.240840163670031471e-01 -2.145751504105314067e-01 5.507398800386113444e-03 -5.339346088473816421e-01 -4.001847868190253621e-01 5.312546512190586823e-01 -4.020928063901456628e-01 4.191967922282975323e-01 9.636231742960263968e-01 -6.600368087333275957e-01 9.526928441520660096e-01 4.115582939687639219e-01 -1.041946226119888186e+00 4.922147299028817868e-01 -1.663070072826293710e+00 -3.862184155612106984e-02 -6.819201981909105426e-01 3.214837188568392956e-01 1.202020186097166210e+00 4.156840390151889664e-01 -2.135225120169788882e-01 -6.360691025715263791e-01 -7.297318896367772229e-03 4.178229655431046630e-01 -7.937224023602648115e-01 3.185671877959811993e-01 7.895870944271934366e-01 -1.468455023925299870e-02 -2.661959426836491005e-01 -9.530093542220956504e-01 -8.888670740431826589e-01 -1.286790042097944453e-01 -3.520425257538044306e-02 -7.789275999999355216e-02 1.007881927329592198e-01 -7.501869064710031676e-01 -8.994748460157491188e-01 -3.833479011245157775e-01 -5.177661930843722171e-01 1.035187528208473484e+00 -6.770855890405687028e-01 1.590020000142699785e-01 4.355418837473190585e-02 -7.572518545896159692e-01 -1.569042123292298641e+00 -1.413375742279267433e+00 5.725855662111335453e-01 5.476875299765596727e-01 -8.747624490999454938e-01 -1.047609634820610758e+00 -1.099746436660755666e+00 2.675858120415300911e-01 -8.868386341539846729e-02 3.950357091864374337e-01 -3.838547877889326720e-01 -3.071842831042700950e-01 -7.166253826844248831e-01 -1.068159986561410868e+00 -9.859524424358364625e-01 -9.286601912744357756e-01 -7.274254095443701829e-01 7.285074842250977012e-01 -7.939545272917245544e-01 -4.966200490263032452e-01 9.861705308792116653e-02 2.438191532450004750e-01 -6.001773466190161166e-01 4.247482495958800341e-01 5.448445138661011100e-01 -1.051803223516119434e+00 -8.927988758846772122e-01 -9.722615251712194429e-01 -1.263351286153446607e+00 -1.098129930759728534e+00 -8.809117663589807190e-01 -2.539034725386285496e-01 -4.346846373107924322e-01 -1.806518712328088749e-01 -8.652605525045491408e-01 -8.072253939818725688e-02 1.463995155590617658e+00 -2.508383224818029889e-01 -5.681311326984143095e-01 -6.953404576504275403e-02 1.116925254052766464e-01 -1.362227818843456006e+00 1.479717308595084324e-01 -1.268020017352923023e+00 -8.634648417103767404e-01 -3.852067811752631910e-01 -9.759348274186923078e-01 -4.417022056338382741e-01 -1.474853688663051166e-01 4.452386490724399848e-01 7.084954945057932996e-01 1.308233911094607294e-01 6.995064769226124746e-01 6.831558418648603359e-01 3.450087549192567549e-01 3.184841322947384867e-01 -1.384800260961475793e+00 -7.850456820182152295e-01 -1.357795429455553315e-01 -1.531071187798383360e+00 -6.743556139090096657e-01 -7.267225095372074062e-01 -3.126627692040667011e-02 -3.871527740190774947e-01 1.519773737323142360e+00 -9.933565837088167982e-02 -5.318210697970103817e-01 4.492247730000289985e-01 -9.513208101299913677e-01 -1.242141020311461119e+00 -1.683606439171557723e-01 4.093717384320448294e-01 -1.038506185158827533e+00 1.991930130588150660e-01 -4.463054280024431608e-01 8.291195048859174577e-01 -5.753438634563448062e-01 -1.998640385384283236e-01 -9.469355699325736619e-01 -6.640706671065601530e-01 2.901691109511426725e-01 -3.903719193031064960e-01 -3.100155901277458319e-03 -1.730021146996173764e-01 4.913471868566573475e-01 -8.651174248730765237e-01 -8.414491596302250409e-01 -3.295595976155498152e-01 5.783319058903164667e-01 4.137013508588295307e-01 2.980182708682443948e-01 5.926547097553583159e-03 -4.140619746789420130e-01 7.007206305285775816e-01 5.123464383597509109e-01 -3.804913417964035927e-01 -4.344703462646988812e-01 -7.486905140588914209e-01 -1.176357627053712829e+00 -1.013160664456951743e+00 -8.546916214456069805e-02 -2.754169768897523074e-01 -4.304869964099130586e-01 -1.647311183512552291e-01 -6.835288601124087648e-01 8.648835935001342179e-01 1.416625599597985397e-01 -4.340996544244156152e-01 -9.027248243774058656e-01 4.244151107030276759e-01 3.264250647319862086e-02 4.834727786924090109e-01 5.875648823350499983e-01 7.454954655202751246e-01 3.818579290345211485e-01 -7.795115398491738734e-01 5.863834895275655823e-01 -3.632942344675285651e-01 -3.545341219872850114e-01 6.138068246354354551e-01 4.211367552099904432e-01 -1.284357632423651641e+00 -5.397798484199262115e-01 -9.313604568941412643e-01 -3.296171529719967297e-01 -7.157686515315238029e-01 4.441952737051376408e-04 -8.725364200470591136e-01 -4.893715046469721552e-01 9.154531447664112642e-01 7.973281897310953437e-02 -9.956569513982505004e-02 -4.159288281859169767e-01 3.107815620783120902e-01 3.026081021967418905e-01 9.710521658410595780e-01 -9.901693426245574692e-01 3.383018116941535203e-01 -1.221903501589723107e-01 5.929214148225142589e-01 -5.251052330905126020e-01 2.678331771329788280e-01 3.034541049521738976e-01 -2.471040603064689478e-01 4.003700325051902098e-01 3.719206561252317855e-01 -1.766969319948100831e-02 -3.856234224650151865e-01 -1.074119608885826027e+00 -2.413215846057006619e-01 7.891313905743066112e-03 -4.429302246265956478e-01 -1.505022116029839929e-01 -8.262640220580675932e-01 -1.936327043600045705e-01 5.951055203915339709e-01 7.358215509427188383e-01 7.233813394432646593e-01 -8.217692286377172861e-01 3.879014069810395315e-01 -5.182278918098535136e-01 7.624512463679957719e-01 -1.364434610448901075e-01 -3.998498035606642964e-01 4.907902982916592660e-01 5.707631688380985363e-02 -2.515127570635033311e-02 2.612978598442008971e-01 8.408731709204899651e-01 1.682460383746134658e-01 9.596962223810932002e-01 -7.290285338202923127e-02 -7.164966831698041938e-01 -2.283508898312215096e-01 -2.351752455280919363e-01 -1.076295771524143019e+00 -8.521397549544497130e-01 2.193401146995150874e-01 3.000417416178982610e-01 7.274446122770723555e-01 4.255954400731113418e-01 -4.551053282164361780e-01 -8.664685195802502848e-01 8.143443607167040188e-01 5.467327967035258141e-01 -7.958587483343588787e-01 -4.272077955964704854e-01 8.223727928978823432e-01 -6.190954524904341838e-01 5.986913176116526181e-01 -9.722388460599872273e-01 9.868334733615255483e-02 5.593846298421648600e-01 3.318747941855917927e-01 -3.709776124194846258e-01 6.976251124100923962e-01 -4.250331250454629506e-02 1.264624035933590851e-01 5.826950415583626031e-01 -7.911037274380563478e-01 2.594363290643352804e-01 -9.633299928653779043e-01 -8.392222890205364161e-01 6.052718494228463975e-01 -6.692071183107279886e-01 -3.123580914864662605e-01 -6.918924392397974854e-01 6.872341889273696491e-01 1.162097962911739918e-01 6.904998061284906008e-01 8.880234317491948470e-01 -2.400994898805830224e-01 8.269226178278480388e-01 7.762670765854613464e-01 1.111537176865104708e-03 -9.947148087634818392e-01 -3.040253535901433768e-01 -2.404572786074397062e-01 7.788555790955600244e-01 -7.247935244215808481e-01 5.242492925154504935e-01 -7.375973343763504442e-01 -8.077625220165135511e-01 7.978944323573536890e-01 5.528519332787301677e-01 -3.011446997258296343e-01 -1.580389202944412763e-02 7.608263547144231698e-01 2.740398662295998600e-01 2.781713895594334907e-01 6.931332833543712990e-02 5.618696528650497513e-01 1.518349986120411943e-01 1.211795229093460602e+00 1.030776212494533883e+00 -4.259441765595783913e-01 -2.130083277923589258e-01 4.235980458122161618e-01 2.196711409825992667e-01 4.895819949217201650e-01 -4.885934552971819556e-01 -2.966108105278056906e-01 5.539204105013156854e-02 4.408497236135702213e-01 1.535159627788775794e-01 -9.980062584795408309e-01 -8.426811035666712524e-01 -4.310336671678904885e-01 6.680545012736528454e-01 7.576232374718369078e-01 7.311984884319628897e-01 8.553977120820046576e-01 -9.370492982280536065e-01 1.213500324327607544e-01 -4.710650039567019776e-01 5.785789421742868477e-01 2.806453565312092002e-01 -6.208046312477376594e-01 9.318232411559575212e-02 1.959935951260156350e-01 6.572243541606104245e-02 -1.942063136958574465e-01 -2.478301931520069945e-01 -8.924403337460130592e-01 -7.257958965430645337e-01 -2.539048779049432603e-01 -4.973972268830307852e-01 -7.307921607480051263e-01 6.311169900287507684e-01 -2.241210654370391631e-01 -3.062901800442796585e-02 -7.301299106659153715e-01 1.292379055975054758e-01 8.581578582879088035e-01 6.943049502187470523e-02 6.243653102487689566e-01 -1.416977123895488411e-01 6.054866719936861097e-01 6.793247943022102664e-01 6.554121058996924543e-01 3.566500469400507023e-01 7.582582382450780978e-01 1.750803521794569995e-01 -9.850919481640509900e-01 1.591416661316622239e-01 -6.322255330478981916e-01 -6.581608906388489721e-01 2.952912406183478833e-01 9.555339383706970002e-01 -2.567819326922040069e-01 -7.510581478888078699e-01 -1.541620237083957956e-01 6.952339876165312127e-01 -6.694816822282578794e-01 -2.510010495009770692e-01 3.554882652876626969e-01 5.169347014031693277e-01 -6.101370164176955768e-01 1.560586230310549993e-01 -6.461851163214462623e-01
6.429056536301518410e-01 -6.480625879298640424e-01 7.928913529574319607e-01 1.268963436204135764e-01 -3.446035973277601361e-01 -5.767094792452565066e-02 -7.023681863970043793e-02 2.898978734874844143e-01 -7.811761082572450388e-01 4.455455359003608340e-01 7.659444552338994239e-01 -4.882286404982969508e-01 -2.567670691010988659e-01 -2.341169086781173525e-01 7.739903735592593703e-01 -2.989954627402500176e-01 -1.060424480693713534e-01 -3.734389659775616543e-02 8.728496563757490723e-01 8.927557695513934632e-01 -9.940086527102178771e-01 -3.016696300036278977e-01 6.376401674264493558e-01 8.578930636339026083e-01 -9.016537572513638743e-01 -2.778855384727263456e-02 -8.185231056415724904e-01 6.243559067420672015e-01 1.018593221980363950e-01 -3.760670650813775495e-01 -6.739436679544181796e-01 -9.181818928175577987e-01 4.426747619009139822e-01 3.304823237823111826e-01 -7.719962563539548572e-01 -4.162304306322071046e-01 -3.872281012237271947e-01 2.066731262829547555e-01 -3.610055014316325139e-01 8.012792957047608633e-01 -5.525882217011024444e-01 6.499861666870254684e-01 9.264533486394483930e-01 4.350057990058920354e-01 4.958373981825369148e-01 9.794875222149921346e-01 4.170100201593612277e-01 3.967445325125022459e-01 -6.721130654385749637e-01 -2.379056766730341388e-01 2.145649853593170620e-01 2.670319486770716955e-01 -8.852108429562774994e-01 9.993919559947754827e-01 5.089506103845899965e-01 3.427746213983930978e-01 -1.116652829989139839e-02 -4.236064864097046634e-01 -3.411930985327336630e-01 7.974903571344280628e-01 -3.088105250712663286e-01 -9.022199335081581006e-01 6.081127318141149596e-01 7.096766510431592456e-01 8.338448783550217458e-01 4.263169933844675463e-01 4.215756595235467530e-01 2.845241688634528865e-01 3.424461466216604522e-01 5.044272176503753480e-01 -2.992059219157023817e-02 1.056650299193469200e+00 -5.114370879473784104e-01 -8.280886475242288380e-01 1.437876928653922803e-01 -5.872086135500744764e-01 -7.326031604415870202e-01 7.248290549666985827e-01 -1.914209187177551286e-01 -6.158338770850209087e-01 -8.717512862989722500e-01 -9.171033478645074233e-01 3.577173229906893681e-02 3.743012565855119433e-01 -2.981986548912216595e-01 8.953786501753291382e-01 -2.904775827644297537e-01 8.590566895079757570e-01 3.611067711916399192e-02 -5.158558053827583256e-01 2.598718075469079805e-02 7.641981314232036970e-01 -5.665666024370754617e-01 2.860950930601612874e-01 -4.247793526492110172e-01 4.611080448458304004e-01 9.334994887165783961e-01 1.021196181501112382e-01 5.986032063958657279e-01 7.726287500435132793e-01 8.639272365306490675e-01 1.107873267329882339e+00 3.843989278815045929e-01 1.128620680748326999e+00 -1.741092881488252309e-01 5.798358950705373438e-01 9.771676151399036891e-01 -3.239431522320718182e-01 7.612084765780863238e-01 7.541082560296848980e-01 2.022969387467553615e-01 9.012939584593484543e-01 -1.402673859303813497e-01 -9.664261978646848661e-01 8.167891436272850525e-01 -7.199813801277218372e-01 9.364790377805674859e-02 -6.221695017307168341e-01 -4.306076670315023280e-01 -3.661146353818496846e-01 7.109207533145753821e-01 -3.570466722964540374e-01 3.719343747640239256e-02 -1.726549098224733347e-01 -5.342030312217146415e-01 2.723756938291378438e-01 -2.461615459406746309e-01 -3.552486629667852003e-01 5.777678998399506938e-01 1.042101262860375854e+00 -5.720529837846640570e-02 2.995226484454325266e-01 -7.518475025263763323e-01 -3.121760483457716173e-01 2.882709238090264137e-01 8.475183148281797418e-01 2.213686611565802709e-01 5.841530012032865038e-01 1.297763472719552502e-01 4.725213044121919781e-01 5.256083617475633130e-01 -2.731615627431616122e-01 3.339472251126079372e-01 -4.896591323606566681e-01 2.149466950238692886e-01 9.400762614146774832e-01 -1.126973686819357168e+00 2.711237571339436547e-01 -4.572444465831007054e-01 -3.921400590119049068e-01 -2.134089799627838235e-01 -7.068425467375188953e-01 3.606654997090479320e-01 3.484720590519173600e-01 2.693129149172956288e-02 -4.889625822049051274e-01 9.396849250456467129e-01 -6.180697798559084966e-01 8.848251411499763464e-01 6.788969114867753341e-01 7.784862276187957120e-01 9.745695901547186679e-01 -6.168499404847961332e-01 -1.421314336710226833e-01 -5.020482118738506250e-01 2.672878443896964940e-01 -1.252474731102982131e-01 -9.932101145211459370e-01 -4.830975701490842766e-01 3.186646259240149548e-01 9.910789992091528777e-01 4.427995604085180337e-01 1.687785466933764550e-02 6.229655483792930770e-01 -4.889022462255155910e-01 4.977917670699357755e-01 -5.068527015619800347e-01 -3.871243027218923549e-01 -2.251493367142343438e-01 -3.444399613616503930e-01 -7.192637639679385630e-01 -3.827620227058714519e-01 -5.829738308921302847e-01 1.879291361732352700e-02 7.910222426006364993e-02 -4.467679040322519168e-01 6.362766126573664582e-01 7.765010810476449254e-01 6.984045959663331971e-02 -2.015576721086307366e-01 5.052432613210061652e-01 -3.416668444482335310e-01 -5.102399293196340224e-01 1.596818026481184316e-01 -2.671105262998095253e-01 -7.547210324285928973e-01 -5.111413962479121054e-01 -4.828120488006641953e-01 1.291507281003659302e-01 -5.814102741559761256e-01 -8.586483004499206872e-01 -2.407760385889967103e-01 5.574077758802197247e-01 6.087615741068944653e-01 4.668236033060182422e-01 1.134891295993146060e-01 7.137915051030205293e-02 2.818130569440218669e-01 6.801279761849612360e-01 -4.072543255084674074e-01 1.012733460619605008e+00 6.654961308571798462e-01 5.246100068324288657e-01 -2.413787174512755929e-01 1.128728178230759965e-01 6.592507776289301402e-01 -1.833563507959739269e-01 -2.546841030064383310e-02 7.376836216186806183e-01 4.339849845183317290e-01 3.169864695256512377e-01 1.872314605724124115e-01 -8.882562607814340483e-01 -8.830194466850197488e-01 3.322863304906795157e-01 3.301933344806401993e-01 2.306689707234738096e-01 1.461420440772222828e-01 9.461185541265154653e-02 2.217530496758599312e-01 -4.378410682335894255e-01 -4.656864577297235575e-01 9.028555368951519666e-01 -6.194984978873054882e-01 1.208826626983136920e+00 8.804406857840990641e-01 -5.995500105916005129e-01 -6.894813843480906979e-01 -2.969298370758483574e-01 7.817653497430074871e-01 9.670842274540819572e-01 3.737313317515571498e-01 -3.862845806869362186e-01 1.641819535481579551e-01 -4.839550519317566135e-02 8.803342582934249316e-01 -2.066403558869155388e-01 5.676132155189447248e-01 6.663300121274963184e-01 5.503027373582796145e-01 -8.203385766583390915e-01 -8.553210274758292764e-01 -3.321591407391422668e-01 -3.162954199694181234e-01 2.513429076479880564e-01 -5.045578721266542610e-01 -3.283311658080905748e-01 -5.893639833743800072e-01 -1.233769446312379836e+00 -4.007070355793274086e-01 -2.633562159829658245e-01 1.434322269593030219e-01 8.257289468726505821e-02 -3.367252757270813857e-01 1.237842881532071670e+00 2.525627463052049770e-01 4.727800529770239679e-01 -7.243469150140002810e-01 6.048133034159991483e-01 5.017921039495243374e-01 -4.953983346496842466e-01 -7.791512310152558518e-01 2.598435905510703137e-01 -2.238817406792244225e-01 -1.391838085436031547e-01 6.287648840458041899e-02 1.135016713797770693e+00 6.136044052559967987e-01 -2.702213653140813632e-01 -4.091515903979719426e-01 -3.026240966677380406e-01 -3.713250590255013361e-01 2.182302644224325128e-01 6.191238333834003793e-01 -1.423670707982281347e-01 3.767624696780212945e-01 1.253708902531538993e-01 1.523344142319436323e-01 2.556985350940855772e-01 9.380150121488167736e-01 -5.898795071999144435e-01 7.441021063298686178e-01 -3.068746355954694582e-01 9.459903628152875887e-01 6.523996335276812664e-01 -4.998639752197052144e-01 -1.124685653654842410e+00 -7.908740551641981753e-01 -1.785439244862628394e+00 -1.613563029026049866e+00 -7.106020552115924760e-01 -7.052465179189114641e-01 -1.125597279798656869e+00 -5.169570143306473353e-01 -5.701994184635529594e-02 -6.861974420292542565e-01 5.741757199924290428e-02 5.199453034986657451e-01 -1.308593850834290778e-02 -2.582089844051985161e-01 3.155039039968305370e-01 -8.707682346051852651e-01 -7.835252152017367910e-01 -4.380468455572317787e-01 3.900436021573972512e-01 2.390339564010423024e-01 -5.584052274038860952e-01 -6.930067611417448648e-01 7.443645450182524437e-01 -1.807163534398047999e-01 1.099744327011199507e+00 3.194496522318492904e-01 -8.850860182459018288e-01 -1.530138239406111600e+00 -7.156689119925695453e-01 -1.688564863950099859e+00 -1.756139522123511210e+00 -1.571559699808251720e+00 -7.109265929806063422e-01 -1.700179101955708649e+00 -1.480538974163732480e+00 -1.716467018160505176e-01 3.390063785216894110e-01 7.128979576925824624e-01 -2.069654078689198984e-01 -6.940053869622960780e-01 -1.111038969707100338e-02 3.576447769058006543e-01 -6.556877361147543937e-01 -2.339902627976053473e-01 -5.542284431865363015e-02 7.464279089326395500e-01 -8.133338525465672042e-01 1.115364373821890326e-01 3.749306061938320056e-01 8.405055174195702472e-01 5.250969028471593608e-02 5.169736552958305031e-01 8.169718319077884372e-01 -7.060684294788632798e-02 -1.018835297034667464e+00 -1.387112141223352024e+00 -1.570291736404097360e+00 -4.100364167612782773e-01 1.014805885325034129e-01 -1.482927459003332782e+00 -6.628838005237955855e-01 -1.236071249946585127e+00 -1.268122463800928745e+00 -8.394174758892755106e-01 -5.766939843291720713e-01 4.408040043843414746e-01 -5.353081704062804258e-01 -8.389252894290072371e-01 4.077570736562701609e-02 -8.299902870628561580e-01 5.728675267092904477e-02 -2.726900747491090571e-01 -3.545196102087965206e-01 4.208229626947442847e-01 1.349763072221829840e-01 -1.350126895700847207e-01 -7.275663254387590984e-01 -3.623205164537914857e-01 3.658718317015898225e-01 5.942634041325033367e-01 4.594280602718728290e-01 8.914278537055055907e-01 -6.940890274505917557e-01 -1.588036535557234841e-01 -1.217666403759146698e+00 -5.164798757792981032e-01 2.824755016598835544e-01 -1.049632083974191971e-01 -1.547564705935912666e-01 -2.764367585130904637e-01 2.297409107410064433e-01 -5.514083028835720102e-02 -1.400106635971467284e-01 -5.895750613570760468e-01 5.451395734717988661e-01 -4.346995898803737712e-02 -7.992108672703879257e-01 1.981811577155497550e-01 -8.333353630966010561e-01 1.526790317410270936e-01 -1.036010456757135989e+00 -2.302598065681282224e-01 -8.266874615923706093e-01 -3.779727584034140997e-01 -1.334240312705673448e-01 7.525412462529891267e-01 4.759217985278407781e-01 8.929168001909317809e-01 4.144928955499326828e-01 -8.460356755652467253e-01 -8.879677706752523436e-01 -2.416476307804299450e-01 -2.026389012646742371e-01 -9.056866340233823420e-01 -1.101797801930259890e+00 -1.123192370114121763e+00 6.972083772854869022e-01 2.455318533374798717e-01 3.317245108717731261e-01 -3.351491628645828502e-01 -3.092419815048237930e-01 -7.042013435388401188e-01 -1.108720198645031518e-01 4.202263131939132923e-01 9.042417304672814016e-01 -1.644481767317852172e-01 7.617217936614741891e-01 -8.376439130908733821e-01 -8.807774994783873490e-01 -7.160538287705785487e-01 -4.341632977835017670e-01 7.721222084411927256e-01 8.434560436208643486e-01 3.168477828641789174e-01 4.616353919347987445e-01 3.716002576455242346e-01 -8.915111692756803041e-01 3.584459597689853561e-01 -1.246960238692829126e+00 -1.320962511435699760e+00 3.051094716037375254e-01 6.587962071372343957e-03 4.343786517497431054e-01 3.852903648219908050e-01 1.480843281376347687e+00 -4.167560201045584778e-01 1.060330634213175971e+00 -8.175706877035920916e-01 -1.035048595862589349e-02 -1.543157122072265075e-01 -2.108975451218846608e-01 6.581863433364566474e-01 -1.022720923245249054e-02 -5.971021713736767156e-01 2.757852447128093520e-01 -4.242279275109295811e-01 6.868490178737084451e-01 7.984843553238563096e-01 -1.428146845559761513e-01 -4.017084541904012984e-01 -5.338647354238136300e-01 8.055739740677010374e-01 -5.851228901371642310e-01 -8.640637478286891660e-02 -6.527145078357736718e-01 -2.695564585180894590e-01 -7.589986311786309781e-01 3.004379572358978900e-01 -1.098631393421566349e+00 -4.510853285344093022e-01 -4.328947647262071374e-01 3.641314027686635701e-01 1.000265957231526004e+00 -5.517767585061426061e-01 -4.769430980871900427e-01 -2.337117990190008543e-01 1.812828856417031398e-01 4.123713618388492597e-01 3.699262067549342614e-01 -6.961152476688458046e-01 -9.596072998675118093e-01 1.665263352925539231e-01 -1.123928096483592237e-01 7.314530245415541421e-01 -1.006741915310785274e+00 4.208864737879040030e-01 9.365972437028863284e-01 3.366064907325111433e-01 -6.864314172107326417e-01 1.260349629064567711e-01 8.898561910648938866e-01 1.808504630519736367e-01 -2.507141291864971033e-01 -6.750102193419664776e-01 -1.278008083098280290e+00 -9.255144122063539980e-01 -9.150544999381515776e-01 2.611544678029243394e-01 2.831138235850539364e-01 3.575443172328318653e-01 1.664806706120078861e-01 -3.285924993933283522e-01 -5.992905316017619333e-01 9.966913077454047087e-01 6.850048343742943802e-01 -1.029322361734660296e+00 4.375121421369600472e-01 -8.565687221473496926e-01 -4.381205589646902654e-01 6.736171317557744231e-01 2.829234428753396591e-01 8.456330502448756725e-01 3.687614324654825415e-01 1.465823564584496363e-01 -1.862267157080389757e-01 9.415935205873230407e-01 -9.328606817288015440e-01 -1.222992980505992699e+00 1.215019792162636419e-01 -9.855543405917677191e-01 -3.415618700205552694e-01 -1.043761487153787269e-02 -8.971098282186305006e-01 3.495011762462172378e-01 1.292361821748322370e-01 1.692803438227281909e-02 5.574574115491650605e-01 1.973677561485492060e-01 2.707542381888471406e-01 1.352429161706326655e+00 -4.136985701481466493e-01 5.083113879391215617e-01 9.282975838666583934e-01 2.603451812614703265e-01 -2.821973213005382064e-01 8.728277180983681771e-02 8.976240522718911263e-01 -1.670534238488165790e-01 9.886720851444993352e-01 -1.697313326676697098e-01 8.467281327124905888e-01 7.086540572343591471e-01 -6.670654876294740410e-01 -3.411075560973268472e-01 5.642975049498301088e-01 5.885255968120201020e-01 5.379966445026740374e-01 2.441709097678467222e-01 -2.172770866258234013e-01 2.321589427883074819e-01 -1.322614124822693235e-02 -1.798627544221829133e-01 -2.291612718607528854e-01 3.900861018680680248e-01 9.283681884463140799e-01 9.329084239768483666e-01 1.953363153059898549e-01 4.516787550184196975e-01 2.935302772112911018e-01 9.699542474710004525e-01 -3.524677417142026981e-01 -2.287685391849411387e-01 1.665695643185131636e-01 -5.085113387099415849e-01 -8.054903062489586762e-01 -3.115486734376382572e-01 5.507003382290701632e-01 -1.409829623387233166e-01 -8.581059321173415411e-01 -6.311658409214814247e-01 9.961388075758056404e-01 5.866240403591803654e-01 -2.184040670922569594e-01 -3.886054653270261672e-01 -3.542383285549002836e-01 1.707059828187105222e-01 -2.677524070030394832e-01 -9.334693756680922938e-02 -2.890674341731636621e-01 9.986668490981085444e-01 -4.312282308910765916e-01 2.135513132262583658e-01 -6.560386240575205585e-01 -3.412353414929620299e-01 -5.646198798131170093e-01 -1.994246839295824025e-01 -5.642537969805468956e-01 5.104460731812353325e-02 -7.130306022517742814e-01 7.450267820415429343e-02 9.456269190349445575e-01 2.209584294915714897e-01 -3.196482812166580034e-01 4.850727382496482498e-01 -8.001998431824696167e-01 -6.448117257214885933e-01 4.207186107072112269e-01 -4.955345239334237734e-02 -6.404577499628928416e-01 7.744643581236827501e-01 1.175624929618669379e+00 -3.619638494530635908e-01 -1.152296135209947836e-01 4.911789124003295148e-01 5.710683830319476240e-01 3.316809169272922908e-01 3.859287204114887349e-01 -2.425292575012951701e-01 2.628614755384712787e-01 -4.253892301656903574e-01 3.219188224742514093e-01 -1.534707972147437982e-02 -2.296123063333569136e-01 1.214331272342700441e+00 8.002020484700814729e-01 -7.627497413430990303e-01 6.103473727482178202e-01 6.510233600797291631e-01 -8.627034060846400232e-01 7.412116664488858087e-01 -2.439280506517135794e-03 -7.654549250704522079e-01 2.962526853886135458e-01 -4.323356047604657859e-01 6.969644847572397106e-01 -2.732120100171221977e-01 6.819464509313578615e-01 -1.916188616745340134e-01 -2.193853163643026127e-01 8.982312065374515875e-01 8.691895384310587280e-01 1.074346199243114697e+00 -2.945072995922444758e-01 1.164735852984515985e+00 -7.684175393465284554e-01 9.669604480673297253e-01 3.505287702430886498e-01 9.271517197131629029e-01 1.260891221466150791e-01 -9.987452162188633631e-01 -1.334396668679842246e-01 5.978677849436472291e-01 3.340695165644202991e-02 1.878699239751566719e-01 -9.163142432931435932e-01 1.178747469812105458e-01 6.563446266096752968e-01 9.332932620973021232e-01 -5.681535391014809200e-01 2.284553798341004693e-02 3.634607356204397344e-01 -7.565988183647194276e-01 8.339747644711523744e-01 -4.009972553447810895e-01 -2.222213655320945114e-01 5.601240934753962675e-01 -7.651853731028586125e-01 5.978848280725796056e-03 4.774704784784478684e-01 -7.009793851190787572e-02 -6.509253276694980661e-01 -2.415129941619131304e-01 9.133171119647657266e-01 -4.720999958915710337e-01 -6.390322428157869661e-01 -2.261364010225808407e-01 3.408287191429145713e-01 -4.584273603597959212e-01 1.477674054977616558e-01 -7.210968630276123337e-01 -1.174712009617403380e-01 -2.030605650401242496e-02 6.346011568628167065e-01 8.918383132508925781e-01 2.120763360308123291e-01 9.512428192499993163e-01 6.710894185482780827e-01 -1.951541885372674034e-01 -6.896080424492989636e-01 1.947978742789790441e-01 -8.439300459931518006e-01 5.368578786889773857e-01 -4.681255088903107930e-01 4.160696990408352947e-01 6.270711170218437047e-01 4.273448355536685339e-01 2.936389472248148169e-01 5.791465682177200369e-01 2.357285082359064643e-01 -5.655471629983616078e-01 1.009816289719324273e-01 -2.694468171737882667e-01 1.018052756588159635e+00 -5.288861980449548472e-01 -2.265907810992069116e-01 3.805425275544159769e-01 5.341123586499331166e-01 -9.758791469914367411e-01 5.744499523441791711e-01 7.242869882452500352e-02 -6.697741053511447884e-01 -6.713443575235296112e-01 -4.447339962506404593e-02 9.640364540287085227e-01 2.188715922421571314e-01 -1.796188137494558745e-02 2.083677349048412841e-01 -3.777203550020249989e-01 -4.588570654984200359e-01 -2.606076573049581069e-01 8.138240777475190535e-02 -5.781807025191039173e-01 -2.614973715137722809e-01 4.938166308446546027e-01 1.666906018993342398e-01 2.791911684111559877e-01 -1.428633885871101183e-01 5.552282117925483318e-01 6.371559656259844218e-01 1.080544872361451025e+00 7.865477837521176463e-01 -7.577397035122199753e-01 8.850880583472091612e-01 -1.374522547490933388e-01 -3.114731299183741420e-02 -5.905003679594498234e-01 -1.220900674512776299e-02 -2.274352147618667053e-01 -9.484169096680912237e-01 8.841245501449344069e-01 -6.916627146546181493e-01 7.088349690563318095e-01 -6.517718450568896760e-01 2.138747617951373137e-01 2.092382853733734116e-01 -7.439955731872552325e-02 3.117177308232557120e-01 -5.637559250517194531e-01 6.775092563942584079e-01 -3.246335740759129229e-01 -5.451500376205223874e-01 -3.168121503528193994e-01 3.177100783923939020e-01 8.531691124312418273e-01 5.391633612438982981e-01 7.040370069241264073e-01 4.123691623798597106e-01 5.934229957074613759e-01 3.214460894139859470e-01 -3.200821037455943707e-01 -4.942191599084882481e-01 2.997821202089347992e-01 4.898842848011576434e-01 5.980404271606689637e-01 -2.459690211738906618e-01 -7.684698712440128920e-01 -6.292816579891219453e-01 -5.367796741427077745e-02 -5.942472248082766306e-01 -7.378725114888506909e-01 5.948166223964923560e-01 3.433467510913217335e-01 -1.799547031286439225e-01 -8.048810897648912555e-01 -8.378840638971843946e-01 -7.149285179260888023e-01 -6.901326753567774697e-01 -4.203185443832535562e-01 6.033271854008503271e-02 1.337889239801656749e-01 3.179360262306487606e-01 -4.153900497989600205e-02 -1.066922220313369640e-01 -5.043227663616310918e-01 -7.737140855898487768e-01 5.610132404751497770e-01 6.864194645249799276e-02 5.237893029630505959e-01 -8.689927322884728467e-01 7.091296761502302592e-01 -8.301136038671592665e-01 -3.144612068520740052e-03 -1.382745883176152712e-01 -7.246196012854101420e-01 2.293134248328954072e-01 -3.276226517440237185e-01 -3.615299014333770433e-01 -5.094403073932867176e-01
