-4.052778068720404026e-01 -8.992702038271007670e-01 -6.276659864633697961e-01 8.491264923293739830e-01 -8.788903660463343037e-01 -6.519910507644097741e-01 -6.541529829162124887e-01 6.894106835265019217e-01 -5.344561664494709152e-01 4.570214480325045514e-01 4.139411791414018271e-01 -4.200171554542535546e-01 9.896608849888940962e-02 -1.895272634866767836e-01 7.215531264799169842e-01 5.603006528397640462e-01 -8.406291029262691339e-01 3.215622110732401229e-01 -7.077224708440283951e-01 5.203450497145496456e-01 -7.149134653032858111e-01 -6.284715922729220416e-01 -7.084777345152313277e-01 -1.598656874947328443e-01 6.562257231860095796e-01 7.836789504430838882e-01 -9.972295315868207055e-02 -8.059585127788357894e-01 2.830375906460116386e-01 9.115760905280361204e-01 -9.371953504001362401e-01 -9.014336308286809984e-01 -5.382470715024905150e-01 3.386992546391734971e-01 -1.338710098049180341e-01 4.851147977579781667e-01 4.954174114776496718e-01 5.235753047291046292e-01 1.022972966352238139e-01 6.058520617450968704e-01 -5.507534716263660091e-01 -8.146102094879216216e-01 8.168024547926970858e-01 3.925418733535927518e-01 5.247258256062607984e-01 -1.799530031373064443e-02 2.109450002328579210e-01 6.555756321209089688e-01 -8.922076577778600415e-01 -9.814542651214985813e-01 -4.715958607384514445e-01 5.011584180345767248e-01 -2.242512932172349149e-01 8.886715908290330201e-01 -3.571597559671051414e-01 -5.155384455620228845e-01 -8.187802449630363633e-01 -5.655202455465890843e-01 6.969366742079817767e-01 2.746842222205646555e-01 -8.678541544358011617e-01 6.090030015911365169e-01 1.077403221676142969e-01 5.987452476228534159e-01 -9.040539115903907241e-01 6.300653135097650237e-01 5.962655759309455628e-02 2.260796086004275285e-01 -8.079851497230344792e-01 4.513982012901030516e-01 -7.468034463455024419e-01 -6.047060117672115043e-01 6.244516618122960550e-01 -1.026139070554979993e+00 -2.706669217335005984e-02 -4.887555301944526698e-01 -6.621457092496882968e-01 1.971037902087681426e-01 7.644560784527453245e-01 8.236354699955620307e-01 9.345734038856144954e-01 6.878583996181042437e-01 -2.904601451395520950e-01 3.499059754474562745e-01 8.436470857335416351e-01 -1.685477254469436303e-02 -9.437863247971076675e-01 8.337226134201298766e-01 7.302386138437592100e-01 5.301681030717265708e-01 -7.056913347481731380e-01 -1.033204092228526383e+00 -8.873829879255468178e-01 2.680924416016145506e-01 8.788346750257483575e-02 1.305834173780282270e-01 -2.434350756408946714e-01 3.235377650801136706e-01 4.615080706985073000e-01 4.559188933252409509e-02 1.955977829339077267e-01 5.747569506371236203e-01 -7.690725407205512010e-01 -1.022308853708330023e+00 4.434599766983260971e-01 -2.026584321079921702e-01 -7.026190495048144635e-01 -3.651884107613066668e-03 2.588614454972267831e-01 3.216457139928324827e-01 6.662438931906173867e-01 -4.095809757237138804e-01 -1.297195783268083602e-01 7.849354099963057330e-01 5.529268790144842294e-01 3.680266203891660592e-01 -1.399523396217681181e-01 7.495470089665999813e-01 -5.853587912521716063e-01 -2.491831779481324671e-01 8.542741714888960614e-01 -3.800747964317277017e-01 2.327045139950983943e-01 -5.430924131666391430e-01 3.617830014166721342e-01 5.920090401493762755e-01 -8.722568978503976167e-01 -7.326773988564042606e-01 -8.569890782869364898e-01 6.501038667330479859e-01 -8.096785091424778535e-01 4.443855520885161559e-01 -1.113283237083825261e+00 7.697804040173291673e-01 5.538929992986748596e-01 -3.213912994246759768e-03 -9.609569885028030889e-01 3.039651160558897725e-01 -3.390923228903575809e-02 -3.962915523955041208e-01 -9.133620600795726574e-01 9.853646716733786004e-01 6.924463082116115720e-01 -2.867449743633758152e-01 -3.532484125035707523e-01 2.937895136071743130e-01 3.042837329601288388e-01 4.231112709293275431e-01 2.227855641140965570e-01 2.592841351161327412e-01 -6.171031728167121200e-01 -8.626127549444986831e-02 4.609796178765205865e-01 -3.103245333757357893e-01 -1.168858784545304536e-01 -1.338678497067791850e+00 -2.811467812528690713e-01 -5.005352417941628662e-01 -1.121718755789844035e+00 5.277033311193807252e-01 -3.697853788798483587e-01 -8.120181632111070358e-02 -3.040001598954274707e-03 1.282934929019874659e-01 1.331439803361934848e-01 1.297684191791408925e-01 -9.514620279887910925e-01 8.306880459086196655e-01 -2.733647038469455559e-02 -6.226820276938308529e-01 -9.271175028234334148e-01 4.342401426731162251e-01 -7.851302983875263486e-01 4.211142073611214842e-01 -4.088869927255966430e-01 9.380111485675313165e-01 6.197051609916873760e-01 9.701896540955727843e-01 -5.352601946561371671e-01 1.891269280352120274e-02 -3.173691849163693957e-01 3.528472363114906196e-01 1.569119275662860056e-03 -3.415965002071639778e-01 4.071580377942177198e-01 -2.061939470169849575e-01 -3.133009219671537560e-01 2.949151768949038743e-01 -4.788396686697292681e-01 -7.360726067835339226e-01 3.427214241453666044e-01 5.613535657139798740e-01 4.892049497399475477e-01 5.293320151334977020e-01 -5.062674162498951302e-01 -3.474917629333327262e-01 -9.700594101636305089e-01 -6.495741536928061333e-01 4.444414892788584592e-01 -3.929418933460417374e-01 1.056535023655272632e+00 1.050372228093117144e+00 1.094517759896224574e+00 5.137379248227212925e-01 9.366266024824981828e-02 6.744118433651613564e-01 9.157081410853750159e-01 5.271796798936093653e-01 1.143064417833962620e+00 9.822103759843543447e-01 6.832965307807981059e-02 5.323751258842152057e-01 -3.067370491931902671e-02 5.969955673728432055e-01 2.630606754317003082e-01 5.380044601180946628e-01 1.187758107807348251e+00 -3.410006274649082236e-01 -6.282137392769034101e-02 2.685672380112996138e-01 -8.425116767384069894e-01 8.850873770092051451e-01 -3.128579608869193618e-01 -7.433457266886862869e-02 -6.228251292418109930e-01 -3.545366692801884406e-02 8.589090119113911292e-01 9.294335016255703685e-01 -3.000995806674131017e-01 -3.960294288094656778e-01 -9.345017994661726501e-02 9.894065895379778874e-01 -2.626537021079964895e-01 9.719119800096016615e-01 3.435428780914682179e-01 4.415958480389181040e-01 1.456692737936296778e-01 7.648572044318736607e-01 1.336372837991520512e+00 1.003220810904325910e+00 5.300269224299101190e-01 -2.300667794072502048e-01 -6.905535624554094420e-01 -5.640130487206292953e-01 8.579561033853819740e-01 -2.592115789651148750e-01 8.303595814935781083e-02 1.658350453383828083e-01 2.617471931298936405e-01 -9.646131387536935331e-02 7.549197350409143636e-01 6.333235084797279590e-01 6.067665527591684649e-01 -9.899693180680205207e-02 5.625864624048689810e-01 2.136993158516717894e-01 -4.789544210392416290e-01 7.465743214707970532e-01 6.905069289970224844e-01 -3.594922341563103196e-01 5.037462933414967869e-01 3.295049126206257561e-01 -4.643560075109164909e-01 1.502156297974729604e+00 1.313879180726418294e+00 1.236226853199114073e+00 5.797514113752068043e-01 -2.956307972076902546e-01 1.740289340659326722e-01 4.131336123698993168e-01 2.754428873786032850e-01 7.355899275021424710e-01 1.867218021563053082e-02 1.931066290865199320e-01 4.881175715898813938e-01 6.930013994119846865e-01 -5.793546330629393282e-01 3.468741268080118290e-01 -5.055674605022053569e-01 7.319736982204237963e-01 -4.218048109905281340e-02 8.273016647850072181e-01 -1.184116853487001547e-01 3.514464604987361795e-01 -7.702111669352386114e-01 -5.047508919372623026e-01 -8.379466281462049082e-01 -2.665932745699620687e-01 -1.452602078767699645e-01 -5.299863243761693266e-01 -6.275368171657110805e-01 1.046327684935560581e-01 2.347175824033638225e-01 -1.499634154365593885e-01 -8.800772734063373459e-01 1.631253882226488816e-01 -1.993640615933645055e-02 -6.009610743679442285e-02 -9.848060635765576443e-02 -5.622286763210257998e-01 1.186289921209438214e+00 1.479256990431039864e-01 -8.245833024226604246e-01 1.263565401197740412e-01 -1.454924241094653591e-02 -1.016584363262758250e+00 5.393701952020816398e-02 1.581657708374388238e-01 9.882787165707738186e-01 8.468025643281118509e-01 3.150267350053972265e-02 -9.451089911034495916e-01 -8.513006213732793315e-02 2.766310636247632515e-01 4.846674277438677292e-01 1.954642788027448896e-01 -5.026030574471295198e-01 5.693552725532279729e-02 2.706397053494624672e-01 -7.282091372186439981e-01 -9.736380691502747320e-01 -1.712508918129001634e+00 -1.218993841851179427e+00 -3.431091199159996274e-01 -6.622768746320389921e-01 -1.266842668701581909e+00 -1.865340603130342945e-01 -5.573238533470559197e-01 1.547745327953209127e-01 -4.645728011667877855e-01 -7.881112286730499461e-01 -5.531781870551829572e-01 -9.600227088120684149e-01 -5.213001780606497659e-01 5.540482028267788850e-02 -3.546268980640100987e-01 3.392013986571236206e-01 -2.848675261863106156e-01 6.835842869544993539e-01 -4.432131232879330529e-01 -1.110964048959581785e+00 -4.948980307111330856e-01 -8.930744635078394777e-01 -1.566730905503328053e+00 -8.982512960838384686e-01 -8.294912558535552094e-01 -1.468532411931184445e+00 -1.133606759444792500e+00 -8.773231319403785866e-01 -1.491055550920501682e+00 -6.218339874986014149e-01 -1.336219959516586897e+00 -1.157579761855873191e+00 -5.608476192650295455e-02 4.086148720533776535e-01 -4.900098469102913135e-01 2.585564820658540000e-02 -3.669815930461906572e-01 2.836626879503527099e-01 -1.219964616142522607e+00 -1.068755226940914627e+00 -8.756997737494690570e-01 6.495237081884633334e-02 2.033753267374844437e-02 8.338417223552883895e-02 -8.558061290606612248e-01 5.786714479250483212e-01 4.703794839815020890e-01 2.894628708525338601e-01 -7.576615153193669849e-01 2.465625055288514778e-01 -1.275718852804444303e+00 -1.201242109969957061e+00 2.499690203784811771e-01 -9.533776824560047380e-01 -5.750342449634484598e-01 1.482070379149798278e-01 1.553912672297747266e-01 -8.789192039339726037e-01 -8.024026167856771474e-01 4.441763694681363228e-01 -1.117617482990291178e+00 -4.188904341008248822e-01 1.588378828074331617e-01 -3.714629153414710783e-01 -9.705927767233364367e-01 -7.750384793858027255e-01 -1.091399846979635990e+00 8.340450760151485454e-02 7.592479427598421982e-01 6.216476207139435273e-01 -3.980962686258556621e-02 5.405980119820134044e-01 -7.665143810371712052e-02 -9.463235946550896394e-01 -1.178289759138919784e-01 -1.061359245944906826e+00 -6.670031262690614415e-01 -9.883472129304995413e-01 5.590298818293990557e-01 -2.226845401001304181e-01 1.442856194137445702e-01 -3.008281640930532408e-01 -6.732596116625745308e-01 7.314508559051461356e-01 9.237515083633415225e-01 1.589826665677256667e-01 -2.019483662521948109e-01 1.797389497750977519e-02 7.724524603637967779e-01 7.101208939227432460e-02 1.393034270961154009e-01 1.544564440404938011e-01 -9.532415852576306969e-01 1.285310748157482141e-01 -9.840118311218585267e-01 -8.203503234702357316e-01 3.446520711693317196e-01 4.505522846512400315e-01 -8.434967287329164787e-01 -5.071483010183808204e-01 -6.202831281220413384e-01 1.310936127070483348e-01 7.191111715489071354e-01 -8.198415957976631363e-01 -6.330871348901145890e-01 5.691823991525775395e-02 4.763940758032924605e-01 1.307397887071427123e+00 8.971033853989129891e-01 -3.219884785819439044e-01 4.370469086731521013e-02 8.629750210350918271e-01 1.822551070229301851e-01 -1.071555323312250452e-01 -1.829382326314190066e-01 9.488640032646293854e-01 -4.190584678547742969e-01 2.937961026691170985e-01 8.224277147988604542e-01 3.202293495533033996e-01 -3.293304364186044886e-01 1.998468516711046084e-01 9.557326725056538574e-01 -5.297403352168111174e-02 1.995267181678115898e-01 -4.506823973301722353e-01 -3.849675102717852737e-01 4.183024134194910926e-01 5.291145232947810362e-01 -1.716081998420812271e-01 -8.818421496143259430e-01 7.739010986160094197e-01 7.925815386178369781e-01 -5.928055419061469822e-01 -3.898564541618418366e-01 -4.518041684027601645e-01 1.125610119144030197e+00 5.446450165832239509e-01 -4.727499733821832195e-01 5.778690413461354258e-02 5.145517488739095313e-01 5.395727049753483717e-01 -2.215269190502333063e-01 9.314332809194312279e-01 -1.367041516794296196e-01 8.646121421565028864e-04 -3.616148490157607420e-01 7.811752600609331854e-01 5.753271999478027920e-01 -4.928838932434628783e-01 6.608980739692407180e-01 -2.091668130003756509e-01 1.133532791633633074e+00 4.568455390566836805e-01 -4.746247529118860498e-01 5.481094160219099898e-01 4.581757986922787573e-01 5.575986133168160386e-01 7.584477736402056580e-02 9.134341086819461886e-01 -6.885709140808787820e-01 2.492292509178052340e-01 -2.583203603111161595e-01 -3.249746272309515516e-01 -2.236552860223981198e-01 -2.877459679898025646e-01 -1.243946780706315369e-01 -3.579928566458909223e-01 2.048290443609937783e-01 6.991765921464104805e-01 -4.044859767215869262e-02 1.642104354363484453e-01 2.501206933214705219e-01 1.011682205708494209e+00 9.089450627352051448e-01 -6.578498260675971210e-01 -5.941583087561101983e-01 9.935265046734886862e-01 9.732170210461991156e-01 -3.493412113285844500e-02 1.060909287702755721e+00 6.414411824453946087e-01 -8.957830540991842394e-01 4.859138811062237995e-01 1.374002942365913083e-01 6.323527444995882263e-01 1.120915768729672468e+00 -6.387722621487355035e-01 -4.876543272114947647e-01 -7.458352856412032716e-01 2.531850716968329640e-01 -1.087059707364341543e+00 1.012482825885795482e-02 -1.164847401998654108e+00 2.917857339050170529e-01 -2.471911455533786217e-01 -7.768308092156175348e-01 6.042519878930071586e-01 8.603957744711248079e-01 -4.207012374853274506e-01 8.148690396715372319e-01 8.278583952078242270e-01 -2.500574763674011103e-01 8.738643805064640890e-01 -7.182426011919488262e-01 3.491233052389529634e-01 7.104063338391889415e-01 -7.027524765282789909e-01 1.017113039669964358e+00 -8.153635087913051471e-01 -3.030588081895121272e-02 -8.742155176431767316e-01 -1.092941006087418954e-01 8.544978661974506062e-01 1.151034016783925917e+00 1.641843814344350339e-01 -3.040133760629714077e-01 7.474499166928442184e-01 -3.055990425158869872e-01 -2.931969891495032066e-01 1.362272554689846482e-01 3.192787047496825070e-01 -6.166720427552323525e-01 2.098240509975178025e-01 -1.079992177887674314e-02 8.629346870261794811e-02 6.807744507800629341e-01 6.536965573133843299e-02 -5.934429027860183004e-01 -6.711042219382631346e-01 -9.255306676662043985e-01 -8.804934968632643910e-01 2.491921987365106408e-02 5.505145494355745406e-01 4.780667300761559102e-01 8.707389031743278940e-01 2.242688489732316826e-01 -8.005475134799747705e-01 2.905424852708262673e-01 7.095239000516462280e-01 4.027306755654256332e-01 7.194560845202050414e-01 -5.599088608840004921e-01 3.433118555791907500e-01 7.165574408852920518e-01 -3.997956367118034038e-01 5.245018549640879657e-01 2.522743634560589143e-01 -8.775777295681475021e-01 1.941246884608968382e-01 1.836802596819230304e-01 -1.526805798202850228e+00 -6.336522574592645674e-01 2.178936216959749261e-01 -4.910861881529601791e-01 -3.467763052401990898e-01 3.446532399721379258e-01 4.999695905428413467e-01 -4.393251730531362309e-01 -5.311422884462150273e-01 1.341417891374327431e-01 -8.258500232037314648e-01 -7.004563661271944186e-01 3.396606452103881346e-01 -2.087182312004261520e-01 -4.392914301691975831e-01 -1.357572439842373302e-01 -3.380128832923229298e-01 6.045844579746301184e-01 2.394096679239496039e-01 -7.553341313981651872e-01 7.319260959716877846e-01 -1.136592335934424880e-01 8.103348437220176947e-01 5.763003625655951367e-01 -6.531053777268720495e-01 -3.924303686440168137e-01 -9.909261898855817874e-01 5.185309791137016067e-01 2.427868952180678094e-02 -1.410802990375619848e+00 -2.925467654809190687e-01 -1.709985496852119147e-01 -4.298526031796615077e-02 -5.278507258152344006e-01 -1.030253406760028190e+00 7.929979887295875995e-01 -4.395077732415581528e-01 -7.325588604034275475e-01 -1.714725861139587693e-01 1.015676998861120950e+00 -3.570273426747033185e-01 8.060559259598540915e-01 2.120677920421666085e-01 -3.723714373244971232e-01 -5.718667299798823461e-02 6.530703272555816730e-01 1.999334331649323671e-01 1.899225583525897820e-01 9.208445610228528366e-01 4.500014125654649422e-01 7.129323958655592319e-01 -4.655907194209593647e-01 -2.161547819923053393e-01 6.341989619767329778e-01 -8.043446116746125751e-01 -1.217974322305985235e-01 3.263134456815552920e-01 -1.133831549428856889e+00 5.688058759598872000e-02 -5.627905838657997206e-01 2.370582557283850145e-01 -2.902048616834380645e-01 2.239777966824180178e-01 -8.570382139427782375e-01 -1.718619264134854663e-01 1.180302078795548854e-01 3.610348595050069664e-01 -4.531650378511589694e-01 8.160956558880808620e-01 -7.925034685701158876e-01 -6.754135070124254181e-01 5.828536827699918321e-01 4.985793525696646800e-01 -1.511818945419467486e-01 3.715656157373249946e-01 2.237081942705235749e-01 -4.620035972417576575e-01 -2.837401194011908434e-02 -5.058440054028973121e-01 3.065131538621386764e-01 -4.477743816367157348e-01 5.137431440767046276e-01 8.393308741280406382e-01 -2.587637885925512041e-03 3.574509321723374766e-01 -7.795448005954257464e-01 6.414061691206824900e-01 3.931200168692491337e-01 2.283118456849803080e-02 -2.451476106171079361e-01 2.937139429623551456e-01 -6.132235557379690505e-01 -6.397362093766040259e-01 -9.663039033344830164e-01 9.474737973803556423e-01 -5.787174751950658891e-01 -5.094759675313336178e-01 1.371690679367851828e-01 -5.853018728928391923e-01 1.900122939774493425e-01 8.281749550990589182e-01 9.956261583898815548e-01 -5.862595143332147707e-01 7.224809473719612241e-01 6.108938902084054545e-01 1.582153911515983280e-01 9.470936531635634065e-03 -2.131048364851985677e-01 -4.825481096445713991e-01 9.549090459554863131e-01 2.624740868419280226e-01 -3.381918940532141482e-01 5.090798972347133911e-02 1.068275577645042107e+00 5.415613740162530387e-01 -4.234775058156153849e-01 -6.243522709168822793e-01 -5.724386468859016253e-01 -9.891953349555887912e-03 8.362440456106742248e-01 4.225190373101332386e-01 -3.970978228371200291e-01 8.359916820049820840e-01 7.655827361472969939e-01 8.199678977314636685e-02 -4.987743389900398117e-01 -7.104631559251982642e-01 -1.611105001801618197e-01 -3.669581067247753570e-01 -1.545594361550037821e-01 2.147149742020490124e-02 -2.369744555264426400e-01 -3.086948530701926208e-01 3.191153643317394262e-01 -3.503716381258067947e-01 6.477496785973295423e-02 2.616572575864625216e-01 1.677607434507642215e-01 1.311418237006281684e+00 -3.346054633085693286e-01 -3.738914864756652801e-01 2.560790323278726022e-01 -4.423661347694566870e-01 -2.707242627605928598e-01 -8.358442282470702756e-01 8.328388202870031787e-01 9.593796895231928579e-01 -4.745565917980729825e-02 2.874674778462119051e-01 -2.206042559934477398e-01 8.408597970416519241e-01 1.969451768328214780e-01 -1.396007470342746914e-01 -3.161094234052289065e-01 -7.708141008251894188e-01 -2.233729380884750260e-01 3.267253396422646894e-01 -7.047989622377957009e-01 5.547019104674286716e-01 3.542103979734190222e-01 -4.430727123322479311e-01 1.795775501696888765e-01 -7.880248214304933496e-01 -2.538542253054060227e-01 -8.252901880660863387e-01 1.582278146925648887e-01 -7.039580645362322753e-02 -1.926440703891987294e-01 4.640656593469754190e-03 4.226282664699639730e-02 -9.161055137949380978e-01 -6.885428305205595345e-01 -2.170034974223836177e-01 -7.382273177924655316e-01 6.008386156690727065e-01 -1.349212760702475922e-01 -9.607642820557658891e-02 1.500421451389307159e-01 4.909174691625011744e-01 -9.481090888425437457e-01 6.065717378737307541e-01 -8.157595778820889709e-01 9.390528274984024648e-01 7.155898914398206578e-01 6.218274397983973856e-01 2.036638457831352333e-02 -4.354222442037165575e-01 9.828618999378433418e-01 5.812876299263103341e-01 5.821003036198476588e-01 1.845627262524363044e-02 -7.058602517394259035e-01 1.758326763504210466e-01 2.177584383998667772e-01 8.866692716818573849e-01 -7.370421765077440901e-02 -4.068547803268411367e-01 1.234183778110059942e-01 -5.151647802760255246e-01 9.338402716363534140e-01 -2.381014467796328804e-01 2.529249801178582446e-01 -8.329595106387036596e-01 -4.375799998601672680e-01 -4.913566642818512076e-01 -9.271143514561915877e-01 -1.880090672941097385e-01 1.468875760548974951e-01 2.733842100146641751e-01 -3.516921132090784496e-01 -3.092364629973898271e-01 2.268888303310212518e-01
2.089395262649018647e-02 -9.598877254140745219e-01 3.808775269054425205e-01 -8.957769476934251962e-02 3.804984379570635067e-01 8.132924819172993036e-01 -9.884052318773113299e-01 1.257366203585834619e-01 1.180211142056939444e-01 -3.209657619986558963e-01 -5.520170597570326354e-01 1.522421237061015731e-01 6.965387164622834915e-01 -3.901006933680720157e-01 -4.311608726131102576e-01 9.169315211793812592e-01 8.481099497333393078e-01 -4.073846642525076334e-01 5.764674583897511084e-01 -4.218174656075224238e-01 -3.857509993307739471e-01 -6.583723470699258673e-01 3.557440544048722231e-01 -2.879271660837052771e-01 3.568236721768207609e-01 4.352644361336597267e-01 1.020424200241738522e-01 -9.120765107668458160e-01 9.312594864866123867e-01 -9.422437627273534400e-01 -1.694691240042598412e-01 5.702242520949596383e-02 -5.201466955768142553e-01 1.979229621825200069e-01 -4.081165662478102862e-01 -2.891842238826556333e-01 -6.687462246992070813e-01 -3.178421500623430235e-02 -3.526924546174974306e-01 5.410673312253474476e-01 -2.573911494390785371e-01 9.193813915046671059e-02 -8.390224261031479225e-01 6.239387090316126372e-01 -2.185199762785210859e-02 3.030184089730386110e-01 -3.273804778582239949e-01 -1.010183550287503257e-01 -9.364044612745929808e-01 5.165273529858478430e-01 -8.365671575395423609e-01 2.668355636816754362e-01 -3.120228489319889498e-01 1.998820041043425366e-01 5.622929058983676676e-01 9.734944066543960162e-02 -3.668965976531997075e-01 -6.848578087352799049e-01 -6.907750412530132555e-01 3.956205609965012249e-01 -4.894184588392680273e-03 -3.984790915920897736e-01 7.112522052696556019e-01 8.673495484186209969e-01 -6.938516662843936533e-01 -1.307046738936197272e-01 9.086595350720738651e-01 1.432177871233021871e-01 5.796426483272102415e-01 5.200914609211461093e-01 -8.076613781861502472e-01 7.340581123377022676e-02 -7.949956083008489216e-01 4.774489828056816543e-01 -4.591498061661363761e-01 8.563515995485385668e-01 -4.179525263971298893e-02 -8.832121758015768487e-01 2.661403746684751770e-01 1.588021209560448455e-01 2.540879436325370055e-01 8.341930093644925881e-01 -5.097119076600753473e-01 -1.024729001792934469e-01 6.771128631975045220e-01 5.985951934720361578e-01 -1.363349160781265022e-02 9.459529416706917715e-01 6.133571973551262824e-01 -6.154162526932269728e-01 -2.325853844913227386e-01 -8.136676406757747948e-01 -2.970208699561369126e-01 3.284151873851925973e-01 8.388652630267294796e-01 5.726398999112711774e-01 -1.079522584510848926e+00 4.987198360889892879e-01 -5.546809296434451753e-01 -4.505126083867336817e-01 -8.263613906945386223e-01 -1.026057798437170820e+00 -3.251344773480976391e-01 6.191707003351009098e-01 -7.047042730186661719e-02 2.037681189647732038e-01 -2.175524603609290120e-01 -1.721179134833859536e-01 9.201527974244880781e-01 -8.742008318682161772e-01 7.951736606360593207e-01 -3.905177324419695228e-01 9.352634781285000809e-01 2.999719698374279063e-03 4.216463887050262982e-01 6.478720794199257504e-01 -8.227187020958737218e-01 3.164596546179975212e-01 -4.914900843211023607e-01 -2.716885364042377904e-01 -4.651495721739814515e-01 -8.198323632287213281e-01 -1.165286482495320852e+00 -6.785379931321403602e-01 -1.367003309761307128e-01 7.108281046493066802e-01 -6.998932057202310597e-01 -1.828227924306060903e-01 -1.211840934315760121e+00 -9.001479435257258022e-01 1.978813267101943718e-01 -5.598961206860017525e-02 6.270647481633381259e-01 -1.137918652930903773e+00 7.682618132081315832e-01 7.261979198397076063e-01 9.639091912034167819e-01 5.364891870495938075e-01 -9.467285394324752579e-01 6.300654747804770306e-01 -6.480433858853416051e-01 4.229655410949568761e-01 7.239349691693593158e-02 2.583963444967101175e-01 -3.191218445943024840e-01 5.210399951665444229e-01 9.911956623787603060e-02 4.865979814266946923e-01 -2.202631539510212788e-01 7.603352856757567002e-01 5.188562296076586478e-01 1.354229994858163200e-01 -2.001593029046605521e-01 -4.722597765305520945e-02 8.357622549675112200e-01 1.038241160792565260e-01 -5.231750854435874842e-01 6.420401904949664118e-01 4.518330862169764317e-01 -6.869803931228100069e-01 -2.036400143652391526e-01 -8.619472927352475056e-01 9.296740730943089392e-01 7.447418533544430952e-01 -1.554219150756986356e-01 9.224358159396072177e-01 3.614538760579956156e-01 -9.514001438944643674e-01 -8.458299210113342514e-01 4.050713050829093942e-01 -3.687834111266268811e-01 4.991857940673765648e-01 8.644039824217089052e-01 -6.358663524207286422e-01 1.235371446809645363e-01 1.334180097278614974e-01 -4.653710282298088169e-02 2.702726663210028857e-01 1.163474607237785285e+00 1.562916520491067496e-01 -8.647304997662680348e-01 1.500020089454646988e-01 2.573492241329118357e-01 -8.469150237778438894e-02 -8.292238890505571058e-01 -1.127826940084634355e+00 8.669173492548647442e-01 8.368081572805307067e-01 -5.253393304921001317e-01 -6.435992264085092784e-02 -6.610541724568171906e-01 8.111665399314736957e-01 -6.881773669415388595e-01 5.938471056272013326e-01 7.269969463644150309e-01 -1.849235576696909578e-01 -2.286187458923750193e-01 6.275214172336769369e-01 -2.006884330097514213e-01 5.071643156621589155e-01 -5.773580274208511831e-01 3.678308009877118701e-01 -2.469571134380606492e-01 -7.559806174623310282e-01 7.158162474785525475e-01 -2.121453661233454191e-01 9.558913625394311886e-01 3.992228709957148514e-01 4.662354576902774661e-01 3.450345793178129505e-01 -4.263152868275964513e-01 -2.238466217228100852e-01 4.140241282806214063e-01 1.273210382605942659e-01 6.541270342952371086e-01 6.823597575970637985e-01 7.660743964524630543e-03 7.031504445061767007e-03 4.250836698976782624e-01 1.150452900012212121e+00 2.588571084521636978e-01 3.071222149084189279e-02 8.266642179645440347e-01 -4.672922386590105254e-02 -5.771409773864626808e-02 1.789983639449662101e-01 1.382174603082693132e-01 -7.773822763807062275e-01 4.718309217770562669e-01 7.245483111901819262e-01 8.975224216091322038e-01 -4.178319288012641852e-01 -7.105523671993428936e-01 -6.134557209690956192e-01 7.307074036480177837e-01 4.417690636940376225e-01 -3.223923699612299409e-01 3.385861595079361908e-01 -1.574680596608940553e-01 -5.265982267615135770e-01 9.439692139629191070e-01 1.008264598798654710e+00 -4.329025016292685768e-01 5.579351495989197662e-01 1.354345886163830892e+00 9.664746821381657860e-01 1.351493656316510528e+00 -1.414425777093013432e-02 8.420509612718289905e-01 -4.406436833655874019e-01 8.905922940386179487e-01 9.536801778893079229e-01 9.584578266141232650e-01 6.378204609998125996e-01 1.313621883272164115e-01 1.252182696212114366e-01 7.290142331248523622e-01 -9.009170609973230492e-01 -6.190464336903294118e-01 1.560863913613436960e-01 -4.203370664660784767e-02 -2.530098071852276780e-04 2.316129153480478986e-01 -5.103730611409827977e-01 9.279134551238348017e-02 5.288419775691243219e-01 7.794800053160433340e-02 -3.248654252602027337e-01 7.842232219476207022e-02 1.733997155796095369e-01 8.258094956084958138e-01 -4.132790755595021071e-01 -9.657069729285415460e-02 -5.671658912339442304e-01 -1.903727490704308911e-01 1.315783877985185590e+00 1.106028114375487093e+00 8.148980939243141153e-01 -5.637333043028183166e-01 2.015404105017317565e-02 4.583562221422395333e-01 4.987140386599054898e-01 -3.540465131809398258e-01 3.292401134120123696e-01 7.160195626074465913e-01 -6.777854734960067074e-01 5.451695398453917374e-01 1.557809418941810964e-01 -9.374185745997984931e-01 7.202546056666208063e-01 8.948367161778857382e-01 -5.474670209794053610e-01 6.398226733584009285e-01 -1.036807137865013884e+00 -6.109227855869435730e-01 -1.299054993778504086e+00 5.563007661557377581e-01 4.746697793276856703e-01 -3.999516330704252498e-01 7.399624713735868387e-01 -6.268358154744868571e-01 9.968384947269354202e-01 6.464977286194411032e-01 6.834024604766248956e-01 2.127936090816072157e-01 4.048063454275673823e-01 -6.032422009886724279e-01 -6.571507579328059734e-01 9.051320857364288930e-01 8.647707401355188006e-01 9.772853748856594747e-01 -9.991720944154808270e-01 4.176085801284831756e-01 -9.841634668268258584e-03 -5.772138929645184158e-01 -1.754184984543631295e-02 5.723290300965919869e-02 -9.233452957439304276e-01 6.733385226379371424e-01 3.052233538132215207e-01 4.026035269251865834e-01 -4.779136673568152444e-02 4.455707777125624686e-02 -4.512366337486246048e-01 -9.610526613815919550e-01 -1.225686061557684503e-01 7.120593461695546855e-01 -3.332642036423161258e-01 5.135920911534121863e-02 1.676462438797595433e-01 7.889297261698451358e-01 -4.758135159218471744e-01 1.010116112384423087e-01 3.657504649368562566e-01 7.801486620708412145e-01 7.810640314248530336e-01 7.874636451098101508e-01 1.454940937920840699e-02 -8.163536461712347370e-01 -5.287659800334254534e-01 -1.807131534520610983e-01 2.083613463585901326e-01 5.146538999886639543e-01 7.314432194376003782e-01 -4.837358108018797176e-01 1.022751964560043858e-01 -8.067519456339881101e-01 -5.841787843269485858e-01 -7.947223669138912816e-02 -7.436403956867128073e-01 -7.952474048862481215e-01 -1.495719685689782530e+00 -1.262031994545707914e+00 -8.910842603714063115e-01 -1.087483366381475136e+00 -1.169296507946177455e+00 -7.728673485658535958e-01 -4.038115302812612661e-01 8.593446520808286637e-01 1.099001546948130681e+00 -5.884335056821551335e-01 8.675415358738339799e-01 -5.643364132722968884e-01 -5.180836628056554316e-01 1.511341543271152721e-01 -7.770257470696526614e-01 -7.044296392767035453e-01 6.013718452827643279e-01 -5.880533605408549969e-01 5.653126223480359203e-01 5.709983406144280016e-01 2.941586317761102354e-01 4.554658026276760946e-02 5.404093878745226676e-02 4.085563511619099697e-01 -4.700692398087701340e-01 8.125524610204319931e-01 5.396004659631340461e-01 -4.208272105294638132e-01 -1.352764827197878938e+00 -1.418732490888495068e+00 -9.813910249581424550e-01 -1.261966906169518898e+00 -8.087752525060829534e-01 -6.595088643187901889e-01 -3.755414916814567988e-02 -3.757307524173147950e-01 1.116593862536686244e+00 8.807081890454073747e-01 -3.800359299360363541e-01 8.369099131371904310e-02 -8.965105286332532286e-02 -8.577417387434438378e-02 -8.337165507613257809e-01 4.923929171422888190e-02 4.285270417177914903e-01 -2.158010546332466972e-01 1.066968589841097881e+00 3.621085366751106149e-01 -3.620701167540277821e-01 -7.769735243643086653e-01 9.206596501544670463e-01 -3.599588722105474536e-01 5.617925137292721915e-01 -2.857514488001234310e-01 6.153784235097393973e-02 -9.153794461106405933e-01 -1.482419092718154641e+00 4.828582411030788585e-02 -2.617720149031743104e-01 -3.439308424805461728e-01 3.478955258316046573e-01 -1.096389446259699696e+00 1.217821546223758211e-01 5.997268727540638888e-01 3.379386289750980002e-03 -1.302510220989857304e-01 -6.706489556698978782e-02 3.922466470744345735e-01 2.238694616548790595e-01 4.814213312569326497e-01 -4.584173576421595731e-01 -7.638893604992179620e-01 -1.899801052478974073e-01 -9.093607406267573134e-01 1.169354968730496269e+00 -4.082279146014245463e-01 -8.032118336903054656e-02 -4.951572383339468697e-01 5.117582655017390847e-01 -4.165053543104512146e-01 9.201226098221068073e-01 -1.336181237664898491e-01 1.785883128729778557e-01 -4.391358114494501308e-01 7.789065785968976585e-02 -5.967665990397165166e-01 -1.416626021783775301e-02 4.117180358004146057e-01 9.317123602342123334e-01 -3.674490629802300568e-01 -7.076389196128133330e-01 -2.666718231067543576e-01 -5.157696643509739748e-02 9.141451900146413401e-01 -1.629251058056264689e-01 5.287570579183517028e-01 6.426114600958162670e-01 8.404479913899113308e-01 6.133991072953509649e-01 -2.216724982226751239e-01 1.050755202293905816e-01 5.844151333728185849e-01 1.810193926395812503e-01 -9.186370635616724067e-01 8.298433855410178861e-01 3.043652480266061389e-01 6.844719485669273906e-01 9.297616194519686683e-01 -8.671032509157297619e-02 1.229743607470355909e-01 -1.219316030603945916e-01 -2.086187613592984658e-01 4.336776701666064660e-01 -9.631641293992514175e-02 5.718471386254545541e-01 -8.010826549703655708e-01 9.600294296679849904e-01 5.016827910662687851e-01 -2.279019271697856619e-01 -4.364683347238196287e-01 -2.355831986720934579e-01 9.871613912425890591e-01 -7.182317495552988929e-01 4.216693085074774833e-02 -2.244425876075711521e-02 1.031441189257615854e-01 3.634618244368001405e-01 3.187037235898642074e-01 -3.789796694920728737e-02 6.746394565177633584e-01 8.661079624171595936e-01 -7.821810166363069028e-01 5.148387535757263656e-02 4.498632109131759926e-01 2.694948671328096235e-01 1.346421149754003788e-01 4.051328097138272022e-01 -2.602224043900325245e-01 -9.584130027539856655e-01 -9.609877563027864333e-01 -6.540480125458359995e-01 3.252562507830097926e-01 -7.728819578975349991e-01 5.584302703089330652e-04 1.238638489083476561e-02 -4.326508739631094724e-01 -7.788466555497527422e-01 -9.139650959867920976e-01 -5.447682087926103423e-01 -7.242720337878518766e-01 -5.152799690461097315e-01 6.735313583023890827e-01 7.572904981901903421e-01 -2.886230592112546400e-01 -7.164210925649943107e-01 4.398167836657937424e-01 -1.390757228710805260e-01 -1.000203185977221798e+00 4.053763279745484227e-02 -5.376307841381563479e-01 -7.998154463460005470e-01 3.057093761403935073e-01 2.111849750863632469e-01 7.478252737898000158e-02 1.235392497843718296e+00 -3.415037056955654848e-01 1.170077877920708276e-01 -4.255124621494836834e-01 9.698434148965093260e-02 4.943476633520747510e-01 -2.107947917383980185e-01 5.018671460410737417e-01 4.805122543805607771e-01 1.257128429075055343e-01 -2.397700268505454646e-01 -2.740927661529128923e-01 3.664226220167582371e-01 8.911881885445874785e-01 -2.653431535835378274e-01 -9.802706860808737543e-01 -5.189576714912028654e-01 -9.543929918282230140e-01 -7.068331412395286728e-01 5.488205325064174911e-01 -1.112454640115259963e+00 4.174993366778733117e-01 -6.243276636221180009e-01 3.345498025692675848e-01 -1.512782473091303925e-01 -5.206454434621425875e-01 1.107026105646810477e+00 -3.983061754608759331e-01 3.201100029448981088e-01 1.058777708825326291e+00 8.946638615525512872e-01 4.499522880008139381e-01 -9.175600183259566278e-02 -8.420269475008751447e-01 6.165223758520200770e-01 -2.313321048954132819e-01 -3.832299113600389773e-01 -5.680144223174124485e-02 -6.770329680154021368e-01 -9.095424374079101870e-01 8.884774425376054108e-01 3.492489625085684057e-01 1.077555714381279728e-01 -3.977710332490951295e-01 2.253132919007808099e-01 -2.293683358131652916e-01 -5.775611412235003295e-01 -2.922499641650292967e-01 -1.765347168055884375e-01 -9.123254488375699411e-01 -9.122497670991140950e-01 -6.494242283246235425e-01 1.196479096013286281e+00 -1.325958204763745818e-01 7.683136337762268564e-01 1.088804299584273494e+00 7.026182159943739070e-01 6.099704733822048919e-01 4.966571799313360680e-01 2.386197467135908745e-01 -9.391514641336512481e-01 -2.585250023706248679e-01 -4.479843105735192288e-01 -1.232798325062627182e-01 2.660109214652600085e-01 5.964202965510528864e-01 9.306341152983385046e-01 7.803214552818394933e-01 1.389909305682665019e-01 -3.161802011319086447e-01 3.897761635674273362e-01 -1.268400637325989011e-01 6.325374174072880828e-01 3.996241454515105929e-01 4.398672227775285992e-01 -9.411855977040587407e-01 -6.718126948188553049e-01 -8.621272560943704644e-01 -2.858498937928813819e-05 -5.445680030579655440e-02 2.639586938241245129e-01 9.884439503295032736e-01 -5.133149767574608779e-02 -2.772599355982059977e-01 -2.544666829203459102e-01 2.069145466299986691e-01 5.568858233336605457e-01 6.656430615779206361e-01 6.752705915731842534e-01 -3.308137974370083945e-01 1.071869208812255447e+00 1.975259330256897705e-01 -9.228431256946777184e-02 -3.016514547203935082e-01 -5.012104998471146322e-01 2.707945785654209403e-01 -6.763804634658771020e-01 4.008800185355555490e-01 9.131884794717033405e-01 2.141489990768718349e-02 -9.635130902485418147e-01 -5.535067191015941024e-01 -7.213493495672045341e-01 8.602075003306208778e-01 -7.183827750621362140e-01 -1.332241185975392983e-01 2.584073634832321775e-01 -4.020275028067275547e-01 -1.311052668224013396e-01 1.551656658239619846e+00 3.172981162526298804e-01 -5.677331398513937311e-01 6.777004390456391469e-01 7.058683662933602498e-01 1.029369699688153172e+00 -3.149443293466521743e-01 9.622039710322066730e-02 3.132591610856194086e-01 -1.006300132222225779e-01 1.062964661823553592e-01 -8.524783495094967467e-01 -1.624708713161243379e-01 1.140462439807497508e-01 1.080905429546326735e+00 -8.933162489311394783e-01 -1.233662808014385770e-01 -3.662777356274297680e-01 9.490887909792378174e-01 -7.060818214985975505e-01 -9.832417705781844042e-01 8.364939947805807297e-01 2.864102412630082917e-01 -1.009996698341771304e-01 2.450633015622964359e-02 7.689968796649881977e-01 -5.526401748804544711e-01 8.880678406405451142e-02 6.828177734109248664e-01 4.155362438217506948e-01 3.422920710621359108e-02 1.506208324791488418e-01 -2.356862087739126088e-01 2.516233990459023073e-01 7.202807814062107683e-01 1.024761712884256770e+00 7.651341107556919319e-01 -2.961593678045352229e-01 -7.867813242719756683e-01 -6.040326251023868664e-01 5.038566157869315276e-01 9.442415155216958844e-01 -7.467178311527146173e-01 5.299492132648981890e-01 -9.453446525755133667e-01 5.418856307364928737e-01 8.175356770691082353e-01 -1.701356238933204867e-01 8.350146076695197372e-01 -9.886789571270422350e-01 2.032754408571535998e-01 -9.929391034292901486e-01 6.319763132373427128e-01 -7.710786987772826340e-01 -6.791607019438174186e-02 -4.023424137179559823e-01 1.305115589431732337e-01 9.217304947514386448e-01 -9.327161236545876699e-01 1.071270056488455268e-02 9.174224365178864637e-01 -4.393187862169429247e-01 9.008280705897619978e-01 7.703234658091614832e-03 2.428003297724422582e-01 9.289996918513814261e-01 -6.257060028856390455e-01 1.616055861121697412e-01 6.690482064186152877e-01 -3.631373937912731331e-01 -7.991359415484569073e-01 1.245802872745259415e-02 -4.487540985697074380e-01 6.917618336137176804e-01 -9.563349074224687663e-02 -3.400156180964342134e-01 -9.739994707821733044e-01 6.628274708056436371e-01 -1.837913342903585712e-01 2.354420409944717463e-01 7.680698728190888946e-01 9.704046301899426075e-01 -8.750499013853678676e-01 -6.888393115458454341e-01 1.168020409684240868e-01 -7.002884255624043375e-01 -9.216504702597133614e-01 1.002068425611781638e-01 9.923723925702577706e-03 2.767796505482443825e-01 -4.855733113444234417e-01 3.061360156537511479e-01 -4.200219182451793709e-01 5.995885906728519732e-01 9.326216880536377651e-01 7.387668002632599151e-01 -4.737341054438481414e-01 -6.936563142862389730e-01 3.488277737818944457e-01 9.110469602582060844e-01 -4.820107616407427464e-01 7.667639556345653418e-01 -5.585522481846421083e-01 -8.315702347674309713e-01 9.572466429992141368e-01 9.444444910351663669e-01 -9.061016974470543772e-01 -9.848467727513630088e-01 -6.828384150993330737e-01 -7.451732331629173922e-01 4.272472485494757111e-01 -7.369997980969930085e-01 6.132851740176625821e-01 8.179301751162677547e-01 -4.143733640511459981e-01 8.078075628139911313e-01 -2.756471830160902026e-01 -8.254897330039387415e-02 -7.954774308574418251e-01 5.137366221005764677e-01 8.536712435234861118e-01 -2.749338726412559608e-01 8.567342908281859737e-01 5.724422425961999128e-01 1.517247140176523068e-01 -5.910870166756049954e-02 -3.242020844165272586e-01 6.265793340133049005e-01 6.254458331424963546e-01 -1.892555958539329092e-02 6.170135888809469282e-01 -6.397678915902851315e-01 -4.279118988759846864e-01 2.094675921304784971e-01 9.730150580822209960e-01 -8.531257881889391381e-01 4.267256917671873873e-01 9.444731576281268914e-01 1.170438646024886953e-01 -5.184199192926972621e-01 -9.885939377545874263e-02 -9.847477214240207832e-01 -4.776212423077241809e-01 5.729475887372900145e-01 1.434286971978285530e-01 6.065956426117653510e-01 7.069282789395978650e-01 5.305867712491535437e-01 4.314430235058162033e-01 -7.471011904971672779e-01 1.224280869569681213e-01 -8.250664382785422024e-01 9.850974470234850067e-01 -4.785938862029997520e-01 8.455559034464413259e-02 -8.473259081671139503e-01 8.829259719924100747e-01 -8.073580456979070341e-01 1.116621429827142631e-01 3.431519064219619164e-01
-6.642063851326631685e-01 3.559129668022795734e-01 1.640254472083619852e-01 4.908526257108054569e-01 -9.431520138206643811e-01 -3.004318697209209521e-01 -8.468271515022212093e-01 -9.446760384264079047e-01 6.351654294619124563e-02 8.154505307793142865e-01 9.498993442729075642e-01 5.430826936860657650e-01 3.287819939750690756e-01 -4.442612522163033040e-01 -2.136762891678723464e-01 -7.944057401070718782e-01 2.470066398646153516e-02 -4.885060997016723583e-01 2.134559259297421629e-01 -1.303200359387510776e-01 -4.866050745623624607e-01 -6.261896188432514165e-01 -8.563401457547883400e-01 6.145119843778652502e-01 -6.324133630032875431e-01 2.349401881211601317e-01 -5.201707805645561233e-01 4.049592001487476445e-01 -7.725051455145868218e-01 -2.524528726078902885e-01 -3.565214030643135690e-01 -4.546776571265143119e-01 -3.519687066303423539e-01 -7.173557014832128154e-01 -2.101144199087296438e-01 -7.174293909858283635e-01 9.409817529583218709e-01 -7.571491032777135644e-01 8.195722767379877427e-02 4.568088113806747369e-02 5.470722132119912873e-01 -4.269719999990282955e-01 -4.581108303905565560e-01 5.514010044156233414e-01 -3.155714397391699011e-01 -6.210649562156836945e-01 -3.660638862192368559e-01 8.751630248502798581e-01 5.143739533219522375e-01 1.489361685297050375e-01 -5.976943040812666696e-01 -3.632181766232684406e-01 -9.544386036994212397e-01 -1.398492942554210305e-01 6.252475970322584065e-01 4.361217327298312352e-01 6.360852775919030311e-01 8.360423349453438568e-02 -7.746084308742477997e-01 6.179418477218343586e-01 5.162100723570366423e-01 2.118760226585039985e-01 5.397071942049049831e-01 -3.249337502622753338e-01 -9.370534013921472116e-01 -8.751730172679965669e-01 9.928224995583890822e-01 -4.582252708996112922e-01 5.979117973479021186e-01 6.748600095377903507e-01 5.824840548683153374e-01 3.837379170034304066e-01 4.536820512987706500e-01 -1.875447422830542055e-01 8.206219900991584826e-01 -4.881430157563820260e-01 -3.994740817976984437e-01 -1.675182314009202589e-01 -7.857601732039785070e-01 -9.450742622409172844e-01 -1.045536309225479216e-01 -3.355305373595636742e-01 6.864675487625426786e-01 -4.080385833103983284e-01 6.110641966114949142e-02 -9.859147476467451376e-01 3.581501238667378906e-01 6.791045441099606839e-01 -3.783182475892527541e-01 -3.424168281987476359e-01 -3.803614633961337893e-02 -1.474792159667104585e-01 8.261505315251446713e-02 4.219528191512221249e-01 5.547039736401052634e-01 -7.189189638500146362e-01 1.221571965421996836e-01 -2.221391280483411002e-01 -6.412320264050960228e-01 4.153838271461086085e-01 -8.013632546170709192e-01 1.087789410118802147e+00 1.002454263561316283e+00 -5.707018406654223650e-03 -1.818064038638998736e-01 -6.121525833786026771e-01 -2.823400282615001755e-01 2.321493719681143597e-01 8.139338986143027643e-01 4.714306527340534902e-01 6.643499353624832127e-01 -3.538206735634581435e-01 4.412997873246840008e-01 8.990580945134708790e-02 -8.479816948066626336e-01 -9.560815320557803920e-01 8.984251600391383041e-01 9.367429003078937555e-01 8.527914543987247242e-01 -8.966567800294614754e-01 1.035770470974460844e+00 -5.271331270164671956e-01 2.897952975584732749e-01 7.498194794386039419e-01 -1.034186796386323381e+00 -1.008889760461917806e+00 8.406018720519834453e-01 4.314296121055642419e-01 -4.494159607006772972e-01 -1.018005108887311883e+00 7.693964020469326592e-02 1.686374868304680100e-02 5.390141184159052967e-01 -3.228324316916845182e-01 6.530501804948648514e-01 -4.601442267848565582e-01 -2.780377141535432806e-01 6.005827862143472418e-01 -3.340251037545802215e-01 -2.067787980346116883e-02 -8.021740240740939942e-01 8.944201075363746867e-01 -1.771958831369929155e-01 5.280977072900867597e-01 -1.944166836535592691e-01 8.175371802874287219e-01 1.123387425625178987e-01 -7.744639123523909541e-02 -1.365142387537002788e-01 9.698645430344199347e-02 5.749940434355085145e-02 2.444456099721795950e-01 -9.209750319066101198e-01 1.043485879872533802e-03 -8.688262481543239657e-01 -5.211986074209598030e-01 -5.445564676845774388e-01 -5.900708400769076600e-02 -1.175738106357332891e+00 4.898118663167617126e-01 -8.278408667571321988e-01 8.297449530949165819e-01 -3.433419536798535399e-01 -8.064818212620740098e-03 -4.558389303988723551e-01 3.867172310937310176e-01 -1.221950381561867499e-01 9.577354460399405411e-01 -4.626543493302719412e-01 -8.820335884350852806e-01 1.951977472890876197e-01 -2.548478903438475274e-01 -8.529317079294399528e-01 5.158278655608893315e-01 -6.828887442765010363e-01 5.765807298136049752e-01 7.201858976868696915e-02 1.980091331326934434e-01 1.589527177293918181e-01 -7.115604746323924701e-01 -4.391357157646889608e-01 -8.934189106438389372e-01 -1.431873951467434791e+00 -2.414952129739168230e-01 -5.797675035567481094e-01 4.222397135169220772e-01 -3.834402359835618612e-01 -8.679923011871203409e-01 -4.105532787704000985e-01 1.737119928471703711e-01 -4.240930650762850807e-01 -6.924038925656533783e-02 -9.617862793405629329e-01 -2.393406434136829963e-01 -2.481644826954455818e-01 -3.001237661185139280e-02 2.024185701368649837e-01 -2.494370742236092509e-01 -7.468386585849624559e-01 6.659996431155161822e-01 6.817065332116553078e-01 -2.811836032796390938e-01 1.163492608270213280e+00 6.677574804756368776e-01 5.587355456330755921e-01 -4.715502932815447412e-01 3.216116929436149130e-01 1.625686259508148934e-01 2.240323040034387925e-01 -2.235213099161447448e-01 -1.015830228705205007e+00 1.244601047513862052e-01 -2.809446937351228191e-01 -1.927093545226649940e-01 6.292698796873948952e-01 -5.760750685080574529e-01 -2.130217926742537238e-01 -5.389823187050306608e-01 -9.060673942493708832e-01 -1.161459335769322365e+00 -1.062457403621374329e-02 -1.026442265582279356e+00 2.494992461885949253e-01 3.924005739016528937e-01 9.976928845842607529e-01 2.555207541094602353e-01 -5.416490984929419467e-02 -3.827595422860065322e-02 -2.200771752877634102e-01 -3.572011811848512797e-01 7.296764263852175691e-01 5.530009569689926519e-01 1.089777635878321549e+00 4.861001681827317733e-01 7.477131097480591571e-01 -1.291379471683179181e-01 3.641266650060400178e-01 9.246708220007986423e-01 9.118082459197113243e-01 1.504080862753051362e-01 8.198919243358792075e-01 -9.635319456449158160e-02 2.192791885928470630e-01 -2.478056917009568150e-01 -3.707248189403159477e-01 1.155471309510331668e-01 4.853738146552750987e-02 -9.870048703467181328e-01 -1.046430166005617668e+00 8.570137764372349753e-01 -9.874008925984097962e-01 -7.812544292076499808e-01 8.389447675724260867e-01 -5.824591989709527740e-01 -5.311848069809007589e-01 -5.487364357146335553e-02 -4.991060523292858431e-01 6.340587455619670632e-01 -3.005837238723155962e-04 3.080057267889816930e-01 1.224028896695605440e+00 6.511926763072735103e-01 1.206439584999736692e+00 1.043967079212023696e+00 -1.982696003269839302e-01 1.399359873469375737e+00 -6.188496343548983286e-02 1.187924086747521174e-01 -2.097806186986854622e-03 -4.410086870365496070e-01 -4.958373837967280928e-01 1.240025404773808376e-01 -8.097984840866245815e-01 3.236563534751752402e-01 1.004373522179486500e+00 -7.449483458156173077e-01 -1.022908518651347132e+00 -5.260029055657374775e-01 5.140073490758151342e-01 7.661924597103901835e-01 -2.404321815650625194e-01 6.764085696119265245e-01 4.847426619663573466e-01 9.336678967867017009e-01 1.137892000262034742e+00 7.025625493501794772e-01 4.835387217015402889e-02 1.372636325897435672e+00 2.057618349438143091e-01 -1.671132068857454078e-01 -7.033043553269184567e-02 8.304789351529433539e-01 1.849746466555678204e+00 1.061188261080544759e+00 1.654378651252166987e+00 2.147261523721268606e-01 -8.595295934679310079e-01 -7.308443138735029043e-01 -5.112442190853853097e-01 2.857169724715932085e-02 3.001474227712921938e-01 2.102910402274477952e-01 1.082918981403918179e+00 6.937396587347407495e-01 -6.679350203618988902e-01 8.559795051584652148e-01 -9.384812986879172980e-01 -5.565980138203624472e-01 5.939355741522714949e-01 -1.755308588785394475e-01 -8.469042473726186293e-02 -5.312673019570235411e-01 -1.322945936383498611e-01 -1.662086109210963725e-01 -3.321840451936698413e-01 -4.425719708774838446e-01 3.940974734609418301e-02 9.224386244069164853e-01 8.408614871962767356e-01 1.261991841005690285e+00 -2.056083237288980348e-01 -5.940054851968903371e-01 -8.927503149987255082e-02 -5.128835933822099014e-01 -4.308170872704892851e-01 -4.499713811349238535e-01 -5.180023977549757033e-03 -1.039596032510064161e+00 -4.335984010907718567e-01 -5.636503166407942356e-01 -1.430258294865310309e-01 -2.223031285365671683e-02 -4.987015692275617029e-01 -7.776634993551948538e-01 -1.376241930510827827e-01 8.006884953313269104e-01 3.076130816497222864e-01 -2.773795014803659420e-01 -6.841690670446803901e-01 -7.416041616254698265e-01 4.433301228650154968e-01 -3.856611166647210265e-01 8.023741235693001572e-01 -2.239428946447103719e-01 3.138996030619274902e-01 -4.336778225466634828e-01 8.696715503444068379e-03 -2.297337370908922871e-01 -1.394153632979822977e+00 -9.883793851631239580e-01 -5.467951005558870925e-01 -7.598514526091401100e-01 -1.197842792350571894e-01 7.539906830667839621e-01 -5.032436562637074839e-01 -1.059458180779227821e+00 2.071542467230285123e-01 -2.964495530064076290e-01 3.458492605447811563e-01 -5.601734806113719545e-01 9.160158073655685906e-02 1.262496638185918799e-02 1.785507625154942879e-01 9.636207628549554594e-01 -9.555948476270449410e-01 9.482100315498509513e-01 9.885672325189611698e-01 -2.437862344540875359e-01 -6.797668378179633208e-01 -2.217088264785044838e-01 -1.009863541429897538e+00 2.341751691856291950e-01 -1.141223341484131737e+00 -1.127092065272342625e+00 -1.112909329294268668e+00 -1.078976875525587298e+00 -6.163995153138304151e-01 -4.609914040783117395e-01 -1.551458395087591535e+00 4.901042309558431009e-01 -2.444060288602084852e-01 -4.687401223873193801e-01 9.969633583477420791e-01 -4.614427352535129256e-01 -8.385131226706058483e-01 5.412814653359994399e-02 2.026318628608399230e-02 1.012308911818436741e+00 1.777275302944832935e-01 -5.561524158480527502e-01 -7.933042222928684550e-01 4.652659461098342941e-01 9.427518949799557069e-01 5.284205201556406717e-01 1.135826533484964179e-01 2.917188752067530894e-02 -8.198073091493635056e-01 -8.132784146845515316e-01 -1.275825159009886578e+00 -2.973972981338199872e-01 -4.752164422919119557e-01 -4.253665268483556861e-01 -3.155462364863730329e-01 -6.892412489751829907e-02 -1.310119137101230846e+00 -9.046724580115743652e-01 2.517691827975609975e-01 -3.594203025093962167e-01 -4.868211990123847976e-01 2.750519858743770141e-01 1.484169164633491744e-01 6.500696595753521212e-01 5.004812351361028755e-01 1.063627773316937891e-01 2.179488082820171813e-01 1.124581801631828526e+00 9.603456211061612846e-01 3.871706473718495300e-01 -8.567366083122021081e-01 -9.401487340750069865e-01 5.879618941756926676e-01 -7.278752311192839830e-01 -7.067734882536742536e-01 -5.619923660863136439e-01 -2.652492086857824449e-01 -2.832753660702491127e-01 1.893627321657639917e-01 3.092768168469364753e-01 -1.015896683006150214e+00 -7.524739983071600247e-02 2.473540790754982788e-02 -4.012815152728209100e-01 -4.846306437299384151e-01 -3.204715206552324891e-01 -6.906552310630789115e-01 4.718280262989427709e-01 -5.557102646461743040e-02 -4.354849790167977241e-01 -1.123058866908734077e-01 5.210420145910429346e-01 4.544334779735033636e-01 1.693914407698534907e-01 8.540951610251029669e-01 -5.774388287181928536e-01 -7.366379558170077502e-01 -7.750359453022385992e-02 3.183233092290645438e-01 1.684969880955228538e-01 3.380320983074656671e-01 5.237044188121788707e-02 7.377778230853467845e-01 -1.508399217871103093e-01 -1.990634614397563187e-02 -9.527909637953168032e-01 -8.879608382889289109e-01 2.302489928130140862e-01 2.020143506723147964e-01 -5.770296821681598631e-01 4.355814207993138204e-02 -4.738040460413994737e-01 -9.563948001427236001e-01 2.657969578543510902e-01 -8.465418209987344289e-01 6.676360248333962355e-01 -7.530653193829947023e-01 -4.837220400947634391e-01 7.551809516228077390e-01 8.604242837625142304e-01 -1.578478186765980007e-01 9.474259837177537724e-01 3.818879030968521660e-01 5.953531593748351280e-01 -4.117350523867942536e-01 5.087161834851033904e-01 6.532154782504422386e-01 -6.970161426666190430e-01 3.044091752481381530e-01 2.297057088762324562e-01 2.156312840566146916e-01 9.748567464519325432e-02 -8.589439952433707282e-01 -1.028113502667300089e-01 -7.812683488352983874e-01 2.732760899232690721e-01 -2.728047353825028831e-01 -3.902726582650101195e-01 9.154784631308664211e-02 -8.395239795148204953e-01 4.911815671892389434e-01 1.408416310742023336e-01 -2.848915860100353914e-01 -4.431155104267835432e-01 4.625822294725773776e-01 8.478697158770460707e-01 5.250865312829754439e-01 -6.978235248125480572e-01 5.058804301501111933e-01 5.503897247544224935e-01 3.718572149534267735e-01 -2.396546084867468285e-01 5.180327496412545640e-01 -9.503742383480344724e-01 -1.967464297112760108e-02 7.891129182597335090e-01 -3.040030664316296094e-01 -7.951292748966861668e-01 6.187934937010637348e-01 1.424722158287570206e-01 3.016642430024049082e-01 2.595166984211144112e-01 -5.785875301240878121e-01 5.227725860737614250e-01 1.461554727076478377e-01 -1.175676251701794017e+00 -1.226338720734381660e+00 1.444220586516933580e-01 -1.989678106177429906e-01 -1.685143279024894636e-01 -2.842444497475947809e-02 4.533623789842911589e-01 -1.056684055628463459e-01 -8.588234604306736741e-02 5.359887944374196467e-01 9.096996142212644409e-01 -6.919402713750620881e-01 -4.588392492535434131e-01 -7.145629610643443597e-01 -3.969424213423729531e-01 -1.411980311609343022e-02 4.682708092107499276e-01 -2.361089892130084078e-01 9.162318556561587224e-01 -9.511174145986023287e-01 2.544584655183820820e-01 -1.122973970978057845e-01 7.928616831647092647e-03 3.597246340861996461e-01 -3.843740785012493277e-01 -5.705948781273184611e-01 -3.222547267747412625e-01 3.719235260453521152e-01 -4.863955605423688766e-01 -5.239911392334294371e-01 5.127838777241510160e-01 6.871247506224364976e-01 -2.827085367168083452e-01 5.892191793863663651e-01 6.102927958330520708e-01 2.299876206654477909e-02 1.185918114932291156e-01 -8.416568523296050208e-02 -1.164584153004252887e+00 -5.291663826299809747e-02 -1.010921975248211480e+00 -1.056691005953890761e+00 7.406080158001581148e-01 8.499779229958901450e-01 -7.413445520904862196e-01 -8.990345153235929088e-01 -3.621650339378536532e-01 3.435510400491839089e-01 -7.631552703423313266e-01 -3.122293300039867825e-01 -1.812587517857902897e-01 -7.805406743890599408e-01 -9.885653180645787019e-01 -9.016313217761364740e-01 -3.913925987152649388e-01 2.343794746465142353e-01 -5.519618006053019638e-02 1.459310666997040706e-02 2.345622566907608619e-01 6.980920377195214410e-01 4.592423871079042569e-02 1.714263379805525123e-01 4.384695594258853912e-01 -4.123845477127608405e-01 -3.910074805441334234e-01 -5.519333353798673292e-01 -2.652009330207216742e-01 -2.180345330316160180e-01 4.030917961725462573e-01 7.133148048973174671e-01 7.139064427562220594e-01 -6.430485336390165951e-01 7.988933290429010015e-01 -9.112896012257724054e-01 -9.257290757600707964e-01 -8.644780890988127409e-01 5.921069624360091321e-01 7.984615395518739334e-01 -6.555231453053501633e-01 6.559964266010539502e-01 -5.041990838281005249e-01 -3.268349777590248695e-01 -2.150642745498389519e-01 -3.064597256503443501e-01 2.870918601040313711e-01 -2.536479349669710226e-01 -1.002469336858964777e+00 3.521836407478293879e-02 2.810023162638151106e-01 1.139291720118351448e+00 -1.002546649791296485e+00 -3.017323779999294131e-01 -1.323066350983774342e+00 -7.808119372899144928e-01 2.621335665330322140e-01 -1.514927326964607968e+00 -9.835004400556637272e-01 -4.222362317291365463e-01 5.789470355690664594e-01 -4.329705875066351961e-01 -6.573559606122002519e-01 -5.621555956847538171e-01 -6.659783257279816571e-01 4.197609624569411668e-01 9.658491193529487040e-01 -2.634468018001719369e-01 -3.730405439756691588e-01 -3.600783783763910062e-01 7.766271366045764957e-01 -9.613428616556596307e-01 3.795512920913487465e-01 -7.310191690997825953e-01 2.066636115727617587e-02 9.136529680092264627e-03 -6.165094219690920863e-01 -2.051934578573879620e-01 5.203251099083476827e-01 -6.277185727206497923e-01 -5.932851332095651076e-01 4.330686067779151299e-02 1.733072661838760964e-01 -9.101352745575649328e-01 4.558488390537222545e-01 -1.106924129684501601e+00 -6.011071196075737921e-01 -7.704834920218256444e-01 8.188012215761304446e-01 -7.489459023822626627e-01 3.850696404923421023e-01 -2.294755427239294487e-01 8.121185044920469220e-01 -3.607554702011817049e-01 -8.655251353778914414e-02 2.156484404299212065e-01 -5.318712347404238594e-01 1.963513326500530287e-01 -1.809524900935161607e-01 2.172254822551468734e-01 -3.356520779735959747e-01 3.176023053994188050e-01 4.911274154672169434e-01 1.170889723589138842e-01 7.567259045500658587e-02 4.228175677024724743e-01 -8.513214405747400459e-02 -8.804831569133299285e-02 1.571336501462372581e-01 -4.996161923316181919e-01 2.441514427402390330e-01 -1.574305889424086058e-01 -5.758826251956614684e-01 3.558545098504125592e-01 1.524003204390070310e-01 -2.527664080150584525e-01 -5.300625556414195749e-04 -7.670133060960517835e-01 -5.816525146730396750e-02 6.196657070372708631e-01 -1.407940512998364646e-01 9.675837805428710858e-01 9.936602697229952597e-01 -2.209454506635052384e-01 3.721588245449792415e-02 9.431357632971305582e-01 5.368711726461542488e-01 -5.645218173631947334e-01 3.302063029601152722e-01 4.102524208028335839e-01 -4.149381741214087649e-01 -3.823341199854046746e-01 6.524463764021153356e-01 4.887621412758983985e-01 -6.019453510983332478e-01 -4.033156076951131541e-01 -1.035544507017510385e-01 -3.784431633909508541e-01 8.040932036113372927e-01 -6.159333176229691009e-01 -5.677940169081777677e-01 -8.282771862121827144e-01 2.538931338492348977e-01 -6.028676925755727112e-01 -5.397743356274794513e-01 6.176203122615876451e-01 6.448682372897904802e-01 -5.547943270501753954e-01 8.255124775096045475e-02 -7.479304139972573484e-01 -6.793805270221899839e-01 -2.227285862870047040e-01 8.943226554834110553e-01 9.795108085944924659e-01 -3.257593671240715527e-01 -9.063816931495519702e-01 -2.927393142122433067e-01 1.221022208680664134e+00 8.812708027376053854e-01 1.780793891873177215e-01 4.727054294431125014e-01 3.750680916591869751e-01 1.226126275588645259e-01 -2.035963726090016246e-02 2.630624990360058701e-01 7.760452750421873436e-01 -5.996346429066274908e-01 6.115122697717866318e-01 1.042419997694558731e+00 -8.963266772700242413e-01 -5.978014158891146179e-01 6.094672787464577857e-01 -2.041965859271522854e-01 3.981813417636392294e-01 6.372158562794859593e-01 -3.513557701100254449e-01 -4.000975461586786519e-01 6.204445834983658425e-01 -9.186886339554356518e-02 3.057713675819975219e-01 6.872126623161148862e-01 -2.397092372558436713e-01 2.640185726239838160e-01 3.045860762870887251e-01 -7.041781775794291320e-01 6.389866283503264910e-01 7.388906841103326517e-01 3.492241646817378364e-01 -3.546469884417196572e-01 5.836855471228287184e-01 6.618157481893188754e-01 -8.497318589005324885e-01 6.559771379606390562e-01 9.065321115189334256e-01 -5.420029544948063993e-01 -7.801328799268084646e-01 -1.737949680410456332e-01 4.176194162517695152e-01 9.922187500343902788e-02 -7.607301428070822880e-01 -8.048746822945035406e-01 -3.836845714675831548e-02 -2.324986969853393148e-01 8.175057771719393962e-01 5.223075274599038309e-01 4.080358704289250849e-01 2.148366549474751697e-01 8.995889348860257595e-01 -5.987574726456141860e-01 6.180843455625814054e-01 -8.701019192677998948e-01 1.668437017917347442e-01 -6.369676851779436655e-01 8.782227919277435513e-01 -6.874325222434569671e-01 -4.943995166698243737e-02 2.344766989437239435e-01 -1.395373382598488754e-02 3.392101004604788361e-01 8.413907222299216171e-01 -6.695436694861084392e-01 6.917176028589103742e-01 -4.302710994282560319e-02 -5.193154544132578820e-01 -6.345727109307349734e-01 -3.273907895767960152e-01 3.312667421437557325e-01 1.258188840020604826e-01 -8.789729326790890473e-01 9.362738283821858687e-01 7.225923087274197520e-01 -3.152121984488374107e-01 6.231438979489505314e-01
-3.995910158966964332e-01 3.967614514331838649e-01 -4.058381566233935089e-01 1.303596742601469405e-01 -7.424500517920906706e-01 9.209617896799870973e-01 5.432329291061577248e-01 6.542909768747611210e-01 4.572330372349797667e-01 3.945914144293096726e-01 -5.145552193219129489e-01 -6.034646469956259640e-01 7.806552789304846973e-01 -8.253060027985025249e-01 3.889061931308214204e-01 4.102496298477945058e-01 -9.663900465074928281e-01 -7.339428396981986236e-01 9.748283450765415914e-02 5.455676822104917889e-01 2.903292187901964638e-01 -3.606892298130834895e-01 9.475973773991039906e-01 4.457323291692261158e-02 -6.293820399371523600e-01 8.217778038025835841e-02 4.799236168253238066e-01 -7.083723216904960207e-01 4.182013426030573022e-02 -8.818223873093922194e-02 9.417615959277647608e-01 3.510325437978736307e-01 5.069285250462773895e-01 -9.555515063770164685e-01 -2.172517900813543956e-01 -6.907351463314560513e-01 -9.352247636754109639e-01 -9.587108587325128273e-01 -5.065507153488773007e-01 9.321595420212972494e-01 9.866563489427607747e-01 -6.612876257008495351e-01 4.848670058927480597e-01 2.701444245882644868e-01 1.753925328688963892e-01 -4.594649337861517191e-01 5.192402962865855232e-01 5.482915932544324411e-01 1.000415305117270837e+00 -6.916108527866322575e-01 8.130554589116160136e-01 4.129932177012266004e-01 -2.987901742104894787e-01 -4.079443765354100471e-01 -5.847770287198910122e-01 -1.775041695889632010e-01 9.078501724346463853e-01 9.902334222510960071e-01 3.186613271873668940e-01 2.110656440111761400e-01 9.720390425112060973e-01 -5.499867439919009504e-01 -7.783507284053594599e-01 -4.559939693166326080e-01 8.237000326363466129e-01 -1.008072306765632087e+00 -7.433120435162970940e-01 6.586422633101971513e-01 7.576486713874875933e-01 1.852873028493563778e-01 7.716603857553752110e-01 6.478966921392240730e-01 7.898234376127180600e-02 7.661738587868055506e-01 -7.059352571842595347e-01 3.419317450641307099e-01 -2.593841058658367116e-01 -1.781341636837854570e-01 -4.526964564941662883e-01 -2.244155387504651045e-01 4.694938714544318326e-01 2.160483820063934246e-01 1.499463123349362714e-01 2.498827866083512816e-01 4.477799483722721963e-01 1.806792366531604355e-01 9.322317880078115904e-01 5.930433585698658971e-01 -4.204956065397273401e-01 -1.841915584852228394e-01 1.502684089754216246e-01 -6.712873491125325165e-01 -3.575184191910806275e-01 6.903122238282936030e-01 6.494435006740939542e-01 -1.557524141332966017e-01 4.273730730450219228e-01 -9.116475651700259863e-01 5.880190825248126085e-01 4.399378861950517527e-01 -5.326519331276734909e-02 8.626443843545412715e-01 -4.413428084625806158e-01 1.650196841973978201e-01 2.783431233952927686e-01 -4.872430425722567571e-01 -2.596356445639318444e-01 -5.283733973170855469e-01 7.711052656615706713e-01 2.906332225148884341e-01 6.881364393378561761e-01 6.174348566368408342e-01 -8.349073312736008390e-01 8.352841842553057061e-01 -9.749319585512582209e-02 3.739268609309733676e-02 -2.152802873879721690e-01 4.041154688831781472e-02 2.285895717157938323e-01 2.386148933187986487e-01 -1.150104174181989958e+00 2.064765737565617820e-01 4.997289203973093175e-01 -1.166247765189294627e+00 -4.251440645743820301e-02 4.220538781601528844e-01 -6.017411681222843978e-01 1.008515459898946254e-01 -5.417433313367422398e-01 5.248525247656070647e-01 -2.651331618008057611e-01 8.653773749653095315e-01 -4.981115917286855765e-01 -4.599837121156122310e-01 1.082409983890549210e+00 1.405335063062065903e-01 5.202615516033208820e-01 -8.814594382740391365e-02 -2.506069290760080115e-01 5.119553497933085895e-01 -4.713537186950149671e-01 -5.014916811866809709e-02 -4.504590814289025080e-01 9.145681491208216274e-01 -5.774868131269926819e-01 -9.837322111487663001e-01 6.982541839118729943e-01 -6.287133613713841163e-01 -1.414892241480558921e+00 4.295800389708202549e-01 -8.214650960992264661e-02 -5.891484100165953475e-01 7.102985272729394062e-01 -9.266202691782561285e-01 -1.523148080187139153e-01 -4.714139076969454667e-01 5.685844904926414811e-01 -6.478449828209381645e-01 1.775118256723758059e-01 3.562373935595138930e-01 5.135133381089476146e-01 -1.055278608483095626e+00 8.730124716113785155e-01 1.117977156666202232e+00 -8.285010044687142194e-01 2.334337973859917370e-01 3.008410031796891482e-01 -2.427755512983783004e-01 -8.075764440108492703e-01 1.542176786029340330e-01 8.441320444113532551e-01 -3.458777795064846283e-02 -5.287758071039508900e-01 8.404940692772809863e-01 -5.838319499979146565e-01 9.574039616735564862e-02 -2.702585254732611242e-01 -1.117171565683042544e+00 3.491763466493485457e-01 3.837627399092233271e-02 2.401586622436574781e-01 7.929971476905934846e-01 9.526393484948073587e-01 1.739893852659847862e-01 -1.675867979310077804e-01 3.203066047771315761e-01 7.451713153101282572e-01 4.674791080992438674e-01 -1.097034304469718613e+00 5.018488524598725409e-01 -2.277213044717171786e-01 -4.928078035447672200e-01 2.834619516691740393e-01 7.150057175135513532e-01 7.833303940103178986e-01 -9.224085392644511272e-02 -1.495052479708723348e-01 -8.713647900198628893e-01 7.688721375347636888e-01 -5.938527206338831688e-01 -6.634987067731537014e-01 -8.387950962817669609e-01 -7.546783757285450145e-01 -4.542329083403169321e-01 -6.566925544009748483e-01 -2.206244033090792311e-01 -3.922600532735436019e-02 -2.692017899214596555e-01 -6.481438156502566938e-01 1.182664980607191774e-01 8.243124348416559499e-01 1.407603341439529698e+00 -4.652084669431696407e-01 1.067712270148277076e+00 -4.590801475926119535e-01 -6.344693576267846913e-01 -8.999149445610163944e-01 -9.701403859660463480e-01 1.025407713876985705e-01 -2.989463575374216031e-01 1.684182920109284221e-01 -3.020475323087704056e-01 -8.566127908831391302e-01 8.082538136506618454e-01 2.705124645806605832e-01 9.195578192472135814e-01 8.566319888186598730e-01 3.246508439706730087e-01 2.305056261105822568e-01 -1.122170051571492744e+00 -5.302615211594314815e-01 4.351269919665849972e-01 -1.116869585052036484e+00 2.313009664019877523e-02 -8.520721475255345068e-01 1.555681205561776637e-01 -4.611063388339463609e-01 -6.473795919039952995e-01 2.049728384972863138e-01 7.230997772292417913e-01 -4.949314781980942990e-01 1.651609982050095682e-01 -8.208249260614034482e-01 4.364633950868511136e-01 6.819623297435880582e-01 -3.545071116460734584e-01 -1.134027648519073256e-01 -5.865531118398846777e-01 1.009439461846010300e+00 6.142746603131576943e-01 5.516627840550358819e-01 2.822846675767221591e-01 6.747094246707544540e-01 -8.528900426184431172e-02 -6.279129352658834318e-01 3.930336632811168851e-01 -4.913676012801764803e-01 3.130064187572109136e-01 -7.468849419824102887e-01 -8.533139318123488248e-01 5.272408143958327020e-01 -8.138522773507739227e-01 -7.597864847605820260e-02 2.613288974732120296e-01 3.552035036831435733e-01 -5.901363140628115844e-02 4.956050287123092701e-01 -9.286994782829889328e-01 -1.427232385667117909e-01 -2.373073112498464213e-02 -9.738003455921008245e-01 -5.495489638747336203e-01 -1.078497844001687911e+00 -2.652683391455495920e-01 2.019260586965956339e-01 -9.297581452011356440e-01 9.007662846874936458e-01 -1.458888906389599338e-01 -3.227218354184199223e-01 5.460144744818042906e-01 6.996754297449682136e-01 -4.465899472277235632e-02 2.555426483732674559e-01 -1.745323830051078925e-02 5.510750743933604534e-01 -1.131798329911093692e-01 -6.745213798711079400e-01 -3.204634834111873554e-01 -1.036115221324953373e+00 4.364492731841935202e-01 5.220941117257112962e-01 -1.007086345895844698e-02 6.708360110286444300e-01 9.339865495259859207e-01 -2.374656387518971346e-01 3.371500991619277854e-01 -1.213857987781854053e+00 -5.242496601088419972e-01 -1.367369136249000583e+00 7.107728749078413566e-01 4.809233007374245639e-01 6.084102326178463249e-01 -1.206340488038950109e+00 4.700109480643176463e-01 -1.105356023172904711e+00 4.201078584652331860e-01 -5.110705309038138244e-01 1.093667020495427966e-01 5.254104953286083957e-01 1.322298220249484568e-01 1.119880369643459356e-01 8.064906340553804620e-01 6.703991315952652075e-01 5.633701735092458973e-01 8.602492580535541222e-01 4.181552716410775750e-01 1.804981622159309573e-01 7.741648157807298758e-02 -5.252361489675186901e-01 -7.716431479185588416e-02 4.780793351651674850e-01 2.235296383248834562e-02 8.925856470925210839e-01 -9.308624932343059766e-02 6.273446630660975964e-01 -3.872586943374902169e-01 6.085471174973970943e-01 -2.804472046486994330e-01 -1.029560067619677666e+00 -1.380359269538714129e+00 5.192040620088625991e-01 -2.672080575384472856e-01 5.699660499594393359e-01 -1.521354423928518995e-01 -3.076686735545967610e-01 -9.349839796298961003e-01 2.378983955992520771e-01 -2.809860343670119720e-01 -9.258583852021522453e-01 -5.735264471961132315e-01 3.436576082693185707e-01 -3.445206130085723406e-01 -3.924869332613388218e-01 2.062913489071766249e-01 8.416985217962740240e-01 -7.508731292514562172e-01 7.212834526325574425e-01 -2.421694176960813294e-01 8.631763851273838162e-01 1.458298384511182988e+00 8.406993753770715117e-01 -3.369086479673734646e-01 1.150131173887994462e+00 9.625750143257760794e-01 -1.059498545959267485e-01 2.458748415896219175e-01 5.128976766427257861e-01 -3.337344597728191253e-01 5.337669771811855979e-01 -5.149983290641152456e-02 -3.757053530022551602e-01 6.456974651969148438e-01 -2.279215136003751030e-01 5.746025480954516373e-01 -3.891641223694044527e-01 2.788257309353485147e-01 6.041405001953713272e-02 8.852039776578614072e-01 1.900858492747674322e-01 -8.890172785525177757e-01 -2.603268026276939207e-01 -6.953962471740670059e-01 -2.714470449050558898e-01 9.864836810064446793e-01 -1.829319191674658174e-01 6.677332386888654714e-01 8.635686571951554091e-01 1.578582579202881808e-01 -5.022339407409504020e-01 1.291665627786622528e+00 -5.218712884745542180e-01 1.033192917737361549e+00 -5.033354437709085527e-01 -6.021777929096788773e-02 -9.247878629475750345e-02 -4.297738579027257644e-01 -8.487884723347366434e-01 2.070403558896647400e-01 2.443151913216349003e-01 -1.379397416749172933e-01 -6.099335659980558155e-01 -8.073011347947588456e-01 1.660989299706062405e-01 -4.406882839161436749e-01 -1.473018597984403766e-01 -3.690966798039058139e-01 3.425839327802829848e-01 -9.686402944381090618e-01 6.329100457043194128e-01 9.132930451524163828e-01 9.145823871922363901e-01 2.843039892200887042e-01 9.061677076188453528e-01 5.016006981227117967e-01 7.409464846567658247e-01 1.555057541227168605e-01 -8.041690680026779281e-02 -1.951056532232325058e-01 -5.007091801280793009e-01 6.776397305728112386e-01 -5.273332223349019854e-01 -3.280302161394904603e-01 -2.585071288675204748e-01 -3.988959835635307316e-01 -1.047932647933489614e+00 -8.851395928784268063e-01 6.029566534755965296e-02 5.667353704601264530e-01 -1.913564588292421542e-01 -8.468053089125242572e-01 -7.611034270420437287e-02 -1.837449909290035654e-02 9.478340359270231996e-02 -3.898282194447477700e-02 -9.843799931335939224e-01 -5.900400501170584011e-01 -7.399363796381364100e-01 -3.476136452087969508e-01 9.066100752199462987e-02 1.989173811531362579e-01 2.625724084927074653e-01 -1.781037830149322099e-01 8.960959894839409801e-01 -7.774688167674391748e-01 4.687548006898361597e-01 8.975051915949813774e-02 1.028840668905724787e+00 -1.381245950794322552e-01 -6.059416302086564343e-01 -2.007734516680453607e-01 -7.254361508834098471e-01 -2.149759924845994208e-01 5.423143717151062554e-03 -5.343808624604600155e-01 -4.002960697280229518e-01 5.312727729629721507e-01 -4.020183790883505859e-01 4.193755855017183287e-01 9.636231743184183740e-01 -6.600382733177265759e-01 9.527046544710717768e-01 4.113469650907282671e-01 -1.042718516121418082e+00 4.923933481048470284e-01 -1.662004022527091562e+00 -3.802303016604697411e-02 -6.810366064960304833e-01 3.229921242543754567e-01 1.203133705775083939e+00 4.160834002363958395e-01 -2.118646078204374505e-01 -6.351330827876759955e-01 -7.710894969048414684e-03 4.170255894263806273e-01 -7.948542304766434974e-01 3.164549829168321060e-01 7.850639383599606891e-01 -1.602401931964901258e-02 -2.667893981192026032e-01 -9.528409895639458060e-01 -8.888534985341317585e-01 -1.288900387878915144e-01 -3.509052990760892776e-02 -7.768513392487756686e-02 1.012286312118079179e-01 -7.498166846725680124e-01 -8.994748460157491188e-01 -3.833483698894681879e-01 -5.177332621023292836e-01 1.034914151501328261e+00 -6.779289289277558028e-01 1.594008922201764211e-01 4.471583330456867234e-02 -7.567453309463412214e-01 -1.568114557542854115e+00 -1.412281708974804539e+00 5.746870691415363330e-01 5.489846535178605214e-01 -8.748936596732258542e-01 -1.048487485473670544e+00 -1.101076755937616225e+00 2.665786073238814446e-01 -8.851940311746654688e-02 3.950991523525341775e-01 -3.860862459007079472e-01 -3.067668975803782283e-01 -7.148312532419226484e-01 -1.067898889901289783e+00 -9.854795863934912026e-01 -9.283577702981467006e-01 -7.269054607325954320e-01 7.288845670578848468e-01 -7.938355284546722013e-01 -4.965849979440612461e-01 9.861707924670512493e-02 2.438191532125389693e-01 -6.001389106650977245e-01 4.244363453243651385e-01 5.445577587679838460e-01 -1.051076809606395823e+00 -8.914204154533010849e-01 -9.712715091786642274e-01 -1.261591300554917305e+00 -1.095685116095443279e+00 -8.765440815644865991e-01 -2.547949045618648212e-01 -4.384012968179998304e-01 -1.832641424462173318e-01 -8.647595799273948280e-01 -8.207379876184309198e-02 1.461135377261884916e+00 -2.513714432549568611e-01 -5.663329086224097031e-01 -6.675942051450230175e-02 1.143426833131850062e-01 -1.361783863602819444e+00 1.495130090557142133e-01 -1.266434227341935337e+00 -8.628685633514145970e-01 -3.852424579776086988e-01 -9.759308086292165507e-01 -4.417013349586347282e-01 -1.474853688379564876e-01 4.452360004454404829e-01 7.085347506296983955e-01 1.302020902088724119e-01 6.995213918642313455e-01 6.829960787062671068e-01 3.442854166642039249e-01 3.180273056936089304e-01 -1.384499197474539312e+00 -7.828541350650295438e-01 -1.345153879060246027e-01 -1.534038656397484379e+00 -6.779150289734782175e-01 -7.257194601041019322e-01 -2.990727816072887360e-02 -3.887907110573385339e-01 1.516292622769468190e+00 -9.667460123295669450e-02 -5.272743723297751428e-01 4.536783492705988574e-01 -9.488719175648459014e-01 -1.241562303616457807e+00 -1.670010341692788058e-01 4.101152367295389789e-01 -1.038428501665918713e+00 1.990685121105621458e-01 -4.463050376892227500e-01 8.291196060120985534e-01 -5.753438634563448062e-01 -1.998706853349872803e-01 -9.469701377205391735e-01 -6.646628849309775822e-01 2.908274607940924961e-01 -3.916645147497974655e-01 -4.850371536980394201e-03 -1.741029601708239671e-01 4.899348016242851545e-01 -8.677340334388762288e-01 -8.471006970356116383e-01 -3.337494315310862159e-01 5.766851854327507132e-01 4.157928024122548583e-01 2.990645312563842695e-01 5.655501888876993989e-03 -4.146767368087305172e-01 7.070267458525842930e-01 5.165459513468445563e-01 -3.790430187748858870e-01 -4.325417517222779340e-01 -7.469767143643362139e-01 -1.175625248670750578e+00 -1.012818886826001519e+00 -8.537731601550348215e-02 -2.753674185754869663e-01 -4.304762902145187753e-01 -1.647311179554822036e-01 -6.835288600709982232e-01 8.648836103051223967e-01 1.416531443689699465e-01 -4.343351225148089911e-01 -9.025940768306160988e-01 4.235261613586481788e-01 3.020478249403804605e-02 4.814425544211778374e-01 5.834359406456984809e-01 7.382752085001078601e-01 3.759866592145014730e-01 -7.811098520188134442e-01 5.872227036100504671e-01 -3.603130327800551647e-01 -3.515506390370408685e-01 6.146736415505429374e-01 4.234142117845385300e-01 -1.277255450980026019e+00 -5.382087005901510235e-01 -9.310847527593817397e-01 -3.274055516235465091e-01 -7.140611498299517246e-01 1.020757326794198864e-03 -8.724578826634427076e-01 -4.892430678006943756e-01 9.156635995375331794e-01 7.976142732280730452e-02 -9.956569513982505004e-02 -4.159288281458005665e-01 3.107815625495661815e-01 3.026188336922379096e-01 9.707435219224567202e-01 -9.899335448094574996e-01 3.382160082338108720e-01 -1.238382382663434089e-01 5.909421574262629928e-01 -5.313895485224492399e-01 2.597509665340571594e-01 2.990645222777741363e-01 -2.466584114615113787e-01 3.988512028466808523e-01 3.729662211730921384e-01 -1.571254196777947462e-02 -3.851160014014056721e-01 -1.070410038369193684e+00 -2.364597894549829715e-01 9.300905902594035907e-03 -4.415400678622045660e-01 -1.483100151504514741e-01 -8.246922242225184219e-01 -1.932467509586037746e-01 5.950641274706615080e-01 7.358065506210975659e-01 7.233706996798293654e-01 -8.217687299076963381e-01 3.879014069810395315e-01 -5.182278918098535136e-01 7.624512463679957719e-01 -1.364437237462918784e-01 -4.000236161838695570e-01 4.914149501689242250e-01 5.689445992657415213e-02 -2.561868815130305746e-02 2.593962387763741884e-01 8.344289453328150863e-01 1.626524430520595033e-01 9.573935079539480641e-01 -7.352921023558268987e-02 -7.175792293279500411e-01 -2.269771429747226843e-01 -2.315541937790736304e-01 -1.071739742193971390e+00 -8.473450706502879681e-01 2.215027538456784684e-01 3.005826843669168191e-01 7.289569561557369681e-01 4.275385770156173160e-01 -4.545159319668296560e-01 -8.664704441403844326e-01 8.142493695605571569e-01 5.466979975272435732e-01 -7.958489931622081404e-01 -4.272139915724346704e-01 8.223727928978823432e-01 -6.190954524904341838e-01 5.986913176116526181e-01 -9.723018069293829502e-01 9.844262655719468458e-02 5.596618111155119424e-01 3.322179857366461819e-01 -3.706315823551490363e-01 6.963084981333874657e-01 -4.537594020762306113e-02 1.238982515878557511e-01 5.818387685072137216e-01 -7.891864297130883887e-01 2.611895299735670917e-01 -9.590280246469091718e-01 -8.318740363386541992e-01 6.125385867728919687e-01 -6.666365404221947788e-01 -3.130104047105010112e-01 -6.919756929351884578e-01 6.883243484415028091e-01 1.167294582470302933e-01 6.903377248707992520e-01 8.877831106627998015e-01 -2.403669499819207633e-01 8.269073970466149781e-01 7.762721688829806732e-01 1.113121179832116982e-03 -9.947148087634818392e-01 -3.040253535901433768e-01 -2.404572786074397062e-01 7.788555644784375120e-01 -7.247870776737262988e-01 5.249465676969923278e-01 -7.370040196110678732e-01 -8.069743049045188243e-01 7.982191996764351760e-01 5.524500701860718399e-01 -3.010480958308950905e-01 -1.433270217068274843e-02 7.629405149316191848e-01 2.760548996175039016e-01 2.805476091766242464e-01 7.405926859702174903e-02 5.659562043927580666e-01 1.527809713258970747e-01 1.210531232853852668e+00 1.030761501835413707e+00 -4.255817050233761112e-01 -2.132458030175442276e-01 4.233446794658577428e-01 2.193370971740415398e-01 4.894730759565791844e-01 -4.885935234344396250e-01 -2.966093303115512336e-01 5.539381113421026209e-02 4.408497236135702213e-01 1.535159627788775794e-01 -9.980062584795408309e-01 -8.426811035666712524e-01 -4.310336590596085538e-01 6.680348739247241596e-01 7.575844311410669940e-01 7.311720488833822751e-01 8.554005658896441933e-01 -9.371365602167297526e-01 1.215330911433500499e-01 -4.714625060771759912e-01 5.774852210767642546e-01 2.787999793282365246e-01 -6.221127275519718891e-01 9.300068968188966723e-02 1.965931334124539354e-01 6.527860094595072660e-02 -1.950303243625323146e-01 -2.483359270286723819e-01 -8.925061997086412013e-01 -7.258209658130188036e-01 -2.539178120420291229e-01 -4.973775119833275249e-01 -7.307915912638290878e-01 6.311169896289733350e-01 -2.241210654370411615e-01 -3.062901800442796585e-02 -7.301299106659153715e-01 1.292379055975054758e-01 8.581578582879088035e-01 6.943049502187470523e-02 6.243653102487689566e-01 -1.416977113467399740e-01 6.054866910278502434e-01 6.793241056402459233e-01 6.554081031148553116e-01 3.566472513941780775e-01 7.582602943482289470e-01 1.751578166258469516e-01 -9.850961698193145821e-01 1.589290734624353718e-01 -6.323741142551310146e-01 -6.581561179557607888e-01 2.953202286092207474e-01 9.555372468167697697e-01 -2.568033998891853797e-01 -7.512995128691071223e-01 -1.542330934016321320e-01 6.952670929858154603e-01 -6.694439687869232491e-01 -2.509770577700718985e-01 3.554882652876640847e-01 5.169347014031693277e-01 -6.101370164176955768e-01 1.560586230310549993e-01 -6.461851163214462623e-01
6.429056536301518410e-01 -6.480625879298640424e-01 7.928913529574319607e-01 1.268963436204135764e-01 -3.446035973277601361e-01 -5.767094792452565066e-02 -7.023681863970043793e-02 2.898978734874844143e-01 -7.811761082572450388e-01 4.455455359003608340e-01 7.659444552338994239e-01 -4.882286404982969508e-01 -2.567670765393089138e-01 -2.341169322930659324e-01 7.739903654047826098e-01 -2.989954630800198965e-01 -1.060424480693713534e-01 -3.734389659775616543e-02 8.728496563757490723e-01 8.927557695513934632e-01 -9.940086527102178771e-01 -3.016696300036278977e-01 6.376401674264493558e-01 8.578930636339026083e-01 -9.016537572513638743e-01 -2.778855384727263456e-02 -8.185231056415724904e-01 6.243559067420672015e-01 1.018593221980363950e-01 -3.760670650813775495e-01 -6.739436679544181796e-01 -9.181818928175577987e-01 4.426747618996447753e-01 3.304823237785439738e-01 -7.719962652923902935e-01 -4.162304555239075277e-01 -3.872380093440441207e-01 2.066708983486607309e-01 -3.610055776734443778e-01 8.012792615165836851e-01 -5.525882575533115348e-01 6.499932943047769252e-01 9.265181811743302687e-01 4.350456896145258878e-01 4.956129520290428192e-01 9.794587377814584217e-01 4.169664231056412484e-01 3.966702913798913488e-01 -6.722931742650971598e-01 -2.384850898276830999e-01 2.145168730705729887e-01 2.670319022528414576e-01 -8.852108429562774994e-01 9.993919559947754827e-01 5.089506103845899965e-01 3.427746213983930978e-01 -1.116652829989139839e-02 -4.236064864097046634e-01 -3.411930985333593291e-01 7.974903545730934740e-01 -3.088105366196554069e-01 -9.022199362751743834e-01 6.081127277383270302e-01 7.096765546435519489e-01 8.338350545061237185e-01 4.263119751001581137e-01 4.215755650606379246e-01 2.844308099332610862e-01 3.422638546512452029e-01 5.046425062016950402e-01 -2.951978801673553129e-02 1.056710644199197358e+00 -5.117186861379670049e-01 -8.282089582730447486e-01 1.436388238545929508e-01 -5.874228802992077503e-01 -7.327776427086528654e-01 7.242783085907427143e-01 -1.917463818926768149e-01 -6.158361728263426205e-01 -8.717505430341520034e-01 -9.171028804551166758e-01 3.577173229906893681e-02 3.743012565855119433e-01 -2.981986548912216595e-01 8.953786501753291382e-01 -2.904775504812600606e-01 8.590566897877247587e-01 3.611067418284503311e-02 -5.158543995355505674e-01 2.598915248131150948e-02 7.642448776038162084e-01 -5.665359801155969155e-01 2.859930990193603750e-01 -4.250176255237566592e-01 4.604940318472341421e-01 9.330494818308552318e-01 1.019942680312928146e-01 5.979302610275221141e-01 7.712275941259024714e-01 8.638506191572070669e-01 1.108554235899057661e+00 3.848914080312896835e-01 1.129214397911261880e+00 -1.744447163480229157e-01 5.792868597145732767e-01 9.770947655770854112e-01 -3.237374583699847430e-01 7.614047817363319703e-01 7.541473915674268280e-01 2.022862561678519244e-01 9.012939584593484543e-01 -1.402673859303813497e-01 -9.664261978482189264e-01 8.167893041644561647e-01 -7.199811911632922889e-01 9.364924580499370266e-02 -6.222838422699421557e-01 -4.309691687492089862e-01 -3.646391166086249691e-01 7.127910057780817432e-01 -3.557711840240180834e-01 3.873443768785529706e-02 -1.715427252968065586e-01 -5.324496394156906787e-01 2.720497020882591821e-01 -2.478374362154568966e-01 -3.586022409480782991e-01 5.763408492049048037e-01 1.040680720521986569e+00 -5.618717877705507041e-02 3.013637430158467301e-01 -7.521053903589446366e-01 -3.121922231914320278e-01 2.894460369535315492e-01 8.478037005436650508e-01 2.217471773951629477e-01 5.841841195352076577e-01 1.297747138692851576e-01 4.725211246614663962e-01 5.256083617475633130e-01 -2.731615627431616122e-01 3.339473729224986531e-01 -4.896615262543440594e-01 2.150427756838206028e-01 9.397307939269157195e-01 -1.126040838979336822e+00 2.740388716344275277e-01 -4.545580060545615364e-01 -3.916496862499064258e-01 -2.129271035557748493e-01 -7.064826371335862776e-01 3.596429046366270699e-01 3.431673752682760647e-01 1.520020835659480034e-02 -4.999539812275901052e-01 9.307597329021375376e-01 -6.244745060257528291e-01 8.823670382004262791e-01 6.805120115421422478e-01 7.802530273045285014e-01 9.753892983709018250e-01 -6.152261138604994128e-01 -1.417636233699972881e-01 -5.021342036622581384e-01 2.673084620296565239e-01 -1.252479781048623508e-01 -9.932103830685417023e-01 -4.830975701490842766e-01 3.186646263305493165e-01 9.910790498611766752e-01 4.427995123172271397e-01 1.721128812882985124e-02 6.230374501566974255e-01 -4.877426836438886748e-01 5.008543777313280154e-01 -5.049447353027491925e-01 -3.877035787647906684e-01 -2.275547263636100714e-01 -3.494151613554187241e-01 -7.269335253410291742e-01 -3.932757997624631296e-01 -5.926668165400927890e-01 1.175975219462298618e-02 7.066342254209105611e-02 -4.530014787173673452e-01 6.323390004718874025e-01 7.757917986182980563e-01 7.017582382812036224e-02 -2.016717691895194287e-01 5.059954236334311961e-01 -3.405274906566188586e-01 -5.105943481037822362e-01 1.593726778522538967e-01 -2.671372216964464918e-01 -7.547210247518582049e-01 -5.111413962479121054e-01 -4.828136489342977344e-01 1.291516421321173558e-01 -5.814108931478416675e-01 -8.584122794383834965e-01 -2.409593365897214068e-01 5.585276296258010476e-01 6.102358043850963920e-01 4.660904734844992792e-01 1.118362564891186434e-01 6.915810010240694417e-02 2.757017834933849221e-01 6.705454749972350470e-01 -4.136636554482473471e-01 1.008436976041683142e+00 6.611808184437759639e-01 5.210797884128837154e-01 -2.417324013816709860e-01 1.095841612392856046e-01 6.577500784375251985e-01 -1.856809014030794680e-01 -2.663177926815078408e-02 7.392215339417466113e-01 4.350674065093365628e-01 3.159716612494836707e-01 1.868536097676961050e-01 -8.883039521154914020e-01 -8.830182381682488701e-01 3.322863298121348508e-01 3.301933350854793225e-01 2.306712318427101560e-01 1.461489288563438682e-01 9.474233114230344588e-02 2.215794825265211265e-01 -4.370340551606813895e-01 -4.654126830022989880e-01 9.004553421464144281e-01 -6.189768184373293236e-01 1.209000639488541751e+00 8.765280443925337339e-01 -6.083776374761595829e-01 -6.955072533929930190e-01 -3.017082129660440537e-01 7.795121287601067817e-01 9.673431081612626770e-01 3.738760390136251499e-01 -3.865534075217849086e-01 1.627266018399898539e-01 -5.099171438850501337e-02 8.806527700940692815e-01 -2.040386040930624312e-01 5.682958643852581426e-01 6.659050901683097878e-01 5.496173626496032583e-01 -8.203483652450078711e-01 -8.553188855113156297e-01 -3.321591407391794593e-01 -3.162954197898638631e-01 2.513385556054290593e-01 -5.044417985020576145e-01 -3.280565563531652185e-01 -5.891841270428471722e-01 -1.233640535195139165e+00 -3.999604823389089070e-01 -2.644689053842492754e-01 1.468022239083053015e-01 8.459659381168112280e-02 -3.406017038083891668e-01 1.233843581236076625e+00 2.456236716309298240e-01 4.680889643543282852e-01 -7.283835908311895313e-01 6.033083743452191117e-01 5.023939614278315480e-01 -4.967286744391957165e-01 -7.793514446823180952e-01 2.620968273939337512e-01 -2.212284528742393952e-01 -1.367159951939955209e-01 6.319462322648727870e-02 1.135104589042047918e+00 6.129721285446815271e-01 -2.702244806334112570e-01 -4.091515939413687963e-01 -3.026240966677784527e-01 -3.713250575761554151e-01 2.181836243477286164e-01 6.191965501296373686e-01 -1.419242771885224630e-01 3.762069420727737756e-01 1.260549730855080319e-01 1.553286111052380458e-01 2.579015473059535490e-01 9.398726141906628140e-01 -5.893690896425267667e-01 7.434705164129213895e-01 -3.104233021623646338e-01 9.405320616593406680e-01 6.487461948997966799e-01 -5.050270858160929022e-01 -1.129143879459238553e+00 -7.938193376028220838e-01 -1.786529219053446527e+00 -1.611523917906376946e+00 -7.073644030392803872e-01 -7.021303390917273957e-01 -1.122535104683659801e+00 -5.161656630606088481e-01 -5.722603766805162140e-02 -6.864971200157630182e-01 5.737772382092747037e-02 5.199452789437544187e-01 -1.308593851966219704e-02 -2.582089860620637167e-01 3.155076102979673669e-01 -8.705708723124917503e-01 -7.831875590363736039e-01 -4.379751706711250137e-01 3.923137356608223381e-01 2.426673008007186050e-01 -5.547546469882757014e-01 -6.912351193381900405e-01 7.459652334823678732e-01 -1.806170362066219781e-01 1.097737447888839979e+00 3.186544223955325439e-01 -8.868957767547432924e-01 -1.533036894420669594e+00 -7.199787057462542217e-01 -1.691558905176794303e+00 -1.758149706060107675e+00 -1.569543628261453660e+00 -7.057693344752746789e-01 -1.697054586659076048e+00 -1.477589249479483557e+00 -1.706504338081284711e-01 3.390084667609483682e-01 7.128718769027627689e-01 -2.069567753225320106e-01 -6.940053270167801935e-01 -1.111039022724810352e-02 3.576447506110512764e-01 -6.556892320046475708e-01 -2.338110689399770237e-01 -5.531657056880256301e-02 7.469819058115015897e-01 -8.109454790339422070e-01 1.134940000604152815e-01 3.798109387000643267e-01 8.426278369863516859e-01 5.156609659299076637e-02 5.139407622094481765e-01 8.125905163179347745e-01 -7.661872772701955325e-02 -1.026027358522102917e+00 -1.391734965261564705e+00 -1.572639349295876343e+00 -4.135812112250450978e-01 9.635537588718290358e-02 -1.484185713722212530e+00 -6.601559502190317286e-01 -1.232936953726016638e+00 -1.266696719252637049e+00 -8.391299700062549993e-01 -5.767330404444006575e-01 4.408842353038359141e-01 -5.352753505286099722e-01 -8.389897556746237495e-01 4.077570736562120129e-02 -8.299903924573064362e-01 5.728570140035247477e-02 -2.725260488771745204e-01 -3.547096135274733775e-01 4.217044886847978180e-01 1.363172172392620174e-01 -1.341236451910893801e-01 -7.239586701003980496e-01 -3.607938252724787187e-01 3.622544768020664607e-01 5.879416867297272420e-01 4.520344680269762216e-01 8.841833844243572882e-01 -7.002575328683856570e-01 -1.627180216550112579e-01 -1.217782067661054013e+00 -5.195812080954733680e-01 2.737377046063791397e-01 -1.094172061113094646e-01 -1.534187413865134020e-01 -2.748570649679813460e-01 2.296874723646568361e-01 -5.553977892861542559e-02 -1.406669822877172071e-01 -5.898937861915490855e-01 5.447091332903190031e-01 -4.374100466420985378e-02 -7.992108672808589942e-01 1.981827900242994489e-01 -8.333342565602130936e-01 1.527266219712970496e-01 -1.036073143013060527e+00 -2.287731661813033057e-01 -8.255653701083431883e-01 -3.785744671937184558e-01 -1.328333976471936795e-01 7.526122846563340074e-01 4.739253879492804633e-01 8.868697247424663921e-01 4.096479749990807884e-01 -8.457027807322151647e-01 -8.880463602647796773e-01 -2.441442642835252586e-01 -2.047281510626909606e-01 -9.081708077786754263e-01 -1.106039232541400796e+00 -1.124907648157553286e+00 6.974588848196502378e-01 2.451193578095695880e-01 3.308027253993160999e-01 -3.365491074755843637e-01 -3.104965057509603277e-01 -7.047440596118328404e-01 -1.110236146276496333e-01 4.201961208266012937e-01 9.042417304640090192e-01 -1.644444503997206652e-01 7.617250136574874597e-01 -8.376214068836181914e-01 -8.804273996395285407e-01 -7.137267862972369592e-01 -4.324789380278330486e-01 7.705382892756511559e-01 8.424719302954453148e-01 3.144479128337943075e-01 4.570510699177597891e-01 3.668706441361588300e-01 -8.923978714335206730e-01 3.605573891411470999e-01 -1.248684951565685930e+00 -1.323776095086586668e+00 3.022822620145308448e-01 4.170566746017276283e-03 4.323206683133528072e-01 3.858560714752318765e-01 1.480540995301266705e+00 -4.174219725024005401e-01 1.060912594176227852e+00 -8.176637018075232355e-01 -1.190693800758241098e-02 -1.547605379996518649e-01 -2.108878771717921097e-01 6.581837657401500286e-01 -1.022720923156018522e-02 -5.971004071366747823e-01 2.757915734141457853e-01 -4.242402599485401438e-01 6.880731731781597471e-01 8.006202960776107602e-01 -1.397399599997133368e-01 -4.028844605891733210e-01 -5.355299674378199981e-01 7.998013301920944285e-01 -5.925352364387203030e-01 -9.198323660462835727e-02 -6.543915688233887806e-01 -2.717394323642894904e-01 -7.633355133903978462e-01 2.946805612888850900e-01 -1.103011420273056320e+00 -4.523202125012014685e-01 -4.357522977038255640e-01 3.625591335492250322e-01 1.000284647238302238e+00 -5.505196915293515403e-01 -4.756912714373823237e-01 -2.330401619188273432e-01 1.800403511270126100e-01 4.120043890515353024e-01 3.699153727972405159e-01 -6.961205021648541047e-01 -9.596072998675118093e-01 1.665269454826243112e-01 -1.123749529578118578e-01 7.312349708237423362e-01 -1.005674337686312647e+00 4.225427399341169510e-01 9.391628491534164125e-01 3.376276627001450481e-01 -6.866923405904341582e-01 1.231978255417762458e-01 8.845495833022783971e-01 1.774550541716906071e-01 -2.512184291737569186e-01 -6.752982409175544154e-01 -1.279453190532872986e+00 -9.289008491210497542e-01 -9.197120741890207896e-01 2.601997015459130425e-01 2.817598516858938473e-01 3.584161835419010234e-01 1.665733335147726035e-01 -3.260937782025258858e-01 -5.976049057441622514e-01 9.978043142118859787e-01 6.836632689664533524e-01 -1.029807414737077265e+00 4.374878720532614507e-01 -8.565687101125019076e-01 -4.381205696792916937e-01 6.736171321408687129e-01 2.829409407902421791e-01 8.453621765431656998e-01 3.690221457691647555e-01 1.469643216175025857e-01 -1.846135059919644106e-01 9.437105412386562753e-01 -9.297418602887187467e-01 -1.223065240117287233e+00 1.209943763798358440e-01 -9.862497550795331636e-01 -3.425891933245587828e-01 -1.004725724387662764e-02 -8.955665132589920585e-01 3.477571855789070021e-01 1.228506988436838393e-01 1.410452564946363188e-02 5.571132746304391370e-01 1.993507292141887266e-01 2.719714066048812273e-01 1.353492018972584310e+00 -4.118357413633817465e-01 5.109945415343215558e-01 9.277267814135440327e-01 2.598932284869073794e-01 -2.822279910842975803e-01 8.728286225475181959e-02 8.976240522718975656e-01 -1.670535546513123859e-01 9.886617775595897273e-01 -1.699484147187382554e-01 8.459483163308492149e-01 7.072809882554844663e-01 -6.675010986021556736e-01 -3.386667005200148517e-01 5.687758860409618533e-01 5.903959723768612555e-01 5.387306168219480051e-01 2.436417924510110578e-01 -2.182114341729317897e-01 2.321439050988376995e-01 -1.463571442334709281e-02 -1.855824287841559284e-01 -2.357384217056097686e-01 3.878733030164781548e-01 9.294918975261600158e-01 9.341258969296037940e-01 1.975618917005911579e-01 4.518903096757891924e-01 2.934669119271590687e-01 9.711542188001502929e-01 -3.523534183564963063e-01 -2.288576953237809741e-01 1.665468473054546317e-01 -5.085113386845295791e-01 -8.054903062489586762e-01 -3.115489958254185621e-01 5.506439880520487273e-01 -1.409723304576511738e-01 -8.593751768383485201e-01 -6.329223560682076810e-01 9.952514523332033347e-01 5.878440540915029766e-01 -2.167375956914717461e-01 -3.880701655995188459e-01 -3.564163442403648907e-01 1.688945756898728168e-01 -2.706673341633350494e-01 -9.689295705577746776e-02 -2.973248679300024011e-01 9.888676665813258548e-01 -4.359968899838302381e-01 2.129291961912788134e-01 -6.555061917977619279e-01 -3.399008143315436770e-01 -5.640908906810849777e-01 -1.990603659627824817e-01 -5.640677004213986434e-01 5.173744366342829942e-02 -7.125523165709489737e-01 7.448363064771626463e-02 9.456074129859419752e-01 2.209584294918081893e-01 -3.196482812166439036e-01 4.850727415206966264e-01 -8.003327310456442856e-01 -6.448812669955239496e-01 4.191246177150549923e-01 -5.070744259886705851e-02 -6.412511148885351453e-01 7.749808677816529823e-01 1.177082002923204529e+00 -3.617657256460453663e-01 -1.164746564974016158e-01 4.907969772186039914e-01 5.673725220750744924e-01 3.262481460008373468e-01 3.784040874927973030e-01 -2.498979411798444572e-01 2.606591554523330356e-01 -4.234284241953155115e-01 3.225026944789617378e-01 -1.485193450648755221e-02 -2.308858018120767130e-01 1.214114196851347582e+00 8.007997430443759557e-01 -7.624216267514749568e-01 6.107982098764507262e-01 6.508198395020827753e-01 -8.627053178031437453e-01 7.412116663449046516e-01 -2.439280506503455764e-03 -7.654549253697726652e-01 2.961180603359956365e-01 -4.325570580594557124e-01 6.956771477293417494e-01 -2.731999039670913176e-01 6.814208046403363861e-01 -1.932762347841044115e-01 -2.208968483211578848e-01 8.967270010978395378e-01 8.677838555675014831e-01 1.070571858183405833e+00 -3.005560245685368059e-01 1.159020714883770342e+00 -7.740073998146630441e-01 9.624673669318042357e-01 3.485885171523491199e-01 9.264993171533938421e-01 1.279924321304388435e-01 -9.981590503610932030e-01 -1.341578194511585664e-01 5.988564358946444344e-01 3.434433572890144282e-02 1.884746843070388977e-01 -9.156483858308456236e-01 1.178329780292410311e-01 6.563439129406424266e-01 9.332932619053370127e-01 -5.681535391014809200e-01 2.284553798341004693e-02 3.634553099525739683e-01 -7.566392731160443974e-01 8.329331306383882527e-01 -4.022468453549781775e-01 -2.238449361119819458e-01 5.580870407542367628e-01 -7.689360571655996512e-01 4.479479918634092484e-04 4.730117520979162382e-01 -7.744680592357579274e-02 -6.578786794381344949e-01 -2.471436658451415802e-01 9.074611849519234053e-01 -4.774775906158967853e-01 -6.411373523739025693e-01 -2.253476260423011301e-01 3.427268387178961651e-01 -4.572459096865404971e-01 1.477495448384103238e-01 -7.201320652727409843e-01 -1.172901340692238947e-01 -2.010208159037034717e-02 6.349604702007475288e-01 8.918692760145988663e-01 2.120643857957641987e-01 9.512428192499993163e-01 6.710894185482780827e-01 -1.951541885372674034e-01 -6.896070915574412652e-01 1.947974709597452003e-01 -8.437053284827263910e-01 5.372222089310954019e-01 -4.693474282220856941e-01 4.131162245486388329e-01 6.229971988381495240e-01 4.213755464297164743e-01 2.887188913039857585e-01 5.742519500118520304e-01 2.284260151159553942e-01 -5.699665851758906054e-01 9.775777833239646109e-02 -2.706698836506213346e-01 1.018001050269330188e+00 -5.300928115827041598e-01 -2.264290926511387803e-01 3.811664297135867185e-01 5.347411672451057862e-01 -9.750210722031533717e-01 5.747427618031646368e-01 7.256087372774222555e-02 -6.697545054912871221e-01 -6.713336357378967278e-01 -4.447342545911817102e-02 9.640364540287085227e-01 2.188715922421571314e-01 -1.796188137494558745e-02 2.083677339877165191e-01 -3.777203948637448128e-01 -4.586350856761984840e-01 -2.599941720328146078e-01 8.213210723011946102e-02 -5.779182507075061315e-01 -2.614306553834488955e-01 4.940225529901376422e-01 1.677882873226695937e-01 2.799397606685443685e-01 -1.417325203912474241e-01 5.575602616332751005e-01 6.388845566221804662e-01 1.080693468686841241e+00 7.852688542888642820e-01 -7.583871193458040505e-01 8.856633273369157733e-01 -1.376967764020794183e-01 -3.110841304041650837e-02 -5.905317711710957873e-01 -1.223572187755198569e-02 -2.274421933733547230e-01 -9.484160644872668966e-01 8.841245431953126399e-01 -6.916627229622102080e-01 7.088349690563318095e-01 -6.517718450568896760e-01 2.138747617951373137e-01 2.092382853733734116e-01 -7.439955750360152664e-02 3.117178449470495161e-01 -5.634057492005624113e-01 6.780477575063663664e-01 -3.242003757935763564e-01 -5.449357266573640057e-01 -3.164285458888779212e-01 3.179716336434760815e-01 8.530567682268884733e-01 5.393961146773209592e-01 7.045454267477576638e-01 4.130875192511469507e-01 5.932425877465838937e-01 3.207632911054958957e-01 -3.203729693446067950e-01 -4.930506118929355863e-01 3.001868450220954165e-01 4.899372230013451235e-01 5.980054982217472004e-01 -2.459819194765702488e-01 -7.684698689103248714e-01 -6.292816577523507870e-01 -5.367796741427084684e-02 -5.942472248082766306e-01 -7.378725114888506909e-01 5.948166223964923560e-01 3.433467510913217335e-01 -1.799547031286439225e-01 -8.048810897648912555e-01 -8.378840638971842836e-01 -7.149285179260855827e-01 -6.901328056712661141e-01 -4.203192847890157013e-01 6.033204466322946574e-02 1.337887925356777974e-01 3.179364548876884022e-01 -4.153918738025678958e-02 -1.066826222432983168e-01 -5.043112243011295126e-01 -7.737235512202559340e-01 5.610225406681107474e-01 6.864450741444481918e-02 5.238532308608326860e-01 -8.679729653620342766e-01 7.096362818555848051e-01 -8.301140453925083262e-01 -3.182523009452348662e-03 -1.382982174152895816e-01 -7.246195618739986744e-01 2.293134248328954072e-01 -3.276226517440237185e-01 -3.615299014333770433e-01 -5.094403073932867176e-01
