6.896461290468494099e-01 5.270694580893535708e-01 -3.219601725328100628e-01 8.611557396941622589e-01 -2.097212163662038886e-01 -4.213409769145644024e-01 -1.083521794224873158e-01 -5.193426520379658129e-01 -5.018187088831225218e-01 -8.357587075307997271e-01 -8.369356842267734464e-01 4.176601437928353366e-01 5.832020011667737869e-01 7.967743642560426443e-01 5.277900970787118284e-01 -7.163600245757065776e-01 -9.094396485649003381e-02 -5.077175083359160013e-01 -1.865101503135524474e-02 -7.802661921068565487e-01 9.661779441744939856e-01 -5.164910057796210374e-01 3.533652245390468405e-01 -1.227168182496827242e-01 2.048739153407981295e-01 2.760035950891515100e-02 -8.646568544726882521e-01 -7.103346742446565720e-01 7.967474562213174849e-01 1.908577702374845142e-01 -2.383497373131591157e-01 -1.292541932745676636e-01 3.399271507844412454e-01 3.128712514449775717e-01 4.122336606973905915e-01 5.485886921090029622e-01 4.729995725096067805e-01 -6.885913555721602242e-01 -6.506973526800049479e-01 2.354370603915477700e-01 -6.140386747788368488e-02 2.197217354006853751e-01 7.255905530543496074e-01 7.691814000737851043e-01 7.543500804506676760e-02 7.580742903878271433e-01 -7.604957217772164713e-01 8.723129832743261591e-01 -7.664565831430818488e-01 4.586506650927590356e-01 -7.666586909143154882e-01 -8.515505727016835502e-01 -3.856539965951313320e-01 -1.588931551020311694e-01 9.084713259263448304e-01 -5.952916756696464695e-01 -1.529690303515509608e-01 -1.179771007312382380e-01 5.407451765702991908e-01 -4.882964180799709841e-01 -5.943432054307162815e-01 -5.121861340679934038e-01 -3.160495861507418014e-01 -5.381682855017170253e-01 -5.797998475985048916e-01 -3.108464603178965890e-01 -6.717809265006956521e-01 7.932553469947541958e-01 -6.167057748027495734e-01 -1.128813820203044133e-01 -1.256131888316774636e-01 -5.071968568230339480e-01 4.423074571986080894e-01 8.856137994048822737e-01 9.248030299509306384e-02 -5.037875895738672810e-02 7.810808924951483379e-01 6.139754572358739892e-01 8.238949091476945041e-02 9.871322485439655292e-01 5.612270741621182973e-02 -5.938466750203988953e-01 -7.745443115981529569e-01 6.054538855722202406e-02 -4.686178853637141817e-01 9.937646271869426950e-01 -1.381402019953979210e-01 -4.111877604609409653e-01 8.761706067836303458e-01 3.613815756702194043e-02 -1.309380601888477935e-01 1.403565842104396721e-01 1.032150846726485494e+00 -7.749582532905840981e-01 -3.258202186567907832e-01 1.809805354508942921e-01 7.124321026696956993e-01 1.001227932255799091e+00 -2.481589821818338537e-01 1.916572517357102157e-01 -6.078370677121965882e-01 3.868158301874506655e-02 2.964048441379201759e-01 9.713269925072586242e-01 -1.065326093162587001e-01 9.045827940436662606e-02 7.651598815223197292e-01 3.007045840864084121e-02 -3.922020882338852349e-02 -7.063530138339310094e-01 4.239394891401690457e-01 2.711633241249651327e-01 7.517576429122887482e-01 1.323054891879105466e-01 -1.270399957321224349e-01 9.719656548716493205e-01 -3.620601116243028494e-01 -1.050949281340675806e-01 9.007686098711110700e-01 3.115715611878394631e-01 9.677246280623399421e-01 -9.783681550974723251e-01 -1.775669749409697004e-02 2.093971986383163786e-01 -6.808931246585918640e-01 -2.431537367217712076e-01 -5.658678026054776433e-01 7.012375264953443765e-02 4.949399354808290408e-01 -4.400203939082976690e-01 -6.108705309085938895e-01 -7.022416345991581987e-02 -6.823286110652667658e-01 6.216299489686534230e-01 -2.978527301108236935e-01 2.526452721761560660e-01 2.003634428642867837e-01 -1.910754680079215229e-01 9.259540009224731527e-01 -8.005429857989833087e-01 -9.490949633908989380e-01 -1.888446915978205798e-01 8.849320132066585964e-01 5.995919614348987903e-02 -5.900362867010375094e-03 5.313862798694630740e-01 -6.815869169349856316e-01 -7.532788785091469874e-01 4.728363213772805995e-01 -8.335812265432859247e-01 8.126922331970605484e-02 -1.221871913509336549e+00 -4.540366952507741694e-01 2.765315677603433220e-01 4.303713616667733111e-01 -5.443920336663348181e-01 1.949426774603577883e-01 4.430627220047766435e-01 -3.873782048771609032e-01 -1.853297808697591809e-01 5.836270209911811335e-01 2.527958192149526440e-01 3.215246096638965101e-01 -3.202176059535516983e-01 -7.140233689756703139e-01 7.302607789405909378e-01 -1.174709908149913912e-01 -4.304612899507768153e-01 -6.515431063903998066e-01 9.209788681711682523e-01 -8.136689006135073843e-01 -6.804345925190677935e-01 -7.602756767398350934e-01 -2.677633562242085485e-01 2.396941126637787134e-01 -3.931920956377144560e-01 -9.379442911171156361e-01 -4.084815495671180186e-01 -7.008474621052209752e-01 -3.196578094871607711e-01 2.284636608603147767e-01 -1.209495014344447839e+00 5.906409731695405618e-01 9.256310340899463751e-02 8.052832330843332498e-01 -1.240792694254766459e+00 -1.101843194347320809e+00 -3.315501290189531436e-01 -4.331097479414886542e-01 -1.124424027867241938e+00 3.853378060185672083e-01 -1.670351924277987121e-01 5.128033725627700185e-02 -5.126188588137613467e-01 1.537254639417301172e-01 7.897569383822646005e-02 5.813890149043516864e-01 -7.722173710238715572e-01 4.022351052326516019e-01 -7.997647983395866911e-01 4.561866258245274031e-01 6.306455359285482176e-01 4.852673200623593974e-01 1.997692116483114344e-01 -5.057252636196815643e-02 -6.598554766360059665e-01 3.452678595099691328e-01 -1.259775445135797645e+00 2.575562715795640112e-01 -1.015588887723983147e+00 -6.761190461864728142e-03 -1.639729663893709777e-01 -4.108230435884785980e-01 2.905184526867804484e-01 -3.915815176603194558e-01 4.371937619067097769e-01 -5.980833727005873124e-01 -7.035982592676063296e-01 1.859952901058049834e-01 -8.858520743182728419e-01 -1.018298221471972687e+00 -5.132527566406781538e-01 -9.594135781301310617e-01 -1.008793037428171946e+00 8.458401850071081141e-01 3.000669632983221091e-01 2.094387255702358230e-02 6.726436662535323352e-01 -8.848403659508700114e-01 -4.978405628945382633e-01 4.993158645445520682e-01 -4.527501577937661503e-01 -6.568806875852328808e-01 1.413347332157507685e-01 9.110905391877247017e-02 -8.382388999031523680e-01 -1.831705714070903657e-01 -6.455246352684620437e-01 -7.689112360953737069e-01 3.992160275260098756e-01 9.362752860712159064e-01 -9.139385610523291514e-02 -3.147657121743489550e-01 -3.327125005448548500e-01 -8.838762016027875701e-01 -4.116427771345931852e-01 -6.320776561934244864e-01 -1.198071503842729202e+00 -6.402610820758953825e-01 -7.882035596010322775e-01 1.900203636913441463e-01 -9.395003385986098188e-01 2.722350220232280793e-01 -5.646864607246675494e-01 1.037348356117394760e-01 -7.033666773251516791e-01 2.947589130738703100e-01 -7.161072999324672450e-01 -8.783853199857342975e-02 4.968621836103802591e-01 -4.815266887669755191e-01 -7.573850802662487336e-01 -1.331644115141003004e+00 -1.484613106750666822e-01 -1.403853974912045999e-01 4.201211547416384140e-01 3.348190790478069445e-01 4.837298859214338165e-02 4.967013430168699117e-01 -3.847695624227970845e-01 -5.769977476668171068e-01 -7.170989878093142478e-01 2.587117615296205542e-01 -3.880231855047227563e-01 -1.020950656693746073e+00 3.498155746710824437e-02 5.383273408061394205e-01 -9.070379281268706739e-01 1.932690718366003868e-01 -1.089048286849428060e-01 -1.540824052926284028e-02 5.332379325302099016e-01 6.618255113263503686e-01 -4.789061480269633519e-01 5.618712211022572900e-01 2.155196597231138766e-01 -4.539596472220920331e-01 -7.882053754763712616e-01 -1.106882314967876368e+00 -1.246639084345397608e+00 -1.266196905896323832e+00 7.212375110712944404e-02 -8.299538057064770324e-01 -4.015124923543434421e-01 -1.024332394644765110e+00 -1.113370690612069280e+00 -4.880581334085301592e-01 3.594390515184072155e-01 6.900671135635916276e-01 -7.737381666553005966e-01 -5.694512251352470411e-01 9.270810149230020170e-02 -5.466428594822805298e-01 8.838134473620837817e-01 -1.188360036248958806e+00 -5.910603719122557997e-01 -6.682140113231052059e-01 -4.085346546222062281e-01 4.401248294441939546e-01 -7.963071590985528747e-01 -7.303367935724373039e-01 -8.712734788975169398e-01 9.755420251595278702e-02 -9.311741832995282797e-01 -2.566199783960931291e-01 -1.080052811099512899e+00 -8.589177488498243029e-01 -1.155637655880176640e+00 -1.811717433189672655e-01 -1.389262639258103338e+00 -8.320885999311565528e-02 -1.060678853198857574e+00 2.269026360437589873e-01 -1.221062881903733466e+00 -6.068309726524714343e-01 -9.591375577971185118e-01 -1.108826887538701067e+00 6.791406312215918506e-01 9.872371770804699853e-01 9.876736375746326679e-01 -1.008912915305621993e-01 2.470727429831938438e-01 -2.995159387014408314e-01 -3.791156696291008710e-01 -2.700557327547837838e-01 1.250004757672388278e-01 1.567492069942329896e-02 -4.660133246000572882e-01 -2.135414007046333440e-01 -8.637160228673146367e-01 -8.688234316876856100e-01 3.121334748465953712e-01 -2.564646472123142118e-01 5.123218111923091844e-02 6.828157846709449752e-02 5.905587405603534012e-01 3.126690472172478086e-01 5.918302922489564466e-01 -3.582734760903413113e-02 4.915425855416792333e-01 -1.576254924161977655e+00 -1.122938035940360013e+00 1.544758607008231976e-01 -6.385744751548694254e-01 -7.776145860779949404e-01 -4.308314338728657100e-01 -5.002178265580779076e-02 1.612488412536308147e-01 1.449863508512210464e+00 6.929946361797124643e-01 8.761667419080576558e-01 5.760439856398029690e-01 7.510440088775715006e-01 2.159140490589667449e-01 4.216872829327618644e-01 -2.426855033156697095e-01 2.556906235583122355e-01 4.189911433110695693e-01 -3.696782078922178361e-01 -4.768512411919084704e-01 -3.240561888662142342e-01 5.557055069246383816e-01 9.405805195489658210e-01 5.410357643059302002e-02 1.216653920124511901e+00 1.796390016400372380e-01 -2.576944992575901788e-02 -5.001851484396759862e-01 -2.437434330359993795e-01 -1.201659634210425764e+00 -8.359490407401108936e-01 -3.788334390673841340e-02 -5.128378683547651917e-01 -9.627573100420536156e-02 2.852835319652450852e-01 2.406002646500749464e-01 -1.048722659274938934e-01 4.326715585593990387e-01 8.981835338765637999e-01 3.285866340557955234e-02 -1.973708089460524118e-01 6.951263125649800867e-02 3.560148139852258864e-01 3.034742993113825338e-01 -7.268813895229023769e-01 4.145353902750142372e-01 5.598080527507146575e-01 6.669674520397498307e-01 1.688381108088418792e+00 1.815422659265557792e+00 7.984832374465201665e-01 7.082538503316684331e-01 1.844481197791842612e-03 -1.809799512225517548e-01 1.537554480063677009e-01 -3.489181331399740515e-01 -1.131467046366132934e+00 -1.018627553247438033e+00 -1.017631625340716273e+00 -5.070689910535162159e-01 -1.191157575654292033e+00 -6.627351733519959431e-01 1.200728529115061782e+00 8.147068430052816224e-01 1.471586995211991100e+00 1.165664810512356375e+00 1.589345787149114009e-01 8.077766165519112418e-01 9.359904577805122639e-01 -5.331101556107364914e-01 7.167672007226205677e-01 -3.186567872218272757e-01 7.818443652628012108e-01 9.466780221143837881e-01 -5.505152292838267902e-01 6.216606457901331373e-01 1.768348968591507697e+00 7.433201646907647842e-01 8.936447262599435115e-01 2.222743074384975426e+00 5.065293181658073740e-01 1.202263972331758524e+00 4.168245311866827230e-01 -1.111852458998120463e-01 -8.746205028341202947e-01 -1.346357537542315352e+00 -1.044960185900814409e+00 -2.772346280042390920e-01 2.535300710651164913e-01 1.234094537750294540e+00 -3.618725708463265134e-01 9.209188487054609240e-01 4.257297783336859154e-01 1.863126621177741693e-01 4.035111740524620072e-01 -8.406850921231737717e-01 4.175000287974039992e-01 3.558805232875468239e-01 5.947810088856745336e-01 7.634585262027261399e-01 -2.097583514318286102e-01 2.630033355045662269e-01 -8.850418931760103414e-01 -2.108655125264710661e-01 1.335738674877395615e+00 1.698475655880426594e+00 1.291828713724980426e+00 2.225684872110989865e+00 9.142125141077822592e-01 2.127980087745669380e+00 1.226013252507442974e+00 -7.727162846185490208e-01 -3.126102839008442769e-01 -7.086476141477071611e-01 5.510117141940004681e-02 1.258657394693540432e+00 8.025045303673419284e-01 1.126695323225314738e+00 3.248276860934803389e-01 -1.972151834097452539e-01 1.119027553887344650e+00 -4.049219862353614641e-02 7.307160333427444865e-01 7.649539670748749520e-01 -2.040812771942328852e-01 6.313642846504469164e-01 -6.353517364552885294e-01 -9.562202877277282687e-01 3.758796218425363711e-01 5.577024574465828666e-01 3.849757153335988114e-01 -2.176228359375602384e-01 1.301422896356036699e-03 1.663155275597860694e+00 8.906909108622219629e-01 1.735375590882649866e-01 1.956212833520354799e+00 1.569598554579004546e+00 5.417077041364357637e-01 4.751880017471436513e-01 -5.532320671347981111e-01 2.764553883043816690e-02 6.271191519048066043e-01 7.498340436304624657e-01 3.484242766567894889e-01 1.072478833038098545e+00 3.099061425920972557e-01 -3.350876485988439901e-01 5.931264421490923811e-01 9.160379186493563530e-01 2.319258122268342825e-01 7.466682443748383358e-02 7.724936611886907833e-01 3.728247491119367485e-01 -8.156133176731120704e-01 -7.976864971437760410e-01 -6.548587082135359783e-01 -1.946885070168426213e-01 6.952306943474545475e-01 9.282424351556857189e-01 -8.015478713196731997e-01 -6.393934498430365876e-01 4.278954824433012782e-01 6.246520615979892499e-01 1.618000849071720981e-01 2.897029798195475125e-01 9.825111207415103687e-01 3.867910354039462151e-01 8.652489994478206048e-02 1.099168327872416473e+00 1.118632669201372165e+00 7.311498205315015986e-02 -2.165892976092691491e-01 3.344032844505483437e-01 -2.093964538200725478e-01 9.376694784143557726e-01 -2.833164926631034364e-01 -4.323957564707400780e-01 -8.788490721802064698e-01 -7.618815632915637570e-01 -5.162250875277835105e-01 2.630356108671264015e-01 5.487422838279769621e-01 3.763761045157915652e-01 -6.329911949740256727e-01 8.076598882064009999e-01 2.169229128571567300e-01 4.559914591164691555e-01 1.210821204157876696e-01 1.523093151907542117e-02 -1.157561944193993941e+00 8.298960573587457201e-01 -2.362529443709605048e-01 -1.336608821122869661e-01 -5.765533701273130029e-01 7.954964730858513633e-01 1.157176556136364942e+00 2.197790366431858489e-01 1.376642840151880709e-01 3.835127741398710599e-01 -1.123428605234344339e-02 -1.697126953448821751e-01 1.308290507855190743e+00 3.378647385236281386e-01 9.780308717816016406e-01 -2.970017115401340710e-02 -5.734226319817615769e-01 -4.002462452219093803e-01 3.385032645825851172e-01 7.830270438388664545e-01 1.654229191171403546e-01 2.277947887534455818e-01 6.763504501611619091e-01 -8.937218415209733369e-01 -5.814087556815629165e-01 -1.135663124988767425e+00 -8.448427796651509780e-01 -2.420333687235985132e-01 -1.013978050786307650e+00 -2.998121875474916709e-01 -4.043619340412150653e-01 -1.220617594889467084e-01 1.101024610176380758e+00 -2.025915052191171462e-01 4.703739503555501300e-01 1.030060253651212454e+00 7.400366093956718405e-01 1.134457318613717014e+00 -3.779336125689894965e-01 3.908172633024410980e-01 2.770081343776890914e-02 2.172869976617472776e-01 -5.471771345431285516e-01 -6.531734851365550432e-01 8.880737277544300534e-01 7.799377639551939856e-01 2.236985286356547864e-01 8.458151421687427618e-01 7.220223960943650265e-01 -9.676127946135578695e-01 -3.837494272121559913e-01 -3.717809784273659601e-01 -1.655553715568992279e-01 -3.122049395177994846e-01 -1.168447022093896254e-01 -1.197958532934469411e-01 -1.519193460978241483e-01 5.094286912478150908e-01 1.208552866309269558e-01 -4.912299716583316544e-01 3.786955985063162888e-01 8.398914121364760010e-01 -4.608278585545096395e-01 -1.983380449959931402e-01 2.093602243676974395e-01 1.116624210785560345e-01 6.273152673393452838e-01 6.688987374654177254e-01 -9.115263675966833734e-01 -1.072007565934934181e+00 -1.361867408997963214e-01 2.287442484284231969e-01 -1.061053109022725094e+00 9.723999047789779748e-01 8.690004396623541849e-01 8.183198736770910253e-01 -6.840174924862171268e-01 8.264683901853461800e-02 8.920658282382953885e-01 -3.799144560096352485e-01 6.679808466543257772e-01 3.221145921283520286e-01 -1.333362626990601818e-01 -1.119838994613508165e-01 -1.124257676947423498e-02 -2.534699879064874484e-01 -2.061855085116890418e-01 -4.551297448736235096e-01 3.860555460594801702e-01 5.409957001918157538e-01 -3.023909273076355042e-01 1.011619327616359199e+00 -2.123132793053091882e-01 5.329759423561262199e-01 1.529838200676457705e-01 -8.468071454031915746e-01 -7.714904302575376072e-01 -1.043907975505727226e+00 -5.977288159799717393e-01 -7.084800575476170037e-01 8.677175885117981435e-01 3.541226692543936183e-02 8.920545307077297759e-01 -1.087977707975911895e-01 5.541447294321115713e-01 -8.155643123000499983e-02 8.140167711708898857e-01 6.913916152613263089e-01 7.693465996526573925e-01 7.662830665230033200e-02 -3.003839633319573266e-01 6.049782108546644110e-01 -2.485595090099054494e-01 3.173748842275438964e-01 -1.320840645145423542e-01 -5.036104988552875250e-01 4.321076427558150912e-01 -1.930057683272726546e-02 2.346667843814985999e-01 -4.924226276157908644e-01 -1.870692722810817221e-01 2.847384315950238776e-01 4.796268212708926226e-01 5.657730497641750844e-01 -4.417220544861608644e-01 7.088179393487528124e-01 7.089256604211693347e-01 -1.685999461538668226e-02 -7.763525809134062816e-02 -6.440608760076671491e-01 9.701406683588079116e-02 -3.726629244462107415e-01 -1.039970548150697116e-01 -9.170360578333172086e-01 -6.420505241949033826e-01 -2.864041091649994764e-01 -7.003172943253100913e-01 -3.227318636291563458e-01 -7.727518360694947130e-01 3.321934916329681853e-01 3.546536897570012198e-02 4.287140638583647467e-01 1.208640857678403846e-01 2.065356114933386278e-01 1.263968641023577533e+00 -2.455448946284366218e-01 4.836941297597264211e-01 1.866357989407090301e-01 -2.883124259893519170e-01 -2.900322407763865629e-01 -3.667893982366056127e-01 7.719215197395594696e-01 3.799358484379724565e-01 -6.150026561146990645e-01 -4.024851458917526603e-01 -1.889370224137890408e-01 4.875645160580042298e-02 8.772342039791919399e-01 -9.621424301319535521e-01 -7.462147014487998664e-01 7.215758000780745363e-01 -3.609874365493548343e-01 -6.712695234465642091e-01 6.116413320699598533e-02 -5.545924317858509367e-01 -3.150940351545246654e-01 6.883702069351980146e-01 -6.130881623440573858e-01 5.508103179497967350e-01 -7.764929407437273223e-01 -3.584076992136465689e-01 1.839421968139661190e-01 -1.029595796121913764e+00 -1.150744988983404271e+00 -1.167661222232434515e+00 2.711286749420863118e-01 -1.239968547267944921e+00 -5.411222518479059940e-02 -1.258498803098577479e-02 -9.635667098755653637e-01 -6.171340307686994375e-01 -4.590288689315411008e-01 -7.601951035495190245e-01 8.363887981356802337e-01 1.301193982468582533e-01 -1.165143792068607242e-01 8.610358067088363931e-01 2.265541639069461599e-01 -6.829265763328533634e-01 1.827411084366747929e-01 1.041661605230737031e-01 -7.633180416299144566e-01 2.221845030671781851e-02 9.601333247087860956e-01 -9.547000694949315802e-01 -2.318895607652693425e-02 1.189617749663582913e-01 7.284714575540915948e-01 4.994613263778214796e-01 6.033407614152219711e-01 -7.996344529585589500e-01 -6.818668343950606836e-01 3.944271351489428978e-01 -1.141049877174693528e+00 -3.431544127438028724e-01 7.359300265957664511e-01 -8.585442704714151274e-01 4.150824256986023197e-01 -4.398318280788737766e-01 -4.174071501872145817e-01 5.025604919669912629e-01 2.749300483341081680e-01 -6.045899655245561277e-01 3.721396011626423861e-01 -8.090619266067031745e-01 1.953492759646313637e-02 -6.911062273103856235e-01 3.619930861496789554e-01 -5.745961678527016225e-01 -3.924397664328063140e-01 -6.648250965350631647e-01 -7.857161529588041482e-01 -1.002027459469497783e+00 -2.911342418900677576e-01 6.945359047057756419e-01 2.915291433634530360e-01 -7.235059720354918289e-01 -1.395459693184247230e-01 -8.674047770222723663e-01 -6.102567945102900238e-01 -9.298169610664192009e-01 -7.603087457400005134e-01 4.195605509938331312e-02 -7.563179001338371510e-01 9.855090596442193096e-01 -3.282185562053868133e-01 7.397105507465343566e-01 -4.375643101738719287e-01 -6.304089613357380939e-01 8.795778922908490394e-01 7.278034852954040623e-02 5.651641142827907860e-01 7.983248376124032486e-01 8.418986729643407330e-02
-8.387388159110880093e-01 2.955171752583820588e-01 -4.686064192636054671e-01 4.701111772312926984e-01 6.348726673047100366e-01 -4.866300922769868365e-01 -7.633337605554200156e-01 9.709909424531417699e-01 -3.220062924230109314e-01 -8.335934161800013786e-01 -7.537018380546114393e-01 9.623720222076763697e-01 -6.666695900331143232e-01 -2.064989014110314436e-01 7.628365913049880986e-02 5.246408505184115834e-01 -7.022381036095517448e-01 5.239708268530689494e-01 5.519698775339021424e-02 6.074359560812570002e-01 -9.730201715895829828e-01 3.419983170687324048e-01 -1.156464027987156307e-01 3.629288583042531435e-01 -2.462869696599168101e-01 -6.269910589178693261e-01 4.743880876687622816e-02 5.748942618715975339e-01 -4.177077150736183686e-01 4.860182969011903609e-01 1.531093205850431183e-02 5.931578464669227113e-01 1.988235417933560678e-01 8.570594937081630338e-01 -7.303175322285549997e-01 9.934960617260656379e-01 -6.579683520554706622e-01 7.148624038000375158e-01 -6.121868737217601719e-01 -5.810681156337828002e-01 -1.278226391242236193e-01 -5.210521015062046235e-01 -4.697484011588052288e-01 -2.973438868350078423e-01 -5.708685636044829037e-01 9.521717634058922686e-01 -5.664578068660803822e-01 6.138509176991714389e-01 5.743796755067284154e-01 6.005293567891946127e-01 -3.628845487393718705e-01 4.781599762027488043e-01 9.349928228689388110e-01 -8.870666014554018375e-01 -9.234029459867933998e-01 -8.506555065863370402e-01 -9.428133476448576911e-01 -8.152306675487017706e-01 -8.955454801744434645e-01 -6.328101909156588212e-01 3.595023961106678101e-01 -6.814374382068031366e-01 8.004089136042925601e-01 2.439476914457911760e-01 3.795458319636062505e-01 1.039683962406462436e+00 -2.839980865720955761e-01 4.888399715956935898e-01 9.337177307673443227e-01 1.023229537506498366e+00 9.497974560747705075e-01 -5.385670448789190434e-01 7.725671041033302933e-01 -2.014186524125648470e-01 -4.600821938992570859e-01 -3.474849135545394208e-01 -5.134046080501294407e-01 5.759643990979265160e-01 -9.265361930503704935e-01 -3.599420344821625539e-01 2.680407340428885843e-01 7.135645596701510884e-01 7.108319500594562079e-02 2.740633791662683283e-01 2.208784776369672187e-01 7.706399822954259626e-01 1.268116080551079106e-01 -4.489469887864436237e-01 7.596035498033234523e-01 -3.402241309921078538e-01 -1.735370109383508608e-01 -3.562229875788568423e-01 2.389794865627170306e-01 -8.015851977054417876e-01 9.769131831476420835e-01 1.003069043908129121e+00 -3.027986416094303745e-01 1.525596154800797244e+00 7.320203781828977796e-01 1.544182038704871252e+00 -2.503208614800190787e-02 -2.927439405852690357e-01 1.119814910505526839e+00 -2.166438889440787108e-01 5.620198199819029794e-01 -5.553269734622576781e-01 -7.123345907007203603e-01 -2.061369570510607485e-01 -4.600262904515243223e-01 5.846203268351642945e-01 2.225558019898997153e-01 6.254977286005991566e-02 -1.755513544940912052e-01 9.738190660062823190e-01 5.591087645846493093e-01 5.492409113449865377e-01 9.789755061116353074e-01 6.368488243684571060e-02 5.625077608466771961e-01 -7.468786791553797544e-01 8.556634487675960354e-01 -3.003602321027880051e-01 -5.605312691615718101e-01 6.763983354205560516e-01 -4.887765059988464778e-01 4.785360469703681674e-01 2.288542000317781433e-01 1.440317981154079163e+00 2.319948359232003876e-01 8.464173064659377133e-01 8.717350421508809344e-01 -3.850669273157523720e-01 4.015098245106563657e-01 -9.470503472743235784e-02 -1.232074046267789269e+00 -2.436165544530344840e-01 -9.755826092205999167e-01 -4.085287458665933236e-01 -2.215185317195063619e-01 -3.074583377051408606e-01 -6.442003056789364912e-01 -5.242572959390054965e-01 -7.840580314948764062e-01 2.338241155300222196e-01 6.031400668816075950e-01 -9.515672998209648847e-01 6.444775145253951454e-01 5.572085818331673490e-01 2.001365893781739957e-01 1.978835583794192887e-01 5.662885677886703162e-01 3.400073687436041547e-01 1.037459980261075110e-01 1.055240275902778579e+00 -2.474787669209778940e-01 -2.056581143957844082e-01 -2.790235499213895576e-01 1.460340289750810427e+00 -4.410615138199882601e-01 -3.041684930266862485e-01 -9.334492139790269427e-02 -9.251897031290871043e-01 -1.299212979469354934e-01 5.966770603721573973e-01 -1.075238828169943206e+00 3.070839807373092478e-01 5.000670385569034870e-01 -8.405332741399630381e-01 -5.095874540627467475e-01 4.984110616090178802e-01 8.832873713431097507e-01 -2.487144924273378965e-01 -5.795758191491735545e-01 6.694028839163206346e-01 1.594310818421963427e-01 2.313639810518186013e-01 -2.704982654801788566e-01 5.071222176355484335e-01 5.105417285615866385e-01 -2.737784398667689745e-01 -2.201125434861153918e-01 -1.845863580107929280e-01 5.874074649871374731e-01 -2.104089078378653110e-01 2.085436341021187079e-01 -5.930964193067695955e-01 -7.306986048009844747e-01 5.551760317570803016e-01 5.967326438009505907e-01 -2.388780242229154027e-01 9.445573236465068523e-02 1.102891479480669346e-01 7.007493759711600489e-01 7.684191198932198708e-01 8.440079953789283440e-01 3.345477767723873952e-01 5.121141632341505989e-01 -7.300836499643904576e-01 8.003713490471667802e-01 -4.885236454673008710e-01 -8.885396035714090424e-01 7.265595150611181552e-01 3.920647517533320525e-01 8.170706228987850706e-01 1.931166133997600787e-01 5.953917622006353882e-01 3.511906993746479605e-02 -2.141770311019229878e-01 3.400763105505858475e-01 1.434003297714075975e-01 4.399313992783960847e-01 4.056721373207441972e-01 4.808000664196001583e-01 3.264989204171966364e-01 -5.078374553662063917e-01 4.933557658307528015e-01 -8.366329569372746855e-01 -5.822963342169255041e-01 7.177488401614725566e-01 -2.041087343149357303e-01 -4.348320711871604960e-01 7.945192173756392418e-01 -4.458557160862310909e-01 -3.446342801505684894e-02 9.478368047244041250e-01 6.482769616540910995e-01 -8.647069012385640852e-01 -7.036449864732208237e-01 2.036902149194544376e-01 -3.941570681831856326e-01 -7.334244909397229506e-01 -2.309334138250562496e-01 -2.139373636460885630e-01 -4.565844015046308102e-01 5.632841452471436527e-01 3.659549833572285915e-01 -3.629031144984198320e-01 -1.292540211135135564e-01 7.533411558352227644e-01 6.228459579948005809e-01 -6.766412431497703661e-02 5.317061546765452507e-01 -2.043753576106403184e-03 8.782729517661062857e-02 1.026437699749348731e+00 1.232164882102578130e+00 7.815269652145402368e-01 1.492571007671778194e+00 8.604395116677600042e-01 1.074080975273472127e+00 -7.207838105931436701e-01 -7.045465794759357692e-02 8.070224037821412955e-01 1.722092602042403497e-01 6.068725671774908292e-01 -8.817438922399946089e-01 3.388477186460016610e-01 8.603676306012886243e-01 -3.246285389426738915e-02 1.060742172921325999e+00 4.537880704867882087e-01 -1.572069728336981595e-02 7.388341594337271001e-01 2.822656524947864676e-01 -8.455296355891259719e-01 -1.363872344564861228e-01 1.295494685278101958e-02 -3.695998947458959405e-01 -4.148741663526834822e-01 -4.979698099621130969e-01 -6.202819740836242879e-01 -4.374791687497151527e-01 2.885577756241285430e-01 1.102966208275062143e-01 1.348775026580550040e+00 2.775465272469195832e-01 5.412752302312499042e-01 2.644270682890866309e-01 1.096739931383446276e+00 -7.600410904902372700e-01 2.334698738182653110e-01 -5.830338828983532284e-01 1.379175667115319082e-01 6.810313510165114659e-01 -7.461233708771458639e-01 -1.347182612208907282e-01 4.571820832180170657e-01 6.268718897171801085e-01 3.254796242303126252e-01 -1.313230698790047168e-01 -3.273554792062985386e-01 -1.183114315773575870e-01 4.069846354553707801e-01 -3.113938466088012752e-02 8.213466071585580341e-02 6.705674679774946412e-02 3.098810201417195320e-01 -6.025493030748274581e-01 1.000097261811735277e-01 -6.014819751237591161e-01 1.611113124197259605e+00 9.298384913183474487e-02 9.660462820955463270e-01 3.998118468275533854e-01 2.842092984499144936e-01 4.795600754279158995e-01 -5.528865085321666983e-01 1.189098715481844426e-01 1.827290528962565441e-01 3.059624645707088031e-01 -9.982330353050505867e-01 -9.272036945416907150e-01 -5.170661154311303465e-01 -2.005545463551001995e-02 -4.723312338305248881e-01 -1.475313885342302289e-01 -9.078957552347255433e-01 -2.424533351105080947e-01 2.984797410956905317e-01 -9.635555258922673394e-01 -4.093549733308539662e-01 -3.996696174542099106e-02 8.555317260285417724e-01 -5.120675471489685160e-01 5.337088935479330533e-04 -1.383772849076284395e+00 -3.470684062016829441e-01 -7.508332939945282225e-02 -8.925077130897780542e-01 -3.785449376744100536e-01 -2.044131249362455063e-02 1.850526410851040859e+00 1.119719738574595169e+00 -2.674015480442776260e-01 2.929795730645462504e-01 -7.764334743947014505e-01 -8.476823449651552655e-01 -5.650964213784580581e-01 6.588629907802492358e-01 -5.155987585360503056e-01 -5.414961573945453743e-01 -2.660599699489017006e-02 -4.689966099775684794e-01 -5.370125662829223767e-01 -7.742289642092329283e-01 -1.063932419292270115e+00 -6.029352581222784391e-01 1.016537289590376369e+00 8.809106629639112951e-01 -6.981549719827542799e-02 8.013887677733226855e-01 -2.020295391066687374e-01 -1.170477339253854110e+00 -5.964767778498886175e-01 -1.307144235521093156e+00 -1.571751513949584123e+00 -9.058622034787308097e-01 -5.868892224542195946e-01 -3.510237445533828660e-01 6.353449215700988084e-01 9.068187169539946441e-03 1.054532416437548470e+00 -3.913581964521512524e-01 2.528964800576861682e-01 -1.849312588052077211e-01 -2.890644116528707785e-01 -6.102325373029198197e-01 4.879376936577123347e-01 -7.135572262470279981e-01 -7.605642236867506956e-01 2.531259813645397316e-01 -1.140042990954399871e+00 -9.591402448592729613e-01 8.800759777773835557e-01 5.325769486867469871e-01 1.350098631782683800e-01 8.152876045759360757e-02 1.218393096183906010e+00 -3.997232550970837295e-01 6.581935620012643318e-01 -1.150041039576825685e+00 -1.790780959017723273e+00 -1.406375761429003113e+00 -1.136867710795129938e+00 -3.799679533311765001e-01 1.961178187102625980e-01 -6.303005172835208780e-01 5.121298266913080210e-01 5.034282493879140841e-01 3.159651484504660268e-01 -4.431242621542380578e-01 -8.300923827384181219e-01 5.320830966384870742e-01 5.496759884003403762e-01 -7.093555932050304991e-01 7.394632971043496594e-01 2.352033155400224118e-01 -4.278707005515398620e-01 -6.697969710405672628e-02 -5.359690971341228849e-01 -4.103229485429524814e-01 -9.138323909094260289e-01 -6.637151813721171856e-02 -1.356722077202470733e-01 1.533519424102820772e-01 3.969527950236858560e-01 -1.018226174836291131e-01 -1.884322786994723775e-01 -4.347732582922634315e-01 -7.262498871197793360e-01 -6.463412829620834854e-01 -7.464012799260889564e-01 -7.578768734462136836e-01 3.886115950080400450e-01 -5.208505065993085381e-01 5.328297227056970342e-02 7.452092285719540410e-01 1.322620445809154395e-02 -7.595329005363010699e-01 7.165176473303994653e-01 9.726883357811303421e-01 -3.756298036784000427e-01 -4.339263686587948587e-01 4.521930802355247220e-02 -9.953571872636499673e-01 -4.517668909454323201e-01 -4.118692265677867392e-01 5.288905744580296719e-01 -8.892053231525257617e-01 3.812514769527525216e-01 3.951899558378292321e-01 8.486083347091578633e-01 2.645648216726927404e-01 1.711875068245997333e+00 -5.862346008421503996e-01 1.454590481190858320e-01 -9.272326578555917242e-01 -1.910852170320391785e+00 -6.399524648551380146e-01 -7.916972821231245128e-01 -6.066802794064649618e-01 3.942362924049900852e-01 3.478002269112618894e-01 1.839927906650927827e-02 1.470268380660719187e-01 -2.548544353715325068e-03 -7.004555259185372140e-01 6.311622373994281165e-01 -6.390171246718924225e-01 9.660401017229017784e-01 -2.503401976099506876e-01 7.343135839426459532e-02 -9.960893925048888153e-01 -1.971623950037054360e-02 -8.109876012153891534e-01 -4.187475732473822099e-01 -9.512960261135127160e-01 -2.575712116962209919e-01 7.213963150584515871e-01 1.083488372953615553e+00 2.904095164546434127e-01 8.926111482489663684e-01 -4.019372559495342223e-01 -3.514489563531777994e-01 -9.231942539131222647e-01 -2.122786901626375400e+00 -3.735480454155323815e-01 -6.692964169124886453e-01 -4.502046583242944044e-01 -1.006724275656194267e+00 5.458058678553403542e-01 7.721448166777294952e-01 -1.476545167190313271e-02 9.787357760646171745e-02 5.046800594849023408e-02 -3.519955363281170868e-01 9.068556462818539998e-01 7.312966372437513796e-01 7.842603203322258132e-01 -9.092674844677349766e-01 -8.964705364283549471e-01 7.386344434625400357e-01 -4.174150320504081968e-01 -2.385786258953167815e-01 7.343433848796961094e-02 -6.665887315673671987e-01 -1.670810488035913977e-01 3.148497679313505548e-02 2.416952925190185286e-01 1.088424678174773730e+00 -6.280663350740559592e-01 -1.868731240425653750e+00 -1.190815222010249835e-01 -5.892803448833309199e-01 -3.683171679327870152e-01 -4.730678345164203158e-01 4.260352826662107129e-01 7.366798246956248741e-01 9.769917147214587372e-01 -6.565936323985475109e-01 -8.461521850994200289e-01 -9.954939561045567098e-01 6.002397369865218879e-01 9.330396395474013227e-01 2.618948008057295218e-01 -4.963824010809527176e-01 3.700094029457741684e-01 3.834760313451194835e-01 -3.246585552818882503e-01 5.363956312563449291e-01 -9.276093764215273541e-03 3.951505244967748465e-03 -5.752020573697435024e-01 9.255191557487630893e-01 -4.413020127290583350e-01 1.454259992486765241e-01 6.903160959464875734e-01 -8.482617642592892304e-01 -4.748746812002277995e-01 -2.381188343983584865e-01 -4.160845152777282729e-01 9.904132265122211898e-01 8.183135979969429208e-01 5.991540212880018812e-01 5.998135476497550300e-01 1.354507424649306513e+00 3.647504614366594566e-01 1.263354178153970997e+00 1.107893147917096588e+00 1.833711968221544975e-01 8.157383031235631021e-01 -6.284085409620525642e-01 4.641494743146648561e-02 2.479266831461296797e-02 4.555184129260801407e-01 5.434813142317733714e-01 -4.462570963237948163e-02 -1.832655246580755515e-01 6.907490887745267871e-01 1.360429830080615909e+00 2.939769830376034454e-01 1.509153071593041684e+00 1.891045290548377444e+00 2.114084525236761825e-01 1.191681037246915320e+00 1.558674262238573804e-01 -3.690947796182168505e-01 8.113999173245806107e-02 7.528197513544081509e-01 1.366627153524988258e-01 1.061076289998690747e+00 1.044160794545300641e+00 4.818648112383439597e-01 1.920289419548292312e-03 1.649886301528663335e+00 1.574076781048307228e-02 -6.431783381190983029e-01 5.927896995753073606e-01 -5.383414406015546438e-01 -1.211654882616625684e-01 8.446203505098364150e-01 4.661589871626597298e-02 6.097821061743483595e-01 -4.697459591997965034e-01 2.554102474280200985e-01 5.863046231468486275e-02 1.597826906899701083e+00 5.447020771645110226e-01 1.650176010247626834e+00 1.642124815715186648e+00 1.673072616001557211e+00 1.861408222225818143e+00 9.426055363577616752e-01 9.342475195161602519e-01 9.701746069744560108e-01 -5.286408721932750465e-01 -2.569044479466937037e-01 1.249695960540158968e+00 1.285841093277107605e+00 1.539272351526662863e+00 1.050639356690349357e+00 1.356166207965157744e+00 7.155537906526080461e-01 -5.720994390143607777e-01 -2.524330674400949159e-01 -4.692721975091387332e-01 5.781871772713756963e-01 -4.052114106511595093e-01 -2.836907430136598185e-01 7.573442876704399723e-03 -6.382363297819080294e-01 6.296326566408958492e-01 2.136939251061134304e-01 7.503588702045780323e-01 5.710017268067318907e-01 7.108263872099418457e-01 1.569645101051328817e+00 6.549373597027673410e-01 7.868854979625040658e-01 9.614147456175270445e-01 1.703690142194133061e+00 1.259327614400503892e+00 3.820605301147352861e-01 7.357356740854885668e-01 -5.766315797789542952e-01 -6.001055696981861809e-01 -2.191422942987267808e-01 5.982004992774895280e-01 7.625459804777208195e-01 1.172546472429023323e+00 1.167970186503503927e+00 -2.495998874627662067e-01 -1.349775175063916421e-01 3.440507374640886518e-01 -5.334640760919748259e-02 -9.556977595478949317e-01 -6.104372995231469590e-01 5.828962433551642119e-01 7.038133220407225554e-01 3.663100990390532607e-01 -5.543178758632486547e-01 4.893190217141964449e-01 1.228371322496517593e+00 7.413190271441588708e-01 -3.535789089023311238e-01 -2.275990710917231985e-01 2.439049470724008184e-01 1.028516740892511772e+00 8.391983156477308414e-01 5.941689039284643314e-01 3.619595309851001419e-01 1.375316902781461015e-01 -4.349833764446011525e-02 -5.830245602183093956e-01 2.465848332934778009e-01 -7.258719720667691222e-01 8.601730030452497955e-01 -1.016778924322749300e-01 -7.508908863977312720e-01 2.293408796970229091e-01 6.414095868698378722e-02 9.810816985952515168e-01 -6.202262841023724327e-02 4.918306692487001142e-01 6.024127647473878078e-01 2.777583502196372400e-01 -4.325936714437638164e-01 6.469440821380165740e-01 1.352629100081743571e-02 1.096207520561540694e+00 -8.799216359486400352e-01 8.012784792457589012e-01 8.898700491451609906e-01 4.336652538481703956e-01 3.176169579255430087e-01 5.545859505426348202e-01 1.108899962290772478e+00 -1.944773718117966468e-02 5.465538044970750242e-01 1.121698497124183014e+00 8.011776411600839420e-01 5.965216170500178272e-01 5.265843736463434593e-02 -1.004761499203962849e+00 -2.980771329661626723e-01 -1.269381896477466354e+00 -7.493688043598523141e-02 -5.057003132587005734e-01 -8.875652015451175325e-01 6.896168772412966108e-01 -5.695783330297451430e-01 -7.779970734348020667e-01 -6.066639841409657841e-01 1.013098124872566785e-01 -9.179932180893791982e-02 -5.939927508690122648e-01 7.761012174164818589e-01 -1.002743755349888716e-01 8.156363457900112079e-01 7.891134667776195100e-01 7.506859457588470619e-01 5.326554804071904625e-01 -4.333632767837566208e-02 -1.538564614317282087e-01 3.763480791360159228e-01 1.153586876221832425e+00 -1.222546473813836271e-01 1.439705917541730607e+00 1.131033936553653030e+00 3.202801021288425032e-01 -3.550646832810679943e-01 -5.693339227082305776e-01 -8.066289023794255275e-01 5.698383620382122539e-01 -1.046290335888230949e+00 8.866461760596798802e-01 -8.489932873594664420e-01 -8.397978140938452407e-01 2.908468370997265851e-01 -3.997640655316221370e-01 2.120401772056417222e-01 1.893367220894637271e-01 7.240514420346149116e-01 8.936657322400083370e-01 -8.851760787901833405e-01 -9.252777249970618456e-01 3.725219752202911516e-02 2.089425691139556174e-01 -7.430878014147914712e-01 -5.306066100290073306e-01 -3.663870258882233055e-01 5.467155472533919980e-01 -4.335039587971422081e-01 6.781668678366553626e-01 1.704777525510159930e-01 5.831931343628602438e-01 -7.196776521802418225e-01 1.221583106239011007e+00 4.866792304892839649e-01 1.589615315703974407e-01 -5.285504805758860503e-01 -2.324152094015366765e-01 2.786255244508107909e-01 -6.043484448108771279e-01 -2.077476411752724739e-01 -8.169936327944686549e-02 -2.768109782689159304e-01 3.178831879797547888e-01 -4.384844061023969175e-01 -7.138003792782041668e-01 -9.998715740331440838e-01 -1.618983814807670452e-01 -7.539624654446629437e-01 3.459886487397427768e-01 -5.949896648974123403e-01 1.579716995904262844e-01 8.333859442667680417e-01 2.829555547494401191e-01 2.833882983424990676e-01 -3.152976210528135037e-01 8.820245889476501233e-01 -8.006932184084800674e-01 7.083181299611002180e-01 1.605181007167423013e-01 -3.795812491029929014e-01 -9.431816893884518160e-01 -2.049004730870828683e-01 5.273411572769038935e-01 7.128423474855058450e-02 -9.211797186827783701e-01 -7.332038796011224324e-01 -6.734700526131945364e-02 3.142912067438006218e-01 7.183222557381221396e-01 -5.066967962594726149e-01 8.069614088029524179e-01 6.897854205360471891e-01 6.489830005458636641e-01 -8.321515401345276342e-01 9.095405196787176294e-02 7.376433056989291082e-01 4.705459544647953019e-01 1.784528305679344970e-03 6.771340711310428473e-01 4.949027592524068986e-01 3.951081634998063752e-01 6.535362137548552663e-01 -7.735304276970667026e-01 3.329953917793166962e-01 -5.237514798089745183e-01 3.811697872164686030e-01 -9.165403997062877839e-02 5.955568021942222318e-02 -6.818098995304943122e-01 -3.441783260281007506e-02 -5.688936733192601070e-01 1.986615998493348467e-01 8.237839229303451916e-01 -9.216379959126013155e-01 7.894840113005280324e-01 -3.522579935381855432e-01 -4.500498214071821934e-01 5.633253990245281617e-01 7.020895877372395066e-01
-4.248122483465870403e-01 -8.554055998127338967e-01 7.191952169471145240e-01 -5.590500213250284567e-01 1.507739377304337935e-01 -1.150136539687851567e-02 -9.160037204520421472e-01 -4.324140097753030876e-01 -8.284317622522725522e-01 -7.609875217662944724e-01 -6.613427922667700631e-01 -9.009101573276963038e-01 5.595159187526388411e-01 -8.706010247418485282e-01 9.289801566123931931e-01 -8.147203213485695317e-01 3.878037685087316611e-01 8.177809707215544233e-01 1.638975425054352009e-01 3.961628515122097571e-01 -9.742538207927557981e-01 -1.916041273091704245e-01 1.288111092731045737e-01 -8.076159347542342104e-01 -5.249875184555921059e-01 -1.697338662210301496e-01 5.274813261715565194e-01 -3.740557084459934512e-01 -7.003512741564930089e-01 -8.904201601523067389e-01 4.466753464443256050e-01 4.237968063716073264e-01 3.050774295234187083e-01 -3.477514562654218655e-01 -8.879893634073825481e-01 -7.432231066006871334e-01 9.782186699915482175e-02 4.735801007299175192e-01 -7.150117417758349303e-01 -6.363921741504216523e-02 4.909154211239357690e-01 6.193475465713601386e-02 2.038878801570585542e-01 6.740316923879894340e-01 3.729120147054375972e-02 7.251630019274826200e-01 -1.187093650198195321e-01 -2.771336503578925026e-02 6.518518581997284622e-01 8.054460713663017524e-01 7.434496544217462644e-01 -5.076240898886241748e-01 -5.503136637468548642e-01 -7.149705279690174997e-01 -9.287960780500807978e-01 3.263709643524876913e-01 9.810769377237567035e-01 9.109020655308939229e-01 -9.866658394555270772e-02 -3.225254927023503693e-01 9.520837439247017420e-01 5.431639743463895914e-02 4.862620548512309737e-01 5.295933665341479024e-01 1.014311043187647421e+00 8.112081734760496765e-01 -2.465526591197979289e-01 -1.567759374724956856e-01 -6.861826435708244798e-01 1.066908446917633757e+00 8.800526744875242224e-01 7.449250600542442480e-02 -5.738722810625961762e-02 -3.786289430420301527e-01 -3.987668329607038098e-01 -7.474602219475053877e-01 -5.711761129698654793e-01 -7.586388062012608957e-01 -2.692854018053431608e-01 -5.266026317813181368e-02 4.538606507445197558e-01 2.697561951728193463e-01 9.244780464887178972e-01 4.169817600063177032e-01 -1.929084386793740169e-01 -3.951321441624300324e-01 4.432706982367706772e-01 -8.066730489175206742e-01 -5.490220870883389948e-01 -2.277689873147918931e-01 3.790162399043814911e-01 6.323316002245602530e-01 7.080142022339462882e-01 6.603242967132693098e-01 -5.499336133922522185e-02 4.762158896906868930e-03 -4.502842083101716852e-01 7.302809738853561772e-01 -1.325532580556648965e-01 1.022139342456678035e+00 6.710601256999512709e-02 -3.243248854025441164e-01 5.808326658709712653e-01 2.369120526272320421e-02 -6.147099249998327908e-01 8.530800744445273809e-01 -7.875198284154639738e-01 6.890230254378526542e-01 6.898848712947222017e-01 -8.408530372657995189e-01 -9.233894250728282016e-02 7.978047817096451944e-01 -5.644784774657001236e-01 -4.226569333604928702e-01 -2.682547415124040269e-01 -6.745751732505921305e-01 -2.953858255353204038e-02 6.536846203336874606e-01 7.163106586900466199e-01 6.771907699854294582e-02 -9.176589289789325102e-03 7.309267230365152912e-01 7.377440357914328839e-01 8.579555362107699201e-01 3.936717022655156217e-01 1.455849569354673578e+00 -2.544966394093775564e-01 5.610088993804697166e-01 1.254136179000998608e+00 2.978354297424388730e-01 1.682747714546469320e+00 4.162052788397980763e-01 -4.454738337734963083e-01 -3.262145930931107385e-01 -6.372596367883378576e-01 -5.996887564625230649e-01 -5.314030501747269569e-02 -1.894773035492475499e-01 -8.403352653415363527e-01 -1.577723660680438178e-01 -6.382696691255251853e-01 4.011469671749250399e-01 -7.293460900592569907e-01 -2.856243873453387927e-01 2.860806377935674882e-02 -2.272923497086730416e-01 1.100313182932115552e+00 1.383335999793491755e+00 2.942720355155531084e-02 6.039115853706910064e-01 1.737027422944182886e+00 1.253094567035957896e+00 1.278284268513194766e+00 -2.906247902432781416e-01 -2.785005887854810624e-01 -1.838846222852006385e-01 9.626536180653701147e-02 3.827441496147109684e-02 7.749183029639743481e-01 -6.753678664264681775e-01 -9.665489979099185502e-01 -7.603211998663237381e-01 -4.381403261319928299e-01 -1.191388807763495289e-01 -7.214529759649817020e-01 -5.377049272683381842e-01 -4.098998852363486267e-01 -6.876565259326155033e-01 -3.567576481620604589e-01 5.663291129920882128e-01 -3.453428926880434680e-01 7.784426815397662569e-01 -3.952571337374811283e-02 -5.784549609018145855e-01 4.106453842026533407e-02 1.152920841339903246e+00 1.149202512145709898e+00 1.325554828392231821e+00 5.806053319925228440e-01 1.760579292728575935e-03 1.062107064145634050e+00 1.020759207156790804e+00 -9.643533971593117871e-01 2.721870704027837817e-01 8.837913222153737092e-01 1.568184170338657424e+00 5.778617864122338466e-01 -6.647934189280875206e-01 -2.127238794504266450e-01 4.611082909051628098e-01 -4.328960027823433587e-01 -1.869668937826733934e+00 -1.035890671888155978e+00 8.442262037249266271e-01 -6.191955877041700473e-01 6.486967155667036633e-02 1.233314174440009181e-01 1.600708231016116645e-01 9.840699939267947283e-01 1.907434817358830415e-01 9.692461489318742185e-01 1.172416138187412971e+00 5.457276409568682096e-01 8.167306120280708459e-01 1.375975247101371424e-01 5.483103118009032828e-01 5.648335917284076357e-01 6.844342645628845867e-01 8.980751424269687311e-01 8.609947276481194622e-01 4.170236501640048332e-01 5.245385075248590878e-01 -7.256138271558467689e-01 6.656252541210188056e-01 -5.898793459562164943e-01 -6.148002889189311260e-01 2.245586244932224751e-01 -1.039047256696516985e+00 -8.130454957634625224e-01 -1.869298227417457881e+00 -6.063757236071986023e-01 -7.977907105962282752e-02 8.032183398847703160e-02 4.436473674307496173e-01 2.083733262153959487e-01 -2.460983477183395773e-01 -4.281809213667238101e-01 7.201621376303356525e-01 8.944445453844829252e-01 9.498746287761620222e-01 1.261088524008717959e+00 1.270158443092270550e+00 1.047217778891700979e+00 4.185495502918752941e-01 -3.812299300266084878e-01 -4.298055691207600115e-01 -8.876731628367273697e-01 -4.581966896226941643e-01 9.687841915429732387e-01 1.101076959306146685e+00 -9.077408584647787826e-02 -8.514968734950796592e-02 3.299005522331667217e-01 -7.814887742495677525e-01 -4.440639452085023975e-01 -5.296198066570901863e-01 -1.234964973503057672e+00 -4.591288417385930298e-01 -1.778497958252753808e+00 -1.290639540858512513e+00 6.781346084143241582e-01 -9.175022183437357981e-01 6.024909081035749736e-01 -9.785781296895621484e-01 8.734041253247932790e-01 2.416595686233090623e-01 -5.817897593496100805e-01 -6.315698065340453748e-01 9.019560810431364040e-01 2.973593717762555433e-01 8.450954304539332052e-01 9.835077064966033650e-03 -5.021331383931318948e-01 -5.663642315375307934e-01 -5.757453287024211219e-01 -8.702355923461650988e-01 2.448576017161898863e-02 2.144113371672859536e+00 1.594578035763483115e+00 6.118943219645905929e-01 1.386642195810922740e+00 2.549045342415701687e-01 -3.811257433871040878e-01 -1.524490570323539518e-01 1.038934305336897540e-01 -1.519232534703042647e+00 -3.044025365779688963e-01 -3.862132445568433603e-01 6.670774149031230560e-02 6.768214379423138638e-01 -9.045063370328840224e-02 -1.488892901469946184e-01 -6.256144274667985172e-01 3.912880126190513286e-01 9.672660912994874849e-01 -3.750964082534150035e-01 1.362178092216651537e+00 9.629600958411649314e-01 -4.895550489154568141e-01 4.971246265481902848e-01 -8.746713287904889222e-01 -1.199031530677636237e+00 -2.029232690214826551e+00 -9.684103613560958168e-01 3.523055660943643086e-01 1.993177757156045227e-01 1.617176267429811132e+00 1.132428260745539150e+00 7.072569749334471911e-01 7.299578596062533675e-01 1.366661107430198419e+00 2.891881165604130999e-01 -3.761116632112174174e-01 -1.441386358093044606e+00 -1.308588174690857420e+00 -1.369359237152406372e+00 -6.482595157681900200e-02 7.896801863697041624e-01 -7.888178913789588576e-01 -9.116303992207884788e-01 -5.464364851277836443e-01 4.016602189037073445e-01 -3.560334853238694142e-01 1.043777748661761429e+00 -7.287861950741200689e-03 3.150120878218796161e-01 3.915971964797733684e-01 -1.698636436887883128e-01 -1.202694163154637508e+00 -8.858362508387072065e-01 -9.434847440022190446e-01 -1.888902105500922968e+00 -9.950348582298581546e-01 1.711123877594020737e-01 1.110669713800325475e-01 1.079534787353207514e+00 5.239268155106044933e-01 1.445965430593934453e+00 3.363702411985323160e-01 -3.100002954415632672e-01 -1.957735519869581442e-01 1.417178621577877724e-02 1.551506147840308047e-01 -3.343592639839326752e-01 -1.637985595435687003e-02 8.486563016546839755e-01 -7.580712571763168484e-01 9.378184215684692848e-01 1.584849534972538609e-01 7.260930470622299904e-01 9.611980192772215936e-01 1.061346386440996215e+00 6.395034265088397341e-01 -1.903216038158349055e-01 -3.510720482549603005e-01 -9.581529176406755610e-03 5.163444216254454711e-01 -8.148959932227962666e-01 -1.213771611885390067e+00 -1.547237839391759406e+00 -9.978980233134168154e-01 -9.960446504525491962e-01 -3.971501490054771960e-02 -6.193930381273629049e-01 -3.884456206503499875e-01 8.609358355206826463e-01 -7.877169751147367061e-02 2.661293195536510447e-01 -8.269294291192823554e-01 1.181652605506355730e-01 3.465449959520889855e-01 -1.021180945174981369e+00 -8.216476529798591999e-01 6.932001059922752173e-01 -5.391533475892217320e-01 -5.180142309973819748e-01 5.874324231414509434e-01 6.861720600851909380e-01 -5.973131769837014549e-01 -1.630068602860936244e-01 -7.956877829342599850e-02 -1.645709867907806656e-01 -2.146097316801843236e-01 -8.121031031297468727e-01 -9.483834009421603095e-02 1.264400611874226366e+00 -2.283858047403921343e-01 -8.348176467823045233e-01 -1.167345252796299082e+00 -8.326872421571809291e-01 1.841237149741358978e-03 9.724081901884951140e-03 5.337484825945477684e-01 1.164230022244580470e-01 7.293405969731139304e-01 8.530611420040886683e-01 5.721654545675849413e-01 2.112667905883064412e-01 1.904699536483675237e-01 -5.252161675029876076e-01 -2.909614240038794764e-01 8.418026509589035533e-02 2.185260656384146460e-01 -7.984476836447320647e-01 8.437150637746334558e-01 5.359542549278027979e-01 -5.420901102162999363e-01 -4.117690497418590723e-01 -4.923928169483081096e-01 1.421522805526842070e+00 4.943954533369443460e-01 1.372060732878522815e-01 1.026705523408712351e+00 -2.685844429981421033e-01 7.970382424333678495e-01 -4.308405815095388280e-02 -1.157282609593826450e+00 -7.927083815464617267e-01 -7.558440577233747071e-01 -1.449826597297073638e-01 1.441615022649710420e+00 9.021476891390656228e-01 7.609687642228316617e-01 1.442991906708370076e+00 2.264026413934820403e-01 1.967636042695205256e-01 7.628387874949268399e-01 6.732293035086250876e-01 2.447320886069427603e-02 2.727323327243133533e-01 2.147916579999557471e-02 3.907840772265600005e-02 -1.410135211735274174e-01 -2.676441811927294245e-01 -3.998276950342054548e-01 -2.435655772134795449e-01 3.410108162972368961e-01 1.569855923101931783e+00 1.023766006708028309e+00 -1.529262816073832798e-01 7.895754020722410838e-01 -6.019782930607253668e-01 3.581272049509107158e-01 1.612469451938715326e-01 -1.097839598138821010e-01 -4.741728400575438429e-01 6.999960442858413900e-01 -9.368623136052713074e-02 1.034590712238637744e+00 -2.088452805073222618e-01 7.605235701486294797e-01 1.066588161104002674e+00 1.087987472229019481e+00 4.867103585449762404e-01 1.276638389098467385e+00 1.477454108465030003e-01 -8.659692342934501852e-01 3.021417295621539045e-01 -8.854353465262757572e-01 3.260626264445037337e-01 -5.830048813611031777e-01 2.671852645581324626e-01 -7.072829388953041363e-01 9.071593836561790969e-01 5.917046666057078630e-01 7.994601860502009716e-01 -3.006142905411517963e-01 -6.812310820725548943e-01 6.425927865835362462e-01 -5.358204019086276054e-02 3.444273737183227713e-01 -2.325795870414699706e-01 -1.024792294011283994e-01 1.438870262914478948e-01 9.906616075286167611e-01 4.786372422514346692e-01 3.742496373378019214e-01 9.104450547057242327e-01 1.261451970852263571e+00 1.109845944839099374e+00 1.013107967679184318e+00 1.279818429531128343e+00 3.242225178057768775e-01 5.707295713611491017e-01 -6.606739816512422481e-01 6.259773572044705636e-01 8.835729983608819893e-02 9.444251166277135567e-01 7.672347555627704319e-01 -8.602460973126139221e-01 8.818980558658435775e-01 -2.604329207805278212e-02 -5.487664320340303048e-01 9.264395737292066002e-01 -4.390501521751355996e-01 2.106188355617340802e-01 -2.507266649785796706e-02 -1.574634774716831276e-01 -2.163253610214104783e-01 -5.036293878199071816e-01 8.782901512822648138e-02 -8.000517250114137502e-01 5.017396885721846500e-01 3.324023940202882610e-01 6.576489908179816712e-01 1.059008083932652777e+00 1.446281291935659796e+00 5.540170930753673256e-02 -9.969790905771899747e-02 1.048864924954281408e+00 3.210254808767795121e-01 -6.074210611189203579e-01 4.864344269998753800e-01 -3.424025596601112942e-01 -1.592374981776407128e-01 6.104505560184234625e-01 -1.622245795042668876e-03 -2.039018574701885189e-01 8.607388888167982754e-01 -2.458495045815475011e-01 -6.403085504502620262e-01 7.516244344322663140e-02 5.782297173641338661e-01 -1.084390253882369537e+00 -3.315758966851072853e-01 -9.127198300591086166e-01 -1.373575808226561223e+00 -4.358422756072186655e-01 -8.263848426941102776e-01 2.456460942863758490e-01 6.602705528953434211e-01 -2.506607376908682183e-01 4.495444342427924733e-02 6.825742287691850541e-01 9.941170744106947454e-01 1.666491703774784394e+00 1.196970812024902742e+00 1.487008801783098244e+00 -2.559054812136557500e-01 -4.353029433887234401e-01 2.640310779636094174e-01 4.988433460563410637e-01 -5.447628268114740324e-01 -7.539416088612137523e-01 -1.533674071547330708e-01 -7.055583137359591195e-01 1.052356649141957368e+00 -2.458074337161991474e-01 7.955533950429703738e-02 -3.981823133673276782e-01 3.574817707721624216e-01 2.516795787861090261e-01 -6.618381918776909678e-02 2.719235420423621874e-01 -5.425454491346191066e-01 -5.435339260856203447e-01 -6.007116429297644222e-01 5.274248837888037000e-01 -3.409625952865296128e-01 4.475262535916600948e-01 5.025259701003439300e-02 6.771792567451628830e-02 9.267490337763281127e-01 7.399201034236208008e-01 1.447540706099606389e+00 1.236205652646531927e+00 -2.750082523231767162e-01 -1.288766583321621917e-01 -2.932105305857692912e-01 -9.553728750543486470e-01 6.296237682602288110e-01 8.018192614895196524e-01 -3.707138118868703591e-01 4.235531240709254908e-01 1.430829114295539384e+00 6.202078963280139856e-01 7.932723758992770158e-01 3.294313275978274502e-01 -6.206091964950936068e-01 -1.009540556439891601e+00 -6.152296838352592362e-02 6.342795623659441828e-01 5.625142237511224774e-01 1.275319861733391846e+00 6.686439014667994174e-01 -3.142125312049143249e-01 7.149125223069303647e-01 -5.411797970695071680e-02 3.432906755761264139e-01 9.393620072281302566e-03 1.652619599984742393e+00 2.473178180182359145e-02 1.300205995811776205e+00 2.053429554608720842e-01 4.312247815929329819e-01 -6.131766233881144057e-01 4.355513633225228110e-01 1.919101865869421719e-01 9.509814476523668902e-02 -4.780251865653756260e-01 1.175017024421601136e-01 -2.583939421666141545e-01 1.209381410293522530e+00 1.025755482693242016e+00 8.344991802589236951e-02 -5.936327918220137695e-02 2.292587402276071717e-01 -2.225246604028619651e-02 2.678944752334961876e-01 3.934800858465941631e-01 -1.636916518403162268e-01 -8.108256784230216674e-02 -5.497694992310367575e-03 -4.680055181725286673e-01 3.955231308042083116e-01 8.678958106378575899e-01 1.803310242431186913e-02 6.010460948520168767e-01 3.305956001240948905e-01 5.574136904473804555e-02 2.111305807399921908e-01 2.995443204228608325e-01 5.216559061351947468e-01 7.019097210174914947e-01 7.265093926207087938e-01 -8.593349366081739493e-01 4.066313956884319292e-01 4.880570975641449483e-01 -9.096219142635159072e-01 -3.064908310928746160e-01 7.118758121036850017e-01 -4.813060012236673041e-02 -7.311502469890963918e-02 3.667890320375052360e-01 -8.366119798026722121e-01 -1.144347747895278600e+00 -1.056029992485358754e-01 2.509536641472736029e-01 -5.221906063406588361e-01 -2.676548782856973951e-01 -3.864637126755366969e-01 4.688671526344529994e-01 4.729429085001463640e-01 -8.156525758723679465e-01 -1.979698338337495533e-01 5.749825779409168947e-01 -3.117419560128877887e-01 -1.998976434988716244e-01 3.378215490942359511e-01 -4.992596732126206721e-02 -6.444946391857940826e-01 -1.935894921711037997e-01 5.682094346311882260e-01 -5.372539518087616761e-01 8.588553907649969510e-01 7.756305331016062343e-01 2.693233176353321823e-01 -6.965301201979757773e-01 -2.712981519579469869e-01 -2.288952113294243362e-01 8.867739778479646340e-01 5.311337108100790960e-01 8.783258888318271618e-01 -9.957228081599662772e-01 3.395891362241651446e-01 -4.336371019361851542e-01 -4.488647914032007358e-01 -5.499250733284523074e-01 -2.105811612136412325e-01 2.341111390015165605e-01 -7.039668136208883098e-01 3.964702211908577301e-01 3.999409414310265976e-01 5.142813363211025113e-01 8.821801735444445569e-01 1.008859490998729846e+00 -2.340538432713417383e-01 -2.972326065564200315e-01 -4.117620571735213647e-02 7.235273013827501210e-01 -3.247761037723551070e-02 8.100161629059998702e-01 9.168925491677448747e-01 1.308631359601635236e-01 -5.268555290643355260e-01 7.305550241996860983e-01 2.999987047338771862e-01 9.137037615238255972e-01 -3.047377691510980702e-01 6.862984037536035142e-01 -8.055809161288666198e-01 2.563052876375246369e-01 7.628498061730092372e-01 9.485022408924286275e-01 3.318862992337279216e-02 5.639339856258590578e-01 -7.810871442713288038e-02 -1.492019530038134034e+00 -1.160869565092970644e-02 1.159162205645409699e-01 -9.274658992125508483e-01 5.342566293336888927e-01 4.999339905810061824e-01 -8.534994093215345634e-01 8.399240026280917482e-01 -1.960039608934423527e-01 6.231990187235941780e-02 9.949624227290623235e-01 1.256381699633180027e-02 -1.971654600224268528e-01 -4.469855027490610144e-01 -8.891075008394679902e-01 5.259232853243387407e-01 -4.047299908036430249e-01 1.606337085449065227e-01 -2.399605149393300718e-01 1.089140225578953514e+00 -2.530919151043324322e-01 1.898133084170227913e-01 -2.081558562109692700e-01 -6.007394440437669597e-02 -1.113450109278222994e-01 1.019478699356496154e+00 1.131095639221216587e+00 6.461086880891026007e-02 1.383713885904428731e-01 -1.958268566423791712e-01 -5.753641120856448632e-01 8.096213688470870196e-01 -3.170624094424009942e-01 -6.649315723658395516e-01 -9.958266844110633675e-01 -6.418190500844959956e-03 3.906754070802228584e-01 2.550970156849237669e-01 5.343057745133330538e-01 -9.622591546691084963e-01 3.219449630593729239e-02 3.193986745895622814e-01 -6.842801670462395069e-01 6.168897762536573737e-01 6.876899661330678759e-01 3.917616035751382841e-01 -9.403618784055367552e-01 3.461674631803411950e-01 8.582863113642271724e-01 -3.833897063630751223e-01 -6.851500590911734356e-01 9.712708401073992803e-01 4.604159276664991363e-01 -6.623224482699621163e-01 9.944401038725027009e-01 -2.017923550403985800e-01 4.053290682170077042e-01 1.011158781534375217e+00 -6.283046142379852261e-01 2.205540476143574569e-01 -5.926041199058952325e-01 -8.140540864615312122e-01 -7.548236475842341475e-01 -2.145254441023882741e-01 3.166279909967621986e-01 -9.100432104493986207e-01 -6.939857889291063398e-01 3.085973748301709119e-01 -7.634221616265108867e-01 5.365589061805842164e-01 -4.166799663148996746e-01 -6.005378102880569724e-01 3.322795340394237851e-01 -5.177923586284604029e-01 -7.815004663096530857e-01 -2.071187635304025387e-01 -3.511322644966052842e-01 -6.633130974672838409e-01 8.769045255153032903e-01 8.776901385147468648e-01 7.664934135014328520e-01 -9.664914016071595171e-01 4.584156780259072139e-01 1.211954730947373965e-01 -7.617932284987912750e-01 -3.444735150304428228e-01 -3.022241061166876519e-01 -7.555917804136297322e-02 1.304993940326144852e-01 -2.052619482933090711e-01 1.530070663215900295e-01 -5.255005540398265396e-01 1.642126927614949161e-01 6.186975588352101596e-01 -4.442831857947604490e-01 -8.229937758170315920e-01 -1.273779199787563599e-01
7.393647209546261312e-01 5.515304453647276173e-01 9.672939783895952992e-01 -2.464437368186027655e-01 -4.131224265490611725e-01 4.487366474719509668e-01 -2.448977469830448950e-01 9.610294374271455276e-02 -8.558268864538971510e-01 -4.491929522059043833e-01 8.281033623408891042e-01 -5.639134755929824383e-01 2.030998739189622190e-02 4.030273229331240437e-01 5.564180369306587215e-01 -9.330466222969553414e-01 -8.797413845051971215e-02 6.417240217083153286e-01 1.226775264106536589e-01 -7.157540578515770857e-01 4.338029207277287469e-01 6.942173970130394167e-01 2.291210918682227149e-01 2.036806449846557676e-01 9.362118458463997150e-02 -9.066589555739348327e-01 3.566427110764720521e-01 -1.453943322256168180e-02 -6.446153293445158194e-01 3.716958217097676709e-02 9.800931886302604035e-01 -6.638328321338198279e-01 9.757911771602784112e-02 -4.974051102575554606e-01 6.842461680470681706e-01 7.072694883603182214e-01 5.112940212007420770e-01 7.879121636115242744e-01 1.020116166898903165e+00 9.317670527304980910e-01 2.092477284294562423e-01 1.442688330716365153e-01 -9.077818637395987933e-01 -1.799821437810257274e-01 8.930817443107689213e-01 -3.053840859624741833e-01 -6.663957430262512638e-01 -7.033869282317368743e-01 5.049021508234978750e-01 -3.164327223220174679e-01 -7.054660169030564365e-01 -3.956920164402168427e-01 1.812885080138482152e-02 1.407533949495576309e-02 3.366074608306275362e-01 8.841757485900711977e-01 -4.933653528931569721e-01 7.174894834732452598e-01 -6.060259654335541368e-01 4.230151692777919803e-01 8.463851461780714791e-01 -5.408212241846148682e-01 4.185283599588047743e-01 -2.158290902752617035e-01 2.939467773535188178e-01 3.996005573933847921e-01 -1.382532423043573711e-01 -4.054557742126790321e-01 -1.383921839093987527e-01 -4.767753096572349691e-01 2.987872678056819331e-01 -6.234404695146206210e-01 -6.063507420868546882e-01 5.931546923495082391e-01 5.375462066592562316e-02 -5.490822582597785217e-01 5.675756559139331081e-01 6.225865530228560374e-01 1.029485822912282078e+00 -1.425471647667591879e-01 9.527218192244296668e-01 -8.818052828181305314e-01 -7.917654713054391724e-01 -5.309582944198563137e-01 1.234435085983554004e-01 -4.969409099704735766e-01 -5.679611086427718281e-01 9.512819891938918415e-01 8.591979839362342553e-01 -4.214344658512495512e-01 7.952520907187374255e-02 -5.073833774171517819e-01 -3.212523642713820404e-01 7.076560716151871766e-01 8.616616008846199604e-01 -3.420648342896213667e-01 2.139460386326870744e-01 9.375112773809901601e-02 -2.127120217892237708e-01 -3.654853326352793669e-02 8.445096557015623062e-02 -8.961775299522445337e-02 6.406009410528098469e-01 9.063846353430982106e-01 9.197340610432712671e-01 1.214265092413224556e+00 -5.861993289111724348e-01 4.048420452668091696e-01 -6.207098839507892984e-01 8.021899644936459906e-01 -6.135525856761957220e-02 1.583870415323067604e-01 -4.862622135120633349e-01 3.602463179451274589e-01 -8.028545802657993669e-01 -2.289503586426997195e-01 -1.127228117646221668e-02 -3.955302798264208608e-01 4.106226338020678712e-01 3.059518663544031902e-01 3.724499440466084166e-01 -4.395098496482516270e-01 3.355715995999358214e-01 -3.319661376409836495e-01 -1.294855230734504925e+00 -1.311554458689290215e+00 -1.411405459781929217e+00 -2.553582772872701745e-01 -1.797137017715458029e-01 3.490342435659352094e-02 -4.798011012197995195e-01 -1.847821330936116890e-01 1.455136493062733516e+00 -4.419949152142813031e-01 -4.922916367676076210e-01 1.089796020611342842e+00 -9.917444665276424764e-01 1.174540176375893780e-01 9.764784184212619289e-01 -8.782646839826260265e-01 1.956702914274746075e-01 -4.064693511541690452e-01 -2.612962074612816821e-01 5.123804928238216982e-01 6.467942969029296663e-01 3.892106792873697985e-01 1.791386491704245743e-02 4.208604271170441891e-01 5.576245326211175524e-01 3.976792892644190336e-01 5.783112661279076194e-01 -2.327386903836764845e-02 -8.121735255431422607e-01 -1.237124410993361234e+00 -1.196498320810043703e+00 -4.258868258725229117e-01 2.463094992045810061e-01 1.537993263988496062e-01 -2.762736530979750249e-01 -3.531289106782751208e-01 -6.786043465990293511e-01 -7.052952691040302868e-01 -8.298779374124377606e-01 5.111064071277107157e-01 -3.268542358848374740e-01 -3.929210541276088042e-01 -1.007363695899256839e-01 6.206715323297294917e-01 1.937376315026866358e-01 -7.513416486810478578e-02 -9.944935951374054284e-01 7.452723520612962727e-01 8.510210305729426494e-01 -2.831476794438725353e-01 2.421481125305321724e-01 -2.053649992969357463e-01 5.325324909991832056e-01 -2.651896459341043233e-01 3.797242436939457511e-01 -1.268949461875627183e+00 -4.663937977967998472e-01 -1.080870553347742735e+00 1.694732805751654192e-01 -5.105653700506899151e-01 1.447463603167526147e-01 1.028239378132580623e-01 5.637121044201942599e-01 3.799093788527000415e-01 6.097749776810079680e-01 -1.097416266823113551e+00 5.474048918200046243e-01 -8.925658876488036242e-01 -5.731357258860459575e-02 6.945933157926434953e-01 -6.287462359652068455e-01 -6.454952131937548021e-01 8.209695213700137773e-01 9.181108046656153432e-01 -4.632452752661961881e-01 -9.787527200732782928e-01 4.666358170696735530e-01 4.464962124408419775e-01 9.025395633911152959e-01 -4.268127994266505132e-01 1.094973646243694754e+00 -8.871171055434062813e-01 -1.177906777001395122e+00 -1.704498276304930338e+00 -9.506102441807290360e-01 -1.102347922831893312e+00 -2.132802038343536433e-01 2.683193112991649198e-01 -2.990871679214096579e-01 4.960143807538423821e-02 -7.415726120874519545e-01 -4.281161767910054983e-01 -3.073754905021044426e-01 -4.733514691599288726e-01 -1.269914335183669252e+00 -9.304478643776316060e-01 -3.893812735574048861e-02 -1.784341659159704996e-01 1.842955412566988915e-01 8.336078197613335794e-01 -8.220772917248682088e-01 -8.359837876817348690e-01 -5.451776804241953434e-01 2.158919453022498658e-01 4.823374485341602735e-01 -7.820604457419184641e-01 6.270726401569087782e-01 -3.342820578345836458e-01 9.284192178055314937e-01 -3.306093797821622604e-01 -1.035545361912339812e+00 -1.113724681544351336e+00 -1.381016395350064707e+00 -8.362692768257065090e-01 -4.103292015473539722e-01 4.470210267973154794e-01 1.996950768852078784e-01 1.853725888721452775e-01 -5.612589488881278843e-01 6.319405849355895777e-01 -6.542901533273377535e-01 -7.494542008676873257e-01 -7.362514262561846712e-01 -6.123441446140639455e-01 1.710864536097790323e-01 -9.523265841959172029e-02 -9.317174172152364875e-01 1.577625069524112578e-01 6.686363544037696727e-01 5.760709221234375788e-01 7.641288429461807752e-01 2.351788768846214128e-01 -2.187561886280350032e-01 -4.425603551559531557e-01 -7.246465983224947838e-02 -2.280345432808517370e-01 2.758513747645055525e-01 7.314796183361549353e-01 -4.169226531320470164e-01 -1.482101279126223137e+00 -3.410386183428349982e-01 2.068516771517297792e-01 -3.099100415952123488e-01 2.093346197851992871e-02 -7.627261253960336829e-01 3.756069853185716734e-01 -3.393106257141466631e-01 -8.025537340823385435e-01 5.597619233917261461e-01 -1.492763154851496576e+00 -2.029479855740661531e-01 -4.373793426918155536e-01 -3.372607878035253082e-01 -8.553528289825912401e-01 2.785063217510053146e-02 -7.283212462462703707e-01 1.947341959920775301e-01 -5.245261667111843495e-01 -2.642523910916313445e-01 4.879093772634779391e-01 6.254206609348258450e-01 2.577047955651064481e-01 7.852023407546411260e-01 -2.794930257075100080e-02 1.106474402928321998e+00 -1.055119801010599545e+00 -1.300065338280186111e+00 -1.196828440901149371e+00 -3.515011277561310155e-01 -4.429676521317991167e-01 3.345662178287224786e-01 5.141241202144476441e-01 -5.597576482064984260e-01 3.119866046857893913e-02 -1.012697134510637031e+00 -9.920622510057797161e-01 5.870634813987415379e-01 -6.579750745541469714e-02 -4.554355693278713813e-01 2.620585390916286284e-01 -8.974975187703776447e-01 6.112711748712292524e-03 7.203435160948554739e-01 7.934471280238885038e-01 3.559377093833956951e-01 9.526679787182388282e-01 7.228194554602032085e-01 1.207488911475945170e-01 1.222087465365433306e-01 -7.638954645935386312e-02 1.060879094735050154e+00 -4.485509716638992617e-02 8.272183638433984465e-02 -9.805029625253025571e-01 -4.851599568373903271e-01 -1.586805259053428452e-01 -5.713374020727277069e-02 1.116067857115852879e+00 6.063293626953349946e-01 -7.785735689750783450e-01 -8.489211103054413732e-01 -4.791855397499582003e-01 3.551716740228615943e-01 7.874222866509593688e-01 -8.825639810458387746e-01 -3.103640685018241308e-01 -6.153912489446511369e-01 -2.354897811056185786e-01 -7.385749197286721746e-01 -2.865478081874044403e-01 -8.177141740108252455e-01 1.708304616761242012e-01 -9.226525629454155331e-01 -6.116137373441716402e-02 -1.960797266544998252e-01 9.590022401112843209e-01 -4.495100864892039305e-01 6.892411369997334392e-01 2.114075703929498284e-01 4.354405927896110029e-01 9.270400901472913846e-01 6.509171450841487461e-02 -5.282169873335177401e-01 -2.021701713827353808e-01 -4.340202829222872816e-01 4.316996521991434688e-01 -7.883828063329902935e-01 7.363066153517575652e-01 -5.824294412480329752e-01 -6.535921483995844605e-01 2.878524961221797240e-01 1.501301575127973742e-01 3.064038262434462534e-01 4.453635245646934693e-01 -9.670940923060564187e-02 9.224011493785411187e-01 9.609137911651499664e-01 -9.678565944853803060e-01 5.184103434769504748e-01 7.036830203549658824e-01 2.701329154522321696e-01 3.649150392930932546e-02 7.650485628031585827e-01 8.203895831456539112e-01 -1.520096713929069698e-01 -8.406504965150587427e-01 5.327495833103961242e-01 4.495851080054500959e-01 3.754109383311975967e-01 -4.802679206609324347e-01 7.040306337668987835e-01 8.115120418621140086e-01 1.067468043808633915e+00 -1.967163293347348463e-01 1.500051707367154041e-01 3.520736793724817404e-01 -6.624380118439243681e-01 -2.246910100062088078e-01 -5.022822644106054168e-01 8.034707047329152640e-01 4.372443110934158828e-01 3.425431250201129152e-01 3.776207644593802537e-01 5.085340451316515686e-01 -1.596196480866791945e-01 5.329336580603327711e-01 -5.502575886617595557e-01 3.237391780322706469e-01 -4.456151410771177490e-01 -3.231104477485632204e-02 -3.585332311734733546e-01 7.775562585201157839e-01 8.384653019402057983e-02 1.062328199928001649e+00 2.592958874386719903e-01 5.164841991400724863e-01 -8.516462345492553654e-01 -5.025065832654110887e-01 3.256643322103785487e-01 9.060418474292400992e-01 -8.080432477121834989e-01 -8.540679535598157956e-01 3.804940732636493128e-01 -1.353015783348022194e-01 -6.324436337122769647e-01 6.037453758318054309e-01 1.044588866640173253e+00 2.475554979648704745e-01 7.589424725625345536e-01 -1.033666141501125985e-01 -5.346366811232120542e-01 1.472063868496158445e-01 4.114722626375791337e-01 -2.312040032504481257e-01 4.460305260387383841e-01 5.697821103821957278e-01 -1.668514361213240260e-01 -8.287682755482618235e-01 5.587522192106342267e-01 -4.431791437882724449e-01 -2.384722829627736185e-02 -9.308413567322566529e-01 3.266486530512929115e-02 -4.502619969725492055e-01 1.967477485024028694e-01 -5.428953055112534232e-01 9.281806211366658843e-01 1.270245761242253524e+00 -2.717593007973790886e-01 5.585140900003581210e-01 -6.490672948235295392e-01 8.196067870877531414e-01 -6.212992506239839452e-01 2.366602873865507675e-02 -7.977338422320450206e-01 4.551790371697398974e-01 2.489812144236976631e-03 2.311774664284802216e-01 -6.439338875228285408e-01 8.345312727343366932e-01 3.419883994087629664e-01 3.261458212426294190e-01 8.170085789423086053e-01 -6.258022402099878700e-01 -5.031909587987453136e-01 8.313640450672294957e-01 -8.342363847132203691e-01 -4.230146572362969981e-01 5.277713131331245311e-01 -4.928137161907410468e-01 -2.159591443998559734e-01 -6.589397107580915458e-01 4.946397290023568649e-01 1.323822040897909558e-01 -2.220036192622340532e-01 3.874986187032199159e-02 9.259210224274780909e-01 -6.469831129387055846e-01 -2.480112960185883453e-01 6.180097292002789677e-02 1.088400995258819448e-01 5.478845990462286597e-01 5.602120845769640312e-01 -1.060085823088491086e+00 7.078561811935395465e-01 -3.257176436481790810e-02 2.966898528147393077e-01 -8.854777929716698415e-01 -9.804368324028341908e-01 -6.040187206444975754e-01 -6.128849595710048614e-01 -8.869084807243852175e-01 6.219631005774550747e-01 -7.585202264144628170e-01 2.928155860392612775e-01 -5.391044515720466723e-01 7.114152444930968988e-01 8.529669171508164061e-01 1.766711075626584415e-01 2.163460260679243297e-01 -8.444345073144050862e-02 3.315101470693984087e-01 2.879146727234090375e-01 2.192936010417531056e-01 -8.847553393773592845e-01 7.282339394615851003e-01 1.558280608533185729e-01 -6.153377421416265092e-01 9.977553176504187771e-02 6.024473529135067340e-02 8.916536768500203936e-01 1.503214078651408936e-01 1.109187555442647355e+00 -5.899683826645422124e-01 -9.263584389871414304e-01 -2.847261812922072255e-01 -2.582207579077941961e-01 -6.529424835643694580e-01 -4.210617551557377380e-01 -2.673653201735899931e-01 5.377953466801365101e-01 -2.628626426082512624e-01 4.255546293620831033e-01 -1.580795102776736683e-01 -9.677367410774553314e-01 -6.338771768184389144e-01 -8.818766517790068704e-01 -1.023004609881122295e+00 4.787382739545154586e-01 -8.654569728783298999e-01 4.038173503106921025e-01 3.515456911642004245e-01 7.078156597405399486e-01 2.284274037300277338e-01 2.616460590393580032e-01 -1.231966517926249768e-02 1.346714311797317376e-01 8.926672929547405655e-01 6.307976009423915675e-01 5.612018823327515893e-01 -3.234615520373034792e-01 -4.947128528476388842e-01 -6.939202700645731303e-01 -2.919088332549615861e-01 -8.498416712223745284e-01 -4.364521943291089223e-01 6.724430541924114602e-01 -1.222406376628398239e-01 -4.526661426337461602e-01 5.565083357089908311e-01 -1.327185581784091906e-01 -2.203522412189046209e-01 5.091097207327317520e-01 9.603815629602655002e-02 -7.308269535328851818e-01 -2.367982821296186757e-01 -1.057834813157672305e-01 3.472243133439872897e-01 -6.488867917698707410e-01 -5.106395788549740189e-01 3.145561527643692679e-01 -2.770757270879641854e-01 2.856785978989134778e-01 4.995581264160727231e-01 8.876596307165965927e-01 -5.460378980879229127e-01 1.028346317498270546e+00 4.434649394402787603e-01 -7.201565647506869006e-01 -4.084424515059283389e-01 -8.415615829650822111e-01 5.926334648208527733e-01 -2.578024337334272054e-01 9.513656665897658737e-03 -4.899922247571465439e-01 -9.751525470444690757e-01 4.868239569612367035e-01 -9.362689578296190529e-01 -6.209238767594881248e-01 -9.572830120985964530e-01 -5.813251801017202958e-01 -2.711556488415291510e-01 -1.019307802984708911e+00 5.343018395059909720e-01 1.839542495867571847e-01 -6.541099595864942051e-01 -5.104100576443745124e-02 4.961690576101748795e-01 2.804316682606471933e-01 -6.012598919762289773e-01 1.101797349754881417e+00 -9.259479735163551883e-02 5.132964995704860645e-01 -8.029882133629628882e-02 -1.271491777251978518e-02 4.255562085411866424e-01 2.442845453184054882e-01 -1.047451624786658764e+00 -2.241318057467966973e-01 -8.439083465259169525e-01 -1.273168082999451001e-01 -1.901209596194305962e-01 -9.417286529040258536e-01 -3.971363183240067540e-01 4.665001742243519711e-01 3.593949289533385216e-01 8.191953566905083028e-02 -6.701196682481194156e-01 9.644477555884846398e-02 -9.632076515900634961e-01 -5.846305759390441059e-01 -6.110611292312940757e-01 1.051078186326493830e-01 -9.968460560944194526e-01 4.627892111208569137e-01 3.324839975618408272e-01 -3.961349404130518614e-01 -4.126223747468933944e-01 -5.612607586190730691e-02 1.323398635147803093e+00 1.026675865699417933e+00 -3.962944985438346945e-01 -3.975509810548798206e-02 3.049459688908809918e-01 -1.607241687120402052e-01 5.814996407363590691e-01 5.065806020820986522e-01 -9.463519107746355408e-01 5.990005019986138768e-01 -2.724886295320047558e-01 3.146069322872356855e-01 6.558504767894881571e-01 9.532613184691430819e-01 -1.081694780067890410e-01 -8.156679223198073370e-01 -2.381570197615270612e-01 -6.848830634041085386e-01 6.589399096097766639e-01 5.314337706391105698e-01 4.553371533491426537e-01 2.551934037373957895e-02 -5.103194753840550879e-01 -6.467068054516507125e-01 -3.491938255493451382e-01 -2.169205314356306979e-01 1.120245836451223276e-01 -8.759257250364683722e-01 2.056493423274897286e-02 -8.150187024003864300e-01 4.271153685737872907e-01 2.442787513269566724e-01 -1.286275239268782400e+00 1.452833772545952529e-01 9.602250352645928799e-02 -3.275156441909186089e-01 -1.074609966372459535e+00 3.890190393530721935e-01 9.068788194652428469e-01 -8.857601036604357825e-01 -9.037176783994574913e-01 -9.399670111531308603e-01 2.038258148775791145e-01 6.223461514328427757e-01 -2.375805472977655652e-01 7.175128104221883962e-01 -7.804759952732399642e-01 -9.361417919737402560e-01 -6.805746656869905431e-01 -7.862056515322078942e-01 5.398925239453378211e-01 -8.463437854714777053e-01 1.703165515074534231e-01 -2.235747086852813148e-01 7.585380621505967147e-01 -6.380577239851109583e-01 1.018167884329014700e-01 -4.188987953720554880e-01 -9.239464797906243865e-01 7.149398487920319845e-01 7.010665319377584748e-01 -7.588916342224621969e-01 1.876470254839777141e-01 -5.833582715056477852e-01 -4.797364321065681891e-01 5.931900177712237099e-01 3.402339387341506427e-01 -7.307581601050984477e-02 3.942754844833575856e-01 -6.380874747502465194e-01 -7.457055082276748958e-01 -3.084399925381283158e-01 -7.547004458359249934e-01 -2.320197257281260139e-01 -9.558208409335644529e-01 -7.726767824404373597e-01 5.605268075512125359e-01 9.123219023348047019e-01 -5.786348365886890832e-01 -5.118059707338722397e-01 6.851339684656938545e-01 8.380036412933585810e-01 8.051183756182052065e-01 -5.961573959861836691e-01 5.999150213467514536e-01 -3.582427740465258248e-01 -5.228251962359341531e-01 -1.060820946601675585e+00 5.334455610312965890e-01 7.101800811407420477e-01 -4.953012570290712402e-01 2.871702444399185095e-01 7.457427288721474312e-01 5.427835909661892222e-01 4.376638366032985505e-01 -3.248664467125218086e-02 6.513117152889358330e-02 4.055811238463460366e-01 -1.224569943167850283e-01 6.488028772617753237e-01 5.376309942716086532e-01 -3.910175313479865578e-01 2.445721983924568910e-01 -4.572355800901572453e-01 -2.993611795225035732e-01 -4.816747943367903906e-01 -3.382441763769254428e-01 -6.040509548839662068e-01 -5.545781315191808947e-01 7.389292490759866161e-02 -4.868174527736963131e-01 -6.544190908013007846e-01 -3.546838618271975774e-01 1.080506359393743177e+00 7.663279464061812929e-01 -8.140136976016580928e-01 3.727687874031223036e-01 7.238236061357947726e-01 8.272474167976324733e-01 4.936898859702993914e-01 8.498532344078795209e-01 -6.076456407739699861e-01 -7.769154646854500301e-01 7.580173400866031530e-01 8.933926259323732300e-01 7.295587955044005035e-01 -9.221628249503703856e-01 7.992040371293107626e-01 2.001434009622893584e-01 6.092545913212843445e-01 -8.584040636541988567e-01 7.062552007111279062e-01 -9.385774924711819400e-01 -9.623460708800792018e-02 5.199501545287271709e-01 8.749797436469127776e-01 9.741490354922663908e-01 1.166603432378604671e-01 -2.835885130511252572e-01 8.674075146409472303e-01 3.853684390859331566e-01 3.355446688021508916e-01 -1.391447164460683228e-01 -4.467392332140742578e-02 1.982043333326725387e-01 -9.753342829030889338e-02 -9.027745565449323273e-01 8.188231226103680482e-01 5.821958921987490099e-01 4.739308938114595443e-02 9.796092314179309646e-02 -6.836684154751939690e-01 -1.446017188328869718e-01 7.253089861241934777e-02 9.263462436867002658e-01 8.084664710907840668e-01 -1.679950277679111981e-01 -5.375077498127057707e-01 7.672897205026849576e-01 -1.006063048224400541e-01 6.320827018680991172e-01 4.279387255769212528e-01 -8.903631990136869900e-01 1.510280227847835832e-01 1.458064406281106562e-01 5.500083349329893956e-01 2.068099473324094134e-02 9.372516288661842943e-01 -9.822902444421069967e-01 3.004901357490639136e-01 3.188440590515484452e-01 4.596117971452636231e-01 -8.094071486019107642e-01 -5.180971424739707620e-01 4.775413791446024292e-01 -1.918846450541901172e-01 -5.404148551118720389e-01 4.098890657769984625e-01 2.406391603428850168e-01 -1.667562434956755268e-01 -8.610288009614182059e-01
1.406385805787104815e-01 -5.201160576239993727e-01 -1.963724486131797065e-01 -7.501159984001293246e-02 5.115588983655146027e-01 -8.100095949200689649e-01 -1.061626185242510179e-01 1.074362357840112914e-01 7.348682357911398011e-01 2.119226100124715906e-02 -2.406936865021827021e-01 -2.398941515884049913e-01 9.475114956266046384e-01 -1.858190026568548939e-02 -4.689075496652864161e-01 3.029639984138152164e-01 8.525977379349514162e-01 -3.126137751737556592e-01 7.697694194876789631e-01 8.140661494636924900e-01 -1.486955033625243505e-01 5.864009779811123479e-01 4.649538411526574766e-01 1.337260565857472105e-01 -5.690782228773458851e-01 -1.906385218056050324e-01 -3.950985265900548438e-01 6.268106392154924045e-01 3.086529730040645791e-01 9.158161861358908862e-01 -8.523598343727325499e-01 1.634598967399820690e-01 -3.241937216673261846e-01 -6.191468453155245522e-01 -2.659242827243095131e-01 -1.910630792419420743e-01 1.322110211190827833e-01 -2.953790885298539504e-01 5.282981671118056610e-01 9.617802525904532995e-01 -9.110454328266682777e-01 -3.301492784014773973e-01 -4.497393983860067945e-01 6.363505312251838131e-01 -6.568280166566025091e-01 9.958288516813951219e-02 6.678013602020195227e-01 2.612934598670539343e-01 3.612364692255257137e-01 2.524390728972678022e-01 3.919915769896473723e-01 -9.440037743448344010e-01 7.829658273758517417e-01 -5.027880434679121713e-01 -5.415556759350208527e-01 -3.570965575959297311e-01 7.498465894513883789e-01 3.781386253893277427e-01 -5.483232858695424872e-01 6.751657337603348408e-01 5.086484101653676593e-01 2.639045284947721254e-02 -2.278994839188253352e-01 -3.696612344949375129e-02 9.075935428911706682e-01 -1.420190467424571890e-01 4.065827148007526981e-01 -2.456748805782645317e-01 2.659042262933336565e-01 -7.100766140371644886e-01 -5.525886598900998647e-01 5.053351117686637473e-01 3.762827138867170795e-01 -5.066562455499467044e-01 -1.791064515247171030e-01 -8.456392072199947485e-01 7.484230915040878118e-01 -7.553285754665710616e-01 -5.772093098151683810e-01 2.425252692857842729e-01 -9.381543535992459271e-01 -1.293730035774585951e-01 5.913214701051496824e-01 9.543325407107676739e-01 4.174620809028954938e-01 -7.166794079624303482e-01 -9.122467712231407955e-02 -7.838583069639255552e-01 3.345835533522630301e-01 -4.783609090379745687e-01 -6.214492435573765183e-01 -6.561257415815728855e-01 -4.478526768220007503e-01 -5.375472549638926623e-01 -4.381284353435053319e-02 1.057908076302054523e+00 1.185410378133866072e+00 5.602820929279438422e-01 1.574127022229423467e-01 1.317107045428983270e+00 -2.402063202523834207e-01 1.440730971243442127e-01 1.137244707597275584e+00 9.018145189058812683e-01 -4.336896339639392806e-01 -5.026144238074240489e-01 6.585996743360365002e-01 -8.699153056807205076e-01 6.873664773995633581e-01 2.283780960556458170e-02 8.968304948337023630e-01 -3.808584789427804651e-02 -4.905114217561370449e-01 -9.073716597117601479e-01 9.263112239556784422e-01 -7.418560195996632967e-01 -4.778364322411260967e-01 5.223796815411788780e-02 -8.104262184234020117e-01 1.022379243257485637e+00 -9.847404525666575426e-02 1.167449184288068542e-01 7.414693652946500180e-01 1.148448690168708319e+00 -3.394630879900055742e-01 6.271199582132462869e-01 4.712431400764767742e-01 2.083122681524321451e-01 -5.088411079091420541e-01 4.883560170790509081e-01 4.809069523786822509e-01 7.917635995717851038e-01 -3.018060261480998152e-01 8.539836902321270573e-01 4.604218125288666585e-01 1.123618691449411289e+00 -3.838694939714272780e-01 1.477903939611927842e-01 -6.786464730592662864e-01 -5.818138307475863025e-01 3.858185389752244454e-01 4.972253416280270066e-02 -5.096274669697906101e-02 -3.709439553664265476e-01 3.570228245712331883e-01 1.104801595853774021e+00 2.286537235380452227e-01 1.740042008075624036e-01 1.772391578606579698e-01 1.184730665746461131e+00 7.909515944714269331e-01 6.377486791553310663e-02 5.289456236134622014e-01 1.081849108898653489e+00 4.351625680743964608e-01 4.377865535387031048e-01 9.842992644865643515e-01 -1.436180075722727489e-01 1.200052597015210054e+00 4.659551140103576627e-01 5.119320045292842236e-01 8.728128887502151212e-01 -4.047407148814481381e-01 1.781526686768626633e-01 -5.611322787746894081e-01 1.573084978268779188e-01 -5.902841888881017463e-01 -9.609274698647199964e-01 1.965597780144687778e-01 7.574358976380995978e-01 3.609340839897112740e-01 6.527202296950767035e-01 4.996074609429194957e-02 -4.026702862762350787e-01 -5.956888501781285594e-01 -3.054801229345477376e-01 -6.570139069153954070e-01 5.609846946899619269e-01 7.067446424253785997e-01 1.112239137188669069e+00 3.781341486390399909e-01 9.130887332291512393e-02 8.766273448085970532e-01 -5.067882824375147949e-02 1.748388428929194438e+00 1.201692828632439092e+00 8.569910233989569415e-01 8.944992679061398722e-01 -2.475196162390775334e-01 -1.167621553588208544e-01 -2.414006032243412592e-01 6.420244053903122472e-01 2.055163865809447876e-02 -8.442791670530724879e-01 5.630481177186142938e-01 -2.917163393463183541e-01 7.445536760000038834e-01 -2.382569477005058722e-02 -3.129335593208947275e-01 5.300117160876997163e-02 4.695279167518535135e-01 9.419276063256297737e-01 -1.546250651188061931e-01 6.253501562185453944e-01 2.993497492045483765e-01 4.622846207672788865e-01 -4.622915418491164163e-01 9.558668870127176032e-01 2.600606150629862154e-02 7.211663428840962009e-01 -1.452244919806500445e-01 8.434932217764963269e-01 1.190147397382811612e+00 -5.840769665216571926e-01 2.486398782988003819e-01 8.542624651406813818e-01 -5.587272529113059827e-01 7.819112827287454104e-02 9.166438043952229719e-02 -5.388368012207366275e-01 -8.690481104390116451e-01 -9.110618357198199124e-01 6.006501539857520555e-01 5.632270508470335058e-01 1.291894505412869709e-01 1.287493620662112370e-01 -4.612864052997284192e-02 -3.554091449331983066e-01 -7.182815718169179853e-01 6.398352835938274641e-01 -4.669197440905158980e-01 -9.505470732510092891e-01 -3.707865448818594145e-01 -4.002280919578727891e-01 7.556041189412330272e-01 8.692668588228313897e-01 -1.662387041582839009e-01 5.963134505193301571e-01 -5.862936025087726044e-01 -1.791884038935595280e-01 -6.214673618709142255e-01 -8.491985980974386949e-01 -1.044731689451356305e+00 -1.182363588359224948e+00 1.840774711689215637e-01 -2.580351380366483621e-02 -1.450521519170304474e+00 -1.000845208308748679e+00 -6.315898729956125335e-01 4.530847745252688380e-02 1.244135314326943187e-01 -6.209939773989834322e-01 -2.027027218467976899e-01 -2.682829186255137333e-01 1.132660035628826542e-02 8.987061479281275300e-01 -4.237744746285126984e-01 4.361327335668242489e-01 -2.516533521391425277e-01 7.660467223507551326e-02 1.280622923761698395e+00 4.615391538703803032e-02 8.173707898366091573e-01 -1.183089675075933989e-01 -6.839002338328030728e-01 5.553048921804095706e-01 -1.243404327342183674e-01 -1.139424188124030235e-01 1.793904231513552272e-01 -2.013121002542187232e-01 -1.053622691156590241e+00 -1.373658397981905921e+00 -5.733493125867947793e-01 -1.258437850822079707e+00 -1.603282933575332914e+00 -1.116129449540450569e+00 -1.148018999758272596e+00 1.527335313786204740e-01 -9.188269099683206154e-01 -2.247645892499578468e-01 -3.638701385387611009e-01 3.088723615725125216e-01 3.326645089016296852e-01 -1.480068539341920612e-02 -6.746781565284000470e-02 -8.567131233146878522e-01 -1.713130334511559216e-01 5.578200726996730419e-01 -4.406282069536006096e-01 -5.299942885372807000e-01 -7.646681241785671101e-01 -9.479896505813134588e-01 1.671754254638377901e-01 -1.355574021049194444e+00 1.986519487830152586e-01 3.064229074170742861e-01 3.363310472361470960e-01 -8.420976880329592573e-01 -2.765464225516733321e-01 -9.461813549477315899e-01 -7.446564783650836405e-01 1.482531661914044951e-01 1.350713243893009730e-01 -1.386130496222720554e+00 3.997882517408573588e-01 -8.040893424508737120e-01 2.973586630014513066e-01 -3.457604852217067148e-01 2.489241603828344918e-01 -1.008360215745030430e+00 7.822157528054886066e-01 -8.787665137307153485e-01 3.029265976789922710e-01 -4.885443649222216411e-01 -4.306056634062300770e-01 -1.321687336087915554e-01 1.408695283825473488e-01 -7.049322585926793838e-01 2.646329172912025851e-01 -4.235568401580168119e-01 -1.811287064779980360e+00 -6.518959992370073619e-01 5.324336902294306562e-01 3.576699317011027002e-02 1.321728026956202173e+00 -7.523773870262732144e-01 -8.546180943523762341e-01 -5.741068268883106063e-01 -9.140871537680844705e-02 -9.419071277387480734e-01 6.264873183516125876e-02 -4.993025805240533521e-01 6.828991215977840978e-01 -3.684702909636072277e-01 -4.121506286277175635e-01 5.153502738723291232e-01 9.668152539383693123e-01 1.108912272237955882e-01 -7.690725472736134050e-01 -1.092911650455087536e+00 1.953807622273281697e-01 -1.469726848434189936e-01 -1.172099605595451621e-01 -3.595205711008602617e-02 -4.166428734911939991e-01 -7.603510324024169431e-02 -1.079452250949454406e+00 -9.976713633947250637e-01 -1.800003398868462168e-01 8.065908077777353968e-01 1.775467804827221552e-01 1.279204585683724638e+00 1.551318960531855584e+00 3.893313759798641138e-01 -4.619621900930379610e-01 -4.126028085577296278e-01 -8.439290940350641090e-01 1.962788253438660091e-01 -6.913338111252507190e-01 -6.796818410288809620e-01 -5.332586712209392843e-01 -3.826179427099943298e-01 9.208224807868572448e-01 4.637050878961061079e-02 3.359298336186443135e-01 -9.151735704703005680e-01 -1.668840237007546135e-01 -1.007326540422468497e+00 -4.557801953300164022e-01 -6.170584703242510960e-01 1.816035516247650194e-01 -2.199850180128000710e-01 -3.195140532633887198e-01 -1.010506202708233658e+00 4.086234075796545961e-01 -1.303171333535517507e+00 -7.544767599395661994e-01 -2.196949792495216450e-02 4.613271798799237211e-01 8.471435205943573798e-01 1.277715008294326049e+00 3.050808099193312306e-01 -7.291839990860369269e-01 -2.034004941596229410e-01 5.641962053560158896e-01 -3.868667812012407392e-01 -7.814142068557482501e-01 -3.271551454799959124e-01 -2.630936722702765795e-01 1.183706259203028410e-01 -2.747577481924446396e-01 -1.338011108466406196e-01 1.265765221441166322e-01 4.333302850472520729e-01 1.855661295367835306e-01 1.593323164224318689e-01 -5.592979426646478291e-01 2.723147065942785883e-01 -9.678461845827792676e-01 -8.271850106591649432e-01 -1.664981347684141647e-02 8.664701380341381931e-01 -9.277125827543961645e-01 -1.241915374793632454e+00 3.968856109377703056e-01 -6.981172234991910031e-02 -2.461140806517370661e-01 1.359897515781278265e+00 1.070687453433907255e+00 -7.777208524821254132e-01 -6.669903434147518295e-01 3.938556661172946116e-01 -5.253899013062933721e-01 7.438056159970348746e-01 -5.366590401287237855e-01 -3.144520435213760678e-01 -2.101833660996140496e-01 -7.375021678547164505e-01 -7.510825220639641975e-01 -1.245121320355843525e-01 7.916102260502101695e-02 5.791937231190270596e-01 -5.846544357264407132e-01 8.318951022720856292e-01 1.060758014180742705e-02 -1.033792278617264415e+00 -2.384676073205736768e-01 3.917062932032968070e-01 -6.267436090167939344e-01 2.593119801651013745e-01 -3.429145163826524678e-01 6.720909768222184111e-01 1.021767896533962938e+00 2.362057311481138844e-02 8.274527555913188115e-01 5.486820580081619436e-01 3.653118226354773457e-01 3.547151699378133238e-01 -8.250548685713376962e-01 5.691887320864493782e-01 6.564011134784896173e-01 -5.646932116263416734e-01 -1.049145004330355874e-01 -9.611432137965432443e-02 1.530512709784631609e-02 -8.106278277216505401e-01 -4.726255883176823103e-01 -3.707573151241745912e-01 3.616579166429926273e-01 -3.959058443700441132e-01 1.132770482464691142e-01 -8.529747667541863754e-01 -1.032899045892417655e+00 9.649830126953228004e-02 -1.462724171563544728e-01 -8.503649045980234134e-02 -1.117930613815166119e+00 8.277346744871182105e-02 -5.116695561589745811e-02 -6.318117975305352907e-01 1.164552928887635508e+00 5.045738050643836514e-01 1.242355137806760323e+00 1.042017315345162176e+00 8.294681387266131800e-01 7.492889534122211259e-01 -4.431782778032743453e-01 5.619026514951276363e-01 -2.693909379949916416e-01 -3.667875543987551556e-01 1.645305641146543527e-02 4.093782002857960789e-01 4.955406061783134697e-01 -7.016810641974611240e-01 -3.815403705796681644e-01 -2.570552448330088932e-02 -2.868155861945997920e-02 4.921897898293200457e-01 1.302560705519203443e-01 -7.928602253326377802e-01 -2.782540398660545700e-01 -3.030510720345043207e-01 -6.161817703366353483e-01 5.731901127492301518e-01 3.844364035047926897e-01 -3.359018321629320680e-01 2.419311821571979437e-01 -5.477263173010036290e-01 6.631732833473370503e-01 1.110822235428135851e+00 -2.148849393027340016e-01 6.938300779170936128e-01 -3.796795183273497520e-01 -2.310057024636522627e-01 8.778972352428150369e-03 7.990334398665749349e-01 1.218466445266016329e+00 5.563824246005828478e-01 9.472499275475352309e-01 -1.315667673849200969e-01 -5.806827099261940850e-01 -3.157830902235971016e-02 -4.843540640837828981e-01 -6.895040337875678604e-01 -9.346660151905756830e-01 6.074553940842140065e-01 -3.029005865044979706e-01 -3.012664193928006329e-01 1.210071814995459460e+00 1.534389888897873810e-01 -7.355510322045642757e-03 -1.321534225075407520e-01 -8.488638010527680411e-01 -3.160442033835168529e-01 1.222809928825694836e+00 7.743761719927373388e-01 4.853494175038283176e-01 3.571020470978962524e-02 2.289442323540715474e-01 7.636754845059632313e-01 -1.840475318316910081e-01 4.656629929816620828e-01 1.332814500506751543e+00 -2.042883928831463469e-01 5.271092576993462453e-01 4.829537322978865732e-01 8.928001804933759500e-01 -7.987667401770605080e-01 -7.469967730580185927e-01 7.931976948229174651e-01 6.474800640799146523e-01 5.706337941171832906e-01 5.242290254329611265e-01 -5.361100460857431971e-01 3.820155771321767646e-01 4.859934809120143306e-01 -1.662859233501084444e-01 -1.321500594399954015e-02 -2.443473961943002648e-01 -7.009051740639318795e-02 1.092467434054045894e+00 1.182339107561370062e+00 6.066561610921147180e-02 -5.735259066357195623e-01 -5.606704599120504451e-01 -1.302161776048421371e-01 3.611550892991472472e-01 1.737153438182991727e-01 1.303199542428372659e+00 1.440388234815293655e+00 3.404004268192052374e-01 1.253157844552970746e+00 -4.654519747509294758e-01 7.250837681226927067e-01 -9.745441305289707923e-02 -4.411020464900731741e-01 -2.115152119600321179e-01 8.071666477700671916e-01 7.235388134772902102e-01 2.788891426886622726e-01 5.260335785953225152e-01 5.985667171140393039e-01 -2.522329756559117397e-01 -1.007255509394734960e-01 7.243494571175422558e-03 -7.963226097997289088e-02 -3.542519721326652382e-01 4.955398884042906960e-01 1.596314671007965577e-02 3.556734482179024215e-01 -3.886126071823867156e-01 8.932499932440879364e-01 -4.991282332625136542e-01 2.828940913301066229e-01 -7.992318654061170147e-01 1.329489605791816798e-01 -2.158686164289782827e-01 7.805584263325932026e-01 9.954350944968926029e-01 4.163791752646557875e-01 9.778702150055728071e-01 8.034592479393503073e-01 -5.947520224254789628e-02 -1.033071662267258106e-01 -5.898324963447929559e-01 -6.236257515367381599e-01 6.324900386578689027e-01 -9.700236633138985543e-01 -9.317783360392858372e-01 1.070268014406488416e-01 3.579679093236041720e-01 9.575863239683382044e-01 5.467771627369614196e-01 4.705926788139529193e-02 -2.425874773853426425e-01 1.011063638084522820e+00 -2.866113402549008704e-01 5.948001546879053691e-01 -8.359368860888088948e-01 -3.765618681739310025e-01 -1.661279781659974475e-01 -3.023361656304243139e-01 8.273151103538478601e-01 1.225227945415862552e+00 1.048568125578255711e-01 -2.267276942509564852e-01 1.149597223560984149e+00 -1.278436699033179136e-01 8.369762993137570550e-01 3.863084621389867301e-01 2.649518974969153340e-01 -4.376562269162189156e-01 5.487659636549387931e-01 -4.845382550892993190e-01 -9.899083924926924682e-01 4.376910189351575498e-01 -6.441560089576697790e-01 9.341671512070726102e-01 9.696140300253131006e-01 9.732098043662777975e-01 -4.133647812364674157e-01 9.132989265671342949e-01 4.749553908977526273e-01 7.269199641566904679e-01 -2.887621179048478065e-02 4.250981943093831011e-02 4.982255204718065711e-01 -1.085684080937266760e+00 -7.157777505254669936e-01 -2.609371234810510254e-01 -1.231067826213069621e-01 1.441140942359425914e+00 -2.889796908857920621e-01 4.750182400646499881e-01 2.976732181978070102e-01 2.749144680339651869e-01 1.471012175926817434e-01 -2.100923240234127409e-01 -6.527809884961286446e-01 7.387486017301599928e-01 1.113084465525992911e-01 -5.883113491912517201e-02 -7.502918265351460336e-01 -4.494944218766900867e-01 1.514706319743508445e-01 9.571818549312953728e-01 -9.929860008057055099e-02 4.896998187998769514e-01 -7.954608088697683321e-01 6.595413521770532306e-01 1.129531340841854137e+00 -1.487911336316538047e-01 -6.042641509361982299e-01 -2.535471189784941348e-01 -1.009665426637974983e+00 -8.454641179670084883e-01 -8.431346996505775238e-01 -7.034117529659138501e-01 -3.958437105341263695e-01 2.093280657134603540e-01 1.740794592796551243e-01 -5.625197636421991332e-01 -3.959766968799313114e-01 1.177266046762009133e-01 5.644241668609112361e-01 6.182464999868982902e-01 6.975458424795464296e-01 7.929577663475206872e-01 2.556476644298467105e-01 -7.528656377900649899e-01 4.974720862246430619e-01 2.083427319520168020e-01 2.940209942522837849e-01 9.215656067780919614e-01 -8.857943031533840883e-02 6.305575431930443564e-01 -7.553076166477794562e-01 9.397445748915977948e-02 8.591575308949460643e-01 3.427807803634034256e-01 8.444211199303768289e-01 1.120097675889194289e+00 -7.238851398384922309e-01 -1.135644410255298720e+00 7.922114694005805147e-01 -3.059945411362929302e-01 -5.896483118563232706e-01 5.421901396841859178e-02 1.039428841177957974e+00 2.809439954624286528e-01 -6.173794424691285698e-01 9.232298668090140048e-02 -7.570948292251084011e-01 3.592959116941865094e-01 -1.282871837174806851e-01 4.714104059334048302e-01 -8.666623549028927842e-01 -6.928311802526262442e-01 5.623455283512165392e-01 8.043824579337439662e-01 -6.536366721603463770e-01 9.359455022297673565e-01 9.034459549744122686e-01 -8.532666757174072192e-01 -5.863828316952562902e-01 7.719510081612022123e-01 7.201186081179087317e-01 -1.875767519832203245e-01 5.963174995396119948e-01 -3.817707543679914051e-01 7.831755311814283527e-01 5.127811040655753105e-01 -1.280090943208140597e-01 3.196844429581259250e-01 -5.036829798930811952e-01 -1.822305898553485543e-02 8.280531691993602283e-01 7.785763504858028705e-01 -2.124458924968771270e-02 7.417359639588879672e-01 -3.240209205886376287e-01 -1.014969522560179138e+00 3.503848891285180067e-01 4.266878965335085261e-01 -8.986928628278522124e-01 6.964513584384863787e-01 -7.301244681550654869e-01 -2.553313451417404956e-02 -6.754877065261630786e-01 -8.003302020412230711e-01 8.167700745726125255e-01 -1.145909329794173905e-02 -2.092556245579805796e-01 -1.729163675960524726e-01 2.397380605258941089e-01 -8.494991955711883591e-01 1.151329172409635837e-01 -2.156245503031838928e-01 -8.485157810792999244e-01 -1.097862473942487593e+00 -1.008454362929050108e+00 2.163920225121843122e-01 9.479676934726718462e-01 8.867847777188836433e-01 2.358205311348419986e-01 -3.304709801209308462e-01 7.883967323666854488e-02 6.262181059194444899e-01 1.881778306617620800e-01 8.546785122172756433e-01 -7.245724750822587490e-01 2.758460623037112813e-01 7.271267341451466137e-01 1.433796672192620136e-01 3.358796537419574957e-01 8.202724830361796116e-02 -8.698301965452361895e-01 1.475890266660488948e-01 -9.624473121446381896e-01 9.312525486264771057e-01 6.059756077694585796e-01 -2.355363473193556878e-01 -8.416796715774987891e-02 8.032470788816424845e-01 6.117520814646868477e-01 3.266468420133871731e-01 -5.991347245073352923e-02 -4.268783405171617563e-03 4.431781703896747193e-01 -4.646691723280908515e-01 7.703531526928222295e-01 7.733836912704923350e-01 -9.341429244386212360e-01 4.496686158038238346e-01 -6.831978208243124628e-01 6.813638515928079897e-01 2.844615856042880253e-01 2.536146923989883173e-01 -6.583866944972906199e-02 -8.187994698637223179e-01 3.660243489032906083e-01 -9.232501929094749649e-02 -4.457788476579664927e-01 -8.013265896567001167e-01
