6.896461290468494099e-01 5.270694580893535708e-01 -3.219601725328100628e-01 8.611557396941622589e-01 -2.097212163662038886e-01 -4.213409769145644024e-01 -1.083521794224873158e-01 -5.193426520379658129e-01 -5.018187088831225218e-01 -8.357587075307997271e-01 -8.369356842267734464e-01 4.176601437928353366e-01 5.832020686199274051e-01 7.967745119208140547e-01 5.277900970404585390e-01 -7.163600245773005248e-01 -9.094396485649003381e-02 -5.077175083359160013e-01 -1.865101503135524474e-02 -7.802661921068565487e-01 9.661779441744939856e-01 -5.164910057796210374e-01 3.533652245390468405e-01 -1.227168182496827242e-01 2.048739153407981295e-01 2.760035950891515100e-02 -8.646568544726882521e-01 -7.103346742446565720e-01 7.967474562213174849e-01 1.908577702374845142e-01 -2.383497373131591157e-01 -1.292541932745676636e-01 3.399275147518332485e-01 3.128723205991916223e-01 4.122336607746280857e-01 5.487396258442732710e-01 4.737677516658870269e-01 -6.867529724501052479e-01 -6.492196904679121694e-01 2.355954293490174212e-01 -6.084008886704652536e-02 2.202638946316541058e-01 7.257499417026965771e-01 7.684940940185234215e-01 7.204047893070643360e-02 7.572707734552107661e-01 -7.604861852743703965e-01 8.723147198855949469e-01 -7.664531199222200941e-01 4.586522499318506085e-01 -7.653535308430918782e-01 -8.497275143708058476e-01 -3.856539965951313320e-01 -1.588931551020311694e-01 9.084713259263448304e-01 -5.952916756696464695e-01 -1.529690303515509608e-01 -1.179771007312382380e-01 5.407451765703914504e-01 -4.882964159147251126e-01 -5.942882454680770143e-01 -5.121712075974467204e-01 -3.160377021648847484e-01 -5.380109392973160265e-01 -5.785114638086011896e-01 -3.056241382718494770e-01 -6.637616012799312237e-01 8.015140923786677751e-01 -6.051895756620830902e-01 -9.889688478133211447e-02 -9.147187076281473872e-02 -4.936087055984419436e-01 4.443897373697242026e-01 8.996656840204063643e-01 9.585422942714635908e-02 -5.185986511336601601e-02 7.788957087047326810e-01 6.134471745831918676e-01 8.265043373666540460e-02 9.879660209429299567e-01 5.613256691622579148e-02 -5.938487227578460592e-01 -7.745443115981529569e-01 6.054538855722202406e-02 -4.686178853637141817e-01 9.937646271869426950e-01 -1.383169052916851105e-01 -4.112302272564499206e-01 8.761790714901681598e-01 3.492893540948201203e-02 -1.328044736471417631e-01 1.378815173972445240e-01 1.031545598396487406e+00 -7.665598415785205288e-01 -3.038761528503312603e-01 1.940011077306409426e-01 7.268795575013519139e-01 1.069801527923171403e+00 -1.678471716188855989e-01 2.021946320085991899e-01 -5.557177595262856595e-01 5.054987344575695429e-02 2.826076610681548251e-01 9.511683529926340253e-01 -1.360637863521885482e-01 4.653876535607507497e-02 7.428170003638984165e-01 3.789146918669646091e-02 -1.927145076175846433e-02 -7.063978583083996288e-01 4.242471911361419545e-01 2.711633241249651327e-01 7.517576429122887482e-01 1.323054891637145958e-01 -1.276583067552548023e-01 9.713118888521161676e-01 -3.629616150306933520e-01 -1.084525657261859455e-01 8.962814803133688502e-01 3.031738902993585394e-01 9.610474598421091530e-01 -9.663798829553833514e-01 3.994695855571563092e-02 2.668932012598019821e-01 -6.063175819382800036e-01 -1.560984416433222610e-01 -5.273560452245542596e-01 7.999624017921683206e-02 5.001836582352356952e-01 -4.027619654443537756e-01 -6.600537462430965396e-01 -1.711697264706497912e-01 -7.894672079142850407e-01 5.466214606239390150e-01 -3.019927809944474850e-01 2.782003653860710135e-01 1.993214046913079907e-01 -1.977736692261807816e-01 9.259093360493173552e-01 -8.000302977575574070e-01 -9.490949633908989380e-01 -1.888446915978205798e-01 8.848485383427249218e-01 6.108145939133072938e-02 -2.443708574069914600e-03 5.252389461739298548e-01 -6.810603494743751041e-01 -7.457900089418224576e-01 5.053348586164150280e-01 -7.726167844046877287e-01 2.157306664477228741e-01 -1.102577623730166767e+00 -2.918776406416070945e-01 4.479216262072893695e-01 5.201809979292101316e-01 -4.451251307450023731e-01 2.382637758165234709e-01 4.775437929937239590e-01 -3.974714023480327429e-01 -2.231883607833741734e-01 4.519974515579955887e-01 1.161775987320708137e-01 2.241986842993778650e-01 -3.435408867051047421e-01 -7.325425744008454698e-01 7.181853731944543018e-01 -1.192781695832445393e-01 -4.297992816499214830e-01 -6.515431063903998066e-01 9.209788805051124516e-01 -8.136759076580820649e-01 -6.758093784387627645e-01 -7.496397670061275553e-01 -2.650835699987895144e-01 2.523978288976000961e-01 -3.828437004348227979e-01 -9.444509114756330925e-01 -3.561415031933204411e-01 -6.231500070209773368e-01 -1.922968604551793803e-01 3.557890501051320653e-01 -1.148279586948902420e+00 5.489027791870577655e-01 2.779476508234493895e-02 6.999292868565576420e-01 -1.301193010014865425e+00 -1.114704786957215754e+00 -3.632174910400050583e-01 -4.722316894688984301e-01 -1.180604121290692587e+00 2.938655417040759166e-01 -2.461270139454442840e-01 -2.980117054839580368e-03 -5.388084426069617017e-01 1.421883684862943198e-01 7.782126748027837215e-02 5.813890149117155737e-01 -7.722686729965914099e-01 4.021412447951175362e-01 -7.905306809465469930e-01 4.708031950593599690e-01 6.359174562738220127e-01 4.928018769479794448e-01 2.061738471942757833e-01 -7.383509629042663003e-02 -6.454755785477581664e-01 3.709812177967254931e-01 -1.172293574844635256e+00 2.520217167133008696e-01 -1.095666959453956091e+00 -1.595749623236079051e-01 -3.359176626735649873e-01 -5.263389060629560801e-01 2.400038819570225468e-01 -3.493568683803806585e-01 4.860877412480684723e-01 -5.224512218150610954e-01 -6.500208928408208742e-01 1.655347352125557114e-01 -9.629600508983862106e-01 -1.105290772141036104e+00 -5.730129369883922852e-01 -9.777861671887521089e-01 -1.012788504285067726e+00 8.463827178174954113e-01 3.000701934575291663e-01 2.005986303994449285e-02 6.852098023946492367e-01 -8.696172887739125335e-01 -4.977726575846993518e-01 4.934237388155576221e-01 -4.599086571642506116e-01 -6.880242350481937663e-01 7.453964737917051497e-02 1.120425376167091674e-01 -8.344474301938666905e-01 -2.964561987985992464e-01 -8.528579431227458763e-01 -9.006729253141922964e-01 3.905783531020266541e-01 1.033400570697912357e+00 -5.628890659292282335e-03 -3.232917718223141113e-01 -2.885132595511731290e-01 -7.727184054865953167e-01 -3.051591191563809979e-01 -5.918611583118517094e-01 -1.282218308437310217e+00 -7.426611269080967137e-01 -8.320460814763124269e-01 1.714098364390211071e-01 -9.455013174216534422e-01 2.722350475333330522e-01 -5.646845311713708515e-01 1.027079269301914705e-01 -6.992050641318996451e-01 2.985132221380382145e-01 -7.267481344517077169e-01 -8.551122583553853740e-02 4.616849164913511272e-01 -5.378639186720317600e-01 -8.089450977423655598e-01 -1.295245770241831407e+00 -2.653286922137634840e-01 -3.823609930050737571e-01 2.055771252373198577e-01 2.974269548177327360e-01 1.111231554703624447e-01 5.845941203304848566e-01 -3.203796365624465570e-01 -6.065129315301597268e-01 -6.967198235659555206e-01 3.042871193270514918e-01 -3.160370658363313989e-01 -9.967368815441290941e-01 -5.118686580812064485e-02 4.340831099947397576e-01 -9.553796333118229622e-01 1.766403857394621968e-01 -1.098430607363690553e-01 -1.540821073944893815e-02 5.332379890843349513e-01 6.616321826171661646e-01 -4.784584363046398559e-01 5.539494591657612155e-01 1.965111325237518247e-01 -5.044255759365311453e-01 -8.648731045676922857e-01 -1.156678592872302458e+00 -1.272347961329898913e+00 -1.255933595174167694e+00 -3.865830073514121140e-02 -1.023606954728465190e+00 -5.041739809918346360e-01 -9.817560597295758029e-01 -1.052931808464397934e+00 -3.977925372939613013e-01 4.707485240276083061e-01 7.535215017184012654e-01 -7.797808979513541905e-01 -5.915574700881197634e-01 8.919606547764076521e-02 -5.668600555359158966e-01 7.947701063421416245e-01 -1.281773353774663837e+00 -6.385412484152713786e-01 -6.939005818771426526e-01 -4.173419505992781442e-01 4.401248330791057706e-01 -7.963976727875996531e-01 -7.298363049814352577e-01 -8.709680054586692588e-01 6.541856024542749837e-02 -9.746601701160774178e-01 -3.269156730589118931e-01 -1.131215963872739927e+00 -9.354170926415930065e-01 -1.221025250477234092e+00 -2.108125274060991261e-01 -1.490083021327814228e+00 -8.789404604092712625e-02 -9.493076189547312582e-01 3.115480230685812035e-01 -1.214164394200029085e+00 -5.354634288202825276e-01 -8.674818445417360468e-01 -1.066719122267742570e+00 6.416355847685627500e-01 8.897971412668879143e-01 9.736837425582676175e-01 -1.380034259581453260e-01 1.890130171646625945e-01 -3.727521031651978012e-01 -4.546501596489061492e-01 -3.020859703512574490e-01 1.180641913405166832e-01 1.567492070600610618e-02 -4.660377663159504524e-01 -2.130933361942563553e-01 -8.686154362546527619e-01 -9.156325332508873371e-01 2.593072611637876057e-01 -2.556811682303145594e-01 1.429008052125888863e-02 5.466753230468075590e-03 4.313774701851654791e-01 1.868593962040124012e-01 5.611333728154314082e-01 2.077790313448296677e-02 5.976772202633827691e-01 -1.546166188041022904e+00 -1.184882307903090792e+00 1.392487781497119270e-01 -6.485636840015133187e-01 -7.879630543666166220e-01 -5.451732684560544051e-01 -2.175680767823796047e-01 1.263216607046947493e-01 1.452528457721958155e+00 7.168282438678810209e-01 8.952676781610920953e-01 5.447616972520478162e-01 7.433259316008398176e-01 2.139034135450615659e-01 4.216872874999395004e-01 -2.426883792341850143e-01 2.557547392491228422e-01 4.123301544754052195e-01 -3.857289562793985715e-01 -4.576255497549265860e-01 -2.678262261469520622e-01 5.509295654441795920e-01 8.409203794759148032e-01 -1.805290335074622998e-01 1.086788493319442050e+00 7.759497188840010218e-02 -2.103206360661298222e-02 -5.751215393591815328e-01 -3.084393780548178587e-01 -1.193186926832406902e+00 -8.872172865793696017e-01 -1.054815804712988941e-01 -5.919433761312369313e-01 -9.160186079979758256e-02 1.895997054982884455e-01 2.098673752239837986e-01 -4.961438277983332840e-02 5.494050912496735162e-01 9.610378460598483219e-01 2.673394272385399076e-02 -2.069664453783975067e-01 6.477710268495774637e-02 3.560160147886391457e-01 3.034792216239664553e-01 -7.268023026683188004e-01 4.090279174334570667e-01 5.677530236538257391e-01 7.452460012361187269e-01 1.781985816881590079e+00 1.891317243533007453e+00 7.133206590545063674e-01 4.811730869436240954e-01 -1.075672383535694332e-01 -3.402037504465171835e-01 -2.062999630423277900e-02 -5.430191133155494176e-01 -1.197404183856781268e+00 -1.024073175505451960e+00 -9.640852399910996295e-01 -4.773977291891253194e-01 -1.205543852535339910e+00 -5.398074035107115476e-01 1.227696751955376975e+00 7.579426144296664836e-01 1.471794096434806853e+00 1.280330805849209108e+00 1.767722380487096179e-01 7.931886601016112648e-01 9.333821364158618739e-01 -5.331576060323502952e-01 7.167675938585930107e-01 -3.186565056308439670e-01 7.818095126650521642e-01 9.450749703665616286e-01 -5.319369688617812120e-01 7.109377363582810583e-01 1.859187776150717175e+00 8.062629439280049048e-01 7.858125637895322368e-01 1.999835640461995023e+00 3.758649107893771157e-01 1.021152889847778411e+00 1.912082206718881960e-01 -3.307312781543523816e-01 -9.049747239548689981e-01 -1.465149352703184471e+00 -1.065682389117576401e+00 -2.232874422230328171e-01 2.948179292199237245e-01 1.349986320273955043e+00 -2.935480874521522177e-01 9.243606780448069271e-01 4.132720445388426422e-01 2.847856969813154504e-01 4.215536759880491036e-01 -8.581359493280742434e-01 4.200868324446001556e-01 3.561237723978772918e-01 5.947810086145539632e-01 7.634585851993161976e-01 -2.090883840154655893e-01 2.678948388159624328e-01 -8.624186554392018200e-01 -1.317266781099556416e-01 1.386719144436386220e+00 1.733717443314479079e+00 1.223711917385930770e+00 2.075297516219449356e+00 8.507147380857935648e-01 2.133166744230293954e+00 1.079375669495336254e+00 -8.636587977319912790e-01 -3.977737138125221339e-01 -9.314595868602433271e-01 -7.176806851676359456e-02 1.282233023239968572e+00 8.081955373662409459e-01 1.211033881352780783e+00 4.309543979243205536e-01 -8.084157667478635012e-02 1.176232763539019066e+00 2.551383002850992135e-02 7.670683179375865635e-01 7.756002631638287959e-01 -1.953953291796643177e-01 6.320924013946420672e-01 -6.353517364552885294e-01 -9.562202767167500284e-01 3.768876156729683569e-01 5.643269767880605414e-01 4.020926909081248835e-01 -1.616770637552801815e-01 1.782099894739180498e-02 1.623449138816008830e+00 8.199107916662765616e-01 1.148502141931821013e-01 1.994107954601739952e+00 1.614380154858143790e+00 4.934578231411477778e-01 4.727684851464300508e-01 -6.666468982165856261e-01 -1.594314994249256268e-01 4.668383894414188662e-01 7.626908161597387714e-01 3.715873210488145340e-01 1.143049775497439358e+00 4.248339950462063919e-01 -2.743568057642146729e-01 6.834007050527157734e-01 9.603493867837323839e-01 2.613357197178212687e-01 9.381656911338744076e-02 7.745980665921973207e-01 3.728329917183440534e-01 -8.156320129218065373e-01 -7.976865042157735841e-01 -6.558464386585511896e-01 -2.015394547435872263e-01 7.238501695063079833e-01 9.734928051362881085e-01 -8.578484288551808667e-01 -7.687559886273528376e-01 3.250905832750562441e-01 5.662373634275711387e-01 1.614502632045000663e-01 3.905192641245043284e-01 1.019309010247301917e+00 3.516649933512923099e-01 2.875145891461044004e-02 1.077276977404289182e+00 1.108560818986837893e+00 9.672621182049559452e-02 -1.133599331700498730e-01 3.944000887818719936e-01 -1.628728487232994626e-01 9.748659594601553069e-01 -2.623384040958157692e-01 -4.275038346422109781e-01 -8.570227338762614888e-01 -7.538308415725684108e-01 -5.160339218442239195e-01 2.630187714674702137e-01 5.487422836998413489e-01 3.763760805555874667e-01 -6.320155026988470981e-01 7.967676913258996407e-01 2.458928571785080897e-01 4.649678507492647772e-01 6.566328645480433435e-02 -7.873510879908660054e-02 -1.279970602499339805e+00 7.484271373696027574e-01 -2.869077839997596913e-01 -6.918428559955949742e-02 -5.919063381951001901e-01 6.565184697439792050e-01 1.080330998043041557e+00 1.352731902661842289e-01 2.753969549603420275e-02 2.898347494102504474e-01 -2.515577438389749246e-02 -1.808205513303267342e-01 1.307675250224642483e+00 3.101720474509102043e-01 9.552770218284771797e-01 -3.259121601662767764e-02 -5.650461336502345944e-01 -3.907100324718850159e-01 3.504607254259156646e-01 7.830241165592283226e-01 1.654229191171403546e-01 2.277903877746913219e-01 6.771351929016539151e-01 -8.961719941450216886e-01 -5.773534690236930000e-01 -1.132140091451965924e+00 -8.487401888192472876e-01 -2.758076855327836752e-01 -1.031603922271356888e+00 -2.514424551718448253e-01 -3.500020870787751148e-01 -9.151581308412130855e-02 1.045778755454818576e+00 -2.289046425642168869e-01 4.846371892906536916e-01 9.504394563202746005e-01 5.995114610065874761e-01 1.086854869601471041e+00 -4.219114065495815913e-01 3.636390594690934730e-01 1.036257292945131150e-02 2.316059049614341281e-01 -5.910358748385319272e-01 -6.516913765954746030e-01 8.990931852772945376e-01 7.795137089715500345e-01 2.249241395235977159e-01 8.458150480663465531e-01 7.220223960993660262e-01 -9.676818571651203404e-01 -3.819175980094107192e-01 -3.706240713246112262e-01 -1.898719759055609857e-01 -3.402143147581788152e-01 -1.196877419815844806e-01 -1.215939981764549843e-01 -9.539140156961362083e-02 6.405159377773240736e-01 3.343054456960767307e-01 -2.682105812517014964e-01 4.952607148760776457e-01 9.469158717827550475e-01 -3.965969643843871850e-01 -1.921650845203136115e-01 2.419530270888159140e-01 1.534733443999707903e-01 6.126436387758652513e-01 6.427414182483103255e-01 -9.495275161785380336e-01 -1.136977445415584542e+00 -1.927848497828546503e-01 2.145316665150327207e-01 -1.052993892800350606e+00 9.696154188913223004e-01 8.712581819125180260e-01 8.183198654104079095e-01 -6.840174924813725577e-01 8.264694610589522206e-02 8.942128469844987659e-01 -3.817255517230150330e-01 6.410684072190464544e-01 2.874544760205765548e-01 -1.449797525802934139e-01 -1.598429710294538564e-01 -5.620562938752561577e-02 -9.269981449103685545e-02 5.897737165351298744e-02 -1.142508401419721070e-01 6.598802545990900548e-01 6.912130601983493827e-01 -2.629576213494054238e-01 1.110842138775060217e+00 -6.432742940237652640e-02 5.527377613714654636e-01 1.186861806909433464e-01 -8.819195478544044065e-01 -8.693991838122747673e-01 -1.135467192708140782e+00 -6.571974026929844337e-01 -7.212582976123302902e-01 8.800262736468016378e-01 3.573949493377504699e-02 8.921734601121258379e-01 -1.087977860591601426e-01 5.541447294321115713e-01 -8.155643123000499983e-02 8.141965620252070712e-01 6.907346330833915582e-01 7.653502663913449577e-01 6.534653538648096949e-02 -2.949475106877946229e-01 6.005235901359398110e-01 -2.586684054892952611e-01 4.020222764277077143e-01 2.864636948331393193e-02 -2.844094262188764377e-01 5.851978729540078250e-01 1.141504964102747627e-01 3.697302103520024308e-01 -4.170979189484561034e-01 -1.783561381318160555e-01 2.416422728688383537e-01 4.037186041851396623e-01 4.985719920881753753e-01 -5.480654905864683624e-01 6.202902311439755234e-01 6.490710801868376789e-01 -2.849881113391638382e-02 -7.164027313180823531e-02 -6.421862586568655162e-01 9.719460807412200198e-02 -3.726629244462107415e-01 -1.039970548150697116e-01 -9.170360578333172086e-01 -6.420368893294321477e-01 -2.862264105316663088e-01 -6.920673880757178820e-01 -3.186081421276457104e-01 -7.617756356334079992e-01 3.445842788722608407e-01 6.579319120981391711e-02 4.419141418530736498e-01 1.064872172023291069e-01 2.071330876302798496e-01 1.334006510644669463e+00 -1.960898142417472900e-01 5.167322391308749596e-01 2.183678277984396898e-01 -2.844844095682064755e-01 -3.346446163555716891e-01 -4.082678885604705821e-01 7.406756355270117664e-01 3.195506496276851460e-01 -6.811131139711883442e-01 -4.455503832826827604e-01 -1.998476208169807922e-01 4.784504239101698697e-02 8.778529980254227150e-01 -9.621246667975071887e-01 -7.462147014487998664e-01 7.215758000780745363e-01 -3.609874365493548343e-01 -6.712047792506935506e-01 6.116424154969794802e-02 -5.525253451540206306e-01 -3.128721986894718032e-01 6.863640280285616679e-01 -6.257839396214652794e-01 5.307645113712636809e-01 -8.128313698085251060e-01 -4.228409330502756469e-01 1.531781498779716810e-01 -1.061012930736434656e+00 -1.209441424781814822e+00 -1.237521288822804655e+00 2.084419850565953358e-01 -1.301310669375562501e+00 -1.124719721317422039e-01 -6.014864602861411114e-02 -9.942394491606245666e-01 -6.546229415747828462e-01 -4.869667396170433982e-01 -7.816179085152509254e-01 8.307424973905607191e-01 1.277366200058638879e-01 -1.164978160135274748e-01 8.610550124490188306e-01 2.265541639069461599e-01 -6.829265763328533634e-01 1.827411084366747929e-01 1.041661605230737031e-01 -7.633180462579189918e-01 2.222208728947755452e-02 9.590759954865406556e-01 -9.582348042355477435e-01 -2.814645685930815613e-02 1.082626255660534276e-01 7.076383227132375664e-01 4.840249833818988101e-01 5.969117659404398202e-01 -7.998711688879719395e-01 -6.920324644310789086e-01 3.636513408076423870e-01 -1.151796724252507564e+00 -3.506092305584473379e-01 7.204779656211165451e-01 -8.689484046243789450e-01 4.134478765862866223e-01 -4.450296676458767031e-01 -4.214670045359852901e-01 5.015707504405698680e-01 2.748300705033919211e-01 -6.045955021812811081e-01 3.721396011412730909e-01 -8.090619266067031745e-01 1.953492759646313637e-02 -6.911062273103856235e-01 3.619930861496789554e-01 -5.745961678527016225e-01 -3.924397664328063140e-01 -6.648251162441151108e-01 -7.857145290693121620e-01 -1.002026620229807152e+00 -2.911328143111048261e-01 6.945429392359638854e-01 2.916659598182584912e-01 -7.214576877917232567e-01 -1.372069373411178572e-01 -8.669420167562800206e-01 -6.126584911558602409e-01 -9.347843335853718294e-01 -7.614406188982730805e-01 4.323513254095200792e-02 -7.561837803590261142e-01 9.836203512378446367e-01 -3.298264607978571017e-01 7.390865542064529725e-01 -4.367659779797320452e-01 -6.296727903441474705e-01 8.796741089448965045e-01 7.278034852954040623e-02 5.651641142827907860e-01 7.983248376124032486e-01 8.418986729643407330e-02
-8.387388159110880093e-01 2.955171752583820588e-01 -4.686064192636054671e-01 4.701111772312926984e-01 6.348726673047100366e-01 -4.866300922769868365e-01 -7.633337605554200156e-01 9.709909424531417699e-01 -3.220062924230109314e-01 -8.335934161800013786e-01 -7.537018380546114393e-01 9.623720222076763697e-01 -6.628240995105851852e-01 -1.973470706415321185e-01 7.709771490117445225e-02 5.246747695088564978e-01 -7.022381036095517448e-01 5.239708268530689494e-01 5.519698775339021424e-02 6.074359560812570002e-01 -9.730201715895829828e-01 3.419983170687324048e-01 -1.156464027987156307e-01 3.629288583042531435e-01 -2.462869696599168101e-01 -6.269910589178693261e-01 4.743880876687622816e-02 5.748942618715975339e-01 -4.177077150736183686e-01 4.860182969011903609e-01 1.531093205850431183e-02 5.931578464669227113e-01 1.988237533036788796e-01 8.570618581434815697e-01 -7.300752317839195316e-01 9.946552964482997528e-01 -6.506831504820114187e-01 7.329324299058063152e-01 -5.944253872796312343e-01 -5.658849460044523827e-01 -1.091059863751058651e-01 -4.982006671221449468e-01 -4.583347197597228417e-01 -2.894227776990838108e-01 -5.613832581538265032e-01 9.597693281482289063e-01 -5.558292184700932559e-01 6.297018230154911578e-01 5.871253728676589789e-01 6.058406172137676959e-01 -3.625921768649333354e-01 4.782352041385883878e-01 9.349928228689388110e-01 -8.870666014554018375e-01 -9.234029459867933998e-01 -8.506555065863370402e-01 -9.428133476448576911e-01 -8.152306675487017706e-01 -8.955454787762029412e-01 -6.328062212740401815e-01 3.600173041887344549e-01 -6.813612161184456895e-01 8.009369916563876535e-01 2.565057834909877932e-01 4.113929390906546080e-01 1.088339746054575174e+00 -2.200251619671990122e-01 5.566822776673975293e-01 1.015035901062652179e+00 1.103627757647136498e+00 1.025863205327309569e+00 -4.729606978789034910e-01 8.317471208515355707e-01 -1.279590127652000531e-01 -3.725605400764289143e-01 -3.070228713854944447e-01 -4.888826745421413489e-01 6.047927722456286626e-01 -9.115260949734079743e-01 -3.567820071888213596e-01 2.700036213459621193e-01 7.141390167881510598e-01 7.108319500594562079e-02 2.740633791662683283e-01 2.208784776369672187e-01 7.706399822954259626e-01 1.268116111356015485e-01 -4.488645341674782907e-01 7.597454917824323362e-01 -3.401930823131638082e-01 -1.720917973930668476e-01 -3.233119383641588906e-01 3.117074406614220861e-01 -7.200909119308919193e-01 1.083378410381508061e+00 1.121344182835979586e+00 -1.871095002860261591e-01 1.654963885166385040e+00 8.750532454239462465e-01 1.653264227949583276e+00 1.026209964507951850e-01 -1.729921170944249686e-01 1.206825215922197270e+00 -1.485640520303081191e-01 6.195306501023646328e-01 -5.193535259364326917e-01 -7.043077938626656209e-01 -2.077019239391730832e-01 -4.597258837740295645e-01 5.852895776620635759e-01 2.225558032047852963e-01 6.254977286005991566e-02 -1.755513544940912052e-01 9.738190660755333683e-01 5.591087679371463670e-01 5.493233702432819276e-01 9.788326059755104724e-01 6.321501296636686251e-02 5.719479503986231173e-01 -6.881879193832401986e-01 9.394360650215793918e-01 -1.895288584623452954e-01 -4.510280797889066329e-01 7.865570539822720475e-01 -3.332337125549302281e-01 6.650623594842527408e-01 4.528614703301457878e-01 1.648289160080374849e+00 4.652025738860887660e-01 1.020646516756993583e+00 9.651371311227850969e-01 -3.559158207459579559e-01 4.159603252910294424e-01 -7.304273170665036286e-02 -1.214764910905017148e+00 -2.610918167823900182e-01 -9.982305690391438668e-01 -4.041756586870800527e-01 -2.205181038169094498e-01 -3.074571268156680581e-01 -6.442003056789364912e-01 -5.242572959390054965e-01 -7.840515868705959512e-01 2.340576595227993606e-01 6.050602422692210602e-01 -9.524294996553297477e-01 6.442571331906694621e-01 5.799321009076163769e-01 2.182824504346423944e-01 2.121089563139230139e-01 5.860770779124829799e-01 3.379408872548798626e-01 1.795132959958201935e-01 1.113741790430875067e+00 -2.079504172326108458e-01 -2.547589139651053047e-01 -2.873318375472968533e-01 1.472289256820508374e+00 -4.402914205683666760e-01 -2.799771446824828036e-01 -2.523785871115094212e-02 -8.754246284113009757e-01 -1.546649796524957043e-01 5.104904940219957554e-01 -1.175549190023384760e+00 2.641876963573259740e-01 5.000140405227980755e-01 -8.405334212555112261e-01 -5.095874540627467475e-01 4.984123334356808654e-01 8.823231851183906960e-01 -2.487983234078133543e-01 -5.811143960618607718e-01 6.368903666041180189e-01 1.253190721773827232e-01 2.335275706834532006e-01 -2.839838432772461840e-01 4.788445636247983250e-01 5.798395806364627925e-01 -2.487441401815218556e-01 -1.736090613939971772e-01 -1.710745325508684356e-01 4.618312070204237951e-01 -3.159264526080864943e-01 9.270870566822646264e-02 -5.640999887313674632e-01 -6.200611359397572020e-01 6.917854031942364257e-01 7.194456558703554716e-01 -1.938983741107653258e-01 5.267187167060061181e-02 -3.065972763710743051e-02 5.329674297496457269e-01 6.691245096852195262e-01 8.423663054595523780e-01 3.345474700784377142e-01 5.121141632348382711e-01 -7.269738051676458701e-01 7.982776729198245436e-01 -4.987045048951288528e-01 -9.099354224418717552e-01 7.176927291547182675e-01 3.699041852012481812e-01 8.175966962642956526e-01 2.031321917139840005e-01 5.484782028998874681e-01 -3.606578292149211634e-02 -2.165566342215867468e-01 3.886503481512565972e-01 1.227653585669014197e-01 3.505572777573284227e-01 3.910565039552583166e-01 5.180888382906602141e-01 3.977129627098502374e-01 -3.114412184953592178e-01 5.660112661254359523e-01 -8.372442502657376773e-01 -6.566475506156492781e-01 5.590888340872974815e-01 -3.739240468353923763e-01 -5.569172811016127600e-01 7.010669906366826520e-01 -4.587517643985757343e-01 -3.446116669418446132e-02 9.478368223768737222e-01 6.484453859177244928e-01 -8.673271480358414331e-01 -7.166587795028228625e-01 1.766450909059091856e-01 -3.727904168067850410e-01 -7.203401076027996508e-01 -1.940952580575399655e-01 -1.823764364005895366e-01 -4.648262267209934961e-01 5.007810568130180995e-01 4.037246503501123462e-01 -1.737390732032185747e-01 -8.846374399863439486e-02 6.347008289674497261e-01 5.688561944552309457e-01 9.840418541680457515e-03 6.010578986137056212e-01 1.094350367905807392e-01 8.304774388823003839e-02 9.037169058694978219e-01 1.059714946042388695e+00 5.734404812398233853e-01 1.242314563614036027e+00 7.304442199689699100e-01 1.039287965373719036e+00 -7.241259190309099480e-01 -6.982799240615093772e-02 8.070224041257808567e-01 1.721205616187069520e-01 6.081872700134192122e-01 -9.041227986458860721e-01 3.324239225649084917e-01 8.582715879212987620e-01 -4.121433921231448111e-02 1.079764258611131789e+00 4.501021532664379321e-01 -1.003489413490953053e-01 5.870589586457314324e-01 2.723164454683362767e-01 -8.516125536195013890e-01 -2.390214513838015420e-01 -8.635738006676907386e-02 -4.271143513308301443e-01 -4.633644114837176531e-01 -5.261051354196124574e-01 -6.463631984054830637e-01 -5.513701183071718637e-01 1.400197569517634133e-01 -8.681109529406744185e-02 1.070560372527668447e+00 1.303920378984666228e-01 4.883051164820069179e-01 3.028543456137691159e-01 1.113176814088688849e+00 -7.600228335351213449e-01 2.334698743462196302e-01 -5.833494979226910848e-01 1.358133414571153219e-01 6.624723532022022132e-01 -7.502863809950115481e-01 -1.580472648202208008e-01 3.696961471588518511e-01 5.676895254816480829e-01 2.931915623351807332e-01 -2.195952107600318837e-01 -4.687698378072374661e-01 -1.601349780780932375e-01 4.200477689693333794e-01 2.846988396396808035e-02 1.150059662796914794e-01 -3.471360867156856461e-02 1.524797856317284817e-01 -6.663173379263498397e-01 -4.912768128467168843e-03 -6.793449983972015271e-01 1.600216269203568631e+00 5.704182698524260485e-03 8.374172524735394862e-01 3.783634524995633241e-01 3.621565182578487807e-01 5.401844529850149401e-01 -5.309988987870033483e-01 1.190578224472488150e-01 1.827290607769538611e-01 3.061961979811441137e-01 -9.976140502417315536e-01 -9.386699628430290598e-01 -4.922046245856592228e-01 -2.034028331075814558e-02 -5.083650958747195636e-01 -1.574843817525706513e-01 -9.327347410341086942e-01 -3.720673296166885358e-01 1.328405449637071190e-01 -1.062256176519187578e+00 -3.943748810201913590e-01 1.382521121120505181e-01 9.135336687712128922e-01 -7.143904693951637075e-01 -1.564100431213655829e-01 -1.432305713171758033e+00 -4.087671106182215186e-01 -1.185562527939226438e-02 -8.662868558123340001e-01 -4.275242638856419086e-01 -4.150291240992858011e-02 1.909267413853193096e+00 1.189745668260484335e+00 -2.405791807930674764e-01 3.064548735094856369e-01 -7.761675537350344323e-01 -8.476823452277590931e-01 -5.650313392954438019e-01 6.587967439916581069e-01 -4.859957002443746621e-01 -5.070944530103966841e-01 5.661625051980121587e-03 -4.626177741969294543e-01 -5.381115725099239189e-01 -8.389496896703074746e-01 -1.138595685008188640e+00 -7.779474722138184362e-01 8.853521014120170340e-01 9.348695433395269871e-01 1.214537268663495456e-01 8.221734187490289392e-01 -3.432224427010550083e-01 -1.264781082393357403e+00 -6.050407277980155429e-01 -1.279115814013668029e+00 -1.511693170448819679e+00 -9.268408015572695557e-01 -5.997656774877533348e-01 -2.828782058929580900e-01 7.231365649597445433e-01 4.484163274318207076e-02 1.039989315915973878e+00 -4.011459358064229375e-01 2.519488394034108403e-01 -1.849301452025236825e-01 -2.888352954995812016e-01 -6.102409156068523410e-01 4.973597634630329556e-01 -7.242082967175833552e-01 -7.423552927772810728e-01 2.193157128050962912e-01 -1.150122986562341243e+00 -9.584229057675760499e-01 8.822589635100401839e-01 3.739421452605558027e-01 6.205334430569770660e-03 5.400246127480168301e-02 1.134007985905938876e+00 -5.366252125112340732e-01 4.797024244649065183e-01 -1.257345184623503753e+00 -1.751472095721090305e+00 -1.335596116275438616e+00 -1.074957861218122313e+00 -4.465937671883355997e-01 1.887264646024295611e-01 -5.633910875995201684e-01 5.978559010998006906e-01 5.007631564247435607e-01 2.708593848967360551e-01 -4.711087849139479200e-01 -8.445368701492987906e-01 5.320844355936816816e-01 5.494992852540111494e-01 -7.093890698388137794e-01 7.342714785875767980e-01 2.297701149855185254e-01 -3.791036567261606982e-01 -1.254987252653253227e-01 -5.796265041736926582e-01 -3.871137575397327057e-01 -8.551326936172700677e-01 -1.203092241521225708e-01 -2.416594756196631111e-01 1.874982142129999821e-02 2.650700229872834934e-01 -1.479390790760903573e-01 -3.026860659793083608e-01 -6.024990442662340184e-01 -7.264968063745111948e-01 -6.241798834172489485e-01 -7.449636034019762043e-01 -7.429002845779812958e-01 3.796221642285070308e-01 -5.164189351726455879e-01 1.045431578959483548e-01 7.531480795895727498e-01 -1.033057263462327895e-02 -7.637450914449597228e-01 7.162168102175415774e-01 9.726887743588189528e-01 -3.760329309075368664e-01 -4.343932373543339387e-01 3.876208964355769976e-02 -9.878743574553416895e-01 -3.666713846934225307e-01 -4.362135264651544886e-01 4.920104377548779606e-01 -8.535506795853418094e-01 4.892474686223367009e-01 3.349651335075543024e-01 6.260344508077363423e-01 6.471353802301571534e-02 1.649102127213696312e+00 -4.252862417280016682e-01 1.516418502173669247e-01 -1.040873096369606676e+00 -1.914140114611739829e+00 -6.838316250961745668e-01 -7.906362104990938278e-01 -4.954045220407758965e-01 4.425556515995349161e-01 3.514799373436921504e-01 6.922230847060530101e-02 2.010399008908048402e-01 1.320179110120880787e-02 -6.960638225397919321e-01 6.338859089827065807e-01 -6.390171237648589742e-01 9.660216561563204074e-01 -2.497461594498467108e-01 7.876965068977770379e-02 -9.746645828047888482e-01 5.140172271525322162e-02 -8.397543223447974103e-01 -4.315775633174739889e-01 -9.257187419211213575e-01 -1.264230304658804371e-01 8.216233288335811347e-01 1.016165838825137557e+00 2.066893597383135939e-01 9.512408240278568128e-01 -2.365820978084006154e-01 -3.872611214296293736e-01 -1.040189432831842842e+00 -2.128112328933749353e+00 -3.443812023984702542e-01 -6.404946083616648300e-01 -3.822098553342628824e-01 -9.464181656387908870e-01 5.905592393919949501e-01 8.651724719664476426e-01 4.022518531436847233e-02 1.040207504338412775e-01 5.021478130449717747e-02 -3.517629326647115917e-01 9.068556462818539998e-01 7.312401010232059129e-01 7.855150267625216065e-01 -8.883611289198579675e-01 -8.596628218552427869e-01 7.540261066888229724e-01 -5.403860478753435004e-01 -2.947216958409847321e-01 4.726883585614759242e-02 -6.253647390896174274e-01 -3.401288700974884616e-02 1.197550325814648459e-01 2.471105538363665699e-01 1.060309818896415734e+00 -6.826418521234834946e-01 -2.018627946137816043e+00 -1.067533246472427422e-01 -4.855603647868354522e-01 -3.148109122526984160e-01 -3.331347841786608810e-01 4.922044881783468884e-01 7.646690035849870171e-01 1.043936663906810836e+00 -5.581371656206490783e-01 -8.020286330223586058e-01 -9.821808412305368385e-01 6.034631180066518663e-01 9.353273096782115381e-01 2.618960052267169658e-01 -4.963823844839874710e-01 3.721602704018320829e-01 4.147513640144804281e-01 -2.837079563253654402e-01 4.819245494447027545e-01 -1.215951926854205167e-01 -1.373726051453483810e-01 -6.898973821749132540e-01 8.771046441716705555e-01 -3.554464580544606789e-01 1.942409913193723081e-01 6.720738997254511737e-01 -8.647424627243719408e-01 -5.133780116754503853e-01 -1.280576711510683086e-01 -2.256461365419979437e-01 1.171936650301369953e+00 9.458363280662995809e-01 6.754058227102663903e-01 6.834681167326395190e-01 1.461870371181050343e+00 4.644078960329427463e-01 1.331085515323739976e+00 1.118350910638876039e+00 1.736807407606046350e-01 8.177083705264764912e-01 -6.278035839975545374e-01 4.641494742936657508e-02 2.549106146780237558e-02 4.586461911185688023e-01 5.592147390960116038e-01 -1.001279569142388484e-02 -1.780266594960806248e-01 6.921782163364376128e-01 1.367739507301235058e+00 2.683908596745413488e-01 1.511331838711162279e+00 1.905580785751941786e+00 6.540459248865260200e-02 1.140123602130665992e+00 1.651343636744196930e-01 -3.502490663585928754e-01 2.918961396545806108e-01 1.047885391320704240e+00 2.947121404580080317e-01 1.162911896792015343e+00 1.175690441648002071e+00 6.466657047023122162e-01 1.716325570439782011e-01 1.815407448199091833e+00 7.885150577180184694e-02 -6.404080483243247413e-01 5.906905446462228371e-01 -5.371737454905697318e-01 -1.211655623093069872e-01 8.446203505098364150e-01 4.833241648389392797e-02 6.146881620355605369e-01 -4.471154266149714451e-01 3.087337044376344264e-01 1.123655633312504593e-01 1.662857184491063345e+00 6.243458212393748763e-01 1.710095332879871144e+00 1.670611719333867651e+00 1.545721333743663495e+00 1.680688628614795066e+00 9.208340776246601855e-01 1.020682994530045740e+00 1.033382106107930909e+00 -2.072724715994200273e-01 -2.291334152131228527e-02 1.337456145086087345e+00 1.429607766990446338e+00 1.620851049275956024e+00 1.154215110506654263e+00 1.503263338430722573e+00 8.600056723537328196e-01 -5.104268033206991184e-01 -2.508105949684256153e-01 -4.674388771201261061e-01 5.789333857250071880e-01 -4.052121135054490564e-01 -2.836907452019863385e-01 7.690489798062763449e-03 -6.340239274467937003e-01 6.511976518279292137e-01 2.708798100169503842e-01 8.196641812245613057e-01 6.791304099309698472e-01 7.884905773153785269e-01 1.534194516880960757e+00 5.836738124663297667e-01 5.428933729597363866e-01 7.650910605469156689e-01 1.716314809056177948e+00 1.320092511680658554e+00 5.178592834249169385e-01 9.058067713836134294e-01 -4.959429401054480935e-01 -6.372213369143285844e-01 -2.015918805885840992e-01 5.619993993925394005e-01 8.469199445768340606e-01 1.320317363264778443e+00 1.286172710808620279e+00 -2.305941151770246889e-01 -1.366519433559909569e-01 3.445245825736003575e-01 -5.334801538667419823e-02 -9.556977595481801480e-01 -6.104373016430882926e-01 5.829006849397699863e-01 7.056037473094863843e-01 3.691086062688545555e-01 -5.312707330802219907e-01 5.640397319165202372e-01 1.285802245389429777e+00 7.405948502057576599e-01 -4.357591843617245053e-01 -3.508219197036909209e-01 1.111310282492317981e-02 7.300301565152061967e-01 6.232515284030870628e-01 5.463922769923117428e-01 3.285366820883544037e-01 1.664838681845639545e-01 -9.401065715623473096e-02 -6.311088138224232313e-01 1.818626999807911315e-01 -8.025581002243642459e-01 9.000952722082583568e-01 4.198169974898339346e-02 -6.686919067132182093e-01 2.443215048983525817e-01 5.894657935821896733e-02 9.814679985801212370e-01 -6.198827521517494971e-02 4.918306692481737574e-01 6.024127647473878078e-01 2.777583502196372400e-01 -4.306716971514619741e-01 6.461182699060786794e-01 8.808770128267029431e-03 1.111328199759079371e+00 -8.702422043885063019e-01 7.244651837389096682e-01 7.508839178909039180e-01 3.188570813580021701e-01 2.215838899769286829e-01 3.782827987272912029e-01 9.557929297304161853e-01 -1.184877259602547805e-01 4.629166700184108585e-01 1.098635201688463958e+00 7.655656798857427559e-01 6.723816343230933912e-01 6.946886538086642637e-02 -1.047708594820041084e+00 -2.575755308842740399e-01 -1.234219550082513717e+00 -4.226782909972146007e-02 -5.033895558441089380e-01 -8.945635130356079934e-01 6.899032715519723968e-01 -5.693159140102656002e-01 -7.779970734348020667e-01 -6.066639841409657841e-01 1.013098124872566785e-01 -9.078639242101847751e-02 -5.911296991772437837e-01 7.653662702752720426e-01 -1.223664111001006444e-01 7.918975402741685876e-01 7.076051283712717632e-01 6.143919999830759204e-01 4.361353173756868373e-01 8.091931024628141664e-03 -1.195836079163125482e-01 3.562527118312917018e-01 1.079684155057137884e+00 -1.740007977908535342e-01 1.386286514524634139e+00 1.206707983986865962e+00 4.743420787747055223e-01 -2.916907996377906542e-01 -5.737408972796914641e-01 -8.130184726044324961e-01 5.443892060305342007e-01 -1.028434601438203533e+00 8.869730220976224100e-01 -8.554179168852039661e-01 -8.406983253322651839e-01 2.905851771903170122e-01 -3.997640655316221370e-01 2.120401772056417222e-01 1.893367220894637271e-01 7.241177638043098108e-01 8.944074104884592868e-01 -8.921823037628052733e-01 -9.419689108847657533e-01 5.970587020081689206e-03 2.013981120936046976e-01 -7.489540684181581476e-01 -5.057993205352030452e-01 -3.330728107063122834e-01 6.573609884761313360e-01 -2.703242528926232957e-01 7.694993778582831512e-01 1.857796579143358995e-01 6.166763326312346694e-01 -6.384156913031474589e-01 1.313401708312818439e+00 5.405481126788593826e-01 1.599646904608109932e-01 -5.614390385021218455e-01 -2.287450134400458301e-01 3.082939057797330906e-01 -5.996015944413058962e-01 -2.078527803879771652e-01 -8.193170575315167348e-02 -2.770886581188423126e-01 3.178831879797547888e-01 -4.384844061023969175e-01 -7.138003792782041668e-01 -9.998715740331440838e-01 -1.619654957630195791e-01 -7.567657342613950400e-01 3.415886275341180056e-01 -6.049222959032851676e-01 1.430726842284258393e-01 8.206243710127544277e-01 2.676113335408940586e-01 2.560804082746979682e-01 -3.169259163842767513e-01 8.677695487314208700e-01 -8.357545851129206671e-01 6.911386467385963739e-01 1.827175396576290745e-01 -3.767316650957761581e-01 -9.429582515798505815e-01 -1.994713937354565536e-01 5.336025802455246492e-01 6.660582468220908881e-02 -9.123588168318038649e-01 -7.198023012361461914e-01 -6.669735146431322870e-02 3.142911918086019885e-01 7.183161718458461742e-01 -5.066967962594726149e-01 8.069614088029524179e-01 6.897854205360471891e-01 6.489830005458636641e-01 -8.321515401345276342e-01 9.095405196787176294e-02 7.377231776493224924e-01 4.707122272760929649e-01 1.929200181571745975e-03 6.771287582853673381e-01 4.948457311056601582e-01 3.949642401808216574e-01 6.579057927015143914e-01 -7.728942203254418608e-01 3.276001310704516611e-01 -5.311847641514371166e-01 3.770762943231660835e-01 -9.297868054361028978e-02 5.882290174526823290e-02 -6.820271317341757289e-01 -3.576871560804760486e-02 -5.694329233123713863e-01 1.918433772908214596e-01 8.213179171826815450e-01 -9.151738497475386813e-01 7.909355170207148511e-01 -3.522579935381855432e-01 -4.500498214071821934e-01 5.633253990245281617e-01 7.020895877372395066e-01
-4.248122483465870403e-01 -8.554055998127338967e-01 7.191952169471145240e-01 -5.590500213250284567e-01 1.507739377304337935e-01 -1.150136539687851567e-02 -9.160037204520421472e-01 -4.324140097753030876e-01 -8.284317622522725522e-01 -7.609875217662944724e-01 -6.613427922667700631e-01 -9.009101573276963038e-01 5.595128103193913738e-01 -8.706078311387250857e-01 9.289801566124616938e-01 -8.147203213485667561e-01 3.878037685087316611e-01 8.177809707215544233e-01 1.638975425054352009e-01 3.961628515122097571e-01 -9.742538207927557981e-01 -1.916041273091704245e-01 1.288111092731045737e-01 -8.076159347542342104e-01 -5.249875184555921059e-01 -1.697338662210301496e-01 5.274813261715565194e-01 -3.740557084459934512e-01 -7.003512741564930089e-01 -8.904201601523067389e-01 4.466753464443256050e-01 4.237968063716073264e-01 3.050774295234204847e-01 -3.477514562654167585e-01 -8.879893634073825481e-01 -7.432223274678971814e-01 9.782380369167481549e-02 4.735819188179042905e-01 -7.150506641829548204e-01 -6.371258945304157650e-02 4.914449668140245531e-01 6.231764172290570059e-02 1.936533436177111100e-01 6.564227937963457160e-01 3.815589092856187109e-02 7.258397718148053013e-01 -1.188203442292296574e-01 -2.711656124946512647e-02 6.509916813897763666e-01 8.045345582392570138e-01 7.430679664037601606e-01 -5.076272574590866560e-01 -5.503136637468548642e-01 -7.149705279690174997e-01 -9.287960780500807978e-01 3.263709643524876913e-01 9.810769377237567035e-01 9.109020655308939229e-01 -9.866658382467130561e-02 -3.225254892548992669e-01 9.520837460518837281e-01 5.431639730394911825e-02 4.862618762959660668e-01 5.295935176581816339e-01 1.016422588287917428e+00 8.159347982009060862e-01 -2.442920063498008054e-01 -1.513189965009066051e-01 -6.852232562954175821e-01 1.064841642579703151e+00 8.767067936883883306e-01 4.562617807860617353e-02 -8.605767951827772433e-02 -3.987005245802019426e-01 -4.116521195034477665e-01 -7.602773577629278190e-01 -5.733472275272665231e-01 -7.565164998664193341e-01 -2.693641142229800667e-01 -5.132914213869291253e-02 4.642467887458823217e-01 2.763817361206359902e-01 9.244780464887178972e-01 4.169817600063177032e-01 -1.929084386793740169e-01 -3.951321441624300324e-01 4.432704301589029394e-01 -8.066731127499970899e-01 -5.490220967739386504e-01 -2.276548693215226793e-01 3.790093718659419131e-01 6.329632310082171642e-01 7.120648606822816973e-01 6.743108983499424003e-01 -3.038963087654687409e-02 6.656503131590843503e-02 -3.754540529960432860e-01 8.083502837392515517e-01 -7.505712218463825303e-02 9.850965247932564894e-01 4.400934131622685763e-02 -3.217854147006816157e-01 5.785701426138398773e-01 -3.799247738810177704e-04 -6.188509147764372775e-01 8.531612215432101687e-01 -7.937777330422587374e-01 6.810090853845682801e-01 6.919722367733315282e-01 -8.357679784339926421e-01 -9.233893079262282810e-02 7.978047817096451944e-01 -5.644784774657001236e-01 -4.226569333604930923e-01 -2.682553287777432183e-01 -6.745499245661362719e-01 -2.942190147875498041e-02 6.548255432940388587e-01 7.163527876811099926e-01 6.736964474921763868e-02 -9.245127590708277984e-03 7.457893190049456056e-01 7.636397412883045854e-01 8.967183214134395453e-01 3.709681883457811025e-01 1.403519848018890404e+00 -2.344167160937295213e-01 5.413120299287939030e-01 1.137564193813676683e+00 1.315434061156446344e-01 1.571971545910698209e+00 4.140256629592986570e-01 -4.065555108490815361e-01 -3.155298225105818144e-01 -6.271849106163152054e-01 -6.087770136714297786e-01 -5.446796918187636616e-02 -1.852579919819424825e-01 -8.403215480409185201e-01 -1.577723614702324917e-01 -6.382696691255251853e-01 4.011469671749250399e-01 -7.293101553440122231e-01 -2.864425066773907402e-01 2.773450943154427001e-02 -2.311874383951879053e-01 1.094968956306049179e+00 1.376661989478584536e+00 3.039900552135942069e-02 5.740611924121304943e-01 1.670599969525312645e+00 1.158069775696948911e+00 1.163057644785119749e+00 -3.714222478673326333e-01 -3.382629372315667515e-01 -1.665380041776870490e-01 1.569646445139318836e-01 -1.115952273441088299e-01 7.096008098442296852e-01 -6.018178340948122651e-01 -8.162199934169376281e-01 -6.538357139186966593e-01 -3.539742419754279834e-01 -9.139654149639370173e-02 -7.172090620730898758e-01 -5.321769445618078631e-01 -4.098491600554965975e-01 -6.876553598063427364e-01 -3.567576481620604589e-01 5.663291950478165360e-01 -3.459262195599762668e-01 7.757054787368021787e-01 -4.137742664170605822e-02 -5.815076090046856772e-01 3.738988421134630674e-02 1.161008888031802799e+00 1.147260776003995231e+00 1.297425882911833472e+00 4.439992245255434677e-01 -1.286684158548830892e-01 9.810908548224349657e-01 1.064784268644637377e+00 -8.808950374898514291e-01 3.439574745906426867e-01 8.908623510915141264e-01 1.373064162755335493e+00 4.728237772608763212e-01 -6.321622195412799350e-01 7.774735923935982909e-03 7.106885622354144338e-01 -2.531152834470461466e-01 -1.769465780993436210e+00 -1.040641863631994735e+00 8.420418358262379277e-01 -6.197647197781530615e-01 6.486310946709519798e-02 1.233314174495550447e-01 1.600843669385687840e-01 9.837242967473321942e-01 1.914705751314903504e-01 9.687243886198390053e-01 1.176240344297326601e+00 5.528393835335339013e-01 8.366907751433458884e-01 1.849367561335789889e-01 4.984764924674476294e-01 4.331168228747714899e-01 6.595454628705734734e-01 9.143799372530233560e-01 9.438664540215049303e-01 4.464533098068705352e-01 5.469312995427316748e-01 -7.443013406186703707e-01 5.418749889983401902e-01 -6.493771121885723030e-01 -5.572375485975501475e-01 4.485004918798579099e-01 -7.681406375391364172e-01 -6.417904898295386795e-01 -1.775522799202650104e+00 -5.988867978803089631e-01 -9.381194917060786675e-02 7.923843612337919118e-02 4.436416167827081369e-01 2.083737145248800160e-01 -2.460832161588987210e-01 -4.281584362303167968e-01 7.213859276546671362e-01 8.984143006690589184e-01 9.622599601944124004e-01 1.282854958589362493e+00 1.347241942055511288e+00 1.144019988512129382e+00 4.429213765906521716e-01 -3.456301834052916688e-01 -3.537244432910637837e-01 -7.777006043422972636e-01 -4.091971858192577916e-01 9.563507313044610214e-01 1.019915698987122088e+00 -1.668965362506597827e-01 -1.673283892311341337e-01 3.381952412900046667e-01 -6.954791415172700830e-01 -2.924365005178560240e-01 -3.500663829712429287e-01 -1.059879167292899327e+00 -4.212755928768833757e-01 -1.830958363699299207e+00 -1.337581356869151694e+00 6.735370929607165102e-01 -9.179120609118042173e-01 6.024900237069938935e-01 -9.784804062146083004e-01 8.737672702829947236e-01 2.424325476336624541e-01 -5.722000001701603722e-01 -6.063771819032022226e-01 9.816011603882913716e-01 4.548295688554778171e-01 9.738360482295008724e-01 6.723320433210268343e-02 -4.467548707760131133e-01 -4.913634340298985714e-01 -4.511254087542911906e-01 -8.298744147213974465e-01 1.059136907264689176e-02 2.027798803376232861e+00 1.519146424301769160e+00 5.580783090769391164e-01 1.376390007567444451e+00 2.155812570735239075e-01 -3.835395622935196536e-01 -1.371682644794305350e-01 1.328952041319510224e-01 -1.536670443473696190e+00 -4.123379839477944730e-01 -4.683650854012231246e-01 5.285941561958873436e-02 6.774497800046181961e-01 -9.045166220568758020e-02 -1.488700115625337939e-01 -6.235620159064516610e-01 3.957598991458599613e-01 9.748676490190728572e-01 -3.303949966308714625e-01 1.474561818396114443e+00 1.085225428722084606e+00 -3.947517730581233120e-01 5.732027419845154848e-01 -8.164104952037007923e-01 -1.111315332130056399e+00 -1.864378294295683691e+00 -9.405389101390052575e-01 1.858563604536901670e-01 -5.240118283554062034e-02 1.546313273329296800e+00 1.185680020420073477e+00 7.961985109326293886e-01 7.664874316101022433e-01 1.370431423298267060e+00 3.215217642856748048e-01 -3.738090758548973658e-01 -1.504250063131301385e+00 -1.415319264494382834e+00 -1.432588245430788998e+00 -8.334631059128337627e-02 7.895902094218726353e-01 -7.888179899607319356e-01 -9.116061052537971499e-01 -5.451258715445206349e-01 4.056191238197473514e-01 -3.470038665015920398e-01 1.064251846915150512e+00 5.278872728118157859e-02 3.633129547055618525e-01 4.566435833569897351e-01 -4.304336580459590389e-02 -1.012702317043262967e+00 -6.115160946267598208e-01 -7.577363213125895003e-01 -1.819856712549403843e+00 -1.224195240415152375e+00 -4.700553393186386597e-02 1.241685433681437162e-01 1.220948326790664229e+00 6.728538906510197481e-01 1.568675716816042343e+00 4.898915810534647530e-01 -2.428719677788797326e-01 -1.876192435262544478e-01 -3.019246284093003371e-02 9.067347919185771155e-02 -3.596041410121287307e-01 -2.668892280846567669e-02 8.485233857080781705e-01 -7.580712571760030993e-01 9.378297436788355368e-01 1.584038847502138303e-01 7.200138694491414748e-01 9.572731239931309144e-01 1.071350477902415443e+00 6.602804378190254564e-01 -1.275342306075759324e-01 -2.356255956615172509e-01 1.627621100858412662e-01 7.758058091812799484e-01 -6.255396553345672350e-01 -1.107514455660272512e+00 -1.592017834476351590e+00 -1.249115584129405265e+00 -1.081695564315980906e+00 1.068696564581537133e-02 -4.638521391216215983e-01 -2.901605050056633717e-01 9.981856315404182833e-01 -1.900200489420165312e-02 2.287187559075880838e-01 -8.407482783775956925e-01 6.562605204340174470e-02 3.163008508591027002e-01 -1.040712861839335313e+00 -8.266352567034190857e-01 6.934435915890114766e-01 -5.391535209067270795e-01 -5.180131888635917115e-01 5.875517670316120489e-01 6.824926229297314517e-01 -5.753750877101738714e-01 -1.297154371399170669e-01 -5.033764948871688460e-02 -1.081776698328793529e-01 -1.453257675830605666e-01 -7.062349261947744594e-01 6.889196003567903126e-02 1.287707183149987333e+00 -3.043889641550593383e-01 -9.220043865039658781e-01 -1.355891827810964623e+00 -9.200608556788195669e-01 7.524199820969106056e-02 1.838865153126734986e-01 6.850438984301567835e-01 2.510851385382059098e-01 7.189196199158561784e-01 8.224050738500024993e-01 5.863758945493916519e-01 2.076537632197550942e-01 1.856460539065276916e-01 -5.283715284204844043e-01 -2.889971880651631686e-01 8.559231023989295750e-02 2.185297143895486016e-01 -7.984475139830258250e-01 8.434571858720651960e-01 5.323573650887982733e-01 -5.234525881179125095e-01 -3.554488530615662611e-01 -4.604103238068930626e-01 1.470760536758624282e+00 5.360678152988180845e-01 2.042049406246621013e-01 1.065181377928298367e+00 -3.782629933788001497e-01 6.747400819536835126e-01 -1.803277156817992277e-01 -1.343633625638865015e+00 -8.214525771906320273e-01 -6.384280192201401416e-01 -4.451818310485286534e-02 1.650438121666457425e+00 9.939560859623953748e-01 8.056222969460360428e-01 1.476476162420598648e+00 2.997952164990118629e-01 2.305465450823860896e-01 7.818891621000124692e-01 6.869875836736808461e-01 2.662437277060658927e-02 2.727737098473727584e-01 2.148045942255134844e-02 3.907879506066107983e-02 -1.426569799136360450e-01 -2.578209073975239463e-01 -3.602476804586279280e-01 -1.824864712751368689e-01 4.053815154851052593e-01 1.614027936097881533e+00 1.044332486665249471e+00 -1.404560280092642943e-01 6.888831441287235346e-01 -8.376327744812712695e-01 1.599868888850905224e-01 -3.101812767508950117e-02 -2.991707408077777242e-01 -4.398268310641224588e-01 7.369672259959760829e-01 -7.715401373609274971e-02 1.084060809526598002e+00 -8.618105174524604006e-02 9.021970034042129383e-01 1.153194224657925648e+00 1.180021216414105956e+00 5.637519144883850197e-01 1.337696215694190505e+00 1.919476428158459758e-01 -8.341371088293878522e-01 3.048758070757181526e-01 -8.854347813906575659e-01 3.261027615553843684e-01 -5.830666670949217201e-01 2.925996959783347395e-01 -6.539192783551852628e-01 9.594700997907323892e-01 6.392137556720741687e-01 7.905949687122802993e-01 -3.332099101490780813e-01 -7.619087340217584048e-01 4.998915882599027638e-01 -1.999401901012708427e-01 2.285586920004259170e-01 -2.938706353267362958e-01 -2.653107899394161473e-01 4.135489214762606142e-02 1.020594171551924445e+00 4.863685820333085164e-01 3.964560669621913225e-01 1.097591071319190315e+00 1.473443723594457300e+00 1.212131618741040695e+00 1.107712436364744812e+00 1.341258820794214657e+00 3.684130589953835688e-01 6.113146275141512209e-01 -6.397140063210998706e-01 6.259700051772831841e-01 8.835729983608819893e-02 9.444305787383795447e-01 7.682797254523807684e-01 -8.308836074050484077e-01 9.705983561109280400e-01 4.087671056246044987e-02 -5.210355693794694876e-01 9.260822713893464009e-01 -5.039613995610480179e-01 7.665983209222952677e-02 -1.106330019344051868e-01 -1.714171737810517848e-01 -2.267812669829355476e-01 -4.980047786979237556e-01 3.510694961278346821e-02 -7.087420011484720783e-01 6.295792487952518446e-01 4.780750223751172312e-01 7.242950623576904778e-01 1.123334812887784473e+00 1.550103080096817632e+00 1.316138606909751929e-01 -2.179735101656739282e-02 1.102662760061558389e+00 3.484703368832778869e-01 -5.884457961617164390e-01 4.932328647697950541e-01 -3.413561671969729261e-01 -1.592922069417346265e-01 6.104476207813120947e-01 -2.294568583822499761e-03 -1.746317790576669970e-01 9.889937300590445624e-01 -6.771269922534568775e-02 -5.480649541786962731e-01 3.079382320738122472e-02 5.373999429519978888e-01 -1.143915031272234817e+00 -3.430357587885790593e-01 -8.775990797671312516e-01 -1.390091034425373850e+00 -4.344973690823766832e-01 -7.944226219186913962e-01 4.025572892404700731e-01 8.353270109709243219e-01 -2.126500619351157084e-01 -1.286754778098717078e-02 5.974821124203407718e-01 1.021901141326481133e+00 1.710157656186662267e+00 1.280566867228341676e+00 1.551497426738434493e+00 -2.253610286790229955e-01 -4.207864449026142983e-01 2.647822102491282359e-01 4.993874080908598523e-01 -5.447669424042350661e-01 -7.431021789164092839e-01 -1.490682457314820575e-01 -6.726913088935914109e-01 1.166295757676859557e+00 -8.192234909058018766e-02 1.822719389049049787e-01 -4.134509587147001675e-01 3.853023648210548435e-01 2.727850709674918828e-01 -9.685516514629230467e-02 2.202301866361968397e-01 -6.331979646461316502e-01 -5.514364492023241526e-01 -4.793971879635570699e-01 7.328626304344629805e-01 -2.536298403254876321e-01 3.569006147844410726e-01 -1.183156768872024589e-01 -1.054955274234844198e-01 8.854877577039580450e-01 7.504503076096235015e-01 1.504154176715032376e+00 1.274373965675242415e+00 -2.689516624380889898e-01 -1.289192341160009248e-01 -2.923541066640231723e-01 -9.553780347274394291e-01 6.296237682602288110e-01 8.018191572692434654e-01 -3.701958047506386795e-01 4.447470089846679575e-01 1.548580283120814860e+00 7.398126288251368754e-01 8.737434873571495730e-01 3.907230531589653832e-01 -4.590694723749196848e-01 -9.145448387219208275e-01 -1.166603009391207063e-01 5.021242808249973821e-01 4.100305774076596910e-01 1.172852393108884561e+00 8.092096614500819962e-01 -1.078772443568498801e-01 7.514738604297473978e-01 -2.714762746558343487e-01 1.736946089364242718e-01 -1.719430051584644181e-01 1.570678171084729735e+00 2.924230742078116202e-02 1.319789249922284080e+00 2.181741698465379242e-01 4.367125369949554359e-01 -6.073119912379117968e-01 4.356870292073105055e-01 1.919130604081359381e-01 9.507823725339947796e-02 -4.780314102302140600e-01 1.180302346597530277e-01 -2.498324371000137656e-01 1.266518269238348315e+00 1.108982099346720096e+00 1.830530244954814978e-01 8.667540565444412093e-02 4.516038759680344183e-01 4.012575051465511189e-02 2.094253373895319237e-01 3.150106575372789708e-01 -1.674163648433564522e-01 4.545925928654119888e-03 1.773475669313309688e-01 -3.750000478674452298e-01 3.508147026708407501e-01 6.981165720348907477e-01 -9.169666257765585193e-02 4.534604104453568985e-01 2.815900614755585396e-01 8.325152337625139898e-02 2.362665997805837859e-01 3.049028883992632721e-01 5.176018079999806787e-01 7.024871166047145232e-01 7.251358095669376835e-01 -8.593349366081739493e-01 4.066121102863396453e-01 4.880508765855298692e-01 -9.087803678499911664e-01 -3.030377163464847423e-01 7.575411566238152705e-01 4.626165837232203495e-03 -3.704438619874341615e-02 4.580789447783183421e-01 -7.245190924390769727e-01 -1.094431704305995900e+00 -6.283364802193779075e-02 2.730270250336652715e-01 -5.023298616119497018e-01 -2.217334110950266168e-01 -4.095117325815343379e-01 3.766342790231195781e-01 3.548908305755356096e-01 -9.096685762588282431e-01 -3.407754125599661843e-01 4.467250786830447296e-01 -3.456772093686758529e-01 -1.737016080603585866e-01 3.690688302012720690e-01 -4.636373858315045310e-02 -6.453692537236557225e-01 -1.928357336165891778e-01 5.685735707131219785e-01 -5.372539518087616761e-01 8.588553907649969510e-01 7.756305331016062343e-01 2.695987544765653388e-01 -6.835469976957035954e-01 -2.081443168939421107e-01 -1.202302874692837836e-01 9.659939049731360861e-01 6.505341090170195795e-01 8.969635173103456260e-01 -1.009093479559195927e+00 3.600409214764953014e-01 -4.910389800792171466e-01 -5.752065927754849151e-01 -7.150240026032795848e-01 -4.069236545925422055e-01 9.912071059825686148e-02 -7.932366404998590914e-01 3.899169950927522943e-01 3.837395214063172855e-01 4.899052109679398748e-01 8.653670111353717331e-01 1.011277163684252578e+00 -2.168363070667348735e-01 -2.727409743137493847e-01 -2.607851592783869479e-02 7.234454988189125135e-01 -3.247439269435362097e-02 8.100161629059998702e-01 9.168925491677448747e-01 1.308631359601635236e-01 -5.268555777002333906e-01 7.385826745022783246e-01 3.555711435024330180e-01 9.888395817173042390e-01 -2.289077229763323840e-01 7.660445799821962165e-01 -7.020481383813532705e-01 2.848745994285880045e-01 7.428024889307808243e-01 9.014320898717727015e-01 -6.787514181733318719e-02 5.239352728214885513e-01 -7.606241652064391068e-02 -1.515288428009597510e+00 -1.765874042601873811e-03 1.794770154118345562e-01 -9.336629319384425196e-01 5.210895844232298346e-01 4.791608199839697546e-01 -8.743464129278932795e-01 8.314626316760137525e-01 -1.860278818552383862e-01 9.003585831237263803e-02 1.019772964869243514e+00 2.402867004436183909e-02 -1.971654600224268528e-01 -4.469855027490610144e-01 -8.891075008394679902e-01 5.259232853150026532e-01 -4.042764908578568295e-01 1.920040802572237637e-01 -2.171181374223820626e-01 1.119476948585871989e+00 -2.169671075184194109e-01 2.389185425648515937e-01 -1.873072508377143786e-01 -4.602847507590666909e-02 -1.863679774888386820e-01 9.465883297537641683e-01 1.146510395682119876e+00 1.633148820044101890e-01 2.662570359842043044e-01 -1.614155855261129036e-01 -5.811586385648911390e-01 8.053518227649817396e-01 -3.102607548178769048e-01 -6.712001055242403647e-01 -1.002740904668247834e+00 -1.329203094765941950e-02 3.898952544362007666e-01 2.578242031660107902e-01 5.444837565196746221e-01 -9.500923715810679626e-01 3.219449630593729239e-02 3.193986745895622814e-01 -6.842801670462395069e-01 6.168897762536573737e-01 6.876898902441219708e-01 3.932084752592670540e-01 -9.376908404527812824e-01 3.554926336082593896e-01 8.821863804412189980e-01 -3.343254672753179224e-01 -6.580260437671150431e-01 9.879268219165878717e-01 4.452299023942200007e-01 -6.751994056004206879e-01 9.822214252930727696e-01 -1.957824206802885048e-01 4.224013334341419346e-01 9.891535162366594802e-01 -6.483238838594262976e-01 2.102533318124976680e-01 -5.959846483903065151e-01 -8.234255900606135548e-01 -7.587983822519330790e-01 -2.138387653762348350e-01 3.167071506232401745e-01 -9.100432982666084580e-01 -6.939863216101650467e-01 3.085973748301709119e-01 -7.634221616265108867e-01 5.365589061805842164e-01 -4.166799663148996746e-01 -6.005378102880569724e-01 3.322795340394237851e-01 -5.173088162980704618e-01 -7.802847831434687187e-01 -2.021395913031835134e-01 -3.427629839278721335e-01 -6.607334115540292041e-01 8.775886723858287164e-01 8.766401644609208565e-01 7.627782764927606429e-01 -9.696004540187153076e-01 4.563248438424674092e-01 1.123185620246269778e-01 -7.635871753156669994e-01 -3.436284232097082114e-01 -3.036524295200370149e-01 -7.986351286742701672e-02 1.305910364565314175e-01 -2.048696244536864774e-01 1.596241394028347915e-01 -5.212897020424375194e-01 1.642126927877999021e-01 6.186975588352101596e-01 -4.442831857947604490e-01 -8.229937758170315920e-01 -1.273779199787563599e-01
7.393647209546261312e-01 5.515304453647276173e-01 9.672939783895952992e-01 -2.464437368186027655e-01 -4.131224265490611725e-01 4.487366474719509668e-01 -2.448977469830448950e-01 9.610294374271455276e-02 -8.558268864538971510e-01 -4.491929522059043833e-01 8.281033623408891042e-01 -5.639134755929824383e-01 2.285559639285868888e-02 4.085977680581392990e-01 5.564140744516917758e-01 -9.330467874002456030e-01 -8.797413845051971215e-02 6.417240217083153286e-01 1.226775264106536589e-01 -7.157540578515770857e-01 4.338029207277287469e-01 6.942173970130394167e-01 2.291210918682227149e-01 2.036806449846557676e-01 9.362118458463997150e-02 -9.066589555739348327e-01 3.566427110764720521e-01 -1.453943322256168180e-02 -6.446153293445158194e-01 3.716958217097676709e-02 9.800931886302604035e-01 -6.638328321338198279e-01 9.757911771608100693e-02 -4.974051102523679435e-01 6.842462512782210293e-01 7.072716103677844091e-01 5.113114528655762214e-01 7.879741517348306523e-01 1.024925516623636845e+00 9.393842377853516279e-01 2.090632423601817558e-01 1.517573976286199500e-01 -9.066038298325815870e-01 -1.823224860468357911e-01 8.815167281248091902e-01 -3.104691906356448761e-01 -6.659789996651707122e-01 -6.987437998567899156e-01 5.122620748407722413e-01 -3.102413456413867787e-01 -7.003070105286893776e-01 -3.952664125600158229e-01 1.812885080138482152e-02 1.407533949495576309e-02 3.366074608306275362e-01 8.841757485900711977e-01 -4.933653528931569721e-01 7.174894834732452598e-01 -6.060259426014662498e-01 4.230168447942585508e-01 8.464294961213655322e-01 -5.408159404745401799e-01 4.185380628406722980e-01 -2.129383339205869197e-01 3.015994779986506114e-01 4.083628376864693599e-01 -1.222502478802240389e-01 -3.864374827434680082e-01 -1.114255413652654736e-01 -4.614922369071082775e-01 2.981281940895877391e-01 -6.294925474670424181e-01 -6.242988373614660746e-01 5.819093041194023375e-01 5.401508295345295446e-02 -5.307037562758584182e-01 5.864305569267871387e-01 6.404222227425698799e-01 1.059912843104477753e+00 -1.232213361210938996e-01 9.602536734638916771e-01 -8.817638313308994169e-01 -7.917654713054391724e-01 -5.309582944198563137e-01 1.234435085983554004e-01 -4.969409099704735766e-01 -5.681807499372892867e-01 9.512646139937762646e-01 8.595391566968451080e-01 -4.208093692481861825e-01 8.414359547848841714e-02 -4.931346647275727246e-01 -2.995906927708628653e-01 7.547838103801429721e-01 8.797472649690859514e-01 -3.436675746875502702e-01 2.039459449727377416e-01 4.168246515168220340e-02 -2.823148056952044516e-01 -8.889158905914218423e-02 7.032517546136439479e-02 -7.656655189690603214e-02 6.538141250534847959e-01 9.250208497453019652e-01 9.505328361376161883e-01 1.265731050250577860e+00 -5.015383936386118569e-01 4.791081771102894682e-01 -5.899033400515816261e-01 8.027282736954927111e-01 -6.142830208663460634e-02 1.583870415323067604e-01 -4.862622135120633349e-01 3.602463179596066545e-01 -8.036036180798409312e-01 -2.290756737944797117e-01 -1.192570929658870460e-02 -3.981627401828001789e-01 4.125598500281330017e-01 3.281519480315512327e-01 3.997057451152361551e-01 -4.205906866023811363e-01 3.602010024143977307e-01 -3.521843749326621364e-01 -1.309054890505263691e+00 -1.356417964145886002e+00 -1.471143170470556871e+00 -3.090925051530083456e-01 -1.915587336181828471e-01 6.821846349457594272e-02 -4.824280055231922604e-01 -1.850298883890140467e-01 1.507493775773305567e+00 -3.555059713916168262e-01 -3.881028233099369507e-01 1.169837799358704800e+00 -9.668574244066139300e-01 1.238385966773510316e-01 9.763182627879599673e-01 -8.782632490631863131e-01 1.956702914274746075e-01 -4.064693511541690452e-01 -2.613843998727660711e-01 5.129766427545149332e-01 6.486655448694882420e-01 3.757079539026946247e-01 1.122143352139049963e-02 4.320331652759979435e-01 5.943755933395192814e-01 4.314224961772039624e-01 6.084808072262211098e-01 -1.917946643989277417e-02 -8.223894996409010227e-01 -1.265310618879619708e+00 -1.205718593935717564e+00 -4.424169294755306292e-01 2.046073006367969405e-01 1.120495272681531762e-01 -3.291605465472735581e-01 -3.719442350714735612e-01 -6.359170898035293451e-01 -6.273995049827743031e-01 -7.603282050197784914e-01 5.416100707103569389e-01 -3.166475482798188357e-01 -3.895298795881334541e-01 -1.012133972601577114e-01 6.206736328081301490e-01 1.937376315026866358e-01 -7.513400536993604384e-02 -9.939188842964167270e-01 7.461430279315555136e-01 8.534529930323446756e-01 -2.890168069610697388e-01 2.566545442233097440e-01 -1.888084227547960625e-01 5.751760856204896077e-01 -2.340012851359914714e-01 3.867614627583745301e-01 -1.265241892589600958e+00 -4.536913500002259236e-01 -1.042604441421923323e+00 2.231004735570785436e-01 -5.019922074054562477e-01 8.198771615778216448e-02 2.707003149401866413e-02 4.749908260506915947e-01 3.424556649760832627e-01 6.119980815654609829e-01 -1.081433462072010077e+00 5.451100886932005452e-01 -9.085510355773975810e-01 -7.053853714834727728e-02 6.832216426795539865e-01 -6.369348633390408132e-01 -6.466050647344601110e-01 8.209694882614088085e-01 9.181060707971102630e-01 -4.629092299320881065e-01 -9.782114771240379980e-01 4.722306411365549961e-01 4.463630705450467584e-01 9.074864694483808503e-01 -4.117728885129282035e-01 1.141969108032174107e+00 -8.601276275312812469e-01 -1.145577016770067624e+00 -1.685750822702765994e+00 -9.388763011734089226e-01 -1.056686130008709368e+00 -1.976361713742190995e-01 2.027394271033776951e-01 -4.303283342182510074e-01 -2.001439940853111388e-02 -7.587978288715355735e-01 -4.624863757851274682e-01 -3.286987660486821450e-01 -5.134707286378709101e-01 -1.313031507319261770e+00 -9.576213043308953177e-01 -4.860762738561672652e-02 -1.848934775394967811e-01 1.815727739406401142e-01 8.303116264376338984e-01 -8.220774759033968593e-01 -8.360212688370702860e-01 -5.442753741590731220e-01 2.163486393193497226e-01 4.956908419062890370e-01 -7.898866877819833432e-01 6.137165557921571146e-01 -3.159749313728924536e-01 9.745315758997100675e-01 -2.671128169121262386e-01 -1.027049428495401706e+00 -1.162660109240714723e+00 -1.421870368116256556e+00 -9.007708905556357504e-01 -5.008631072274957186e-01 3.401472364966799944e-01 1.352726715419525216e-01 1.611937024691013909e-01 -5.596581944150923471e-01 5.976564848176202371e-01 -7.022528790332552839e-01 -8.031098572288828397e-01 -7.677355499684629381e-01 -6.404162572394008768e-01 1.508030595177359545e-01 -1.010493651086827038e-01 -9.352448621716636934e-01 1.564118516192043451e-01 6.686376277472827478e-01 5.758887318225160978e-01 7.643210917057744469e-01 2.421165919230226227e-01 -2.083011793614479856e-01 -4.431973483155801086e-01 -8.649020466614396052e-02 -2.196115836617572314e-01 3.034793061585360219e-01 7.721100114025166716e-01 -4.700856976590215841e-01 -1.550298843597143872e+00 -3.874380801719022327e-01 1.028823751808874559e-01 -4.267949612863354836e-01 -1.397667875442600016e-02 -7.387690299314190190e-01 3.967213634560101676e-01 -3.769233075179250769e-01 -9.012596955160493417e-01 4.493128350224963596e-01 -1.534359979563823861e+00 -1.969356328162455705e-01 -4.251470463792096921e-01 -3.651405073616214580e-01 -8.773844566356933106e-01 2.314395493712441756e-02 -7.285861143909422299e-01 1.947371330719494531e-01 -5.247048004807903787e-01 -2.645430443801246034e-01 4.951814486762242118e-01 6.172594478099500126e-01 2.489742407324528894e-01 7.603166768941423959e-01 -7.865302038793240552e-03 1.149074529407979162e+00 -1.032182510204423309e+00 -1.353444410536577269e+00 -1.212044786263512863e+00 -4.009153377357799752e-01 -5.484463381022001149e-01 2.815465767462373980e-01 5.514240186865643212e-01 -4.527447930562037981e-01 5.664985265722433105e-02 -1.087065475530515357e+00 -1.147044016135940314e+00 4.612969293830379014e-01 -1.142527348249209596e-01 -4.467747054244624039e-01 2.846342365038916911e-01 -9.123262879266883507e-01 -2.826561335204859707e-02 7.145976638524782487e-01 7.934057164759850123e-01 3.559530071376417748e-01 9.519528095173234172e-01 7.205725798957103301e-01 1.170253893779920618e-01 9.493494589295789488e-02 -9.337885873139964432e-02 1.007980739333326881e+00 -4.725614180904992578e-02 1.232717941320861793e-01 -9.109729718742964888e-01 -4.027215138694223429e-01 -7.348680622968964404e-02 -4.111234207172454608e-02 1.137517822306109316e+00 6.337531767947158778e-01 -7.069274866631424237e-01 -7.767828004306751577e-01 -5.327230363261321600e-01 2.625176126330744930e-01 6.128856580736748993e-01 -1.009977767312765007e+00 -3.548476456932644907e-01 -6.203688394386971394e-01 -2.171393543843314622e-01 -7.487650250667763352e-01 -3.171851150195663105e-01 -8.213358457208671526e-01 1.708258124085635932e-01 -9.226487399030971481e-01 -6.190559509124030080e-02 -1.978439336572059004e-01 9.509571032446326733e-01 -4.964039077397727762e-01 6.637064582492154807e-01 1.842716378061199645e-01 4.483281885864267013e-01 9.756866093099743065e-01 1.276984833159568733e-01 -4.465400643563015581e-01 -1.511867820664226092e-01 -4.242271778836098628e-01 4.518697419946126614e-01 -7.649306903154754478e-01 7.477302499035842764e-01 -5.813945320938394001e-01 -7.174654217759234287e-01 1.812112800059351991e-01 -4.724504264689012578e-02 1.863566841073227842e-01 4.252848920038904135e-01 -7.398276898513887756e-02 9.702437952578952807e-01 9.994932385500930883e-01 -9.732109786856126821e-01 5.122988259341910711e-01 7.024261222346398492e-01 2.700514619148138284e-01 3.588423925147387478e-02 7.636627873452335180e-01 8.118366909748759852e-01 -1.984974993712434743e-01 -8.516242895870658192e-01 5.505305643715497910e-01 4.464482706921130140e-01 3.940365380733206191e-01 -4.445976821461661843e-01 7.082330834613501658e-01 7.635259443745701091e-01 1.069368940594929596e+00 -2.060770013785868104e-01 1.169833740538551992e-01 3.667423120072906828e-01 -6.010285807246901202e-01 -2.369997880131821111e-01 -5.661154696156557309e-01 6.750810898867420917e-01 3.356170211961077565e-01 3.221656488710444854e-01 3.835575989420379472e-01 5.663912144098968149e-01 -1.260018300347525710e-01 5.201231994822721472e-01 -5.689627180211337398e-01 3.182853103672316775e-01 -4.456151421103191623e-01 -3.257996568021902933e-02 -3.595651687436760557e-01 7.632900881978577079e-01 4.898994937943137312e-02 1.058402780956808620e+00 2.640320540670600402e-01 4.936586208382364171e-01 -8.287581103251642212e-01 -4.991512320527825564e-01 2.632653144140383317e-01 8.052260028541814441e-01 -8.220083392629962127e-01 -8.547192886818900659e-01 3.643243747619404616e-01 -1.195785672056787624e-01 -5.872546578742638967e-01 6.013013456535019063e-01 9.699339424560802225e-01 1.601580528041081086e-01 7.023400857609245485e-01 -1.197629521823678905e-01 -5.292640275007304274e-01 1.766507164426066034e-01 4.115490948204574839e-01 -2.538876965012187847e-01 4.337275886553864646e-01 5.691745581048390790e-01 -1.668513939001516622e-01 -8.287816648491850291e-01 5.583121078426098727e-01 -4.560041509248807245e-01 -4.728852015131701503e-02 -9.445801613986789524e-01 4.221044898504740239e-02 -4.317015853307182849e-01 1.941693958275629850e-01 -5.971962226277860442e-01 7.930945556261231877e-01 1.154448168921083040e+00 -3.410119027727245289e-01 5.362741253047714762e-01 -6.195733780236205579e-01 8.473220688493449115e-01 -5.433594119149582902e-01 -3.997497735260017830e-03 -9.061301262333194551e-01 3.834744652139007726e-01 1.269073196853169432e-02 2.694099275035270469e-01 -6.036051824023771495e-01 8.493379191102324866e-01 3.373074443375693732e-01 3.024012452461117828e-01 8.123189942041784128e-01 -6.264471843930919936e-01 -5.031907156017324523e-01 8.313640452465910213e-01 -8.343373993768291585e-01 -4.293068750576166659e-01 5.049231651284808997e-01 -4.992051661011747132e-01 -1.645971421280394420e-01 -5.926348448001190761e-01 5.139203044313432889e-01 8.437820673700571761e-02 -3.371590276221870242e-01 -6.662811768526699652e-02 8.423619664968324816e-01 -7.025476825241081524e-01 -2.387010808965255582e-01 1.500218281512587515e-01 2.006149968952014029e-01 4.877877836506958609e-01 4.365493018244483436e-01 -1.103499337215283482e+00 7.441996157354854313e-01 2.299794721622559421e-02 3.216482645869380708e-01 -8.846630808218342024e-01 -9.772344827901267017e-01 -6.115066926562752192e-01 -6.156533473388682287e-01 -8.881504796188031126e-01 6.219631005774550747e-01 -7.585201441276958612e-01 2.942654029272509519e-01 -5.419703360249803481e-01 6.873450636715321416e-01 8.390396536497189972e-01 2.322491968851926047e-01 2.464588810001862584e-01 -8.091123378085809947e-02 2.765521445623750907e-01 2.087053837338787299e-01 1.135082675272039571e-01 -9.615620114235451377e-01 6.039882244226915109e-01 6.545366509213999817e-02 -5.566326061065075548e-01 1.481522258339242060e-01 -1.092814909744094405e-03 8.306201920658760063e-01 1.598769691731878884e-01 1.158631911390823666e+00 -5.634499427404324745e-01 -9.363779454418558190e-01 -3.211497147648971207e-01 -2.652878543970976777e-01 -6.660988876502543787e-01 -4.215613246043187212e-01 -2.676467813815917030e-01 5.377933533765929530e-01 -2.628625773523811104e-01 4.262901030114440992e-01 -1.604496324222530745e-01 -9.754684149627987910e-01 -6.274429351106420860e-01 -8.580927888342037013e-01 -1.028321441486657051e+00 4.517808009163922223e-01 -9.044342559580413887e-01 3.564423385874257444e-01 2.999208329174222198e-01 6.470960530194094229e-01 1.190809874586775674e-01 2.056380123246657199e-01 9.849460631834851265e-02 1.985714883270692510e-01 8.743818438364857615e-01 6.606041279656621468e-01 5.999226748445982693e-01 -2.942860779764436829e-01 -4.884880602783033821e-01 -7.113089485688021130e-01 -3.348483009478335770e-01 -8.685854980969343053e-01 -4.428260242572565342e-01 6.793484384773329499e-01 -1.222751393088562788e-01 -4.526660776451901236e-01 5.563941206830633757e-01 -1.325242800759030559e-01 -2.196381875050106569e-01 5.075210155725805583e-01 1.267351291693785964e-01 -6.775895652907424349e-01 -2.371232467929955401e-01 -1.609798377927083302e-01 2.952204238466721309e-01 -6.654182201557266030e-01 -4.898146366852552114e-01 2.879969366772734962e-01 -3.458530260399159673e-01 3.135292607440897661e-01 6.182142085233427453e-01 9.529122694268137295e-01 -5.109911118739957070e-01 1.061818733096730361e+00 4.501790525268181131e-01 -7.199685156020732002e-01 -4.124871061633781366e-01 -8.746678607958132678e-01 5.588413938706430217e-01 -2.731290348475265972e-01 7.496618678509080549e-03 -4.909234499875867463e-01 -9.751826670230194782e-01 4.868239569612367035e-01 -9.365576362402185939e-01 -6.209271642723515061e-01 -9.561698097253481521e-01 -5.860807825880671729e-01 -2.505364719411271590e-01 -9.747642257858333270e-01 5.724851237277138738e-01 1.663791706581156660e-01 -6.949308840043059154e-01 -6.545843716754938535e-02 5.135562379389601029e-01 2.908673871989223003e-01 -5.886967090283740101e-01 1.180087609608991617e+00 1.518381819916695026e-02 5.876462450426539474e-01 -3.928051759994530268e-02 -2.363446582688843653e-02 4.167825892392619247e-01 2.165074089325433326e-01 -1.101763861180247384e+00 -2.683977893785827740e-01 -8.759167786002769462e-01 -1.380951814993736093e-01 -1.926822023377834925e-01 -9.418836818779900977e-01 -3.971362505536572551e-01 4.665001870515291249e-01 3.593949140063077974e-01 8.192356164288040754e-02 -6.699731763757431624e-01 8.988621050166903381e-02 -9.740738677131997036e-01 -5.576376313911675098e-01 -5.645324168608609749e-01 1.434824695298692332e-01 -9.779847892799155007e-01 4.550156411533876066e-01 3.461261901763900695e-01 -3.387869189177101781e-01 -4.079747351590075066e-01 -2.388099437626598279e-02 1.408168102916923958e+00 1.127094769685818454e+00 -3.265468746426183344e-01 -3.610567106393841076e-03 3.204043340220222302e-01 -1.946641191495082635e-01 5.391839364220671893e-01 4.694000955147014653e-01 -9.641042288396780569e-01 5.908899764431153612e-01 -2.740377868326719368e-01 3.145953402645462194e-01 6.558504767894872689e-01 9.532613308954708264e-01 -1.081694739325973070e-01 -8.156628476589947718e-01 -2.383995292605939065e-01 -6.892382029966118706e-01 6.441653094686223824e-01 5.022349678335353840e-01 4.413405501489220395e-01 1.106186204938221056e-02 -4.994006380115907362e-01 -6.808864655156842138e-01 -3.952386037939491503e-01 -2.761252918366518538e-01 -6.633739432213835510e-03 -8.967127888613720677e-01 1.376213252127342079e-01 -7.008386655811419397e-01 4.670592697125653947e-01 2.607270110313052447e-01 -1.262423445463968452e+00 1.415089347301317912e-01 7.965393706004407492e-02 -3.484772726184032776e-01 -1.085242198065075936e+00 3.843566232768469426e-01 9.053860490548999440e-01 -8.857788999507825167e-01 -9.037176783994591567e-01 -9.399670111531308603e-01 2.038258148775791145e-01 6.223493072517847224e-01 -2.375381355906762415e-01 7.121330197567998788e-01 -7.949295267784263208e-01 -9.556328202503634461e-01 -7.099863601205435026e-01 -8.378031521574406115e-01 4.795290077443276622e-01 -9.295527512266079651e-01 7.459838864409915060e-02 -3.180602015457073550e-01 6.940708382956778388e-01 -5.582675684591988929e-01 2.387392717425931010e-01 -3.049542942041747473e-01 -8.758755894567995526e-01 7.259687634895690689e-01 7.067734986007645492e-01 -7.518321773513407802e-01 1.697848702287363676e-01 -6.036069778737565006e-01 -4.949158046671084943e-01 5.895635726197525628e-01 3.400680579656206737e-01 -7.313241447573529119e-02 3.942754844833575856e-01 -6.380874747502465194e-01 -7.457055082276748958e-01 -3.084116546230862288e-01 -7.546563843777877034e-01 -2.318732099711074135e-01 -9.564779292850297265e-01 -7.760123921202982666e-01 5.473566465260286673e-01 8.805485104436912014e-01 -6.313649324150935049e-01 -5.688161658997293868e-01 6.541790583991606844e-01 7.936986329828139564e-01 7.856927550775988367e-01 -5.419612905762924981e-01 6.666783137200513742e-01 -3.165535363755274667e-01 -5.047857842877856438e-01 -1.068337822687365657e+00 5.276518890605024215e-01 7.176857729564196653e-01 -5.066919228943538300e-01 2.668731765109476628e-01 7.275732720681122867e-01 5.381063686763896126e-01 4.375867270073601767e-01 -3.248669786373117180e-02 6.513117152889358330e-02 4.055811238463460366e-01 -1.224569943167850283e-01 6.488028541426614781e-01 5.376311911098174967e-01 -3.909845639243437754e-01 2.445557051857769060e-01 -4.572896305785050797e-01 -3.018804785563315995e-01 -4.861190745736724828e-01 -3.455355612559027900e-01 -6.063869335557628970e-01 -5.559569546999475476e-01 8.239126304833896408e-02 -4.806468104461878443e-01 -6.464872115920313744e-01 -3.351646474438406131e-01 1.100810417729346069e+00 7.886810121700730258e-01 -8.157048220372044023e-01 3.678997068040588125e-01 7.267429102100785299e-01 8.345748052974575337e-01 4.905526943663679473e-01 8.457784439036538648e-01 -6.087142828910274694e-01 -7.769472212439483272e-01 7.580173185673533265e-01 8.933926259323732300e-01 7.295587955044005035e-01 -9.221628249503703856e-01 7.992040371293107626e-01 2.001418608559514534e-01 6.092445668541047743e-01 -8.584112022339108750e-01 7.062369283838778600e-01 -9.397836053922216104e-01 -1.017917131831677230e-01 5.165464449396887092e-01 8.703244369796444557e-01 9.683400149196988993e-01 1.097923067321077140e-01 -2.829913045035590824e-01 8.609994235497481219e-01 3.777109661053292822e-01 3.324376885738401510e-01 -1.378295739390235919e-01 -4.588759771327197839e-02 1.878038819613955246e-01 -1.055122377875063050e-01 -9.032851609168367490e-01 8.167783708666896958e-01 5.818605672168468690e-01 4.734975985150653016e-02 9.796092314131363277e-02 -6.836684154751939690e-01 -1.446017188328869718e-01 7.253089861241934777e-02 9.263462436867002658e-01 8.084664710907840668e-01 -1.679950277679111981e-01 -5.375077447320120161e-01 7.672840078030717104e-01 -1.015449748446572570e-01 6.268508830677685939e-01 4.231662825384556181e-01 -8.909824269386882323e-01 1.471590366299153629e-01 1.423905037580742161e-01 5.488499977623161330e-01 2.174908040220752126e-02 9.383937010375967835e-01 -9.822931432819103081e-01 3.004901153368366717e-01 3.197679092704289738e-01 4.640536279995401969e-01 -8.077384079755733914e-01 -5.193982636635835481e-01 4.777225535538117684e-01 -1.910997782801196476e-01 -5.403225554702765221e-01 4.098890657769984625e-01 2.406391603428850168e-01 -1.667562434956755268e-01 -8.610288009614182059e-01
1.406385805787104815e-01 -5.201160576239993727e-01 -1.963724486131797065e-01 -7.501159984001293246e-02 5.115588983655146027e-01 -8.100095949200689649e-01 -1.061626185242510179e-01 1.074362357840112914e-01 7.348682357911398011e-01 2.119226100124715906e-02 -2.406936865021827021e-01 -2.398941515884049913e-01 9.475115064083790006e-01 -1.858166939901486139e-02 -4.689073190264502200e-01 3.029640080237667732e-01 8.525977379349514162e-01 -3.126137751737556592e-01 7.697694194876789631e-01 8.140661494636924900e-01 -1.486955033625243505e-01 5.864009779811123479e-01 4.649538411526574766e-01 1.337260565857472105e-01 -5.690782228773458851e-01 -1.906385218056050324e-01 -3.950985265900548438e-01 6.268106392154924045e-01 3.086529730040645791e-01 9.158161861358908862e-01 -8.523598343727325499e-01 1.634598967399820690e-01 -3.241937216673143607e-01 -6.191465403483821239e-01 -2.659181566263918439e-01 -1.910553437699450408e-01 1.322129106594358283e-01 -2.953316163582527243e-01 5.291212726445184700e-01 9.619335454896975612e-01 -9.110424617280660220e-01 -3.301307824148851378e-01 -4.496871791515465455e-01 6.369272702263842900e-01 -6.554193719805516682e-01 1.005018621323686689e-01 6.679116779366395251e-01 2.614368621817508842e-01 3.613196956591562259e-01 2.524547587277318761e-01 3.920073146159875344e-01 -9.440025454407997563e-01 7.829658273758517417e-01 -5.027880434679121713e-01 -5.415556759350208527e-01 -3.570965575959297311e-01 7.498465894513883789e-01 3.781386253893277427e-01 -5.483232858618104499e-01 6.751724232061375730e-01 5.086484846473874333e-01 2.639185965398015143e-02 -2.278756739218012195e-01 -3.665121161228991620e-02 9.091907129657518238e-01 -1.341211133726784299e-01 4.147916538200229208e-01 -2.335075437151079292e-01 2.767123856961454242e-01 -7.014190209675018606e-01 -5.338303631858426490e-01 5.109269688974125145e-01 3.798106780489915457e-01 -5.068431497047717338e-01 -1.757233710984035524e-01 -8.436752025184184323e-01 7.526877603031596475e-01 -7.524005043589880870e-01 -5.767716970792735598e-01 2.426101451382445262e-01 -9.380951298517212766e-01 -1.293601297148536944e-01 5.913214701051496824e-01 9.543325407107676739e-01 4.174620809028954938e-01 -7.166794079624303482e-01 -9.122467710519263639e-02 -7.838062161192710375e-01 3.359305486027635568e-01 -4.710220850347799915e-01 -6.139182945783269174e-01 -6.496923867112950335e-01 -4.411241323552963500e-01 -5.207761496153706648e-01 -1.434184135904655218e-02 1.100075708978195843e+00 1.216512547046050274e+00 5.819514207813336615e-01 1.760101056081969373e-01 1.314506906107842932e+00 -2.364856596027820612e-01 1.430707556189906582e-01 1.140980841907154097e+00 9.068162581697729596e-01 -4.345263740732038249e-01 -5.072563231253385263e-01 6.623792472593220682e-01 -8.614800452397807229e-01 6.967175194332344557e-01 1.841633489276757463e-02 8.956162718108034992e-01 -3.808584789427804651e-02 -4.905114217561370449e-01 -9.073716597117515992e-01 9.263112269628482887e-01 -7.411536477212871121e-01 -4.726535566911089226e-01 6.738267553871331306e-02 -8.003040769488795059e-01 1.035314862354148380e+00 -7.386106892932660373e-02 1.382988522640099249e-01 7.703336854802647071e-01 1.192589275590672848e+00 -2.762937937547278455e-01 6.548828396032388977e-01 4.347696549835136648e-01 1.434183033848917821e-01 -5.484305977065468962e-01 4.404924387221087478e-01 4.209246255629175426e-01 7.328004911440060276e-01 -3.251957639644969533e-01 8.374734773675609478e-01 4.469905231920845434e-01 1.110863014914925451e+00 -3.929557367729117900e-01 1.450718231634816613e-01 -6.784967742795539047e-01 -5.813595230904078370e-01 3.858185389752244454e-01 4.972253416280270066e-02 -4.984198467423362616e-02 -3.677206673576951523e-01 3.637910455694590151e-01 1.112392131513497029e+00 2.230054269128016464e-01 1.639594374176324976e-01 1.697123341729651624e-01 1.183618350070774428e+00 7.922353128509477260e-01 8.323225970747565039e-02 5.782242554026310044e-01 1.053188384255742127e+00 3.486818502976131162e-01 3.555151904514739503e-01 9.465478731809011670e-01 -1.883687938178443821e-01 1.145523394663400030e+00 3.982906831302967521e-01 4.790870441304126981e-01 8.709250951733304991e-01 -4.028506054509727319e-01 1.830363052872781837e-01 -5.445805755568352557e-01 1.478616665497929084e-01 -5.899317820992222572e-01 -9.604292635605998774e-01 1.965597780144687778e-01 7.574358597125266934e-01 3.612246146956353821e-01 6.508981545643081068e-01 4.651090516580468764e-02 -4.340793948034675775e-01 -6.395072367757365095e-01 -3.627595465876736203e-01 -7.062598028341638967e-01 5.408223160560563514e-01 6.734894002964321169e-01 1.095861703378150587e+00 3.287270505517269625e-01 -1.686688465530935405e-02 7.814998164705683203e-01 -3.482607594692630620e-02 1.849616814982280921e+00 1.308305485280003788e+00 9.275025920578255922e-01 9.097395759611139887e-01 -2.244102587366290924e-01 -1.152289544420609380e-01 -2.821971460646551799e-01 6.183277684888940362e-01 2.919623577033357217e-02 -8.514681049834776916e-01 5.601227823661514282e-01 -2.926324117767390431e-01 7.445320477321385466e-01 -2.392310266497037208e-02 -3.133228891220038448e-01 4.886638372919985956e-02 4.559142595049743840e-01 9.078025275630773328e-01 -1.942364563048628867e-01 5.769527215209234727e-01 2.977929642186546988e-01 4.776388625380111330e-01 -5.008701296160569250e-01 8.717435661923662593e-01 -1.084352254457319753e-01 5.858435832005147725e-01 -1.512592954034250037e-01 9.539062004050397059e-01 1.348740858850681290e+00 -4.558226277746342814e-01 2.993650467213959665e-01 7.921168589891959266e-01 -6.145243114671030682e-01 -1.850648310588190893e-03 3.969547524510109310e-03 -6.163040649644425661e-01 -9.138852458691734126e-01 -9.418909111460507244e-01 5.910474197021099441e-01 5.621126270325436103e-01 1.290917100866776357e-01 1.274201438736413394e-01 -4.976086666374930634e-02 -3.651965112616720188e-01 -7.271083718015580732e-01 6.165777068856567178e-01 -4.746150900937771144e-01 -9.400850140767837981e-01 -3.570964503084723130e-01 -4.024556870882003978e-01 7.136975207639113528e-01 8.457572113144959935e-01 -1.801479900540515489e-01 5.630052692877627329e-01 -5.520433620797396967e-01 -1.131135292770523854e-01 -5.352788556776794104e-01 -7.934414646927594461e-01 -1.027619242559832946e+00 -1.269744620940041147e+00 6.515441567335045203e-02 -1.306576125776833242e-01 -1.520837990791078509e+00 -1.112208346427993044e+00 -7.231235701147085138e-01 6.155035376601111080e-03 1.250300646986898245e-01 -6.208759786928765845e-01 -2.027170550684487815e-01 -2.710241117574671565e-01 6.669306305324934452e-03 8.850204740297082928e-01 -4.360720796640301100e-01 4.004364512233892226e-01 -2.592072575945618684e-01 7.983930121057770946e-02 1.330713707966500570e+00 9.369939841174207418e-02 8.788625277096796529e-01 -8.228233358180893353e-02 -6.989578385916388470e-01 4.404483015474727203e-01 -1.927189587932206238e-01 -1.479077141372854287e-01 1.557411467224372181e-01 -2.354442777447441904e-01 -1.049487552229167564e+00 -1.372093853868841640e+00 -5.807571751939564209e-01 -1.228996699789879798e+00 -1.593506941889825335e+00 -1.164696252703592227e+00 -1.195298111962886267e+00 1.339515149425425655e-01 -9.167612967842362348e-01 -2.252135584337409957e-01 -3.638702562267304708e-01 3.051156875421541792e-01 3.212359714600408478e-01 -3.295412779377326906e-02 -9.319444224583071923e-02 -9.008167833941426172e-01 -1.812014285784087630e-01 5.449068878685690009e-01 -3.820639718248829420e-01 -4.304554704426475364e-01 -7.024404633415421983e-01 -9.038854490806919051e-01 9.286167536871535455e-02 -1.519024095683102260e+00 1.020189797211797506e-01 2.616620699291172802e-01 3.059724644161386786e-01 -8.683098169666786381e-01 -2.536612637684441673e-01 -9.237213020541215069e-01 -6.294587194583590728e-01 2.463395065253654037e-01 1.291231827405009691e-01 -1.383192425338913845e+00 3.696532710191599569e-01 -8.491608363655006597e-01 2.939093986192479746e-01 -3.458165967609362346e-01 2.489307376502009062e-01 -1.016136692387533014e+00 7.652399242650486100e-01 -8.967377259537065992e-01 2.808029240482145528e-01 -5.081524967811702487e-01 -4.256610592765741052e-01 -7.266199059624628420e-02 2.386742035617174795e-01 -6.314012775791796317e-01 2.800323925211846143e-01 -4.532825717838682711e-01 -1.908225921482849641e+00 -7.536366475067460824e-01 4.906211068108411455e-01 7.028248087252965404e-02 1.355492455564547782e+00 -7.009589630766401847e-01 -7.979098988217403488e-01 -4.779097969839760096e-01 9.336871271262939254e-03 -9.193049198732999860e-01 5.353851804734770931e-02 -4.712597824267659163e-01 6.762216840266748186e-01 -4.103480139526579085e-01 -4.153027042022021664e-01 5.154952984017665552e-01 9.668243498085083987e-01 1.044334061597476798e-01 -7.793293988939552497e-01 -1.107336397227740576e+00 1.848345293108472898e-01 -1.441453858781633346e-01 -8.203608599951804636e-02 3.512603909607683178e-02 -2.917533789582977266e-01 5.688686349646456843e-03 -1.089492866898309709e+00 -1.125927150854650893e+00 -3.400557798326446779e-01 7.031417443248338950e-01 1.561161442847986691e-01 1.289498565695944343e+00 1.599767682701248805e+00 4.454934758460153965e-01 -3.839163942314813838e-01 -3.167259694438436246e-01 -8.279172948673069188e-01 1.703839824783553447e-01 -7.124023256430519480e-01 -6.278819039691739823e-01 -4.888791534337246225e-01 -3.844318500775728564e-01 9.172047226642584539e-01 4.589116520930851956e-02 3.359298399011668157e-01 -9.160806315225846763e-01 -1.697355471705415120e-01 -1.021866402904400672e+00 -4.630791651197885828e-01 -5.955089751635593842e-01 2.323930551681062939e-01 -1.480394080240847177e-01 -2.643586080485711420e-01 -9.769329553519271458e-01 3.512000083178456467e-01 -1.352236653527427057e+00 -8.440871200659736395e-01 -5.543904644878831084e-02 4.498449325722260195e-01 8.861477444921185276e-01 1.360707143404794595e+00 4.149620179956349242e-01 -6.438449858972949968e-01 -1.221795563027317372e-01 5.791764814839049924e-01 -3.932341292074363337e-01 -8.023549951244997036e-01 -3.032642511795280993e-01 -2.544266777233480381e-01 1.234957212898812745e-01 -2.789470551145291632e-01 -1.346682705907669142e-01 1.265765210202158542e-01 4.332121038648487632e-01 1.829401903097273296e-01 1.489453041448154380e-01 -5.925702144968012508e-01 3.004529369038010378e-01 -9.045294420725674689e-01 -7.687324162338795563e-01 4.507522471572709272e-02 8.868365907406698945e-01 -9.355511660242282757e-01 -1.201217354082608990e+00 4.091745299175399975e-01 4.119301587874663745e-02 -1.041383076694607640e-01 1.513307818664800575e+00 1.197589972209353260e+00 -6.632873234475826774e-01 -5.993804293133115912e-01 3.816377085785550571e-01 -5.491950630573316783e-01 7.435553912769574669e-01 -5.284248239541506909e-01 -3.368430022374753197e-01 -2.648678126095942997e-01 -7.448942743862512206e-01 -7.549891640230396161e-01 -1.247223392715221119e-01 7.916102415176078100e-02 5.791883470085751329e-01 -5.879694652002073196e-01 8.164575043439692426e-01 -3.157334528813116742e-02 -9.928521803020504688e-01 -1.759208699696321598e-01 3.902911554609710953e-01 -6.026215697153528561e-01 2.264009385744544245e-01 -3.682505291578885842e-01 6.925993309379208096e-01 1.061670175552883011e+00 1.627672111504409325e-01 9.757372928354428598e-01 6.988797930104757583e-01 5.408768384864983680e-01 4.490484871366741682e-01 -8.737634920527711513e-01 4.905980524003443199e-01 6.287062606594545633e-01 -5.327152276224870198e-01 -1.032013882052525977e-01 -1.434922642370133339e-01 -2.534275653907804363e-02 -8.302574461588306809e-01 -4.689371493497393462e-01 -3.680463286670295764e-01 3.616579275843794239e-01 -3.959032450048280416e-01 1.126727605956491518e-01 -8.593195208764604631e-01 -1.070477343042803620e+00 9.099444176423013286e-02 -1.544751926026710909e-01 -1.283249370360051711e-01 -1.189547424811634002e+00 3.835016011997929852e-02 -1.838290021776297148e-02 -4.990587322919601831e-01 1.306241483724444041e+00 5.901992447045603107e-01 1.295909882749045172e+00 1.130558934225802448e+00 9.578510134973454715e-01 7.659433431373292578e-01 -5.265102535197619948e-01 4.387389408836346871e-01 -3.547468550512184460e-01 -3.785801736394112105e-01 -4.286915060351216729e-03 3.663555219060657397e-01 4.990604945777383228e-01 -6.970878095893393578e-01 -3.698986075886990799e-01 -2.100200094139997170e-02 -2.868155861945997920e-02 4.921886228372283068e-01 1.298417481336251456e-01 -7.900897180587480584e-01 -3.162061287624251538e-01 -3.602998027829655836e-01 -6.822989462765289836e-01 5.273708524222253669e-01 2.927369279659444157e-01 -4.499131522423944207e-01 1.933533969077468884e-01 -5.270472739935245787e-01 6.803472876074022624e-01 1.090887734332565140e+00 -2.353328045098220245e-01 7.647515410337665243e-01 -3.144563095065310843e-01 -3.056421621483086382e-01 -1.593864123829044910e-01 6.747217675813383941e-01 1.129585714910772642e+00 5.138769255063279084e-01 9.112231686543216247e-01 -1.374196614944216688e-01 -5.618799761971731144e-01 -2.953187832539629770e-02 -4.806267532584110325e-01 -6.894735618721388182e-01 -9.346654206439536372e-01 6.074545357715660510e-01 -3.030286944355739531e-01 -2.788496040266305043e-01 1.193218254955105806e+00 1.292190710704036183e-01 -4.087462353034505835e-02 -1.676194924408862807e-01 -8.978150402445084222e-01 -3.883197067414922432e-01 1.121314464788210730e+00 6.489462928521511076e-01 3.139642229291078057e-01 -2.595120028977270996e-02 3.031065124512690168e-01 8.902715685860268513e-01 -2.474274132392200176e-01 3.289274533675966561e-01 1.153858436590153858e+00 -3.194187888963412325e-01 4.232779952842505300e-01 4.226282831595357115e-01 8.546640576116449894e-01 -7.958217194562087204e-01 -7.233211043259618611e-01 8.024844486064660609e-01 6.474662978778729094e-01 5.706602597318310988e-01 5.242290254474551991e-01 -5.378592276806459793e-01 3.794944966923282093e-01 5.321680387421413583e-01 -1.428100806390708577e-01 -3.196883768595720765e-02 -2.376361978400105268e-01 -1.134249379886309445e-01 1.027219004151877835e+00 1.179180458351280159e+00 5.038255370022154574e-03 -7.381165197413084300e-01 -7.288369636849204580e-01 -1.593027779155609946e-01 4.424067412978957559e-01 2.161067277633585415e-01 1.166646133976930289e+00 1.247423715862280735e+00 1.890860818713327174e-01 1.155315888839162808e+00 -5.502740672365036279e-01 6.762431377271959088e-01 -1.097167060963394475e-01 -4.313244176058136370e-01 -1.917719594537694028e-01 8.153182491059404180e-01 7.246722479883539458e-01 2.788892709811552906e-01 5.260335785953225152e-01 5.941853731760813329e-01 -2.517462547647690285e-01 -5.259152878726384983e-02 6.761455182024360411e-02 -8.956444423422185719e-02 -3.559082493696513749e-01 5.543094929079064315e-01 4.257823050682273819e-02 3.700512384951135103e-01 -3.952944793320112282e-01 8.225150217028401878e-01 -5.523159675652856704e-01 3.548860227271504741e-01 -6.864022818827069106e-01 1.383053250273721391e-01 -3.691320194402707977e-01 5.886440087663020737e-01 9.188268374755429457e-01 3.813683552763603712e-01 9.317516875565681200e-01 7.640011483373692069e-01 -6.460060422995914098e-02 -9.208860732907142577e-02 -5.691632460472115795e-01 -6.159886460578730683e-01 6.314740094166405582e-01 -9.700164689060264411e-01 -9.317783360391160841e-01 1.070268003219161934e-01 3.624127409394606314e-01 9.800142522402659484e-01 5.766896028755275072e-01 7.313873743725364529e-02 -2.778153301639185724e-01 1.001057934623937440e+00 -2.704415280622737283e-01 5.730321187204782118e-01 -8.547291814200613791e-01 -3.932420247700114668e-01 -1.157038950009153522e-01 -2.259837026381430192e-01 8.841877343273097933e-01 1.177612578994127412e+00 -4.727760301726970787e-03 -3.011232864968938494e-01 1.150829033315592831e+00 -1.268952252527907609e-01 8.164304276828192597e-01 3.596904795252578446e-01 2.480796606851103925e-01 -4.366152403851303321e-01 5.613440742186319721e-01 -4.810218778679318796e-01 -9.939875285294786922e-01 4.376837449686838410e-01 -6.441560089575053549e-01 9.341671511666351790e-01 9.697998369468747715e-01 9.793540607223472083e-01 -4.007171896721000159e-01 9.198196358082239010e-01 4.326474005680578938e-01 6.427740233755055987e-01 -1.416691394592823894e-01 -4.641566518099887045e-02 4.437670035873126917e-01 -1.107720928711464436e+00 -6.686099855330903674e-01 -2.063922018554072979e-01 -4.858390995728361500e-02 1.458853996820146603e+00 -3.202178185743909666e-01 4.315847195257597191e-01 3.060219665656220833e-01 2.781037559697828176e-01 1.234784036838564997e-01 -2.506973319213269269e-01 -6.760881400323019985e-01 7.244870462445512915e-01 1.144582623092097046e-01 -5.813780256057216045e-02 -7.517761206108459771e-01 -4.495078507378721944e-01 1.514706319743508445e-01 9.571818549312953728e-01 -9.929277737194995568e-02 4.917091524941439307e-01 -7.842464971501836857e-01 6.665779457490540461e-01 1.129038258020590657e+00 -1.969549562263384346e-01 -7.007776883304207560e-01 -3.281122708088772821e-01 -1.043950004339784909e+00 -8.655403793820950487e-01 -7.636979281848944590e-01 -5.600636556143914202e-01 -3.266027770880408632e-01 2.043195802865465371e-01 1.256188043275208999e-01 -5.915466407260022708e-01 -3.702220446025850098e-01 1.293254164482852964e-01 5.352169292035938719e-01 5.931031238426525132e-01 6.849707656515584553e-01 7.922481673504876420e-01 2.589370795930086011e-01 -7.514110354026786176e-01 4.974378423403051364e-01 2.083427319520168020e-01 2.940209942522837849e-01 9.215656067780919614e-01 -8.875890960745666525e-02 6.303746674539701944e-01 -7.460000236692136966e-01 1.066908414501739899e-01 8.645791376309799325e-01 3.512235304193156993e-01 8.489688958497866311e-01 1.162242626914218313e+00 -6.988571746658870376e-01 -1.072283530026120646e+00 8.898183680842741694e-01 -2.198069482315171130e-01 -5.577636428742744901e-01 3.142992623142082387e-02 1.000193974159852894e+00 2.511094733621158648e-01 -5.965343689897032453e-01 1.131279108150713142e-01 -7.566054727296407378e-01 3.433622828864681953e-01 -1.239621984796185072e-01 4.837753188102633106e-01 -8.559839645427310684e-01 -6.875972714667717423e-01 5.623470678963051750e-01 8.043824579337439662e-01 -6.536366721603463770e-01 9.359455022297673565e-01 9.034930498898635642e-01 -8.532913900717122857e-01 -5.856154065498829775e-01 7.754904480618173279e-01 7.179436089877589966e-01 -1.767517449729914258e-01 6.504857659786762447e-01 -2.926738069606625303e-01 8.725853317056089242e-01 5.910451933830522808e-01 -1.499571979034582635e-02 4.141984319104562440e-01 -4.486985568908156696e-01 -4.571017904185609160e-02 7.912740141114865677e-01 7.631483180457150350e-01 1.452501327687009784e-02 7.767258345016407883e-01 -3.134597956701536958e-01 -1.027051170961863935e+00 3.437142737019208139e-01 4.292922497429317308e-01 -8.958065776127739355e-01 6.964513564715654192e-01 -7.301244681553606952e-01 -2.553313451417404956e-02 -6.754877065261630786e-01 -8.003302020412230711e-01 8.167700745726125255e-01 -1.151393545340973455e-02 -2.103652121707314804e-01 -1.699038473976036134e-01 2.437053230432676409e-01 -8.504278361799381125e-01 1.204457978208399449e-01 -2.101706222910427468e-01 -8.285755989158898327e-01 -1.069704773489033256e+00 -9.305399428229119696e-01 2.760726371048465300e-01 9.722045090310078574e-01 8.721949753332414179e-01 2.457443083381537774e-01 -3.087997792120547591e-01 1.152961766587259768e-01 6.374018671355263788e-01 1.927179331668580631e-01 8.507412028455941799e-01 -7.269118458416432560e-01 2.762466489100144362e-01 7.275311671774888911e-01 1.433796635907530481e-01 3.358796537419574957e-01 8.202724830361796116e-02 -8.698301965452361895e-01 1.475890266660488948e-01 -9.624473121446381896e-01 9.312525486264771057e-01 6.059749795741434797e-01 -2.355379244111591164e-01 -8.416902061218768660e-02 8.032487284007128192e-01 6.117544192592774266e-01 3.266073403042658030e-01 -6.045407442298617734e-02 -4.440386472604464403e-03 4.489130143336826917e-01 -4.619493035293609218e-01 7.721981215067196258e-01 7.757804328653140624e-01 -9.262307927591895140e-01 4.582133229864945312e-01 -6.752889071343471938e-01 6.888823677413929980e-01 2.844403780862951314e-01 2.498287844065135432e-01 -6.873701688326300241e-02 -8.187996206483305617e-01 3.660243489032906083e-01 -9.232501929094749649e-02 -4.457788476579664927e-01 -8.013265896567001167e-01
