-3.275257597832826328e-01 1.247576751742011797e-01 3.021109377329785350e-01 4.641427672883098321e-01 9.752131153276580866e-01 4.037193994093933869e-01 -3.901974409698252821e-02 1.258141584564678450e-01 -3.259477102043383812e-01 1.511052041768353060e+00 4.089019746211505768e-01 -1.270097924834175274e+00 -1.075926041074517503e+00 -4.212495092954794962e-01 5.375378284662960526e-01 -9.601697760867984321e-01 -5.070484437079619822e-01 1.559819602262468019e-01 7.562928784464767462e-01 -1.557493606351980420e+00 1.717386394527023186e-01 5.622728327226340639e-01 8.237290496170653897e-01 -2.757046019456658725e-01 5.998323620050169946e-01 6.533326532418632926e-01 1.740996932923942388e-03 4.457606960752407699e-01 -2.623782041641197216e-01 -1.426949662462484447e-01 4.947339555271654254e-01 2.492774216595300407e-01 5.392495152976119893e-02 -2.961744131911880351e-01 1.988150444940226746e+00 -1.159724864983708637e+00 9.529826438913450160e-01 -1.107452907274555587e+00 1.100798129246425949e+00 5.391126042604809099e-01 -9.609509169379959470e-01 -4.844938826450635450e-01 1.009830080422480236e+00 1.848906528537173632e-01 6.814741540165544231e-01 5.405575409039286017e-01 -6.289068576176480851e-01 -1.109219958960157459e+00 -3.950949280450891665e-01 1.956816495833461733e+00 -1.167596354083221044e+00 1.075673843646890226e+00 1.233216391944536028e-01 -1.774506914850427552e+00 4.689390296677575232e-01 -4.756311637855993868e-01 -4.500656942441474406e-01 7.485681069160128320e-01 -6.673203725615911575e-01 -1.059599840476071808e+00 9.496939411797408193e-01 -6.742166940838265760e-03 4.898538454015730625e-01 -7.771396806152854886e-01 -8.284845027303138210e-01 -8.816476745712749086e-01 1.079984788082243075e+00 -1.777854027332078424e+00 1.069241399125023806e+00 -1.475157787127630904e+00 -7.487216779632901442e-01 4.513804285728655052e-02 4.232793300552571414e-01 -1.120100632264759977e+00 -4.310277525036697033e-01 1.014778908158641357e+00 -6.041752598010666775e-01 3.639445354198841409e-01 -5.798357615627255934e-02 -1.177976757696734600e+00 3.669253178456909903e-01 -4.893200994996943498e-02 5.752016787500071615e-01 -3.347676175514726071e-01 -8.758465051653402389e-01 -6.522130433635339175e-01 1.558772761151479225e+00 1.673735547341226537e+00 8.241824027770682237e-01 1.133814718592512483e+00 -4.200270876732277170e-01 1.075272717278673573e+00 5.151239379957859299e-01 1.280841457674897765e-01 4.885082311940441846e-01 -8.089344668829276941e-01 1.066086121736848691e+00 -2.248125006813972981e-01 -4.249761478564444972e-01 -5.175889038173039358e-01
-6.067906646896058520e-01 -3.067531072343033793e-01 -4.923836839059642090e-01 7.240870652156795872e-02 -1.341016349958367437e-01 8.182226196506442450e-01 -1.442919321103085517e-01 3.260377387434215124e-01 1.250295643538937629e+00 1.032375929145787463e+00 -5.678862376971107739e-01 8.901413916257263637e-01 1.026353645122917380e+00 9.181369619717701935e-01 -2.738597520958285236e-01 -7.042281094832376631e-01 8.431627129844944113e-01 -1.238145683646961093e+00 -1.340055589181092577e+00 1.026563004748853869e+00 4.623349920795161855e-02 7.116200924054364441e-01 -8.751908452490760881e-01 -8.864657318737602099e-01 2.617278619580613586e-01 6.341218822141487799e-01 -3.912726873725610455e-01 2.723933167491899843e-01 -9.595981052101195674e-01 1.080999136740372624e+00 7.527959017594707536e-01 -3.671070883447757338e-01 3.523904910779384614e-01 1.131848094237976943e+00 2.649374753393698989e-01 -4.740528716907412288e-01 -3.193513434806652396e-01 -1.580479877554851476e-01 6.156642088343485808e-01 -5.887283251782352567e-01 -8.435687951953881047e-02 2.797301281428643538e-01 4.460460897386357426e-01 -2.135038311389984567e-01 4.962449560474280208e-01 -2.104462619473838614e-01 4.159998787612000787e-02 -1.368593790791619247e+00 -5.000213571977355498e-01 -5.325468611145701275e-02 -3.265604962505363473e-01 -7.349769621474631087e-01 -1.640103043652927362e+00 -9.582127272773687254e-01 -8.288075121087866703e-01 -6.697556429608161332e-01 1.614996440951267098e-01 2.199739258748740489e-01 -3.783894695654099749e-01 9.963432200035594877e-02 1.005373051908074578e+00 1.168315426498267362e+00 3.163742546421513535e-02 -8.191145897889382521e-01 1.303056552918679722e+00 6.611346630307420036e-02 1.533595383214357011e-01 3.627927844412505709e-01 6.627460466299209818e-01 2.098536122981500274e-01 -5.339113089503466636e-01 1.887308356560728206e-01 -1.146258292210926788e+00 -2.850265108439668515e-01 1.265138686793100820e-01 -1.113656861034308720e+00 -9.711668451760030463e-01 2.398160440430415763e-01 -4.577186135681182155e-01 -4.883464001211192951e-01 5.001704872741623564e-01 5.508186648136157437e-01 8.199377391961207850e-01 -8.370055116123701344e-01 -8.925484326763991616e-01 -9.135488094553053662e-01 9.038481867286382032e-01 1.873374422972375331e-01 1.157401473109833878e+00 -1.090796098673600840e-02 -1.351978159717415195e-01 7.239385004809825164e-01 -1.130120990432796485e-01 -4.398369921469130195e-01 5.666170831383725570e-01 6.233470613922931225e-02 -7.210389456687456011e-01 2.223521119264701765e-02 -6.420111918272527474e-01 7.614672893410094900e-01
4.690047078759203014e-01 1.361840769478131152e+00 4.265173822471217679e-01 -1.249752568713469181e+00 4.609724136250118454e-01 7.175538158260221788e-01 -6.017811674681016187e-01 -3.433506341625382485e-01 -3.519985542119433153e-01 1.533069295139445787e+00 5.203334727319813141e-02 -5.760826566921428693e-01 2.259267954731950800e-01 -1.064179028035529662e+00 7.978388247951742063e-01 1.048680497306623938e+00 -9.495333269757429973e-01 -6.734171446689732887e-01 -6.023574965626451450e-01 2.897275609721632894e-01 3.683756291315357645e-01 2.898786816115026532e-01 3.011509152259073674e-01 -1.148534630567337400e+00 7.046636325638016007e-01 4.822920878582885595e-02 1.194481406937884654e-01 -2.560075827618583655e-01 5.768167672513962313e-02 1.829098481930525044e-01 8.234963181881468919e-02 -2.938437720539809339e-01 1.016979582872196836e-01 -2.856772395187025526e-01 8.006553625697803156e-01 2.815752433978709890e-01 2.779910389145999750e-01 2.589035057361586678e-01 1.043376430090800167e+00 -5.353902233806367983e-01 7.958746451170998215e-01 5.869025641565591700e-01 7.943138827009917913e-01 -5.083379769696468875e-01 2.405020589069272741e-01 2.746961600146825000e-01 -1.025272937610536728e+00 4.116035350820257954e-01 3.335406085872896220e-01 -5.614076710407889248e-01 2.171502117547861321e-01 3.854844079880303531e-01 1.863176933236393162e-01 6.020716589755736176e-02 1.099629779293491483e+00 3.912426653972782553e-01 -1.275273532916849861e+00 6.012227357741111167e-01 1.394743185687706277e-01 7.884491671148614600e-01 7.023524359859802946e-01 -5.751722634792671984e-01 1.335556870409296160e+00 9.936295684250899818e-01 2.115236152051040153e-01 -1.110711573766433258e+00 3.761112350301179519e-01 -1.710274880011714710e-02 9.595283721813230304e-01 4.164580278533326352e-01 -6.391471676020601400e-01 9.268329706298146231e-01 -1.321422425587409410e+00 9.981479326307894917e-01 -7.170588234327639476e-01 -5.137091810052188956e-01 -8.944456659943734733e-01 9.066993698233583032e-01 7.658784637460303024e-01 -1.218345472213538283e+00 -3.340503776844304662e-01 -3.277404254575232989e-01 1.479413542311555085e+00 6.305183589361027519e-01 2.414127241616675634e-01 8.563134424603401351e-01 -5.332075883752732670e-01 3.927677313365448009e-01 -2.937105598471964618e-01 5.219604351405386922e-01 7.274109238772152874e-01 -1.682388081276753988e+00 -3.274062330147398114e-01 -1.087758148827644655e+00 5.679084117294475043e-01 7.378160886424652842e-01 2.857031196586504174e-01 -5.523502006316874935e-01 -1.265935805212266674e+00 8.772453030730006374e-01
-1.219772175554859062e-01 3.424377879773592981e-01 -8.542191480923071456e-01 5.639981528431921021e-01 -7.998631480864194510e-01 1.917959066769403809e-01 7.713076320720173573e-01 7.699538848786188217e-01 4.633682748722887657e-01 -2.356694691848321144e-01 1.206362093824056014e-01 3.671299775862508219e-01 -1.651002034578660516e-01 5.925853264551449451e-01 6.252158905282436674e-01 -1.024926463101188262e-01 1.260341614188959847e+00 4.140362756229489238e-01 3.110358372358307255e-01 1.291897665802323569e+00 -4.928871654015197223e-01 2.939907537941750526e-01 9.055279468212834582e-01 -3.258080562443512740e-01 -5.794272380681594337e-01 -7.622119170279227918e-01 -5.006596516120085383e-01 -4.722408518436453928e-01 -4.971226070730213054e-01 -3.500735433470319319e-02 -8.150425191444644613e-01 -4.723678571862834907e-01 1.446369043349430006e-01 -6.978132162511921921e-01 -1.099550404298881512e+00 -2.520969530618388799e-01 -2.252524131808738006e-01 1.323672801086653639e+00 -9.251604058672747710e-01 -1.245350816986797060e+00 5.730101452482183610e-02 2.965640017405194451e-01 1.460472451661189719e-01 -7.572184929677113763e-01 -6.439255486666876083e-01 -7.015257923950234398e-01 2.100411229882612474e-01 -8.265780303256924366e-01 -3.546853847289467287e-01 5.719583259106886253e-01 -9.649333960333672522e-01 -1.259321246053326071e+00 -4.530038159887712079e-01 6.544518073172977957e-01 -1.010916549661530439e+00 -1.213761508509769493e+00 1.193617866134219385e+00 9.306298438997750999e-01 1.534177475797437185e-01 6.328876935697824724e-01 3.282769301023908542e-02 -6.464749330974776109e-01 -3.114203158834191743e-01 4.731235832645784845e-01 1.745854554560054561e+00 9.578039886927514068e-01 -3.493156452997496775e-01 -9.943345952866146087e-01 -1.271348054431887364e+00 -9.374835538081720265e-02 -2.882621176529935325e-01 -4.183480690893719989e-01 -2.631351474469107998e-01 -5.819736897688941868e-01 9.256643657155733118e-02 -7.407394305519219291e-01 -4.350404815634731359e-01 -2.992186628131067727e-01 2.113882944081995618e-01 -8.210977626411872787e-01 -6.958139252236555938e-02 1.741829161517320923e-01 -2.974354137965652956e-01 -9.156377272805593659e-01 -1.333618077594560247e-01 2.301374939031667066e-01 4.230181025731304389e-01 6.482082589954171192e-01 5.476482239977494837e-01 -9.168475885196660791e-01 -8.716811828127821737e-01 8.617314948043525158e-01 -1.715853033869796651e-01 1.093612995197330351e+00 9.425390830161641809e-01 -3.216171102665730808e-01 -2.938428849977147705e-01 -1.483602872255654348e-01 -2.849450279380568163e-01 -8.552457643245655605e-01
1.892217270641260773e+00 -3.444241308237470101e-01 3.819132935878977175e-01 -5.465042768698077369e-01 -2.739011696698395726e-01 4.808287350795942827e-01 -1.196875950842879233e+00 1.564601716215305582e-01 -7.090599776762632755e-01 -4.934028899579891436e-01 7.793594986484693177e-01 4.929385025337073567e-01 5.731400927792855704e-01 1.081153375175663012e+00 7.462624175683846284e-01 -1.230111458772420008e+00 1.025142324006328876e+00 1.708293544487082594e+00 8.877022832255901941e-01 6.755653331264836747e-02 1.045886809515009119e+00 5.408478373555074548e-01 1.326196482755648054e+00 2.015051099320936068e+00 -3.244126587451521271e-01 7.614203068491114113e-02 -5.303605343805505301e-01 8.831509367080029316e-01 5.637381890308019311e-02 1.294358293706458385e+00 -1.185949484114600105e+00 -3.403981703755183386e-01 -1.982485109003808921e+00 -7.666709370667111889e-01 -8.833662495461133135e-01 -1.348701290432445576e+00 1.536419329955535269e-02 -1.560655599884788192e+00 -2.091486524424528426e+00 8.152361769974680872e-01 -2.381884701205629062e-01 -3.386553120250643256e-01 7.860442018334025116e-01 8.838305852535641716e-01 5.336172147313381631e-01 7.591166016128646499e-01 2.351124493834453599e-01 1.752166943561698775e-01 8.281799406689595022e-01 8.399939389950276114e-01 -4.023182443239982642e-01 4.595420940333578841e-01 2.624698679834533976e-01 -1.502983440483767752e-01 -5.493904399037937702e-01 6.149763846475696516e-01 1.701773360941182034e+00 4.047297686802298067e-01 1.752818820450309234e+00 -8.674090795844106028e-01 2.031374807380107173e-01 -1.404425154041036627e+00 -1.733017160687009950e+00 1.844115972051156918e-02 4.239671257643243263e-01 -5.371605997165321833e-01 -1.339620760811178757e-01 -8.098534759228999125e-01 -4.729494293801727589e-01 -1.072682464141236913e+00 -8.933650299690802932e-01 -9.584452272158291430e-01 1.334865360044594551e+00 -7.154922517574433538e-01 -4.172342751202446909e-01 -5.488349474930858118e-01 -2.511901938523191657e-01 -1.020153603234695172e+00 -2.843710745416265784e-01 -2.048139922569542470e+00 -9.054069331364394957e-01 -5.697949117139057551e-02 -1.689878800681193116e+00 5.327743472557910920e-01 -2.100923750126797440e+00 6.954629877257315074e-02 -4.320311262956956222e-01 -1.874094491509924465e-01 8.599421372978249822e-01 4.868876429402086981e-01 1.173937603425291298e+00 5.210698189775181399e-01 9.694387632950324241e-01 3.457838806418000455e-01 -4.297037601736477530e-01 -9.333109983938571164e-01 -7.496760290774708846e-01 5.866438456532326873e-01 9.921450118336359036e-01 -6.081155342609813053e-01
-2.633970478441896024e-01 -6.541629417713297201e-01 4.996571364654202665e-03 -8.358123065389240214e-01 1.600617648728910769e+00 -1.036414070852528679e+00 -8.685931967141284626e-02 1.199149585664620599e+00 9.552294109578673975e-01 6.296004001607183875e-01 7.124395257522782021e-01 -1.157178683383707885e+00 4.042241765709020940e-01 -5.209644784128242279e-01 1.269609813959511335e+00 1.404544393339862252e+00 2.849137279829185715e-02 -1.039781520928119374e+00 1.924384094774853615e-01 1.400390299293817531e+00 8.327185536518343090e-02 -3.831866389359165487e-02 7.197474821781773002e-01 2.405635600025071985e-01 -6.897318622165458102e-01 6.587664183300221410e-01 7.255369739388313199e-01 8.681071736697863750e-02 -9.091749866472240704e-01 -7.739672305739908609e-01 4.667261708038970003e-01 1.695791482494965197e-01 -6.815322600785439500e-01 1.769708901949385682e+00 -3.383396773868388996e-01 -3.824864465268252856e-01 1.861043848412312629e-01 -6.854033098092222609e-01 2.284740435414010506e-01 -3.382929345510017338e-01 3.626332203533007004e-01 2.287953240861367865e-01 6.996452255595829728e-01 -2.610707617292336580e-01 9.557567402570670279e-01 -6.351087815367476574e-01 6.459129933405376445e-01 -7.270291268218941338e-01 4.568869871844829546e-03 1.097994886907913248e+00 -1.176887144085597692e+00 -1.969852725685416750e-01 2.407579665039506489e-01 -1.894935185099090758e+00 5.694158148080913362e-01 -7.767887135890749750e-01 -6.654938491238822362e-02 -5.398070915304766793e-01 5.718315918578243534e-02 -2.407682845111924486e-01 1.289677616361427637e+00 -1.047753698553436141e+00 7.917020488049406057e-02 -1.586779403519460896e+00 6.775558635213805303e-01 -6.708354486131240524e-01 3.115684698012916032e-02 -8.591094912666310535e-01 9.698338349890812671e-01 -6.930240058185296315e-01 6.736840307142092366e-01 -1.324303368483676913e-01 -1.202247046447824763e+00 -6.049534431464650419e-01 -3.249174309946637473e-01 6.207860624933985161e-01 -1.406066654191821197e+00 -1.336268251074619884e-01 -6.092696881500346828e-01 -1.123042744099261636e+00 4.327919061492075392e-01 -1.970751386582419440e-01 1.480753274469101821e-01 1.035806286915329055e+00 -9.740743490622393030e-02 -8.505956069628091143e-01 4.932862315310521661e-01 1.451024953993901967e+00 -1.287562832240434441e+00 1.310248719648705817e+00 -5.166819874168697702e-01 8.237029422349513297e-01 -3.280289383964175576e-01 -1.037502456665186035e+00 -1.231284308150548679e+00 1.440783013696515402e+00 3.458177506439126248e-01 8.967846149719875815e-01 8.646171992375719650e-01 -4.443238054620934907e-01
7.721231882429180349e-01 -1.181552359458073465e+00 -8.054979425329901466e-02 -9.940592844866610323e-01 -4.903362936060021715e-01 -8.296287297696901264e-03 4.821404842255629930e-01 8.673104894564176437e-01 -9.112330710349260121e-01 2.850841805757131642e-01 6.470105705156657949e-01 1.371379038338617525e-02 -1.423201662294251157e-01 2.551955234657490856e-01 1.464110377203314162e+00 -8.121039935918082930e-01 -3.360765087271350704e-01 4.475816066455359232e-01 -1.710775760124069456e-01 -3.564604137316888521e-01 1.090290877940529590e+00 1.838288397215911141e-01 4.632166620676174684e-01 3.855243101671624317e-01 1.615995511212594271e-01 -1.472487608906450918e+00 8.540744064849016548e-02 1.332074285464569741e+00 1.432665019232395864e-01 1.615889720952805308e-01 6.586490727218653751e-02 2.899881587952836126e-01 -3.885119263964978420e-01 -7.841025346347658687e-01 1.355138150745746062e+00 -8.982158583003553298e-01 4.097188879524718552e-01 -1.164144229571624001e+00 -4.875315720621319904e-01 7.362418711660672077e-01 -1.039315104342765084e+00 2.390628330338889496e-01 2.284350592067991015e-01 -1.540712916868784421e-01 -1.662234382994780546e-01 -2.999717707872984751e-01 4.565610112461356285e-01 9.446406618664486832e-01 6.839328958138807257e-02 1.228022942774714910e+00 -1.614382853868136625e+00 3.984265315445242872e-01 6.142885059599945824e-02 -1.349955277589403257e+00 -3.556952695797325516e-03 -1.645384404981184101e+00 8.728603907318693844e-01 5.228658116773522019e-02 -3.384282063368262983e-01 -6.436285373820608280e-01 4.718443050984109099e-01 -1.304343193352613950e+00 -3.399595226494597777e-01 -6.188683279604711984e-01 -9.607793331384965052e-01 8.259674351949433668e-02 1.126223354110367003e+00 -1.734719962399753124e+00 8.236565149567198763e-01 -2.053210147211997627e-01 -8.862642124269647370e-01 -1.064117045818931073e+00 6.654641612335591150e-01 4.498388750057122909e-01 8.827527440144896653e-01 -1.407410037379128287e+00 3.649976632401562004e-01 -8.652378003056122591e-01 4.457789277592876243e-01 -1.154101866560596656e+00 2.321693900740155747e-01 8.423086555423880961e-01 -1.259655297603519131e+00 -6.368052169589407674e-01 -8.496202295913011238e-01 3.012862201050222621e-01 -5.075111995169387935e-01 1.519819073257095532e+00 -9.080240895689084546e-01 1.503171518611318813e+00 -6.317473425349744431e-01 -6.008892907964316077e-01 4.515945301426702030e-01 7.810995728906855451e-01 5.893614659120756105e-01 1.069919728271418569e+00 -6.188483501343062798e-01 5.472202633102605240e-01 8.710526525615370774e-01 -9.528865232515194572e-01
9.718617559823121421e-02 -1.912646986440914298e-01 4.136702062302244909e-01 -5.758212469834281810e-01 -9.175365151298444655e-01 -6.570803183648614709e-01 -1.117772605515986006e+00 1.077507064508770984e+00 -5.763723330658021560e-01 -1.249058803506173154e+00 5.233416759031296328e-01 -1.111684743855626989e+00 -3.831090762923763382e-01 -4.041048827548481270e-01 1.325911714929951746e+00 7.654105109995419376e-01 1.219205618217722664e+00 4.184641779078960844e-01 -5.106450373727113023e-02 -5.683889880906903835e-01 8.644608588186576403e-01 -2.347207386729537881e-01 -9.504305140898682280e-01 7.343537701072796464e-01 -7.152892919225385393e-01 -5.884291660153803116e-01 9.794900650273488107e-01 1.601502209854636146e-03 -2.283208175207367130e-01 -1.298742791859187617e+00 -7.866937020192059649e-01 7.269472911497009138e-01 7.903194945566551777e-01 -8.047314242998460099e-01 2.121809654497258391e-01 2.201139025597056431e-01 -1.004131209836792715e+00 7.289741899969576222e-01 -9.247884709968704486e-01 1.325279362440296094e+00 1.150174209332217146e+00 -8.829955508306260858e-01 -1.556230579622384647e-01 8.682091899717431227e-02 -1.841584424176975210e-01 -1.002804161827885343e+00 9.200321418869166212e-01 -4.686702899577651071e-01 -5.592564512149507117e-01 -8.748148911274452599e-01 7.735933606315638089e-01 7.232164129228926264e-01 -1.160821279237573556e-01 1.598925800222027460e+00 -7.611932842157015378e-01 -3.749914863886409933e-01 2.332109836407941228e-01 3.713470442592635146e-01 -8.617769181206037521e-01 -3.123017748371675895e-01 -4.617095708198219461e-01 2.361184274259530147e-01 8.010938366038193870e-01 -6.214438433791493743e-01 8.147384720792839596e-01 1.008050608349431165e+00 -3.424455584601790448e-01 1.089826567533280555e+00 -1.769035319758435643e+00 1.194740237598896693e+00 8.278427841531386111e-01 1.114506128826393105e+00 1.086154224335638796e+00 1.055728477855200298e+00 2.147828175699180164e-01 7.669527557236524018e-01 1.036250778710067905e-01 -1.090659034882550893e+00 3.737147811013384335e-01 -1.239277782967886488e+00 -6.155975595290521518e-01 -2.349187280196128880e-01 3.656122160708432101e-01 1.865287898284606893e-01 9.764244274180946537e-01 -1.577952790899693758e-01 -7.424983145109921301e-01 -1.477264884088062280e-01 -3.619900610320527234e-01 -1.132982522283086935e+00 -5.635070802855141059e-01 7.978069268589298435e-01 -7.305406278080891491e-01 -7.571673666546876458e-01 1.179221122362725138e+00 -6.242253868329676880e-01 -5.634455090308811975e-01 1.832990312191688509e-01 4.228191173640084566e-01 2.646419948511686826e-01
-8.797641324030335275e-01 9.518522016632691152e-01 1.706658832662778513e+00 6.007499562037744711e-01 1.110076174597329102e+00 -1.103661708489595217e+00 2.127760766588608077e-01 -5.222877612235936606e-01 -1.587978838424367156e+00 9.382775674629525442e-01 6.126660216991767216e-01 -1.057186030938643828e+00 -9.773996261439734656e-01 4.151176371352604394e-02 7.972793768789079305e-01 -4.695163415235315552e-01 4.717082344151404261e-01 6.025926899775425616e-01 1.502412947531591492e+00 1.068226201628642708e-01 1.418593601911518398e+00 4.077722649542676603e-01 -4.048717504167428927e-01 -6.281722821969127901e-01 -1.015979761439111534e-01 -8.896048500568033424e-01 -1.477353657602155756e+00 -3.980781787919082104e-01 4.742628268643111489e-01 -8.324159561531608853e-01 -8.427381794261635806e-01 1.809328009878828636e-01 -7.252916588208661031e-01 -1.456243457200625757e+00 5.010660736287251282e-01 -3.734672257139710072e-01 -5.816307324770477738e-01 -1.177430805696834781e+00 2.081035664498347149e-01 8.129498608381108271e-01 9.024732013262781738e-01 1.681668917948682118e-01 1.661373252725208971e-01 -8.361010683097104268e-01 3.617441281445976098e-01 -8.118129030632958987e-01 -3.960646736683108571e-02 1.058023479211401163e+00 -5.154796900959963679e-01 1.665926501225793166e-01 -7.908142849077839931e-02 2.979111588951212086e-01 6.384521588015690252e-01 -1.839639711914503872e-01 5.442225510260512156e-01 -1.156128615080192379e+00 -7.488464697711425533e-01 2.189974553174207639e-01 -7.102177144838748291e-01 -4.016442784745839767e-02 -8.343220692516094550e-01 1.066054291193905823e-01 7.113950397041897133e-01 2.677200745391997150e-01 4.596856687806454844e-01 -1.259192859009576337e-01 -7.471144073132702790e-01 -2.289355040645919825e-01 9.845816300762528783e-01 -1.135895501835316290e+00 4.430809288306568616e-01 3.549284257470383119e-01 -7.861581642439235962e-01 7.950134076664675531e-01 4.977522838065811528e-01 2.293739006141704007e-01 5.390663240237599796e-01 -1.601214861495738218e+00 -4.048055722478049456e-01 -1.900064830059923215e-01 5.875843044211781496e-01 -1.505966293331489902e-01 -3.069684567019343446e-01 4.801499047265718745e-01 -1.106500255887099993e+00 7.006409942093827503e-01 1.339077227315077501e-01 4.960548393996478400e-01 4.578973214109206546e-01 1.313410868889236083e+00 -7.040855524276148358e-01 4.061774665824057218e-01 8.014548541817488880e-01 4.127725158207574963e-02 3.276006744009627436e-01 -3.232437013596699549e-01 2.747114867216258749e-01 1.152574941380744566e-01 -3.498774718383717564e-01 1.352156475360588805e+00
7.666825219123158952e-01 -4.068480091184927816e-01 -3.693682181733320413e-01 7.421122477043584631e-02 -5.775183914459113277e-01 1.236146737980205579e+00 -3.517112029308185756e-02 3.374782237111033645e-01 -4.170382379906378278e-01 -2.922489679749128849e-02 1.027466474540054575e+00 -5.653224488535083525e-01 7.621842750261239585e-01 9.511379174858906049e-01 3.913848136009302481e-01 -6.510458953936421045e-01 -1.047429491559338732e+00 7.744452215333830214e-01 -6.261023173720147161e-01 2.395348692581924510e-01 -5.798496543252695812e-01 4.732071323971577259e-01 2.024058567499887606e-01 1.998620240015531180e-01 -4.255982012629066502e-01 -6.445966660564438344e-01 -7.712522078646008028e-01 7.180813057684718448e-01 2.369806299731415378e-02 9.732665594966262435e-02 -2.002118973058560902e-01 4.721805863384263141e-02 -1.801314795128628132e+00 4.170137411016897055e-01 -1.228061018601382531e-01 -2.343059703414526407e+00 -4.277947391741981353e-01 -1.036984025896629857e+00 -9.851681266390996949e-01 1.983721042026843906e-01 -1.114726287540722671e-01 -4.341895211997057746e-01 5.702474358781476349e-01 -1.955058159812239349e-01 4.360740043857494475e-01 7.767040731560247435e-01 -9.908517412453440310e-01 8.610380254053043858e-01 -2.712801641743041725e-01 1.159733439582350423e+00 -1.490245017451610865e+00 3.106487708271791770e-01 4.599683924734516705e-01 -9.847072733293917857e-01 4.314142206456030304e-01 8.261967594747030574e-01 5.472759286819868230e-01 -1.764427039255893337e-01 1.019324146134680475e+00 -1.304315535163723894e+00 1.842945003246332369e-01 7.840691516621098867e-01 -1.181686007799927607e+00 3.455944434493912754e-02 -4.348961534097487425e-01 -5.042646234894384571e-01 -3.120432883511003452e-01 -1.273395026160796473e+00 1.593445434263486726e+00 -1.989529466221161003e-01 -2.543999265513755548e-01 -6.265510154702264023e-01 -4.606692194158102938e-01 -8.351640368095790690e-01 8.273913094276277302e-01 -3.035053905621528658e-01 -2.225328917818121255e-01 -5.810412993266547144e-01 -1.978723437332255697e-01 -1.662825474011390137e+00 -8.494533069045593354e-01 4.934602733839656974e-01 -8.444674942565859599e-01 -2.322358821256988448e-01 -1.514473367262250347e+00 -1.145983013856071153e-01 -1.690193040617768705e-01 1.413944753133404397e+00 1.024457608765490191e+00 4.438884145766148204e-01 -6.340992930812493211e-02 6.182589616759079920e-01 6.355817981063657252e-01 5.321869578216472663e-01 -1.676910673764042126e-01 6.760512992718167302e-01 -8.220969234864424768e-01 -9.858166125610913488e-02 4.172484098980698830e-01 -1.151797166216477875e+00
-5.276311955038585078e-01 -7.860530098915262665e-01 1.538965962278948663e+00 -5.710174735524021772e-01 9.275404343149502573e-01 -3.537627151919990887e-01 -3.223423756926372952e-01 8.331039752878612870e-01 -4.520920622901691832e-01 4.057909238608941593e-01 1.506363657165137870e-01 1.169040406546849598e+00 -3.568037112314281778e-02 -4.330263588574266298e-01 -5.188009228673355899e-01 -3.460431382334815120e-02 -3.280548459706034703e-01 -7.344832316826479905e-03 -4.715872297633213334e-02 -9.332113005226293223e-02 7.789201736597559100e-02 3.899676891563778058e-01 5.017954543989784355e-01 -4.141509194292417040e-01 -9.178477033208449765e-01 -7.961457187153716530e-01 -7.693494099216952042e-01 -4.445343730313836006e-01 1.029147860216778954e+00 -1.622111966619050660e+00 -4.689670797829415538e-01 -6.964816286188316719e-01 -8.965711206878861361e-01 -4.339609717386460064e-01 9.914177486558296559e-01 -5.375357287835908632e-02 -1.447512527060034471e-01 3.911543035091510356e-01 -6.057846624512516209e-01 -8.404084316219891451e-03 9.680398771612519493e-01 3.061980801130148033e-01 7.692614268918787634e-02 1.934619276261554388e-01 -7.198857623266473604e-01 -6.780014368423066262e-01 1.177632805946994488e+00 3.571016488002975997e-01 -1.629902885320103911e-01 3.171044840274796217e-02 2.480010343238370218e-01 -7.399406493092348658e-01 -7.933894482483020427e-01 -2.996921455021785419e-01 3.425338616710645046e-02 6.339400931624420421e-01 7.926799521992379249e-01 1.652560083512933709e+00 3.179695150867055675e-01 -9.574639012780812586e-02 -4.072376290034536161e-01 6.438988765385941226e-01 8.363841060207118927e-01 -4.804574572677579591e-01 2.337745847381407227e-01 4.310229976618265568e-01 -4.406143668508927247e-01 1.970917570833046473e-01 9.423443768698322454e-02 -7.944089853635431103e-03 4.761981523412672224e-01 1.814880152125484258e-01 -2.283756458514159607e-02 8.917276450831379542e-01 -1.010569028597577468e+00 3.384927618929699511e-01 -1.500240414993280424e+00 -7.687595652662495560e-01 -5.607167512804591691e-01 -1.600483615863482534e+00 -6.206981516327845227e-01 -6.641537419251448970e-03 3.234242787221059401e-01 4.015811140893980613e-01 7.079914977196003489e-01 3.672748928914082445e-02 -1.189226898184877479e+00 1.273177493487591239e+00 -6.364294046912247760e-01 7.622396091017876740e-01 -1.099005197370959586e+00 -5.224255637542083441e-01 4.408065284707056164e-01 -5.154800735155331548e-01 -8.326718762232544757e-02 -1.094236041867468590e+00 -2.913429555926475012e-01 7.475386124827642087e-01 1.974862055484781331e+00 8.296059631755088315e-01
-1.366905004930226430e-01 9.414688817809550025e-01 9.306161580536131961e-01 -2.709165813989473093e-01 1.987648440973466268e-02 5.601635806784336369e-01 -1.249203300180813242e-01 7.036284942843773482e-01 -6.819625571991363433e-01 9.523841702226274464e-01 1.515846104996236288e-01 2.189194372568910654e-02 -7.378197487458221238e-01 9.887035600797703383e-01 -8.771786129896546047e-01 9.269821605303163459e-02 -2.227721775257177350e-01 5.170774193044485045e-01 -5.706732976737916019e-01 3.146398760694608665e-01 -1.193397516774380579e-01 6.985886138175692595e-02 5.440708702100899297e-01 4.149824220712066691e-01 6.270995830725916154e-01 -5.095545376519714509e-01 4.382574831627846779e-01 1.576139720376645292e-01 8.494844492264083113e-01 5.594107103951508897e-01 8.632888151641764374e-01 9.092507066147620387e-01 8.335811575811649110e-01 3.059840208945964757e-01 4.713285073120921376e-01 6.165075027110071826e-01 3.069884252162590754e-01 -2.392595506072554556e-01 -4.310184440425222918e-02 -6.774173850322279256e-02 1.990996715516316351e-01 -2.155964596106499098e-01 4.296188452239545486e-01 2.078542702798995001e-01 -1.292933066795103336e-01 -4.173126058126296889e-01 -4.195613961680715875e-01 -4.874195669839639367e-01 -6.429413262709728905e-01 -4.251536077290637428e-01 8.835093840504645302e-01 -3.654019870746182397e-01 -5.147739014749252995e-01 -1.481612154915317170e-01 -4.947235261218208557e-01 -5.416758893816745468e-01 -5.756720183187800099e-01 1.512161045550664551e-01 -6.259637988719319868e-01 6.829329948713380727e-02 7.144065305376141595e-01 6.158893487383619858e-01 -8.090877445322501860e-01 9.384591284075657347e-01 -1.882557838499457070e-01 3.756837511081191905e-01 8.189358757256470778e-01 3.476298363756601950e-01 4.312857101615856781e-01 7.053583355500518959e-01 4.124518666919195775e-01 -4.293007563290508477e-01 7.842531434647833644e-01 -4.704184764917420658e-01 5.519634459247867442e-01 4.840068837889188180e-01 9.965865195030719770e-01 7.749499890724330653e-01 3.376775628556275000e-01 5.652563184286836240e-01 9.307845392765190518e-01 8.346154703888951643e-01 6.265974800161274727e-01 -8.606785996213830447e-01 9.515685734388313888e-01 5.733209357662869543e-01 8.875399962970177414e-01 -5.299964372406384960e-01 -5.022751272193815703e-02 1.056810901302859818e-01 3.851589952465214184e-01 5.889855661226243155e-01 -9.439550710998546867e-02 5.820084971145630393e-01 -3.466607499169074152e-02 8.701061564677826932e-02 1.471801778294705432e-01 -2.329055504167231727e-01 -2.453094353608310518e-01 -6.334911094017329214e-01
-1.773879051268174800e+00 -2.239425465626118938e-01 -8.234317632300509615e-01 -1.553934777685471447e-01 -2.545845830452242997e-01 6.012317487612252043e-01 -5.069307167892548316e-01 -4.331332502568823600e-02 -4.098187461759901784e-01 1.854348396876043248e-01 -7.925215773810561082e-01 7.798499073805860438e-02 -7.452310607972636447e-01 -4.750788276151941547e-01 -1.334782178382507789e+00 4.964787048371233080e-01 -4.964578868087089758e-02 -1.499244577437014669e+00 -6.443264785771887215e-01 3.469011699847505681e-01 -2.811648211794596230e-01 -1.926164359788236358e-01 -3.197433036875923507e-01 -5.681370607769807846e-01 -6.926207924889605794e-01 1.596343426501764196e+00 -3.141945585618602377e-01 -2.648171232972485467e-01 -5.979149089573374543e-01 -9.698265435076871555e-01 9.391413183595107572e-01 -5.162459099598189216e-02 1.842441516417247405e+00 5.250309243972975937e-01 6.603767291648620086e-01 1.782812337009317849e+00 -2.595869840824664432e-01 5.073513381715187842e-01 -4.947067526211526567e-01 -5.799887178673959198e-01 -3.885886854229259613e-01 -6.043444288262533881e-01 -6.377991002189051239e-02 -1.017132050630239037e+00 -9.379878596598273388e-01 3.436021780112861190e-01 -6.203657555167322313e-01 -1.162207863012542308e+00 -1.740311397202692900e+00 -8.667709016314716075e-02 4.231172853824943236e-01 6.908592900031140793e-01 -1.338942544333769691e+00 6.121802509203726483e-01 2.541244181305792327e-01 1.033159304731382511e+00 2.472595982246696134e-01 6.032452166456508946e-01 6.131994210042422955e-01 9.659045928203957576e-01 -5.989933335615595933e-01 1.301677336439654331e+00 1.352920789612451324e+00 -1.546913987546128855e+00 -5.681725336223772960e-01 3.706176008546946954e-01 4.757853479313831069e-01 2.666966544934759598e-01 -9.071660240999833702e-01 7.480939703143173469e-01 -5.705536787914033958e-01 1.145765219387116396e+00 4.368323012399630834e-01 -1.217088076998683821e+00 -1.079033157046755509e+00 -1.984324770061829668e-01 1.413460512676016356e-01 4.114980659379647437e-02 1.273605288065461361e+00 5.936589869641922812e-01 1.653627560577387301e-01 -7.596894814071447621e-01 1.325998608571490767e+00 7.543829132675285987e-01 -4.900410375548062691e-01 2.041460999498428686e-01 -9.342689099550627319e-01 1.160415207865562043e-01 -3.869951361970370707e-01 -1.032224714114642561e+00 -8.276887321214859705e-01 8.413206892426601524e-02 -1.306200058713231194e+00 -5.737905836155087202e-01 -5.389946874996829340e-01 -1.709764503884987796e+00 -1.780093094833821832e+00 7.969729786679811134e-01 -6.631337843723787984e-01 -2.561167041021049084e-01
-1.493747428612392236e-01 -2.449476782328164903e-01 -6.731973016090456730e-01 3.950709022750625854e-02 9.048573087666808012e-01 -8.709015162715202374e-01 5.290367602636543154e-01 -6.902176787785775369e-01 7.678916667585242162e-02 -8.850589130640366120e-01 9.749038769404896332e-01 -2.366862256161183717e-02 -8.490495675827776090e-01 -3.137134298297298285e-01 -1.145061312965473810e-01 -9.197755764900450437e-01 -4.597990450974884236e-01 6.090383917048886042e-01 9.299212756286288906e-02 -6.343300218128538059e-01 -3.598724538464714851e-01 8.335994669577607707e-01 7.213492066884837906e-01 -1.437944428359437012e-02 -5.297690725429491376e-01 1.171784328413996296e-01 6.006947228324652777e-01 5.646128784002162337e-01 4.422250665063637287e-02 -8.786974647976902864e-01 -9.696917428738709155e-02 9.752264727221686691e-01 -5.371304178460690748e-01 7.950435018290237243e-01 9.934745065818114881e-03 9.588918862702828783e-01 4.362293360950389998e-01 -5.944603573136896246e-01 2.782838053536356715e-01 6.775052577907445528e-01 -3.741898048734076682e-03 -8.241868164099696026e-01 -8.310770553266423610e-02 5.678094952874592760e-01 8.258172520432188746e-01 5.227459174183425317e-01 -3.575733231775243270e-01 1.417800695313046755e-01 2.931702915837844925e-01 8.526150666828333780e-01 1.659062207000039091e-01 -1.025809575070644630e+00 -4.490221211887436281e-01 4.725887936342856310e-01 -4.653689415425155129e-01 -9.355605022367978751e-01 -6.208882023822985818e-01 1.053841728306187830e+00 8.407260859916586559e-01 1.158059739377771818e-01 6.087470067641376215e-01 -5.973495776179179595e-01 5.563870019080144891e-01 -3.310195705495234675e-01 7.584127588257864039e-01 8.886566347306456004e-01 5.555632923559621350e-01 1.282386831401030047e-01 5.786170648356677715e-01 4.460873700472194336e-01 5.082034442223066772e-01 -4.863165248977543431e-01 8.530657641096800470e-01 5.635596900413077925e-01 9.876287920892780070e-01 -2.128259027998328449e-03 -2.040465800501661126e-02 5.844801612388846879e-01 7.415683840315875908e-02 -3.303936071294227839e-01 2.140515697088119229e-01 2.984129714641052186e-02 -6.400317956609963277e-01 -6.909112596170277065e-01 -8.282526276262152098e-01 9.592837052686147281e-01 1.150621132956625603e+00 -3.212000791758747309e-01 1.033119175984693605e+00 4.630866440061246481e-01 5.858786024311939400e-01 -5.667058204883439476e-01 3.243778788831147564e-01 2.111111890519281331e-01 -9.991642474420889264e-02 1.475931236836440785e-01 3.218472709540841636e-01 -3.754641832335541274e-01 -4.081693144946387797e-01 4.876526667470527654e-01
-7.210803566463269698e-01 -5.946219276178463797e-01 8.467780681151525213e-02 8.893288435764993283e-01 -7.659239392856381778e-01 6.272731031963580950e-01 -3.216984840575813909e-01 1.235039574116068017e+00 -8.848882655191581126e-02 -1.837228904900022997e+00 4.140115436885284939e-01 1.286754092185508069e+00 -5.563648758583502607e-01 1.117906476347835465e+00 -1.530158114324444707e-01 -1.531331313017276319e+00 9.655109137981946477e-01 3.372946763439851336e-01 -6.211411142847002020e-01 4.587766342145010445e-01 -5.529289281936876632e-01 -5.192431928753582504e-01 1.113746340260251211e+00 9.110178818385623600e-01 2.294994430945674138e-02 -5.584260007241764745e-01 5.790976190713382765e-01 5.928000186800945759e-01 8.364668903285861212e-01 6.361931523429105451e-02 -6.907087078513880485e-01 6.067737793554546857e-03 -6.347270364396809250e-02 -1.366316410496764850e-03 -4.031563649390386139e-01 1.426439570444620220e+00 1.912410502278370505e-01 -2.956378193605729288e-01 -5.008413898530887920e-01 7.533039104878319625e-01 -5.437714700104983034e-01 -7.878251451527173987e-01 -4.156923068951539485e-02 8.082838161688526979e-01 -8.168554964467250601e-01 2.895398080500810045e-01 3.926944143342296356e-01 3.197361208903291563e-01 1.085774330094036122e+00 1.326688010657527839e+00 7.034345522253887539e-01 5.257326883726886058e-01 3.529178443645475394e-01 9.143504925991319254e-01 -3.812431261526725845e-01 1.034621235647414261e+00 1.214511877059669454e+00 -4.213523141442316322e-01 5.376223478025947689e-01 -1.841244543811881296e-01 -5.714149008330970947e-01 9.048431555689332439e-01 5.955074350881925382e-02 -4.862272990569902475e-01 -5.877106780951695253e-01 1.914075816747601300e-01 -6.066048754837618517e-01 6.100091209390232083e-02 2.063249790010689699e-01 1.090558139311692321e+00 -3.958716754353438366e-02 5.059687038515596758e-01 6.669590430780877321e-01 -3.309591125795871558e-01 1.089458708007955412e+00 9.567088840540979300e-01 1.194263618284060025e+00 -8.343460584461698248e-01 5.195434184795422183e-01 9.275371667279815879e-01 -8.319177138566909990e-01 1.185311092982958003e+00 -1.287546194569172409e+00 6.285661593629141008e-02 1.846552628145062824e-01 -3.525872535090103788e-01 -1.934935852575277448e-01 -1.953657784210489651e-03 4.786151655306511432e-01 -7.142974120294497409e-01 -5.281283740860699405e-01 1.048303512108192059e+00 9.128246639633714743e-01 6.248523308717457425e-01 -2.487062083130115453e-01 -1.385548379620715975e+00 -5.597489653536514842e-01 8.773760610720215958e-01 -5.932207388602566030e-04 -4.714234257262948091e-01
-1.379230086809834832e+00 -1.585967367202359424e-01 -4.619474942250467731e-01 -1.833236933390297307e-01 7.949338225749520426e-01 -4.446202500403567126e-01 -6.732229134973509721e-01 -5.812185674067827934e-01 -7.195048022754150230e-01 7.638917862853069618e-01 7.538933279890475125e-01 -5.823715713147977757e-01 1.127765577704672589e-01 -4.015012315669102549e-01 -2.465971940963432862e-01 -8.546487720992375081e-01 2.280015601756154031e-01 2.937389956758736931e-01 -9.088881746835952846e-02 -1.576056223260424161e-01 -5.237565057518445144e-01 -5.992835892657093488e-01 -2.367898542864950717e-01 -9.556129575766074691e-01 -6.819579205127058730e-01 5.926869559550985711e-01 -1.725971293816818353e+00 -5.025682616979454398e-01 -7.005783895519365201e-01 7.995894230175185635e-01 -8.181240421926317952e-01 -2.430321749013728549e-01 1.040633394752659369e+00 3.421731944765855626e-01 -6.410253487465786271e-02 3.955437364914407561e-01 9.710798085965942628e-01 -1.051907973627451032e+00 7.634664886801016681e-02 -7.443228626584593721e-01 4.872918879396655190e-02 6.463405141322922098e-01 -7.214179652495943396e-01 9.881127764031526484e-01 6.227281624563630880e-01 -9.168699255498227174e-01 8.103998483497128202e-02 -4.917006982732308185e-02 -1.101050480602886683e+00 -6.372229400278815736e-02 1.152678109778470183e+00 -9.560636770662240824e-01 2.835095141993423593e-02 8.849661786863022295e-02 1.209661483581494723e+00 4.545621357433543563e-01 8.140029075686486260e-02 1.364821138054121308e+00 -1.617133105742023957e+00 1.508092226499927468e+00 4.585777557439692231e-02 1.561591953322418513e+00 9.683672628433246388e-01 -7.715854378600475183e-01 -9.007688928596765399e-01 5.246721587514688867e-01 2.784945663521449788e-01 -1.139510247544343713e+00 1.462127810715353228e-02 4.727760909945547541e-01 -7.488915928103041519e-01 1.615891665828700807e+00 -1.076548606727486312e+00 -1.397433097597197416e-01 -1.850020700316248767e+00 -1.415540509605132391e-01 4.282629117234980631e-01 6.900943992487417189e-01 5.588907099796908834e-02 6.392580922310231450e-01 2.103005290110726566e-01 -2.602085872409279910e-01 8.014408471690287472e-01 -1.146405351964311370e-01 7.481206410079491720e-01 3.600000260039407096e-01 4.521523515998166487e-01 -1.008699144050536400e+00 8.306385582037010273e-01 9.614228322531506166e-01 -7.432038909988214481e-01 -1.210983227095461912e+00 -1.197564282304490746e+00 -3.561223449693656229e-01 -8.695740947631955819e-01 -1.002228648521704235e+00 2.612897700672167089e-01 -1.136785224437040775e-01 3.279762342518607321e-01 3.006667535513380951e-01
-3.967964808486935668e-01 4.123865798681860539e-01 -1.133225456269578046e+00 9.931119459902398861e-01 -3.267236444293879216e-02 4.396956713060907740e-01 1.033582987885898863e+00 7.470270353273196218e-01 1.764230076820723081e+00 1.243600815404202198e+00 1.230037896654084945e-01 -4.070470042169660463e-01 1.139490015681552837e+00 -4.837376881647532656e-01 -8.316940956439404786e-01 -5.646069694541804712e-02 1.556995967073253828e+00 -4.008118107360217341e-01 -5.163736038317500165e-01 7.872002942206394183e-01 -4.547158043857310594e-01 -1.037258452311833556e+00 -4.478777007335332239e-01 -1.421023738225685173e+00 4.715295971196439284e-01 -5.345257900126054729e-01 2.781622947865294848e-01 -9.001475007585689747e-01 -9.206526278739206662e-03 -4.332484516000358332e-01 -7.602837963262337739e-02 1.084520599845139460e-01 5.395172480482089000e-02 5.651275165973106140e-02 -1.425655205116996393e+00 2.914422727041771632e-01 -7.353963464279501538e-01 1.555290473523785799e+00 -1.634868477282243049e-01 -1.337349115659459964e-01 -2.521807465997787379e-01 2.220802390256038650e-01 -2.881693356653120541e-01 2.445314458548490388e-01 -1.302250982315683869e-01 7.231686298326085449e-01 -7.999181098878053175e-01 -2.554687103383613822e-01 -9.367249187937749522e-01 -1.479899316207638149e+00 8.156439970604726364e-01 -1.064898674284379565e+00 2.907917050356617072e-01 -2.840765215692607759e-01 -1.173388609637470020e-01 6.519723722886947570e-01 7.185618711778897216e-01 -3.612898049462368033e-01 -1.615897943311114027e+00 9.886252126169687848e-01 2.285916325566209658e-03 1.112067209814101787e+00 2.537173126516381605e-01 5.935243644147831787e-01 -2.773564508025972430e-01 2.029137429635480827e-01 1.844254288546761933e-01 3.927578363637728165e-01 -4.901752986289740766e-01 8.565074496131119819e-01 -6.393428812181009002e-01 7.298640284995135952e-01 -8.784711318376375866e-01 8.706586999577935193e-02 -1.476873682295607892e+00 -5.647483312141835521e-01 -4.689552980459720244e-01 2.012242565600772526e+00 -5.311537907138442760e-01 1.959333199749603294e+00 -7.558557235729685964e-01 7.470288700287468497e-01 1.834012916340574284e+00 -6.266147127568624242e-01 -4.246856858020922609e-01 -8.625098678090886706e-01 -7.345228943138568667e-01 -6.289113449183320048e-01 4.419363046672645373e-02 -4.734636343276861781e-01 1.500048790524110831e-01 -2.355967875092343788e-01 6.471486938191783889e-01 -4.953020423202104672e-01 -3.637608117601967561e-01 -1.249578936689170972e+00 5.831371459908114563e-01 3.999157082038062860e-01 -1.468001114217173164e+00 5.912192234802112756e-01
-3.150071094313579012e-01 -6.676451727455584573e-01 1.421505751935803370e-02 8.186391131679009447e-01 -1.343173854986309479e+00 1.928943589149001714e-01 -1.775517832156515263e+00 4.329561809809072126e-01 1.198771822880113858e+00 -1.099565432221319694e-01 3.144103445949317233e-01 4.513201436737409034e-01 7.196892383827067086e-01 -3.869031849041850712e-01 -8.683994184610142886e-02 -1.103092084899707670e+00 4.544008126080792964e-01 7.328309049459210689e-01 8.762022599883911855e-02 1.405056355249605815e+00 -3.698533674761361745e-01 -1.241089471428080682e+00 -4.296842915422604547e-01 1.228770180685877067e+00 -5.527038077539900840e-01 5.262564184590954319e-01 6.966909991858509683e-03 -8.893234617124926578e-01 6.904329327658231819e-01 -4.391372698551609943e-01 -1.232989777283745703e+00 -3.158583197217587624e-01 6.547807918341204125e-01 -1.128351192401077396e+00 -4.507868414678583568e-01 3.029589504169243330e-01 -5.200549955122513168e-01 1.231218334158586503e+00 -6.451697857590076302e-01 -7.779000831723146270e-01 1.276692334796377448e+00 3.957444905959169312e-01 -1.038886712360204578e+00 -6.091294675073165577e-01 -1.071975905166950849e+00 -9.766630709645635067e-02 1.869623098931829097e-01 -1.249679989972226485e-01 -9.937652478596979977e-01 -8.093246832779569244e-01 8.068213419044132362e-01 -1.187574853908222705e+00 5.771514695715936893e-01 1.101246232610814335e+00 -1.310335921513312352e+00 4.764026003591531611e-01 1.041733191028840544e+00 1.535889761593430825e-01 -3.799610038040665549e-01 1.978108473497754705e-01 -3.573624442707672433e-01 2.540765535262498598e-01 -8.071899250003576887e-01 5.186842312340630978e-02 -1.631379000597767137e-01 2.623210593563843340e-01 -2.482195386172388052e-01 1.305484145439731902e+00 -1.070276155925965034e+00 7.808904209697200560e-01 -5.830348330678551960e-01 1.632727562001506261e+00 1.605544899168642292e+00 4.149939764727715863e-01 -7.924781096369165612e-01 -6.483301918709825085e-01 5.620460418041064443e-01 -1.016682810119173164e+00 -4.084557566148916408e-01 1.377892651763135135e-01 -1.104117355083794383e+00 -3.102699341915187703e-01 6.704532819427208024e-01 5.976079541101356751e-01 6.522133354325424515e-01 -1.164392086862680920e+00 -1.423267467160925115e+00 -3.852244866055157257e-01 -9.927955497006182295e-01 -1.994617753140790484e+00 3.037014322336313299e-01 -1.005276127636296063e-01 -1.140703543335073178e+00 1.025105944984768147e+00 4.030802698498030523e-01 -9.042679511810282067e-01 -3.444007691159296503e-01 -1.086915063405195919e-01 1.838680636935686175e-01 5.072264738930236661e-01
-1.136963139991308935e+00 7.328084033710372536e-01 -1.160692730428327435e+00 -9.995396802598953689e-01 7.152052351294252430e-01 -1.266341817122893731e+00 8.757206671640990203e-01 4.363850593119254495e-01 1.201946998330667649e+00 -1.235088118287522435e-01 5.077078566248866692e-02 1.273974651224260457e+00 6.628933612070679604e-02 -1.292629077855900199e-01 -4.401173690394835081e-01 4.749045115022901969e-02 9.255740190081988492e-03 5.391835384133037978e-01 -6.651693418106212619e-01 -2.754335678396958170e-02 -6.366779490639835615e-01 8.544511344321470067e-03 -2.519731363638899602e-02 -4.583130582538302855e-01 3.993833486000178401e-01 -6.008905700264272065e-01 -8.910995074387736414e-01 2.225926083751131324e-01 -3.812962477509073134e-01 1.127007342297261516e+00 9.008591903933252931e-01 -1.132244620892588260e+00 -1.906342842225466072e-01 6.705463366917615575e-01 -4.435868968228223741e-02 4.469325793061672547e-01 4.411315457553734443e-01 -9.679776366341029670e-01 -2.353978538631028017e-01 1.050060170586291308e+00 -9.931811322605030301e-02 -1.660990178267418294e-01 5.872211098666507700e-01 2.314993774146024696e-01 -2.003781405665371745e-02 -2.759114515373124465e-01 -7.876605483030542088e-01 -2.782542841890612295e-01 5.257670584292600813e-01 1.173865928611680154e+00 -1.274694300535117897e+00 -1.235372122386453331e+00 -1.394925417266029255e+00 -9.483268257191527217e-01 7.927948962835207336e-02 -7.989636998767751797e-01 1.852673218676116895e-01 4.257407276321276690e-01 1.660895001929295622e-01 -8.217522861784445354e-01 1.152540362637754168e+00 1.373447576457418551e+00 -8.805821039396303229e-01 -1.579879389793690914e+00 9.686394670323167366e-01 -1.730138823135495552e-01 1.692859093045213870e+00 -9.678565926639361994e-01 7.508225010699624002e-01 -5.793602721794672838e-01 2.120931253300583075e-01 -1.107446761577950411e+00 -4.863729313682295108e-01 -7.194085405329515570e-01 -3.953598169591363010e-01 -4.172900396276620349e-01 -3.426073563797565891e-02 1.575104163482847763e-01 -9.954045205498660565e-01 5.377612003661338402e-01 8.058865704635984062e-02 4.813636092719695836e-01 1.563089855437889142e-01 -1.257234901052491693e+00 -2.694505464918787174e-01 -7.034078575109434794e-01 1.070158009518237030e+00 3.635241045591609543e-01 2.169007377671258452e-01 1.051718261454682057e+00 6.116229843951869610e-02 4.415767426489741743e-01 -5.887361519519832692e-02 1.228292379197477358e+00 -7.947007937803524102e-01 -4.489341179661154313e-01 1.116455320552408370e+00 6.379032688474813861e-01 -3.632371706684712764e-01 9.324579866148415830e-01
-2.217975510979312004e-01 -8.016301569037930230e-01 -5.611203312810167931e-01 -1.008746274837410001e-01 -3.165678968323838438e-01 -6.372987902163773644e-01 -2.145347912491356868e-01 1.466147692709869332e+00 6.480793750601906433e-01 -9.579789267640880235e-01 9.092258163191798692e-01 -1.270652999305043329e-01 7.965448187577479633e-01 -6.242038082141931205e-02 -3.335772599148137396e-02 8.199822991464444932e-01 1.471095865837497962e+00 8.323452347343127111e-02 -9.674259558965984107e-01 7.698319991769242421e-01 -7.056216519866501669e-01 -7.698180143813693199e-01 3.952994717885220943e-01 5.277837035216387251e-02 -9.814625721959564508e-01 9.265744451939367243e-01 6.839954990457733919e-01 5.051881017729155099e-01 3.868437853273672955e-01 -5.669545783356856328e-01 8.464020637810435455e-01 6.241135764940709540e-01 1.134299234391664468e+00 -1.882654854982681314e-01 -1.016442148816890212e+00 6.958942204693391309e-01 -8.126950573603299866e-01 6.165022795280576950e-01 -1.242273502105122773e+00 6.386672264668814547e-01 -8.027967961374664618e-01 1.398917180482467382e-01 -5.303392998588319918e-01 -3.277043659753364757e-01 1.693209652302604395e-01 -9.186341823060141243e-01 -4.490096316328211490e-01 -1.571537922847119351e+00 -3.388951844977245442e-01 -1.404947687059573624e+00 -6.486458919130786427e-01 -8.186829723279136495e-01 3.310590802729422855e-01 7.336672006652735466e-03 -2.448982180614854010e-01 -1.087587553839172827e+00 7.042539974574599793e-01 9.273438862928023996e-02 -4.810300003062255580e-01 -5.880944723740285651e-01 -2.764580763282655645e-02 -6.614561840978688823e-01 -6.016785466780738556e-01 -5.709066918993390694e-01 6.481481345507693337e-02 -2.086742391181436451e-01 9.118132679796880913e-01 -2.874917671509886197e-01 -1.008848596876531722e+00 8.905845679560658867e-01 8.189329542520431549e-01 -9.461550054334442184e-01 1.002244324688059018e+00 -3.265285502913750082e-01 7.371338065743804346e-01 -9.591694346895826007e-01 6.062151747656225886e-01 -6.477048476577371705e-01 -5.986822283917659915e-01 4.565409568544029351e-01 -1.162597949625680943e-01 -5.436614966245392200e-01 2.252081393682514865e-01 -6.162842949427559114e-02 1.197636706226670400e+00 -1.824977319191866676e-01 -4.682372877632664521e-01 4.014597479611167752e-01 -1.217612910209833199e+00 -6.745657179802023728e-01 6.314609381973385061e-02 1.011059987860039033e+00 9.311437773476455293e-01 6.152815079301120482e-01 -3.433794183960691693e-01 3.312772323570822852e-01 3.427880283974870657e-01 3.862994176543999014e-01 -7.728634393953303094e-01 -3.274082787240404913e-01
-4.633998788292305604e-01 -3.345511330716243736e-01 -1.185972129871032843e+00 4.162640176549871618e-01 -9.984698293638111233e-01 -6.449067065839350632e-02 6.189972410667354819e-01 7.627737444776223619e-01 -1.177545166531971943e-01 8.519180824454634093e-01 -2.497632680850713216e-01 1.786425034236025777e-01 -6.374453026862545446e-01 8.117066415589188066e-01 -1.727995724907323893e+00 -3.362767941142549843e-02 4.009658516501464209e-01 -1.104472447857224093e+00 -5.516240369643743424e-01 5.732765488941008597e-02 -1.402997489636130801e+00 -6.156553375085436174e-03 6.862347415711297360e-01 7.592590411076570733e-01 2.034755013690111303e-01 -9.530851814922358667e-01 -3.038516692193085067e-01 1.212094965586111434e-01 -6.175735803165700588e-01 6.258905584145576517e-01 -1.321202309275622211e+00 -2.778759255307799436e-01 4.704655171062027130e-01 -9.064681754225923926e-01 2.129912758770620695e-01 9.878646698147098837e-01 -1.046566104258704000e+00 6.696582002106253872e-01 -3.450263031544304471e-01 -1.008122799873166997e+00 -5.420594726207675906e-01 7.785024979283701463e-02 -3.287496235865964289e-01 1.134148583818748834e+00 -1.610650702290318884e-02 5.783055658053248838e-01 4.587760676323914266e-01 -4.085186301758972904e-01 -4.994587819755603175e-01 -4.325815422802338772e-01 3.015255081591494135e-01 4.346813538129673526e-01 -7.277559028479643199e-01 6.257642659099674765e-01 -4.265208786694976162e-01 7.850923221501096005e-01 7.208557909428887633e-01 -2.540556921057863793e-01 -1.292338314973220603e+00 9.203861796340052637e-01 -1.090940801413540662e+00 1.204190619733875200e+00 2.998480693942572328e-01 -2.744559506486185518e-01 -6.629827327709423290e-01 6.250631651633992147e-02 -6.445317626315070214e-01 2.286812320071158755e-01 -4.843211609182542232e-01 5.920738135345103847e-01 6.270501575741453948e-01 1.823608649147474337e+00 7.763320871338466045e-01 -3.467372799475112455e-01 -7.407258745678287903e-01 -5.784626002514811072e-01 2.443441501134178406e-01 9.342178553721098844e-01 -5.117469237538038174e-01 5.227776220556616948e-01 -1.137200777550659847e+00 2.637091648910032671e-01 9.670442086747829125e-01 2.931028267508961060e-01 -2.575811994563555474e-01 1.229201613490572109e+00 -1.533441133884149432e-01 -1.106060842747993433e+00 6.466382227441725972e-01 2.339327330759816415e-01 -8.792708636872768047e-01 4.072389772696892729e-01 -8.279887243215032777e-01 3.444520233305680135e-01 -2.160230769471735979e-01 -1.945567869558747498e+00 5.263291357897609268e-01 7.797675957689462201e-02 3.853459252023588855e-01 -2.418809225538164631e-01
-1.696132590954034236e-01 6.508340701086696711e-01 -7.431483124952280583e-01 1.274714599646229907e+00 1.578465231269920777e+00 -1.244679612309841088e-01 1.218035662591785639e+00 6.981649554234721222e-01 2.135484215685734100e+00 -6.619753806154216047e-01 -5.108686074407969846e-01 -9.980776810459481840e-01 9.342462351343003846e-01 6.831725087937076113e-01 2.658661768762456412e-01 3.844464013770051425e-01 1.292294102276964285e+00 -2.200845284895659171e-01 -1.130466914767274345e+00 5.871466270386009878e-01 -7.815943811594234791e-01 -6.459661819735598165e-01 -2.134443228641663970e-01 -1.076824792236699135e+00 1.098919359748702806e+00 2.945784451911098722e-01 -1.819286449381583293e-01 4.842585938166600878e-01 -7.366170523565952755e-03 -5.140430986508758293e-01 1.832106835387556643e-01 3.102314934747507635e-01 -9.562380343084860845e-01 1.601652634713665702e+00 5.214527199466741925e-01 1.209689472987749564e-01 -2.947156208915615583e-01 6.976220495148640621e-01 1.825402397179944902e+00 -1.326966205650740749e+00 9.073199015241592003e-01 3.770565213746501776e-01 -4.437665289548229919e-01 1.125788455352233042e+00 9.897209229395549368e-01 2.930744038245587380e-01 1.411095268503662847e+00 3.851442099915189377e-01 1.669517370592126682e+00 -1.049904691229766929e+00 -3.943454865660293851e-02 -2.086444312592616868e+00 2.580518289499857398e-01 -1.977357275129410230e-01 1.028967299179426309e+00 -1.208607712279800905e+00 -9.965152450567478226e-01 7.942208613784705884e-01 -1.253062319589856921e+00 8.611353273085735616e-01 -1.350826829758993597e+00 2.378059956394818208e-01 4.241835627814044551e-02 1.163519027601612965e+00 5.978614002114255310e-01 2.899919255200299473e-01 8.479966230326768661e-02 -1.341045610976183411e-01 -1.447255978273061405e+00 -7.461292443135121299e-01 7.419890501758515944e-01 1.119007574360853630e+00 7.629421455804924479e-01 -7.232263480171613468e-01 -1.427907977756669000e+00 -4.997064473109033012e-01 -3.839429936371110963e-01 1.093188598897506525e+00 -2.049164635801300260e+00 1.321752686814645084e-01 1.491211902850540505e-01 7.190805011391681045e-01 2.979002382316164876e-01 6.423818474280524882e-01 9.121840806844809801e-01 1.343038548575940849e+00 -2.053311391025773591e-01 -2.299538435221871513e+00 -7.497528902490406821e-01 -3.074056714744208829e-01 -3.637121556317052945e-02 -1.953609369464834433e+00 -1.134521730867391165e+00 -8.808122090866900011e-01 -1.169392120124586598e-01 5.499538504126517680e-01 1.352380996587021045e+00 1.414921568459688084e+00 -1.389500219041233997e+00 1.978758685136339457e+00
-7.577674809899118680e-01 -9.019138181788201036e-01 6.492257340005079813e-01 7.657862101547554534e-01 -4.520214538816065830e-01 4.134621050115515062e-01 7.547839690641247601e-02 9.857056197799589636e-01 -9.018412171318206383e-01 -7.068532436078301950e-01 -1.445793494390941458e-01 8.181184390719182797e-01 -2.211921555159806208e-01 5.028474706160473984e-01 -9.183822997481084771e-01 -3.039344688574296960e-01 -8.180347298685831658e-01 -3.486858092881574972e-02 -8.367066135011569372e-01 -9.196863370362190482e-01 -7.934346845947451987e-01 -7.578446181160057860e-01 -8.379481381618568703e-01 -5.790456410790544295e-01 7.045345392534280160e-01 4.823887052418396326e-01 -7.554600576702877879e-01 -6.131880799279515459e-01 1.016118780084066114e-01 -7.278408453007594314e-01 -7.637914675346056947e-01 -1.716422986127673356e-01 -2.418249544156597999e-02 -9.370970237546425441e-01 -8.748701972962441564e-01 4.135376488994810251e-02 9.891777139988885414e-01 -3.546111772913181914e-01 5.155049489838291477e-01 7.199436159568226024e-02 -8.456316925796210082e-01 -1.470004571591474740e-01 -7.965415948616562103e-01 -9.407083582892836748e-01 -8.868851074782271304e-01 -6.858077303592527985e-01 -8.537375997443338860e-02 -1.820094766927118357e-01 4.036381187993542952e-01 7.417870289950404539e-01 4.550117089034723117e-01 -7.327283755293785283e-01 -3.873633455795847946e-01 -5.990540647654634121e-01 -9.289957181188787105e-01 4.412342925047324504e-01 -1.899213962910967501e-01 -5.807630057776694832e-01 -4.470178101748170096e-01 1.409061417843980590e-01 -1.403225371402699595e-01 7.191749584282973728e-01 -9.404171772771359183e-01 -2.782320766222425301e-01 -9.840067589779243340e-01 8.543664007152083073e-01 -1.784832044377507310e-01 -6.275622950162150770e-01 -3.727281105759821522e-01 9.870496513008681916e-01 3.582722786296161921e-01 -2.839237532337098302e-01 -7.553925143001013476e-01 -9.529432700162443481e-01 -5.109821933545034556e-01 -4.915093070273962583e-01 -5.278856693573221737e-01 -5.443800036257463448e-01 -7.863594107822499124e-01 -9.060751598609374513e-01 -7.239230553215801889e-01 -8.517297652016354581e-01 9.244607040048994362e-01 3.238649388491151027e-01 -6.506243378907679009e-01 6.614973638277754642e-01 1.487220225763203132e-02 4.296434105631123934e-01 -8.501418945310114383e-02 5.668474741844761189e-01 -7.130666618795414302e-02 3.288306392174683568e-01 4.094501489862085730e-01 5.923608642409552427e-01 -3.891578461655789134e-01 1.087456909467921645e-01 -8.051023671439341278e-01 -8.292877072050245379e-01 1.933006912479665329e-01 3.821166497205789603e-01
-4.498378635974311091e-01 1.480129301269279829e-01 -9.576924478380890449e-01 -1.153796999458552630e+00 -6.129178565599021633e-01 5.329683276989991558e-01 -1.310668911772000067e+00 2.088409277215215465e-01 -4.183429823388051250e-01 5.553721828961776658e-02 2.686980581219258202e-01 -2.676181523285620645e-01 2.272000084819847388e-01 -1.500517645885438844e-01 1.048688761515211010e-01 4.242814154071676558e-02 3.247583844342196158e-01 1.155064565618259875e+00 1.382933853698275373e+00 2.379588711537142243e-01 1.205938759248626813e+00 4.600682943386857904e-01 -2.228315818411616411e-01 -1.185533320015656811e+00 6.940950111431054559e-01 -4.440205327177332295e-01 -4.247317878528221735e-01 6.053042910323260806e-01 -1.499243426666537982e+00 6.839489510942365902e-01 -1.456561841268585233e+00 5.536227463286954587e-01 -8.252501441223237810e-01 -9.004159210115755263e-01 -8.886952126231448812e-01 -7.350926600579282821e-01 1.740469455492465456e-01 -3.515492035354680911e-01 -2.325965709169702245e-01 3.601650203982619813e-01 -6.068232939253718206e-01 1.252607152609858776e+00 7.584750695700513967e-01 -6.067647697469424894e-01 1.080588377491096125e-01 -7.727985167824700241e-01 -9.168130783913097659e-01 1.176042034487819743e+00 -7.429784867649098512e-01 4.527776084665768863e-01 -7.970870431798093847e-01 5.860494353850036475e-01 -4.492029489175851098e-01 9.221994852310869684e-01 3.968861039321721074e-01 3.762426377875173200e-01 -1.247308674452535682e+00 2.125297269217561735e-01 -6.658167542237724001e-01 1.267051629573191951e+00 -2.876575968236304640e-02 9.206315492812587875e-01 4.805067239343203123e-01 1.279952398023787366e-02 -7.433616798696840444e-01 -5.475818902676290456e-01 -6.442395374510944128e-01 5.442346466082049073e-04 9.791487828835211404e-01 -1.414923477430841403e-01 5.456843237662714063e-01 9.125463295807691999e-01 -1.067330109329962307e+00 1.085051604958720439e+00 -1.398760271882299122e+00 -1.464428968247356799e+00 -7.938545756877413151e-03 -6.733920619772415517e-01 2.224161364662506357e-01 9.086721458940161256e-01 -1.467897371321968292e+00 9.477549055264603561e-01 5.983172583311505699e-01 3.755124654565916154e-01 -6.967237257100938885e-01 -4.104540877474300853e-01 -2.030714138524635781e-01 -1.228979767601993789e+00 1.500944304457507705e+00 1.114498346200372136e+00 3.854385804375977109e-01 -1.110616674017104621e+00 7.238161015391048059e-02 -1.129597530634823599e+00 1.269852848976566806e+00 -1.217351821968895242e+00 8.270474185199953032e-01 7.738287280109249489e-01 -9.583185669995524236e-01 -3.656548167612855282e-01
1.564016715945480418e-01 -1.497178436471102159e-01 -7.058159561625741707e-02 -2.738183197728730200e-01 -3.855958959580808587e-01 -6.533418755226778618e-01 3.593742063852747304e-01 1.037569742908929088e-01 -7.304968608083923787e-01 -1.243104442449981528e+00 -1.789089609217167642e-01 2.480933188297487213e-01 -7.209632855747934999e-01 3.807002421117293700e-01 5.089154640007970132e-01 -2.162067871303207517e-02 -9.225318532269789484e-01 -4.808743301168177386e-01 1.570916783743271650e-01 7.709537643086694647e-01 8.061824924909278822e-01 3.441176195420131978e-01 4.839875663417859686e-01 9.798856031732378069e-01 -1.862388999658365907e-01 6.993769824469799889e-01 5.367233936711637288e-01 1.098144809846783199e+00 9.531374939312933225e-01 -4.778860804827129993e-02 -9.443858266114786570e-02 8.420251124804183362e-01 -5.524625115616046411e-01 -4.803748820799892405e-01 -8.288530341057236406e-01 -4.390925723986871532e-01 -3.541836907623843733e-01 1.023213088861865128e+00 9.836625592456035502e-03 -9.261803698418019648e-01 -2.699827136964813579e-01 -1.402363618643561294e+00 -3.465529097542648929e-01 1.333765582443455222e-02 -4.874975172261669654e-01 -9.194372460885041898e-01 3.029396979762801756e-01 -3.356441190018649712e-01 4.508426130529685771e-01 1.062613817969432439e+00 9.500049825032396145e-01 -1.866285811495391744e-01 -5.472127796521374377e-01 -3.167348013223039160e-01 8.317828874982277076e-01 1.041624225201094323e+00 1.352603281613464103e+00 7.487223308050330317e-01 1.645997784248456330e-01 -4.365595692264846034e-02 1.998499118192386126e-01 3.330583629908446253e-01 -7.934181583090154088e-01 7.019626567127233985e-01 -1.710642740511237325e-01 -6.396411730362078218e-02 -1.043282446880832826e+00 -2.283176118565826140e-01 -6.267586617378736458e-01 3.200841236076371055e-01 1.062705688966534279e+00 6.430239231570376857e-02 4.855481257247300925e-02 1.319605673069635388e-01 -2.496258877777007834e-02 9.409594006309525138e-01 4.828962625702677425e-01 2.046249126623495840e-01 -6.082357741097158543e-01 -5.973749155427200419e-01 5.631480021164141370e-01 -2.693925008789023745e-01 3.423900475771017304e-01 -7.266159023351002055e-01 4.634570891256729608e-01 -3.438629096398974072e-01 7.909451279793902057e-01 5.417758164926105291e-01 -6.527454945339864478e-01 -4.362679199346317649e-01 2.987600586325108165e-01 2.855727161488074151e-01 1.632734007264004250e-01 -6.201617096634625126e-01 4.835156279051819328e-01 -4.577813331735365310e-01 -3.046019444840749116e-02 9.310069336109639826e-01 1.360542721074903538e-01 -1.157449158139238543e+00
1.191885366050269068e+00 -5.773787946454013165e-01 1.387621882781992388e+00 -8.889378851958549266e-01 1.055135466253568355e+00 -5.791885500736250192e-01 3.356035612414000058e-01 -2.031202631564833494e-01 -9.146850801661439156e-01 -3.618772817496802574e-01 9.072004723514184299e-01 2.551291313630768554e-01 -1.305484582065521149e-01 7.285938248962759989e-01 9.967637368814364907e-01 8.021905165464869869e-01 7.714465807884475224e-01 -1.573007519796199016e-01 2.303428353172407017e-01 -1.187919005635854397e+00 1.715240517982621893e-01 9.412073192048187043e-01 2.397610558401429004e-01 4.011935002549529283e-01 3.278325128517737275e-01 2.149934750346201295e-01 -5.940866999411003047e-01 4.099572162496031846e-01 -7.980883562072212944e-01 4.384687081325034375e-01 -4.728391447856561403e-01 -4.516576952480985674e-01 2.776000008369107833e-02 9.381968297462008888e-01 5.248550879776368028e-01 -3.927927609256307573e-01 6.756890691957627704e-01 -7.473731515359863797e-01 -6.262242551964430914e-01 8.130977094766282942e-01 1.241083807799677086e+00 -3.933424684179290809e-01 -6.976116892951924608e-01 4.607436986529905298e-01 7.785882503315842973e-01 5.344088089987824031e-01 2.585509152850059555e-01 -1.011268818495481447e+00 1.248080392246476489e+00 4.411448533384251802e-02 -8.152579735762013335e-01 -1.190222119602116546e+00 4.237558155226121559e-01 1.210781188200693304e-01 6.254114562311147152e-01 1.470672014173882713e-01 8.207147761937780839e-01 5.688317490100226470e-01 2.389263307853817242e-01 -8.054755962737401020e-01 -7.338473579631596966e-01 -9.006302638606303312e-02 -9.109413394710836887e-01 1.379579810018087827e+00 7.429697589554863368e-01 -1.090390869188109235e+00 -2.241704183492885250e-01 2.216919001309856363e-01 -5.505716147910940661e-01 -2.395209169309071573e-01 -4.659379240830279212e-01 1.836094921716179273e-01 5.743670348624935196e-01 6.820710240390537304e-01 1.247860385775352965e+00 -7.949012229568829246e-01 -3.263687446251301028e-01 5.666423241523034227e-01 -7.773303606722586911e-01 2.626299118245236097e-01 -8.348285705246870636e-01 -5.783342267854557628e-02 -1.417860077511763794e+00 -6.426720676694459566e-01 8.944291475147456150e-02 8.974665407918527293e-01 -9.937931727692393968e-01 8.472208661343612057e-01 -1.828224217599835333e-01 6.722482316140292458e-01 1.083715812595420269e+00 -4.940808214539027521e-01 5.399932163839722410e-01 2.230159531127885453e-01 -8.573910664403755488e-01 4.307966895130244112e-01 -1.821879797283227631e-01 4.213991337408183324e-01 7.738373087429913921e-01 -1.036540559978220255e+00
1.499815413675585019e+00 -6.565075473351341673e-01 2.974219070014312849e-01 2.622188545146128535e-01 -1.064601397521395931e+00 -3.420653853802817501e-01 5.458653132031112687e-01 1.370525963789865020e+00 -1.323950083648955500e+00 3.901979030118729042e-01 -3.694915679889279603e-01 -3.377432735714752110e-01 -4.842110025330446099e-01 4.868632417334050611e-01 -4.341415282950092380e-01 6.658508101307676341e-01 -1.187271534682381668e+00 7.619915999728118505e-01 3.144583181473673550e-01 -4.748318664482359397e-01 -5.488094513562398191e-01 1.003951435274221399e-01 3.806914150600232416e-01 6.698759647492634750e-01 9.242855665732836457e-01 -7.605907269670134606e-03 3.545708379312108027e-01 4.686784291064178820e-01 2.976654030597343237e-01 -6.058347676077674437e-01 -9.696179263686187655e-01 -8.842108869871781462e-02 -1.606746810734849706e+00 -2.162857289237412939e+00 4.461102319795465787e-01 3.433381707936528082e-01 3.015670558410583069e-01 1.503216941444900367e+00 1.788066162434488182e-01 3.488163503177152402e-01 -2.780172960929963022e-01 -6.041233104188065139e-01 5.448572158608676608e-01 3.495482926486853659e-01 -3.760784900879553250e-02 1.147656614413442577e+00 -5.303743960877028707e-01 3.220640244492069537e-01 -3.978154381641206272e-01 -9.077751982311321743e-01 -1.019572705290886727e+00 1.857469393808046210e+00 -2.353468568321657461e-01 3.283603887728426818e-01 -1.087797115147352001e+00 2.788421674663343897e-01 -7.624457838057292491e-01 -1.305403099270919576e+00 -7.625443299719388834e-01 -9.984001523950036816e-01 -4.559830723870168800e-02 -6.608355756555808203e-01 3.245076296285217543e-01 -1.384657566866191181e-01 -6.746313184613489389e-01 -6.569942155764714187e-01 7.110257989783661525e-01 9.166122129895999671e-02 -4.475910195603599595e-01 2.362014064946826308e-01 -8.312775714929048210e-01 -6.581748131351152775e-01 2.130383534734336115e-01 9.177186775220870230e-01 8.384184570150574611e-01 -5.928301720510628092e-01 6.221770407666267211e-01 -1.215319356473087531e+00 1.570610349803055028e+00 -3.257510894286936853e-01 8.018091932201207861e-01 2.981050990053698557e-01 -1.461361436069854303e-01 7.151762413014044473e-01 -1.353526916167993255e+00 -1.295669445456642199e+00 4.803367759279750793e-01 1.058414459976151578e+00 1.286486628912973273e+00 5.509698730636613390e-02 -1.069385784374944637e-01 1.789271494808024165e+00 8.595295184708943992e-02 4.121150554919253417e-01 1.007694768793597540e+00 7.106541472510875534e-01 -7.852173232334593855e-01 -5.413877093803028950e-01 -7.373306565287970349e-01 -1.025440464890447823e+00
-7.415083615443354148e-01 -8.834072436235478054e-02 -5.780967773234245433e-02 -1.104201654733348026e-01 -6.736354624919680401e-01 3.576430306628147204e-01 2.763200429892703203e-01 1.379410028467759064e-01 7.970565026557430155e-01 -7.172697819764450866e-01 7.850868395531990229e-01 2.202980859422299514e-02 7.537255818621151071e-02 -8.452599129612863305e-01 -1.013768088477034146e+00 3.773560175542450823e-01 3.157561236494608736e-01 -9.203561239283549744e-01 -5.222940282532717582e-01 5.094045662025679100e-01 -7.440495374007468632e-01 -9.522925160841982928e-01 5.940899535754122773e-01 -5.168187291945528505e-01 6.010134468360147642e-01 5.126157139173515009e-01 -1.758062390524190166e-01 -5.359226969908763571e-01 2.523075498177443921e-01 -5.316613139861713355e-01 5.466036651488934694e-01 9.414842548198320005e-01 -7.755014710031375991e-01 -9.289981829606497321e-01 6.157097490492469127e-02 -8.906114484562355216e-01 -2.038409540180343982e-01 -3.710615933548512269e-01 4.368940135294102634e-01 2.976974891724135097e-01 1.859584882433428232e-01 5.856940576336815418e-01 3.873265198585492119e-01 -6.961525786538332872e-01 9.672325841181785011e-02 4.894860086134243393e-01 -5.960274729746389832e-01 -6.370990325680320199e-01 -5.080073466581300767e-01 -4.528590444300252815e-01 -6.295155656658412147e-01 -6.801150317127748757e-01 -4.539915212249138188e-01 -2.114619726530298296e-02 -2.636961741840347373e-01 -7.710301974685565551e-02 3.238528875306779797e-01 2.420858196874557389e-01 -2.804507720319468489e-01 -1.738670227803030544e-01 -8.553082389885305892e-01 -1.735455318263074420e-01 -8.472177038193033916e-01 5.677424701046608346e-01 -7.544649658407661663e-01 -7.210415911162577629e-01 -2.588941870651150778e-01 -2.067631796314435555e-01 3.232921852100277271e-01 -8.021798491228392114e-02 -4.340543555482580529e-01 -2.409814704708946875e-01 1.546657041374492267e-03 3.343598020597255971e-01 -3.770801791009413262e-01 -9.514670891923150409e-01 5.413625216024008369e-01 -6.305811278740850456e-01 2.127556479596142691e-01 -1.016742134302493383e+00 -7.067812975963726485e-01 -3.329531515180374490e-01 -6.737823430468236063e-01 2.345943802246820351e-02 2.556618815096722841e-01 5.003984095856132130e-01 -4.435255791027520877e-01 1.769398300678357849e-01 -5.160392465096803605e-01 4.831018826759370666e-01 4.976607669795837796e-01 5.913667723868194503e-01 7.501443343748015469e-01 4.222112796315752141e-03 -5.646816060261069525e-01 7.164249369101494125e-01 -4.430459275681679632e-01 -9.138659137427073142e-01 -7.129191692135032898e-01 2.191410777757915596e-02
-8.285981132369040214e-01 9.602694167151678561e-01 6.994729395281381601e-01 -7.747639999308214565e-01 9.961785137952934577e-02 -7.404959792907679361e-01 6.098860351933121926e-01 -1.042184584831154393e+00 5.987910137841171571e-02 2.067560564662515254e+00 7.665997836593321235e-01 3.669409586931163814e-01 -8.283103273442184167e-02 -4.836472628270684915e-01 -3.578859945383171537e-01 -7.505851939213358248e-01 -1.509870368497967297e+00 1.292912949443910109e-01 -7.492472806923116124e-01 3.931221322507759131e-01 2.537129693139973940e-01 -2.701606883076792531e-01 4.072187725544389458e-01 2.536828039324046102e-01 -6.020464907521285713e-01 8.832909630297999248e-01 -1.090756649515184584e+00 -1.106776369783708747e+00 -1.021405931319817162e+00 2.494532686062376492e-01 9.021377535572548956e-01 6.746096366010336798e-01 1.007134859279628092e+00 -2.673846439442185141e-01 6.733425946436616405e-01 -1.151284943205252709e-01 7.941381950960118008e-01 2.755768407757921423e-01 -3.311262477072897115e-01 -6.576640702670423222e-01 -8.790594839854154463e-01 9.666143600144547210e-02 -6.887480659360259994e-01 -8.925784337968674376e-02 -1.393305335694644320e+00 -7.481361746466218543e-01 6.761070106905425758e-01 2.466998806118599064e-01 -1.557534430581894558e+00 -7.061402442402699986e-01 1.414771303980373318e+00 -1.239561405774517677e+00 -5.904973704823044400e-01 -6.685473772366183898e-01 -2.338277493990454370e-01 6.199317668465711417e-01 2.996419509577634595e-03 4.561089985259158541e-01 2.666572960795052238e-01 1.749353947217695771e+00 -7.434954270138381949e-01 2.650314333801772615e-01 1.218637620938946231e+00 3.101463579222255573e-01 -8.948673611517081738e-01 -1.457607440054021208e-01 7.978726158161234538e-01 -5.042530424236920661e-01 8.806890801089136689e-01 -3.198942657871274853e-01 4.924370676386151113e-01 3.476175242325491022e-01 8.667086213484452850e-01 9.601722791647110400e-01 5.936217664461805876e-01 5.960964142107163521e-01 1.820630012495883243e-01 2.142284121618512893e-01 -1.046927089847081577e-01 -6.901012561370660769e-01 9.462647185563461960e-01 2.048991653055763362e-01 -6.418799115069064865e-01 7.287138527934560184e-01 -4.431267612222912211e-01 1.278303489562916617e+00 -4.107268734007348265e-01 -7.143622751719685970e-01 1.277691095106043839e-01 -1.057199363939523629e+00 -8.950058785466648015e-01 -5.815444005724057508e-01 -1.370684755753904138e+00 -9.675688433142037859e-01 3.000914994223266019e-01 -1.303173323691690699e+00 -6.199334957002230473e-01 8.474717173972386997e-01 -7.025942586438064241e-01 2.918479309176350567e-01
-6.008382813989694426e-01 -4.375776791008580413e-01 4.499036514793365860e-01 -3.083696433579056762e-01 -2.730067330306966134e-01 7.209783345268281352e-01 -5.264600041567460975e-01 3.554443458587526750e-01 -2.514865829965889366e-01 9.565239046191106320e-01 1.808023443542889908e-01 2.725461764742327930e-01 -7.856522073614472523e-01 -1.110126584425307650e+00 1.591617592231827083e-01 1.025489047359849026e+00 -1.085533120547965469e+00 1.148248084383450690e-01 -2.058107174514874349e-01 -4.716022185233060826e-01 -7.720253187459827360e-02 9.149791427575979519e-01 -1.833516242204939473e-01 -1.059964024134576244e+00 1.274523814302966240e+00 -2.236488062142434063e-01 3.186966176290306763e-01 5.413360813698229190e-01 -1.123559850710990515e+00 1.322879860020390909e-02 7.208188558360241194e-01 9.526606215664602528e-01 5.039373525070001136e-01 -4.877057081091833446e-01 4.056625969188954461e-01 -7.322713867144917677e-01 9.047578535331091132e-01 7.866547315634323523e-01 2.415150249134696281e-01 4.094035833531227686e-01 8.051543297322787396e-01 5.113617927539363395e-01 -6.056487615146562975e-01 -6.039276879406759724e-01 -9.694491983985931149e-02 5.569175578965787077e-01 -4.095423710603052214e-01 7.395841441011771211e-01 1.286061661025066916e-01 4.234152193575618228e-01 -4.024648988548636952e-01 2.841648629123849079e-01 8.503948372495304664e-01 -2.666568099597795838e-01 -1.340664406373440198e-01 -6.480814035304746090e-01 -7.701526889892503780e-01 -2.427611242540494707e-01 -6.108874011824820538e-02 4.381884948743350328e-01 8.257636918783517466e-01 1.409001208169856356e-01 8.070332614318113107e-01 1.233562825590897721e-01 -9.221938282107777773e-01 7.878946192097681031e-03 -6.772338444902082921e-01 1.686370998161133838e-01 -1.095877303123718338e+00 6.560021230069984499e-01 6.616740771354342465e-01 8.326311610880104963e-01 -4.603322210075042054e-01 8.972407686874787069e-01 5.757238541628677542e-01 5.412757897799778117e-01 -1.054482171395636075e-01 -8.056714322070587242e-01 -9.441505757887850292e-01 5.413528165344309029e-01 -3.916037568564904592e-01 -4.673169020698388354e-01 3.255113745600460295e-02 8.876869787977033077e-01 6.783995680254487626e-01 8.367002372915066655e-01 8.387235172558221707e-01 2.140295685835787720e-01 2.101793509263511772e-01 2.861775525303330014e-01 -8.059234282266812821e-01 4.863831379777698305e-01 1.165395759188367908e-01 -6.956398014360006821e-01 5.746180939126238618e-01 -1.679972559079072059e-01 3.604948617783666487e-01 -2.514288714076813869e-01 -2.572961558640919355e-01 -1.937634661599254571e-01
-6.776471962611586852e-02 -1.236139068985055989e-01 -8.647438069702900743e-01 6.049460230303644881e-01 3.117939423108307406e-01 -4.781391976437782687e-01 -1.823875932919381479e-02 1.818546615013352241e+00 8.929877370800213265e-01 -1.162505032551238937e+00 -7.670375776839712945e-01 2.486524307575807835e-01 6.663318558757035381e-01 -4.976983037809211419e-02 7.672040726801081512e-01 1.116479098723221597e+00 8.046489849966826924e-01 8.591831994563986497e-01 -6.713999968138664176e-01 -4.575051966215024635e-01 -1.334096393869346753e-01 3.029488872569660596e-01 5.834096206645222882e-01 -6.194812447051013526e-01 2.740780346854945759e-01 -4.418202544661175013e-01 2.288001673212669840e-01 9.161670079557296953e-01 9.800534950917397792e-01 7.466733103670189498e-02 -5.750356523849066148e-01 8.972288084513763140e-01 -1.290396376949332957e+00 -9.291789795830147636e-01 -1.354504208003241672e+00 -1.468096158798404549e-01 6.604558345998914337e-01 -9.844259385634781534e-01 9.905636469547618450e-01 3.664884727461701908e-01 5.806616878215072886e-01 -3.761964926388225439e-01 2.984819411601831451e-02 8.151482518050653381e-01 4.499652887236011423e-01 -7.665354871940220638e-02 -5.168239847680884402e-01 1.279948044317314793e+00 1.240346062139630057e+00 -7.833629650308203685e-01 -1.776011499159477480e-01 9.238886260256243821e-01 1.262226276550046711e+00 1.706665614526948482e-01 4.937239913843395889e-01 -4.666829566493336245e-01 2.992893518960076937e-01 8.089435922624026443e-01 -1.208356961786350103e+00 -1.073333399866972071e+00 -8.110969202038371684e-01 4.746528894359554052e-01 1.950859770802433890e-01 2.400089799722531225e-01 1.936022181220481142e-01 8.115530882583311678e-01 3.830812682311838246e-01 -3.668813445832367903e-01 3.166679851195441375e-01 -1.820070133179436389e-01 7.182122035461704357e-01 1.373169746406384784e+00 -2.900070082218805800e-01 2.556085943412347850e-01 6.853080787809363583e-01 1.051977888051957022e+00 -8.413339925652050244e-01 4.048448441093133732e-01 3.865331729723390786e-01 -4.946700029041246061e-01 -1.566106229079702539e+00 5.810538101284469237e-01 1.326865752388018294e+00 -5.570723916147847232e-01 -1.196995082309522743e-02 4.421964170490190749e-01 5.322883855514861651e-01 -1.826511422770121795e+00 -1.288064319071242358e-01 -3.179127958332849668e-01 1.399859284210489996e+00 7.687397963939209822e-01 6.748163796952162674e-02 -7.624922939153041535e-01 -2.133785127384277280e-01 1.249002907128766271e+00 1.176944506877745544e+00 -6.010066852943980048e-02 -4.126396690022086644e-01 1.356936825994678353e+00
-1.081574389169144501e+00 2.667019266972418534e-01 -9.783445196394224830e-01 5.409982100804832106e-01 -5.155625475163608806e-01 -2.199248300065269057e-01 1.460079620384646448e+00 2.506028270882395548e-01 -8.663133191899373697e-01 1.534102567785358140e+00 -8.581757506014318082e-01 1.155078925933678446e+00 -4.794031295205477550e-01 -4.366148536485069398e-01 -1.633906698684398640e+00 -7.475437451213097217e-01 -2.447297497090335783e-01 -1.221006511058560617e+00 -8.582126756043808591e-01 1.442135256235519969e-01 3.894839939200057666e-01 -5.364588619357124610e-01 -1.054485525739256024e+00 -9.491794121781235161e-01 -6.369739793220366431e-02 -4.743221436674795004e-03 -1.349246301496736244e-01 -1.297992121602790760e+00 -1.057128953819397310e+00 2.241790359767292240e-01 -1.382755128310162174e-01 3.659089094053527558e-01 1.676896687410473374e+00 7.779601814891187184e-01 1.311396664431246473e+00 -8.707561259697903233e-02 -9.306181699128655005e-01 1.163623580605671476e-01 9.899919803401246998e-01 3.615600515327527797e-01 3.908729033571679001e-01 4.537117317125546889e-01 3.786058756324520713e-01 4.439614051146337226e-01 6.177646335671145295e-01 -4.060637468490041480e-01 4.032729571338521946e-01 -1.151250540516247423e+00 1.267831089348975537e-01 1.383443403031494823e+00 6.850353043944070741e-01 5.172560845771785321e-01 1.725562281188940394e-01 -5.606627075518597070e-02 -2.197042871855514889e-01 -2.369884924872812104e-01 -1.154868773732324883e+00 6.051012463036578026e-01 -5.453533586253733745e-01 9.686919081964445732e-01 4.842695330012185967e-02 1.184236390941242556e+00 -2.690278414483958103e-01 -2.674829437084628170e-01 5.941636946041579659e-01 -1.504085490303425920e-01 9.438243403351251892e-01 -4.835724866218414353e-01 -9.129027791160344574e-01 -8.677396521268910812e-01 -7.748953889347286461e-01 7.829200781287825039e-01 -1.072974088550083138e+00 -6.308932191487224284e-01 -2.983106543950275746e-01 1.991907759904330555e-01 -4.393285006002911608e-01 2.291436604829464319e-01 -8.884214203259452880e-01 9.968667876067874301e-02 -4.766820355686398059e-01 -8.285251662935949613e-01 1.242868605673123739e+00 -3.624349370394930325e-01 5.408874616485707110e-01 1.343005102090278235e+00 -4.595167582174932153e-01 -2.087967290395491282e-01 6.750456498586531184e-01 1.126158087290871412e+00 -3.890923373306727773e-01 -1.128441633914234743e-01 2.541550041477941280e-01 -8.685248480908525082e-01 -9.175827712376981582e-01 -3.437399517466134258e-01 1.199445326864079897e+00 5.961122814816447457e-01 3.625773311524700948e-01 2.244999901700391043e-02
1.518673162806378985e+00 -1.901214266601923553e-02 5.349505100069863461e-01 -5.790147694006336776e-01 1.962160521515114442e-01 1.085361126913740870e+00 -7.292077863669568227e-01 3.794100389015196972e-01 -4.203423117995122582e-01 2.986689890469775843e-01 4.235890353052940704e-01 -8.868267790259272143e-01 4.790232006244345975e-01 1.277503827673709624e+00 5.060107295936339122e-01 -1.322914963098098806e-01 -4.103980335883924413e-01 -1.995132297039320102e-01 -5.316674745476059893e-01 1.026884793602000023e+00 1.581041207858047581e+00 4.550077757375581289e-01 -5.849488542466370067e-01 -4.926697139216298371e-01 -4.588284919718438326e-01 -7.655775421526563873e-01 -1.069055124133241885e-01 -5.333637780087703284e-01 6.898135019638909071e-01 5.075345872758502130e-01 1.199340119831072915e+00 -1.641794256056695600e-01 -9.904924971931731159e-01 1.263727939193756179e-02 2.121448264833452335e-01 -1.079181158953540054e+00 -7.510342959975111476e-01 2.707169951911223352e-02 -3.644734994569427955e-01 -1.650517381635526082e+00 2.627247962091783240e-01 2.314262450148784067e-01 1.499048713544592903e-01 -1.206303408947900113e+00 1.741368698598780018e-01 -4.933815243021206220e-01 4.999125716743719750e-01 -3.649169242163945448e-01 -1.183914385068841835e+00 -1.039788376144392457e+00 1.077845192137215191e+00 1.033882117702594083e+00 8.788245307924434924e-01 8.347059482328414992e-01 1.208398209223185082e+00 -9.877686646898448108e-01 7.273410234590086398e-01 -1.007086428872837836e+00 -3.215639061138039767e-01 7.000539340972833369e-03 3.773237497721253497e-01 -3.035995556375948867e-01 3.476636883540527578e-01 9.970697821243144077e-01 2.888665114504941900e-01 -5.657199970837810676e-01 -1.424623857258412452e+00 2.967194208579354564e-02 5.683938343980394770e-01 9.768178074903803854e-01 -2.344925285675496796e-01 -9.947728912272648660e-01 4.875969526050143998e-01 -3.405993944590499645e-01 -2.216562333962600051e-01 9.717889157815686740e-01 -9.697881679893322060e-01 6.825008544152584289e-01 8.280893782938416603e-01 -1.167440606927573565e+00 1.145032367139012519e-01 -1.132720238752251474e+00 -5.139473463148004351e-01 8.603383310901777659e-01 -6.611989286470595362e-01 2.880017699286796518e-02 -4.000211892259432356e-02 -1.092094859069458135e+00 -1.074255591638428431e+00 -2.576905556776325906e-02 -2.389086207051692723e-01 -7.034080806879231540e-01 -7.961264647562856789e-01 5.396453055809377064e-01 2.060423871758249592e-01 1.071025395768498978e+00 -2.984250626601476220e-01 -4.395030118440568234e-01 5.153991695488834290e-01 -7.376339110745621097e-01
-1.679039744864206096e-01 6.157501435446495197e-01 9.486412299745986543e-01 1.847875131335345422e+00 4.461165948154611205e-01 -2.720086413638746481e-01 4.936557464669162898e-01 9.649058396036538365e-01 1.645335462330835830e-01 -1.636290740225655682e+00 5.825154267823849930e-01 1.537644782592136328e-01 -1.551241315224395345e-01 -1.763173082448714901e-01 -2.452457364975404452e-01 -3.592619122405890653e-01 -3.834943912087638296e-01 8.035464836487403728e-01 8.029286931396203419e-01 -6.749556441704529508e-01 7.427168364893220465e-02 -4.609389737257335584e-01 -8.673918222843469694e-01 1.748184105450010795e-01 -5.819060403050593244e-01 6.790002468927144319e-01 3.930598489225738471e-03 4.558219876096481493e-01 -5.736195829710660776e-01 -1.395912929403658298e+00 -1.147137060303760281e+00 1.026367455210221102e+00 -1.381968790299702710e-01 -1.301298558734789612e+00 -1.033575860254211110e+00 -2.888495278275540201e-01 -8.846832489387997933e-01 1.294343523799742712e+00 3.117529035433216911e-01 1.758649329220015323e-01 1.351522917989813610e+00 2.365826596780150615e-01 -8.593022024684104920e-01 6.734652031250418780e-01 -8.185229850900179738e-01 -9.689697485120930542e-01 -1.996955495815528614e-01 4.532025645904017574e-01 -3.580104365582166270e-01 3.772724624142059224e-01 -1.040414123615057418e-01 7.765926029516809770e-01 1.675069096882271236e+00 -3.301033640003003117e-02 1.243452226866312293e-01 3.492033664089667644e-01 -5.178673017215126295e-01 2.671686817874023290e-01 -1.352757213247905543e+00 -2.877191846232284300e-01 -1.516942909236113968e+00 1.888061698046163694e-01 7.566650096895759237e-02 6.275468745129476611e-01 -1.363937067726471275e+00 -8.864532635131791016e-01 -2.631103448927492039e-01 4.323781854217199627e-01 -1.034796103037960574e-01 1.548705155696718183e+00 7.822023735261057764e-01 8.088750470290064776e-01 3.762176427008057794e-02 1.423566305189752912e+00 2.241434043474968552e-01 5.837639811986520266e-01 1.365378644832072608e+00 4.627199533527215358e-01 -1.047884554635318599e+00 5.727396893651027776e-01 -1.537149437614806047e+00 1.047899262192680148e+00 9.171583519650731153e-01 -3.698339378713676462e-01 1.037838019098140246e-01 5.030801978100506444e-01 -1.267535260418193088e+00 -1.455792380429267840e+00 2.048561365917180299e-01 3.237195424782328135e-01 -2.207568861149208084e-01 -5.581115884862648535e-01 -1.064683579761170007e+00 -6.714175668252655438e-01 1.267384647774460804e+00 -3.387888410572665321e-01 1.832547938750762884e-01 -2.638985958347858096e-01 8.369132449924280293e-01 8.710250632189240338e-01
1.324989771057566879e+00 -1.488397274038868838e-02 1.057002857732266321e+00 -5.195871902302231504e-01 2.270505871338741877e-01 -1.140360324971599226e+00 5.638086032181005569e-01 -3.123695728954967721e-01 -4.198495087439332307e-01 1.120990685943359599e+00 -7.652535049212004503e-02 2.246245765349186851e-01 -2.503941610329749601e-01 1.140870154623970345e+00 -2.564786027552864445e-01 1.508898586770658579e+00 -1.239546818514697168e+00 7.716228344776077108e-01 -9.665374405261341062e-01 2.491834299376381179e-01 6.965584677417283599e-01 6.297397664231333403e-01 1.401772887819295876e-01 -2.599936953323585265e-02 8.541221828888704293e-01 2.401228135742529413e-01 -1.026936726072806907e-03 -6.714258356560515173e-02 -4.686386905464044045e-02 -2.310871377089857015e-01 -7.694890756643563146e-01 4.460597776529205971e-01 3.329033582777609079e-01 -2.462104144846682940e-01 1.757688790726366967e+00 -4.744156132231475143e-01 -2.060532070590614107e-01 3.868114967118096437e-01 -5.183482792417012375e-01 3.529579175044787048e-02 4.459331371622970996e-01 4.275171415703547806e-02 -7.730947748343252046e-01 1.038871517686756479e-01 -7.504934828196933028e-01 -1.556921856662340620e+00 5.907607549968042493e-01 1.146063703235324471e+00 1.156803388877031491e+00 -7.455043534846867992e-01 -8.634044878396831546e-01 -1.019806479874574068e+00 5.872629247076569525e-01 -2.462169724542765392e-01 6.945970779340995271e-01 -2.326632834015339435e-01 -9.830909313291511520e-01 3.218962925975593636e-01 4.746357778696259633e-01 1.074033283724943333e+00 -2.024815658311003852e-01 -1.171931874126361656e-01 -8.995671568632417348e-01 9.644849073692960406e-01 5.144808181577340545e-01 1.281701239197954978e+00 3.784711594707271809e-01 3.646055877891071217e-01 -5.922365627551980927e-01 1.843511173246587254e-01 5.204814301485917172e-01 1.764274955804037703e-02 8.850606295947139879e-01 7.849580471533919024e-01 8.507773727122706076e-01 1.038913769087087990e+00 -1.689152914586809384e+00 7.929420628077362698e-01 -1.237897836667216867e+00 -7.676322846503519370e-01 3.691443192775699100e-01 -4.104655505151035277e-01 4.113882435807893201e-02 1.127172387458933889e+00 5.353870504566866223e-02 1.198354239851110226e+00 -9.010913739684451862e-01 -1.337431972580734207e+00 -1.142679600710954091e+00 -7.598672212731960585e-01 8.649113104750043579e-01 -1.342391622466573953e+00 -4.471811457659729538e-01 -1.005547489015424123e+00 -3.852586268171695472e-02 2.112178884787646871e-01 -5.067739646640324197e-02 -3.415674165032166476e-01 -6.320180448989189959e-01 -1.937619660316625692e-01
1.837320747210100524e-01 9.731385195741419913e-01 -4.597774262268310985e-01 7.762172001306500979e-01 3.954554141452356064e-01 3.255886826512555676e-01 -7.017489488307021572e-01 3.062280859163180602e-01 -8.571161824948052288e-02 5.100819011893641397e-01 -5.187399164567533250e-01 7.428317578647360975e-01 -3.264134915316632135e-01 -2.686593797191710875e-01 -2.924930702352068201e-01 -6.413344163346161864e-01 -2.315204136285973491e-01 -7.581425679034808907e-01 2.628324710360798733e-01 -4.310595110775881089e-01 5.685916622423056177e-01 -7.256339376350544601e-01 -5.511673542257542469e-01 2.207787849153457216e-01 1.476520486024556211e-01 8.069988447433447121e-01 3.750192164612432821e-02 -4.050971557079623975e-01 5.383068451686192635e-01 5.240729510494035459e-01 6.391077012446797490e-01 -3.662561691850386159e-01 1.095373415044367249e+00 4.603352807591856166e-01 7.005109100586188742e-01 -1.319681586942991869e+00 1.658466981356218062e-01 -8.001359711497547655e-01 -4.773870780148605775e-01 -7.571805216747229395e-01 -8.108699731579702696e-01 5.576935811224322803e-01 -1.187762617759866801e+00 4.604933239268164114e-01 1.505272568547132706e-01 -2.753486402726909033e-01 -6.079862762460704895e-01 1.317195345666034134e+00 2.072219905744391577e-01 -3.808327818972477852e-01 -1.471709703724646302e-02 -1.165614863490856967e+00 -4.020689039802589626e-01 1.072542686518753063e+00 -5.043912678652886367e-02 2.884706202313009338e-01 -7.624895935590992879e-01 -5.763190711327196292e-01 9.485521244103326532e-01 7.943502797241027702e-01 3.436528142229394733e-01 -2.691257656744384663e-01 -1.633305505821858183e-01 -2.537568311909788044e-01 -5.147615915205744352e-02 -2.719575220232109403e-02 6.229910971036190653e-02 6.146897956887927700e-02 -8.770872312662925108e-02 2.723543151662397577e-01 -9.597319713380217943e-01 7.319092933319409910e-01 6.386087616798827860e-01 3.010981514059041797e-01 -1.893775165741226896e-01 7.463695036350268541e-01 -1.083538632550440806e+00 1.028262355421818208e+00 -5.078277268173289061e-01 4.264315276383003894e-01 -5.095695058925592269e-01 1.125052537649296358e+00 3.146361655253374634e-01 4.586897191130839824e-02 -2.505751571341088280e-01 -2.208895433657844520e-01 -9.693342381404823627e-01 -1.800681374863551287e+00 -4.520248885104720116e-01 6.430279295642247206e-01 -8.191384644653094682e-01 -5.781799174492987525e-01 5.972330878096252516e-01 -8.473803373401672667e-03 8.286899935490589231e-01 -9.200535969389055380e-01 -6.210148669968801327e-01 6.701870651430562598e-01 -5.460504831706161077e-01 9.485205372417510050e-01
-8.022079896278122568e-01 -4.010127450545509786e-01 4.884825541032749435e-02 -3.916833512000895134e-01 -8.524622902014802328e-01 1.324902459753517225e-01 -4.224978839950865317e-01 8.494744564109913965e-01 -8.371549470603233400e-01 -5.384453589719192523e-01 -3.815976405636033464e-01 -1.378514417723118335e+00 -4.491614008994230384e-02 4.910648678802011502e-01 7.728182870891894263e-01 -3.277251460278690076e-01 -9.802363102803195449e-01 -4.717047353512294205e-01 -2.049265337053820524e-01 -1.838852136293187278e-01 6.843867052611616320e-01 -1.219055956162316878e+00 -6.180846257442745850e-01 -3.285595910103523143e-01 9.113261598159826393e-01 -1.668040832787571759e-01 -1.531894130212555112e-02 -8.476736318044680862e-01 1.778604241769939642e-01 -6.234487548572885673e-01 -3.883631799085609515e-01 7.735606771206211540e-01 -1.016884300745158676e+00 -3.830375446452116139e-01 -1.348973489241834800e-01 -5.792494733359216941e-01 -4.254734298722878671e-01 1.182506144692052202e-01 1.661067985401225855e-01 -4.875533339899350560e-01 -1.046903368379442867e+00 -1.137886922811986334e+00 8.738266650472503727e-01 2.802583644896981530e-01 4.392408051125473167e-01 4.358312739041216299e-01 -5.772054764457055231e-01 -4.549364805838415626e-01 9.691119277628593709e-01 7.726150350638693043e-01 -1.519719723314213178e-01 -6.427481004186745839e-01 8.849319363519599912e-01 -1.388035941454399236e+00 7.337468013709352865e-01 -6.302319815115940971e-01 -4.744654698797802217e-01 4.177803576150338483e-01 7.754801953641886625e-01 -1.503861780450066465e+00 6.517756747693853603e-01 -3.857572762707484060e-01 2.275857925683788807e-01 -1.330669222511253191e-01 -8.165399318578842047e-01 9.563736469175641020e-01 4.189534745613639477e-01 4.555468467254371601e-01 2.487101092993840024e-01 -8.907181834423515410e-01 -5.642874205831055479e-01 4.142577775904592308e-01 -4.626739151815489892e-01 -8.401273481019891909e-01 5.785620148843457766e-01 5.713309305473162070e-01 1.551589699073341877e-01 -9.577222502052733233e-02 8.141476985250249709e-02 3.179116600630719214e-01 1.422537320152107654e+00 -9.924463032294288389e-01 5.163750997372585916e-01 -1.452429840779471126e-01 -3.796277303447972429e-01 -3.524101886969334130e-01 8.890862314252792054e-01 -3.439829760344892962e-01 -9.697519597877629627e-01 1.842474449380297474e-01 8.158371027662006392e-02 7.952207687164218886e-01 2.049348363961386588e-01 -1.169842942595896718e+00 -4.695473481785480407e-01 1.696356612512898154e-01 1.616984149699330908e-01 -8.486430094678434344e-01 -4.975733364604596476e-01 -3.304652082354327808e-02
-1.068175163312953702e+00 -4.710917950925445075e-01 -1.271000997155200263e-01 -8.501338048430365224e-02 9.132704992935195554e-01 -2.245868510758979586e-01 -9.502196552943399377e-01 1.670368985311051768e-01 -1.979369170628214880e-01 -1.051139364529130704e+00 5.704265036201064953e-01 -5.626415455542294053e-01 -6.843485764661750431e-03 1.070880431786115361e+00 -1.134448816389795001e+00 1.244289444639021386e-01 1.093575266761553477e+00 1.595981894006824886e-01 -1.963440012760234721e-01 -4.912346376204404508e-01 3.884197512732029955e-01 -7.922545100156250797e-01 1.385372606421637398e+00 6.196692506485024232e-01 -8.800317740709488745e-02 5.971314994991320235e-01 5.180887278066349522e-01 -1.927231057907442535e-01 4.203547501306014594e-02 4.696903845423536228e-01 7.388890810488206728e-01 -1.399092205019126789e+00 7.536279236950969018e-01 5.294435964016419582e-01 -1.002542283530876155e+00 1.043128862657733968e+00 4.696197436388434565e-01 -7.802016783698625391e-01 5.199512267687003142e-01 2.434248001875006506e-01 -2.038380022406311998e-01 -3.616096820096096898e-01 9.051381356471326356e-01 3.637704922956966347e-01 -3.104829921372368462e-01 -5.400348464233756252e-01 -1.268288092942246870e-01 1.669346079635145308e-01 1.191544681568355246e+00 -7.076669909825943350e-01 -9.225084036226667283e-01 2.706346985593927612e-01 -8.963068628350663314e-01 -1.665392099676104243e+00 5.028166589649337714e-01 -7.041734597602405943e-01 -3.463417013573793501e-01 1.003534958892428608e-01 -2.535162683317479515e-02 4.525945385653407094e-01 6.755260941930625318e-01 7.765492151881706606e-01 -4.586433344986945992e-01 -8.424064295421199722e-01 8.268836758703771439e-01 -3.345431276042458713e-01 -6.941098047971046014e-01 -1.041999294942029364e+00 3.529929026335815179e-01 4.030395255082781514e-01 3.773303509633034181e-01 -6.822967412100433560e-01 -8.611038125728528447e-01 -4.031897431890831274e-01 -1.916908040727591134e+00 -4.904706691368266869e-01 -3.676260012445972669e-01 1.286521197792664051e+00 -3.521805355797626436e-01 1.030584568520973798e+00 -4.156923266158204511e-01 -5.438613268286974778e-01 -8.747539169508608548e-02 1.068062032395577510e-01 -5.369658118666028601e-01 -1.080821582139863818e-01 -7.268078664862127614e-01 -1.204014155978103268e-01 -4.147669467464374371e-01 8.547527549492083265e-01 5.687448355415910539e-01 6.431809059455086963e-01 -3.537725303001212906e-01 -4.111292869292225705e-01 -7.287372469847381851e-01 -1.077934577633883784e+00 -6.904866153941205953e-01 -3.848810474679090210e-01 2.768383456466862458e-01 2.543850235097323553e-01
-3.654791839939575127e-01 -9.416511591524803770e-02 4.468311474824259166e-01 -6.894651393112076754e-01 -5.550538385315254564e-01 1.049704985522734058e+00 7.593620782396929281e-01 -1.899518906110746697e+00 -8.277155747135528374e-01 1.359332783595688765e+00 -6.047923509627691763e-01 9.176803751484410299e-01 -5.211174904126251173e-01 -5.002186008031751507e-01 3.767409061563820744e-02 -4.116240888767215833e-01 -7.341554643714826023e-01 7.139596437646235083e-01 5.181992428109750692e-01 -3.555939196039892281e-01 9.136813379605018826e-01 2.032460345142349800e-01 -9.739826670281822585e-01 4.404177154038380060e-02 -4.789371126448581095e-01 -1.323690237052790319e+00 2.661202801419526032e-01 2.905945882228691546e-01 -2.817321842621223205e-01 9.843933813433435320e-01 -1.877576217540693204e-01 5.967102206651799801e-01 4.205836915285449118e-02 -7.063990945248396214e-01 2.828587202889472629e-01 3.110563115434582526e-01 -2.899951878774389979e-01 4.560676926030196587e-01 -4.886954977922779442e-01 1.511225846725647859e+00 -1.497627644857971174e-01 5.224110008728220095e-02 -8.232615047152068710e-01 8.339361385785118985e-01 5.928154650619542609e-01 3.975098172653709905e-02 -1.318097009941207320e-01 9.448908557061163060e-01 -9.748661633921984482e-01 4.669185305282458898e-01 -6.318093076088533433e-01 5.817840538693848096e-01 -6.338807188249152569e-01 1.242378440679831941e+00 -5.901275019208753747e-01 8.792170246514051657e-01 -6.635587367362389966e-01 -8.692290004366021172e-01 5.834742374488167266e-02 6.331561371067098154e-01 -8.635989954459877271e-01 -1.123756066375212859e+00 -6.873336894026845778e-01 -5.547481586986915403e-01 -1.066209352634002849e+00 -1.008801738127089731e+00 -8.463234425115127024e-01 4.770943733626960004e-01 -5.543853880881900037e-02 2.574638871660958062e-01 -4.033517122313144965e-01 -1.359455981917288669e+00 -8.372871485581283579e-01 -5.650707796012269801e-01 1.674726908723534802e+00 6.830437012368381078e-01 -2.743700589356614095e-01 7.447379571164327583e-01 3.060016412103719330e-01 1.317822838075413394e-01 -4.931977734837938443e-01 8.944962444470816454e-01 -6.794239533476814641e-01 5.810231529868844502e-01 1.710197098804821236e-01 4.520528475550424918e-01 8.158647344653637834e-01 8.595336198572567366e-01 1.620202455275271181e+00 3.662832540628190858e-01 -2.096543495572207316e-01 5.734905572795715445e-01 1.036627230940352584e+00 -9.489925923025278598e-01 1.424594392865532244e+00 1.545666256059083254e+00 -1.606297755438522989e-01 -5.955926759254689395e-01 -9.688981702331069812e-01 -7.808620669056846042e-01
