1.580061418037220777e+00 -5.651209474744348649e-01 1.579004914197952081e+00 2.789307943360487263e-01 1.727755354637868779e+00 -8.605574037010483845e-01 -9.926524974887435127e-01 -9.304463485797680455e-01 5.238081058208536589e-02 3.847979057785432672e-02 9.586353659821629236e-01 -2.839724356865985788e-01 7.266280096072490480e-01 5.191383641292486306e-01 1.283196679362863302e+00 -8.832950053962697057e-01 -9.799182642554198353e-01 8.392626457461571654e-01 1.386364588526285413e-01 -7.536326735529926824e-01 -5.122979320700160599e-01 1.428013384217547088e+00 7.553439650812784345e-01 -6.497531291157595534e-01 2.037679921522721482e+00 1.244964384621854769e+00 -1.872682928886874709e+00 -7.486717793166575152e-02 9.578974065609530131e-01 1.193407515673006458e-01 9.115102134645179655e-02 8.414691181404010401e-02
-5.895600263977744671e-02 2.820074734350344614e-01 1.997184485114432695e+00 -2.960368627066365943e-01 6.649214139166324269e-05 7.758685797440129095e-01 1.161812273487994096e+00 -7.823604797868319860e-01 5.772725801311817673e-01 -7.341320962008667239e-01 1.897184535564919727e+00 -1.136481616947164763e+00 1.010641225309521163e+00 -1.383393546712572419e+00 7.265743248108391672e-01 -3.485253470808245546e-01 -1.088758789141176742e+00 -9.121071755262920577e-01 -8.140973907338352467e-01 1.853125063090921010e-01 2.453309134395463831e-01 -5.815379780224542161e-01 2.390310174008037636e-01 -7.740114828557479454e-01 -1.378362756605470973e-01 -4.633819264264660842e-01 2.509281622505724063e-01 3.814167026697223850e-01 -2.061710554470420620e-01 8.137375003762536974e-01 -3.726138007914664985e-01 -1.668513360471257867e+00
-4.361414257600552125e-01 3.790960079087680734e-01 8.082632902342170578e-01 -3.141669854510850679e-01 4.087481024340146596e-01 8.702481495405846312e-02 3.113211049260219965e-01 6.277998991792832495e-02 -5.917465500960243929e-01 3.497147419275247748e-01 5.007844733194315168e-02 1.823632557716914626e-01 -1.447622870470298972e-01 6.430249684232367535e-01 -5.592175840401231168e-01 5.002762824984489098e-01 7.585724741883140831e-01 6.508550908648542688e-01 5.863439745628976074e-02 -1.792755665765962403e-01 3.625205206561470939e-01 3.031376961233004375e-01 2.543578948437537623e-01 -1.527848679915563002e-01 1.138566120793536252e+00 5.158661031227509408e-01 1.336441939543336455e+00 5.107363326864310382e-01 7.582966524062141334e-01 2.490766467583193366e-01 1.454585948389466865e-01 7.829423754692843573e-02
-3.247157696538230942e-01 -1.317273306815708533e+00 -7.941273256560504867e-01 9.518383518071159288e-02 7.745318398355816036e-01 1.040280483375929821e+00 -1.042728196126631035e+00 -5.831411132680928144e-01 -4.753300214697495085e-01 2.200783696436804382e-01 -4.459934899013279219e-01 -1.033584531704572429e+00 7.038659773130834241e-01 -5.291016028662788306e-01 3.529109315037358696e-01 3.855973353952792393e-01 2.340054700105840824e-01 1.293211591384894499e+00 1.257128842240070821e+00 -2.639591551097980049e-01 1.236738463538850752e+00 1.888865947300067127e-01 1.852384603010812369e-01 6.357140658395298294e-01 1.295767412082474923e+00 -3.814175611290019918e-01 5.454700177666768068e-01 5.979976220322327229e-01 -1.588428855627933289e-01 1.137571835627876560e+00 1.228727080747965772e+00 1.458246735420502427e+00
-1.076378128184046989e+00 -2.734065207423286847e-01 6.501530341807128244e-02 9.459285651967189179e-02 -2.601541427467275458e-01 -4.008590516775082935e-01 1.779039977238812353e+00 1.227099978715958217e+00 -3.846879709670429359e-01 2.152983994791168865e-01 -1.807554753200685704e+00 7.818833589571705378e-01 3.300078816160716411e-01 6.570533378415955861e-01 -1.341039864555392702e+00 4.085852839903546252e-02 -3.200794225845797480e-02 5.152227580356141257e-01 1.482290216080480505e+00 -7.739833809343209525e-01 -1.342803505080648385e+00 6.950657804975348686e-01 -7.534522378544635801e-01 7.247947551802481625e-01 -1.337686185927986271e+00 4.416699145730402787e-01 -1.774844416755368692e-01 -6.555307432591985783e-01 -1.586695293173934651e+00 1.257462887244293004e+00 7.881748693775078030e-01 -7.880790405897829531e-01
1.123867116061371574e+00 1.304641757861981777e+00 -6.357251622156004922e-01 1.312423643804886186e+00 -8.843764422036415329e-01 9.354603243152391501e-02 -3.624516720726306263e-01 -1.234327289284977980e-01 4.914593121267301079e-01 -9.645953439628588422e-01 -4.016709123577166807e-01 3.773686036355898832e-01 1.594620578652848453e+00 -1.092488047807163021e+00 -1.941957497439821934e+00 -1.067586866293481762e+00 4.528771900279644491e-01 -7.397661359093773981e-02 5.447360807524345150e-01 -8.598215066577058474e-02 3.536353490120510701e-01 -7.976254110461429292e-01 1.372811210177301566e-01 6.553439819415354251e-01 -9.104481715183349033e-01 1.098457599294747844e+00 6.363275556822143297e-01 -6.547416515071217136e-01 2.280904317411713289e-01 -2.013549333283235487e+00 2.349623519191001542e+00 1.264717878457534583e+00
-2.461811179876114419e-01 4.799113852602846508e-01 -1.559298183099968371e+00 -4.028643578146403059e-01 4.178821755600556909e-01 6.573793410094080913e-01 -1.202535063551403161e-01 -7.227918735013617590e-01 -1.278223605420081010e-01 -1.058400715191134323e+00 -1.191080383794547309e-01 2.119991789007591998e-01 -1.206950570298291225e+00 1.321334594815499752e+00 -2.089020316313336678e-01 -7.426798909481844291e-01 1.191597798058041668e+00 -7.207594041485664293e-01 -5.888429290044062681e-01 9.891442011544069324e-01 -1.196592896423575025e-01 -6.543622566919221617e-01 5.100833689332975318e-01 1.054520221667861524e+00 -6.225581438058217509e-01 -9.006718346248829832e-01 2.009585143398051055e-01 1.243036432147719833e-01 -8.891809256063507028e-02 -2.145094118928169813e+00 -3.447918224189345793e-01 3.099377572388734570e-01
-4.232251650068497018e-01 1.002582740975696690e-01 -4.193898192637371403e-01 -3.382513230933723580e-01 3.604199761825667703e-01 -1.272099800832335204e+00 3.595075668440298466e-01 8.408776326708217175e-01 6.295782007091714760e-01 8.096385636126814944e-01 -1.475654641615496088e+00 9.414656444973386051e-01 4.717647715276227643e-02 9.517794343518015676e-01 -1.182691628453042432e+00 -7.913729927898568439e-01 5.276613867975257222e-01 -9.149518584120729381e-01 3.528983957403795113e-01 7.834671024277978235e-01 -7.524854969386344239e-01 -1.436506198954476732e+00 6.987057112243981460e-02 3.819329517220370063e-01 -2.235573023790252412e-01 1.312818746564028860e+00 -7.376853194726248342e-01 2.714840097492847160e-01 7.426618200924919311e-01 -1.370081490419095438e+00 -5.987531290505783144e-01 1.244159006272003987e-01
4.024317237005109460e-01 8.233557800222355283e-01 1.025349892502509797e-01 -9.889919270945073393e-01 7.540915518099552406e-01 -1.058996556479923967e+00 -1.058081706746474504e+00 -2.221339099268588579e-01 -1.049738853641556530e-01 -5.010745107109684099e-02 -6.192672592188513958e-01 -3.212298322644976389e-01 -1.663901187121324954e+00 4.322026947800262087e-01 -4.596189190192479512e-01 -1.030579301712581497e+00 7.587307114568265787e-01 2.565627512458629189e-02 -8.454566095271495163e-01 9.027945221757930350e-01 -9.674991237296215463e-01 5.619916898441937869e-01 7.528998151940867745e-01 1.928585820231198733e+00 -8.632318359401508490e-01 -8.808825944828813093e-01 6.737747093919874697e-01 -1.046963029405124868e+00 1.263382262560037717e+00 -1.272731106788495437e+00 -1.808325369051743348e+00 -2.545385833462236042e-02
4.733764121302038719e-01 6.474154065849935247e-01 1.243946445095693853e+00 8.949294487881974403e-02 -7.831682500644424616e-01 2.783787825359314017e-01 -4.394485773163667869e-02 -8.966082762015283869e-01 5.581789320674025445e-01 -6.556556141252662950e-01 -9.698781926259737729e-02 -2.047658024718809422e+00 -4.299720255482126774e-01 -1.113761260707106349e+00 -5.363026031666976445e-01 1.030103655432775600e+00 6.852233407763290707e-01 -1.080020647670389689e-01 7.432318326245064277e-01 -7.550500617743388480e-03 4.806945598744739589e-01 9.396000514375641988e-01 5.203738678398586170e-01 -3.175581120908056998e-01 8.342848789561488898e-01 -6.804457991867824962e-01 2.684402428567325694e-01 -8.058894509594735078e-01 1.548627179314694402e+00 1.504931193391650046e+00 -3.314796913647771737e-01 -8.477386787003431401e-01
-1.473806159743418220e+00 2.510202777946312636e-01 7.516930130959469381e-01 -1.088679308232850529e+00 4.633796879259505924e-02 -9.227241129835580535e-01 6.278253228745830361e-01 -2.991704307608477609e-01 -5.363700579617136643e-01 -1.341481962004401618e+00 6.291660712238403841e-01 -5.106949361407702170e-01 4.256082692030072057e-01 1.854184267448469592e-01 -1.669306318303868109e+00 3.711072841333616923e-01 5.493425755090202145e-01 3.381566790033224690e-02 1.614425186064954998e+00 4.482001758912906864e-01 3.589307602044428669e-01 3.639519728547188637e-01 1.440960240116780255e+00 1.808791958405543188e+00 -1.780325021860956092e+00 -2.177928791957063570e+00 7.918811240209287783e-02 1.617818015520145203e-01 2.279548763187768390e-01 -8.625882520314945845e-01 -8.965554157742176011e-01 -1.112931316979707264e+00
-1.803698436690834628e+00 9.458838984508556313e-01 -7.630373799935531443e-01 1.822203454249659293e-01 1.018644759999785432e+00 -7.074102480710832141e-01 1.371744477651360095e+00 3.412725800877574045e-01 -5.492520855335374375e-01 -7.941225101696681721e-01 -1.320206698351460428e-01 1.324181545498714918e-01 -4.150705979463776840e-01 1.399568140451257436e+00 -3.444672907734095957e-01 -7.839927033075589913e-01 -1.139547343061456885e+00 1.700101991149001457e-02 -1.092934101509665634e+00 2.773137939705128674e-01 3.541109472583428008e-01 9.119966134261886515e-01 -7.643254337371352403e-01 -1.364451350136423269e+00 -1.213097346959955344e-02 -1.617193266539887209e-01 7.986263694346963649e-02 -3.294412502488945627e-02 -2.251022229607198444e+00 9.800983987560461796e-02 -1.162235204362259244e+00 -1.097578197951020851e+00
-1.033874481327237138e+00 -1.443356837711534890e+00 -1.357386549026400102e+00 -9.562557001709138804e-01 -1.084228424679809732e+00 1.575162311601454146e+00 1.616621156421732097e+00 -1.324149978532295879e+00 1.519752022016356285e+00 1.324651762719719073e-01 -6.911128760357705403e-01 -6.515676676976907000e-01 3.073233957330893662e-01 -9.463970330405868658e-01 7.676723708058367235e-01 2.048791589597029617e-01 6.291065572506135961e-01 -7.208099743305228513e-01 8.398328873374588666e-01 -6.173175945069454551e-01 1.875664972472235625e+00 -1.704771288057553624e+00 -2.755983772564107870e-01 3.553629542379609374e-01 8.523022629862258004e-01 1.021875158305818099e+00 1.535935624696526336e+00 2.329865631622317412e+00 -1.206931192200029868e+00 -2.837201473498095483e-01 6.780499947892616452e-01 1.116333805661860801e+00
1.310505152149307184e+00 1.232772312745221595e-02 -2.742208963313735315e-01 -4.157018295801631624e-01 -1.129470420537475595e-01 7.843565663017691980e-01 -7.538150787999916558e-01 9.222248843169421617e-01 1.504038847615903229e+00 3.807493460139518837e-01 2.995482510815550836e-01 6.211364477808890561e-01 -4.919751740145908991e-01 -1.960525343080905092e+00 -1.000056242132890905e+00 1.203102086233057033e+00 -5.946642982685372558e-02 3.970970268100187939e-01 8.513773531669556194e-01 -6.022818823091099505e-01 2.843846090417077033e-01 -5.322965433284188030e-01 -7.710384503968538139e-01 -4.302531144183621148e-01 -3.984715529347086505e-01 3.670945570249603551e-01 -6.493052473438098993e-01 8.213681287541477194e-02 1.498240190350494716e+00 1.235421210735524689e+00 1.043336983641595328e+00 8.824827292188415218e-01
-6.624157548168501108e-01 -6.693374128387109545e-01 -5.435800479248377171e-01 3.932497221886430139e-01 -6.833135265622680699e-01 3.101385769855508762e-02 3.300022119503956408e-01 -9.548092286200865475e-01 -1.146917889693467030e-01 3.132953101472311097e-01 -4.571061513108954366e-01 -5.331846442963151800e-01 -1.165239603545289021e-01 -2.525111529372781050e-01 -7.698261462344186956e-01 1.426820982510506597e-01 -1.488674599228414774e-01 -5.668825089735292089e-01 2.148158806259017617e-01 -4.461965855369147693e-01 -3.854557049995245843e-01 -5.358413757293137847e-01 4.254309091550088628e-01 -9.326256034108882931e-01 -6.231702452220488908e-01 -1.154220125016616749e-01 6.207777868560725859e-02 5.822306921915950673e-01 -3.051121441993480121e-01 -8.932393479195140928e-01 6.216937929356036729e-01 -1.035030407347898418e+00
4.873811225810114056e-01 6.558737391094502378e-01 -1.393209715714913033e+00 5.530989441077246438e-01 -6.011929679679219873e-01 -1.824044041019031281e+00 -1.627320182223894740e-01 1.043344887173514035e+00 4.629733076903106981e-01 1.514147894519202453e-01 1.491088437778521625e-01 3.229013302560396759e-01 -1.115667651333702715e+00 -4.563213098276480695e-01 -5.696014109824197869e-01 1.729317698038444762e-01 1.678766611918049989e+00 -9.572647458622028926e-01 -6.972423875869263599e-01 1.794442807017417429e+00 -1.164508700014639908e+00 -9.485774031313664034e-01 2.452977378821891985e-01 1.106595681579852775e+00 7.282924094271534532e-01 2.587877874693547131e-01 -1.155923441690338782e+00 -8.931930037871013139e-01 1.022414178847004390e-01 -1.852323961573815403e+00 1.511424908120838698e-02 1.316578145538982225e+00
3.671505063542646746e-02 1.271277528969337212e+00 1.627565171747917538e-01 5.072909549641266835e-01 7.492050538996357645e-01 3.447412879331305802e-01 3.422966845830503479e-01 7.576976584809377857e-02 -1.067438209848619923e+00 1.082762477840358173e+00 -6.267683884545289796e-01 -1.088334869905170477e+00 1.184038139723908811e+00 7.483286276191911668e-01 -1.379187987264715476e+00 4.342561822750569123e-01 2.109624358310582259e-01 -2.420228256943112166e-01 1.402524513160064545e+00 -7.320061133842088452e-01 1.187247272613402460e+00 8.655315120525659545e-01 -1.187946763596509303e+00 -6.235878882320223804e-01 -7.829171323621476608e-01 -9.823750147482894490e-02 1.030598186962083052e+00 1.879766686641916040e-01 -7.724445145424203574e-01 1.225029341660032856e+00 1.029056594763195775e+00 1.262386938269387526e+00
-1.019333325542102209e+00 4.771574228990511923e-02 1.351892380232758428e-01 1.775683419242004776e-02 -5.315788817316422638e-02 9.276002204037468724e-02 6.984750660309415604e-01 -1.111356341975051176e+00 -9.680335641879649344e-01 3.708115890893099453e-01 1.167126945220243073e+00 -1.190732097081350638e+00 -6.357189675224688141e-01 -3.753474820983428994e-01 1.270509880776846012e+00 3.124115188199290058e-02 -7.392895431281161223e-01 1.301380219578571973e+00 9.956262711081125261e-01 -9.917423191886322043e-01 1.015044328276488272e+00 -1.026455484661266682e-01 1.987106985098081591e-01 6.866456682600201589e-01 8.097316298686780822e-01 6.856415767327538324e-01 6.257337661851968269e-01 9.555950098464512099e-02 -3.830000831649268966e-01 3.398923483577304672e-01 -1.224435405609957533e-01 8.723575977525701575e-01
-5.927764560843834518e-01 -4.634217333787997717e-01 -1.137662066846707010e+00 4.843119281500659484e-02 1.122376467330321814e+00 3.955136107752206531e-02 4.354702753379633418e-01 -2.041558399577346972e+00 -6.492742490040747105e-01 7.675733730418300427e-01 7.413000677442661557e-01 -1.220400021225091391e+00 1.209099977472201770e+00 8.150867589426686877e-01 -1.981926796818330172e-01 -1.630059866658841505e+00 -1.722408646590758652e+00 5.105622353121133106e-01 -1.711499555021347707e-01 -5.627327122954975946e-01 -5.962624303001906600e-01 9.855191022312786986e-01 -4.149004107239551153e-02 7.939504132449184404e-01 -5.074789338288643314e-01 -1.042354117261424934e-01 9.678611844203959258e-01 4.332305560754903806e-02 -5.756438026297452382e-01 7.411118748093363795e-01 -7.014197403752113757e-01 -9.429101420242262943e-01
2.511402140147784082e-02 1.599348444676466974e+00 -7.682907381899912735e-01 2.219046411376506267e-01 -7.998167488379119561e-02 -9.642789119758579663e-02 -1.143610144400936557e+00 -3.258759484892603808e-01 3.628909959027450810e-02 -7.559471697251960443e-01 -2.930405792166732581e-01 -1.532644838686624544e-01 -7.819336352549136615e-01 6.582649723860377611e-01 2.191913201250173526e-01 -9.713910972189908621e-01 1.179690376891865622e+00 -1.372919981445127169e+00 -9.059088638994335918e-01 1.284230143942709068e+00 7.381680895556058664e-01 -1.480262562352723243e+00 1.139709163621262844e+00 1.480356490710937667e+00 -1.440658948540465945e+00 7.913376056883184573e-01 1.679674425186370168e-01 1.913665580555580004e+00 1.313653920456660185e+00 -1.395258959622663886e+00 -1.774201501797979086e+00 7.762951637281147177e-02
-6.456870715741113700e-04 -2.053781406302119042e-02 -8.284689659986389509e-01 -1.861908992321098244e-01 8.293407195748276894e-01 -5.371853311841806589e-01 -5.490684406348452784e-01 1.482919819857405397e+00 -1.458058534158299446e+00 7.714329997734316047e-01 -1.300508876330357610e+00 3.791532535767604961e-01 -2.552626283225065129e-01 4.106926601874680283e-01 -1.018058649368255075e+00 -2.409049191441264282e-01 -1.555618438456022767e+00 1.355776978576063829e+00 1.009338765371117885e+00 -9.722612871339768592e-01 2.965935244514362190e-01 1.691177852214759803e+00 1.603723545757657354e-01 -5.273573700430707056e-01 -1.207781014524525132e+00 2.137400703722164563e-01 -1.493546497126337469e+00 1.909167389864503961e-01 2.694458121000247730e-01 4.417816301968557902e-01 -6.231414903059854238e-01 -2.349626320087652709e-01
1.134647627680017923e+00 -9.325759425473896247e-01 9.061354381425493765e-01 -4.184831681822208469e-04 -3.312326609692239354e-01 -5.114384038314764847e-02 -5.395791538693036626e-01 1.431987944114839539e+00 -1.495121697803444560e-01 1.197746609517081229e+00 -1.002730550026748269e+00 4.161513115082932646e-01 -5.381306883960154108e-01 -3.808402559183561853e-01 2.169316446707081902e-01 2.799812824507917353e-01 4.101712316724500651e-01 -2.644177161769774645e-02 1.122278719006678083e+00 -1.425157067208825401e+00 -1.123667480623856463e+00 7.541294920528002210e-01 7.987855515411916574e-02 -2.952880913385156902e-01 3.906873287646461246e-01 -6.371330522599166768e-01 -1.272090566050609439e+00 -1.591410802657518442e+00 2.543085273862333739e+00 -6.207424676220785198e-01 1.105970264844082784e+00 -5.479327700673817247e-01
-1.511923491877200876e+00 -1.193179318015438639e+00 -3.315928673857762576e-01 3.335039136863381937e-01 -1.308327538188353567e-01 -1.169624763711247795e+00 5.699395304026953074e-02 1.425382585366372190e+00 -3.899475133851003361e-02 -1.244064790819890409e-02 -4.945800976598203613e-01 1.461114927213804426e+00 -1.421041934660247419e+00 4.744722245466889698e-01 8.214563220654888531e-02 1.010163299711533957e+00 4.702940306615874810e-01 -1.312923992384865401e-01 -7.891870221377897954e-01 2.239302841207838901e-01 7.102950242141166382e-02 3.942958568037313039e-01 -5.402764681416797332e-01 -6.765043775360404243e-01 1.464146295898661965e+00 -3.373426681305348174e-01 2.266658642052077066e-01 -2.059342661960780863e+00 -8.726184161149338481e-01 -7.343478462882724192e-04 5.506847056534995843e-01 -1.899221534182724547e-01
-2.507373612985465683e-01 1.070890711612019208e+00 8.208640883979686498e-01 2.849395593541267924e-01 -2.228254047616896605e-01 5.166133060836521906e-01 -1.729616599893528894e+00 2.676411363866414428e-01 -2.365238443694258064e-01 5.553808315238766280e-01 1.412898301144735802e+00 1.015814134605961039e+00 -7.175798309109260309e-01 -3.766589156715994813e-01 1.524328199814855900e+00 8.543132717866711578e-01 -7.457358688475652919e-02 -3.760820324356317634e-01 -1.531508025082136237e+00 9.377676606771429002e-01 8.579851107465504834e-01 -7.250868351137695900e-01 -1.903042254165877856e-01 -6.521201681548292051e-01 -6.315947473274079460e-01 -6.073963174862020420e-01 3.948060104534436565e-01 1.225966289997100667e+00 2.870541865470695522e-02 1.407040002726001715e+00 -1.451099313532291823e+00 3.637683087366547774e-01
5.153924142758660176e-01 -1.013513495296415767e+00 1.331839208211886838e+00 -7.271849681494678697e-01 -1.092574163027703271e+00 -8.911776557624573325e-01 1.665921398039397872e+00 5.882196332453698551e-01 1.280195197296582155e+00 -9.975181881529048278e-01 2.245867754750370537e-02 9.442388875843303608e-02 1.607430793742889719e-01 9.893549878342626780e-01 4.795321431380654142e-01 1.327924988679484997e-01 -6.111802155944434656e-01 5.467545373903344164e-01 -2.039949684566477184e-01 5.078993192205989438e-01 -1.204277588441351465e+00 1.988563531559004449e+00 6.560422053776440166e-01 -3.630986036666107863e-01 2.977019201343469867e-01 -6.055380356837587463e-01 -2.829510254754373233e-01 -1.941910487966674870e+00 -1.221970971712481369e+00 7.524686665983907341e-01 -5.177366952290836100e-01 -2.312824672987433328e+00
-2.517653471939789722e-01 -1.730850095149970569e+00 -7.587624336793762359e-01 -2.500744296313828219e-01 -3.436170690281759033e-01 -1.481928885268089635e+00 2.421642095304354925e+00 -1.147331687095325847e+00 7.478346126291202101e-01 5.498865627251824095e-02 -7.663544757479366920e-01 9.543906463588283651e-02 -9.892600949781094055e-02 1.295263477724189760e-01 2.873269455476300943e-02 -1.396705380540536501e+00 1.282081464017458039e+00 3.425286327386000557e-02 -3.378618820925136101e-02 8.742062336353170759e-02 -6.299181706342662501e-01 -1.347620315142435965e+00 8.538524045792867945e-01 1.344231228659693578e+00 1.588800102270126580e+00 1.328757096351021794e+00 -1.319756489612726957e+00 -1.381731667108950345e+00 -1.473291376684390475e+00 -2.131859393803658076e+00 -2.627884961425086541e-01 1.034876898598377171e+00
4.937445535454401679e-01 -1.910386843166367310e+00 4.965145973058353035e-01 2.939714079529702762e-01 -6.850747547821616212e-01 8.858960031947557545e-02 1.371295632232731654e+00 5.371111981326437412e-01 1.020711833571633642e+00 1.591625270001034931e+00 4.662844607159643551e-01 4.679875852708605954e-01 5.509262592254553503e-01 -1.885857371554638395e-01 3.993625515148571115e-01 -5.016604925706327212e-01 -3.579700168024619877e-01 -9.286984846147039452e-02 6.197970286036848242e-02 -9.590578243730040198e-01 -6.571356355176984909e-01 -1.081736478243711774e+00 -1.102032977013550352e-01 6.216546386642481103e-02 2.471649544318064162e+00 9.790349022831130732e-01 -8.080421100963791625e-01 8.260994658418530090e-02 8.100992057343255892e-01 -1.804504599810630161e-01 -1.133187964045189400e+00 -1.866223764406364782e-01
-3.413227387791838985e-01 6.231276121381321698e-01 -1.032732624443891689e+00 -4.496641738964770596e-01 -1.389265452406083456e+00 3.759438199599543506e-01 1.539200404857180293e-01 2.189866267328129112e-01 -1.612457214973611330e-01 -9.927477216653826098e-01 1.646043329391779553e+00 2.383419299139897390e-02 7.834537873861222024e-02 -7.330186648705850905e-01 8.464655045821116719e-01 1.799955518673545418e+00 -9.198319103607627278e-01 -1.534399515471169262e-01 2.825266533537568736e-01 1.235897194494299800e-01 5.643889541356689188e-01 -4.774326604735931179e-01 -6.430613111238938640e-01 -1.609579988195943834e+00 9.401965073548983476e-01 1.170824506004358861e-01 5.499953681623294122e-01 -2.718187249695007135e-01 -3.536262970397757721e-01 1.499765802282279348e-01 2.644678475240808679e-01 -3.568486464086783605e-01
-2.845861812746456332e-01 -2.193024396044721686e-02 9.586714550082254815e-01 7.012846061123766406e-01 -1.076761884856392903e+00 2.788817156824626164e-01 7.158974946279377249e-01 3.994076265633141887e-01 6.616389401498857792e-01 -2.873615695010975357e-01 4.233705588792943120e-01 5.142511326119924009e-01 -1.189294840766713435e+00 -1.614570151579750590e-01 7.351748668134422404e-01 8.196665155488803700e-01 6.868759830334075778e-01 -1.111478454207780020e+00 -4.866715017722988978e-01 1.330861989663490341e+00 1.568051551275431721e-01 -4.894993122758828918e-01 1.369214484376326091e+00 -3.039979539740980674e-01 5.670555306844739935e-02 -1.735446992501662677e+00 2.688926571655525163e-02 -2.657326788769750481e-01 1.233682208248166656e+00 -5.477687016048622404e-01 9.696778985471529166e-01 6.570267886181883898e-02
8.937590938714266020e-01 -2.866903479925412834e-01 2.151545288364559994e-01 -3.271192408828199616e-01 6.636736033009633662e-01 -8.978903732546775762e-01 -1.030494324253128091e-01 -9.100334759186743394e-01 -7.016462822076748873e-01 -1.436462792681748368e+00 -1.005994006707433691e-01 2.087887051811813943e-01 1.108950194552451363e+00 1.199207064978987214e+00 2.460367139344869780e-01 -1.078992562208300893e-01 8.315106222017738524e-01 -6.497380585939882547e-01 -3.107729326102240397e-01 7.410866615317917017e-01 -4.668781667983848971e-01 5.642800436017763044e-01 1.048404007395890680e+00 -5.460682987532328170e-01 -1.216879866275270228e+00 -5.970561991185264761e-01 1.931556841355577536e-01 5.714198678790377572e-01 -6.189692577832403009e-01 -5.443698995501701221e-01 6.542730406582873970e-01 -1.830304036583593474e-01
-4.755925741160735853e-01 1.091320213816826978e+00 1.084011193547800733e+00 -1.253052879882330606e+00 -6.699008500910510477e-01 1.757403112577364812e+00 1.095988171328221350e+00 -6.599821856337236836e-01 1.372125900471091065e+00 -3.490189068616051382e-01 4.112572539575991282e-02 -7.729402538168302916e-01 1.617771971713295009e+00 -1.626429326080877091e+00 -1.057343857922737662e+00 1.203732031128039059e+00 -2.967976171288304599e-01 2.587211957764143366e-01 1.626581400013616063e+00 -6.808301475264839642e-01 -3.127754458569905610e-02 9.464172843907123767e-01 6.559413251077291784e-01 -1.129635309383917541e+00 -1.206417557011093822e-01 -4.064574609288715279e-01 -2.038087483411440415e-01 1.000323110288229067e+00 4.569855303328606566e-01 1.731096801937958896e+00 5.783752026436316251e-01 -2.835389948723910924e-01
-1.668228788878034219e-01 8.984693893077503324e-01 6.927173580216138271e-01 1.694182175833562343e-01 -9.932743773518222241e-01 -9.103625514698893140e-02 1.860859044091023040e-01 1.260002745833551208e+00 -5.026447536242490965e-01 2.261678062568316661e-01 -5.783706220621490646e-01 1.214104528448558123e-01 3.325845981695340070e-01 -6.222984362682622006e-01 9.187988227759248394e-01 5.179864789826373883e-01 6.216365896802462654e-01 -1.510842796967803436e-01 -6.210522236924865824e-01 -1.615050737659138036e-01 2.540340926205336691e-02 -1.401036757118611087e-01 -7.091931683830660083e-02 4.391681926989837725e-02 2.158193053188360855e-01 -8.912798150146854503e-01 3.634301236721165229e-01 -8.784036111412235615e-01 -4.791572021686921756e-01 2.105088178790019970e-01 4.338693045102586798e-01 -6.184180363880237286e-01
