-3.305071782604433461e-01 2.222615056651270314e-03 -2.395407539651914774e+00 1.962925286999508412e+00 1.947640450523051847e-01 7.333457746452334280e-01 -9.944545199257230905e-01 -6.109429277912111766e-01 -5.704382656110449853e-03 -6.029381728339562596e-02 -2.403166339384998906e-01 1.909315960912067733e-01 -1.059941900171761597e+00 9.118375714477136573e-02 1.109674595077561721e+00 3.779119704654103629e-01 1.458021623577314907e+00 -3.395176219360085401e-01 -6.428907118098131646e-01 1.175784410521554024e+00 2.995530768242303132e+00 -2.447767793885560206e+00 -1.161766796120788703e+00 -1.107198728132407828e+00 1.808366328853360683e+00 -1.899753426475112375e-02 2.531064320336678275e+00 5.835786486161552711e-01 -1.524514513038641939e+00 -1.721087428326379287e+00 2.543027024883020903e+00 3.312067555652549178e+00
-8.120781921068705167e-02 1.813329551427116659e-01 -9.048844464822088929e-01 1.828151935412088980e-01 -1.880935391021929970e+00 -5.556952332267695027e-01 -1.130975592149760178e+00 2.485669356873902558e+00 9.651330866078839943e-01 1.320301667319843664e-01 -1.823453354059327847e+00 1.672822362134031682e+00 -2.356534706112342281e+00 8.515196253645488378e-01 -1.873030443060432537e+00 1.429844970381892288e+00 4.089055470003728487e+00 -7.114953421595046068e-01 8.277265415887974376e-01 6.295255651733594471e-01 -1.430102225225692303e+00 -1.815661587021346390e+00 1.044713426684478197e+00 2.501933266246670673e+00 2.725250531604796467e-01 -2.207980330604455421e+00 -1.635636121170618518e+00 -8.651113567683921257e-01 2.486241660968174116e+00 -1.611180542476884803e+00 9.932774162153185094e-02 1.193021369224158246e+00
-2.133598189222717156e+00 -1.941069583264404930e+00 -2.201149547935895567e-01 -2.551399199146632268e-01 -4.999801996720617536e-01 -7.332212747020545596e-01 2.793286109363382952e+00 -4.591330556068275448e-01 6.781420993043362211e-01 -5.532720450461978690e-01 5.489853079921862555e-01 4.551572307066491241e-02 6.003938351772158954e-01 2.269428162487644229e+00 7.740603585900249772e-01 -1.422091277141867449e+00 8.401671681591048602e-01 2.872569274501855507e-01 -1.056620780952226418e-01 1.615505685569423588e-01 9.756363168321946500e-01 -4.876620144045994976e-01 9.519605735876309760e-01 1.019514900004892671e-01 7.521417784475104007e-01 7.493848737073611765e-01 -3.066761617977323828e-01 -9.940036522725894663e-01 -3.483606303247070102e+00 -4.896666456387647748e-01 -9.332460614069625349e-01 -1.241531217653195185e+00
2.066950932254754125e+00 3.200255998515702860e+00 6.343271466296334093e-01 -1.472353204837798080e+00 -1.614491477414105924e+00 2.317112663711267118e+00 -5.053191367005556156e-01 -9.887570140361754412e-01 4.568390991190045963e-02 -9.511873322272931253e-01 5.867668569749043828e-01 -2.186325409296371980e+00 1.032053637484991571e+00 -2.808781254495793522e+00 -1.257053303271390421e+00 1.943299480031493998e+00 1.977714402719137787e+00 -9.195670648532832878e-03 1.760522361859719886e+00 -1.752998155504713051e-01 -8.203169987260584550e-01 -9.707947233294311751e-01 1.455603353716438786e+00 -4.531196365065356252e-02 -2.885423978063451855e+00 -1.206148988547050882e+00 -1.415270866301893971e-01 1.644039098861523662e+00 1.803187655819510793e+00 8.736056040047653903e-01 1.156520511088438674e+00 6.115257419426378682e-01
-1.190305863953898591e+00 -2.830285238629188349e+00 -2.207650137287214154e+00 -2.422501027018898467e-01 -1.287067966463772528e+00 1.462326723310818144e+00 4.074541543352064643e+00 -2.414672638116899250e+00 2.015529361340858472e+00 1.224478959510678200e+00 -9.275383367780931643e-02 6.777868086866271902e-02 9.508559178583882998e-01 -1.047873862758868402e+00 6.355312039791852774e-01 -4.368116180485465128e-01 7.526544999044690876e-01 3.639852281135332879e-01 1.257119231039028229e+00 -2.240011341231697151e-01 1.511224412458153088e+00 -2.458507112834684261e+00 6.134781088383649272e-02 6.346293255908735942e-02 1.876160612430330055e+00 2.693020288179583943e+00 2.644294983893137330e-01 3.304088379882142323e+00 -1.647842929343194429e+00 -1.041089248959299329e+00 2.311471549817846471e-01 2.141174059192927803e+00
6.912075799272738852e-01 2.157805722109889413e+00 -4.919388360857639420e-01 1.610758436603517973e-01 3.335672122153330754e+00 1.797620699118171350e+00 -2.864795144521733228e+00 -1.365194151899040031e+00 -2.016506843632170032e+00 1.742738825218147491e+00 -1.383599262696514343e-01 -1.046196325335637445e+00 1.097892271386099461e+00 -1.037419873814719784e+00 -1.636497317179909761e+00 4.625321606431671562e-01 -1.232823770373739913e+00 7.307570533182584649e-01 4.208927359969851789e-01 -3.596827805520109167e-01 -7.666509248785513542e-02 -3.810203147087374842e-01 -6.407815162090622074e-01 -5.524435034786548959e-01 -1.293023649244239071e+00 1.197192310406656635e+00 -5.954668903860818041e-01 1.878167224453714867e+00 2.668825638716963766e+00 1.117316054864992081e+00 1.320221376323282847e-01 1.564933902957475365e+00
-3.473462732283244758e+00 2.376141918067431469e+00 4.476110134838192645e-01 -1.367683386738119733e+00 6.341431534747223042e-02 1.647534897314766322e+00 8.106659923194238226e-01 -2.641211554232169578e-01 -1.565670976266803904e-01 -6.249373423537261107e-01 8.261382965436139258e-01 -9.666636878894249163e-01 -6.783402780234127905e-01 -4.179873168377795101e-01 1.773190466408908206e+00 1.126668502417486284e+00 -1.758529045322203110e+00 3.671908053786165915e-01 -9.178189463426064121e-01 -2.328844154136876732e+00 2.726732259766284638e+00 1.074132346877965771e+00 1.357591610605239363e-01 -9.880953337239826162e-01 -2.389588628097116807e+00 -1.875107594011095280e+00 2.315662414935745428e+00 9.461370877980359584e-01 -1.863003937141205935e+00 1.807858313250824800e+00 6.240365876537961043e-01 -1.609394714410067317e+00
-1.377320083659436811e+00 9.700154721160670901e-01 -2.595134495085803586e-02 -1.377579091913964993e+00 -2.466387205765064039e-01 -1.437841560389176765e+00 6.289806279520824273e-01 3.165092148681298401e+00 3.604919825245785359e-01 -8.289862540632481069e-02 -1.471194604394500560e+00 1.862772070544046255e+00 -8.863746399686476263e-01 1.275793528920874609e+00 -1.544267384836743418e+00 9.338526343270796559e-01 -1.544004661690054458e+00 1.031549964986666845e+00 1.070084730917001403e-01 -1.556163977658214792e+00 -2.715377472243776680e+00 2.279391948487120345e+00 -1.475183951575648411e+00 4.134903774014657696e-01 -1.998006669975378014e+00 4.656922305343239032e-01 -1.031996436279194462e+00 -1.686511414413376153e+00 -1.352029344754810847e+00 1.822352898749404204e+00 -6.956827870787324342e-01 -2.291745293776978887e+00
-6.556667897086384533e-01 -9.222111493126472492e-01 8.922690871141951696e-01 -4.491214212629691671e-01 -1.213647078406969448e-02 2.633224698467738545e+00 3.921902371702524204e-01 1.130056170161781726e+00 4.294474474046742762e-01 1.548069644983039117e+00 4.253927784357832143e-01 2.755612348073199214e-01 1.817068429815654473e-01 -4.391826485882345033e+00 1.331264912747357254e+00 1.660823339965627587e+00 -1.658442503144742730e+00 3.874781878869205665e-01 1.381852832955332344e+00 -1.820624994655278162e+00 1.447140961732708231e+00 4.051609721001603881e-01 -1.033109185548637621e+00 -2.111141428172614187e+00 1.073730691279157323e+00 2.180537996288983427e-01 1.197982575347815715e-01 3.342729227979861939e+00 1.126052545590029874e+00 3.116198927237964433e+00 -1.932118457864629435e-01 2.284323543486920516e-01
5.297121826512806164e-01 3.029546708800146537e-01 -2.520786581175852081e+00 1.454968718813081985e+00 8.506685150525185035e-01 -1.061798164116062759e+00 -1.769294148635503827e+00 1.493237953693445697e+00 -1.015739996842252468e+00 9.110786584955821166e-01 -2.452896641712869030e+00 6.329339009341166111e-01 1.654138731926719785e+00 2.008298611287455238e+00 -3.018353977476190053e+00 -6.539551344048677439e-01 3.434669839790669976e-01 9.077752199011400736e-01 2.167175134486438726e+00 -9.464182136816341739e-02 -4.370212875678813891e-01 3.238259131092506293e-01 -7.570208196627911112e-01 1.595336101099431803e+00 -1.894337327552727546e+00 1.470767073736928721e+00 5.883607775839156950e-01 6.879106932610485892e-01 -2.808489668149152796e-01 -5.309129099412541741e-01 2.829681699677351503e+00 1.751316524646995276e+00
-1.472429797115698991e+00 4.445287447440657846e-01 -1.425565956494470043e+00 -9.415839044223069942e-01 6.513301271728378916e-01 -1.100715607500732385e-01 1.008854435390668103e+00 -5.717742427047924902e-01 -4.437764286209737175e-01 -1.026164243606967563e+00 8.440527376965988315e-01 7.337982982084547690e-01 -2.043348021421677263e+00 1.839961046341563877e+00 2.063905189242845051e+00 -2.925937522491661169e-01 2.472423271172295323e+00 -1.817073366915679777e+00 -2.637300708397873894e+00 7.240994002865733803e-01 -1.270696095809337178e+00 -2.393847811288123850e+00 1.618292246660187894e+00 1.298234314118615895e+00 -8.202666465350014757e-01 -1.083564813504361402e+00 -4.965166076429735620e-01 -6.272230514995773554e-01 -8.124625663728016894e-03 -1.646451001132577474e+00 -3.798241822527122391e+00 -1.001643649776550772e-02
1.003882578461409381e+00 -8.594048882160293390e-02 2.186063507634365966e+00 7.101972467460553329e-01 -2.597581564328926146e-02 -7.751387365427840903e-01 -5.522850121796583078e-01 -8.813361321501748114e-01 -2.560410228049145309e-01 7.159836540289572504e-01 6.919385407650447961e-01 -2.104733163141075281e+00 4.865752326875525946e-01 -3.053538459865613452e-01 -2.290481473904281140e-01 1.245724230814809208e-01 5.920482023039024266e-01 1.025896991048737661e+00 7.347938752421473430e-01 4.729860775090323766e-01 -8.450720565933309558e-01 1.668216611469382382e+00 8.288993033498809337e-01 2.493212590787167449e-01 3.443807068071697230e+00 -1.548177851377938063e+00 -1.364481818817189884e+00 -3.686510832355966993e+00 2.384288142583531833e+00 1.041416528969659749e+00 1.049598009895097661e+00 -3.592081556680227772e-01
2.777883626910875314e-01 7.836916855439263196e-01 -2.955235374774237700e-01 8.657756811706450728e-01 -2.288672779599757234e+00 6.475685476304947619e-01 1.535214560300177000e+00 1.280949978935413514e+00 1.570552195716168775e+00 -5.336551225151586753e-01 1.841897374148325772e+00 8.177067784603772038e-01 1.958503832543023071e+00 -3.006008668983360721e+00 -1.158988359845380289e+00 1.476847640392860539e+00 3.691124073761352098e-01 -1.397349972669881035e+00 -1.811265278590560024e-01 -8.239324827748646385e-01 -3.694118262439389788e-01 -1.956012312360062566e+00 -8.481892434556501659e-01 -2.717389404131964614e+00 9.002521103805251057e-01 -4.181156979672594892e-02 -1.260183152816894969e-01 9.566853616223325307e-01 2.315981693642351069e-01 -1.769735708558383136e+00 2.889209710527740782e+00 5.470235019326700199e-01
-4.705697921190545030e-02 -9.177103638233476968e-01 2.704012778092900415e+00 -6.574742947114594616e-01 2.009449270166910662e+00 -1.975398672448967219e-01 8.529866893507442871e-01 -1.097603413558578156e+00 -1.116921694708603141e+00 9.061615274347433191e-01 9.008656695962387051e-01 -2.384204616298374102e+00 1.735588491562939151e+00 -8.739249559516780730e-01 9.408681342790738977e-01 8.270650791516183098e-01 -3.980390570233860448e+00 2.975901401409491331e+00 2.769315671606764173e+00 -2.858173355342902511e+00 -1.335177806869653483e-01 4.016139373705162718e+00 6.106012491441069612e-01 -1.787528750163392743e+00 1.362318131355934270e+00 -1.435557772400877785e-01 -1.023795139719027469e+00 -1.523752870448635610e+00 -5.124890660215226657e-01 3.080343078951581326e+00 -7.053854508600480022e-01 -1.428039015757919694e+00
-1.596669204261549069e-01 2.609200706237257972e+00 2.403242448311141699e-01 -1.222991366601515972e+00 9.429115419084634075e-02 7.964232927288990294e-02 4.306064147442169587e-01 -1.348959868316117694e+00 -8.635381754939888688e-02 -1.406540478078877277e+00 3.814500253064312396e-01 -8.592517422542079730e-01 2.510608106631118108e-01 -7.890756914615546513e-01 -5.977141719416095844e-01 -1.223634927435804265e+00 7.963498986771842814e-02 -1.407570333064752210e+00 -2.052624807827352627e-01 1.616911261339244898e+00 -8.574123178616512853e-01 -2.242740202508761715e-01 1.140978202445474432e+00 6.367801024660646458e-01 -4.943333116865685994e+00 1.069455007245745382e+00 2.132805286348518514e+00 2.535626413507601651e+00 -2.303518053605650984e-01 -1.281581169158455324e+00 -9.221690648949707469e-01 1.899501235779690878e-01
2.589824019038280856e+00 -9.395691320579848682e-01 1.006683874978227644e+00 2.023342174784989567e+00 -7.435936386959189903e-01 -1.058482575659020819e+00 -1.446536134047873290e+00 1.419432916030362257e+00 1.917339282206187656e+00 8.766159049286131877e-01 6.607374411647050083e-01 1.647310350776487908e+00 -9.731552782654003808e-01 -4.138289422583480981e-01 1.862229347333797635e+00 -6.197371679495853325e-01 -2.072908849322415703e-01 -1.131446342212096390e+00 -2.873924133306832829e+00 9.623573273310292997e-01 -2.441697499450259823e+00 -1.049635679741687255e+00 -5.673002288945681038e-01 -2.057138741547526184e+00 2.438956796065307575e+00 1.530142035435838155e+00 -1.521146520086113840e+00 -1.007717030866864150e+00 2.872934614873569714e+00 -7.194447191269579545e-01 -8.838368741913209536e-01 9.163883688598842836e-01
