-3.300518969795271929e-01 4.276693101638141294e-03 -2.393491403026117403e+00 1.964262426867360745e+00 1.955106918938514238e-01 7.305346142860871250e-01 -9.956565178973918462e-01 -6.077662188721323355e-01 -6.519928667174846974e-03 -5.995911995916109599e-02 -2.438136522098459102e-01 1.915035794858334361e-01 -1.060935078581801028e+00 8.973128365524263295e-02 1.110044925468326671e+00 3.832589822080460507e-01 1.459928863458039849e+00 -3.371101342822206415e-01 -6.426892746683637858e-01 1.175978728853747768e+00 2.994249837177792362e+00 -2.450272617294903199e+00 -1.163970720402397907e+00 -1.109280431631429309e+00 1.807471240977472915e+00 -1.969753154132941608e-02 2.525572349097416680e+00 5.830361469498831495e-01 -1.523723762292578332e+00 -1.720412998953662065e+00 2.545024441908794177e+00 3.313444367297984972e+00
-8.587014096587154699e-02 1.688006754232985740e-01 -9.105399978352931578e-01 1.814938150410005391e-01 -1.891690406608939279e+00 -5.582988341948337263e-01 -1.141052290453610230e+00 2.475143445552203669e+00 9.634274434699384715e-01 1.233101356772286356e-01 -1.831607735576892937e+00 1.660198907449347283e+00 -2.360592472412705423e+00 8.395339139419731866e-01 -1.876837606300418626e+00 1.425457571478081942e+00 4.082257301128046301e+00 -7.158600223639902671e-01 8.265856564988665056e-01 6.233532764073064225e-01 -1.441975391366755010e+00 -1.827090154394462207e+00 1.045199712864111286e+00 2.492946695293387194e+00 2.684946254585174885e-01 -2.209282208477898912e+00 -1.646098980753106789e+00 -8.648796509494950380e-01 2.480377578311029119e+00 -1.619151443504478705e+00 9.953152473097530428e-02 1.191693911185282895e+00
-2.133334590673568343e+00 -1.941664632049928230e+00 -2.197211589847056501e-01 -2.588289071745195069e-01 -5.021677817111179776e-01 -7.330946084576634991e-01 2.798586994734816091e+00 -4.614496213276411685e-01 6.800945295485529840e-01 -5.545642012331069015e-01 5.513424532177689796e-01 4.381883952011610822e-02 5.989933941218703595e-01 2.266982445327920814e+00 7.762482757621758100e-01 -1.421451665670347309e+00 8.389843788167459238e-01 2.855804505146026795e-01 -1.086067916184494386e-01 1.605603118307106780e-01 9.718727716157438135e-01 -4.867858041926665380e-01 9.515891792459243437e-01 9.862064818524886312e-02 7.497176481756714361e-01 7.477954630542900105e-01 -3.119337324548129842e-01 -9.950978996610954086e-01 -3.481325178326342584e+00 -4.901116766274550285e-01 -9.385364874557976522e-01 -1.242638623904682271e+00
2.068786442037997997e+00 3.198189850763634823e+00 6.338132106589626780e-01 -1.472830956521540724e+00 -1.615590761758091354e+00 2.318665030263834304e+00 -5.067683492423322722e-01 -9.846990695374431279e-01 4.445778547539774167e-02 -9.545849034765583330e-01 5.786200497515864294e-01 -2.187860935360189885e+00 1.029855567998843480e+00 -2.812375739741304059e+00 -1.253809615533922228e+00 1.947496613263345333e+00 1.975957399717979790e+00 -8.932579922899221841e-03 1.758392519588855896e+00 -1.808091153524999661e-01 -8.195517097539338769e-01 -9.759223594147095060e-01 1.452004550172979913e+00 -4.679644359118691893e-02 -2.880831466947691322e+00 -1.206305003933784148e+00 -1.390786598634426163e-01 1.642841665859966938e+00 1.803190599371931491e+00 8.760552338026003083e-01 1.160807682529527929e+00 6.140699335996830932e-01
-1.193629275434955561e+00 -2.832349880156120214e+00 -2.209321696457015261e+00 -2.446675895105411280e-01 -1.288217688830254115e+00 1.461169727733745205e+00 4.076290242996833513e+00 -2.415828704020456463e+00 2.017933527239343494e+00 1.225488756198364282e+00 -9.781849110614218579e-02 6.271005223369838233e-02 9.448985329726128368e-01 -1.046384095127390168e+00 6.335820405255584431e-01 -4.367628237202781927e-01 7.564170570937854832e-01 3.607232352629679561e-01 1.249547737229892874e+00 -2.212710594416031629e-01 1.512876270948172452e+00 -2.463675546803759886e+00 6.058326430286693765e-02 6.190536214178098823e-02 1.878907650986376465e+00 2.691021214692380426e+00 2.580033767214705009e-01 3.298797475578390870e+00 -1.643457770318862643e+00 -1.044847038964056951e+00 2.215123087266607227e-01 2.138069409355335182e+00
6.910243690262881655e-01 2.152351297928378759e+00 -4.948443587443109304e-01 1.614714148281774786e-01 3.330834066061822529e+00 1.800633680121154878e+00 -2.871238153363838919e+00 -1.367643583664633011e+00 -2.016988872935091326e+00 1.739160719687667056e+00 -1.405429466444718944e-01 -1.052793918377950222e+00 1.099987394797250495e+00 -1.043484357650298344e+00 -1.638175351582867867e+00 4.590427998035624402e-01 -1.236436281326636744e+00 7.273852583874668154e-01 4.201515736770736753e-01 -3.597427730743077423e-01 -8.034772560881738024e-02 -3.841083272986591801e-01 -6.429635826961951350e-01 -5.573275564455134612e-01 -1.293243226320097028e+00 1.196073749990496538e+00 -5.970338059420688959e-01 1.879140471556813408e+00 2.665370619481853165e+00 1.114741951679372178e+00 1.280542008255139141e-01 1.564119735847326442e+00
-3.469478918788259314e+00 2.368946464973560762e+00 4.519022206902025829e-01 -1.368675295225395994e+00 5.685130759940532075e-02 1.646771651044790508e+00 8.042931054372896016e-01 -2.651536027506751769e-01 -1.573410152524976069e-01 -6.290360702305541896e-01 8.214497961663062009e-01 -9.726744147698195286e-01 -6.781686989284506639e-01 -4.259017763136777601e-01 1.775617398522269408e+00 1.128935434797711412e+00 -1.763165582926830899e+00 3.696414258114532059e-01 -9.165369887748522348e-01 -2.335275096621338697e+00 2.722309019619504333e+00 1.065524143426729742e+00 1.327002701605622947e-01 -9.971982354732117360e-01 -2.393306127695051355e+00 -1.882122343310523416e+00 2.310556530401457032e+00 9.471363278070880076e-01 -1.865694009469654802e+00 1.808813328128853648e+00 6.242493737040670787e-01 -1.608031737630978730e+00
-1.378312324512212861e+00 9.669695698555661467e-01 -3.329044134641864078e-02 -1.378746338902562485e+00 -2.514457643261510111e-01 -1.436204784765232612e+00 6.205672961958413891e-01 3.159699161450779226e+00 3.559009102815517966e-01 -7.926431744149793623e-02 -1.480171599326987275e+00 1.853669393852118707e+00 -8.862317497901759378e-01 1.270114044710313417e+00 -1.548703805739985340e+00 9.287839530070615135e-01 -1.551164712524488731e+00 1.028932653178133982e+00 1.100039434439857439e-01 -1.559274687218698219e+00 -2.722285618176569333e+00 2.276004811389830351e+00 -1.482926581396003973e+00 4.076981803236471302e-01 -2.002154849136518422e+00 4.662049883891950519e-01 -1.035904776613919331e+00 -1.684836459622221616e+00 -1.359086040770309367e+00 1.813508993971113092e+00 -6.940037622283241614e-01 -2.291684069552809344e+00
-6.587658166362249101e-01 -9.246441686101841695e-01 8.883981213557409218e-01 -4.498413479598590836e-01 -1.218461151145546449e-02 2.637370788678892186e+00 3.914462613281821657e-01 1.129810430586096315e+00 4.273208904848539991e-01 1.548958830355534388e+00 4.219270317280162108e-01 2.730043925195320687e-01 1.815540912736408052e-01 -4.394353947705362806e+00 1.330952853795569713e+00 1.660436746676463349e+00 -1.658235325080855471e+00 3.849025567407401982e-01 1.379599431395835962e+00 -1.821735136232413454e+00 1.448983201034261814e+00 4.044042765108901150e-01 -1.034835716236746972e+00 -2.112810754961866877e+00 1.074620665875624548e+00 2.219937266374844564e-01 1.251043604001635112e-01 3.342668079308966700e+00 1.118039715403443823e+00 3.115950758497787021e+00 -1.937114617224224566e-01 2.337759050788530690e-01
5.282349888438273577e-01 2.924333587592730099e-01 -2.521564005441653489e+00 1.454936487909448406e+00 8.446097951634385925e-01 -1.061313420083324965e+00 -1.776129614418717750e+00 1.483953294526593192e+00 -1.016367771216917681e+00 9.079785245741872624e-01 -2.456502886724195367e+00 6.238384692021924360e-01 1.657123254074811758e+00 2.000816656155477880e+00 -3.015412465696972966e+00 -6.581649392126042164e-01 3.356825670757877522e-01 9.077264325293100677e-01 2.168544922468990777e+00 -9.822987396048832309e-02 -4.453539069952843210e-01 3.195095339821655833e-01 -7.608889303490126155e-01 1.589617431115300850e+00 -1.893733489526344238e+00 1.473520282297008599e+00 5.789002482565358543e-01 6.886036342583559122e-01 -2.826082514155531245e-01 -5.383916768934204899e-01 2.831034741700158008e+00 1.753727346446520396e+00
-1.473103214178579146e+00 4.398977255034589584e-01 -1.433093429823532050e+00 -9.438446382134331181e-01 6.425105925206875401e-01 -1.137857721226765706e-01 1.000639258537692866e+00 -5.775572818635210659e-01 -4.481223575668467074e-01 -1.028816664341902332e+00 8.349526868178643868e-01 7.277419636930995139e-01 -2.049532756450769710e+00 1.833663179203024463e+00 2.057127428300783656e+00 -2.934656681513564402e-01 2.463777662159982729e+00 -1.821869377125001410e+00 -2.639437504646373167e+00 7.170050619726954233e-01 -1.278941033825155005e+00 -2.398169720069475819e+00 1.609098592473626743e+00 1.291321116100460964e+00 -8.244220509991659895e-01 -1.085895085248684389e+00 -5.036171740682682252e-01 -6.265230302015191155e-01 -8.061702629250036209e-03 -1.647727350042571093e+00 -3.800605263406381162e+00 -1.151552002600433021e-02
1.000440594056977606e+00 -8.514699829331143222e-02 2.183203617933231033e+00 7.108359912916438761e-01 -2.662896447504230907e-02 -7.734847121894408151e-01 -5.539677157929089324e-01 -8.845852642080614947e-01 -2.574922321869794195e-01 7.167476170480521214e-01 6.946903573250501340e-01 -2.105106028204674296e+00 4.845274016943423856e-01 -3.066144179728285124e-01 -2.283143769155578096e-01 1.262133971778038599e-01 5.912946885011723941e-01 1.023184277249299834e+00 7.312547019271576909e-01 4.709779217087443071e-01 -8.463947347550152545e-01 1.668346033703497433e+00 8.277768238812087676e-01 2.474638912340027530e-01 3.443213450077504678e+00 -1.549309728482133108e+00 -1.364754829379549284e+00 -3.688116370104497665e+00 2.383743428519538021e+00 1.042506979825276625e+00 1.047368224027480865e+00 -3.608066577252372342e-01
2.719658737694118922e-01 7.737647995946771440e-01 -2.917713539867807238e-01 8.666118181747415328e-01 -2.287133918937432675e+00 6.485237494701580063e-01 1.534640938262661347e+00 1.279907533231862793e+00 1.571141138275887750e+00 -5.346932320979858044e-01 1.838944805970357921e+00 8.167832913834468522e-01 1.958574321013345276e+00 -3.007898770284239465e+00 -1.151594140843514191e+00 1.472820485794399392e+00 3.683008398950602946e-01 -1.398934328562862150e+00 -1.835560990600691722e-01 -8.224839753496898664e-01 -3.676237587948403829e-01 -1.963219414401522478e+00 -8.432010042281883333e-01 -2.722460573918554338e+00 9.055687782015476861e-01 -4.494226050266240946e-02 -1.226055909129825094e-01 9.555674681818453475e-01 2.265514468946767945e-01 -1.771548332597667752e+00 2.885546492079537284e+00 5.512060238143431379e-01
-4.439267087103594689e-02 -9.119381020577547181e-01 2.706757362666405431e+00 -6.593744335008068225e-01 2.016509609305895623e+00 -1.901727243338998674e-01 8.558232824269604855e-01 -1.090340999492391827e+00 -1.112928219608605662e+00 9.064229367668058535e-01 9.070533174832451362e-01 -2.376416081921187917e+00 1.737220799335607468e+00 -8.690901975854775641e-01 9.451926072052200256e-01 8.336893826992376466e-01 -3.977781810475194302e+00 2.978887470454195885e+00 2.769702959249773944e+00 -2.852940610962596768e+00 -1.279810687731475494e-01 4.024069511193618887e+00 6.133002542004623026e-01 -1.782792805826015403e+00 1.368653691301540798e+00 -1.436362352939646869e-01 -1.017707336684526176e+00 -1.524702363936324190e+00 -5.033464729461873954e-01 3.080737810013712163e+00 -7.012058983381187494e-01 -1.426642191087376554e+00
-1.648735366198472441e-01 2.609096493721342558e+00 2.405957085024223174e-01 -1.224216970099831769e+00 9.231812423375608534e-02 7.790822694137827797e-02 4.262967429084763005e-01 -1.353012964828785858e+00 -8.954603782576861515e-02 -1.407686659833418119e+00 3.789862138838794303e-01 -8.627618226701704307e-01 2.489954576551383081e-01 -7.898085799580694122e-01 -5.950092852088413320e-01 -1.224338050273752199e+00 7.474677033882964894e-02 -1.408682700577805758e+00 -2.065095652689145078e-01 1.617085837036246199e+00 -8.565424233449510094e-01 -2.283149044874382971e-01 1.135919611190294054e+00 6.362091883686152860e-01 -4.941947574933892362e+00 1.069262898108854332e+00 2.136465090285215140e+00 2.536665869632047876e+00 -2.321352158486791051e-01 -1.281432328606719961e+00 -9.226592279567286115e-01 1.900035868488175184e-01
2.587415881460829237e+00 -9.412421337766159191e-01 9.990890581539100257e-01 2.026758332436400689e+00 -7.462327962619738075e-01 -1.060934783757075506e+00 -1.458606015365780273e+00 1.411192001295763720e+00 1.910029571910855761e+00 8.776930108922269547e-01 6.585495361676442228e-01 1.640380850200604312e+00 -9.728376665178510851e-01 -4.165709433654670724e-01 1.856908447067848744e+00 -6.265417962509287619e-01 -2.139257390141057202e-01 -1.139931878150621136e+00 -2.874894374281387943e+00 9.578364209731018430e-01 -2.448106732934591356e+00 -1.052090674534610359e+00 -5.737306616111949031e-01 -2.065654494566821597e+00 2.427982762138210404e+00 1.530418200876755286e+00 -1.522535290035107014e+00 -1.007613609685223954e+00 2.876373161622924890e+00 -7.214941906632629243e-01 -8.791559980834882104e-01 9.167893537749012278e-01
