-1.866692407906520856e-01 -1.872812432548643269e+00 1.566225755007398801e+00 2.276620092542290141e+00 -6.202636789403871698e-02 -2.148472306389195285e+00 -4.874735405402328414e-01 1.519498243935204718e+00 -1.216286147549315057e-02 -1.513965785973742761e+00 1.312803195539554046e+00 3.943162629979219069e+00 9.916366281337062327e-01 -2.376433526146779496e+00 -1.667638408995453680e+00 -2.541033260745293454e+00
-1.435611198835053282e+00 -1.070819771174236434e+00 1.785921790844656076e+00 1.017156168899817636e+00 3.555069205590450920e-01 -3.486939037936172547e-01 1.235662953480947568e+00 4.511107575539808345e-01 -2.737994606564211342e+00 -2.937126986036726173e+00 -1.353185228852783695e+00 7.773536069366191459e-01 2.540724984021979438e+00 -1.524671261423809820e+00 -3.229855062113455300e-01 1.715135151102054722e+00
1.766150440328635662e+00 -1.538900570845914473e+00 3.900400987933904523e-02 -2.688008416574601434e+00 2.152720427711965201e-01 1.625495298233402552e-01 -6.002585006752684249e-01 -1.249853081952533307e+00 -2.342119090161272954e+00 -2.228196124355107111e-01 1.800777541063693477e+00 -1.979653193066230443e+00 2.770658317948825555e+00 3.065431984401946863e+00 1.506096651913243933e+00 -1.078201580653722846e+00
1.487278088319932134e+00 7.403307740806914783e-01 -2.919073967871582465e+00 1.417179176660836037e-01 6.058192657388538488e-02 9.323666836888178100e-01 -2.745589116001338148e+00 -5.314964790338073675e-01 2.834066846754424773e+00 1.380745453599498740e+00 1.763573741175375131e+00 1.304073753499754185e+00 -2.285082867084117453e+00 7.714812666645751715e-01 1.320148991214116441e+00 -2.604979560985113185e+00
-1.745447845911622720e+00 2.317444504692630414e+00 -1.983805255215310925e+00 2.092738502028131942e-01 8.555467476625043810e-01 1.929263493589349565e+00 2.680363493355108151e+00 7.651350684973040606e-01 -3.410448162212443846e-01 -3.227051230038336271e+00 1.627970480615153814e+00 2.221870590676546797e-01 -9.535016337835613975e-02 4.005652835854801586e-01 -4.534341305620825380e-01 -1.232099278015914789e+00
-4.249815644018963279e-01 1.841887312613256000e+00 -5.657950783976870568e-01 -2.627714016971858690e+00 8.137711174930589708e-01 -9.656720096684064947e-01 -1.139569465270752424e+00 1.032145585648778230e+00 1.294185874862726182e+00 2.189847812229410717e+00 -1.079687230531390263e+00 -1.549608525390114400e+00 -2.012641130196445971e+00 3.440800574793423938e-01 8.683235062246046354e-01 -1.967643953736009088e-01
2.621600549382414047e-01 1.230047287583770244e+00 -3.846638432127637564e-01 1.366173331379972877e+00 -5.842244321416135699e-01 -2.348368042523525823e+00 3.208366152614610556e+00 1.496155116314140221e+00 -1.625006806925070935e+00 1.354097589692968118e+00 -1.492439409169490583e+00 3.347349337737032249e-01 -3.989760812794433953e-01 -2.004078675726548298e+00 -5.688030848371912196e-01 2.178203293333491164e+00
6.913516285319464272e-01 1.429356710115688545e+00 -4.676890589872549908e-01 -2.015134154959252299e+00 3.811701830029325389e-01 -1.476945798595924231e+00 2.259761636118968742e-01 -1.456856314139736430e-01 -2.613446980132515529e-01 -3.491667221747274841e+00 -6.561479750751691986e-01 -5.225413994467476009e-01 1.196595685377310092e+00 -2.054082475601418378e-01 1.291688823034393141e-01 -1.888538482060863333e-01
-5.766414559915129107e-02 1.168407678193995602e+00 -2.992999481698197073e+00 5.126371294774776377e-01 -1.851664084803518739e-01 8.025864594259524143e-03 3.000133674320387689e-01 -4.405401989667667162e-01 3.560542440731518932e-01 -1.850683468982188495e+00 1.440504436253168041e+00 1.822248315561558307e+00 7.529020155831229744e-01 5.394441629869598520e-01 1.860972333795696931e+00 -2.389419406987601135e+00
4.514139504443498985e-01 4.004109802249678635e-02 -1.614715212521167786e-01 1.007840217616482015e+00 5.075632242736272115e-01 -1.333124084062360486e-02 -6.018192444232686178e-01 -8.840117730795556961e-01 -1.382013938847611867e-01 -1.686680167529273910e-01 -6.851797703881103985e-01 -5.567111961242662277e-01 -2.457628938147317643e-01 8.906602645128355866e-02 -5.242924545049703067e-01 -6.737927850014004960e-01
-6.575038569734600324e-01 1.497067284884217031e+00 -4.548969313087592448e-01 -1.454215471711253427e+00 -2.465268989019790968e-01 1.411784327332378686e+00 -2.125556178225441961e+00 -1.347195538373906265e+00 -2.005039946335195999e+00 2.985546702802004848e+00 2.590924527723708071e+00 -7.579851665149003326e-01 -3.351824990412014538e-01 6.955884811856019034e-01 -1.015368992604093634e+00 2.689274081101753033e+00
1.577645332456053096e+00 -2.579880553332426274e+00 -6.842554816759850445e-01 4.274493206753020025e-01 1.642486677450484267e-01 5.743780858297037328e-01 -2.022797279834004022e-02 -8.507423228559642947e-01 3.593821153968463022e+00 -1.898780027426497430e+00 -2.050162486102557580e+00 -6.093261690014913912e-01 1.911204146763883505e-01 9.556913690283975749e-01 2.472418523342294616e+00 -6.408426963594425763e-01
8.023508991785302524e-02 3.267075279777180152e-01 -1.287131896798228148e+00 -2.444091027605855615e+00 5.065042992478545614e-01 -1.386478754646089495e+00 -8.991187231303261473e-01 4.658874606839593091e-01 7.591899148778316064e-01 -9.155590003919553688e-01 7.507986669594752804e-01 -9.648344423256763891e-01 1.165662048467223322e+00 1.946925989095903198e+00 2.229487491512501141e+00 -1.824166399952414697e+00
-1.930774337129454121e+00 1.679213160327216903e+00 2.017477381203881315e+00 -4.840816617553002632e-01 1.739162963115727933e+00 4.920775957694444314e-01 8.814070299401624009e-01 2.649463028295358513e-01 1.839174901437536480e+00 -2.095701253394698593e+00 -1.481993488323457120e+00 7.505189846844149137e-01 -1.610936619416441395e+00 -3.071865567052827650e+00 -1.994246453565671873e+00 1.766355650574154890e+00
-2.153322838497563896e-01 -5.877085800454581177e-01 -2.327554334215567455e-01 -1.085810373772608944e-02 -9.314131543206357611e-01 -7.321408582638647689e-01 -1.150577305219452562e+00 -2.935153971050869504e-01 4.601567484592456458e-01 -7.640817425561968745e-01 2.934593344315462871e-02 -1.065126084978986754e+00 -2.222618151147708609e-01 -5.691621021186135110e-01 -3.136899352089103643e-01 -7.263434530054636573e-01
-1.157734940693188941e+00 -7.366057062332936889e-01 -1.102227696846270755e+00 3.148215496858044471e+00 2.228136661482737757e-01 2.985356609376554893e+00 1.275020578821151496e+00 2.538128482283167342e-01 1.439162203178482105e-02 1.196648687772772890e+00 -1.001117351051989735e+00 6.726034682622574756e-01 -3.396905385312849468e-01 -1.266401620735267963e+00 -5.994324789008979026e-01 -1.455176110832367975e+00
