-6.337297129562954323e-01 -1.543348688575205241e+00 1.371350689444460924e+00 2.254263407089608151e+00 -9.561876744617901769e-02 -2.522621493860762065e+00 -6.443628035768300677e-01 1.661958851583905883e+00 1.428536055024062223e-01 -1.096155954598966531e+00 1.066025161168204782e+00 4.387346395834822665e+00 1.114417930967345871e+00 -2.354597526575453514e+00 -2.017099639144890322e+00 -2.874996590240000760e+00
-1.576236183141266567e+00 -7.873310896545907545e-01 1.974285686347447832e+00 9.128960733359775537e-01 3.397140890873471264e-01 -4.000897195539391271e-01 1.118373381727379767e+00 5.909929992332415560e-01 -3.118594403200809051e+00 -3.092556292869347079e+00 -1.678787903679648918e+00 7.930977527753696465e-01 2.847299348775441885e+00 -1.769695314480320913e+00 -4.312141059293780887e-01 1.925645998629446076e+00
2.208886242093230035e+00 -1.548081819942545012e+00 -1.751249895259972544e-01 -2.997610025439227499e+00 6.790090070483366380e-02 2.548539359560765272e-01 -8.250228568973366761e-01 -1.404896726040280486e+00 -2.598264728135105006e+00 -3.525722770668308081e-01 1.967286150064181394e+00 -2.274384070004508818e+00 2.950321177700475861e+00 3.404607603661655713e+00 1.783443966682667803e+00 -1.445668190907104522e+00
1.928325745769902566e+00 9.500435077083881907e-01 -3.253750502822089885e+00 -4.346803395516274371e-02 2.643466381032317236e-01 9.377816891469784588e-01 -2.869573698929867245e+00 -7.092845693303458932e-01 3.030706810902404236e+00 1.377094102643884321e+00 1.871281963595294418e+00 1.240143134374233291e+00 -2.457873711866270572e+00 6.660815523965831764e-01 1.642596965023265465e+00 -2.783340289115307620e+00
-1.783296774631728976e+00 2.076515535474970253e+00 -2.022272070102749897e+00 2.926386799424960938e-01 9.060217369586893721e-01 2.067780520246501386e+00 2.799457476207478202e+00 9.899678814249106562e-01 -5.282733238566202777e-02 -3.160072517241340861e+00 1.945116479700070844e+00 -2.636912190614619789e-01 -6.943615085634967377e-02 2.528127990981335338e-01 -5.962976462893222473e-01 -1.334062402076092280e+00
-4.888019592101930932e-01 1.633148781781381897e+00 -4.584521064432066084e-01 -2.904720510378643095e+00 9.956679746382849361e-01 -8.141167251799258375e-01 -8.584269597757102632e-01 1.162659235404215341e+00 1.027292724315965966e+00 2.416203264463937295e+00 -1.164332923193365898e+00 -1.764624901847539951e+00 -2.152768336293718221e+00 8.412825554652172966e-02 1.068662332697725814e+00 -3.692044541855694639e-01
2.247448642519300488e-01 1.211061242272314598e+00 -1.128636137968397624e-01 1.090329485281519517e+00 -6.672220608505091688e-01 -2.506334797443117601e+00 3.401761153230641099e+00 1.702226927250964250e+00 -1.573030494652168709e+00 1.278228000193379232e+00 -1.787210519651231788e+00 4.147758799590664514e-01 -5.898023490118419199e-01 -2.040329067325858503e+00 -6.181588348581208425e-01 2.404455709492584692e+00
8.513754526271424261e-01 1.599446158708512034e+00 -4.668260193204905595e-01 -1.992479733562089406e+00 3.958827800962936294e-01 -1.375844076414048489e+00 1.633163061626698997e-01 -2.169422634457256471e-01 -3.627728735917262748e-01 -3.736780639783177094e+00 -6.194828942471337641e-01 -5.448323370526283460e-01 1.145718213527947338e+00 -1.826046016841791075e-01 3.109533236939153733e-01 -1.563262584959592694e-01
-2.117556498652553854e-01 1.328385433295971474e+00 -3.173343442123177205e+00 5.466145716356967110e-01 -1.303342589548892871e-01 -3.250808022974848582e-02 2.473838744335345174e-01 -3.642098771458783801e-01 4.381978471800881403e-01 -1.768229940864434635e+00 1.484755248249921777e+00 1.764942745811323821e+00 8.455890962581853465e-01 2.719697266786552103e-01 1.980122470224332965e+00 -2.514713252076139494e+00
5.448292095313164163e-01 1.897488221560023336e-01 -5.238064007548359075e-02 1.077585894980143788e+00 5.678016433111706673e-01 1.064945860911923614e-01 -5.402745429717483727e-01 -8.637651456239221481e-01 4.899716989328841560e-02 -3.192029994396462789e-02 -6.881380559609089342e-01 -6.401742151016004412e-01 -1.558495254230006788e-01 1.436218368625624409e-01 -6.429700646417434440e-01 -7.005508317449190558e-01
-6.720265044340302252e-01 1.660420042196401713e+00 -5.988180621111888202e-01 -1.596962593701126254e+00 -6.772162030235095997e-02 1.426910346463979629e+00 -2.025376931614315534e+00 -1.552101747709300206e+00 -1.952874056732206265e+00 3.033146901639155679e+00 2.720530057493125931e+00 -1.099883751146504496e+00 -3.788319832064485082e-01 8.014600222200168878e-01 -1.210340948606031475e+00 2.782372958792747486e+00
1.948400746029914199e+00 -2.908155202335565015e+00 -4.376540465883268505e-01 6.089391162819617342e-01 1.214781706567478747e-01 7.122899424442914462e-01 -1.324113197706274121e-02 -1.127309432655082322e+00 3.796234302896678070e+00 -2.043175568842102496e+00 -2.066944563396340140e+00 -4.281069012570516974e-01 4.017521817984036625e-01 1.131802050923492065e+00 2.766683896306412649e+00 -6.444451086885630842e-01
2.248205789878800764e-01 3.499993276953493604e-01 -1.419952117147649906e+00 -2.660435817948750614e+00 6.160167807022108866e-01 -1.201351825779267912e+00 -9.216773402749985911e-01 4.728082919795080774e-01 7.356805823376424414e-01 -9.283624110525562356e-01 9.266893597094166823e-01 -1.351191616761785008e+00 1.160510043302820371e+00 2.096621099058668669e+00 2.481270430370678515e+00 -2.153286434284378270e+00
-2.231781057707729499e+00 1.618517243897256597e+00 2.348763265633081243e+00 -4.090512765164848186e-01 1.967921518864644170e+00 5.879461051642290714e-01 1.114335063335319065e+00 -9.946901754812080207e-03 2.071233526726428575e+00 -2.037566000262890586e+00 -1.652820531809044979e+00 7.869028560127226957e-01 -1.718568237869979365e+00 -3.288806730846333348e+00 -2.326850883934500125e+00 1.966315370841136945e+00
-2.247424750185364750e-01 -5.981344947883185936e-01 -2.368870850481508417e-01 -1.467549613770107592e-02 -9.397105648886178164e-01 -7.366003293751259839e-01 -1.151567502265430365e+00 -3.011966392538049098e-01 4.598087101884882899e-01 -7.691607271438112292e-01 2.165972515574846047e-02 -1.066870995880166761e+00 -2.262542861280260886e-01 -5.756543242817104833e-01 -3.201163309855588057e-01 -7.352021979961128606e-01
-1.276027492744060687e+00 -8.638255618281986958e-01 -1.133610194208794164e+00 3.433272317398476048e+00 1.245267843215818321e-01 3.113795067701056407e+00 1.187724203340748241e+00 2.505787961335431135e-01 -1.467874046162405133e-01 1.141372604860291906e+00 -8.865089940600391349e-01 9.212818910230263780e-01 -1.811526034877756486e-01 -1.342688370545797039e+00 -7.945527856493295182e-01 -1.549469341930699295e+00
