-6.775624202262875428e-01 -1.498188745739610805e+00 1.359242164640392270e+00 2.259636137061603378e+00 -8.569075123334544963e-02 -2.546124266839662642e+00 -6.528009610838941823e-01 1.692328431490261798e+00 1.662412094610657975e-01 -1.034103638216737231e+00 1.035722756607435846e+00 4.454526206226124607e+00 1.142650998590881262e+00 -2.332105794549577116e+00 -2.040951507684182431e+00 -2.899689706575900860e+00
-1.601229501020298596e+00 -7.621062088668901779e-01 2.010777222140736953e+00 9.048575679101839020e-01 3.365032353578089053e-01 -3.832859170170109242e-01 1.112866793498993978e+00 6.131373156988862982e-01 -3.169874489685264862e+00 -3.106918938300598843e+00 -1.716298925799517816e+00 8.029377842549413336e-01 2.887629904317479568e+00 -1.809789593781324646e+00 -4.441654157926775426e-01 1.956280506941647346e+00
2.271144338242907512e+00 -1.555887992789329433e+00 -1.856077254484208849e-01 -3.034042263141083051e+00 5.236183469310674160e-02 2.533015877381429304e-01 -8.511193947916361191e-01 -1.422978525831573471e+00 -2.617838195607592677e+00 -3.809960712863171284e-01 1.980096740894213392e+00 -2.305242339006776664e+00 2.979655288835376226e+00 3.453913182709383634e+00 1.814092600605032635e+00 -1.493025080335753207e+00
1.994810504082688674e+00 9.661719163877767746e-01 -3.309854616158350638e+00 -6.401594412549242719e-02 2.919415134969390313e-01 9.367579484590878858e-01 -2.889472586261640163e+00 -7.330581413313846939e-01 3.047946983171403890e+00 1.384206373337491414e+00 1.889079361564342197e+00 1.240165432398083967e+00 -2.486095718812303623e+00 6.627560716642100225e-01 1.681542774185567080e+00 -2.805610732310480415e+00
-1.783686199591432819e+00 2.052489249917736291e+00 -2.030952908123940137e+00 3.007633473172476868e-01 9.067961131497407345e-01 2.079716008883159883e+00 2.813196027016223510e+00 1.014295200443457334e+00 -2.865768768651924536e-02 -3.149527354103506926e+00 1.980802530792814320e+00 -3.389731585965539140e-01 -6.166257314499639514e-02 2.289147533445631266e-01 -6.291432466553746883e-01 -1.351408355597367050e+00
-4.976199349644206404e-01 1.602022057210738204e+00 -4.411583519291476518e-01 -2.929802508543450923e+00 1.018020673710693602e+00 -7.825708473050735359e-01 -8.176494935297351496e-01 1.180619006309072683e+00 9.988108167419841310e-01 2.450414294320097941e+00 -1.169135295108204575e+00 -1.788381074401944382e+00 -2.192563418655031349e+00 4.825222806275551723e-02 1.094832050129066037e+00 -3.848603714970136869e-01
2.252501608604441652e-01 1.204628397443233023e+00 -7.816654184437468733e-02 1.067118365638504818e+00 -6.729477516002141391e-01 -2.510898509148453694e+00 3.427945643832373435e+00 1.727818195221365816e+00 -1.563409001950274435e+00 1.270832499115483571e+00 -1.822795849826740033e+00 4.219610048392042345e-01 -6.199190411619636132e-01 -2.037159588092959606e+00 -6.184837825255016241e-01 2.437885423674760688e+00
8.756406783683883255e-01 1.629647643364913190e+00 -4.660202181305733715e-01 -1.988545275252230571e+00 4.016177158581413775e-01 -1.353492241849030719e+00 1.565530078276756720e-01 -2.287009793786359824e-01 -3.673813282810731717e-01 -3.763563257985047539e+00 -6.026879854580572404e-01 -5.424106633058070059e-01 1.139173898673209839e+00 -1.726816610067963276e-01 3.406381567705975555e-01 -1.495468339718342698e-01
-2.268838338046238468e-01 1.353575572226416890e+00 -3.193686578873847104e+00 5.492475353198521537e-01 -1.188789511062827015e-01 -4.155574027055980446e-02 2.423855431056273491e-01 -3.474273566938276270e-01 4.463466709810169908e-01 -1.751705216601959991e+00 1.477826047624488215e+00 1.760818869892334382e+00 8.618587436415749981e-01 2.463794911274982680e-01 1.999157719203915384e+00 -2.524137682167353791e+00
5.544833708177007159e-01 2.158892326898151082e-01 -4.252521321118368780e-02 1.079816093235939967e+00 5.739832179096358011e-01 1.168095419301130172e-01 -5.364016230056639634e-01 -8.652644319150621932e-01 7.251207013586592753e-02 -1.425060834123768883e-02 -6.913345118408804613e-01 -6.628932509520713001e-01 -1.397955169332703307e-01 1.456366103902256015e-01 -6.648254317128131641e-01 -7.097482979860260111e-01
-6.716052031052285320e-01 1.686507767243837774e+00 -6.296015420068932222e-01 -1.607117030191049567e+00 -4.181269584941145478e-02 1.412194685235165004e+00 -2.019385511497937546e+00 -1.584860784748194140e+00 -1.956095980281431723e+00 3.035037026217907385e+00 2.728497190850139642e+00 -1.138794987661895464e+00 -3.860383975179223492e-01 8.120621266007153061e-01 -1.240853107685660595e+00 2.794646418424276746e+00
1.981346553012164780e+00 -2.947875049468444253e+00 -4.010204264462891022e-01 6.174644526854459192e-01 1.067147297377648296e-01 7.244495020092588389e-01 -1.531054704122428861e-02 -1.173249017192028676e+00 3.835388511973889525e+00 -2.070298386433646165e+00 -2.084322355362025814e+00 -4.161193052827406036e-01 4.140132400612185903e-01 1.144534022255164318e+00 2.786461246278210790e+00 -6.613266958825064767e-01
2.450603410686067463e-01 3.520952728599398007e-01 -1.426537769055730376e+00 -2.691546986683434284e+00 6.270004386825853704e-01 -1.193174686496412784e+00 -9.221602287382006935e-01 4.698575214494555286e-01 7.302884555673059275e-01 -9.457236470090459868e-01 9.482860908336693262e-01 -1.394155293478295254e+00 1.153819497649250181e+00 2.122051994436783051e+00 2.505731695343202947e+00 -2.190652397802119733e+00
-2.284319290137768910e+00 1.612924415493120378e+00 2.383714922926260193e+00 -3.924842887524869761e-01 1.997722168446429247e+00 6.072669981608813661e-01 1.148235972282424022e+00 -4.509079597543447226e-02 2.104267160786304380e+00 -2.032048458410418590e+00 -1.677169660612421120e+00 8.039097817553575442e-01 -1.724913217008196664e+00 -3.318387320765414206e+00 -2.360782489255369487e+00 1.994881950292961337e+00
-2.257981597821737962e-01 -5.995014436780329303e-01 -2.370629462572996227e-01 -1.476124182899824465e-02 -9.406395983614254108e-01 -7.370307503769630841e-01 -1.151611242565208526e+00 -3.019848439322422307e-01 4.599363472917605833e-01 -7.696462658747350583e-01 2.077094192813305762e-02 -1.066995295308090119e+00 -2.265518434293227745e-01 -5.763380349499357402e-01 -3.207551623216623460e-01 -7.362353479872743023e-01
-1.288294684240137933e+00 -8.726314077323794605e-01 -1.138214668178336719e+00 3.469198542602336843e+00 1.162792670719575983e-01 3.126752410501421053e+00 1.178766191885747272e+00 2.545555173950112549e-01 -1.714409765661540352e-01 1.150900573789141346e+00 -8.798384606937523778e-01 9.482276754667041674e-01 -1.579751391892133816e-01 -1.354175527014568781e+00 -8.202350797664598181e-01 -1.557045394605618860e+00
