-2.621345703729015320e+00 -3.257988104384250239e+00 -3.520736094307960862e+00 8.424039849807436475e-01 -8.948545881262898183e-02 4.840486330850717334e-01 2.457110240822497071e-01 -4.444654298645508983e-01 -1.393111053865367932e+00 7.432612708135651891e-01 -4.552384346873100895e+00 2.087442755608035050e+00 -3.375476637686686043e+00 2.116221646068292106e+00 -5.445529192482987391e-01 1.661500722478965519e+00
5.117645109744662690e+00 -1.568051894164144366e+00 2.320466706828734904e-01 2.951368133017663320e-01 -2.576615192388441500e+00 -3.441266450533601251e+00 -5.203506418588905724e-01 4.760584419565820624e-02 -1.115291595760019128e+00 5.849518179918132832e-01 2.493548519412776887e+00 -3.784590087752959686e+00 -1.561708269234843183e+00 -2.172550934275283119e+00 -3.263455761366091390e-01 -2.100044035382602203e+00
5.110699143633490316e-01 -1.607837843895166152e+00 -4.131999237547882009e-01 8.311428934332696361e-01 1.438220249746854806e+00 -2.510733047156606723e+00 -3.296314261953447122e+00 7.612102128688155167e-01 2.490576783541516459e+00 6.471380560007721217e-01 -4.010778614255712249e+00 1.890252789614454310e+00 1.444637037049942840e+00 -2.460559476357389919e+00 -1.002392772842812807e+00 7.041175159495471902e-01
-4.264291642820682959e+00 -2.268724709855010513e+00 -1.480972576763506687e+00 1.888803232388998943e+00 3.030738521561722187e+00 -2.076413110955434682e+00 9.890887569843523908e-01 -5.701580405532530316e-01 2.397421240130095943e-01 -9.574493106049403179e-01 1.861557426284324412e+00 -8.683128901118316589e-01 -1.052848142637994311e+00 -3.005842671386904197e+00 8.972937307891222236e-01 -2.058836351339326798e-01
-3.675346899005992540e+00 1.066617218896587227e+00 1.084788704363488065e+00 -2.545786002142986337e+00 2.348398083135550429e+00 -1.923753912330374627e+00 -1.112247561044858779e+00 3.311358399646715078e+00 -9.287677292229595816e-01 -9.291496913144395853e-01 -2.621723542733763068e+00 -7.526199140359224327e-01 1.449360524728420918e+00 1.681898224020339949e+00 -3.190298136921296268e-01 -4.403551247270736546e+00
-7.852014185596762896e-01 -2.889307876739866110e-01 -3.917824242060326867e+00 -4.303660630514872132e+00 2.469611376261048541e+00 -1.019814257919321454e+00 -8.444613748467033609e-01 -8.219276065553500210e-01 -1.491846322103924649e+00 6.830700983328124032e-01 5.254738765491578922e-01 -3.203524761998952197e+00 -2.800320276217633353e+00 3.134748380739353024e+00 -1.385505328276918913e-01 9.970395131386893262e-01
3.836253700758657459e+00 1.912359682229123337e+00 -2.792701482009600777e+00 -2.833855283834557870e+00 -2.398457290188277913e+00 -1.655570236748637569e+00 -1.605378618781789779e-01 -3.579271410097597528e-01 -9.339458464346483968e-01 -5.264560336889970715e-01 -3.196014129015208649e+00 2.694343218264580120e+00 -9.492999593892660348e-01 1.473748377139802723e-01 4.036443645118246160e-01 -1.862112460613933873e+00
-3.657209886248231179e+00 -2.796003666709448776e+00 -1.126566643800984258e+00 2.151091781055515462e+00 -2.122879310194648372e+00 1.263559358599215976e+00 -4.753289662353691547e+00 -2.014379274299905043e-01 -1.011249409980805369e+00 3.985009570688625158e-01 2.891456667012122228e+00 7.066667578560199559e-01 8.096853395838697898e-01 1.928085650403361218e+00 -2.043822457431532791e-01 -1.730017447991015311e+00
-3.427065137743035450e+00 4.874802929778451754e-01 2.323650274474795996e+00 -4.104890163315248586e+00 -8.583898333682604687e-01 -3.140773931670568953e+00 1.065891807883824205e+00 -1.055542870619948559e+00 -2.129170504825736110e+00 3.897647558419960467e-01 -4.751046779887667104e-01 1.253323492371338777e+00 -3.314981343157559213e+00 -5.191901483720030797e+00 8.863830803452610319e-01 3.328373679585699296e+00
-3.312695222970336140e+00 -3.429436086795742522e+00 -3.462533733861261620e-02 -3.134403539407054406e+00 -1.989199004304577523e+00 3.292084806210030745e+00 4.036987054388075258e+00 -1.878881766818064847e+00 -1.716617855417467364e+00 -1.700200129873536137e-01 -9.038016285289918184e-01 -2.169847053413120452e+00 1.543337482693963647e+00 -2.798112653817420359e+00 4.539953554714838413e-01 -1.874510902972218007e+00
