-3.392952447221351253e-01 -1.145724311751643715e-01 -3.615544915330273223e-01 6.174700977340163988e-01 -1.527386500605179886e+00 -2.198605948896391382e+00 -1.550598395552370556e+00 -1.639495363925021376e+00 9.209456276413520159e-01 -1.565140588565437030e+00 -3.236176257303152171e-01 -9.434580788521476080e-01 -2.232894144722848973e-01 3.322419128243195297e-01 -9.214585371498493771e-01 1.144049685530087901e+00 6.280814287132265861e-01 -1.350544762122547482e+00 -3.748921790407013233e-01 -8.837637947539066507e-01 1.162853100250354377e+00 2.203219527113866455e-02 4.194048520177051653e-01 1.611238786139569168e+00 -8.276957269449497501e-01 -9.510062200102025187e-01 -2.079111477984960099e-02 -5.393996724801128906e-01 5.623780543724773429e-01 -2.210328828996787343e-01 4.088794932280382377e-01 1.468622523269645486e+00 -1.319825332585303213e-01 1.259059162799889720e+00 -9.775137217108691434e-01 1.021978777989193787e+00 -8.839628090409722416e-01 -1.432928397512259977e+00 1.117477808144476281e+00 -3.455284555880920871e-01 -9.656487485676756855e-01 2.115086859872920555e-01 -8.089475648376537320e-01 5.377705074881385938e-01 -9.197323106872052900e-01 -4.680477494782974562e-02 -1.371033245065484074e+00 9.971118773994727125e-01 -9.583641633126895876e-01 -1.211398760202504032e+00 3.935083649719380849e-01 2.506150720820360389e-01 -9.697015506667782114e-01 3.780291768003934960e-02 -6.390721902475250404e-01 7.537613578535177217e-01 6.872194853078849031e-01 -5.460123627048546480e-01 -1.354166999023143969e+00 -7.773741685592493456e-01 6.789226794746411331e-01 1.310170554868989590e-01 8.818975173742504836e-01 -3.774666664519276127e-01 -4.815383967967851730e-01 6.428893913024352758e-01 1.082129084580621070e+00 -6.813257101927031600e-01 -1.769800218286946780e+00 -1.133076715358685371e+00 -9.153697453995583988e-01 4.530011573405577918e-01 7.914863191669533338e-01 -1.677599301039868207e+00 -1.693625860169368780e+00 -1.194139141191829179e+00 -3.855052464376911847e-01 1.160420076469570044e-01 -7.013179621513565554e-01 7.308778713258624604e-01 6.252879780834024182e-01 -9.452704238879195975e-01 4.829431940407372670e-01 1.036716586216966718e+00 -1.124228371213674915e+00 -1.537523597183304336e+00 8.362564988029541624e-01 -1.152488623559113079e-01 -2.794728754044357305e-02 1.238317588827109184e-01 -1.408798905153980874e+00 -2.331456843718317795e-01 1.113225334754404550e+00 -9.147575460973709216e-01 -8.914600055103680254e-02 -6.540563970771946511e-01 -1.733847017357972753e+00 5.816599160765865278e-02 1.116022078153016572e+00 1.136987895580982233e+00
1.278365216553800199e+00 2.340812826018012494e-01 -9.195129760724071177e-01 2.520508949934897380e+00 -3.629152460510101097e-01 1.010463194502564166e+00 1.594300870336186726e+00 5.579980112711603601e-02 6.788472734348656168e-01 -1.362627808625429982e+00 -2.285535473603589884e-01 -1.545217430671187442e+00 -6.773995859989062618e-01 8.218359266126017137e-02 3.428039279889696922e-01 -9.927388413087298025e-01 -6.313835874536838366e-01 6.909035061585716564e-02 1.046039796624254947e+00 7.501242635038215534e-01 -1.258197259212307628e+00 -9.127623557608806060e-01 -7.876773669283346768e-01 -1.223920826484403257e+00 5.792820336478022442e-02 -3.853992579194018830e-01 1.954713644637966208e-01 -2.972006213706512856e-01 -1.071015685588204702e+00 5.863925913341968554e-01 4.849680255540469442e-01 1.307665023595550591e-01 -1.497329636250707585e+00 -2.938665578741478934e-01 -1.387856476032094610e+00 -8.567635003912642544e-01 1.992414315098338662e+00 -3.774023325590089017e-01 -1.163742991035833452e+00 -1.050345735063219932e+00 -1.089526996018060252e-02 -7.018869616831876490e-01 1.681500173768936124e+00 -5.200351641512256373e-01 8.760475453704583138e-02 -7.305177500063135820e-01 -5.408428053843176153e-01 2.559707027279147229e-01 -1.186735798308165279e-02 -1.827401078336657658e+00 -9.835997553228482682e-01 -1.035155888749464959e-01 -2.075263158581485134e-01 7.564318354159907942e-01 1.835962692512583816e-01 -8.260829906411034651e-01 -1.144441751151352299e-01 -1.322008969148784407e+00 -1.315238145299733319e-01 -1.278931190447050170e-01 -9.529720379525483676e-01 -1.516513765110659273e+00 -8.595980594781745809e-01 1.286044355920790805e+00 -1.465412535182883946e-01 -1.106469651290327150e+00 -6.725747360374787487e-01 -1.482118527974552569e+00 -3.716703244489725222e-01 1.044814342304862365e+00 4.979273725701893749e-01 2.569214933913120946e-01 -8.774968854825140330e-01 9.104199627070754808e-01 4.821774259627542025e-01 8.646065441164820786e-01 1.784117165773419389e+00 8.809113533398186258e-01 -1.850319883608358973e+00 8.085312152040005085e-01 -5.084608264415769741e-01 -1.351787810094153386e+00 -9.679579360702372792e-01 -8.778939672321146581e-01 3.692536925665864112e-01 2.854777720582984402e-01 -4.623947036162349145e-01 -9.157701131188674681e-01 -4.952791951759097921e-01 -9.569267727652711608e-01 -1.102210657819679307e+00 -7.782537884881611800e-01 -1.099805658727089019e+00 -6.979492141451509868e-01 4.807129035932358185e-01 6.925352609830850437e-01 -1.745067502073908705e-01 -1.096606026670545742e+00 1.950148856351944793e-01 -3.209176732073941440e-02
2.065774292429609638e-01 4.759104454163731734e-02 1.269782152338391645e+00 -1.292281869079137113e+00 4.491815542630573921e-01 1.066599118693780435e+00 1.401568057603618023e+00 -2.006586553025166086e+00 5.555172111634281151e-01 1.190511954872821798e+00 -1.279668525409038526e+00 -3.031020863451800232e-03 -1.921035022206229792e+00 -9.937223654021727359e-01 -8.636372751391732105e-01 -2.625631552890320020e+00 -1.565494519864523593e+00 -1.865651274279893412e+00 -1.899439729543881183e+00 -9.841949522632321978e-02 -1.574759871823905311e+00 -1.746082250483621978e+00 -9.748495802043021241e-01 9.633600864079115977e-01 -6.450478984985281716e-01 1.119664606614391378e+00 8.243761485694280078e-02 3.659986628110382667e-01 6.919025103270801114e-02 -7.357852787355558810e-01 -7.171404236438145841e-01 -1.233858805676572690e+00 1.376829383764633041e+00 -7.723317346681255469e-01 -4.844294830723934742e-01 -4.341662467137190062e-01 7.935266167426427986e-01 -3.301846428004140965e-01 1.272749632428572086e+00 -4.923643028318965276e-01 -7.241585172908568957e-01 -7.261248354869752619e-01 8.214840358188116864e-01 -5.253596795575197209e-01 -6.652802314369961056e-01 -1.090263396825700504e+00 -3.036497812837510857e-01 -2.115188866394007494e+00 -9.332591490118952171e-01 -1.392157340528515697e+00 -8.207762359271207897e-01 9.378596906312471893e-01 -6.173555117414701865e-01 1.424203100595269056e-01 -4.249715960630705003e-01 9.601689452418478432e-02 -6.491355189733338804e-01 -2.339997707776828584e-01 -8.991546218671838675e-01 -3.035704570304713634e-01 -3.922970981800243950e-01 8.984669707517161097e-01 7.822502055652487130e-01 -2.552458922741415392e+00 -1.040136343115131368e+00 1.412759957630660201e+00 6.501649850004577180e-01 3.071336915779340759e-01 1.072250593794894513e+00 8.370262923703445379e-01 -3.991696332719631424e-01 2.569318708844449350e+00 -3.506687750549676297e-01 -2.033083306016606695e+00 9.799494192467851639e-02 1.071179839839293102e+00 -4.230180657191499605e-01 -5.873597334246666302e-01 1.302830664155756768e+00 -5.239414308222465344e-01 6.761469690794390530e-01 -2.629346646237293306e-01 1.081605115580148491e+00 6.910699896242995521e-01 -2.409034878098014198e-01 -1.466737516397011998e+00 -1.284020907438307546e+00 1.384900080718328430e-01 1.016620844272386304e+00 -8.241188437313959891e-01 -1.079777452525556791e+00 9.151671129777700919e-01 2.094376189284128387e-01 -7.295573662294356776e-01 1.932844312520064056e+00 6.106624701418193052e-02 -3.219245974464139959e-01 3.248732342314671340e-01 1.162254928414105104e-01 1.111708512799891441e-01
1.602736990919724491e-01 -9.528424347312610676e-01 -4.970977759302299126e-01 -8.566710653930144359e-02 1.607043141671744113e+00 -1.650730315913895074e+00 5.212046028349195392e-01 -4.641222586369760927e-01 -1.017525967734459247e+00 1.397394167583908109e+00 -2.296388389195880564e-01 -5.811597726910818773e-01 -1.325422041404807016e+00 6.818467961106362552e-01 9.442433080544467838e-01 -8.357762267335617778e-01 -2.307121890816231868e+00 -1.454496564961417437e+00 -1.147547878682591449e+00 -1.084430503434072213e+00 2.251013288642834120e-01 -2.086317709686503985e+00 4.985369785914185725e-02 -1.342280962712983250e+00 5.338037339236979539e-01 9.298405256717087175e-01 -8.401271475576177483e-01 7.753732710705929509e-01 -1.108638854463621648e+00 -2.514256032864513046e-01 -2.194304553706535599e-01 3.813293938942442507e-01 -1.027311157430006894e+00 -1.090802013529450637e-01 -1.423664161020828489e+00 -9.960939830439993203e-01 -1.009126730644464232e+00 8.809371878240259690e-01 1.112054540090746446e+00 9.202451489877785384e-01 -7.987211002699602380e-01 -7.065328183616860214e-01 -5.825629881129652521e-01 7.910974230902163562e-01 -6.389118118758180254e-01 -1.057660126730979977e+00 -1.280227084633763779e+00 -7.985106494026567026e-01 -1.546110749038942966e+00 1.015695628194939859e+00 -1.438774299980426497e+00 -1.486551932575890467e+00 3.452075764785993983e-01 -8.658124341403813373e-01 -7.231395810437877270e-01 1.704984068212374915e+00 1.730564699146534824e-01 -1.335690534572149535e-01 -3.188368805172661635e-01 1.704944466522931856e-01 1.444640605020006463e+00 -2.015712290924319416e-01 -6.233311549155542419e-01 -1.758705890959323614e+00 7.176660893732753621e-01 -1.106559791485904221e+00 1.217753657348298463e-01 -1.570635094389281505e+00 -6.841301743865320084e-01 1.760724272704043691e-01 -8.658006425752264867e-01 -2.640793637066268240e-01 8.354466106129683212e-01 1.935470598746679372e+00 -3.651066464964165537e-01 -6.029112353622197995e-01 -2.733888529863509609e-01 -9.345334622938022973e-01 -7.607842085691510214e-02 8.458981857439147323e-01 -5.411470376260646420e-01 -1.689385308861742097e+00 -4.387839596416298615e-02 -1.047745639621676217e+00 -1.805153528320111445e+00 3.913606678264038297e-01 4.712186522608686201e-01 -7.163297192350822629e-01 -6.687199466573462425e-01 1.418599979674711298e+00 5.152247699656075097e-01 -1.178715973348090751e+00 -8.620262674622375387e-01 -4.239733306636190302e-01 -2.403706122795334910e+00 -1.582863270157535418e-01 -5.410655262985013536e-01 -9.017065536431384531e-01 9.801923894159694228e-01 3.874532000100372464e-01
-2.947829252266085831e+00 1.829963875704945439e-02 -1.436244397338707346e+00 1.584259074675430146e+00 -1.766821666482372433e-02 -1.657265780016820012e+00 -7.770342803175791513e-01 -1.583174358002168658e+00 -1.277378370838606836e+00 -9.502833845727007844e-01 -1.299952558913588296e+00 -1.671666975771453068e+00 -5.257349470479899534e-01 -3.528120376580151651e-01 5.957359249707201432e-01 6.255327514212279949e-01 -1.073675812233449295e-01 7.937161344089486148e-01 7.065185958304196490e-01 5.987987452750251904e-01 1.035093218175629382e+00 1.034379135710165931e+00 8.010233907931104680e-01 1.125426201964428330e+00 9.210211509478645475e-02 -1.427690042769690582e+00 -2.399235844507046522e+00 -5.038202080233502578e-01 2.038585852536667908e-01 -1.330531356722707281e+00 -5.062984993302388492e-01 -1.238639305177233085e+00 -1.324435573522039000e+00 -1.174103493385981301e+00 -8.669891309164404758e-01 4.667804176676239591e-01 2.510404575080687484e-01 -1.505615998992660132e-01 -1.252620039857644807e+00 -1.823902935220993893e+00 5.643833988808804047e-01 8.360115528027997067e-01 1.990870507892193719e-01 9.624949583101151118e-01 2.560436258856069736e-01 -5.621109481191803869e-01 9.296387803620764778e-01 6.244715146658708083e-01 3.651770676692005224e-02 1.998912054377264547e-01 -7.931143476492066302e-01 2.391689955487613928e-01 -1.834616155230977541e-01 -5.276522143185329305e-01 -1.348402083827780762e-01 1.489227916970661536e-01 -1.097445603097841227e+00 -9.548926246742943658e-01 -1.631932077818975202e+00 1.528495723572696585e+00 -3.021771688731969552e-01 -1.502852234754828709e-01 6.277097107870052151e-01 1.780274348567175036e+00 -7.601464151822563409e-01 4.083715228602847191e-01 3.454137978696996125e-01 -6.893883883279608438e-02 1.005714927480084286e+00 1.437162992609423595e+00 -5.815227980604138480e-01 1.031935359277287079e+00 9.659004746714328071e-01 -9.227401081505024472e-01 -3.762924865417822118e-01 -6.623066689319334621e-01 1.617716322034050025e+00 -1.999598980842925977e-02 1.063287755604356843e-01 -5.886336901168728319e-01 -1.346845044671446168e+00 -3.031224466458065092e-01 8.610302278559408551e-01 4.328968107343111882e-01 -6.324824055854878502e-01 -1.339172190462347034e+00 4.196168532669020124e-01 -3.813445178048945894e-01 -6.853066176964510703e-01 -2.091739860918856664e+00 1.344299481938952434e+00 -1.019440690620179391e+00 -1.516417737899442564e-01 -2.748011301719940902e-01 -5.550143491471499768e-01 -3.708034810229899891e-01 1.364535125905322444e+00 -3.586890487001647698e-01 -1.883723577855404008e+00 -3.371889545390440168e-01
-1.268850983515379838e+00 -3.334496295939532451e-01 1.757688881421534122e+00 -2.869991689954972114e-01 -2.632689585021880330e+00 1.393190820809020014e+00 -6.267420405430184083e-01 -6.664930355630699355e-01 -5.919905428388215762e-01 -3.174208111214598116e-01 -7.034475779944233675e-01 -6.694615910189113395e-01 -1.220790582985408212e+00 5.647306620063879956e-01 -1.126708094305025609e+00 -1.318878790717116223e+00 -3.125128728692935232e-01 -2.452681792100408487e+00 -1.138417210774492205e-02 -2.651523345273202881e-01 -8.438949033061537985e-01 1.635083412319230600e+00 -2.563115030663969951e-01 -2.766083159133463809e+00 -6.057966661755422866e-01 -8.980166652103924729e-01 -6.744602911027294256e-01 6.673877130157259696e-01 -8.164006066261284555e-01 2.212203053946636411e-01 1.598293883988971986e+00 -2.807541686627242350e-01 5.596272059902398510e-01 -5.493654475405362891e-01 1.230304712655887034e+00 -8.415742784099830565e-02 3.245674705128595017e-01 1.137878347939795393e-01 -1.915255189627455834e-01 -5.817424422491206393e-01 -2.792888290697393416e-01 1.467252581655862920e-01 -8.731646615748477336e-01 -6.625962870398263149e-01 4.086559351173059129e-01 6.577319096838037948e-01 -1.060190947481531865e+00 -1.888866830516590933e-01 5.427912714400821015e-01 -1.475259056592143070e+00 5.727335751845761269e-01 -9.166152837482412219e-02 -2.362248547791551412e-01 -5.744357173906449177e-01 7.118126478296575854e-01 -1.507923502906967916e-01 3.777628736525610875e-02 4.724216874761990037e-01 -1.388628549180748406e+00 2.032313566194934307e-01 -8.959813963151950222e-01 -9.798858141911083175e-01 6.246520993446131875e-01 -3.544683073978071447e-02 7.077452536490000945e-01 -1.014393052896551906e+00 -7.098188318859457446e-01 -2.245605295762973797e-01 -1.289853755673362690e+00 -1.210607359881068046e+00 3.762190033450340393e-02 -1.533270381376941327e-01 9.998322682314615684e-02 -8.070201176562430412e-02 -1.134182113933910552e+00 6.389007771532012603e-01 3.202570156699530712e-01 -1.585928951703151180e+00 -1.000043003434753164e+00 -1.575152628387904041e+00 4.251682215962221401e-01 2.188819958798125409e+00 -2.362761322293359445e+00 -2.986046048885107052e+00 8.396342869036229617e-01 1.108267848766767205e+00 2.881651726982605299e-01 1.799290604303512398e+00 -1.403279836403199754e+00 4.113069311350950330e-01 6.450184871725660463e-01 1.221014416512531398e+00 -1.672944363422230296e+00 -2.535937805533746481e+00 -1.625306746034725913e-01 -7.905118315533815609e-01 2.166674702291504939e+00 -2.043258299572046632e-01 4.244329585973206642e-01 -1.224632238191973421e+00
2.336590189431093201e+00 2.234243400810502211e-01 -2.037969444738835512e-01 5.482628851944402193e-01 -1.143796174263516319e+00 1.433071405643588481e+00 -2.042793875649802526e+00 -8.119371221396641802e-01 -7.665585637740914837e-01 -1.678606879430868393e+00 1.484588745120737130e+00 -1.625231358470096810e+00 1.138979531837184922e+00 -1.121748336186524142e+00 -4.612036755830730139e-01 1.440451106607490983e+00 2.077040188497188689e-01 -1.388623931297288339e+00 2.519895486680843177e-01 -3.316330092218514047e-01 8.195536784371496575e-01 -1.110351499849858037e+00 -6.576440524883474525e-01 -1.252006974144208584e+00 1.359403478776044505e-01 -8.392070254420210818e-01 -1.045432110646766555e+00 6.513534606261522919e-01 -3.833906744716095855e-02 -5.791968999670957796e-01 -1.369900808092698208e+00 6.272228466042126804e-01 -1.442390811021325492e+00 -9.374333941326307151e-01 3.740560127046723693e-01 -6.128099854168149729e-01 -1.229327269089121044e+00 2.140131657037558088e-01 -1.545956938587769836e+00 1.175049437249105155e+00 -1.703160219131115483e+00 5.783690208107222785e-01 -1.102416826911652326e+00 -9.163077437342724840e-01 6.949685945910237875e-03 8.002986347578598947e-01 1.378787587344400878e+00 -1.472579184607233360e-01 1.161833557033989939e+00 -1.240202086649596858e+00 -5.008557799492233675e-01 -2.622618503367650789e-01 5.469976475150848394e-01 -9.300083898652627967e-01 4.810258907815502805e-01 -1.791993518370121885e-01 -1.576559372296556516e+00 -9.856335637492833479e-01 -1.627591557855483650e-01 -1.502543227252505442e+00 -5.191051417851775263e-01 1.284269955372129735e+00 4.670627285634223469e-01 -9.853644274882715770e-01 7.384567705372691027e-01 -1.140744396952051570e-01 5.243051069064718073e-01 3.865257627749840719e-01 -1.564387307140399086e+00 1.180359833276419801e+00 -2.460825690218046771e-02 -2.534628041959305023e+00 -8.000109581195198327e-01 -1.867079740683907474e+00 -4.751607205544802759e-01 -7.785371115691739341e-01 9.143681729024674132e-01 3.801877519017378138e-01 -1.143721439888153446e+00 -9.160700589953536810e-02 9.863136154704990610e-02 6.684788534085811529e-01 -1.262844758223086172e+00 9.486154865859116603e-01 -1.282781682169624737e+00 1.013372037965837080e+00 -4.185027677079746211e-01 -1.539441761390756724e+00 -9.603491556242107485e-01 -7.356863499768016013e-01 -1.613385011717005879e+00 -6.032508610879102617e-01 1.077528976997235377e+00 1.684912867021271798e-01 7.613681042609179439e-01 -7.842466968778648642e-03 1.533066634719294274e+00 -1.051987438838271727e+00 -8.786556562058578379e-01 -1.266050571229940525e-01
-2.249054307084694226e+00 -4.987701754918260483e-02 9.815642022820263435e-01 4.313476840527327716e-01 7.092884866385205100e-01 -7.204580336444743605e-01 -1.163594510406539717e+00 1.273503837151986229e+00 1.815189531691243363e-01 -5.304507819302194394e-01 1.018942196084480889e+00 -8.242894546376556830e-01 -2.415341105771554309e-01 5.464701731777202864e-01 -1.738581350769363432e-01 -2.352969123036735902e-02 -6.591224876502306262e-01 1.628665708113756105e+00 -2.131685586627897866e+00 -8.870995577572768909e-01 -5.226650213077798091e-01 1.918681468730339734e+00 -3.308964710745839755e-01 -4.822298254285314334e-01 4.567656741867928694e-01 2.801383440062529817e-02 -5.693433522937949576e-01 -1.151568130541533452e-01 8.218734351167805707e-01 -1.246297267523548857e+00 -1.196409329952478284e+00 6.318531117231830363e-01 4.318046850483617805e-01 -1.140018149369252054e+00 1.184783134780474700e+00 7.342221315133880266e-02 4.035777215491869185e-01 -1.306248429053584514e+00 -6.365951608957518548e-01 -1.016406377563452201e+00 -4.876431697831498102e-01 -2.029999083886705746e-01 -7.279738380132148856e-02 -1.734732759276179370e-01 -5.619974263152338612e-01 -4.757253398020170332e-01 1.719718694133339776e+00 4.684890059187619693e-01 -7.925268218221274141e-01 1.645184929408698649e+00 -1.553585804980005758e+00 -1.433396475881576260e+00 -6.944760019076814395e-01 8.705861787208767355e-01 -8.738971649859536006e-01 1.425443958853148119e-01 -3.920862284259595820e-01 -6.225592421809776900e-01 7.637553234723801765e-01 4.465068218245135667e-01 -1.211128053098727182e-02 -1.950814713497874164e+00 -5.559596102541413121e-01 -1.114227909365046454e+00 -6.433639273469123898e-01 -3.386948859154500502e-01 6.337364267230494175e-01 2.020568109882970032e-01 -7.748150696572768670e-01 7.000168127895106673e-02 4.842341979373735450e-01 -1.794464320760740694e+00 -2.148601326890912100e-01 1.590095756982889741e+00 1.958845340192329143e+00 5.954588481226249508e-01 -8.280394338597791837e-01 7.557474119639570054e-01 -1.433117806595213706e+00 -1.361535833938064766e+00 -4.338182472403600554e-01 -2.891497991666771017e-01 2.469866138871602279e-01 -1.839383676743177320e-01 -5.516935124387803979e-01 2.389039627298884527e-01 1.014297199398044080e+00 -3.797470738448951999e-01 1.053518509024845340e+00 5.657431833058946813e-01 -2.152430173143915937e+00 2.898132430073228627e-01 4.126544035135483179e-01 -4.277149749835848502e-01 2.203871999602954546e+00 1.790601318381212781e-01 -1.479232348571313471e+00 -5.102413882267607947e-01 -1.130937901001862533e+00 -4.162749380497481055e-02
-4.202687590759106584e-01 3.223064935909605300e-01 9.010820376863563075e-01 -1.954713190954623592e+00 -2.126806386290932771e+00 -1.362284699919527942e+00 -1.239671100146048976e+00 -5.493464300113931609e-01 -1.718166969926438803e+00 -1.236995348682319973e+00 -3.173475696235454890e-01 -2.115979376801151168e-01 1.194727608236231475e+00 -1.135487775253574139e+00 -9.559825724477857278e-01 -1.011093243410000619e+00 -3.913510465339325450e-01 -1.190531096765420127e+00 8.207972516553563302e-01 -1.986313472955090420e+00 2.872311370121289342e-01 -1.463800590430887061e+00 -8.967525141017805845e-01 -1.279409943778773817e+00 -4.395514723703830007e-01 -7.157379410584995272e-01 5.416509827556589274e-01 4.150152860093488938e-01 6.462394736963908981e-01 3.017366236047766548e-01 -1.285886778270318276e+00 4.364905049973065443e-02 7.064972924024571777e-01 -1.312364460817282197e+00 -9.465557765053096428e-01 -2.952000870129246057e-01 -3.064054294874285489e-01 -7.796321379094858228e-01 1.240179814405638181e+00 -1.844715234176226737e+00 5.460882869168262044e-01 -4.809907859171376199e-01 1.140106497701906196e+00 -3.410567192918619872e-01 7.380635007924633006e-01 -4.021625437546516024e-01 5.086782258672656321e-02 -1.276336272189796839e+00 1.646060580066705414e+00 -2.111380649141306964e+00 7.618230350676865603e-01 -1.390173816213896796e+00 1.006611177469537294e-01 -2.845084379201377467e-01 -2.899296947823193915e-01 -1.303571884555212890e+00 -7.333968253097458700e-02 3.566771229014058242e-02 -1.722302828110744866e+00 3.229805713538972944e-01 -1.496442278783646773e-01 -1.187730669926765348e+00 3.516743194322165533e-01 -2.961767555936401508e-01 -1.638513303028004131e-01 -5.065649318502509768e-01 -8.789888929757246894e-01 -1.754068574121139479e+00 -4.818047160871541390e-01 -1.283520180238092445e+00 -1.275745295512736854e+00 -7.912593407443551108e-01 -9.943320629645870101e-02 -2.085143621646438072e-01 -2.023895120218901056e+00 -1.694066452386593369e+00 -2.293881413432123040e+00 2.059694446276383317e-01 -1.722688223223113324e-01 -4.581299700190601953e-01 -1.162705254469838412e+00 1.187643578954198809e+00 7.762076767703603997e-01 -8.101556036178629849e-01 -1.632550854845461696e+00 -4.095467595320664289e-01 -8.174413893317473701e-01 -5.916561216263491740e-01 3.133659608011557518e-01 -1.483990580608859577e+00 -7.133124647694118192e-02 -1.795880598362380010e+00 -1.917076240196356141e+00 1.303508127189164201e+00 -1.255502009015030396e+00 4.149918439335340686e-02 2.621427946998137748e-01 -1.493363732635704988e+00 1.860830183481299693e+00 4.891191966457835161e-01
-1.212248886609872844e+00 -1.688702050850322767e+00 -1.348414805709224229e+00 -1.282691310564112674e+00 -1.915408232330473526e+00 -1.659464150798854037e-02 -7.849696167944867353e-01 5.086938931235939210e-01 -1.306543110628142879e+00 3.463923511071896888e-01 -1.336267068440430084e+00 -6.033560376257329078e-02 7.642216251088945755e-02 -2.510895003091380695e-01 4.995145394027494801e-01 -9.287016575646224181e-01 1.375435067273434564e+00 1.318615173150444519e+00 -1.035853332655136239e+00 9.964700018605537890e-01 -2.034454926758658966e-01 -2.762183548153605450e+00 5.839568789603730714e-01 1.268989492871053892e+00 2.929474204004908766e-01 -9.770012623588747447e-01 8.667215767562798101e-01 6.284069275518529007e-01 -6.734542321235053031e-01 7.716843045974037807e-01 8.584239156918876956e-01 -1.022145620621059958e+00 -6.279880264332836637e-01 1.671151142871422302e+00 -1.994597002732346969e+00 -3.839736760220988088e-01 -1.432606661513570745e-01 -1.424281641232178375e+00 6.249071355094899527e-01 -7.697905828932114503e-01 -1.543320983524361756e+00 1.587616748702832259e-01 -3.072352597576438193e-01 -1.040471201986865379e+00 3.253355044211914682e-01 -9.250675500459470957e-01 -2.452576549330712119e+00 7.661551255018995699e-01 9.583587030312269439e-01 1.340593718909010301e-01 -3.412419970295429289e-02 -8.639506330585774441e-01 4.016254742135882960e-01 9.541663801510505971e-01 4.540247857747061744e-01 1.669857448033632286e-01 1.550322485024187291e-03 -5.397557655096487522e-02 9.675439034890157552e-01 -1.285553950127028777e+00 1.912427764441287370e-01 1.372752180453512327e+00 4.606169424912045368e-02 1.030576466304256478e+00 -1.186917334776732818e-03 -1.752084642687258276e+00 7.457759040611071644e-01 -3.658671262893198328e-01 4.895091669098950438e-01 -2.141268537474041445e+00 -2.980771041005674804e-01 -2.212332895034928804e+00 -3.283275777775726545e-01 -1.508501350513331341e+00 -3.335086377654623124e+00 -1.100023495869360268e-01 -2.743737087451952328e-01 -3.305742185925102106e-02 2.224455663039880404e-01 -3.103115674655083089e-01 3.079353562664912669e-01 -6.470915536354133746e-01 -4.376798139458408232e-01 7.268101804561826196e-01 5.901037354721108130e-01 8.260045271498211994e-01 -4.483258709509157502e-01 7.338973510046126192e-02 -1.345022354457710456e+00 -8.765029553474045221e-01 5.439389052298381211e-01 -1.432802370400905856e+00 -2.355712680725418617e-01 9.762629992809369536e-03 -1.023429688035388585e+00 -8.172533055755794029e-01 -2.279849962219654969e-01 4.960994530178416406e-01 -2.067076315853179747e+00 -1.477388329570664960e-01
