-2.642458764283955208e+00 -3.281903624565097655e+00 -3.531802391019099208e+00 8.615735133573190208e-01 -9.733536699757586175e-02 4.877971978248146212e-01 2.737334957848122641e-01 -4.472254954409909944e-01 -1.397860576320947290e+00 7.341859350481206858e-01 -4.586944875549968437e+00 2.072187068108978902e+00 -3.408662292629591750e+00 2.120399693716886524e+00 -5.445680887643047363e-01 1.645395043371181032e+00
5.143453796539596112e+00 -1.599601892350320131e+00 2.068806966112593237e-01 3.013710972128689214e-01 -2.584629876450216024e+00 -3.455253585063126742e+00 -5.252071163158298361e-01 4.680756010703692599e-02 -1.120209656246649255e+00 5.789512631176813029e-01 2.515462753207763580e+00 -3.827580003606915859e+00 -1.587230526764116911e+00 -2.194585428921591586e+00 -3.263657494638184664e-01 -2.119260742246028340e+00
5.053682590935887342e-01 -1.648574471548099218e+00 -4.336347019284216286e-01 8.529097122592386171e-01 1.443819446473882495e+00 -2.537588897616988692e+00 -3.291136264346016915e+00 7.756381281851967291e-01 2.485963242718578492e+00 6.436764385138846745e-01 -4.049781962691344717e+00 1.908320625939286197e+00 1.431195291130237912e+00 -2.450963091418498330e+00 -1.002429948415130001e+00 7.418514140202817631e-01
-4.293355040487750074e+00 -2.335983719692822813e+00 -1.514485757926279152e+00 1.971601803461719538e+00 3.050964678714890965e+00 -2.122470909935619154e+00 1.024552361690528324e+00 -5.723237176171994678e-01 1.878555154892023737e-01 -9.698226306402045749e-01 1.849834288869248278e+00 -8.712468470884763283e-01 -1.083178112136953697e+00 -2.984962216760212783e+00 8.972249029349167460e-01 -2.360840050571171023e-01
-3.724644129420078276e+00 1.086327899136249719e+00 1.090479305652281683e+00 -2.563858690270900631e+00 2.387989844890166857e+00 -1.986150360545700266e+00 -1.119530143798613819e+00 3.324463907643210536e+00 -9.352534506247209833e-01 -9.278712130454570550e-01 -2.608257576881010564e+00 -7.434866400711982459e-01 1.470006260694492806e+00 1.687151939130049794e+00 -3.190773926429593677e-01 -4.411667876605945615e+00
-8.066854572553923131e-01 -3.434909951463653299e-01 -3.982697781486873811e+00 -4.364879193734537921e+00 2.488917381865663803e+00 -1.007785170588016532e+00 -8.789089716587216161e-01 -8.256443603394434394e-01 -1.504838091468125860e+00 7.173374970235996129e-01 5.481430070585863179e-01 -3.213762375135002625e+00 -2.804153106257079031e+00 3.237289274299131936e+00 -1.384725696401852280e-01 9.957732340793817860e-01
3.862965701486947179e+00 1.915628374831234826e+00 -2.804052691598255986e+00 -2.850456733401399489e+00 -2.416464235848271525e+00 -1.684185011757823203e+00 -1.632530666225320004e-01 -3.810397826068227523e-01 -9.302135012691553628e-01 -5.465604885432409077e-01 -3.236039319174677242e+00 2.715719296421019724e+00 -9.755384828384862095e-01 1.665687137802681350e-01 4.036201061853321725e-01 -1.876185638109742149e+00
-3.681147057240486742e+00 -2.802598385539789572e+00 -1.125800341623022005e+00 2.178720258955060274e+00 -2.099841103524711539e+00 1.244049365953678654e+00 -4.824742258305939835e+00 -1.802117085295856513e-01 -9.887873138270646400e-01 4.197181675217066532e-01 2.903617868528326706e+00 7.151304064892103352e-01 8.346009645952139344e-01 1.945166592829528529e+00 -2.042810182193245949e-01 -1.788326749451159436e+00
-3.468172857784101559e+00 4.886809160254992901e-01 2.298631800628115673e+00 -4.165417998629943774e+00 -8.663828659652638153e-01 -3.164666897249778899e+00 1.088097417449908288e+00 -1.069479074585109490e+00 -2.145093567532611267e+00 3.960749279782763699e-01 -4.817604801434131057e-01 1.314402069636592119e+00 -3.362095092472000335e+00 -5.245427855980216769e+00 8.863267093981064271e-01 3.342920666868800073e+00
-3.342056888644280743e+00 -3.446516817667109045e+00 -3.216559134468695985e-02 -3.168802751950371199e+00 -1.981365955641643639e+00 3.323450678514571877e+00 4.067025285985870653e+00 -1.930608308887489688e+00 -1.728815862102104584e+00 -1.756602328106750821e-01 -9.285846006703518674e-01 -2.183090601937657027e+00 1.567033734715342019e+00 -2.849412037844065715e+00 4.539440571466277219e-01 -1.904087368465272156e+00
