-3.904892229261725412e+00 1.219934810239159617e+00 -2.469470614246648044e+00 8.871881975024875633e-01 -2.511489202928767650e+00 -2.739726458035066425e+00 -3.309884197790770699e+00 7.411935194037805319e-01 1.819929579134564601e-01 -2.195870464799030142e+00 4.207660084134811074e-01 1.441901059164271137e+00 3.262061535082971364e+00 -2.741082598748542321e+00 2.011597889746200796e+00 1.489134861824017442e+00
-1.532007052213689269e+00 -4.240718527209923039e+00 -8.124467279990350566e-01 -1.923906120327515401e+00 2.753746884761331337e+00 2.436592293830460498e+00 8.087395868996470893e-01 1.041515230943109716e+00 8.869173152498489587e-01 1.868461314075711810e+00 -2.058261224384648536e+00 -3.228670339573653791e+00 -2.796129586986835225e+00 -1.768109816963496783e-01 7.491638846332862034e-01 -2.171737250432360877e+00
-3.039013678885568837e+00 3.228043836516701681e+00 -2.975950564622161121e+00 -5.548197462286413167e-02 -2.044831333031444931e+00 -1.288735752246567001e+00 -1.770759784011455951e+00 1.666154893467135967e+00 7.263668662374040963e-01 5.367619273009895942e-01 -1.416194564538426848e+00 7.966423281869123851e-01 -3.509545057462371442e+00 3.293254456914140427e+00 -3.383047398254505289e+00 -3.117150055415365717e+00
-1.099291834622025954e+00 -3.019217246173674152e+00 -3.128472848293956665e-01 7.048279259878557079e-01 -2.943627165121895928e+00 -9.679973043540007760e-01 1.807235710747748136e+00 -2.407618306708107614e+00 -2.638258741153926223e+00 -1.288009998264482370e+00 -3.752424152330715024e-01 1.814520385747965037e+00 -2.184156880773512999e+00 2.383903039200436780e+00 2.564447556298611097e+00 -2.869154718156260664e+00
4.779103294304358762e-01 -6.197895346521627991e-01 8.586708884256093466e-01 -1.499336701085980605e+00 2.972231388525319318e+00 -3.302671418118494628e+00 -3.438876247964484545e+00 -8.450210189483742251e-02 -2.943150684866642663e+00 3.240008169009980232e+00 -3.379892000220365844e+00 9.008182737365411086e-01 9.305610054216377769e-01 1.409729960215325151e-01 -1.156798558787372144e+00 -1.839870313375610023e+00
2.338881642823649631e+00 1.209961254585826262e+00 -2.780884395220744487e+00 4.612583142740141362e+00 1.800056963632270080e+00 -8.634124252439551173e-01 1.465064507152471940e+00 -2.395932717528923561e+00 1.298058082431739590e+00 -1.816070048695183736e+00 -8.199342252514690843e-01 -2.784965287815653223e+00 2.269965394242700607e-01 -2.839721976229158784e+00 8.635353842334976548e-02 -5.045449114532797985e+00
2.649120695373492040e+00 -1.066670764934966487e+00 -3.412092378134105708e+00 -9.561485988096997124e-01 -3.928167289221205394e+00 2.762763213288089048e+00 -3.899732614222006788e+00 -1.871252624815006760e+00 -2.824667458428534728e-01 2.744048163728475043e+00 -9.523456868255125718e-01 -1.151198012020629990e+00 -3.424372035191214914e-01 -2.817508197023105510e+00 -6.912044742582913459e-01 1.485328845239786588e+00
-1.516685714743158490e-02 -3.111576594860345768e+00 1.714225554796862339e+00 -2.547718412739884641e+00 -1.004474647001079690e+00 -3.426296525283060390e+00 1.052011711497324198e+00 4.927320654385297094e-01 3.134475244074587774e+00 -3.636492546511074231e+00 -1.388799343161979172e+00 -3.531465567866787780e-01 3.982828249274704024e+00 1.084555772195219925e+00 -3.598946249206700809e+00 1.399761453003736777e+00
-5.479646251682672720e-01 1.709418990054745624e+00 2.330618437006786725e-01 -2.584778760765487959e+00 -3.795867451478908361e+00 -2.127719580607811078e+00 1.529388140878197744e+00 2.563440459735967014e+00 -3.139880877275940563e+00 1.732624807652779042e+00 7.101360151718284497e-01 -1.764858514501597586e+00 -1.355807141407534555e+00 -3.410680883144843634e+00 4.280545324563718168e-01 -2.577739285723073426e+00
-1.622710340088149572e-01 -2.372090564334605467e-01 1.563058286591702206e+00 -3.619018944281089833e+00 2.347087123451505608e+00 -5.718300029437144438e-01 -2.370462318900946830e+00 -1.923556018156044489e+00 -2.308865481485365745e+00 -3.499020422184277113e+00 3.531686748048014302e+00 -6.551928419729392550e-01 -4.140895580136813692e+00 -2.015128579498962402e+00 -1.120771439735620101e+00 9.402096922444271865e-01
