-3.436814364497241536e-01 -7.683788862408111320e-02 -3.846259232052413601e-01 6.210445510186488605e-01 -1.524291967950292870e+00 -2.230783876017305989e+00 -1.573856431410099121e+00 -1.645444519532528904e+00 9.532757363901934733e-01 -1.584971601383932338e+00 -2.932390971431729776e-01 -9.554351181963233186e-01 -1.987162849207716464e-01 3.261406860711306699e-01 -9.510252231293722103e-01 1.121361853140432130e+00 6.086998374892458319e-01 -1.378983032462224312e+00 -4.152330661015651847e-01 -8.821865386710945334e-01 1.199740701411628141e+00 -3.382867910578282039e-02 4.194033449090221466e-01 1.573473836169520856e+00 -8.144528730213912437e-01 -9.429866552287314851e-01 -2.342846724763679792e-02 -5.393049361855412061e-01 5.559317897317953561e-01 -2.423624470593960245e-01 3.857507968003389687e-01 1.459093506760296588e+00 -1.411209575768832269e-01 1.267480348590539485e+00 -9.885300706761451783e-01 1.068058502055996062e+00 -8.802796334806451961e-01 -1.413143305124386906e+00 1.112724469218868251e+00 -3.897032709680565699e-01 -9.890116537953701492e-01 2.120993920557340817e-01 -7.985736039388927621e-01 5.352342400228334851e-01 -9.543301050611043834e-01 -5.649753893937208005e-02 -1.392422420502108293e+00 1.003926122834511547e+00 -9.569138918432896768e-01 -1.205704005306577065e+00 3.793632618877519902e-01 1.745595424257422590e-01 -9.770270038771491361e-01 3.780156691538358316e-02 -6.447962901007429082e-01 7.573394532100204968e-01 6.686132920524802126e-01 -5.557260355727516865e-01 -1.371007592911564821e+00 -8.003039969687942845e-01 6.811743938641905416e-01 1.197123068152814857e-01 8.818310099584983908e-01 -3.710811791516108182e-01 -4.816608367097454102e-01 6.674985847910885894e-01 1.106812725361169258e+00 -6.453603693837892674e-01 -1.768147142509941538e+00 -1.147795806474428915e+00 -9.020267390952569908e-01 5.044883050010772196e-01 7.913051957353959276e-01 -1.620796974811867130e+00 -1.672203099198704246e+00 -1.158271934593158692e+00 -3.816807370947726818e-01 1.227237157251240135e-01 -7.221516569332028235e-01 7.324151314675323432e-01 6.489678035072483642e-01 -9.678123975351508035e-01 4.800409072244689046e-01 9.736575089119082760e-01 -1.144749511608052162e+00 -1.545385359015878590e+00 8.108395268035561987e-01 -1.337749746803423567e-01 -4.082028590684524949e-02 1.428083292248894243e-01 -1.425537637314340689e+00 -2.362000388822961261e-01 1.094007660891423317e+00 -8.395139407580523017e-01 -1.081108527461458468e-01 -6.503120240457809231e-01 -1.698707755744846226e+00 5.871047796926140427e-02 1.112700492693091014e+00 1.144031936530402138e+00
1.287424040611297338e+00 2.936340304919171085e-01 -9.167106298103184781e-01 2.605619434823382097e+00 -2.924780139333753581e-01 9.724535775590127384e-01 1.592696647311084623e+00 1.710267900141076644e-02 7.584377305173375383e-01 -1.332043579915729303e+00 -2.384122933198181138e-01 -1.537029489183420861e+00 -6.510388399791020575e-01 9.959753048345387771e-02 3.623127219471202198e-01 -9.998834027305113503e-01 -6.338825840705550885e-01 7.647665426319577575e-02 1.088027940749686007e+00 7.503076341429767426e-01 -1.195424992532898134e+00 -9.273133457053716056e-01 -7.876593375364113747e-01 -1.219106678831421542e+00 3.311632708450774204e-02 -3.845017104896248927e-01 1.567123533116578926e-01 -2.968982409433183478e-01 -1.070462310567744879e+00 5.869109536704405494e-01 5.370120383413086174e-01 1.497150526148087191e-01 -1.570594323970484041e+00 -2.801697393464264718e-01 -1.401413075161065613e+00 -8.550840310780112308e-01 1.993239284946298762e+00 -3.541395635935516428e-01 -1.122777036933013672e+00 -1.044676256403992642e+00 -2.204879001345139491e-02 -7.019262012252631688e-01 1.757610406661252345e+00 -5.282249518125099463e-01 1.152942568801776368e-01 -7.224393317569590689e-01 -5.359134249707397935e-01 2.573259264984922301e-01 -7.782777432679410801e-02 -1.819222619965341181e+00 -1.012690577377192369e+00 -1.251867350479741181e-01 -1.930589549557926721e-01 7.564681648942518377e-01 1.833630053100316071e-01 -7.761772661743473467e-01 -8.248501359985024872e-02 -1.313312863902376781e+00 -1.731980941258398909e-01 -7.632818698401727664e-02 -9.567028718023474765e-01 -1.517412720674151672e+00 -8.590601287973931299e-01 1.192015053628858512e+00 -1.748297094296498433e-01 -1.100985408135519927e+00 -6.697905035564747367e-01 -1.467741949074385488e+00 -3.001299174589846519e-01 1.068425197775511704e+00 4.620312676969223209e-01 2.694595120578687220e-01 -8.775089470598315122e-01 8.690536087024030021e-01 4.874243409382424952e-01 8.909968775149356146e-01 1.790405429433402418e+00 8.321501532297256309e-01 -1.873351705465496009e+00 8.174488544262221712e-01 -4.793979004104148567e-01 -1.272256050042626763e+00 -9.754945905786485127e-01 -8.638781281163598891e-01 3.765853246220311479e-01 2.977445027727274041e-01 -4.676343749907720948e-01 -9.182320825874532577e-01 -5.569282538030715379e-01 -9.759347451385931294e-01 -1.070425314516938009e+00 -8.013231615638218841e-01 -1.049260581516013202e+00 -7.040052509951471027e-01 5.219487320511765338e-01 6.925325306374583434e-01 -2.059471659726312409e-01 -1.101028650339833215e+00 1.858692240591078848e-01 -3.794904683722503946e-02
2.238328605769495661e-01 9.499405390019988182e-02 1.273719711079868588e+00 -1.268635251015532095e+00 4.059521932109086961e-01 1.056582382891451344e+00 1.402349670000267334e+00 -1.983229297096637200e+00 5.603012946658513238e-01 1.159581582074525441e+00 -1.303997166197976565e+00 1.956760112140131652e-02 -1.937768958825726973e+00 -9.634551517560264733e-01 -8.530196655095338976e-01 -2.665296896191634346e+00 -1.503565613119495659e+00 -1.839701665875794534e+00 -1.931480562725416572e+00 -8.307337393552285953e-02 -1.529451695514942866e+00 -1.736205169195882414e+00 -9.748428330927650931e-01 1.004009108458089772e+00 -6.372366657611828744e-01 1.126752737166438534e+00 1.332973245287165931e-01 3.660472735737194117e-01 1.207123817751951655e-01 -7.200899080117381112e-01 -6.831403636869860518e-01 -1.230651933603542414e+00 1.374566544582973338e+00 -6.873601557224944258e-01 -5.150881842520276255e-01 -4.402422219516691215e-01 7.469094414822956551e-01 -2.635043493624729671e-01 1.307293852135379186e+00 -4.537558568846983831e-01 -7.506915292453504307e-01 -7.260039949592621555e-01 8.601718209669589887e-01 -5.815706238096928216e-01 -6.942813801368757920e-01 -1.094469889881396485e+00 -3.054565842391283592e-01 -2.112172344983124450e+00 -8.807693565048042572e-01 -1.388116998438754246e+00 -8.328402783543266130e-01 9.278498086857251970e-01 -5.781052684826402110e-01 1.423250838478173352e-01 -4.281407676832614251e-01 8.397905735593255705e-02 -6.103310735433830070e-01 -2.148659105457838003e-01 -8.616094855528522167e-01 -2.995747257496143567e-01 -4.063075945904736641e-01 9.096153032259599591e-01 7.823228951526154384e-01 -2.532790079688946872e+00 -1.049084331426997529e+00 1.437273796188380137e+00 6.606709477993805146e-01 3.187000755642084848e-01 1.144242381584972490e+00 8.558264170345807331e-01 -3.533357827704306509e-01 2.568759779191551296e+00 -3.506617216068545484e-01 -2.053371537490372045e+00 8.293494674283913293e-02 1.134140378969074048e+00 -4.098100979784505826e-01 -5.560858338115013400e-01 1.357747066610888398e+00 -5.812299905202146233e-01 7.390685081093112396e-01 -2.240147144312257255e-01 1.086408564120586950e+00 6.837579668284413659e-01 -1.959030215574817102e-01 -1.426688545048598211e+00 -1.313705612167488157e+00 1.485906594318449625e-01 9.830181545936045318e-01 -8.353698903335295967e-01 -1.134527830997837716e+00 9.332564186831248110e-01 1.689636499726429875e-01 -7.171639056395366918e-01 1.987363116199885482e+00 6.129835503379484768e-02 -2.414624224172551570e-01 3.618120513217901735e-01 5.811881880413431040e-02 1.097874235144382232e-01
1.608627433629977177e-01 -9.214569152785737627e-01 -3.942453160554504343e-01 -1.005621646731176544e-01 1.614338712208057025e+00 -1.713865042241987879e+00 5.200615752457349306e-01 -4.406729186710099389e-01 -1.013306078464848659e+00 1.341363074409322342e+00 -2.494033173398545189e-01 -5.584363631860711497e-01 -1.346294186168071283e+00 7.040953470082406129e-01 9.669462962838389908e-01 -8.298606989643265708e-01 -2.325138022463107301e+00 -1.507131852008295692e+00 -1.235329205651038320e+00 -1.095740203008833014e+00 1.571616903013561273e-01 -2.045610535228697291e+00 4.983065949539117884e-02 -1.334248360011494272e+00 6.085351192119369257e-01 9.305074668385210357e-01 -9.281529622114165212e-01 7.751562593448758642e-01 -1.127119205184487383e+00 -2.601960044601939193e-01 -2.259964933330168013e-01 4.050390930188143002e-01 -1.016973795115498902e+00 -9.219543422183937298e-02 -1.426605144967472372e+00 -9.953281769235204912e-01 -1.064104988820237185e+00 9.274063878413429940e-01 1.142970807693419966e+00 9.137604243903624246e-01 -7.805300637519485552e-01 -7.065352148886350214e-01 -6.444722734659297236e-01 8.210122173044230864e-01 -6.466177201740769265e-01 -1.083339431445188961e+00 -1.314238989754170417e+00 -8.218911152124607211e-01 -1.463944960856769173e+00 1.005644558878098893e+00 -1.452863207938793977e+00 -1.477443972438743591e+00 3.067415047807201534e-01 -8.657916069198969833e-01 -7.221702300746525305e-01 1.721519303606946938e+00 1.552315590777446075e-01 -1.136859459287966195e-01 -3.230579861791103014e-01 1.608417043796737667e-01 1.435369946141301423e+00 -1.754694111007523427e-01 -6.232307323191210724e-01 -1.789746449627801272e+00 7.130043860168239211e-01 -1.138808812691875838e+00 1.246387071531881857e-01 -1.537979684323333318e+00 -7.176150037960560280e-01 1.644194748905506431e-01 -8.403685206605652214e-01 -2.744593969974684633e-01 8.354476460180930708e-01 1.950528219496582061e+00 -3.052867976638687364e-01 -5.919883310970841528e-01 -2.514971585838104984e-01 -9.867996442910388355e-01 -4.668299213361784550e-02 8.431322564444792000e-01 -5.551483129857427423e-01 -1.603961813729116725e+00 -4.134612772289870258e-02 -1.039992768730291006e+00 -1.827356908811004876e+00 3.412184430244099564e-01 4.867553637348929763e-01 -6.995718832043702484e-01 -6.279234767578761867e-01 1.433892884411469559e+00 5.420883794085222807e-01 -1.172055208851295438e+00 -8.472043535480726639e-01 -4.586276972382478667e-01 -2.349432130712962863e+00 -1.582201030056182289e-01 -5.003904554629710066e-01 -9.080814883973510332e-01 1.035773061399295480e+00 3.703406156679417416e-01
-2.938195534971560718e+00 3.068020866913063333e-02 -1.455288426948470049e+00 1.575129707092625120e+00 -5.598677264137651849e-02 -1.641642946073173182e+00 -7.755153419019571448e-01 -1.585754273820061622e+00 -1.276448605662988012e+00 -9.627129510342368190e-01 -1.382842358023914420e+00 -1.672093006541217619e+00 -5.422822013528051377e-01 -3.702554839261097963e-01 6.002612259868307376e-01 6.655540193640231417e-01 -7.434751455746231585e-02 7.330282354375979859e-01 7.781733046948011712e-01 6.008187753311697854e-01 1.105010559156826444e+00 1.080528039012339070e+00 8.010469835936250282e-01 1.065272623438213717e+00 4.616322909223916776e-02 -1.518615440429708308e+00 -2.401035627265183159e+00 -5.043573811908573790e-01 1.682727294248902161e-01 -1.307503923991569783e+00 -5.238361809397923397e-01 -1.241858631233741184e+00 -1.310078114390016424e+00 -1.176193536153367747e+00 -8.667096337732149713e-01 4.380360005375246168e-01 2.510858791071008400e-01 -1.727370060581573386e-01 -1.236606478700895906e+00 -1.819084310277395033e+00 6.023032775026530006e-01 8.366853925939216063e-01 2.498179660103951594e-01 9.716199458197766203e-01 2.696292818004892289e-01 -5.769403774638447446e-01 9.271794223665446033e-01 5.560385100957071502e-01 1.009993407480354460e-01 1.680844757813888257e-01 -8.128762612016855460e-01 2.658957293345067807e-01 -2.010311425918508699e-01 -5.278820662968292110e-01 -1.437940512643466617e-01 1.430149016999268663e-01 -1.108185738109213503e+00 -9.547277807460966548e-01 -1.610058975505801460e+00 1.464065972573581176e+00 -3.129985519417545770e-01 -1.288848383330511715e-01 6.268803197199802613e-01 1.775833753959740635e+00 -7.603594122332559824e-01 3.666438974926933825e-01 3.433916709344155826e-01 -9.093776319543347975e-02 1.027652799051000931e+00 1.445076749901420765e+00 -6.585601316848815889e-01 9.730993710530290164e-01 9.665477621289328969e-01 -9.875266707766237051e-01 -3.982076862669495232e-01 -7.195010076637810004e-01 1.677203209173277587e+00 -3.114184753031288763e-02 1.182629292556642148e-01 -5.920388986463955838e-01 -1.327396424296964472e+00 -3.199423811211954960e-01 8.520728539186945838e-01 3.701065502549959474e-01 -6.396049376080156224e-01 -1.390584715687287254e+00 4.248416270111396442e-01 -3.789695883873131499e-01 -7.500358840116976289e-01 -2.097947464011711727e+00 1.375911175756900251e+00 -1.046391031162728691e+00 -1.281640361651196214e-01 -2.302887033480668089e-01 -5.323440799082965746e-01 -3.713305896336873135e-01 1.402474370683763460e+00 -3.235769780165014819e-01 -1.890698332471938192e+00 -3.527704438579819524e-01
-1.297533391125282654e+00 -3.766379788059683320e-01 1.776094403653280418e+00 -2.987486032818789661e-01 -2.690633375381591641e+00 1.390829175716415733e+00 -6.129030081810655783e-01 -6.669733224419540640e-01 -5.738422808129381991e-01 -3.493415186398950989e-01 -6.927706671051157006e-01 -6.729645956718371957e-01 -1.221937075797315586e+00 5.623210675692470462e-01 -1.132222152586983333e+00 -1.362496854064696228e+00 -2.959195629022612906e-01 -2.480444103639634079e+00 -2.630493225930070466e-03 -2.573387759377412376e-01 -8.632854035648747093e-01 1.607284596668735022e+00 -2.563009647604506114e-01 -2.744753657019954662e+00 -6.032682692326435392e-01 -9.293305968087210989e-01 -7.270416579596478135e-01 6.672560471787809533e-01 -7.587449464193187776e-01 2.087532913682330626e-01 1.641663415981418739e+00 -3.193184745305218120e-01 5.566600741869336400e-01 -5.333859450120607137e-01 1.263353030069658933e+00 -6.069458295056136266e-02 3.071288847365334918e-01 1.427075335180264526e-01 -1.608089787877102494e-01 -6.534062147287023059e-01 -3.198408752019364365e-01 1.470557043056181790e-01 -8.470773368253480262e-01 -6.566550341601289364e-01 4.168127165113926780e-01 5.827120580237945546e-01 -1.065318062860741044e+00 -1.434390481525435190e-01 5.070825354810081231e-01 -1.454718535766917231e+00 5.122550561170597927e-01 -5.736238302585732612e-02 -2.776013027940822941e-01 -5.744303474639597118e-01 7.154340145319499911e-01 -1.312038012031527812e-01 3.729922798273595935e-02 4.720951767991604098e-01 -1.383708476477007565e+00 2.136845165579564776e-01 -8.519194066739191884e-01 -9.450633646409402067e-01 6.248443252875136578e-01 -2.849510558831812833e-03 7.114847875599136229e-01 -1.014969580223128442e+00 -7.249359795737694290e-01 -2.063403225350634307e-01 -1.293999937969904979e+00 -1.190179412956153371e+00 1.872900815443081027e-02 -1.456012082422409593e-01 9.979898989216687277e-02 -1.209626182477466227e-01 -1.129473371813120686e+00 5.532536688992718554e-01 3.830882167299232699e-01 -1.600524276452926609e+00 -1.027905786871833094e+00 -1.569627090208116638e+00 4.240732862335919173e-01 2.220931167603498846e+00 -2.402922721057938915e+00 -2.989586866158485456e+00 8.614778818531657612e-01 1.067551386856181672e+00 3.308117415923048088e-01 1.784759490086278211e+00 -1.400001822092989512e+00 3.763654974170488332e-01 6.764576202955241424e-01 1.198157546012434960e+00 -1.682101221898228527e+00 -2.521740463195445869e+00 -1.096038843306600535e-01 -7.907061478677691602e-01 2.172894512307784520e+00 -1.867798773798290124e-01 3.440087721518240160e-01 -1.247449681258472332e+00
2.306645975494490575e+00 1.938636168288405681e-01 -1.570699934070632076e-01 5.454690001944972888e-01 -1.127176287774545260e+00 1.435031873628623833e+00 -2.054796182364222012e+00 -8.027841003273354925e-01 -8.210157592700375595e-01 -1.706158635815203883e+00 1.523706606106587147e+00 -1.603814168698297182e+00 1.122272456744261682e+00 -1.100124471835370876e+00 -4.403728946565307889e-01 1.433357912464324757e+00 2.413686257603286922e-01 -1.376433994003498862e+00 2.578675592082934065e-01 -3.117524172791620862e-01 8.262759939688394395e-01 -1.077886371523731235e+00 -6.576457935976552927e-01 -1.252507563787284894e+00 1.642002932052480380e-01 -8.349185693604944669e-01 -9.980511915299818959e-01 6.515320689125212450e-01 3.612213480308572311e-02 -5.251264094637900781e-01 -1.359036800228545339e+00 5.978014558033873938e-01 -1.447991404831022288e+00 -9.001892338084149792e-01 3.968376860492045521e-01 -5.838208452486965960e-01 -1.258620707155176044e+00 1.777037373890135996e-01 -1.534958883079857506e+00 1.170342154810701807e+00 -1.717513933693944006e+00 5.788557094611476161e-01 -1.064215051287992653e+00 -8.786108487938641964e-01 -3.499268099489535877e-02 8.196034676124199780e-01 1.428631453381703498e+00 -1.163092474117491532e-01 1.202557221567917667e+00 -1.227872566377601782e+00 -5.085619779407438701e-01 -2.823630491145056043e-01 5.145569980210318306e-01 -9.300453595648437988e-01 4.893311043828819096e-01 -1.637422988670886037e-01 -1.592714753797101146e+00 -9.596580220942311223e-01 -1.527771917202425389e-01 -1.481168581973693055e+00 -5.001451868466102457e-01 1.259004238761219030e+00 4.671376958155460390e-01 -9.557989637644804803e-01 7.448400392183944785e-01 -1.073194466763856825e-01 5.446359789821774156e-01 4.047344326403328196e-01 -1.523632934023972707e+00 1.180996602474488011e+00 -1.688964157932310375e-02 -2.506154113081014767e+00 -7.997250137397952097e-01 -1.853559148268449253e+00 -4.901118095392411611e-01 -7.914028891822094680e-01 9.724225826519083959e-01 4.147490188088376328e-01 -1.136970472782650399e+00 -8.416486616211724114e-02 1.256866963932270209e-01 6.847586735752779763e-01 -1.290398870456289426e+00 9.703316727336865899e-01 -1.269352457024655489e+00 1.031377286239829827e+00 -4.076804216517568302e-01 -1.553549532204674843e+00 -9.609658557144366009e-01 -7.027689610990767166e-01 -1.614072575988859670e+00 -6.296580577100728826e-01 1.074920336257960685e+00 1.616077967836092033e-01 8.252884755288902863e-01 -9.426459574564767172e-03 1.576505674689562042e+00 -1.048411562216915005e+00 -8.794612868092707147e-01 -1.738038124872202661e-01
-2.173806334557269793e+00 -9.025212832477985322e-03 1.014480316415277583e+00 4.711258424625360264e-01 7.102050050442582085e-01 -7.226895238693553658e-01 -1.134263374332860508e+00 1.259053908268668698e+00 1.756842941406936143e-01 -4.616998098317754984e-01 1.074871001193652864e+00 -8.081468108833309572e-01 -2.206186135031963924e-01 5.755288974838786986e-01 -1.547425960580110504e-01 2.951386867980634529e-02 -6.500072898096176388e-01 1.595395993071433649e+00 -2.145959478769158935e+00 -8.941293182028395847e-01 -4.074841217113772118e-01 1.972809092498217343e+00 -3.308480243629405848e-01 -4.380588565485057373e-01 4.397042486418172857e-01 -7.843255133085477032e-03 -5.583712152511252080e-01 -1.152175831076523577e-01 8.425209461618650142e-01 -1.238700697203314105e+00 -1.191777601082035343e+00 6.478349905862307301e-01 4.491272500441267912e-01 -1.166750347127250231e+00 1.185534827486447451e+00 6.447212563504639560e-02 3.943287000991585467e-01 -1.285657156791400801e+00 -6.799832711535945817e-01 -1.008460645844704295e+00 -4.754862729619596662e-01 -2.054491777053947532e-01 -1.080073896985481868e-01 -1.653747561121040321e-01 -5.384516007252901915e-01 -4.759352721658911545e-01 1.793431395955610741e+00 4.820603026101032973e-01 -8.214282972108823966e-01 1.614890000025871464e+00 -1.555611262137468920e+00 -1.458773973563796122e+00 -6.466814628238070073e-01 8.705654043915522777e-01 -8.732956572495594871e-01 1.707472488734184390e-01 -4.803078949606269799e-01 -6.091065475309913602e-01 7.047338181046807204e-01 4.656479830930060348e-01 -1.857440567899232764e-03 -1.950769427491071850e+00 -5.546357395954417679e-01 -1.107109640220451219e+00 -6.415755244702316951e-01 -3.318029907937439793e-01 6.368165138313899298e-01 2.174229188723767470e-01 -7.566202921303322171e-01 7.589205460368909917e-02 4.963106013389781968e-01 -1.820375796371115351e+00 -2.142732930351611831e-01 1.523891149728431094e+00 1.943572990675821455e+00 6.053743479590811827e-01 -8.339797782463904685e-01 7.662913139273263008e-01 -1.490526986387765040e+00 -1.371997978672760521e+00 -4.117545769938406597e-01 -2.309958202030708285e-01 2.073405743456727679e-01 -1.410718567819765068e-01 -5.541869733805028231e-01 2.999080447480441114e-01 1.016869790978888854e+00 -3.652823712914209375e-01 1.045191792018582477e+00 5.840729225722579576e-01 -2.122813617278494380e+00 3.156194736370298015e-01 4.226145554507305668e-01 -3.811164522828371926e-01 2.258360788168712219e+00 1.793267464562372238e-01 -1.422497113146780956e+00 -4.431858653779107149e-01 -1.126887730967131462e+00 -4.244751283326137631e-02
-4.449231147078105963e-01 2.731230163859028615e-01 9.163331319252925322e-01 -1.990882607626938583e+00 -2.143633460027265514e+00 -1.306182784950920883e+00 -1.240244042121948054e+00 -5.468685339484896657e-01 -1.768064576297907253e+00 -1.189747439593426437e+00 -3.104278012112424712e-01 -1.855173106630574609e-01 1.256776212013973160e+00 -1.129936200175215788e+00 -9.312187877595414776e-01 -9.947030101963827420e-01 -4.200942483175213460e-01 -1.181507128935519235e+00 7.897471535461106917e-01 -1.986479999168449861e+00 2.846057739096278238e-01 -1.410340670568624333e+00 -8.967974593118356319e-01 -1.271842507800962752e+00 -4.648149338472178371e-01 -7.077413566982947435e-01 4.878246278380634071e-01 4.149884315692895509e-01 6.617356022713632990e-01 3.678399491056383863e-01 -1.244219173988137861e+00 1.681772984464788984e-02 7.474549874610769695e-01 -1.228777127529605329e+00 -9.467463649943491655e-01 -3.086706833231581126e-01 -3.049664330762975606e-01 -7.377454221763036779e-01 1.239789421436281014e+00 -1.840493767737999331e+00 5.126107839701000701e-01 -4.802252140592038199e-01 1.204892582069923668e+00 -3.203708270505173927e-01 8.098962920713687064e-01 -4.079729705114284455e-01 7.828585460755205228e-02 -1.317792409460363023e+00 1.644102776574757119e+00 -2.142642608100981061e+00 7.392881248184608456e-01 -1.457744940126523225e+00 1.319108066127152035e-01 -2.843468780596928869e-01 -2.955958639870194249e-01 -1.235615013434076648e+00 -2.577025918160812112e-02 6.270530952857050755e-02 -1.733134076098456600e+00 3.193137587321780435e-01 -1.288799165859102758e-01 -1.151356162300613661e+00 3.516536430559135673e-01 -3.274556114764781700e-01 -1.317143513548410250e-01 -5.020674850908362075e-01 -8.662916986067368263e-01 -1.754489874186745180e+00 -5.315831615532475851e-01 -1.241537432111657679e+00 -1.250207902906088187e+00 -7.675603953513078226e-01 -9.935945540119019148e-02 -1.293278022211019340e-01 -1.962977131867119862e+00 -1.682751306855416740e+00 -2.222649850905467517e+00 2.351797548583539621e-01 -1.475005599433756309e-01 -4.976539927337702562e-01 -1.247354834347335517e+00 1.155261844753283640e+00 7.375262019218721266e-01 -8.569657458308899134e-01 -1.662648265798578162e+00 -4.471160954083431283e-01 -8.669433222851465892e-01 -6.106454494011858136e-01 3.312762477518068072e-01 -1.455196535005420566e+00 -4.921356608602492355e-02 -1.868416085364875245e+00 -1.949824237490522361e+00 1.271166367067571468e+00 -1.212338949423583889e+00 4.158088443954768842e-02 2.158441585368558180e-01 -1.522315657017316415e+00 1.892984673857743383e+00 5.041972080278785961e-01
-1.094750086250426913e+00 -1.691602558433706438e+00 -1.357674956614548734e+00 -1.322737317533933643e+00 -1.926246296747119002e+00 -1.349708275293941273e-02 -7.177358100682795783e-01 4.696318457481655773e-01 -1.299147299359606489e+00 3.806938649889978765e-01 -1.331989774251616909e+00 -4.916250605380753647e-02 2.324851024837496297e-02 -2.600963309503243615e-01 5.095386769052899778e-01 -9.630720001288858301e-01 1.352104770828771452e+00 1.258014647133724129e+00 -9.465220212965257396e-01 9.966113962499725254e-01 -3.367208130199358385e-01 -2.781087501240147919e+00 5.839334780384747292e-01 1.278937327220817988e+00 3.296653737963783914e-01 -9.585552740189772214e-01 8.746002381980721996e-01 6.287579159888506686e-01 -7.346284160790421680e-01 8.056695153355283301e-01 9.129726579831697331e-01 -1.012785151745207557e+00 -6.156295732997270065e-01 1.686210832609798205e+00 -2.023757078305028934e+00 -4.286407375903714123e-01 -1.504104801806595004e-01 -1.365106059298039964e+00 6.492179344720834244e-01 -7.677178953552968865e-01 -1.540166844951598168e+00 1.624521916883963357e-01 -2.719928762172886816e-01 -1.130653870664293903e+00 3.346254657239310371e-01 -9.508229581393981000e-01 -2.484317408899811230e+00 8.121037310265678544e-01 9.955162533456951568e-01 1.676239107736371692e-01 1.055741651758030850e-02 -8.521489776721465903e-01 4.112385401522901107e-01 9.541390291189484341e-01 4.502537172273387567e-01 1.905975233081214915e-01 -4.155689276932671844e-02 -3.423438596689405700e-02 9.766754761261956519e-01 -1.196731308186977705e+00 1.612307110270315424e-01 1.431918579576840989e+00 4.599256081804206642e-02 1.012580517100109434e+00 4.980469224906291679e-04 -1.760834958617095714e+00 7.722464175119327923e-01 -4.081478441368704968e-01 5.064778528087753307e-01 -2.153279596931423345e+00 -2.816250497729509417e-01 -2.230018416539898407e+00 -3.287564482519022002e-01 -1.494591788997907456e+00 -3.307198826610284748e+00 -1.130397653653906487e-01 -2.323246201278179046e-01 4.388598030800462506e-03 2.600008925756047140e-01 -2.280153953101577147e-01 3.052219463650517328e-01 -6.390945742210134561e-01 -4.833010812339409434e-01 7.177995407656440063e-01 5.838953497398057246e-01 8.460730334490685900e-01 -4.348583484764957374e-01 4.167862607964573085e-02 -1.369510428053655637e+00 -8.807956147802604718e-01 4.214246190829866734e-01 -1.483172974380896791e+00 -2.437490111424002737e-01 -1.395315692084629286e-02 -1.077299810565045979e+00 -8.173644654151847044e-01 -1.899555825887916938e-01 5.325963149555105192e-01 -2.101980701640774996e+00 -1.340965102959622568e-01
