-2.262725752718202088e-01 -1.421175521751937287e+00 -1.973087299612590995e+00 1.178466902090219870e+00 9.959118365311162568e-01 -7.005171539749316389e-01 2.016754032258711860e+00 -2.165493086250195098e+00 -9.326435202814210568e-01 1.335721802874222597e+00 1.950070951647318029e-01 -9.392877471446199611e-02 5.354799676203688685e-01 -1.928626535705560752e+00 -1.758292790394252014e+00 1.086055490277735514e+00
-2.745122221100268156e+00 -3.563651455917107858e-01 1.457609618118958228e-01 -2.234831763445143338e+00 -2.018512099929275383e+00 -1.792344133098003223e+00 -2.292510561571094563e+00 1.568869957545013794e+00 1.336456214929532482e+00 -6.869109140735304431e-01 1.958928361052951983e+00 5.131709213137758407e-01 3.674444088718480383e-01 8.476959725059953765e-01 1.101996928067807469e+00 -9.195913514716331782e-01
-2.965916512709176445e+00 3.363969236806685914e-01 -3.429950771239425045e-01 -1.711748597779061631e+00 2.755371583297100968e-01 2.002338085792820799e+00 2.312318057873945509e+00 3.496273005039640114e-01 -8.657482724049103684e-01 -1.479670350474190377e+00 -2.395861734985252067e-01 -1.544561101881856136e+00 1.139533419149489468e+00 -2.053320086048623150e+00 -4.576014869007744568e-01 -1.286484488072340282e+00
-2.842559646887810487e+00 3.762295308834853746e-01 -2.009807164733141971e-01 2.466618984996685526e+00 -1.558714437561018018e+00 3.560864903336208309e-01 -2.873827410420040973e+00 -1.624026284229112216e+00 -8.642514656261537365e-01 -1.473585588595327733e+00 1.076970956792397544e-01 -5.208778669512736936e-01 1.365942805397251769e+00 -9.897190469127639112e-01 -1.580285826665192017e+00 1.867302333070607556e+00
1.280803546225133038e+00 -1.817541972120257920e+00 5.946162079449901494e-01 8.427153546986859700e-01 1.160511309696922400e+00 1.853811520468203522e+00 1.383693224319386128e-01 7.911861074387178672e-01 5.189067323731810788e-01 -6.366599467907205767e-01 8.048141666651047188e-02 -1.512535829079302063e+00 -3.861766206385734979e+00 -1.599874700561041418e+00 -1.021167849497431002e+00 -1.333975961480694306e+00
6.828109384822415029e-01 -1.438956347888270315e+00 -6.125883886729835970e-01 1.180418213936541838e-01 -2.035309864147994752e+00 -7.993024769963595899e-01 -2.112876126933693754e+00 2.514055528834227005e+00 -3.411457481435912764e-01 6.658562992322902829e-01 -4.187518717145898850e-01 -2.767129456882852168e+00 6.393766391887221179e-01 -1.908676188753327452e+00 -1.143112260318722928e+00 -1.060859363800376043e+00
-2.069745982484149760e+00 -5.207559006288204895e-01 -7.358186961531436587e-01 -1.246080170080533511e+00 -2.879752108990672466e-01 -2.122702716689052194e-01 1.423102500728933517e+00 -1.477116058254430431e-01 1.332376106600833277e-01 1.442192410913566203e+00 -1.386946115634443810e+00 -3.088605888994327420e-01 -2.882092799226381175e+00 3.280565200980740670e+00 -1.251064441589771148e+00 5.271978857334127522e-01
3.929053078376001373e-01 2.404874645226107166e+00 1.905281816827089081e+00 -8.463798591523230552e-01 1.668445017232942917e-01 -1.073457219741766222e+00 -1.998282330687305208e+00 -1.586061120728193385e+00 -1.679919457215263812e+00 -1.704762966410526381e+00 -2.473955912278634761e-01 -2.983619882916386246e+00 -9.539947124565683056e-01 -3.272346064643108510e-01 2.056780722138823458e-01 -1.927502843432334023e+00
1.366288153762488244e+00 -8.399844503183173661e-01 -2.353222274384418000e+00 -2.638394961740003986e+00 -2.364456567126892672e+00 -1.366684294090434015e+00 -1.367871641230977431e-01 -2.096814172722988090e+00 -1.264827616447345315e+00 6.344164360203642383e-01 1.240052227909096000e-01 1.306994934400340647e-01 1.984956306353664157e+00 -1.308246310404557411e+00 2.565945388851824036e-02 -2.365360278990172205e+00
1.335573758049592330e+00 1.108008489335322588e+00 -1.993044409407421780e+00 -6.944990715105605616e-01 -6.682038960146602369e-01 -2.031538847985332907e+00 -1.049273511258195651e-01 -1.578314523927695667e+00 1.775031042259039626e+00 -1.579811672337425144e+00 3.881126226154011927e-01 7.400483826931301135e-01 -3.676389456534703726e+00 -2.508714486013991607e+00 1.586905223926302844e+00 1.238417233695799702e+00
