-3.341268932261375335e-01 -8.761090608495705756e-02 -3.687958038573935227e-01 6.196152252526820892e-01 -1.525241501816581469e+00 -2.219313810386242647e+00 -1.564699959872316359e+00 -1.643401555559072413e+00 9.451293325322165373e-01 -1.576945064722484746e+00 -3.040175020034265874e-01 -9.431302343310895564e-01 -2.066072074690278593e-01 3.371638508245106691e-01 -9.327481361858636077e-01 1.129392714753824078e+00 6.197030889279012689e-01 -1.370581846260541470e+00 -3.983176430023839254e-01 -8.829236771192630062e-01 1.195994685878791763e+00 -1.608529980196344439e-02 4.194038103967256403e-01 1.592644131862198220e+00 -8.135160816026640873e-01 -9.438301718080559510e-01 -1.453994172605916659e-02 -5.393214712020499846e-01 5.576329779364388450e-01 -2.269514952827099974e-01 4.000282781877592675e-01 1.463227045292316841e+00 -1.386446940677864004e-01 1.269153497716438039e+00 -9.842227149484650273e-01 1.053098186130834168e+00 -8.813714247786956779e-01 -1.418469185981623415e+00 1.122710196302614705e+00 -3.741556288742867720e-01 -9.815517873241849101e-01 2.118754487053232938e-01 -7.920526048247150674e-01 5.359977626968184250e-01 -9.350923539145673535e-01 -5.412760190103959451e-02 -1.385382157078894672e+00 1.005778804467071685e+00 -9.497326053138438473e-01 -1.205109865340249220e+00 3.843730567443635060e-01 1.979114911450882142e-01 -9.736791901541331784e-01 3.780089126177704067e-02 -6.429238230547336119e-01 7.648202918718216559e-01 6.802071751612708272e-01 -5.441041093590911482e-01 -1.364949530272399514e+00 -7.913386436302360938e-01 6.813038181396751103e-01 1.273181811732875535e-01 8.818426095450725422e-01 -3.736551332783796253e-01 -4.816296666061625764e-01 6.601923807812164480e-01 1.098063680910368989e+00 -6.563974278217684644e-01 -1.766067268118928668e+00 -1.140941779293044522e+00 -9.071490327765934225e-01 4.887159933928953426e-01 7.913422293326367596e-01 -1.634202681896623321e+00 -1.677574385175476523e+00 -1.169875038133904477e+00 -3.794313597631004398e-01 1.207066846579400166e-01 -7.056011980543717144e-01 7.364340953563440761e-01 6.434754760021721420e-01 -9.544891308227697602e-01 4.830931371053705514e-01 9.971789904845564934e-01 -1.138472193194169035e+00 -1.540909556629110444e+00 8.235490478871493325e-01 -1.265682277136681577e-01 -3.608381685524399834e-02 1.411850393048311447e-01 -1.418183090911320443e+00 -2.340051093162508478e-01 1.104930185520385244e+00 -8.584400965731119326e-01 -9.784449679132163624e-02 -6.515386241109870635e-01 -1.705598628406622908e+00 5.854556515791357191e-02 1.122582603377031418e+00 1.148380377538737340e+00
1.293722485376071152e+00 2.815986298051846859e-01 -9.131374851504912016e-01 2.582299965454903035e+00 -3.122602458336000697e-01 9.900405760692309043e-01 1.597133818194518051e+00 2.794631587609357204e-02 7.325488077666407749e-01 -1.337056567396861295e+00 -2.363261910197724802e-01 -1.526847856076783305e+00 -6.546137971208151329e-01 1.067902816687105877e-01 3.684151632402716259e-01 -9.974088967179288723e-01 -6.315349845580361388e-01 7.515678783269665042e-02 1.087192589000184340e+00 7.543254980756490813e-01 -1.211624798437537898e+00 -9.220371812957437463e-01 -7.876637552529345276e-01 -1.220847257989796875e+00 4.801855781764972214e-02 -3.840624764748608033e-01 1.724198818783400644e-01 -2.969906039919493201e-01 -1.070359278084257237e+00 5.971825297367503449e-01 5.271266843119647438e-01 1.467923450277056063e-01 -1.548437100131854205e+00 -2.840483656215077590e-01 -1.397312245873084890e+00 -8.552092523067443830e-01 1.994871124255768180e+00 -3.589144609242715944e-01 -1.128173098378953743e+00 -1.043065211058457953e+00 -1.750963421418201202e-02 -7.019074585477492745e-01 1.741453878125993615e+00 -5.214836353037526351e-01 1.130734060187115475e-01 -7.239666857568227698e-01 -5.371923973475134506e-01 2.570113203919577316e-01 -4.378801334134699297e-02 -1.821739801698958106e+00 -9.961082375567570368e-01 -1.180615812926520403e-01 -1.885031309951896716e-01 7.564634037251710685e-01 1.834602842315629923e-01 -7.867822471262142514e-01 -9.156918692169506435e-02 -1.303292168674910378e+00 -1.616980247471370424e-01 -8.889154065132184868e-02 -9.553759752938894012e-01 -1.515842228344225662e+00 -8.592594961954784782e-01 1.228338423645873201e+00 -1.640968794188995827e-01 -1.103059579215314834e+00 -6.706351407707825674e-01 -1.470026873879239249e+00 -3.178538525001661785e-01 1.063679027416584599e+00 4.775577833721889598e-01 2.655487177118345254e-01 -8.775028812913636678e-01 8.939017343905684143e-01 4.855364392879653601e-01 8.857484075760205799e-01 1.796616423071286217e+00 8.511925067548967716e-01 -1.856500045259978027e+00 8.215843715173039019e-01 -4.871183167551694226e-01 -1.289814133850500921e+00 -9.734983469055717986e-01 -8.680454591140356335e-01 3.759016781989358846e-01 2.972574791581634179e-01 -4.565596928803812848e-01 -9.170717967385862979e-01 -5.370909061740137824e-01 -9.700756851055141183e-01 -1.074578738318038074e+00 -7.932441785513185684e-01 -1.063953974568653260e+00 -6.906957876966911547e-01 5.106026691076669399e-01 6.925331216993453332e-01 -1.841624780057167787e-01 -1.099048836040990462e+00 1.998260856729247303e-01 -3.487896927795718777e-02
2.063373539511171861e-01 7.089426114337327167e-02 1.261018632577955767e+00 -1.276699793680361683e+00 4.131383106375633996e-01 1.054493639372021896e+00 1.399438595910197591e+00 -1.990802633078753159e+00 5.586131440293462536e-01 1.160190988841816262e+00 -1.295921231613619495e+00 -1.973389809207648244e-03 -1.939136347233466617e+00 -9.864666705266763591e-01 -8.704434979570584430e-01 -2.656638770302779395e+00 -1.527253624446117453e+00 -1.847975744173020241e+00 -1.932348126289080259e+00 -9.033944333899986134e-02 -1.547603124917285022e+00 -1.739206529841323734e+00 -9.748452926374727712e-01 9.821698784635621848e-01 -6.401829904230067481e-01 1.124039544925934164e+00 1.054919210891217957e-01 3.660046821202349587e-01 1.044117992404894890e-01 -7.349372630536384898e-01 -6.958174205502224430e-01 -1.235591299110757157e+00 1.376570520917141716e+00 -7.105478652690049302e-01 -5.034801085002941212e-01 -4.377708787251751721e-01 7.627980425112940166e-01 -2.879855521966749321e-01 1.283290583258974715e+00 -4.701175158835066425e-01 -7.432954695774933729e-01 -7.259657756450076382e-01 8.330005891869937118e-01 -5.624662763999046522e-01 -6.967238021898366496e-01 -1.096566914471314380e+00 -3.018479369318401440e-01 -2.115957078501656596e+00 -9.026383635912585968e-01 -1.389379791874372216e+00 -8.332470162309053574e-01 9.271711647481133411e-01 -5.888584073248974704e-01 1.423538166085584755e-01 -4.276322888139792444e-01 7.799958883448429581e-02 -6.190439249929660104e-01 -2.353930908212732154e-01 -8.747183402239148142e-01 -3.041978670635239745e-01 -4.039826785254652664e-01 8.920019293743237654e-01 7.822989908270265857e-01 -2.538154829420668612e+00 -1.045403062703460284e+00 1.424374544256006736e+00 6.573366339770697619e-01 3.119741636657452633e-01 1.111727751250878748e+00 8.455417124751658520e-01 -3.673784181479856081e-01 2.567002110915658886e+00 -3.506726369927758991e-01 -2.039031798910445836e+00 9.051555844231778947e-02 1.117420359553278786e+00 -4.183625986026991983e-01 -5.674472975360137506e-01 1.326270529196029058e+00 -5.750784460102575935e-01 7.133613203012209025e-01 -2.529862819068411928e-01 1.072126540755443669e+00 6.710185093100237141e-01 -2.109541084419927492e-01 -1.438680320989427441e+00 -1.312334746192231894e+00 1.479125669461442416e-01 9.912489329829916596e-01 -8.290731074934917233e-01 -1.125574126761254679e+00 9.260398322077463273e-01 1.741764918985922728e-01 -7.373126537146298398e-01 1.956763475534632590e+00 6.122798817130590404e-02 -2.696052555594439792e-01 3.485818245682386629e-01 6.553043163785621239e-02 1.019567895839895988e-01
1.591051437070322983e-01 -9.310915985140580942e-01 -4.278787831812828069e-01 -9.577768774911833705e-02 1.605191020181673922e+00 -1.691796077913193308e+00 5.112172314040293042e-01 -4.489027240706295885e-01 -1.016650602991429286e+00 1.358571172549879913e+00 -2.438326476315614832e-01 -5.745281725090386482e-01 -1.340712899964124905e+00 6.878508526056530403e-01 9.508535080118966087e-01 -8.327849197678045545e-01 -2.320375248137994895e+00 -1.492172697728315844e+00 -1.208855078051747078e+00 -1.093062622330235323e+00 1.772220533736462988e-01 -2.058968495642212293e+00 4.983688608258662889e-02 -1.339604218228352295e+00 5.848541875500096188e-01 9.317454000859929364e-01 -9.119249324250875421e-01 7.752130557849787884e-01 -1.119979561793523759e+00 -2.682470960992198727e-01 -2.343770133172888293e-01 3.972392342412821575e-01 -1.015816117935385288e+00 -1.114350059303565038e-01 -1.427804187923122248e+00 -9.966879927761511659e-01 -1.044740887164077092e+00 9.105584878242992675e-01 1.124059513306620461e+00 9.201942294895849583e-01 -7.866973227440338112e-01 -7.065352410844298880e-01 -6.295695953215045826e-01 8.047290147074825928e-01 -6.516868068860371954e-01 -1.076125037742077462e+00 -1.301032162073745724e+00 -8.145437085199092042e-01 -1.490447417489469739e+00 1.001466649862044367e+00 -1.448988622440224860e+00 -1.481781387243846115e+00 3.120799209552156395e-01 -8.657961818967734313e-01 -7.225377520922221519e-01 1.709659953994350445e+00 1.497085198726472721e-01 -1.287059863710172114e-01 -3.242454591169516287e-01 1.646737992391577032e-01 1.440606855154400234e+00 -1.848244196987549326e-01 -6.232625648790746098e-01 -1.784112432132387793e+00 7.138689374199362891e-01 -1.129078675443641711e+00 1.232082043841328661e-01 -1.544897395323801215e+00 -7.184348925993686574e-01 1.682828548158487314e-01 -8.520990223262846497e-01 -2.708285339423321392e-01 8.354468853646104254e-01 1.936056546525387834e+00 -3.301863484486585176e-01 -6.009240898697999489e-01 -2.605902486217562264e-01 -9.690424137483626410e-01 -6.268813304090228855e-02 8.336583574986339285e-01 -5.451717112718035274e-01 -1.639788097013355817e+00 -5.183924596146179120e-02 -1.043152161930008814e+00 -1.823406764826636994e+00 3.560695513828592285e-01 4.760178858322686168e-01 -7.083234205952273488e-01 -6.378326286587734373e-01 1.420843664031167908e+00 5.238106261347330594e-01 -1.176450657334856542e+00 -8.506668037956512940e-01 -4.511485904535008640e-01 -2.365510796416182782e+00 -1.582404082676909240e-01 -5.128135447351823695e-01 -9.066314215008158817e-01 1.014118432213365173e+00 3.790381247871455472e-01
-2.937194215895643001e+00 2.343757992607627474e-02 -1.448929118816264738e+00 1.573448342120538967e+00 -4.612567118429326818e-02 -1.647310704358101896e+00 -7.762195861708039990e-01 -1.582648914583750566e+00 -1.276886288972824302e+00 -9.583409167136383022e-01 -1.357407550259964513e+00 -1.676507657323777378e+00 -5.358982933309354157e-01 -3.662146929169059484e-01 5.941219203807637239e-01 6.548778535298378500e-01 -8.697154185791497460e-02 7.435740285484265799e-01 7.547275518973554087e-01 5.986483473923174259e-01 1.078700231019838141e+00 1.063739114236549543e+00 8.010386169244572141e-01 1.080145642888300506e+00 5.805954897761474165e-02 -1.491410833806548153e+00 -2.402662303051172898e+00 -5.041656043625544203e-01 1.768741913253541187e-01 -1.317304111476200967e+00 -5.187069408667621673e-01 -1.237930526884620797e+00 -1.314007817975985093e+00 -1.175506880845744062e+00 -8.689323729607234537e-01 4.439011532843243901e-01 2.511694380655838943e-01 -1.671095399405624071e-01 -1.248637700074497037e+00 -1.820309303463549799e+00 5.888152551981421512e-01 8.363814854786145725e-01 2.297624330917213686e-01 9.632337118357440220e-01 2.616343794760760399e-01 -5.719735552122806599e-01 9.230448364474601597e-01 5.732413975632443259e-01 7.605473490886081878e-02 1.729235778176148874e-01 -8.061819765780096070e-01 2.569113468859348104e-01 -1.972812668437852190e-01 -5.278053508982455400e-01 -1.411783895435136937e-01 1.425907769931895885e-01 -1.106251042992846711e+00 -9.590461772516175598e-01 -1.619383266033327384e+00 1.474797030794523955e+00 -3.099009575851462417e-01 -1.372936136675011187e-01 6.271528498153211562e-01 1.775896719040366722e+00 -7.604442759254090856e-01 3.800040589592443840e-01 3.432757506483451460e-01 -8.917574874161970921e-02 1.013619405859324196e+00 1.444293070532018497e+00 -6.313526592540360527e-01 9.892381137632787480e-01 9.662996420013589827e-01 -9.722899987808495403e-01 -3.929859298858330852e-01 -7.027952109660292601e-01 1.655683480388095097e+00 -2.963167075822179669e-02 1.102976837437793789e-01 -5.895547556486161467e-01 -1.333725981919563264e+00 -3.161652852198242325e-01 8.531197453317563850e-01 3.894125171164214971e-01 -6.412061746702435450e-01 -1.371863051753391405e+00 4.164869581383566222e-01 -3.801534719241990712e-01 -7.306920948985766717e-01 -2.096896391556246186e+00 1.364727676829620595e+00 -1.037538852392029476e+00 -1.364080764707247817e-01 -2.463186782961713783e-01 -5.382866201394725936e-01 -3.711794568894593027e-01 1.389662963719404676e+00 -3.339095758295329008e-01 -1.889442975428105020e+00 -3.485305941458531898e-01
-1.283202887606641696e+00 -3.576528419704779194e-01 1.781846886830054100e+00 -2.950661232861107597e-01 -2.670689301157338491e+00 1.391358240180285311e+00 -6.110181565678943771e-01 -6.646685945690202768e-01 -5.707841106975516388e-01 -3.365936547682926716e-01 -6.956657530722761829e-01 -6.601915421033652809e-01 -1.215834611710166380e+00 5.745410093474317970e-01 -1.119042639585502874e+00 -1.344002728452563300e+00 -2.948200298789078189e-01 -2.468305240319645044e+00 2.138558436624327119e-04 -2.584361829466962357e-01 -8.450613033591861667e-01 1.624408838062404437e+00 -2.563064833200772163e-01 -2.751837591015218187e+00 -5.979254192215044394e-01 -9.183941651513551907e-01 -7.046144657399723288e-01 6.673116889944047392e-01 -7.706873741456439220e-01 2.249891691930959170e-01 1.637174363409859668e+00 -2.964213578288412698e-01 5.602259143986928480e-01 -5.294906851140178672e-01 1.256839906627196024e+00 -6.672282221181939643e-02 3.117424249906010081e-01 1.308011694233076339e-01 -1.554954832489343353e-01 -6.231303788864496207e-01 -3.080689775838482691e-01 1.469602602066341357e-01 -8.495881208072434410e-01 -6.602316625797942651e-01 4.251272444073397327e-01 6.119462108154338775e-01 -1.062606069977625411e+00 -1.480059906888069321e-01 5.296541819127548179e-01 -1.457371749437308628e+00 5.393077451044205883e-01 -6.423287118808049256e-02 -2.658480262921346093e-01 -5.744314886164694212e-01 7.142741746670302483e-01 -1.271245488626326359e-01 4.806435041341521053e-02 4.835376980920857437e-01 -1.384238128113782329e+00 2.119097769673664589e-01 -8.577504237811206522e-01 -9.536394927340359207e-01 6.248132219360741368e-01 -1.545720758234908274e-02 7.106638263565528968e-01 -1.012791222715550887e+00 -7.169043024108661122e-01 -2.105413361650808612e-01 -1.295991824211764731e+00 -1.199626121557400005e+00 2.926702096489565766e-02 -1.463690630015339611e-01 9.986707603477783246e-02 -1.025936938809131754e-01 -1.126608720991253865e+00 5.899052628459425796e-01 3.671049466547424700e-01 -1.595231547322728982e+00 -1.007893525881039976e+00 -1.562850570180711607e+00 4.255700923874995989e-01 2.222433190645684675e+00 -2.390172356461292225e+00 -2.984896804812378512e+00 8.528049150459259264e-01 1.082589020300273930e+00 3.299368281662011793e-01 1.794548231942103556e+00 -1.400572511152545774e+00 3.983686665347139777e-01 6.602786424727568049e-01 1.211403574799295724e+00 -1.677779118655155166e+00 -2.527675114532095701e+00 -1.162151996478379828e-01 -7.906479812587807743e-01 2.181688281813866315e+00 -1.917879959135833923e-01 3.817650417919045691e-01 -1.230859076257338369e+00
2.302244640014763366e+00 1.942682361177629768e-01 -1.828724635130884180e-01 5.448800239287988623e-01 -1.132330878915729366e+00 1.425498945026410169e+00 -2.051735323876410888e+00 -8.057134726505513767e-01 -8.064748744426157856e-01 -1.696049832872163154e+00 1.514406470463260712e+00 -1.622018848214766162e+00 1.121025749087676271e+00 -1.120693895039851062e+00 -4.562544819345272784e-01 1.428162204751752373e+00 2.242191674656903722e-01 -1.376625606344617614e+00 2.415380840186473199e-01 -3.192078586832287068e-01 8.198623149034560686e-01 -1.092590620697241111e+00 -6.576443917351475488e-01 -1.256373460474930370e+00 1.544839538984300320e-01 -8.355563993864103534e-01 -1.013454275651740844e+00 6.514606539233264160e-01 5.763761352414817005e-03 -5.512378392400876237e-01 -1.363241141140309365e+00 5.934868554207478608e-01 -1.444229887829601600e+00 -9.102922137394408031e-01 3.885084468451520667e-01 -5.957735501179760584e-01 -1.249543268338495938e+00 1.891999050386814485e-01 -1.552227811129441415e+00 1.160932505020487726e+00 -1.714505178276934938e+00 5.786916557366482694e-01 -1.085102067702875983e+00 -8.907434561095111114e-01 -2.819282616372660588e-02 8.059258688682792160e-01 1.419214429736435079e+00 -1.303184029853660664e-01 1.179617083565623004e+00 -1.230862132124924013e+00 -5.144972396844378348e-01 -2.860490259356199272e-01 5.247188567582998786e-01 -9.300346021670727881e-01 4.877993640450871138e-01 -1.782725526016618600e-01 -1.587611761315813608e+00 -9.793382021918383140e-01 -1.554375966642598250e-01 -1.490245201514839080e+00 -5.074485223269271650e-01 1.258200610925937379e+00 4.671203612299973384e-01 -9.662526457857085749e-01 7.415755609253410485e-01 -1.125216389374808917e-01 5.360273819851217869e-01 4.004062716714656966e-01 -1.535511163583957783e+00 1.182203663201559785e+00 -2.344461362347511138e-02 -2.516913497353081564e+00 -7.998350232629175549e-01 -1.856934471990373092e+00 -4.850361098994609987e-01 -7.890733037199689770e-01 9.487467887461900062e-01 4.018079898601351063e-01 -1.149610990335662386e+00 -9.159357992966597750e-02 1.141941195369199913e-01 6.681567111491862887e-01 -1.286120217099893104e+00 9.497102950052286330e-01 -1.272523370853632319e+00 1.022861483247884617e+00 -4.204474113782329381e-01 -1.548992175299290786e+00 -9.634143021576395682e-01 -7.124673049915517531e-01 -1.616440034149681404e+00 -6.252475641002830375e-01 1.065996116095256907e+00 1.609601750579869595e-01 7.944451852522859125e-01 -9.050771781810894659e-03 1.552789018232090479e+00 -1.049127470838444820e+00 -8.955305442152680095e-01 -1.661766771344345972e-01
-2.195974214344378339e+00 -2.071761278226498179e-02 1.005484796870682596e+00 4.593214881269990779e-01 7.101728490236538516e-01 -7.184336627730267821e-01 -1.145333489468358668e+00 1.263403183998985435e+00 1.776036574863010253e-01 -4.850299226798430730e-01 1.053274865683660133e+00 -8.089418031245714236e-01 -2.333459307715312070e-01 5.700004455755190991e-01 -1.566945897796840625e-01 1.537314863564268573e-02 -6.470283264626471853e-01 1.606536664117482971e+00 -2.140256007283639406e+00 -8.908011127818984409e-01 -4.443232822477747868e-01 1.964847254693796952e+00 -3.308675149767923984e-01 -4.490338096822747982e-01 4.456846407070676475e-01 5.210962595603335287e-03 -5.629593409065509757e-01 -1.151894561863046618e-01 8.324452803771804632e-01 -1.236471929241012013e+00 -1.186592410913436035e+00 6.421799305552901016e-01 4.453389878154653259e-01 -1.156319649052984122e+00 1.183666972331104850e+00 7.036563759490992165e-02 3.976054890687712451e-01 -1.293311313837138377e+00 -6.621037525587177841e-01 -1.011419404720966364e+00 -4.787204278657996581e-01 -2.045582847080535394e-01 -9.430058864104794158e-02 -1.637806121549863769e-01 -5.437780504028967288e-01 -4.759653301692486904e-01 1.769306517641909160e+00 4.812620787147361967e-01 -8.083483042625788650e-01 1.626444027927866909e+00 -1.553755647572215848e+00 -1.449633576224717446e+00 -6.621752118460836334e-01 8.705723855805048705e-01 -8.735304709647897514e-01 1.624125534573243601e-01 -4.497292553921858893e-01 -6.085882908244970579e-01 7.263415222840893248e-01 4.619525103314134906e-01 -4.064289219781950895e-03 -1.950477857989704855e+00 -5.550696859288606344e-01 -1.109435286330923143e+00 -6.419012833177655253e-01 -3.330189393627616123e-01 6.345945683193755515e-01 2.112109543601835004e-01 -7.610331591884534896e-01 7.574289868953482108e-02 4.929181710405028949e-01 -1.809541651534514406e+00 -2.144617717368641763e-01 1.545771840944458075e+00 1.948095588836949998e+00 6.015453850844630912e-01 -8.233916062459352148e-01 7.638452752043187743e-01 -1.465215874303986920e+00 -1.370433570195842332e+00 -4.184154347030442089e-01 -2.473832135819888367e-01 2.193280273443909134e-01 -1.503281693904196525e-01 -5.496372153276296579e-01 2.816614272178482592e-01 1.022630172444124463e+00 -3.676407229490102346e-01 1.048638796995675193e+00 5.843921992369377483e-01 -2.134316154755508954e+00 3.110913449867937497e-01 4.220087159642776364e-01 -3.977945424251774220e-01 2.243920661551205065e+00 1.792724373388210335e-01 -1.437243306392181230e+00 -4.631071375364277376e-01 -1.128725142827796013e+00 -3.953801248228463322e-02
-4.500188872745078394e-01 2.805904148679312371e-01 9.060134483483440748e-01 -1.980024764143108573e+00 -2.138612319171077747e+00 -1.328974068160645894e+00 -1.244431320089768311e+00 -5.461205633909180790e-01 -1.751548371083618161e+00 -1.211529781519696591e+00 -3.129308074377163407e-01 -2.006974946047014596e-01 1.232416382182440540e+00 -1.138125660938495765e+00 -9.462357724286423188e-01 -1.000150128173636466e+00 -4.159191746538457579e-01 -1.183299659803595194e+00 7.945941052346531253e-01 -1.982820482857972744e+00 2.741584219801304623e-01 -1.426762598759977907e+00 -8.967827716869145593e-01 -1.270876915208171809e+00 -4.632331587252797589e-01 -7.107629855333117419e-01 4.940646472812788015e-01 4.149998252021244727e-01 6.585853300833037771e-01 3.444528156560333065e-01 -1.256020882719843135e+00 2.593365543802473097e-02 7.337623745503666362e-01 -1.254835852307064181e+00 -9.453561821618080563e-01 -3.046779069075218338e-01 -3.061790019127130225e-01 -7.565412121623387165e-01 1.233789263848825701e+00 -1.846876839358162492e+00 5.209417314803512777e-01 -4.804668325455166977e-01 1.177417979904057610e+00 -3.293262524072080866e-01 7.780039976512134192e-01 -4.037906835424403540e-01 6.954354057912681686e-02 -1.301674360238258554e+00 1.641152234470192761e+00 -2.131846996815821349e+00 7.423706927030627734e-01 -1.432306658786820286e+00 1.129994726785190917e-01 -2.844024576896358458e-01 -2.940258443572261737e-01 -1.266175856745777262e+00 -3.853500622042414087e-02 4.707911663668711694e-02 -1.729868636818419070e+00 3.149976933442659721e-01 -1.351706722290060003e-01 -1.166090175724932454e+00 3.516580199772691429e-01 -3.117318517117499410e-01 -1.435272036121121031e-01 -5.036015178615531607e-01 -8.703386462112411293e-01 -1.755995466553945894e+00 -5.225451623764482134e-01 -1.255733840961100078e+00 -1.254395899846395102e+00 -7.747634838565493620e-01 -9.937405304562424435e-02 -1.501818625990186673e-01 -1.981866445475710892e+00 -1.686058330571401420e+00 -2.241856355226848230e+00 2.275408053673133590e-01 -1.640425759559035468e-01 -4.863950058494403983e-01 -1.225220810753287815e+00 1.158877761771217374e+00 7.451546785842663168e-01 -8.423657949886064200e-01 -1.656636976937357009e+00 -4.456193770559121470e-01 -8.524085304059541013e-01 -6.076889929043464145e-01 3.218652084095459109e-01 -1.461792996333503458e+00 -5.782329105866256674e-02 -1.844108849923937976e+00 -1.941612474672879785e+00 1.271219637152742221e+00 -1.223953277308666543e+00 4.156050323744876762e-02 2.229310638753813079e-01 -1.511953988088998724e+00 1.874985703644402646e+00 4.930361090479694619e-01
-1.138125492093116531e+00 -1.688266511556044458e+00 -1.346537108577542607e+00 -1.313934930514140120e+00 -1.929797730724921001e+00 -1.476272690960419610e-02 -7.405972295018671270e-01 4.824103703470137838e-01 -1.300751152285214207e+00 3.655137522181976517e-01 -1.330781538287306054e+00 -5.729306240188000721e-02 4.267014200117929396e-02 -2.674997922547888707e-01 5.017016481496622271e-01 -9.451459370566079876e-01 1.363174169076011744e+00 1.277819466364524814e+00 -9.771698483294111170e-01 9.899305900259498525e-01 -2.963051214590282645e-01 -2.767264397697880352e+00 5.839377993525554089e-01 1.281574691103168018e+00 3.125973967175101897e-01 -9.643112397611237618e-01 8.605915933550054575e-01 6.286506336872526024e-01 -7.132799073313491611e-01 7.944735976373757946e-01 8.949901947511036404e-01 -1.017941122957795930e+00 -6.183903485952888524e-01 1.682483265026015307e+00 -2.013624152500276931e+00 -4.082039175510315809e-01 -1.487433000397446747e-01 -1.382768204666097178e+00 6.356294687841488322e-01 -7.707419347688100331e-01 -1.542763796892360650e+00 1.613499054367061314e-01 -2.833071377323856388e-01 -1.105281199397312397e+00 3.350817787169819706e-01 -9.438544741927544779e-01 -2.466915178845599854e+00 8.078924765251134232e-01 9.816158537759213099e-01 1.570002839252646887e-01 -1.447673714232605886e-02 -8.551765881390573920e-01 4.017206040016006452e-01 9.541472770845682572e-01 4.516943600973612472e-01 1.828973739791943109e-01 -2.859038640274797621e-02 -4.538421497966974721e-02 9.784733325159966633e-01 -1.223044164830162428e+00 1.681111694974739001e-01 1.418705601731524490e+00 4.600549412232512320e-02 1.014957002524274232e+00 -2.120331082678194611e-05 -1.758403022725772535e+00 7.634857049032351961e-01 -3.916147870764590810e-01 5.018174892626898753e-01 -2.150476146304117542e+00 -2.920380080228764941e-01 -2.221613408079510688e+00 -3.285907117828698043e-01 -1.509421713542159926e+00 -3.315226699485870565e+00 -1.139819114831050056e-01 -2.470679923535996081e-01 -1.020889138443930103e-02 2.469283960493634800e-01 -2.611528048897870380e-01 3.000878032209868818e-01 -6.413391144601046090e-01 -4.677355963718474174e-01 7.224767731109736912e-01 5.897768074471798627e-01 8.331771143956903103e-01 -4.439165621849545662e-01 4.712682876984559954e-02 -1.362130730167585568e+00 -8.841995906405573091e-01 4.559868032585862596e-01 -1.469323531591724352e+00 -2.388277063969896918e-01 -1.179014404960230383e-02 -1.048979028212025932e+00 -8.173396844795809413e-01 -2.063816278084971700e-01 5.214889274573218936e-01 -2.097595010793102066e+00 -1.430708205148555345e-01
