-3.545975588524908906e-01 -1.390755194850763488e-01 -3.777834556407244082e-01 6.160599953874642543e-01 -1.515230745541856328e+00 -2.148650405071171665e+00 -1.526955910711634612e+00 -1.635782425134649332e+00 8.681800588352048820e-01 -1.538690565800716392e+00 -3.340918880564451299e-01 -9.678587194430976481e-01 -2.355932132385287758e-01 2.938273688497319291e-01 -9.302356019069506488e-01 1.181615468720319528e+00 6.571297315649555770e-01 -1.316166626673209938e+00 -3.303348352011961087e-01 -8.854573033821704353e-01 1.109966112914151370e+00 1.080231331870102479e-01 4.194069780485300547e-01 1.637101976107609991e+00 -8.603593710078093482e-01 -9.657244529583647319e-01 -6.930396752195125409e-02 -5.396994259701903829e-01 5.185379220734079864e-01 -2.411347416768345464e-01 4.356838493146551472e-01 1.470810271971723093e+00 -1.197035078166640149e-01 1.235567893675554751e+00 -9.823250236233775912e-01 9.472231478017987261e-01 -8.894301139724700711e-01 -1.440359488222160644e+00 1.061984692652359952e+00 -2.848848652796154846e-01 -9.445270829553952252e-01 2.109589428445560466e-01 -8.346049784298230634e-01 5.400293927606528710e-01 -9.268455246258793245e-01 -1.918501888395186122e-02 -1.329756928684381556e+00 1.000655334908177041e+00 -1.021687128678875345e+00 -1.224178284766368474e+00 3.885124462830856773e-01 3.396384832753421290e-01 -9.641451401392411302e-01 3.781943638719175577e-02 -6.302198763628020783e-01 7.779374774054286235e-01 6.750358910339958607e-01 -5.732458459384701666e-01 -1.335695749127377763e+00 -7.542749765227185765e-01 6.719819875298074230e-01 1.458891986322299605e-01 8.819620654593197662e-01 -3.865162914572500830e-01 -4.818217191130305666e-01 6.282334788457137886e-01 1.067425359990974432e+00 -7.162159812712493023e-01 -1.780986047734108624e+00 -1.110734316219307072e+00 -9.285860281053452958e-01 4.042531264552617909e-01 7.917174457526554576e-01 -1.767161545818334734e+00 -1.722192434715976272e+00 -1.235011628229387926e+00 -4.023265978309817914e-01 1.100025076163443083e-01 -7.215843151246595921e-01 6.730892932475189827e-01 6.039222357995946977e-01 -9.396764789273989171e-01 4.647375338276284462e-01 1.123964583710423071e+00 -1.057328153950592320e+00 -1.541810442382361312e+00 8.386559304217243715e-01 -9.944343797890570213e-02 -2.650535514727611619e-02 8.622194961909995792e-02 -1.387137406955296859e+00 -2.221806174710989346e-01 1.159876323041898027e+00 -1.058285337502124390e+00 -7.326169819437958197e-02 -6.575654127020521544e-01 -1.808453460648442590e+00 5.703442750440616826e-02 1.063302728294468036e+00 1.149331686933278807e+00
1.288660005044787393e+00 1.902814593561923118e-01 -9.469743048583156853e-01 2.454176197442882401e+00 -4.342244440604566824e-01 1.020301480148487094e+00 1.635160258036697511e+00 1.476635245343411451e-01 5.944876159778230695e-01 -1.431788914117508860e+00 -1.971388079028154050e-01 -1.519006662743545011e+00 -6.872797126295467907e-01 9.686188894543122652e-02 3.578482082275767362e-01 -9.808793494809979752e-01 -6.389929307553163795e-01 8.973344328835575201e-02 9.903617560382181884e-01 7.790638969653553847e-01 -1.339830937571006242e+00 -9.014900918023518450e-01 -7.877024485592605263e-01 -1.227963165298330495e+00 7.258889855127173552e-02 -3.842994728073098054e-01 2.869940807153906204e-01 -2.975351792341142665e-01 -1.010052513112798422e+00 6.213985135948160154e-01 3.947396963913206713e-01 1.084799035292132313e-01 -1.417469197469843900e+00 -3.057515638236415478e-01 -1.368339905516348987e+00 -8.571919981702008640e-01 1.932501308999059031e+00 -4.066476459679935762e-01 -1.163942377346366852e+00 -1.068197935801857845e+00 1.478509776421440235e-02 -7.018650612197470107e-01 1.636624725938085056e+00 -4.761021179985698293e-01 3.883029176009814704e-02 -7.356668587856195485e-01 -5.450765634973941953e-01 2.543231100067653294e-01 6.729806298307060286e-02 -1.794343548805632294e+00 -9.687558272959747585e-01 -1.029400304937326260e-01 -2.679804599885990957e-01 7.563984215261019273e-01 1.838645348311894190e-01 -9.270327493904575444e-01 -1.296889393217569020e-01 -1.296738318895436004e+00 -3.625152354618197542e-02 -1.790906529303682437e-01 -9.527488371765379105e-01 -1.508642790508540887e+00 -8.598254050698855844e-01 1.453844318979242933e+00 -1.114684729572148064e-01 -1.108379218299470281e+00 -6.777209689889924782e-01 -1.490571941610064233e+00 -3.939526211224472219e-01 1.019862938233031313e+00 5.228135734671955914e-01 2.499097061417374366e-01 -8.775066125162233055e-01 1.023434877651148600e+00 4.887268558429437304e-01 7.934088477627406766e-01 1.799842664442081519e+00 9.829239159998175435e-01 -1.901731240245482013e+00 8.352199714418040433e-01 -5.755043921656283201e-01 -1.369382247648531559e+00 -9.116310247992046589e-01 -8.895175646794459823e-01 3.452638303791827901e-01 2.405153882018406797e-01 -3.857304807815202796e-01 -9.220439928634426296e-01 -4.386176703528431586e-01 -9.371383959805400510e-01 -1.147092675778877746e+00 -7.515205193218229551e-01 -1.142265748235530953e+00 -6.633922627452700782e-01 4.837238537189136323e-01 6.925392422196599007e-01 -1.438266209052551092e-01 -1.087509412282475108e+00 2.141129356629372371e-01 -3.523535575230992561e-02
2.006837137880254085e-01 -4.620441777642436687e-02 1.251093159831607515e+00 -1.323596902204510428e+00 6.006358073645710061e-01 1.053776452764093596e+00 1.450727595218480159e+00 -2.007332607636695077e+00 5.871310309096946511e-01 1.316462288365928490e+00 -1.233897989165188225e+00 -2.888631568604789566e-03 -1.886006627499526633e+00 -1.016430262952803032e+00 -8.536655768434444624e-01 -2.595092952452441981e+00 -1.658228958080816273e+00 -1.869713431193581910e+00 -1.888928571680686730e+00 -1.098407268175122103e-01 -1.656430149224499493e+00 -1.809019505029823449e+00 -9.748550585515641798e-01 9.703064355014553444e-01 -6.146798348623173647e-01 1.109398025033551782e+00 8.793764087080775671e-02 3.657344822731520839e-01 3.608801504252188985e-02 -7.006537161053443263e-01 -7.630266371602282272e-01 -1.253910043123440676e+00 1.376393651362174175e+00 -8.499377226239464012e-01 -4.702752687136358967e-01 -4.433523305178772023e-01 8.303112292500181013e-01 -4.157199075936097721e-01 1.278741496088184659e+00 -5.553435119830029132e-01 -7.187918156314562212e-01 -7.273234662459339139e-01 7.808577514651104945e-01 -4.400045438308270440e-01 -6.139158282285995805e-01 -1.113530524208534711e+00 -3.005898374929051320e-01 -2.119107913644703522e+00 -1.020756954796730787e+00 -1.374445870684258608e+00 -8.197798296130525131e-01 9.392402159494621650e-01 -6.128410589798762853e-01 1.424748865927595032e-01 -4.190356969201197157e-01 1.899880117174831684e-01 -6.430838757104854198e-01 -2.299013824976443299e-01 -9.250202858912064396e-01 -3.343965105899225354e-01 -3.691704108329305623e-01 8.935950889610976278e-01 7.822526662194385638e-01 -2.585008072556980618e+00 -1.029397229376927347e+00 1.393467182158469209e+00 6.272491605677582571e-01 3.393254157915230884e-01 1.062672659989671642e+00 7.786906732521924335e-01 -4.609782193956289409e-01 2.538339106478617158e+00 -3.506672086522849008e-01 -1.953312768269635180e+00 2.104281819976437651e-01 9.880261795762204091e-01 -4.498282657368620208e-01 -6.306834835321040167e-01 1.247014074050702304e+00 -4.318215731678289870e-01 5.871226412489114477e-01 -2.777456914866244242e-01 1.148772540812025067e+00 7.167404146408579146e-01 -3.020171668672235188e-01 -1.620563984446889094e+00 -1.218144665220630918e+00 1.059661031959628352e-01 1.045710013828938800e+00 -8.106452891098266944e-01 -1.027603667136453014e+00 8.450760507717747227e-01 2.731871259274437636e-01 -6.878413661714515293e-01 1.892373738443732911e+00 6.078652008725778100e-02 -4.915962936115958470e-01 2.856060522577009708e-01 1.666367324175611619e-01 1.512509211914134510e-01
2.049783901379032547e-01 -1.003082542000808930e+00 -7.246537022262752314e-01 -5.596410349103195930e-02 1.635657120494625971e+00 -1.526507581306181915e+00 6.048743878862107293e-01 -5.413644672574983163e-01 -1.025958450145392220e+00 1.504824558931814105e+00 -2.423248012472410395e-01 -5.631935506697264282e-01 -1.313494747563322518e+00 6.981149820947056828e-01 9.623469005377601748e-01 -8.469967361505825743e-01 -2.285306956633129438e+00 -1.401914084220337253e+00 -9.930659458350578062e-01 -1.016022037146840695e+00 3.392735554199483583e-01 -2.181246377422993987e+00 4.991106045343258329e-02 -1.404912559060921273e+00 4.714283309372964137e-01 9.532093998293487136e-01 -6.754883208215434198e-01 7.756850227223905936e-01 -1.190020820174223726e+00 -3.162056887788557424e-01 -1.552309863521162958e-01 3.604955221847503943e-01 -1.023796082885777281e+00 -1.025502172402548984e-01 -1.454211584282976810e+00 -1.027277473902203697e+00 -9.142107580611875672e-01 8.609313988477254043e-01 1.013864146017116941e+00 9.553737379405121688e-01 -8.230766038450118005e-01 -7.064990359300739042e-01 -4.411090022492986651e-01 7.710533218025070745e-01 -6.076336826786336021e-01 -1.028144365297055218e+00 -1.250827392789317427e+00 -7.874859300691111619e-01 -1.585655501013708557e+00 1.011468873621251374e+00 -1.425031530776717403e+00 -1.485319573608649746e+00 5.256538249350966030e-01 -8.658205924714527102e-01 -7.237883107486897671e-01 1.704833001638651480e+00 1.666038714646952690e-01 -1.150817892586894348e-01 -3.441822807645334992e-01 2.516658604535311206e-01 1.439097865808369292e+00 -2.008699845473956580e-01 -6.235750655494044503e-01 -1.655123216184009483e+00 7.214910454348346658e-01 -1.082416897742773276e+00 1.131887137015769040e-01 -1.630416153057773210e+00 -6.263617262165516175e-01 2.566557419929046402e-01 -8.747441348584202858e-01 -2.491884460951912517e-01 8.354473548636484059e-01 1.929165130876993262e+00 -4.316797398761902382e-01 -5.841937307219463582e-01 -2.495199881544108989e-01 -8.786060926353683742e-01 -3.876862616915881937e-02 9.039887680137216330e-01 -5.499312494745673963e-01 -1.926003923315793953e+00 -8.992990330234712504e-02 -1.063033857797132775e+00 -1.764110148239047993e+00 5.695257964738928980e-01 4.358186952225754363e-01 -7.139236607237764431e-01 -6.878241734322040335e-01 1.343863937004259324e+00 5.482018966944202099e-01 -1.205485335359538723e+00 -9.326542602576605168e-01 -2.831138376334366158e-01 -2.459703374716364799e+00 -1.583762996875461293e-01 -4.711347286864875361e-01 -8.910560234883864172e-01 9.436445132515840495e-01 4.018225019677751364e-01
-2.959365924873668341e+00 1.225387868740642483e-01 -1.365125835588391290e+00 1.642322315929906740e+00 3.366741396354669402e-02 -1.652311892117431791e+00 -7.738222922195038267e-01 -1.642412402050455356e+00 -1.279533541889277259e+00 -9.343926065784757817e-01 -1.214450314446380963e+00 -1.574016094738282856e+00 -4.920237660793177481e-01 -2.555176206264996863e-01 6.855999457593235924e-01 5.784873190501721441e-01 -1.097679838119118706e-01 8.865254840872652808e-01 7.282658035381998074e-01 6.373823583790051428e-01 9.429083190956578653e-01 1.000899193390139885e+00 8.010496553808922338e-01 1.182066569321892802e+00 1.753236067450590074e-01 -1.309827193828640990e+00 -2.363607429001176818e+00 -5.034328782757654386e-01 2.896753117580924686e-01 -1.287016369041295683e+00 -5.174391301394902776e-01 -1.218266236814269154e+00 -1.319009907378047242e+00 -1.247584376976314635e+00 -8.397870091143473381e-01 4.846992067604057319e-01 2.565915109347690626e-01 -1.031993064297104246e-01 -1.170898608884914038e+00 -1.830191223356131935e+00 5.897181580832481229e-01 8.367393957725204334e-01 2.156325593778891936e-01 1.020027838898101891e+00 2.850858398813319039e-01 -5.432235709283731451e-01 9.597806944794651240e-01 6.679736959675254271e-01 7.517827275523870922e-02 2.491635710761193334e-01 -7.209923902030757059e-01 2.162029692502303868e-01 -1.388623639506846308e-01 -5.273620836060067818e-01 -1.258511397144122523e-01 1.138759014697634936e-01 -1.113365456877683179e+00 -8.598389076867544167e-01 -1.689823584987607763e+00 1.730232160166570443e+00 -2.942199180852605456e-01 -1.582712844283155063e-01 6.286234032779755010e-01 1.852432398851273421e+00 -7.565275620461591188e-01 4.550690770838000665e-01 3.484227004879921763e-01 1.669495031987328765e-02 1.075808168834487599e+00 1.484645104377701808e+00 -4.758477232133561108e-01 1.141071153358960144e+00 9.656676933085371894e-01 -8.001484427931887522e-01 -3.519031859224903691e-01 -5.532394579994204253e-01 1.628023860483942986e+00 1.261239868518550591e-02 1.408259686104330610e-01 -5.513290071104813839e-01 -1.368701922714570918e+00 -2.162364998633962698e-01 9.256983737556775393e-01 4.796131767345142016e-01 -6.409979204811834252e-01 -1.309042963490116174e+00 5.023739405815216275e-01 -3.858192389671559197e-01 -5.990417474528590969e-01 -2.087315223590407776e+00 1.382946594385366712e+00 -9.599827035103907225e-01 -2.006693816539222852e-01 -2.263743287718420760e-01 -5.451263171293360132e-01 -3.702167172386361393e-01 1.423328508926659630e+00 -4.122495815066146152e-01 -1.834463208234882403e+00 -3.345839038040243629e-01
-1.329915669731373873e+00 -3.299310803012329707e-01 1.619216456920286706e+00 -2.820402665364578065e-01 -2.566859672696378158e+00 1.370434219655189745e+00 -7.296279799307131553e-01 -7.033125169346439165e-01 -6.771552754440193223e-01 -3.275364494241185809e-01 -7.377956200940852804e-01 -7.742185351899778523e-01 -1.245379361493660575e+00 4.676870156245991339e-01 -1.227093498806528959e+00 -1.277206864152603760e+00 -4.142072459000192275e-01 -2.433528590554081106e+00 -1.149143848329832601e-01 -2.806508192259120071e-01 -8.539107527045515234e-01 1.655784457163646639e+00 -2.563027307671963406e-01 -2.813760528241711079e+00 -6.482092151348716191e-01 -8.729177456294514581e-01 -6.870901609326937054e-01 6.673790848480248838e-01 -9.342351491131939412e-01 9.633785213300358197e-02 1.498452295336393236e+00 -2.917069197489146615e-01 5.525970087344691528e-01 -5.467993494567295887e-01 1.193067905701350906e+00 -1.394197123944691807e-01 3.185937448768852986e-01 1.339858494250897591e-01 -4.163089988375537343e-01 -5.434716094273041032e-01 -3.062904857103562750e-01 1.465716886666254826e-01 -1.014684782983378719e+00 -6.674249898318419527e-01 3.106382181337349335e-01 7.094649725376473981e-01 -1.060138575119481619e+00 -2.786443600648561003e-01 5.194172719067731148e-01 -1.466559568170364924e+00 5.911011690235973282e-01 -1.526942932691802424e-01 -2.194813146896497646e-01 -5.744535300779849418e-01 7.071570071431491078e-01 -1.814674777870564082e-01 1.825613105137810846e-02 3.672855008634807739e-01 -1.406385357208388864e+00 2.018508428098023666e-01 -9.677047688622469890e-01 -1.002215043531717864e+00 6.242788903779606935e-01 -1.148505875471474841e-01 6.974980765657630144e-01 -1.013047747879090021e+00 -7.035722967403785777e-01 -2.605677265926586994e-01 -1.262327483757175850e+00 -1.174790153912717905e+00 3.010849731992033818e-02 -1.621747557863076061e-01 1.000163554950279921e-01 -1.038691500537735485e-01 -1.160659562241680209e+00 6.983191305503205770e-01 2.068388227152830605e-01 -1.585241611036839249e+00 -1.046967901944106494e+00 -1.638209454553763100e+00 3.660323294403333705e-01 2.019308300426261749e+00 -2.360321926600952303e+00 -2.977535952287666543e+00 8.354578889942264608e-01 1.140785133671019969e+00 1.599400968842543957e-01 1.790483089834003172e+00 -1.440433703976318425e+00 4.598055816744068824e-01 6.255250106376951669e-01 1.269240954071753524e+00 -1.676952731010393771e+00 -2.606630748487030136e+00 -2.879340168677068101e-01 -7.897636743215304955e-01 2.065552735121571004e+00 -2.263631975228117266e-01 3.906971818197158552e-01 -1.259020784421408745e+00
2.364232542650469782e+00 2.768326415559183573e-01 -2.375100000146852519e-01 5.471625358302547593e-01 -1.158165375001815489e+00 1.431383980149899759e+00 -2.043443219489716522e+00 -8.304701932797334818e-01 -7.359494918771006811e-01 -1.646723788052036230e+00 1.458163839486268820e+00 -1.643984568183789685e+00 1.150974812166337680e+00 -1.136819143786333530e+00 -4.898473438669825319e-01 1.431845974745396655e+00 2.180208068582512038e-01 -1.410496644158972801e+00 2.688412869321332166e-01 -3.550090773994728499e-01 8.342213100246975710e-01 -1.130183756402161510e+00 -6.576447110650081029e-01 -1.262888924630900078e+00 1.148402740630622559e-01 -8.323506170646822744e-01 -1.080892882937280808e+00 6.512325281022764978e-01 -9.764924438848501809e-02 -6.463359239040562532e-01 -1.388133403722558334e+00 6.656224575498259632e-01 -1.441072286332827357e+00 -9.709963695407279882e-01 3.547532193070119799e-01 -6.410649769371977724e-01 -1.206701175306533091e+00 2.622126468676908573e-01 -1.541880743498091677e+00 1.208691743984816380e+00 -1.695199901057999003e+00 5.779808332157541084e-01 -1.102675426446401596e+00 -9.514954920912755965e-01 5.978521093847233292e-02 7.640095107140193464e-01 1.322090505291731999e+00 -1.787147479249119875e-01 1.129760688100013288e+00 -1.257961237640393470e+00 -5.095724242205850185e-01 -2.407263926291336453e-01 5.983888013990491528e-01 -9.299614955099760882e-01 4.680361252755205759e-01 -1.640926977790132801e-01 -1.564328380092391502e+00 -1.008979243423466121e+00 -1.857045131657903692e-01 -1.476653061462661176e+00 -5.254917823029925383e-01 1.318161334299666754e+00 4.668509826121943207e-01 -1.054526035411698093e+00 7.239401420265640930e-01 -1.153188345638872930e-01 5.029592258001002181e-01 3.408911486445648786e-01 -1.599843794786504070e+00 1.196302833936920829e+00 -4.679333716130180953e-02 -2.544126851720477589e+00 -8.001582818013988074e-01 -1.883828192862925244e+00 -4.623376496858473961e-01 -7.876093269031387845e-01 8.624633256126631453e-01 3.417176335750652938e-01 -1.114678205720840420e+00 -1.458344285842852750e-01 3.449179839828658833e-02 6.548900524893193076e-01 -1.241817443351808103e+00 9.569067160860831311e-01 -1.319140737955835307e+00 1.039815040022328496e+00 -4.726515857312142965e-01 -1.535771018295843282e+00 -9.583683327109226990e-01 -7.813524081940678156e-01 -1.605162201273331979e+00 -5.856429143436613360e-01 1.064241818217960711e+00 1.654736139678981977e-01 6.985919040945960390e-01 -6.411358415673778198e-03 1.504787328593285789e+00 -1.062603427313058235e+00 -8.633992544515740608e-01 -5.958811565343284655e-02
-2.281403024008560543e+00 -8.470851940095699972e-02 9.552449849094742929e-01 3.988779480186239179e-01 7.833431102477694807e-01 -7.094434110074497868e-01 -1.148312862359074815e+00 1.313064128596758584e+00 2.097776426216871326e-01 -5.714849990774742983e-01 1.015983207710570380e+00 -8.238012456124191862e-01 -2.446768185613705793e-01 5.294253823641718038e-01 -1.750040587493500166e-01 -8.998829285528146815e-02 -6.925702567913718521e-01 1.677724684756939144e+00 -2.123413369835864373e+00 -9.208054905256752853e-01 -6.074863044284706248e-01 1.820127157223930592e+00 -3.309081698517433168e-01 -5.350291591777791567e-01 5.467794311852814948e-01 9.166729378964988406e-02 -5.139055799159427673e-01 -1.152507332661032863e-01 7.898660170491231813e-01 -1.268528088779667051e+00 -1.191453337823131786e+00 6.147722295353990063e-01 4.553659999245716072e-01 -1.105887460390368782e+00 1.226066074507088377e+00 7.170319631055445397e-02 4.075728151316742043e-01 -1.313489361784183629e+00 -5.947487750095108439e-01 -1.021528235769462611e+00 -5.044228919958964052e-01 -2.018503376552300832e-01 -2.891004284763142376e-02 -1.798183104244414632e-01 -5.758362126376245227e-01 -4.738216105776771325e-01 1.698567627890506859e+00 4.540442980681030916e-01 -7.620000194086808953e-01 1.741306278336846480e+00 -1.552122815260636335e+00 -1.421020927812216783e+00 -7.339200862030206274e-01 8.706814937285768385e-01 -8.746531840987198381e-01 2.102580360604540954e-01 -2.726091076973103378e-01 -6.204143099809513728e-01 8.175180207383205833e-01 4.421401109426179032e-01 -1.441907758826145060e-02 -1.960386545698229455e+00 -5.571896192369745204e-01 -1.153236600847317384e+00 -6.469794527036275555e-01 -3.441129678733112485e-01 6.421508256325855202e-01 2.090980050942585489e-01 -7.709438312810650284e-01 6.260399053855063289e-02 4.646431581818169509e-01 -1.779569836369525371e+00 -2.154221148201448388e-01 1.687517150235719354e+00 2.040958625382986114e+00 6.100033179020560858e-01 -8.658227618847136320e-01 7.174907734553735983e-01 -1.397261579390748798e+00 -1.348948049670482430e+00 -4.374071677718603945e-01 -3.877143243242868742e-01 2.827437941460402837e-01 -2.539962022306800904e-01 -5.289462321622092622e-01 2.206234416197508652e-01 1.024558470454832060e+00 -3.758659406736539754e-01 1.067975080502669094e+00 5.833292374067527986e-01 -2.147898929146416336e+00 2.542131375181409525e-01 3.990140190595196090e-01 -4.638261516049981825e-01 2.099363163393735299e+00 1.785024874620185498e-01 -1.500015777065211386e+00 -5.980932777176689585e-01 -1.118436493850795133e+00 -5.502849459957112610e-02
-3.633938694279560955e-01 3.578973398180623766e-01 9.425277195532691943e-01 -1.917162189348687873e+00 -2.117708260002693521e+00 -1.440409351835879370e+00 -1.234490953572685124e+00 -5.525432816778931278e-01 -1.661316623139969861e+00 -1.277809509671587573e+00 -3.218485156275973647e-01 -2.873777019370775676e-01 1.133393741746516747e+00 -1.190305472428837108e+00 -1.027694735989574060e+00 -1.023666262894455725e+00 -3.553406896224182709e-01 -1.197773729893778505e+00 8.114765877700487184e-01 -2.025552666530254342e+00 2.819440904800867287e-01 -1.501620361724349095e+00 -8.967065605709281240e-01 -1.338969874371859659e+00 -4.729075885714517646e-01 -7.673965886853888474e-01 6.136959775605721479e-01 4.149966532587476831e-01 6.318927766762957310e-01 2.140505748743412873e-01 -1.420903060874922019e+00 9.173331592184083561e-02 6.704653000169068511e-01 -1.426487970600426092e+00 -9.549593208202150629e-01 -2.774647402401113072e-01 -3.255484174071334724e-01 -8.027491547804370686e-01 1.214407749863542607e+00 -1.805380189148701575e+00 5.771964812400708356e-01 -4.817740829731519958e-01 9.970119272394506460e-01 -3.955577132174721844e-01 6.839477208156110599e-01 -3.684918598217702956e-01 2.623498017291693921e-02 -1.236991964528328491e+00 1.581039443522568089e+00 -2.097386513666914087e+00 8.137057274035872645e-01 -1.323732845526064184e+00 1.091771622177849510e-01 -2.848042429290962296e-01 -2.825932192315527280e-01 -1.336452910060848209e+00 -1.304219445240360209e-01 -3.849100191583659097e-02 -1.707897693154421193e+00 2.635968790929791306e-01 -1.784846087158605821e-01 -1.231926449756191477e+00 3.516806976792224426e-01 -2.949772059179737727e-01 -1.937532586785909450e-01 -5.102670866748260092e-01 -8.877053627126713087e-01 -1.763459901903281724e+00 -4.842334134572697790e-01 -1.382841729028389866e+00 -1.288729764456294280e+00 -8.260952990759767856e-01 -9.964482997586622537e-02 -3.493459982649880780e-01 -2.061226538402236574e+00 -1.727918424906128791e+00 -2.462561847890352595e+00 1.753929305653343096e-01 -2.564921891756483108e-01 -4.241597200447972393e-01 -9.888469913061358474e-01 1.223043251131939346e+00 8.131403407463494437e-01 -7.694870439764013303e-01 -1.623606365629365778e+00 -3.585999979343684196e-01 -7.628304950863865619e-01 -5.619718400191540120e-01 2.909708862771581139e-01 -1.554936078835359226e+00 -1.679117510665807389e-01 -1.734191382047477026e+00 -1.877488183145680445e+00 1.292483674182018261e+00 -1.374593614886100212e+00 4.146091710542967879e-02 2.349698381974640038e-01 -1.474345686244297848e+00 1.803466479358271757e+00 4.824287571117522044e-01
-1.415532958457971890e+00 -1.707688705487237391e+00 -1.385888369218312599e+00 -1.194112508698816466e+00 -1.836119227941923837e+00 -3.530078748671601485e-02 -8.726171575582227780e-01 6.677648082931718632e-01 -1.330870360474528669e+00 3.165348260177882622e-01 -1.354360244058850027e+00 -3.016934706522892556e-02 2.223858690271284244e-01 -1.855706805478858079e-01 5.304881261257313740e-01 -9.026633955536332854e-01 1.440468037535332257e+00 1.604371587389291198e+00 -1.160506172182650175e+00 1.096316434635789872e+00 -3.217220056827534841e-02 -2.694785119343532376e+00 5.839966340943402168e-01 1.295784006505591668e+00 2.929126283013140930e-01 -1.030193991072422266e+00 8.019001001875835088e-01 6.284201239212794388e-01 -6.003306347336750948e-01 7.760947087323979421e-01 8.531456993823900437e-01 -1.042625044094831699e+00 -6.509867835917793055e-01 1.768837329376041101e+00 -1.947808688394235821e+00 -2.691736283887607994e-01 -1.400010779708244779e-01 -1.476056148129181400e+00 5.469308787393840632e-01 -7.685693311610548584e-01 -1.532255557875971119e+00 1.563287948509274328e-01 -3.750512355694021194e-01 -8.986722297896079237e-01 2.598091032794680455e-01 -8.964762347157856359e-01 -2.346408767752949043e+00 7.094223905536000130e-01 9.455921710337757968e-01 2.663950602501818921e-01 -2.165789984145912936e-02 -8.743721761962660599e-01 3.985939619810563439e-01 9.542553495225815086e-01 4.515783006601776783e-01 1.365687781266899381e-01 3.156122959885122176e-02 -3.134977383831630271e-02 1.035428910520440171e+00 -1.349056248556167459e+00 2.079355474197772391e-01 1.290452194071691316e+00 4.629656222020608197e-02 1.055856602887246254e+00 -3.373164338484500521e-03 -1.738906348097258858e+00 7.172651208253968402e-01 -3.110790284661463234e-01 5.584874024175660034e-01 -2.072402733683142539e+00 -2.951825706925483295e-01 -2.143724370012472402e+00 -3.279467580872393317e-01 -1.477676968929394707e+00 -3.387112313860464408e+00 -8.490033046083773904e-02 -2.413727823764969249e-01 -6.948495787018814374e-02 1.517960444937383746e-01 -3.926316904697084165e-01 3.034287706287689956e-01 -5.766501481422245945e-01 -3.857380804565531118e-01 7.086116050851962722e-01 7.091529660645806699e-01 6.584005664207241981e-01 -4.383974763677808140e-01 8.163620529398142589e-02 -1.366291367498911669e+00 -8.779509052713813100e-01 8.436141409495225840e-01 -1.380494601653030173e+00 -2.627343946220253024e-01 7.928522469737900313e-02 -9.560160935695949380e-01 -8.173489595765244253e-01 -2.075694678082696532e-01 5.350866429315519479e-01 -2.144167487937671535e+00 -1.632198866358868239e-01
